458 128
457 0.26572412 -0.16980575 -0.863995 -0.41857105 -0.9048757 -0.33708584 0.8657102 -0.18788698 -0.43745077 0.42292875 0.92393154 0.4140871 0.28887233 -0.4295827 -0.40012458 -0.44562668 0.7552975 -0.262159 0.116997875 0.16370784 0.31155413 0.39085993 -0.43525705 0.65519255 -0.7642987 0.90392745 0.26390657 -0.41886193 -0.72847736 0.21444124 -0.7449096 0.6262318 -0.03859399 0.27492622 -0.022108665 -0.10144485 0.56955385 -1.131706 -0.49104133 -0.779879 -1.292342 0.3920288 -0.218419 0.5874392 1.2250221 0.22274154 0.13194562 0.62600064 0.1548503 -0.3318895 0.88282716 0.79477304 -0.7802321 0.7907635 0.31344134 0.8665976 -0.46872088 -0.13671759 -1.2678692 0.24056327 0.23135136 -0.121922456 0.024627894 -1.7798634 -0.70848644 0.53442323 -1.87948 0.43573612 0.13228953 -0.15839277 -0.44829774 -0.15390986 0.65195394 0.1313086 1.0681821 -0.117293455 0.16972601 -0.04539978 -0.25794727 -0.29060498 0.87546057 0.5354738 -0.57674557 -1.0127178 0.33655834 0.61300087 0.74794155 -1.2756993 0.48873478 0.2544419 -0.9271296 -0.64238924 0.30604148 1.1012651 -0.5626069 0.9646986 0.22112927 -0.031092087 -0.08255801 -0.67101943 -0.014946928 -0.20324536 -0.8666809 -1.1097982 0.0018501448 1.495753 0.5707317 0.5124281 0.62867886 -1.5944405 -0.9662576 0.044893194 1.5584711 -0.6769617 -1.0360506 0.37897563 0.43172386 0.07103908 -1.2029274 -0.6104644 0.44986832 1.1246196 -1.1141269 -0.9440909 0.3403237 -0.3241739 -0.08500115 0.112295784
443 0.44291845 0.8512955 -0.15029696 -0.43364444 -0.05358161 -0.042542662 -1.2631884 -0.77980787 -0.4031091 0.86045545 -0.12620199 0.526445 -0.9278814 -0.089721866 -0.93393433 0.3777105 0.20317003 0.44529843 0.84034115 -0.6618437 -1.0349743 0.6515754 1.756991 -0.70280325 -0.50808233 -0.6916118 0.8741796 -0.6989538 -0.8675152 0.5425958 0.6948464 0.27063006 0.07483905 -0.38875592 0.6103683 0.21415102 -0.6915907 0.16239634 -0.48852268 -0.43039405 -0.6753625 -0.16781928 -0.7801745 0.08231685 1.4270284 0.31527716 -0.46911892 -0.39868325 0.4399487 -0.6169497 0.9438318 0.1145237 -0.24733087 1.065949 0.36850736 1.382546 0.66881573 -0.9237764 0.47317696 -0.115514636 -0.3331603 -0.38235626 0.31945014 -0.78236324 -0.11276094 -0.01547228 -0.13266587 1.015234 0.5743368 -0.5565319 -1.6439832 0.2208714 0.8979842 0.39277494 0.46639094 -0.33073065 -0.5655364 0.29724988 -0.18762715 0.112280525 0.75719047 1.0660385 -0.22527605 0.48444885 0.13374752 0.55329436 1.2341614 -1.3015475 -0.10717825 -0.5318367 -0.3426797 -0.33294037 1.002243 -1.2612784 -0.17969549 0.6516739 1.1618502 0.3558765 0.1985572 -0.14711376 -0.4007761 0.4942287 0.07582795 -0.5494629 -0.73384684 2.0035417 0.44090238 0.33642527 0.04339297 0.56447506 -0.3472576 -1.1830146 -0.016452866 0.5767381 -0.4374003 -0.15227738 -0.59448445 0.48710993 -0.89383763 -1.3608228 0.28554028 0.1836421 0.40866396 0.5174917 -1.0469266 -0.17760095 -0.57708645 0.17211238
226 1.5323277 -0.11886244 -0.6678516 0.17580651 0.7548077 0.27268374 0.49631664 0.26861176 0.7031208 0.51383376 -0.6782162 -0.014237465 -0.2076784 0.20948108 -0.8872993 -0.7202198 -0.37542605 -0.94083834 0.33062083 -0.03269877 -0.22255893 0.1904155 0.4498473 -0.02672443 0.21705675 -0.9709935 1.1021951 -0.007075358 -0.61334914 0.8288162 -0.9015824 -0.22324124 0.07070346 -0.84767777 -0.32283688 -0.50217927 -0.3112183 -0.7091776 0.8977963 0.8277694 -0.55688834 -0.4537431 0.029202769 0.62566996 -0.3062787 -0.4595645 0.33917686 0.28860343 -0.042960048 -0.6819034 0.8543382 -0.48056683 1.2019325 -0.29802012 0.20059009 0.5093186 0.42626026 -0.30187267 0.27004504 -0.18083379 0.33254507 -0.9772798 -0.0050129737 -0.28268024 0.4541798 -0.15067483 0.53495646 0.8310609 0.22089729 -0.86343384 -0.55347884 0.5370675 2.3386083 0.23236717 -0.8914733 -0.549264 -0.15375549 -0.033903502 -0.6723852 -0.31887192 1.4167947 0.51699024 -0.9949343 -0.7468549 -0.4783896 0.24948338 2.5040054 -0.6342549 -0.51653886 -0.38887075 0.21930438 -0.12709954 0.6887237 -0.46558067 -0.36057925 0.5307467 -0.41546524 0.07043888 -0.63376075 0.12868552 0.39427337 -0.23590423 0.023887187 -0.816801 -0.92605096 -0.57807016 0.7364832 -1.0043534 1.1232644 0.020224605 -0.6220256 -0.31455022 1.2470692 -0.15516156 -0.27287564 0.43428758 1.1483909 0.24785376 0.49771586 -0.23902205 0.6043756 0.27725744 0.09779195 -0.22713803 -1.4580499 0.79899293 0.5156096 0.28565532
63 1.4166702 -0.5854392 -0.94809175 -0.84160024 0.46839422 -0.53416246 -1.5093093 -0.030747524 -0.07150723 0.5327227 -0.20621163 0.11369571 -0.8663729 -0.054085672 0.2793212 0.395836 -1.2782949 0.19629641 0.77289724 -0.58607495 0.34076488 0.24580722 -0.8176364 1.8292332 -0.91388905 0.5763385 0.6462889 0.41316307 -1.0945727 0.8836373 0.6595545 0.8458431 0.9061413 -1.6983085 0.3473888 -0.2577618 0.184711 -0.65898055 0.84919757 -0.37274182 -0.79988515 0.3643137 -0.9808871 0.14127398 0.39636788 0.5899118 0.488132 -0.42752096 -0.4766911 -1.1796068 0.6192348 -0.63577175 -0.2607181 -0.5984451 0.5507268 0.6697329 -0.5787881 -0.86547905 -1.1335772 0.39395043 0.7153365 0.14354059 -0.55631036 0.03776308 0.076043375 0.47353217 -0.6056132 -0.27417704 0.1907043 -0.86769754 -0.8759618 0.65572095 0.60863584 -1.4159646 0.83933616 -0.8028002 -0.0779626 -0.47691095 0.37293282 -0.0062981863 0.4727433 0.47370481 0.63539016 -0.98824614 -0.89434636 0.023463385 0.6652385 0.124580935 -0.15294112 -0.23781058 -0.91865116 -0.3916592 -0.2704678 0.063261084 -0.6361892 -0.15650608 -0.041038923 -0.565919 0.2149217 -0.20047481 0.49847528 0.89117897 0.3115013 -0.65394557 0.15790187 0.48130226 -0.12274933 0.38727275 0.24229519 0.07126241 -0.90667844 -0.029272271 0.8166256 -0.36184046 0.32425022 -0.47058132 -0.20009238 0.5120503 -0.66421527 0.31110665 -0.2141892 -0.030218886 0.16221689 0.018531179 0.34723312 -0.37053576 -0.28804603 -0.39779717
160 0.4965872 -0.037874617 -0.74165446 0.23085412 0.123148374 -0.8699393 -2.0479953 -0.22075713 -0.8890372 0.20302057 0.11197119 0.24413754 -1.6524899 -0.1010545 0.3213847 0.5290109 -0.6005775 -0.7378549 1.6111847 -0.3250255 -1.5589286 -0.2552128 -1.1769081 0.789748 -0.09959734 -1.2052963 1.1343414 0.86295897 0.6221996 -0.21064903 0.29280236 0.73400533 0.70507574 0.2740382 0.49487495 0.8472389 -0.653085 -0.8424055 0.9797986 0.37977442 0.7583555 -0.24771304 -0.26512858 0.5898826 1.3329924 -0.87842953 -0.54938984 -0.05506937 -1.3615115 -0.31018975 -0.640403 -1.1241438 0.39969793 -0.928995 0.9496845 -0.04506923 0.07467915 -0.9353291 -0.22712575 0.91320163 0.38067982 0.17843837 1.213375 -0.42595714 0.07288072 0.26415017 0.2445691 -0.04127545 0.45349863 0.4231307 0.56509316 0.6688846 0.73496646 -0.17054692 0.8839486 0.19356766 -0.35934955 -0.9747224 -0.691043 -0.16963813 0.11915859 -0.0037310252 0.24654242 0.4462992 -0.034798965 0.29303 0.37532854 -0.99913496 0.05786646 -1.7140198 -0.15700303 0.09382174 -0.37210396 -1.2331473 -1.0438969 1.0138249 0.27037725 0.44876212 0.567137 0.039647516 0.3071438 1.105851 0.19786547 0.016555052 -0.4110059 0.60618407 0.39842042 0.3229026 -0.818259 0.14086215 -0.1445293 0.55298096 0.91955984 0.27923527 0.3986286 -0.01721755 0.6975797 0.16768076 -1.2326612 0.785998 -0.2880486 -0.08965047 -0.40599442 -0.06498682 -1.7220039 -0.9176625 1.4381374 0.06559668
249 0.92074794 -0.15228967 -0.09603914 -0.90284914 0.54394066 -1.516672 -0.8714357 -1.5781598 -0.52676016 0.743152 0.44916412 0.57082236 0.030387158 -0.30707896 0.023647975 -0.10946761 -0.95504236 -1.5793197 -0.29193148 0.3929703 -0.22812635 -0.49583378 -0.521827 0.73501784 -0.56009704 -0.06280135 0.15849079 0.3916432 -0.15362431 0.054888424 0.11613414 0.92208815 -0.03711244 -0.4437522 0.6340149 -0.64816654 0.43192163 -0.38818315 0.049866002 0.27886072 -1.0394472 0.011821347 -1.2628249 0.42222533 -0.5173642 -1.2230757 -0.9683638 0.16302969 -1.1109324 -0.56789327 0.10999039 0.30960137 0.15042013 0.36131126 0.1131196 0.93982434 1.7566231 0.47650543 -0.38911965 0.10192024 1.0332408 0.31360385 0.89531034 -0.80011576 0.19483466 -0.16186734 -0.34399644 0.3255769 0.2121411 0.107226625 0.3644809 -0.74917996 0.53996056 0.1492062 0.32845372 0.16728689 0.024418216 -1.1535496 0.5144161 0.33772606 0.0054569156 0.33199474 -0.30263245 0.085229784 -0.22289361 0.017806862 -0.28230554 -0.38838252 -0.71159613 -0.23166494 0.61023253 -0.5226382 -0.25021407 -0.9744712 -0.77715576 1.7500035 -0.9939849 -0.3540026 0.7787501 -0.071085244 0.15507348 0.8934541 -0.49998078 -0.589031 0.009844874 1.6470953 -1.799858 0.17024304 1.3660043 -0.2537364 -0.59984046 -0.17482191 -0.074899964 -0.6872337 -0.1533277 -1.5014337 -0.99930286 0.39928263 -1.0235944 0.41955876 1.291051 -0.25149184 0.04358661 -0.46733508 -0.2545939 -0.2836396 0.42343467 0.4523428
441 -0.12280025 -0.15211418 -0.24802764 -0.1448124 0.4472541 -0.35765544 -0.20537607 -1.3200474 0.65383875 0.036474727 -0.92553866 0.39039293 0.5723509 0.6135168 0.11272372 -0.69349855 0.31099272 -0.8861265 -0.24322113 1.1665163 -0.88195497 0.15338212 0.66807294 -0.36625874 -1.5583832 -0.93543184 0.9673846 -0.17861208 -0.9101042 0.66705775 -0.1659251 0.858158 0.4178825 0.4571214 0.74969673 -0.6139816 -0.8482717 -0.86530703 0.5230351 0.049866624 -1.3730301 0.9338748 -0.3166917 1.4287025 -0.5475594 -0.42189267 -0.5986483 -0.8625272 -0.531209 -0.44280592 -0.17858227 0.47611612 -0.094515845 0.18797679 1.3061305 -0.13103762 0.10413878 -0.11005271 -1.5472333 0.6075219 0.81091744 0.5252849 -0.054072205 -0.35380557 0.21935807 -0.41266438 -0.28723505 0.7936288 0.0024531083 0.35234922 0.709257 0.77943325 0.17547236 -1.3279645 0.43793926 -0.82094455 -0.26518565 0.081563264 0.46387136 1.1292391 0.49033833 0.57957226 0.3259158 -0.17020217 0.6943936 -0.23950975 0.8956647 -1.4682227 -0.85458034 -0.4500529 0.31223497 -1.0728052 -0.74248767 -0.17302887 -0.12687634 0.4522854 -0.9956145 0.39987642 0.22001009 -0.9236324 0.33981535 1.2747167 -0.48085776 -1.1191095 1.2573575 0.86776567 -0.02822836 -0.493154 -0.07649102 -0.34291 -0.064745955 -0.37513244 0.9256395 0.96528757 0.56048644 1.2254069 -0.09594352 -0.21165772 -0.80163 0.02085337 -0.27921692 0.40556833 -0.32604426 -0.47939733 -0.8956831 0.21169902 1.2437794 -0.40052837
412 0.41330868 -0.9293771 0.12019979 -0.3151933 0.44746834 -0.49400073 -0.66537184 -0.048738368 -0.21552382 0.44824228 0.017782465 1.1095303 0.39831436 0.008821037 0.56812674 0.75805515 0.40414453 -0.37304315 -0.23858833 0.66026694 0.09216546 0.028599642 -0.18511848 -0.35143322 0.100128986 -0.51336235 0.6607184 -0.14383882 0.44587725 0.57825756 1.0138689 1.4236758 0.9715538 1.1233969 -0.12124476 -0.5717884 0.33494493 0.9099927 -0.15872855 -0.79312587 -0.9536014 1.0545394 0.08235721 0.40176827 0.3411857 0.23809767 0.29248485 -0.5547675 -0.15590778 0.12430238 1.4017547 -0.12040313 0.6241535 0.9944722 0.28082818 0.5244187 -0.27668568 -0.57405573 -1.4339801 -0.122646235 -0.18208545 -0.29106227 0.61263627 -1.6956123 -0.40425417 0.032819685 0.42638922 0.30455697 -0.008650303 -0.6765967 -0.69921637 0.5931118 -0.11784381 -0.20927228 0.9328491 -0.36608535 0.3229609 -1.1219152 -0.32132286 -0.3295279 0.061370183 0.9553192 -1.1108665 0.5835885 -0.4079944 -0.40982077 0.9142425 -0.6262767 0.112657905 -1.0146953 -0.91116256 -0.46074796 -0.5905891 -1.2432082 -1.1602625 0.7313112 -0.888704 -0.11555423 -0.3257285 0.20990545 -0.7555458 0.7007016 0.43630478 -0.20403029 -0.33104563 1.2582003 0.40720606 0.28005177 1.0686051 -0.7882536 -2.21028 -0.029698169 0.65333754 0.06594042 0.53666365 0.18707438 0.32985613 -0.30596998 -1.2376821 -0.0699238 0.56076276 0.38055173 1.0541418 -1.93416 -0.5084303 0.052006625 1.1815119 0.7587507
66 -0.8293404 0.015542031 -1.3003864 -0.7530148 0.48212555 -0.68436027 -1.2412331 -0.7812207 0.71176714 0.3242558 -0.4460953 0.593912 -0.8465517 -0.39263648 1.0282598 0.18651383 -1.3464847 -0.6283692 0.52420217 -0.016998807 -0.46631876 -1.1578722 0.23855606 -0.3363396 -1.3415447 1.2729448 -0.18353948 -0.4184627 -0.08809507 0.06352069 0.4737596 0.008386442 -0.39669347 0.054506876 0.06996844 -0.49112928 0.15807608 -1.4140888 1.1134499 -0.4297716 -0.10176813 -0.6327676 -0.56909335 0.03310324 0.26256394 0.13371821 0.15445247 0.018959004 -0.6572072 0.18095756 1.204438 -0.6240733 -0.5305552 0.42529094 1.0734006 1.0454932 0.11559942 -0.19533385 -1.5453491 0.036761936 0.70849466 0.03890891 -0.48224568 -1.7004483 0.6472752 1.1406856 0.27608123 -0.71628994 0.46279037 0.24824388 0.12655148 -0.08374084 0.777507 -0.09514157 1.3317908 -0.5002382 0.86419606 -0.21034673 -0.38041258 -0.13582614 0.07040674 -0.2505007 -0.11649917 -0.476152 -0.1383729 -0.7309952 0.6478586 -1.3605762 0.20828672 -1.3128748 0.14947358 -0.37874135 0.025915176 -1.4768028 -1.1679507 -0.013194697 -0.6061505 -0.6945995 1.0684922 -0.61224556 0.091557056 0.65061116 -0.07827834 -0.45700654 0.8141521 0.2866636 -0.610959 0.42703164 0.30123612 -0.36467305 -0.8156305 1.4239941 -0.9473015 0.5329673 0.09506253 0.6675807 -1.0998278 0.26725447 -0.6283682 0.10210014 -0.35604188 0.56535596 -0.17852744 -0.19274908 -0.4668298 0.35156068 0.6070129 -0.007399015
385 0.83334947 -0.39128375 -1.543884 -0.50426215 0.6751511 -0.88700193 -1.0423077 -0.89581305 -0.53065693 0.17658292 -1.1197585 -0.0710716 -1.3193883 -0.6138992 -0.39553 -0.1310784 -0.7836368 -0.4490406 -0.24486157 0.89549476 -1.0631758 -0.008546463 -0.61137784 0.9529416 -0.7807073 0.015536403 0.46741235 -0.07851429 -0.5619762 -0.12448875 0.3387971 0.017239986 1.1886696 -0.22578055 0.10633731 -1.5199772 0.40204692 -0.20925197 0.2022851 0.3822461 -0.8294048 -0.88805795 -0.4631402 0.70487213 0.44357875 -0.51958555 0.35629132 -0.0052077547 -0.18832389 -0.15211895 0.885687 -1.0440216 -0.20892963 -0.3422596 0.7110883 1.8057588 0.55650043 -1.3427455 -1.5725985 -0.7132329 0.45293584 0.2982368 -1.276181 -0.36221772 2.015949 0.28265753 0.35583743 -0.90979064 -0.2698247 0.665171 -0.46922082 0.9270964 0.74499714 0.3997899 -0.35836852 0.043038525 0.62714905 -0.0003987641 -1.3492436 -0.29395577 0.28027675 0.8135791 -0.43212453 -1.5761127 -0.6692639 -0.04492097 0.88957095 -0.9794708 -0.8231771 0.41084626 0.17126325 0.064732894 -0.14156635 -0.98595977 -0.55114055 0.9330854 0.07099506 -0.079502344 0.35878184 -0.059348017 0.4320318 1.2378788 -1.424934 -0.38008517 0.20750351 -0.10144025 -0.026862072 0.814149 -0.9759371 -0.069737084 -0.29624417 0.66044587 -0.6825794 0.67769337 1.396422 -0.31644022 -0.9345247 -0.11034926 -0.2504721 0.32941633 1.7368876 -0.3936709 -0.3141815 0.5771058 0.14713804 -0.3216944 -0.7413392 -0.96861625
161 0.30966172 0.26607087 -0.31473514 0.76626784 0.17267133 -0.32515123 -0.5023248 -0.10229748 -0.21130079 0.62157744 0.2590092 0.34014753 0.11569171 -0.8003209 -0.019347982 -0.18027106 -0.5048626 -0.39192182 0.3485578 0.4510127 -0.5801187 1.0322291 -0.24145167 -0.24692082 -0.9045592 -0.420814 0.36595032 -1.2237912 -1.8127987 0.09326316 -0.93490076 0.79646426 -0.91307336 -0.38599432 0.11320476 -0.6935631 0.64271355 -0.43409222 0.2252233 -1.6280922 -0.0060448335 -0.3376086 0.4377933 1.4643168 0.32781926 0.11574097 -0.8836991 -1.3477196 -0.6112847 -0.11933803 -0.14387101 -0.5566935 0.5862253 -0.7737021 0.035922952 1.0529157 0.3378252 0.9508919 -0.5901861 -1.4178245 0.90202355 0.24197322 0.66036224 0.28449965 0.31779814 -1.0799227 -0.5571589 0.32024986 0.39684975 0.33724022 -0.34901002 0.985787 -0.05278885 1.2320569 -0.6589081 0.050852325 0.5738975 0.63432676 -0.54997617 0.07647071 0.0026603243 0.41556722 -0.9800203 -0.18219142 1.0856713 -0.10130891 2.024197 -0.30532092 0.7393673 -0.6184118 -0.49291173 -0.23284222 -0.8294948 -1.07155 -0.6448161 0.39441803 -0.2737245 -0.37285578 -0.22502264 -0.5084303 0.32681558 0.18927553 -1.6564498 -1.060039 0.011770703 0.97999054 0.23018046 -0.36004764 -0.42253393 -0.702086 -0.4506393 0.19613072 0.63737434 -0.5783309 0.4877746 -0.768509 1.2653489 -0.3653729 -0.81951404 -0.52182287 2.2498949 0.87863547 -1.088399 -1.4936842 0.30618796 0.120838374 -0.15118429 -0.53090185
315 0.48273343 -1.0271809 -0.34689698 0.08054796 -0.59194934 0.2936003 -0.7634519 -0.08103385 -0.516491 0.7460998 -1.5905042 -0.0131014995 -0.25647035 -0.07469854 -0.3046256 -0.39253184 0.28038725 -0.62726474 -0.019675925 0.35216942 -0.43366146 0.29833254 0.15283139 0.80608773 -1.1828413 -0.7122869 0.012915205 0.011258705 -0.28158233 0.60911816 -0.98391545 0.7905762 1.0762123 0.13805431 0.3785013 -0.6414415 -0.5922551 -0.7130489 1.1648563 -0.6750064 -0.41772932 -0.63813335 0.053383045 0.80310476 -0.05529153 0.027210386 0.58700776 -0.20966138 -0.70488614 -1.1274725 0.3397885 0.8903984 0.103018396 -0.21250042 0.7515296 2.3771923 -0.6889839 -0.5717048 -0.6562776 1.0274228 0.24159318 0.26595306 0.24681357 -1.5547421 1.282882 -0.18651198 -1.1837279 -0.4804254 -0.44174162 0.38594276 -0.28369552 1.2408687 0.3876409 -0.11581219 -0.0047532297 -1.5793906 -0.114302106 -0.26695076 0.32447883 0.7265861 1.2242551 -0.27817285 -0.09274877 -0.7776055 -1.2167833 0.23730463 1.6607287 -0.920626 -0.6027047 -0.80809903 -0.6847647 0.030176466 -0.35232806 0.27011645 -0.95701474 0.15329573 -1.372153 0.36217016 -0.49978718 0.33248118 -0.008594947 0.82707727 -0.36259532 -0.5406319 -0.9756786 0.5211991 1.1164526 -0.025994204 0.37039673 -0.13943262 -0.8475624 -0.7389372 -0.22165032 0.054292247 -0.862457 0.49973446 -0.9622445 0.17079785 -0.8948619 -0.72740775 0.16119426 -0.68645847 0.09888318 -0.41212156 -0.43236536 0.36364144 1.1064932 0.39440316
134 -0.6457866 -0.42153665 -0.11471434 0.057438254 0.6122978 -1.2666187 -1.3698112 -0.8318627 0.083254546 0.663273 -0.098047964 0.6448294 -0.64632595 0.437799 0.16841583 -0.8132383 0.17830804 0.26349494 1.2932358 -0.7630957 -0.50284857 -0.43573365 0.011802541 0.77717817 -0.89919525 -0.04994193 1.196687 -0.60752773 0.20244662 0.6047352 0.7395703 1.503188 0.33952683 -0.40370408 -0.23590635 -0.49916184 0.58969307 -2.07867 1.1805925 -0.7204349 -1.7317443 0.10945741 -0.48701635 -0.0967738 0.6947453 -0.3016592 -0.4232979 -0.28127497 0.5256257 -1.0944203 0.9332093 -1.0615346 -0.5419804 0.36708218 0.25888744 1.2078832 -0.5051127 -1.5409737 -0.55777806 0.36310944 0.99634254 -0.1893352 -0.058278564 0.50119567 -0.48194426 1.022436 0.16111001 0.23978017 0.9851936 0.37525648 -0.4268554 0.19270512 -0.22269143 1.509151 1.4901589 -0.5329483 -0.5321469 -0.6980912 0.44497982 -0.25235456 0.5124368 0.3107492 0.13791159 -1.1057744 0.84613144 0.40247408 0.8020816 -1.4610997 0.5634717 -0.2106983 0.26963612 -0.74021316 -0.2800454 -0.46236107 -0.996418 1.2747366 -1.0512763 -0.6370418 0.055783667 0.12751889 -0.39286387 0.8696999 0.19374552 -0.3513125 0.720918 0.2698092 -0.11904062 0.062040705 0.5048462 0.2923617 -0.83471537 0.2929665 0.5918372 1.2785373 0.009446456 0.55963767 0.8789468 1.5268413 -0.86747736 0.19938542 0.4156359 0.111995034 -1.5531901 -0.07987039 -0.1530082 -0.8473337 0.35028705 0.7484521
159 0.93033385 -1.206436 -1.3248134 0.18300004 0.35098532 -0.9391828 -0.8915361 0.31444693 0.2086651 0.9457351 1.1433156 -0.54738945 -0.84174967 0.17042707 1.1331093 -1.2440109 -0.2075046 -1.0957136 -0.6206072 0.05955475 -2.1279025 -0.15013771 -0.059448257 -0.027933814 -0.94780284 -0.5018293 -0.14163315 0.5453703 -0.09960822 1.0736188 -0.74458236 0.4203554 0.017441517 0.096813455 -0.71627516 -0.41064972 0.016440023 -0.1786437 1.0435102 -1.0412186 0.10376206 -0.04518977 -0.4847406 0.37580472 0.9688568 -1.0273247 0.51779634 -0.13801931 0.22537643 0.4702356 0.6726006 -0.43994176 -0.9467853 -0.5206332 0.24116962 0.21393363 -0.07486654 0.121741556 -0.7988472 0.4863557 -0.39471015 0.6212537 0.5460018 -1.1773479 2.048552 0.00047631018 0.4671964 -0.1369068 0.56474537 0.13231379 -0.4153311 1.0594009 -0.23107329 0.49189743 0.57591885 -1.5609378 -0.43632758 -1.2647088 0.3286116 0.32683268 0.5780127 1.0513413 -0.5054676 -0.5231845 -0.32066658 0.5547589 1.6138722 -0.6159697 0.6425072 -0.30791453 0.46482515 0.35996735 0.44854113 0.10966072 -1.0533522 0.9957426 -0.582046 0.31702363 -0.112298846 0.9274106 0.46097425 -0.3548196 -1.7032484 0.37584856 -0.24719347 -0.17009741 0.8118884 0.077381745 1.5484222 0.15773007 0.12109763 -0.70791274 -0.40377572 0.99026227 -0.14313194 0.84998876 -0.53920186 -0.4080915 0.21525943 1.0385683 1.0484886 0.36139804 -0.5404671 -0.040469754 -0.40396208 0.3760911 1.2397499 0.3758338
280 0.7629357 -0.035696883 -0.35911846 1.5584301 -0.25211984 -1.5344692 0.15964022 -0.20582528 1.2508307 -0.11557729 -1.5531381 0.51231194 0.2664066 -0.1973947 1.05971 0.23747817 0.34625253 -0.58724385 1.1064377 1.005708 0.054606963 1.3961896 -0.41681612 0.9337556 0.20583516 0.17117387 0.9955937 -1.3461657 0.71947104 -0.18324777 0.0026056396 0.09294799 -0.17471594 -0.49627015 0.07629592 -0.5635794 -1.0026861 -0.6822542 1.3225 -0.3586738 -1.8381648 -0.82091606 -1.8133523 0.7045486 1.2042681 0.2859433 -0.03409687 -0.87632287 -1.1783029 -0.6757304 1.0838192 -0.36408105 0.25614232 -0.13892108 0.38353512 0.47024736 0.3287766 0.43081847 -0.84075475 -0.50463325 0.5750222 0.17897166 1.1326987 -0.56088626 0.29152727 0.117719114 -0.4866341 0.8419905 1.1136699 0.6485547 -0.6312956 1.2606926 1.2464957 0.65432614 0.37891105 -0.19943675 -0.46939704 -0.025183955 -0.07775355 0.46512783 0.2957961 0.4565761 0.54389626 0.125476 -0.87110305 -0.09852611 1.5950089 -1.025898 -0.2779718 -0.22704323 0.47301963 0.14606467 -0.5100036 -0.37146693 -0.6711691 -0.06504947 -1.1359013 0.1085503 1.0215051 -0.46539944 0.47074905 0.32774028 -0.23525284 -0.29429847 1.297042 0.50010616 -0.06951273 -1.0529526 1.5804423 -0.2560144 0.30793524 0.1403664 0.72500765 0.92539454 -0.41339853 -1.3846737 0.16682862 -0.83879846 -0.08497484 -0.1582887 0.9125109 0.6683884 -0.34358978 -0.07501688 -0.44219458 1.1010885 0.0928819 0.3501327
77 0.45458475 -0.12211299 -1.409689 -0.71411425 0.66001225 -0.8988904 -0.896823 -0.96348137 0.00068834797 0.7442749 -1.1726104 0.33469793 -0.41655207 1.1618398 -0.1813586 0.41716346 -0.5182734 -0.5385234 0.8308044 -0.9490035 -0.37584177 0.8719569 -0.2153781 0.54302704 -0.77756566 0.08517617 0.46011555 -1.7327867 -1.2257928 0.5197792 -0.4089279 0.63213193 0.22643627 -0.21769625 -0.349996 -0.17617594 0.97324854 -0.9344996 0.9270955 -0.97663933 -0.16486831 0.29040927 0.11609465 1.3126612 0.21566886 -0.46233732 -0.27568218 -1.1064086 -0.8666888 -1.5271962 0.18439469 0.4412576 -0.14958197 -0.11106273 0.71673757 1.1507771 0.729133 0.19970724 -0.3107565 0.90714157 1.0369505 1.1495638 -0.12688991 -0.99592274 -0.085797146 0.062493023 -0.21386662 -0.3325751 0.8537978 -0.8240179 0.11126075 -0.51255304 -0.26202947 1.2887532 0.14069323 -0.41409636 0.6373393 0.1167003 0.108699426 0.4015743 0.55637693 0.14771178 0.07716228 -0.19043224 0.6465859 0.6619439 0.55733687 -0.5101376 0.88218063 -1.209682 0.8055675 -0.9092987 -0.7352564 -0.26965806 -0.58508646 0.27907798 -0.6571482 -0.5154735 -0.15876584 0.03516501 0.24517727 0.871767 -0.78812116 -0.5106279 0.2223848 0.57405794 -0.24895313 0.75484365 0.18204063 -0.7500522 -0.9198957 -0.86646277 -0.51722896 0.9977878 0.23692459 0.24623962 -0.15667681 0.4148628 -0.97248733 -0.46023178 0.4643461 0.39880177 -1.0778538 0.2516962 -1.0964061 0.16316614 0.18720077 0.53342736
58 1.210368 -0.31959265 -0.31556314 0.22173601 -0.75438595 -0.5708205 0.6850328 0.7061065 0.6975701 0.80424553 -0.48882273 -1.2322708 -1.4363787 -0.12711115 -0.06027884 -1.9711757 -1.3584396 -0.061981805 0.10491142 -0.20112869 -0.92102623 -0.636517 -0.54399014 -0.3840557 -0.2103716 -0.2909225 0.55128175 0.26851553 -0.2218565 -0.21467575 0.17124939 0.53109485 -0.47819218 0.23757319 -0.92568266 -1.1168631 -0.14506175 0.010044727 1.1207733 0.9721357 -1.0796062 1.006853 -0.083928406 0.9777995 0.38154104 -0.57275915 -0.12863104 0.4441799 0.017646872 0.6814926 0.95920485 -0.59973437 0.20667338 0.5662896 0.68085724 -0.04448344 -0.017553935 0.3352922 -0.37496257 0.80010295 1.0477066 -0.6042362 0.29452965 -0.98909193 2.1757407 0.9427362 -1.680785 0.009941964 0.84397066 0.5199693 -0.057247408 -0.06420808 0.18903613 -0.09440722 -0.1790315 -0.2353862 0.2829625 -0.29525733 -0.49844542 1.0228605 -0.17097381 1.2982373 -0.4027846 -0.5742453 -0.2653767 0.03584848 0.58476406 -1.3143456 0.55071104 0.380729 -1.3452522 -0.3750875 -0.10243831 0.19016503 -1.0778388 0.91250443 -0.46794114 -0.6865993 0.5028682 -0.7934831 -0.30912966 0.41505417 -0.52830124 0.008868708 -0.25429067 0.40790242 0.36944982 -0.17744336 0.61335224 -1.2094215 -1.3401644 -0.853762 0.34134972 0.31617847 -0.30007777 0.6236306 -0.33396032 0.16752546 0.9131286 -0.39415956 1.7389656 0.76572 -1.2251172 0.279719 -0.4288501 -0.23026018 -0.62370217 0.36240977
279 0.5390977 -0.13063154 -0.07954996 1.2643048 -0.23179075 -1.2776239 -0.24557336 0.042964492 -0.48908028 0.6533441 -0.32147282 -0.41863146 -0.6252975 0.78300184 1.2549573 -0.7762808 0.12139176 -0.5341008 -0.61288136 0.97535896 -1.3152463 1.2165929 0.20609275 -0.16887793 -0.4083281 0.21277297 0.9420707 0.15122071 -0.26490146 -0.058532804 -0.51288486 -0.7087046 0.77065647 0.49081188 -0.43137798 -1.311155 0.37569016 -1.285732 0.95235986 0.6854371 -0.9920505 -0.7175219 0.9347894 0.19543241 0.7161055 -0.527895 -0.2188933 0.35284507 -0.11310368 -0.3202435 -0.46018207 0.09491533 0.11491093 0.35643223 0.0072095683 1.270876 -0.2504119 -0.9458899 -0.3452075 -0.7114552 0.8169716 1.1736916 0.6301538 -0.36682993 1.623604 0.20985098 -0.8872223 -0.37154368 0.056271635 -0.11245884 -0.049251523 1.299636 0.573268 -0.7170025 1.2426895 -0.92614967 -1.129255 -0.8680874 0.10133998 -0.26834443 1.1711504 1.1546012 -0.17623398 -0.57246506 -0.8758933 -0.7664019 1.8701507 -0.93312865 0.7057634 0.5012135 0.13156782 0.63842076 0.33791798 0.09211154 -1.5594249 0.8023744 -0.97477806 -0.5209092 0.18300828 0.28903916 0.10259767 -0.22314033 -0.48755968 -0.42256236 0.54340583 0.80391085 1.1984109 -0.82240653 1.4065999 0.20070587 -0.32681972 0.51454705 -0.27248073 0.42712206 -0.91630876 -0.8095083 -1.0815177 -0.60278696 0.7239154 -0.6594328 0.9951579 0.7661419 -0.37566322 0.08605401 -0.97125006 -0.67806035 0.40688643 0.23885216
151 0.08411704 -0.54523724 -1.0625165 0.55848056 -0.19359803 -1.0110193 -1.5990282 -0.8492007 0.21658461 0.8701294 -0.041129358 0.41930068 1.6132833 0.5202011 0.7821457 -0.2615318 -0.17180508 -1.2586979 -0.091467194 -0.06205525 -2.2760057 0.5039281 0.27942786 0.48948693 0.010047744 -0.08572363 0.23337612 -1.0386503 -0.27090776 0.046845768 -0.17563388 -0.24092135 -0.25875834 0.004011166 -0.7193707 0.15650655 0.2817447 0.009159107 0.6157562 -0.53504187 -0.4639293 -0.63213354 -1.1760051 0.5674207 0.24588619 -0.050002452 0.39462045 -1.612462 0.43808126 0.0013262804 1.5005344 -0.1677507 0.43049487 1.3047705 0.6352719 0.12013598 -0.6714917 -0.010938149 -0.5305996 -1.0729415 0.4807419 0.7676892 0.3651356 -1.2175912 0.45780823 0.6092714 -0.27875957 0.71231043 -0.39306027 0.62728137 -0.7618827 0.67440456 -0.18705751 -0.33703116 0.28043044 -0.40985072 -0.48789823 -0.44426218 -0.65720433 -0.48916453 0.006443708 -0.21560869 -0.41932335 -0.2126076 0.27490747 -0.011286954 0.5969352 -0.8754216 -1.1709105 -0.6318772 -1.3684931 0.14677155 1.0953323 -0.03852177 -0.11564725 0.58177227 -1.1380309 0.019373095 0.35250676 -0.6555894 -0.35569015 -0.14198272 -0.63916016 -0.61263657 0.29662874 0.30852434 -0.36939043 0.5211016 1.0714837 -0.5608277 -1.4096364 1.7518107 0.40752733 0.91460454 0.28377435 0.42505613 -0.9508253 -0.6196141 -0.89422584 -1.1940048 0.84687954 -0.091156796 -1.3109978 -1.5058584 0.35794148 -0.4226228 1.1732296 0.47223887
270 1.109338 -0.20666908 -0.1324848 -0.16550185 0.48328874 -1.6391269 -0.28550935 0.049923237 -0.44222978 1.3613234 0.09678192 0.019903751 0.2935962 -0.23178458 0.3772251 0.48598593 -0.18589778 -0.8218298 0.67040175 -0.36734438 -0.035707902 0.52166003 -0.7129189 -0.77406716 -0.23138501 -0.81341326 1.5875307 0.018003305 -0.54376477 -0.10826586 0.5479014 0.14954144 -0.34023574 -0.4656046 -0.26773602 -0.18518916 0.40226912 0.41226056 0.60918146 -0.48747897 -0.85525244 0.15273374 -0.43199953 0.015825082 1.2042987 0.26887077 0.3037597 0.29368803 0.7832647 -0.023048436 0.69758135 -0.41326612 -1.5338873 0.315485 0.65680027 1.2026532 -1.0668353 -0.49772865 -1.4234679 1.2159863 1.2413243 0.30438855 0.95394385 -2.2569907 0.7563886 0.24361674 0.38951263 -0.8311818 1.7639297 -0.12645483 -1.1120306 -0.461703 0.6558983 0.24628523 0.9841593 -1.0844445 -0.7870591 -0.09266395 -0.19394886 0.5629435 0.02198381 0.7268535 -0.064179204 -0.31778222 1.3107194 1.0085577 -0.25677353 -0.8980626 0.4306006 -1.0383219 -0.33405262 -0.3864979 -0.01552013 0.09700966 -0.84478474 0.74278975 0.12420103 0.08002676 0.77340955 -0.383268 -0.0673943 2.0544026 -0.9783308 -0.5162721 1.3690748 1.279062 0.5344736 0.18861157 0.09874137 -0.514295 -0.67641604 1.095931 0.9720554 0.06796676 0.4265232 0.4067016 0.7015462 0.031972196 -1.570546 -0.0481435 0.70969284 0.5986334 0.73826075 -0.2932467 -0.2796018 -0.8255354 -0.3231318 0.3416812
253 0.9923164 0.22565776 0.56592464 0.7713748 -0.18979259 0.1292308 -0.11708626 -1.1351409 -0.14348283 -0.08542265 0.12997665 -0.59383243 -0.27256212 -0.3541976 0.043088388 -0.43694326 -1.6629065 -0.9583568 0.67645776 1.1461363 -0.006342249 0.23924296 -0.30349717 0.38063923 -0.87147105 -0.4458162 0.9465627 -0.6485437 -1.1812468 0.374498 -0.6152224 -0.12640622 0.8794264 0.016346734 0.6756374 -1.2030041 0.0026745189 -1.0715506 1.3315251 -0.2715614 0.20230614 0.5711173 -1.0065714 0.9147003 0.3016776 -0.0797737 0.8673503 0.46604335 -0.3128049 0.71453065 0.56511796 -0.065459155 0.65168333 -0.5433765 0.07388494 1.1690816 -0.41173318 -0.22095478 -0.23440655 0.6446695 1.5846645 -0.36232764 0.95334834 -0.87951964 1.0040137 -0.9356389 -0.04696285 -0.50855505 0.8812102 0.4766414 -0.82351977 1.5491055 0.18593802 -0.06507819 -0.32764015 8.9338886e-05 0.37269792 -0.655227 0.0030276636 1.1093003 -0.6979504 0.9134939 -0.91577166 -1.1066685 -0.63977224 -0.015934529 2.1356404 -0.686231 -0.09436401 0.22498597 -0.4853854 -0.21472085 -0.18009508 -0.83679825 -1.6261791 0.070984244 -0.061442003 0.01805423 -0.05619069 -0.68574125 0.16919108 -0.054187573 0.016518502 -1.0197155 -0.4056471 0.67776513 -0.2918803 -0.2816776 1.3731279 0.09112436 -0.96462774 -0.6145999 0.43319973 0.45289484 0.4532139 -0.765068 -0.12299882 0.5103751 0.22270192 -0.4514584 0.7458274 0.21898703 -2.1087968 -0.04260943 0.45149484 -0.13792785 0.074681945 0.057609126
7 0.332575 0.99768895 0.7372184 -0.51125985 0.7675329 -0.6080451 -1.6796632 0.1483859 0.83912855 0.630836 -0.19499466 0.43167594 -0.7707225 0.30683866 0.8122072 0.6862035 0.9546573 -0.8538177 0.77936125 0.2025913 0.22523218 0.084965885 -0.4273136 -1.0804173 -0.20588417 -0.28546706 0.2485628 -1.0556092 -0.8521201 0.7187338 -0.92096704 -0.53256387 0.58958715 1.6280998 1.1711099 -1.092496 0.39302975 -0.7270262 1.036777 -0.9589819 -0.6508676 0.21790935 0.52941734 0.15414473 1.1698782 -0.79424727 -0.829532 -0.032854334 -0.8615742 -0.4476108 1.0996425 -1.7256492 -0.19869985 0.47608832 0.049078066 -0.11204812 0.4395414 -1.0698721 0.03765021 0.07761631 -0.08934851 -0.14810649 1.0867816 -1.1747291 0.62966645 0.22927995 -0.07797888 0.8007359 -0.8044067 0.8109716 -0.6236095 1.5957907 0.87941754 0.43259394 -0.045491837 -1.015981 1.0812101 -0.592018 -0.85260683 -0.26376772 -0.28707203 1.0956935 -1.1280408 0.14734603 0.043187443 -0.75933814 0.88479656 -1.7707515 -1.5092062 -0.3533577 0.08822655 0.8385619 0.21141666 -0.37959364 -0.8609065 0.2873645 0.48563603 -1.0723661 -0.5819242 1.5065136 0.38900775 -0.7022373 -0.63501316 0.15975827 1.4401134 -0.36820468 0.86181307 0.48110187 1.062757 -0.09280269 -1.0972813 -0.7125308 1.4469295 -0.1636738 1.0367746 -0.74424434 0.313133 0.1872472 -0.442071 -0.6195051 0.8579961 -0.04330852 -0.50162905 -0.59138185 -1.4726627 2.0378067 -0.19402558 0.20406665
133 1.2564987 0.065919615 0.10768772 -0.3738737 -0.00855201 0.15450013 -0.59471744 0.12908745 0.6381911 0.27558672 0.36622894 -0.60041714 -0.19943006 0.48950115 1.3283199 -0.4087691 -0.58725387 -0.6605829 0.6388539 0.2875701 -1.1301678 0.7175076 -0.91352504 -1.6628263 -1.665287 0.6602549 1.4335157 -0.96594095 0.7063173 0.456643 -0.88702524 -0.79171944 1.1161889 0.3215972 0.035918854 -0.9891025 -0.5554619 -0.42832434 1.1268965 -0.005536608 -0.19156964 -0.3338733 -1.0815014 0.91326547 1.3468406 -0.25269738 -0.5743456 1.7314515 -0.6314327 0.15472707 1.1067994 -0.4618267 0.42359746 0.8621025 0.22537938 -0.4432874 1.0568414 0.060415287 -0.08852389 -0.34299958 -0.55551636 -0.79218346 1.0177343 -0.92979735 2.1847537 -0.028630855 0.16133982 -0.68751454 -1.4274889 0.38064757 0.133853 1.0408163 0.9231284 0.3980027 0.13602033 -0.081124574 0.22052488 -0.61814207 0.035171676 -0.44299477 -0.16248518 1.4664131 0.012927038 -0.6627793 -0.43587244 -0.06363298 1.3531736 -1.0094446 -1.1168958 0.22444879 -0.014558877 0.18654422 0.36571965 -1.0673207 -0.8152321 1.0852234 -0.0055305706 -0.05432446 -0.41045955 -0.0031227765 1.5569341 -0.19524705 -0.68695796 -0.32355884 0.5690502 0.24412575 0.55772346 -0.32294464 0.8678174 -0.3470747 0.21650894 -0.5002099 -0.15451682 0.21685773 -0.6144543 0.009123573 -0.7710583 -0.32539758 0.05924118 -0.7534578 0.25620753 -0.115580544 -0.6876423 0.22931422 -0.3796652 -0.7395418 0.09508334 0.3169009
216 0.61740756 0.7396276 -1.4646522 -1.1003594 -0.20482066 -1.0319929 -0.5452442 -0.30634993 0.13485087 0.97385126 0.18966295 -0.11971389 0.121473975 0.34682155 0.24587938 0.18973283 -0.6819568 -1.1305977 1.501391 1.2026817 -0.57179445 0.17906375 -0.91645044 -0.5244669 -0.35412198 -0.028182719 0.21310332 -1.0015742 -0.77631825 -0.19361603 -0.8190562 0.54869497 0.037062705 -0.19212511 0.07321099 0.8865528 -0.23733674 -1.3964242 -0.22867498 -0.4843321 -0.51586527 0.6275985 -1.0549202 0.062571414 0.0567664 0.48931566 0.41796654 -0.3210263 -0.087594666 -1.1479634 0.3329807 0.1908062 -0.7008549 -0.8351715 1.2503684 0.8100048 -0.16231826 -0.42574987 -0.5857713 -0.5553167 0.7348336 0.62815964 1.1234052 0.22409053 0.48610914 0.20966637 -0.12431702 0.76206136 -0.25397283 -0.70764524 -0.33168656 -0.53995544 1.3944844 0.20159155 0.7310687 -1.1791406 0.18870011 0.0013979169 -0.034306794 -0.24070276 0.2645344 0.27174473 -0.5146915 -1.001717 0.6220491 -0.62841755 -0.34437296 -0.8114658 -1.0417689 -0.26520103 0.20709914 -0.7280697 0.23518695 0.544457 -0.63486785 0.53920627 -1.2894833 0.7364409 0.54274464 -0.9003985 0.8785733 0.98320675 -0.12348234 -1.4436634 1.6831037 0.40900487 1.0477833 0.8331635 0.5250076 -0.7815947 -1.1173017 0.04488787 0.503397 0.25962985 0.18970524 0.26193154 0.29520562 -0.19908533 -1.6524839 0.007897035 0.80558765 0.3925716 -0.37112695 -0.854056 -0.45176592 -0.6244546 0.90854126 -0.027189596
14 0.9076435 -0.3407039 -0.22015865 -0.13215026 -0.6603415 0.52599037 -0.47730178 -0.7185311 0.4727492 0.6909778 -0.47981796 -0.8106388 -0.6074591 -0.33195555 -0.019167542 -0.21799351 -0.1608359 -1.6821988 -0.15848309 0.2184265 -0.5176708 0.5781344 0.11449774 1.1974524 -0.8936852 0.56612283 0.33643964 -1.52404 -0.5490958 -0.3164055 -0.97127956 0.23158088 -0.12395068 0.2809933 -0.2710111 -1.4884977 -0.41448998 -0.79428375 1.2005353 -1.1341913 -0.0918246 -0.34863696 -0.9292817 0.09889314 1.0581709 -0.6194619 0.441733 -0.40715086 -0.26048455 0.086121246 0.98163545 -0.61961585 0.48548567 0.10555046 0.08036595 2.2258446 0.045005288 0.04694466 -0.2177129 0.16512954 0.53600967 1.1302793 0.74259305 -0.6806126 0.53698295 -1.083866 -0.5878346 0.5148748 0.11822025 -0.26847857 -0.56934834 0.9826197 0.76378554 0.7516745 0.6026148 1.0515548 0.1623779 0.0028241528 0.19762522 -0.75432247 0.24002126 0.3112383 -0.97434306 -0.7087009 0.57163435 0.17985022 0.8461698 -0.641537 -0.59820247 -0.6955559 -0.29829097 -1.5578501 0.61809725 -0.22961877 -1.5756558 0.9909176 -0.17894386 0.47138986 -0.2649583 0.47873798 0.37478006 -0.03228738 -0.85037696 -0.89365476 -0.17252946 1.1841009 -0.018609852 1.3165983 -0.0048190383 -0.32378557 -2.2100372 -1.1521288 0.39871588 0.5976946 0.5675057 -1.0323402 0.035362724 1.4817272 -0.3530344 -0.9306288 -0.46621114 -0.92666525 -1.4423081 -0.86977535 -0.0762989 -0.08064604 -0.48388687 -1.3788388
78 0.90738696 -0.49443266 -0.74560213 0.2684374 0.21719585 -0.629071 -0.528386 0.403803 1.176809 0.24566098 -0.64207786 -0.17798984 -1.4221853 -0.1688315 -0.011495515 -0.15820089 0.033641897 -0.15092099 0.37244558 -0.34380117 -2.135197 -0.58093727 -0.59193504 -0.118800096 -0.8542852 -0.33424807 0.26062104 -0.2593933 -0.41400632 1.4073924 0.0046246937 0.4542825 1.430495 -0.20895244 -0.22416016 -0.8506648 -0.679493 -0.9398851 0.03415074 -0.44815388 -0.6755593 -0.8081549 -1.17048 -0.28138524 0.42609924 -0.524081 0.20855029 -0.07204039 -1.0342084 0.34312662 0.24075232 -0.83000153 -0.26135257 -0.47445047 0.5660713 0.8003554 -0.29327682 -0.82973063 -1.973225 -0.39197087 0.019597247 0.34722283 -0.35079807 -0.56934446 0.5529012 0.8066329 0.06316827 -0.72913355 -0.676931 0.6579383 -0.3074874 1.4752328 1.3082998 -0.027693128 0.962867 -0.64327794 -0.34870675 -0.041923616 -0.70185715 1.5081207 1.1852713 -0.414127 -0.9040121 -0.64790106 -0.47392067 0.74630433 1.5236722 -1.0261805 0.49054748 -0.3710496 -0.6889748 0.09243488 0.31871176 -0.7658305 0.04684642 0.3472671 1.063006 -0.41767806 0.19856882 -0.79856116 0.6609087 -0.3926761 -0.91814977 -0.043399252 0.00679513 0.46672988 0.2400265 0.44453374 0.06506421 0.76020247 -0.24321443 -0.6170026 -0.59096175 1.6298296 -0.71830904 1.3358946 0.14967747 -0.61742634 -0.48099518 -0.34951922 -0.21413504 -0.1967508 -0.8160225 0.4441314 -0.104929574 0.8470997 -0.48487613 1.609888
372 -0.12557326 0.17499855 -0.98208547 -0.33720523 0.53978 -1.7379886 0.007429978 -1.2454519 -0.75692075 1.812477 0.2871488 1.1472293 -0.5217498 0.56702024 0.4730715 -0.12338307 -0.540783 0.14483616 0.08902783 0.052680757 -0.5292719 0.26375136 -0.93555766 -0.47134587 -1.1691271 0.12185 -0.15309745 -0.08918273 -0.5730199 -0.49349064 -0.09411424 0.54040986 0.09813434 -1.408652 0.6606969 0.0818927 0.52692115 0.013350554 1.2174156 -0.62841284 -0.89073884 -0.008716514 -0.9250465 0.7096964 1.0471283 -0.3093837 -0.34381318 -0.22134085 -0.102500364 -0.76716596 0.8688098 -1.2802457 0.035883833 -0.63591886 -0.5223982 0.77417743 0.4162822 0.763051 -0.66376513 0.20240481 0.5332758 0.14923643 0.90171784 -0.8502448 -0.18060283 0.6359076 -0.2839054 -0.52677464 -0.27745363 0.73463285 0.96345615 0.07735003 0.24295126 1.4348937 0.89133775 -1.0062457 -0.1409413 -0.87482524 -0.76378393 -0.027514862 0.40953442 -0.7001191 0.09722581 -0.8973838 1.1957023 1.2434225 0.123643965 -1.5862502 0.057764314 0.076128535 0.51334006 0.29968902 0.5488352 -0.4808923 -1.0229697 0.2924159 -0.47056904 -0.67723316 0.6367692 -0.992653 -0.2745238 0.5957695 -1.1919501 -0.741183 0.9459037 0.5921495 -0.19964099 0.004043242 -0.3411104 -0.50961566 -0.8786341 0.15981127 0.7115104 0.14161351 1.1159449 0.077620685 1.151596 0.2982255 -1.0149736 0.29740232 2.0117254 0.18117675 0.23561324 -1.2069402 -1.2612934 -0.045711685 0.7267651 0.7824321
73 1.2991793 0.10233706 -0.0037828733 -0.78809136 0.5638768 -0.30089316 -1.316598 -0.16342829 0.3918193 0.28686035 -0.13998495 0.90370977 -0.39258236 0.6685158 0.011282608 -0.2679678 0.13918212 -1.241348 0.029456522 0.6491787 -1.6119701 0.4330266 0.3687802 -0.06906951 -0.031155568 0.64036155 1.4198745 0.327401 -0.30483094 0.16310495 -1.2222016 1.186335 -0.566187 1.115686 -0.3804883 -0.46034068 0.12639326 -0.37771705 1.2498199 -0.5169221 -1.1237291 -0.6366822 -0.3316349 0.7827169 0.8245309 0.3371239 0.14351064 -0.37551466 -0.065650925 -1.5412056 0.2433145 -1.2208682 -0.09348907 -1.2497606 0.53588724 0.7504772 0.065509036 0.25143874 -1.4912093 -0.9176731 0.19269651 0.45650613 -0.027294507 -0.62356144 2.159984 -0.37167045 0.21470872 -0.3976096 0.023626009 -0.8849816 0.6089356 1.1213064 1.1804858 -0.048350476 -0.166814 -1.0166942 0.8634012 -0.8724939 -0.6835056 -0.14218068 -0.4005628 0.9724712 -0.71657336 -0.9142501 -1.3794954 -0.8176343 0.9101436 -0.88878524 -0.098626435 0.23559086 -0.28997084 0.2052464 0.95710486 -0.277419 1.4594814 1.1382248 0.30459404 -0.82579106 0.57069594 0.4941993 0.77279335 0.14578326 -0.44809648 -1.0054786 -0.2484527 0.030871244 -0.6597298 0.25348815 0.38030162 1.2281985 -0.35163546 -0.24475402 0.94094884 0.30247056 0.41026863 0.33967263 -0.1137491 0.34672862 -0.47467154 0.4441255 -0.13024653 -0.5425789 -1.0557561 0.5586313 -0.44694912 1.1414701 -0.006220239 0.63886625
103 1.9512475 0.12863648 0.3104031 -0.11922984 0.14101657 -0.8319235 -0.6020049 -0.39415997 -0.7581297 0.39414835 -0.3959239 0.4630267 -0.13759227 0.12372704 0.3705462 -1.1229651 -0.4840754 -0.59027463 -0.6075803 0.42648667 -0.9233887 -0.2481414 -1.2314378 -0.68028235 -0.11569733 0.569786 1.2960497 -1.249625 0.8336521 0.55931324 -0.9771263 -1.0397218 0.91870946 0.17020941 -0.3689451 -0.51797616 -0.56432045 -0.73460925 0.2770468 -1.04469 -1.3439462 0.4130764 -1.423524 0.49090856 0.01959649 -0.39215928 0.6131646 1.1735268 -0.67967427 -0.24047375 0.7295698 -0.5450557 -0.20386921 0.8147084 0.33198488 0.9557174 0.5125475 0.9093117 0.00987549 -0.65472156 0.50538796 0.97486997 0.5063272 -0.7550537 1.0442914 0.993529 0.37244812 1.2751559 0.06682273 -0.6369856 0.15618703 0.22673833 1.1235387 -0.25917158 -0.036476262 -0.30870324 -0.83700806 -0.759221 -0.15814863 0.1755277 0.8939799 -0.032301735 -1.5335807 -0.27144134 -0.11172949 -0.6005109 2.0691106 0.19494818 -0.23080374 0.48812434 0.6548605 0.50859654 -0.1066355 -0.5453401 -0.9481877 0.58457714 -0.5873708 -1.3249317 -0.12865661 0.09629666 0.50736916 0.13612525 0.7278986 -0.1169541 0.4775116 0.5789904 -0.8996734 -0.058356013 1.7801428 0.25589028 -0.36124277 -1.2299564 0.8183896 0.39277127 0.15854168 0.51298237 0.021570869 -1.0306892 -0.5676982 0.57458645 0.6329395 -0.86897534 -0.8015288 0.13547072 -0.67107064 -0.1721951 -0.6346414 0.858678
312 -0.43292382 1.1790382 -1.1169521 -0.6455775 0.64328825 0.017647378 -0.74262553 -0.8770532 -0.79651827 0.9809 0.027527863 0.18586688 -0.7010588 0.44463778 -0.2473681 -0.25120652 -0.41268763 -0.21634771 0.66461205 0.74377006 -1.1240503 0.37601098 -1.6650243 -0.19945832 -0.5001312 0.48797134 -0.30911112 -1.4925177 -0.49746367 -0.97103643 -0.81312186 1.0964774 1.4980885 -1.1701281 0.35638028 -0.5655944 -0.29233584 -0.42980266 0.9175976 -0.46209544 -0.4785891 0.036204632 -0.9687092 0.5243049 0.78790003 -0.40573567 -0.61321676 -0.009752544 -0.18703733 -0.9718336 1.2023485 -0.6164339 -0.2808741 -0.16553259 0.031935304 1.0807413 0.1354411 -0.66656625 -0.006400218 -1.3700784 0.5488849 0.29791376 0.77371836 -0.08452723 0.43475914 -0.35255548 -1.2432758 0.92873 -0.8489094 0.6042549 -1.2666425 0.33693808 0.82374954 0.20517893 0.4011673 -0.42525816 -0.3103194 0.5485077 -1.0376678 -0.48065156 0.82324874 -0.06467596 0.60320777 -1.4211514 0.7551145 1.1407545 1.5020447 -1.4894925 -0.37710014 -0.5215254 -0.44188794 0.3581771 0.29723155 0.5326202 -0.5981472 0.1346809 -0.19121706 0.27906436 0.08766104 0.3953035 -0.043943305 0.86648446 -0.48965517 -1.2224671 0.22855742 0.85065424 0.50634617 0.7669212 0.78020644 -0.50378233 -0.7503335 0.6561563 0.71930045 -0.575784 0.41463748 -0.5548564 0.7098519 0.23497032 -1.4620368 -1.615999 1.2414683 -0.61027145 -0.25237826 -0.9148233 -0.83597475 -0.32362804 0.015447559 0.27245605
192 0.35043165 -0.22105089 -0.59060127 -0.051277805 -0.15021981 -1.30159 -1.1982948 0.09103985 1.105793 0.76506066 -0.39418116 1.2500134 0.07820576 0.65685755 -0.3339257 0.44331935 -0.24337408 0.43858624 0.09137514 0.22141917 0.14605185 0.56393826 0.15565658 -1.1254194 -0.6057464 -0.24530193 0.9464161 0.09797837 0.053646002 0.772091 0.75520325 -0.7746912 0.26440117 -0.48309022 0.4456604 -1.7353519 0.47283518 -1.0629835 0.24046406 -0.91094106 -0.78650343 -0.5754631 -0.59617406 0.93976986 0.61494035 0.41793114 0.21143486 -0.0943049 0.10087692 -1.0823181 0.13548467 -0.92976594 -0.4878835 0.36712834 0.7466547 1.386176 -0.25106943 0.19465299 -1.7739986 0.7951654 0.5295961 1.1820344 -0.047328882 -1.7431731 1.0466406 0.1539079 -1.212408 -0.13681795 0.7880186 -0.17074072 0.4914232 0.0148598645 0.53961486 0.6346481 1.2217758 -0.05594464 0.06208802 -0.50854284 -1.3735442 -0.17370665 0.42866707 -0.008651472 0.034386035 -0.105940744 -0.1791041 0.6693941 0.28837788 -0.9799848 -0.5662359 -0.11035314 0.8354921 -0.31601602 -0.2795565 0.48995546 -0.41665626 0.76190484 0.32407555 -0.21972318 1.149353 -0.9306866 -0.21144262 1.7001667 -0.60538113 0.15662928 0.7206024 1.3703294 -0.32339105 0.17686924 -0.21970692 -0.33138227 -1.1617044 0.6065389 0.35711327 1.315293 0.5976051 0.27050307 -0.68512845 -0.7146279 -1.3191212 -0.72650343 -0.18205486 -0.7618904 0.9111609 -0.4957429 -0.37845024 -0.3653319 1.5697056 0.45821616
6 -0.097628884 -0.4234541 0.25379375 -0.5078715 -0.06026699 -0.19977383 -1.0768661 -0.14305983 1.503906 -0.34660727 0.57745636 -0.85902953 0.113099076 0.26849183 -0.21172173 -0.74237496 -0.35431063 -0.854313 0.5471649 0.22918582 -1.4124931 0.45186833 0.19708808 -0.6558968 -1.1920285 -0.79182357 0.382818 0.40757263 -0.2903592 0.36067304 -0.23257755 -0.97555023 0.603254 1.0457122 -0.26520476 -1.5242267 -0.8455489 -1.0794123 0.4347955 -1.5417639 -0.5093868 -0.5657895 -1.474371 0.6083807 0.05513779 -0.06764498 0.23838441 -0.32698303 -0.3066574 -0.2959992 0.5368281 -0.05233056 -0.02085506 -0.023350788 0.7433607 0.10147695 0.11645804 0.95677406 -0.25032356 0.029496636 0.015221376 -0.11041927 1.4449011 -0.91543686 1.1475146 -0.118942015 0.08307095 0.34120104 0.09790864 1.2451333 -0.12839809 0.732545 -0.21163659 0.09943705 -0.14027219 -1.2101129 -1.5346725 -1.0929672 0.45864302 -0.37298328 0.124525554 0.96831924 -0.67406243 -0.760327 -0.18273376 -0.03164836 2.269066 -1.6059856 0.29419285 0.20978817 -0.4454365 0.22599988 -0.13436456 0.45794594 -0.78934854 0.115414135 -0.06721216 -0.29654622 0.65535235 -0.17568862 0.8882208 0.25609785 -0.19829145 0.187371 1.089994 0.17301226 -0.045041412 -0.6245424 1.5468738 1.1238525 -0.59046954 -0.22483207 0.5333062 0.30705464 -0.9621187 0.94218814 0.4481731 0.21776378 -0.4258755 0.2421281 -0.006898634 0.2788649 -0.1932189 -0.6860414 -0.18713479 0.28261113 0.82056266 1.0211288
320 0.98448706 -0.90485936 0.45856863 -0.35828933 -0.27718037 0.9497866 -0.7112894 -1.2163045 0.9315348 -0.26597607 0.018926607 0.8690965 0.23410074 0.4535192 0.53607607 0.15772396 0.34240022 -0.31782418 0.6167164 0.65824944 -1.5141385 -0.3130366 -0.7460037 -0.5980806 -1.0505943 0.108491674 1.0337684 -0.9740951 0.41401914 1.3339868 -0.11372082 -1.071921 0.9088983 0.14901869 0.40087226 -0.57122344 -0.24512492 -0.42410314 -0.05323403 -0.5979488 -0.5596374 -1.0083448 -0.20492971 0.62971324 1.0263169 0.7059593 -0.3689221 0.0011309911 -1.1649991 -0.41021824 0.72044605 0.5748704 0.22415796 -0.23255096 0.61494905 1.9015218 0.07501802 -0.85160834 -0.30984318 -0.9641525 0.07342821 0.5897137 -0.48506027 -0.9778359 1.5501494 0.48598626 0.17211446 0.06556988 -0.5219026 -0.394899 -1.3896369 0.95106816 0.6976798 1.296247 0.26703337 -1.009047 -0.40522245 -0.38319272 -0.14139865 0.30436468 -0.5628371 0.3224845 -0.2351907 -0.43187225 0.2799093 -0.26514012 1.7426139 -1.5880774 0.95939356 -0.524563 0.06971644 0.9953649 -0.18946245 -0.31583416 0.0071388194 -0.17902015 0.96047354 -0.7915845 -0.20953365 -0.7684578 1.3017479 1.1051482 -0.99077445 0.34299412 0.3775887 -0.17872237 0.44456527 -0.6666013 1.2817916 0.26977322 0.05201005 -0.21782634 0.13328813 1.4590961 -0.15492508 -0.15588887 0.03374713 0.3750381 -1.7040864 -1.038485 -0.08726141 -0.12159966 -1.3525667 -0.22001477 -1.1378493 -0.07693434 0.0011384853 -0.5830963
33 0.5568113 -0.12209162 -0.007852602 -0.9448938 0.12054181 -1.7849025 -1.4428605 -0.30504408 -0.35199916 1.27882 0.35950324 0.4790088 -1.4677013 -0.5164471 0.2714486 0.12181012 -0.17453569 0.23467383 0.35296866 -1.224216 -0.06726717 0.20845532 0.07306635 0.393013 -0.753294 -0.6303456 0.84775835 -0.08556481 -0.78717583 0.61250716 -0.35174346 0.046188034 -0.7527479 -0.31304422 0.17566037 -0.149138 0.54017323 0.3176695 1.550807 0.07548335 -0.92611885 0.28594202 -0.39682022 0.18848637 -0.16364022 -0.1979584 -1.3091543 -0.609401 -0.11231303 -1.0241028 0.65807056 -1.280449 -0.40054345 0.9083276 0.18893775 1.4244115 -0.2721861 -0.4025517 -1.5135088 -0.07645591 0.7883469 0.053776626 0.28258458 -0.7506369 -0.23275906 0.27607158 -0.9618957 0.64878154 0.67221 -0.5134329 0.86137503 -0.5814853 0.96751195 -0.15688574 -0.0184831 -0.0849854 0.12498389 -0.6069394 0.5330899 -0.16872153 0.662236 -0.22975479 -0.93138415 0.40426055 -0.040129356 0.113883175 1.6600795 -1.3668123 0.68381464 -0.8124173 0.26756892 -0.6346186 0.2143807 -0.8887229 -1.1973183 0.021774946 -0.23395464 -1.6203413 0.2827504 -1.2452354 0.3684128 -0.15407369 -0.5263945 -0.054951135 0.884069 -0.30054638 0.5450737 -0.09612075 0.77401716 0.31812012 -2.2631545 0.48857257 0.38155872 0.2437972 0.23180427 -0.64194965 0.76994663 1.2538964 -0.32445487 -0.16932029 -0.08405789 -0.3986689 -0.008498577 -0.23681188 -1.8749205 -0.33076116 1.313152 -0.107270695
180 0.60019726 1.1585318 0.69317967 0.67485297 0.080937415 -0.16582443 -0.4732018 -0.07798053 -0.55985266 0.15809785 -0.30044243 0.6193425 -0.9149834 -0.098552085 0.15716612 0.005546715 -0.31976822 -0.9809432 0.87441885 -0.42253616 0.54428166 1.2886225 0.053426977 0.24525209 0.20550507 -0.367563 0.09743787 -0.69751304 -1.2810515 0.38193431 0.42564785 -0.12791389 -0.28212997 0.43296352 0.2660212 -1.0347812 0.7626645 0.70431006 1.1861303 1.4393685 -1.5005424 -0.53481305 -0.16156307 0.13790123 0.21062344 -0.71421885 -0.7244757 -0.3233479 -0.7961786 -0.20688452 0.2040865 -0.96343505 0.084184185 1.2627335 -0.55566555 1.4768039 1.0817567 -0.48710322 -0.49796498 -0.64629984 1.3111141 -1.0964073 -0.5382485 0.30676496 0.9327284 -0.011832025 -0.5156908 1.1116343 0.4829588 1.1816221 -0.28085712 0.051059518 0.2987287 -0.43736863 -0.025690868 -0.47405487 -0.083650425 -0.81378305 -0.8655662 0.087805584 0.71880496 0.5997288 -0.38101214 -0.1285045 -0.85086554 -0.21886957 1.9491879 -1.1490855 -0.2088678 -1.2806227 -0.5477054 -0.78837126 0.26342952 -1.4996892 -1.0424346 0.5326236 -0.2915381 -1.0300723 -0.02238048 -0.96999735 0.42189214 0.11145401 -1.6398442 -1.5044568 0.48543435 0.17970602 0.95966417 -0.62951535 1.5032921 0.39046493 -0.40138766 0.25588366 0.43245834 0.3002047 -0.3259699 -0.5351675 0.23701602 0.8388285 0.3872656 -0.21088436 1.2841595 1.0751002 0.16391534 -0.39297122 -1.3862026 0.09492563 0.09948518 0.4299887
42 0.8431278 -0.5606536 -0.8464173 -0.26536667 0.65329164 -1.4204167 0.21344842 -1.5264515 0.09331752 1.1283059 0.13475102 0.671742 0.2049997 -1.0469716 0.625281 0.71807826 0.18595856 -0.2939429 -0.49134216 0.7013888 -0.19442302 -0.07671539 -0.977672 -0.9964704 -0.34137356 -0.59361327 0.8672604 0.023846751 -0.9627354 0.8821616 0.4274212 0.12293611 0.0057034977 -0.94325 -0.009122951 -0.47492516 0.3080674 -1.2553273 0.42443165 -0.34296063 -0.0023031496 0.6997645 0.3645551 0.21107042 -0.08006333 -0.7849248 -0.5117368 -0.89427614 0.14011084 -1.0507001 0.53400886 -0.37493506 0.45288938 0.21075293 1.5936366 2.099828 -1.1835141 -0.616244 -0.8318941 0.26867077 0.74349785 1.6093355 -0.030605664 -0.67340666 0.002198352 0.6365163 -1.0625972 -0.05573922 0.6310256 -0.958557 0.24803752 0.22548626 0.6882276 -0.21123856 0.7644751 -0.6721329 -1.0348408 -0.22697154 -0.71928364 0.120336875 -0.27680507 -0.8335004 -0.36519796 -0.3783653 -0.82894135 0.35945976 0.5880051 -0.95181274 0.37167144 -0.5335307 0.996831 -0.41947883 0.13629055 -0.4488074 -1.0414757 1.0184444 -0.3994979 0.21459636 0.19190682 0.22190508 -0.12780079 0.06949926 -1.6773603 -0.38424942 0.6237289 0.87632346 0.7685647 -0.29621458 1.372041 -0.45860273 -0.9487642 -0.05563494 0.5902687 0.51561457 -1.143579 -0.94964933 0.47215122 0.39760813 -0.55563533 0.31421104 0.47147417 0.6784482 -0.2644284 0.09063226 -1.7102244 -0.059873983 0.0757718 -0.09394907
374 0.4437687 0.7585632 -1.449363 -0.5839185 -1.165472 -0.44546208 -0.67134523 -1.3797524 0.14079274 -0.0024266131 1.0406288 0.66685534 -0.16962036 0.088210806 -0.0025512131 -0.8674658 0.117945135 -1.5982877 0.4836103 0.33948073 -1.5187088 -0.09582574 -0.93313974 -0.09050216 0.61745673 -0.31472638 0.26857564 -1.1796358 -1.5372723 -0.01455332 -0.75615144 1.1686598 -0.077483535 -0.044704974 -0.7021325 0.8835068 0.7575861 0.30330607 0.8125712 -0.7383259 0.22143729 0.6544338 -0.50792277 0.563845 -0.13617612 -0.392841 -0.7170368 0.33585384 -0.58463144 -1.0857075 0.36092418 0.70150524 -0.9621104 -0.6444886 1.0766736 0.72169757 -0.512969 -0.07491238 -0.371874 -0.5736032 1.6677849 -0.7717066 0.73676676 -0.98561776 0.67782545 1.131654 -1.0217739 0.05516475 -0.7146966 -0.58783114 0.13856517 -0.7340383 0.92489195 0.41267768 0.29951954 -0.89274114 0.02161381 -1.1389529 -0.17569795 0.08757358 -0.32739687 1.2346106 -0.38280562 -0.6520327 -0.2638333 0.7828478 1.0978804 -1.8231134 0.39713696 -0.27872205 -1.5588816 -0.28301764 0.9059618 -0.9893901 -0.6449215 1.4584074 0.060587097 -0.559198 0.3843816 -1.1509876 -0.8500398 1.5770932 -0.1658951 -0.091496095 0.5305132 0.6567808 0.8883634 0.16440018 0.89235693 -1.3875825 -1.3137763 1.172572 0.9267693 -0.4526174 0.22669351 0.13212073 1.1828635 0.08245657 -1.4878303 -0.22178079 0.22458224 0.3932764 -0.9638865 0.093276374 -0.88606083 -0.12957318 0.07272807 0.025742175
357 1.2949697 -1.2563831 0.19301352 0.4912791 0.5624914 -1.7247353 -0.5628146 -0.7966648 -0.24335624 1.0453846 -0.83565766 -0.80435586 -0.23645696 -0.04294376 1.3688523 -0.06025303 -0.5810605 -1.1120332 0.26610747 -1.3658068 -0.07685443 0.15322098 -0.70537233 0.2776477 -0.6455141 -0.39233953 1.3792325 -0.73956263 0.15874244 -0.4533735 -0.20838577 0.03724154 0.0541079 -0.47188818 -1.0896455 0.65493864 -0.065062515 -1.3046044 1.3119597 -1.2888205 -1.3669622 -1.0749068 -1.1502603 -0.10900079 0.2964433 0.27160513 0.075214006 -0.5807615 -0.36902574 -0.20159349 0.8836178 -0.29021198 -0.31734094 1.2864382 0.09141889 1.047761 -0.21619196 -0.5072964 -0.48279208 0.5013991 0.4745825 0.49916625 0.8519816 -1.0771459 0.2545884 1.2040856 -0.24002855 0.6680167 1.8792503 0.95661616 -1.2544668 0.41729948 -1.1351819 1.1820135 0.36056158 -0.7967985 -0.13918824 -0.5395994 0.51018494 -0.08331494 -0.0020058372 0.81654435 -0.07013984 -0.54439515 0.63933194 -0.31731758 1.1341597 -0.19046915 0.2584505 -1.1739261 -0.5692261 -0.37191144 -0.4697234 -0.7712229 -0.35673243 0.1070396 -0.48900408 0.4546738 0.34127113 -1.5894448 0.7725709 1.206713 -0.9370768 -0.6065216 1.2613914 1.166884 -0.25673968 0.50655353 0.40478048 -0.18882346 -0.09801581 0.5548104 0.013527195 -0.16462709 0.6679767 0.30504933 -0.19185923 0.6551379 -1.1688322 -0.3447881 -0.43431473 -0.34412 -1.4548066 -0.8632833 -0.029199066 0.10402469 0.74809474 -0.1698075
409 0.68638927 0.34880754 -0.8987367 0.8426621 1.1438144 0.5884678 -1.9416705 -0.7462568 0.18623012 0.97276855 -0.9212116 0.818637 -0.37216616 0.23076041 0.565002 0.11997624 0.7726396 -0.3141803 0.03675785 0.67326015 -1.2960382 0.42468944 0.8562963 -0.1931579 -0.19613974 0.025538906 1.3477181 0.80640036 -1.1641724 0.977357 -0.066452906 1.488523 -0.90545756 0.10276289 -0.43782356 -0.32100657 -0.6116411 -0.016942695 0.8319141 -0.568169 -1.1529105 -0.30438766 0.52981406 0.5664509 0.39715374 -1.0295284 -0.17669298 0.2461864 -1.4128388 -1.6058658 0.17224334 -0.3374155 -0.8572049 -0.1670071 0.16663086 0.6341191 -0.6443037 -0.13158172 -0.94379944 0.7094493 -0.109944545 -0.27414852 0.75016224 -1.5551199 0.52708185 0.1302881 -1.0381294 -0.5938093 -0.08878219 0.3991898 -0.49084827 0.48382026 0.41723636 -0.59204805 -0.07315648 -0.44206658 -0.84142566 -1.0664157 0.70896953 -1.2543536 0.72602147 0.9092103 0.8700019 -0.42527312 -0.18275551 0.19340634 0.7878485 0.13851707 0.29571712 -0.8634997 0.18824041 -0.96073306 0.17241333 -0.45993847 -0.47798067 0.8424724 -0.20357907 -0.44592384 1.6651866 -0.37711993 -0.7286153 0.7987311 0.22260861 -0.12002287 0.25888056 0.3346242 0.5383018 -0.62683237 0.69221973 -0.9546717 -1.5313772 -0.55435675 0.15572721 0.13425913 0.8485777 0.95817465 -0.44385564 0.6100136 -1.0570403 -0.38768113 0.8725809 -0.5381865 0.66270304 0.16864707 -0.091001675 -0.8541884 0.7953776 0.37793
108 0.7160929 -0.048933487 0.6063978 -0.1272089 0.20655675 0.5145912 -1.4737962 -0.77629954 1.890433 -0.17761502 0.027961751 0.59087837 -0.5804685 -0.18983829 0.055040967 0.55319154 -0.2441705 -1.3972158 0.8212205 -0.19851717 -1.92453 0.25659966 0.332381 -1.0676413 -1.0422536 -0.22256361 0.6464941 -0.26430944 0.27006462 -0.3426746 -0.54836726 0.46029982 0.85513467 -0.45023927 0.8772855 -0.14038934 -0.7562172 -0.63793474 1.6905943 -0.17492323 -0.30741447 -0.28462785 -1.1361375 1.3082423 1.3228709 0.36430264 0.4891692 -0.4888954 -0.3765419 -0.29508856 1.0198175 -0.93618846 -1.0670778 1.4705914 1.0214555 0.6585556 0.16225797 0.112194896 -0.77012414 -0.14874955 -0.076661624 0.059460167 1.2568244 -1.4353563 1.0297073 0.9038243 -0.045791756 0.9094413 0.65551853 -0.25029808 1.184743 0.40342587 0.40688217 0.17792696 0.7314548 -0.8538372 -0.25970778 -1.0007888 -0.8349831 0.2867307 0.61030823 1.1007473 -0.8281109 -0.39765844 -0.70249397 -0.077437185 0.40865123 -1.1888824 0.63529414 0.032439765 -0.12759632 0.37967592 -0.13537683 -1.467228 -0.15398939 0.6128225 0.35308838 0.35107878 0.10932436 0.12716512 1.1777989 0.48350233 -0.46940964 -0.4096227 0.008310519 -0.3528028 -0.03713507 -0.4936233 0.62546647 0.2653023 -0.6232076 -0.6904098 0.34740803 0.7251726 -0.3920862 0.14075413 -0.6078761 0.7810399 -0.8843562 1.2005403 -0.4003916 0.8897347 0.269507 0.46467623 -1.632521 0.64568233 -0.46571082 -0.616661
434 0.69692117 0.37661648 -0.5493386 -0.7003833 0.37639266 -0.9685076 -0.6601143 -0.13898806 0.8266631 0.6975499 -0.094204925 0.092834555 -0.423039 -0.23629685 1.3983557 0.36077112 -2.111551 -0.21981421 1.3994898 0.22681257 -0.4922037 0.8741007 -0.22400336 -0.6315491 0.063158445 -0.90836555 0.5594614 -0.8540909 0.00919423 0.5967997 0.35456696 -0.5684106 -0.4697293 0.5140573 0.080853224 -1.0467893 0.54518265 -0.543949 -0.10828113 -1.2007686 -1.0344888 -0.4578563 -0.7851338 0.53481466 0.6204971 0.48444688 0.0044527473 0.7314885 -0.68401724 0.43680993 -0.16091585 -1.0978179 0.6188374 -0.3329435 -0.18923734 0.35984403 0.037741214 0.66374415 -0.17229275 0.27604213 0.06047379 -1.0753211 -0.6259849 -0.3838731 -0.09858591 0.61756206 -0.096768826 -0.12045657 -0.05165976 0.49502838 -0.51608413 -0.16778317 1.4682479 0.62926733 0.45491773 -0.18086997 -0.71093494 -0.591422 -1.6335713 -0.75303155 0.62225455 1.0403233 -0.8301267 0.74011034 -1.3141702 0.53968036 2.0893323 -0.94724137 -0.7949864 -0.8912085 -0.1158726 -0.44260427 0.3791866 -1.5353941 -0.7164226 0.19274211 -0.32218078 -0.081083804 0.09847212 0.1377893 1.3575468 0.7452458 0.6525183 -0.2266995 0.9247621 1.2989756 1.070935 0.43516955 0.2243822 -0.07756123 -0.08159615 -0.6206375 1.0914986 0.5251775 0.17656502 -1.1611192 -0.17174627 -0.5454544 -0.3913554 -0.24727203 -0.019975513 0.5689068 -0.5183937 -0.3281049 -0.8691962 0.367743 -0.09067086 1.1830949
257 1.409887 0.1551746 -0.4502798 0.457561 -0.9853297 -1.0740405 -0.0011250055 0.02487765 0.910539 1.195083 -0.24327062 -0.16519731 -1.5405116 -0.53282714 0.030461293 -0.64221257 -1.9889793 -1.0477562 1.0713714 1.1126274 -0.27035242 0.9891345 -0.7499144 0.35314184 -0.61473083 -0.75202304 0.17404468 0.020978587 -0.73416173 1.5246004 0.035917204 0.3655597 -0.22644432 0.043126605 -0.31202617 -0.8054724 0.60757077 0.8587352 0.30608314 -0.2130506 -0.8320621 -0.0883727 -0.025916612 0.8332833 0.339485 0.09406007 1.009102 -0.38607544 -0.5130434 1.0076429 0.5763207 -1.0004816 0.04810497 -1.0680261 0.651379 0.57073796 0.05742708 -0.8965131 -1.4785645 0.33587477 0.59934026 -1.3003067 0.4690213 -0.5700002 0.16748561 -0.2741296 -0.6366401 -0.3197205 0.18503964 0.0017698844 -1.0261375 1.8079957 0.03251362 0.2069642 -0.6466447 0.39949286 0.29946408 -0.858495 -1.0697273 0.17346239 0.21423803 0.9818376 0.4446648 -1.0638558 0.04519698 -0.032101996 0.92160743 -0.6406582 0.04752243 -0.91212696 -1.6686523 -0.51271755 -0.21138926 -0.3352504 -0.2560419 -0.049848475 0.61736715 -0.7624681 0.022073762 -0.32500532 -0.100050345 0.91409993 -0.57735205 -0.1746927 -0.19015805 0.50402105 -0.13581133 -0.7793628 0.11401644 -0.5252057 -0.11675344 0.14096017 1.179345 1.8152109 -0.16957864 0.085640326 -0.0061164494 -0.62169176 -0.21684118 -0.5797006 1.5219284 -0.14534028 -0.060538046 0.80881554 -1.3837483 0.5787174 0.5300775 0.8740958
107 0.56073105 0.10855979 0.39879534 -0.0023618643 -0.758793 0.5841926 0.061817963 0.18724473 0.075424306 1.0431567 -0.13745685 -0.58304745 -0.74716836 -0.13420705 -0.36530432 -1.6953398 -0.45476192 -0.011999045 0.38787067 0.25146025 -1.3590767 0.9390815 0.31875572 -0.5360701 -0.6191145 -0.93232876 1.1539063 0.123854846 -0.8028244 -0.4807244 0.17433247 0.44321558 0.13366376 0.66310203 -0.15631488 -0.5146618 -0.25738242 -0.5616076 1.1788495 -0.43452933 -0.5295638 -0.65056735 -0.42025852 0.50075847 0.009133685 0.5870819 0.9281002 -0.12655008 -1.3988916 -0.9359869 0.79218984 -0.7078347 -0.10718688 0.032076992 0.36027226 0.5571037 -0.47408214 -0.8901881 -0.32705432 0.19786385 0.3583161 0.38103592 0.7239575 -1.7064078 0.898079 -0.19668493 -0.4001672 -0.9700521 0.3068103 -0.1539526 0.9721227 0.7262049 0.8904731 0.09984888 0.19643937 -0.8330865 -0.1605022 -0.93448 -0.98432946 0.78070056 0.410278 1.4583179 -1.6745093 -1.4915997 -0.6846015 0.028514646 -0.2826155 -1.6133853 0.7942236 0.09909828 -0.4974041 1.3969461 0.42668322 -0.19229843 -0.027026406 0.19482902 0.7635484 -0.045395616 0.59605855 0.19618641 1.6043751 0.32902128 -0.51344466 -1.4233128 -0.07006761 -0.33066672 -0.14683041 0.5849725 -0.31551644 -0.3861663 -1.7531966 -1.0485477 1.1617848 0.40646645 0.49551708 0.90434635 0.71598434 1.2331686 -0.5920035 -0.20678273 0.356893 0.24735677 -0.7538413 1.2951485 -0.7115324 0.42032608 0.14665712 -0.17967443
327 0.59799045 -0.34343305 -0.6295781 -0.4655142 0.12906148 -0.43481803 -1.7706896 -1.3890128 1.1102566 1.575583 0.18078457 0.09219268 0.32924256 -0.21656772 -0.45381874 1.4709092 0.48612162 -0.28555822 0.88770455 -0.31418794 -0.67187876 -0.34887937 -0.5188654 0.23858471 -0.85068554 -0.40975952 0.4962777 0.74286383 -0.8239664 0.77673334 -0.07156202 -0.024382193 -0.32880685 -0.6123288 -0.27967948 0.47109184 0.86821073 -0.33145013 0.92075276 -1.1772778 -1.6603713 -0.3592574 -1.4237597 -0.15263414 -0.031898525 -0.33596945 -1.2214906 -0.99735487 0.25739625 -1.2271364 1.5121957 -1.2312331 1.0589839 1.081996 0.8470534 1.2145112 0.23567244 0.524037 -1.2771857 0.52963245 1.0318902 0.045206327 0.6810457 -0.6881695 0.017875912 0.51119643 -0.5639324 -0.2820341 0.24609937 1.1689595 -0.23159206 0.109361716 -0.7613115 1.659148 -0.041041113 -0.95520765 -0.53178144 -0.28686252 -0.016885497 -0.25778037 0.1890774 -0.13399003 -0.15434408 -0.21883465 0.3595546 0.5449952 0.77120817 -0.50827765 -0.20203577 -0.7802003 0.26869878 -0.17554232 -0.47106418 0.20213561 -1.0453935 0.16392343 0.79639614 -0.1965739 -1.3050116 -0.52451074 0.15401697 1.4177706 -0.90491724 0.135025 -0.6542336 0.88341695 -0.58591 0.08558612 0.28850126 -1.5425564 -1.0334764 -0.7385892 -0.042967163 -0.5191721 1.0183786 0.29671577 0.5491746 1.1879406 -0.9311344 -0.19647269 0.0068440796 0.648621 -1.6014563 -1.3127799 -0.4443282 -0.45724088 0.44453195 0.05255356
282 1.1828225 -0.8534674 -0.27880663 -0.9527406 -1.0145413 0.08816286 -0.66472894 0.17464094 -0.3223558 1.918773 -0.5282542 -0.17187972 -0.3297967 0.1361421 -0.48999864 -1.7540821 0.33587402 -0.83795595 0.18695015 -0.03142936 -1.3794892 -0.5641424 0.7180462 -0.24236192 -0.8487305 -0.53375316 0.7213292 0.27815625 -0.21315902 0.2166082 1.3354875 -0.6861449 -0.8698415 -0.5127078 -1.4224895 -1.2081572 -0.85940486 -0.58866346 -0.49685502 -0.2681373 -0.70693064 -0.05103698 -1.3716199 0.8540833 -0.1337426 0.049697123 -0.42523703 0.5865497 -0.18739992 -0.20419085 0.89368004 -0.21942437 -0.32451186 0.18889055 -0.22088441 0.50415367 -0.37037313 -0.5846919 1.6480161 -0.38607085 -0.5043008 0.22006665 -0.046621658 -0.5980615 0.84991384 -0.35797656 0.32962313 -0.058232807 -0.3839262 -0.069571674 -0.56340504 -0.2032367 0.6725586 0.51543915 0.09970308 -0.93136233 -1.1507077 0.03821599 -0.19855349 -0.4214436 -0.7667111 0.9050715 -0.56270146 -0.9394844 -0.6968152 0.62268424 1.8495321 -1.0943772 0.23671407 -1.2005086 0.47055763 -0.4526358 0.24846286 0.05031611 0.1016678 0.70757467 0.7312963 -0.82897204 -0.55536246 0.107913524 1.1919829 0.9514922 -1.1382698 0.08355666 0.8719619 -0.24620141 -0.21985237 -0.20510459 0.4779576 0.41364068 -1.0860324 -0.596704 0.47607943 1.0147059 0.57201463 0.9187132 -0.24304715 0.7321975 -1.3961642 -0.69210845 1.1358863 0.016961731 -0.95758075 0.71723753 -1.2530935 -0.27999645 0.4814582 -0.58538544
395 -0.2863733 0.50337726 -0.98077816 0.05610667 -0.29781866 -0.5107983 -1.0848808 0.07969419 0.37531957 0.27585843 -0.8606489 1.4095676 0.75316566 -0.6161608 1.1049621 0.4989314 0.9409923 -0.8770384 0.4945522 0.6796585 0.16455792 0.09646095 -0.72504646 0.82797545 0.056402203 -0.49444312 0.40031275 -0.9998315 -0.6117204 0.52850133 -0.4986648 0.9271964 -0.26699743 0.04158544 0.79911894 0.17173496 0.16133125 -0.09337792 1.0848532 -0.60227466 -1.3857225 1.0360149 -0.049221203 0.6882199 1.6884469 -0.44667956 -0.062148344 -0.50472295 -0.11868567 -1.4464751 1.2038274 -0.11263383 -1.5422254 0.42565784 1.3312603 0.5848528 0.04948406 0.032950625 -0.7953285 1.3578427 -0.059104584 0.6127495 1.5873168 -0.42584294 -0.40972945 -0.071767524 -0.69554305 -1.4927349 0.6116352 0.041385714 -0.73972684 -0.037689377 0.6176905 0.12011242 0.39309448 -1.7013985 0.4259612 -0.7607057 0.35194778 0.34443885 0.44909137 0.4325653 -0.75168854 -0.5501139 -0.42745045 -0.0006206382 -0.26224416 -1.0228082 0.04710474 -0.99814075 0.9202726 -0.20471098 0.22561231 0.49945286 -0.91175586 1.5510783 -0.13575028 -0.4650281 -0.12620927 0.8796172 0.44155994 0.19144757 -0.34245265 -0.018458487 1.0690191 1.521315 -0.04186936 0.34203967 -0.09001811 -0.2900066 -0.89123935 -1.2044089 1.1738335 0.009288647 0.5820771 -0.36034137 -0.16676402 0.94609433 -0.5627461 -0.28332633 0.34213248 0.1319108 -0.2122457 0.08622509 -0.68574005 0.07326476 1.4253342 0.60471356
388 -0.62669986 -0.05459954 -0.56984127 -0.35305142 0.8365401 -1.2862797 -0.6820398 -0.9230705 -1.8005174 0.4760852 -0.29929796 1.1247437 -0.36304966 0.819447 0.7185433 0.6900794 -0.24747017 -0.7239046 0.83700794 1.174477 -0.66477686 0.42056045 -1.2626126 -0.34370834 -0.45175618 0.76518816 0.05373049 -0.9056379 -1.414522 0.58729106 -0.56855035 0.71363384 0.022051662 -0.24043038 0.8934497 0.20651571 0.17167248 -1.0264715 -0.38950863 -0.06984858 -1.5085632 -0.09104052 -1.4899794 1.0525546 -0.5912622 0.26456755 -0.10325751 -0.021426704 -1.1083834 0.64903575 1.5519453 -0.83639395 0.30982313 -0.532049 0.41978207 0.9839571 -0.19103079 0.5944443 0.07731073 0.08742742 1.1679797 0.4728249 -0.58245546 -1.137119 1.060553 0.030760117 -1.0049442 0.62027586 -1.8351626 0.9295703 -0.07816794 0.42439282 0.5448985 0.6668688 0.39098993 -0.30515307 -0.39457178 -0.48662895 -1.9163225 0.10033875 -0.5989534 0.63780797 -0.6759802 -0.7333314 -0.95105016 0.0476916 1.8800555 -1.2206951 -0.0608076 -0.53296584 -0.14537527 0.26745713 -0.94489396 0.037264127 -0.7201735 0.2429763 0.015480749 -0.05995062 0.37466323 0.08398097 -0.22644022 0.02185636 0.5071648 -0.6463961 -0.18010956 0.8393545 -1.0086526 0.17774323 0.69001883 -0.827726 -0.13613231 -0.9018122 -0.114614524 0.65178525 0.7832661 -0.30393904 -0.65269834 -0.84810174 -0.2984049 0.51487845 0.6692022 0.110642545 0.30159658 -0.5220807 -1.5717003 0.71069527 0.9860329 0.9669919
225 0.07482042 0.14095154 -1.1097474 0.9090666 -0.12424916 0.7021393 0.4535062 0.7018083 -0.45403436 1.2069136 0.2612045 0.1915694 0.20162617 0.90446657 0.21166603 -0.47753525 0.33921233 -1.296645 1.2041998 0.49999318 0.50132895 0.15489234 -0.2517259 0.12217785 0.32361782 -0.654979 0.7860827 -0.6178049 -0.5907992 0.120743066 -0.43320557 1.0556523 0.46380624 -0.52298176 -0.048533343 -0.18271181 -1.2784526 -0.8661211 0.5131643 -0.9267045 -0.84283984 -0.55966806 -0.5661589 0.12673531 0.20386149 -0.16608822 0.6111023 -0.45271075 -0.2199703 -0.26315945 0.6147966 -0.6228964 0.866034 1.0117724 0.117616884 0.021801634 -0.09077911 -0.9404378 0.1108324 -1.066609 1.2852304 0.5644241 0.09233817 -0.81893754 0.13851242 -0.94396806 -1.3101658 1.4543058 0.73648655 1.0767972 0.092795335 1.2125909 1.5351058 -0.15330634 0.5299208 -0.29218853 -0.2243599 -0.13452007 -1.5115914 0.9727972 0.35824502 0.83273923 -1.2065504 -0.81029683 0.9046532 0.676414 2.0070817 -1.1168897 -0.63035005 -0.17675954 -0.48168457 -1.657488 1.0949533 -0.25893652 -0.60444486 0.022895498 0.30993402 0.43443412 -0.11931912 -0.83897823 0.13351169 0.24819481 -0.99048096 -1.8580987 0.03556811 0.5723551 0.42238072 0.0914391 0.4842207 -0.011224437 -0.9556055 0.060146507 1.6326709 1.0331578 0.100755855 -0.043935753 1.5841172 0.017746424 -0.11255959 -0.55487067 1.4233764 1.3219455 -1.0721593 -1.1677625 -0.61654 -0.52687705 0.031540226 -0.13218471
194 0.34889036 -0.7873573 -0.63051724 -0.198285 0.6419309 -0.2869298 -0.43270662 -0.95042413 -0.033551723 1.0959095 -0.3604326 0.89763397 -0.42999098 0.5856211 -0.17051591 0.16959478 -0.7952876 -0.91304225 0.67213076 0.5571244 -0.38947096 0.43322185 -0.46049523 -0.3082147 -1.0013155 -0.7764292 0.50262064 -0.43420303 -0.21174066 -1.0168512 -0.6339256 0.79396087 -0.2567569 -0.7900656 -0.5332249 0.5377931 1.2192482 -1.0178814 0.05766663 -1.0527172 -1.0101014 -1.2142026 -0.044702094 0.03894077 0.023106024 0.42077652 -0.39954647 0.26074436 -0.13547605 -1.0086138 0.6102551 -0.8101591 0.7876012 0.1631837 1.3080914 1.1134897 0.1690323 0.8194693 -1.3546741 0.12909092 1.183267 0.6343973 -0.026327787 -0.44627276 0.38193333 -1.0113347 -0.98749775 -0.04691207 0.35182738 0.3114623 -1.0300038 0.44286716 -0.5486068 0.98935187 0.70393115 -0.83312863 -0.17471552 -0.25777107 -0.29503983 -0.28657186 0.16582002 0.5229217 -0.49023715 -0.1988014 1.7119406 1.0483263 1.5515704 0.0071339244 0.306892 -0.242489 0.5278672 0.019872917 0.5502851 0.92960495 -0.3678268 0.73648304 -0.033989016 0.050378717 0.6069128 0.1270792 0.4504522 1.4901159 -1.2671418 -2.1321077 1.0047468 1.6715112 -0.28952602 0.51434714 1.29327 -1.4216995 -0.99303895 0.08860363 -0.019304467 -0.14207633 0.1404352 -0.86696863 -0.051292155 0.4396198 -0.9766621 -0.1289058 0.99710625 0.23575114 0.34141755 -0.9724984 -2.199565 -1.0501673 -0.25730532 -0.026549837
335 0.3176594 0.3704444 -0.8035549 0.41299036 0.6343908 -0.51907724 -1.3869636 0.32870162 0.30953345 1.2337683 -0.40779805 0.3831196 0.2075124 0.36400527 0.7852929 0.010094483 -1.2745116 -1.0326227 0.99888873 0.025245244 -0.42742392 0.36145055 0.5796597 -0.46451655 -0.043979853 -0.62327653 1.2360239 0.18109307 -0.33359137 0.26780948 -0.21421134 1.2241147 0.20900792 -0.83151793 -0.4022364 0.16621053 0.47921297 -0.29186946 -0.3373809 -0.25355032 -0.39710295 -1.088113 -0.7153607 0.36903766 -0.8985354 0.032146085 -0.24077752 -0.3054479 -0.7113195 -0.8050864 0.44478452 -0.4071189 -0.23853868 0.46201378 0.9023389 1.6096468 -0.13756132 0.6947702 -0.69959724 -0.5821502 0.8370437 0.7077105 1.020736 -0.9767868 0.793548 0.3197711 0.30652022 0.31092548 0.8963098 0.41450104 0.32384905 0.3153961 -0.112714484 0.34105828 0.51293147 0.20780563 0.1946937 -1.2785857 -0.47079635 -0.09090796 0.39568868 1.0678046 -0.643844 -1.2027526 -0.2927479 -0.72247356 0.64085376 -0.37508813 -1.293101 -0.4901788 -0.044328257 0.50694746 1.1302025 0.39475343 -0.05386952 0.4094054 -0.6762689 0.2636991 1.0484434 -0.04853186 -0.66429377 1.0695934 0.036703628 -1.4898105 -0.3794316 0.9791129 0.33899003 0.5938484 1.0447271 -1.1212411 -1.8350128 0.017791392 -0.18743068 0.012625737 0.6795032 1.2770439 0.39723897 0.16346511 -1.5871438 -0.18780403 0.4855814 -0.13819188 -0.73112583 -1.0131285 -0.82425666 -0.32198873 1.3905866 0.35446748
71 1.4683328 0.15904611 -0.75253016 0.4273409 -0.10701515 -0.91887784 -0.8763976 0.41528323 0.32642657 1.1728498 -0.45632342 -0.35075063 0.05805597 0.8455988 0.7386379 -0.30728796 0.34831452 -0.3219571 -0.007056757 0.6495324 -1.1450202 -0.2677665 -0.61315197 -0.9700234 0.58086777 0.86013764 0.59331864 -1.2068312 -0.8343914 0.95737565 -0.2504505 0.6974487 0.7313342 1.0426948 -0.08861207 -1.4450003 -0.9922148 -0.6275675 0.17643231 -1.1174682 -0.9831172 -0.9991446 -0.1843015 0.06853283 0.8934128 0.08238309 -0.24174936 -0.47822574 0.3051729 -0.6297768 0.7616459 -0.8199599 0.34239313 -1.2131035 0.22069581 0.025646465 -0.46474862 0.05450296 0.48902112 -0.6885677 0.15867491 0.37314594 0.46594736 -1.5844058 1.9785261 0.5805401 0.35520977 -0.054450735 -0.4173711 0.35020676 -0.2819815 1.2568657 0.8927469 -0.06319932 0.84388304 -0.500844 0.61716807 -0.4577266 -0.38571337 0.31329376 -0.20429635 0.32788312 0.19111216 0.34402072 -1.4477347 -0.6973087 0.9648749 -0.90439844 0.3778375 0.6031234 0.65993464 -0.64875215 -0.74300694 0.48490134 -0.81578225 0.11405732 -0.41145042 -0.1857302 -0.16898294 0.30755058 1.1473786 0.6386843 -0.5075315 -0.5127804 0.7432408 -0.7708996 -0.6921356 0.35933685 0.30632883 -0.45061073 -0.8818446 -1.4733887 1.7878355 0.67138416 0.8362987 0.3945212 -0.0515459 -0.40651304 -0.7834342 -0.36439365 -0.52908367 -0.21742128 -0.6882912 0.13365494 -1.3421094 1.1929317 0.01197938 0.7514273
390 0.6248999 -1.5355939 0.10135009 -0.34278014 0.87644 -0.3323592 -0.41789165 0.5691157 -0.73766804 1.0704998 -0.39381975 0.21892197 -0.54072773 0.030120216 -0.064587116 -0.84877455 -0.13388892 0.44611806 0.57333016 1.1516776 -1.2719151 0.3506868 0.77093494 0.08940139 -0.7326586 0.050147597 0.3160501 -1.3400552 0.4079853 0.7661595 -0.5752048 -0.6074362 0.8154136 0.23526385 0.08640605 -0.6754629 -0.10778889 -0.6353283 -0.21881971 -0.24870135 -0.36626965 0.6775656 -0.7463567 0.440184 0.5087649 -0.09912489 1.4598416 1.0275736 -0.7003535 -0.03893925 1.7457047 -0.43366867 -0.44190875 0.1360048 0.1002762 0.7667754 -0.46285275 -0.50284505 0.7466933 -0.4083045 -0.13312794 0.55779797 1.6237584 -1.7839344 1.7342331 0.7387477 0.3970329 0.5132868 -0.19672857 -1.0912685 0.14996536 0.95953614 0.9622758 0.7632722 -0.02999326 -0.38207623 -0.35233516 -1.2907808 -0.38462058 0.1038221 0.39063272 0.5218843 -0.32337227 -0.8218991 -0.47829565 -1.14902 1.0310034 -1.3156171 0.56974053 -0.987762 0.17283715 -0.21659252 0.36479002 -0.9178995 -0.19679384 0.30722758 -0.24711227 0.21525209 -0.1963999 1.0096784 -0.27560464 1.1072828 -0.645581 -0.012892603 0.16661242 0.03181457 0.25496373 -0.3429696 0.42500958 -1.5914363 -1.4575979 -0.9735611 0.80649406 1.1434406 -0.87916 0.54266304 0.13980512 -0.65440357 1.0288925 -0.40308684 0.7965184 -0.29882774 -1.1832447 0.4468078 -1.5928675 1.1701344 -0.39557096 0.5629567
304 0.74250317 -0.88658583 0.04238488 1.0602987 -0.13429528 -0.75906205 -1.3077089 -0.29390097 0.8073016 0.20044166 -0.123085275 1.6513103 -0.093611114 -0.6861285 1.2436808 0.13998511 -0.36532408 -0.4937097 0.19807619 0.19850583 -0.63942033 -0.079401635 0.052173596 -0.40589252 -0.47645974 -0.7286784 1.2983372 0.43973807 -1.5249444 0.31117684 -1.5789117 1.5594685 -0.90691197 -0.306689 0.5715659 -0.72043055 -0.95344657 -0.68988925 1.0775337 0.35359615 -2.4027545 0.25489923 0.32397386 1.125821 -0.22990182 0.2281096 -0.105462104 0.08465873 0.47872463 0.10620472 1.1738727 -0.44334015 -2.1149333 1.2092234 1.1226318 0.73631907 0.22897485 0.307482 0.18766025 0.44182137 0.7024541 -0.42736334 0.6949807 -1.2343681 1.6619523 0.48675573 -1.2924631 0.50709665 0.048271842 0.14694762 0.27076674 0.40565562 0.07267317 -0.5115321 -0.26087698 -0.96261954 0.2887615 -0.29257306 0.48123038 0.0007383281 0.8346198 0.5596967 -0.4147858 -0.9495149 0.2416672 -0.030780429 1.2051799 -0.40546602 0.12538141 -0.49315283 -0.38478887 0.105097145 -0.25929207 -0.99233055 -0.14888747 0.8162549 0.60334 0.27779686 0.46688795 0.29847845 0.33779275 1.0567179 0.21917792 0.06999168 0.568553 0.82391477 -0.025055282 0.61198676 1.3310006 0.008093038 -0.24757165 -0.24939458 0.8421351 0.8509377 0.92757714 0.85313475 -0.6580661 0.9017015 -1.1323749 -0.096375346 0.3527875 -0.062557004 0.8324239 -1.0200133 -1.7433797 -0.24537523 0.85769284 -0.59719026
205 0.69337356 0.9312045 -0.97781074 0.53163034 -0.02698659 -1.0478674 -1.082782 0.7979165 0.43401286 0.7390763 -0.28570724 0.021676892 -0.013004897 -0.6418821 1.2045426 -0.03945486 -1.5895828 -5.658005e-05 1.4602679 -0.77855545 0.38816902 1.2014099 -0.04402434 0.116342306 -0.18769173 0.3108815 1.1033452 -1.4988497 -0.90445143 -0.4818622 1.051508 -0.17160521 -0.25062138 -0.42387855 -0.6297263 -2.000126 0.39074093 -0.594955 0.8594255 -0.5082313 -1.3101432 -0.39228293 -0.6153643 0.7908926 0.28253233 0.43339664 0.4195713 -0.52602005 -0.81488764 -1.3463151 -0.09321489 -0.46408775 0.49954867 -0.49173504 0.07168366 0.88176763 0.8010981 -1.0198232 -2.0083966 0.48676938 1.8432513 -0.3906743 0.8128427 -0.46107405 -0.012938379 0.88375634 -0.2763341 0.36283106 1.1051952 0.5141281 -0.662165 0.8590142 1.4520909 -0.8312152 -0.028158264 -1.1130797 -0.18220972 -0.49248555 0.1592154 -0.35395482 1.7949294 1.5788907 0.016580913 -0.8664668 -1.371115 -0.37265748 1.4925483 -0.4740603 -0.07578723 -0.7499735 -0.05201228 -0.20100741 -0.35084346 -0.53052795 -0.9365113 0.22587603 -0.48372963 -0.7604947 -0.13063388 -0.27980238 0.7589183 1.0739199 -0.2323493 -2.1824145 1.3721541 0.43678707 0.16465598 0.26719645 1.6581943 -0.37417427 -1.1262515 -0.432202 0.49047655 -0.04604119 1.461238 -0.31388003 0.37334317 -0.6811546 -1.2320101 -1.229994 -0.25627762 0.5225902 -0.8507802 -0.402277 -1.2243716 -0.5222356 -0.7722438 0.48078683
50 1.0800029 0.2804752 -1.2261382 -0.5179892 0.23511782 0.111505546 -0.87968093 -1.0474813 -0.42375115 1.1295196 0.17446387 -0.26756135 -0.4458267 -0.7627808 0.23922975 0.036481243 -0.33451337 -0.3882065 0.5043801 -0.09922832 -0.9733163 0.172647 0.6738659 -0.6587713 -0.03534106 0.056807537 0.38875982 -0.19786012 -2.0718708 0.70001465 0.5992152 1.2895312 0.3102446 -0.1597061 -0.67784315 0.50686747 -0.5171251 0.07806878 1.0152931 0.22141984 -0.74824667 0.4904963 -0.07914432 -0.6129774 0.0002583763 -0.28013578 -0.23025346 -0.40084344 -0.6335936 -1.1406726 0.27227965 0.2812714 -0.66023976 -0.05826736 1.3080969 0.7603755 -1.192871 -1.2983387 -0.6330075 -0.71280336 0.94417804 -0.54648715 0.45471993 -0.682213 0.84913546 0.72628796 -0.31740463 0.18467188 0.14154342 -0.27750865 -0.56179523 -0.8719656 0.8876986 -0.51554114 0.7440516 -1.1117811 -0.8783206 -0.2639748 0.71855867 -0.50234544 0.60325986 0.7851893 -0.30601445 -0.4362325 -0.332042 0.29065344 0.9611362 -0.474468 0.4812038 -1.2324452 -0.95885205 -1.302692 0.55562186 -1.229408 -1.1857774 1.5533408 -0.8455172 -0.104424804 0.934847 -0.92903477 0.25123146 1.3211607 0.6686366 0.39913282 0.5637174 0.085454084 1.9328921 0.33512875 1.1800665 -0.5665203 -1.89383 -0.1590895 0.07026308 -0.21013637 -0.78213686 0.47682497 -0.7664703 1.0520498 -1.8119837 0.00725641 1.0510108 -0.18937157 0.35093626 -0.30349404 -0.87835866 -1.0253298 0.12925065 0.040692594
293 1.5589768 0.48926225 -0.071386084 0.6654745 0.7702628 -0.1323525 -2.0768578 0.71122205 -0.13698931 0.57563865 -0.034094397 0.36366326 -0.17789648 0.33997107 0.76305217 -1.8647484 -0.9505732 0.2551384 0.58545864 -0.7974405 -0.805507 0.20140702 0.17214787 -1.0767435 -0.09521737 -0.2999294 0.6851229 0.49224076 -1.0370164 0.41660747 -0.48836085 0.43750933 -0.025282431 -0.27866995 1.5565261 -0.47744292 1.0822477 -1.1845256 -0.5859205 -0.2903515 -1.1207997 -0.084546305 -0.25795656 -0.63589406 0.21238852 -0.5270578 -0.78992814 0.4155845 -0.6965828 -0.6367457 0.949926 -0.045853924 -0.44355854 0.3048367 1.9249212 0.52786165 0.41362527 0.18918265 -0.36038148 -0.77166545 -0.17172837 -0.25132316 1.4076153 -1.1994116 1.0888461 0.5866865 0.57921386 0.5054324 0.32181117 0.52965945 0.1558588 -0.39262074 -0.48800677 0.502315 0.7603385 -0.3113941 0.56963193 -0.65041065 -0.08563742 -0.07877384 0.23886746 0.8610847 0.47257146 -0.40446934 0.14054869 -0.61807173 1.8432721 0.3195472 -1.0514678 -0.76035327 0.96531427 -0.2445316 0.79060435 0.052400626 -1.4684504 1.4292299 0.47520405 -0.7782647 1.1593126 -0.8612604 0.33051547 1.0088077 -0.5991082 -0.2657743 0.4715627 1.1382053 0.7754331 -0.043957036 1.1624228 -0.7978698 -1.4031392 0.26449928 -0.12245938 -0.06485343 0.98862946 0.22015457 -0.19720775 0.84063804 0.032122694 0.56908727 0.3917779 0.53138244 -0.97494864 0.34578997 -0.9416645 0.18604556 0.8568133 0.04249878
386 1.4483836 0.76431906 -0.29335243 -0.8783905 0.5559941 -0.82531536 -0.9432617 -0.4262534 -0.31308475 1.2841669 0.81904143 0.64068544 -0.08155758 0.5196834 -0.102267414 -0.6833425 -0.5329201 -0.22987854 0.9251866 -0.8089206 -0.06466326 0.74942464 0.1695078 -0.27520326 0.029006192 -0.28018013 0.8675455 -0.9455954 -1.2932231 -0.3149619 -0.15315719 0.61873865 0.20303468 -0.30732444 1.0807537 0.52999383 1.1878526 0.6607485 0.858308 -0.70120573 0.062498435 1.27755 -0.70857996 1.182691 1.1230743 0.33732015 0.0150089655 -0.028287586 0.8332695 -0.34950244 0.49425998 -0.21845077 -0.9695841 0.20136781 0.9705377 0.81846344 -0.61655164 0.37312296 -0.39882088 1.2116747 0.5450931 0.72525096 0.556752 -0.8664345 0.50384504 0.15288895 0.9583513 -0.58129334 1.8263211 -0.47950664 -0.1884819 -0.5600204 -0.09046518 0.06231114 1.1854277 -0.7307277 0.21924944 -0.4173681 -0.17801869 1.408355 -0.36022827 0.7932169 -0.26671425 -0.4731718 -0.06623583 -0.39458027 1.9852047 -1.9834151 1.1759658 -1.2847079 -0.40124032 -0.41356996 0.6954303 -0.59358937 -0.33456823 0.08193572 -0.21755582 -0.5638506 0.44371703 0.4347856 -0.64732236 0.59671247 -1.422548 -1.0614282 0.090316236 1.5230129 -0.2821367 -0.2529856 1.5336831 0.19917065 -1.4375312 -0.3860957 0.806062 -0.24430877 -0.23857908 0.2988094 0.89722013 1.2561746 -0.6531017 -0.27040377 0.9131363 1.1260601 0.7111242 0.26544046 -1.8447946 -0.24763842 0.38684922 0.62790203
288 1.2886102 -0.3785189 0.29188716 0.85992515 0.65464395 -0.6476322 -0.06330705 0.8195918 1.1335326 0.9823568 0.06687607 -0.62573546 -1.3119868 0.5337815 0.5806024 -1.69666 -0.21024795 -0.4636908 0.4684019 -0.26466164 -1.2066818 1.0432334 0.13598646 0.009934287 -0.92771864 -0.0927342 0.99513775 0.90290123 0.46432143 0.15077247 -0.03766107 -0.35324693 0.30153826 0.22434355 -0.4390326 -1.4655342 -0.35629356 -0.39696145 0.19891225 -0.15819861 -1.2495942 -0.25674167 -0.5777459 0.3746272 1.3875725 -0.47129524 0.30190793 -0.02598013 -0.86094725 -0.19255383 -0.23831391 -0.28054214 0.16610877 -0.6546929 -0.3600571 -0.07242283 -0.10071943 -0.4926086 -0.22551553 0.09696105 -0.06025637 0.19629115 0.8844814 -0.90725136 2.005846 0.8075104 1.1120106 -0.6781773 0.010519587 -0.332707 0.46596903 0.802268 0.47322553 0.4914956 -0.12169771 0.39859784 -0.62471384 -1.071934 -0.118230954 1.8263866 0.7219134 1.4181774 -0.14782326 -1.0428771 -0.24530534 -0.21923985 1.2498051 -1.8922133 0.9761751 -0.8815505 -0.2664654 -0.83691496 0.62964624 -0.15025513 -0.1994501 1.005053 -0.14040928 -0.5039184 -0.30969343 -0.16355343 0.08894837 -0.003602617 -1.3673904 -0.4451726 0.41642898 -0.44003415 1.1350942 -0.38391507 -0.6429439 -0.3212345 -1.1664027 -0.06881277 0.6305145 1.49576 -0.16098078 0.9572066 -0.35511777 0.052935943 0.051677514 0.7827054 1.0076839 0.20070767 -0.15273668 0.71941996 -1.2901194 0.37316087 1.0427253 -0.6114744
240 0.6282752 0.11097763 -0.168166 -0.22930709 0.7286716 -1.8992481 -0.9581876 -0.55712044 0.42971215 0.9560615 -0.62808627 -0.16827199 -0.6009445 0.15682 -0.30467907 -0.19498645 -0.53620225 -0.333367 -0.17956991 -0.2821936 -1.0189826 -1.1142441 -0.5399697 0.009985274 -0.29892117 -1.0466774 -0.25532663 -0.31636176 -0.5374704 0.006214643 0.71263343 0.7330966 0.7649465 -0.2757592 -0.07698558 -0.52185845 0.050735198 -1.2652541 0.091776006 -0.55050355 -1.2833128 0.51190776 -0.09449032 0.09578942 1.5766025 0.051591255 0.024390616 -0.49368095 -0.45150405 -0.5541278 1.0588572 0.5035287 -0.50796425 -0.0133211315 -0.90747017 0.6359575 0.544389 0.20504294 -0.39443937 0.2965192 0.43272164 0.9077081 -0.089686595 -0.5764954 0.25492305 0.68158966 -1.0389801 -0.19625703 0.0768258 -0.5211279 -0.91676533 0.653804 -0.36593914 0.49192718 0.6045537 -0.9293562 0.37566242 -0.5715233 0.26655027 -0.416683 0.44869566 0.36547682 -0.80895585 0.7359212 0.78389984 0.5434713 0.8945831 0.09076516 1.7578065 -1.8888685 0.13413039 -1.1854352 0.006363212 -0.440313 -1.2364198 1.4309617 0.21160778 -0.36128598 -0.082540415 -1.4986131 0.9265587 0.69100803 -0.6757279 -0.5374527 1.0666945 1.6907904 -0.96789974 0.66981494 -0.45522514 -0.12053129 -1.3348163 0.75684744 1.0628034 -0.81093013 0.7295783 -0.46338278 0.48788288 0.69873 -0.6407079 0.44603434 1.2542633 -0.13306662 -0.4194409 -1.9244502 -1.2330668 0.025078462 -0.37460756 -0.61545
129 0.45546266 -0.28477016 0.08808715 0.0341661 0.097786516 -0.37580797 -0.8081319 0.081252724 -0.38396826 0.48098823 -0.5654257 -0.91759646 -0.5272242 0.8206554 -0.67388886 -0.3088596 -0.493425 -0.5565639 0.37339634 -0.10007899 -1.6437124 1.3357334 -0.704417 -0.3482497 -0.6179634 -0.80336 1.2050965 -0.7975353 -0.22804537 -2.1236494 -1.5675828 -0.55856067 1.5855933 0.64502066 -0.17033607 -0.51685476 0.30651593 -1.5452915 0.98058045 -0.39607725 -0.12073464 -0.474982 -0.39073572 0.052195176 -0.44964552 -0.4038905 -0.70706195 0.040476374 -0.42822042 -0.1583964 1.4210612 -0.73020446 0.21955752 0.7845059 0.21350162 1.0159897 0.42117703 -0.6964773 0.2731475 -0.5711333 0.31824252 0.4385601 1.5272397 -1.1581999 0.93073004 0.2762036 0.34229124 -0.3236283 -1.3823868 0.18202877 -0.04697679 2.2207258 0.2517437 0.38205013 0.7267092 -0.23089261 -0.3858276 -0.26145592 -0.87048167 0.32668504 -0.80899286 0.83524173 -1.2505083 -0.17348288 0.69403464 -0.087621115 1.3980665 -1.0950484 -0.5137606 -0.015703836 -0.2028847 0.5133156 0.6031578 -0.01054793 -0.38259983 -0.1107271 0.9196053 0.18074116 -0.376473 0.06034931 1.2178887 0.84959334 -0.59479046 0.30546406 0.08025037 1.1402211 0.70313066 0.5500899 0.6752451 -0.72859913 -1.1974863 -0.3388243 -0.30558595 -0.34200096 0.002987232 0.22791143 0.09331892 -0.098475814 -0.5796381 -1.3191141 0.3524639 -0.2007251 -0.46600452 -0.18095797 -1.1216677 -0.14951168 0.12941621 0.47931638
401 1.1148964 0.82147485 -0.984519 0.48204097 0.3302594 -1.3063914 -0.03555739 -0.2180142 0.14220662 0.6529507 -1.5429657 0.39544317 -0.7464595 0.35510248 0.827475 0.45727974 0.185759 -0.66120374 0.7588149 1.7012885 0.30287242 0.9712788 -0.52305263 -0.58693117 -0.47427994 -0.6249045 0.17028558 0.82423025 -0.9007652 1.3547599 0.5931005 0.7733926 -0.28292087 -0.017679766 0.20584576 0.041486885 0.40519992 -0.5978725 1.4325175 -0.9271388 -1.8331575 0.69346476 -1.1321999 0.71605843 -0.74857086 0.041773543 0.017587211 0.21541254 -1.0455626 -1.0924677 1.1251059 -0.36499143 0.73174155 -0.15672463 -0.052723385 0.266162 0.8717965 -0.68440926 -0.71366036 0.41257158 0.36326277 0.31540334 0.08160564 0.20534612 -0.56629974 0.9656942 0.15929542 1.0656029 -0.8178334 0.56048286 -0.2341614 0.9929422 0.43636495 0.41939119 0.40207875 -0.38055894 0.17649925 -1.684817 -1.3526967 -0.032675862 1.1498175 0.7310088 0.2341653 -0.9162586 0.41265148 -0.08285076 1.5932114 -0.4610108 -1.2372841 -0.1961772 0.24428196 -0.86172014 -0.6613732 -0.58308095 -0.91510755 0.122827634 -0.18645397 -0.024213634 0.3685258 -0.32139874 0.18120894 0.3954491 0.44395873 -1.0032544 -0.067093395 0.16631119 0.84122276 -0.29997903 0.6877229 -0.66532725 -0.2373069 -0.009630639 0.33693016 0.67052937 0.4202645 0.005028728 -0.57858545 -0.07171298 -0.7179152 -0.6506886 0.38518336 0.47509813 0.6731941 -0.92090297 -1.6059027 -0.8513054 1.0727934 0.37808758
65 0.99589854 -0.95653415 -0.58381206 -0.69203526 0.28222543 -0.16746005 -0.36012876 0.10758279 -0.4722742 0.93976194 -0.44487405 1.6343578 -0.35890007 0.05381865 0.02209681 0.01710976 0.010885958 -1.2362152 0.07764592 0.91398627 -1.0353645 0.85115844 0.2983209 -1.6830057 -0.4804832 -0.33075613 1.2761302 -0.63063246 0.14695945 0.50618917 -0.80919796 1.7821448 -0.022452824 -0.66066754 -0.24889334 -0.22006778 -0.37133604 0.699762 0.9061276 0.5293988 -0.5934727 -0.59701794 -0.5896403 1.6688088 -0.28006476 -0.81216466 -0.78543884 -0.07290639 -0.72910964 -1.1082611 0.06417742 -1.5491755 -0.33643606 1.0644594 0.7579202 0.9476928 0.10680392 0.17836864 -1.304513 0.042574503 0.56735367 0.062909454 0.95541525 -0.86339843 1.0451175 -0.03152795 0.14360584 0.6218115 -0.69383156 1.0563953 0.56656665 0.63766307 -0.7353293 0.4451985 -0.5640755 0.38450816 -1.7226951 -0.8166088 -1.1041191 0.068454325 0.040827278 0.7402456 0.07235087 -0.9725198 0.20082945 0.7461932 0.8654942 -0.70565224 -0.791608 -0.5587289 0.17017892 -0.6504413 -0.6037681 0.2404195 -0.68513113 1.0993613 -0.99273354 -0.43064025 0.44580907 0.07839258 -0.045482516 0.83576024 0.1842492 -0.1916583 -0.16883792 0.7834025 0.21878767 -0.5270473 0.08723172 -1.1232989 -0.19216092 -1.380689 0.697103 1.2897685 0.14379022 0.17033556 -0.89483625 -0.3129221 -1.0791146 0.20233302 0.4068674 -0.8563533 0.28168947 -0.6960536 -1.2965661 -0.03778409 0.5499376 -0.017823407
3 0.51252323 0.10135928 -0.063991696 -0.4667491 0.015639698 -1.2594725 -1.4768599 -0.7517608 -0.0065913214 0.7387397 -0.5550315 1.9048216 -0.30771276 0.3885688 0.2210151 0.69923854 0.3304944 -0.5197427 1.001019 -0.32085565 -0.44816312 0.2695214 -0.64351237 -1.4399045 -0.8008969 -0.41499385 0.16059583 -0.10092285 -0.3009778 0.49145344 -1.2169192 0.94099885 -0.64263606 0.8031353 0.21160676 -0.164323 -0.28463402 -0.8489476 0.5846127 -0.085449226 -1.9609076 -0.31658903 -0.5805042 1.299744 -0.49352756 -0.85360664 -1.1544768 0.07372477 -0.52137446 -1.433478 0.8522986 -0.55888265 -0.39452142 0.7289346 0.6281904 0.7520832 0.1976549 -0.23827545 -0.20847414 0.7737091 0.25491932 -0.710623 -0.06332151 -1.9337339 -0.009053235 0.38325414 -0.4023325 -0.01904207 -0.22945562 -0.2634028 0.20243283 1.1602254 0.0256655 -0.89878887 0.31500715 0.22288129 0.20747125 -1.3405716 0.22990711 -0.5618208 0.58884573 0.936477 -0.46129018 0.7438485 0.111207694 -0.24199127 1.7309123 -0.6216682 -1.1490502 -0.25290775 0.59214604 0.040376894 -0.5470673 -0.14331694 -0.42917705 -0.44307792 -0.91269964 -1.0170815 0.7179984 -0.19039102 0.034767285 0.49713585 0.29380083 0.38743332 1.2651204 0.5463266 0.15993564 -0.81867754 0.8874309 -0.07493957 -1.7934308 -0.08194809 0.5799824 0.57619774 0.011783329 0.33005413 -0.95669955 0.95945156 -1.134463 -0.464091 -0.7230966 0.35099858 0.20775308 -0.6809351 -1.4421712 0.11510722 0.7645052 0.21704645
336 0.9390146 -0.8877697 -0.647653 -0.17257433 -0.87810516 -0.7061299 -0.19427879 -0.06791008 1.1450455 -0.29099327 0.6123136 0.17910665 -1.2082117 0.8629298 0.80715877 -0.23000464 -0.66512764 -0.16140898 -0.26572764 0.47060272 -1.6100906 -0.4186788 0.5480056 -1.0026062 -0.61761904 0.66920716 0.84726286 0.23599909 0.013671012 0.360871 -1.2543391 0.62750536 -0.12852551 -0.120343745 -1.0847208 -1.2216347 -1.1276135 0.116499886 1.5827551 -0.1268745 -0.5783858 0.19291261 0.41378078 0.24982135 0.9389507 -0.39720917 0.4917211 -0.13813998 0.91063136 -0.24335563 1.9182558 -0.8093947 -1.2837538 0.14431758 1.6459715 0.8249337 0.37376302 0.5430299 -0.7665441 0.25423005 0.38119605 0.32388854 0.24704489 -0.89870805 2.640576 -0.5186888 -0.99259007 -0.42492503 -0.41743672 0.24854004 0.13819629 0.6325644 0.71512634 -0.40150067 0.060868517 -1.3728256 -0.18070973 -0.9265534 0.45770994 0.34994566 -0.1689825 1.015327 -0.22810642 -0.19009376 0.2068635 -0.6939057 2.40658 -0.71654725 1.4487685 -0.18341118 -0.27168947 0.09008334 0.73152643 0.033480342 0.32774818 1.495352 0.15662876 -0.5384135 -0.25476727 0.87310904 0.43638706 0.2576763 -0.47358677 0.6668557 0.7571743 0.35780916 0.3196764 -0.7075988 1.2313818 0.25223824 0.84295565 0.25136518 0.91955197 1.2584399 -0.085682414 0.30877468 0.010624312 0.3587825 0.6764938 0.1762986 0.2386518 0.6641578 -0.82422286 -0.062214896 -1.2630906 0.04551081 0.025667174 0.033314697
250 0.4686489 0.841275 -0.63890064 1.1779058 0.64123076 -0.2437285 -1.132685 -0.097087644 0.21955305 0.13999483 0.058398403 -0.028014049 0.6723152 -0.66069454 0.3899175 -0.34787622 -1.2873257 -1.4244125 0.018251026 -0.15629691 0.073377244 1.2790172 0.02755134 0.24682386 -0.79477763 0.8901944 1.35943 -1.829471 -0.4055301 -0.5767572 -0.24108054 0.5947282 0.33243546 -0.6775943 -0.4086053 -1.4401228 0.03348011 -0.12403911 0.4077762 0.24174425 -0.4471811 -1.0367105 0.6248114 0.9976673 0.94037855 -0.27288812 -0.29901087 0.010823228 -0.7724821 -1.4024023 1.2737428 -0.13295598 0.123791784 0.148832 -0.10421485 0.65553665 0.97823524 -0.41564128 -0.89983517 -0.20726915 0.8691281 0.014193118 0.984825 -0.9641643 -0.84366804 -0.3023424 -0.5651585 0.4434387 0.20977044 0.9229685 -0.62737334 0.6217147 1.1264684 -0.006847525 -0.19111884 -0.9607201 -0.7613581 0.5235135 -0.43324193 0.15961434 1.710708 0.41940317 0.34630555 -0.9731299 1.0186542 -0.32115394 1.648287 -0.8009203 0.3478634 -0.88877326 -0.50004315 -0.058198445 0.11358765 -1.2366099 0.44055992 1.1218091 0.31301558 -0.19403479 -0.5289819 1.3237852 0.24593858 0.94098175 -0.42540574 -0.81793904 0.6178176 0.7038672 0.1333211 0.6884062 0.71168745 0.4624783 -0.8917711 0.5764026 0.59674853 -0.6611245 0.55308187 -0.19048879 0.8281148 -0.007422025 -0.40388125 -3.0338044 -0.029162234 0.30087426 -1.8576623 -0.07773362 -0.9382725 -0.4700365 -0.86221135 0.13313508
429 0.8792853 -0.9341052 0.044237398 -0.88980645 -0.073683694 -1.5012281 -0.09974974 -0.5961436 -0.1984693 0.46621376 0.061289117 -0.07234533 -0.70847464 -0.53139424 -0.22071466 -0.7769765 0.75271535 0.7362015 -0.07063356 -1.0799943 -1.3206252 1.0117395 0.08347393 0.34271562 -1.5201827 -0.16260278 0.8963483 -0.29562387 0.23571299 0.69468987 -0.9099543 1.6319395 0.2109766 -0.66012526 0.49968052 -0.9349211 0.68134516 -0.08001167 -0.12419419 -0.6048707 -1.155409 0.6623734 0.2688783 1.0601659 1.0731028 -0.6862695 -0.28990594 -0.4947463 -0.03846614 -0.8673415 0.8395615 -1.0283347 -0.20184089 0.6469282 0.10179431 0.9516635 -0.5060436 1.0693027 -0.95289344 -0.2703043 -0.8207111 0.047388043 0.37806875 -1.2967057 0.08364194 0.68822 -0.12203832 -0.32733855 -0.40777063 0.44356862 0.5392473 0.85681766 -0.37797275 0.28198427 1.0495905 -0.6811516 -0.027203836 -0.83074456 -0.10122025 -0.6694201 0.12215663 -0.23958725 0.38238212 -0.38247457 0.8113674 -0.38904962 1.2040867 -1.4211555 -0.38672695 0.07443928 -0.93506926 -0.8712156 -1.0290816 -0.3437786 -0.42229697 0.57851464 -0.5016943 -0.76981926 -0.57198143 -1.2575041 0.71708715 -0.0026336566 -0.9185779 -0.08239541 0.7468756 0.981286 0.94386625 0.23184735 0.27036986 -0.42395 -1.7740985 -0.47215617 1.7698627 0.06924735 0.2378476 0.72269994 1.1331536 -0.76672363 -1.6196092 0.49997652 1.4451071 -0.5808758 -0.672384 -1.2886394 -0.42700008 0.82904685 0.7451334 0.86163056
41 1.5470395 -0.5336276 -1.6807144 0.70815873 -0.71178705 -0.36662617 -1.3400625 -1.0667759 -0.67459095 -0.026948927 1.1724471 1.0853533 -0.08125376 0.3240357 0.3400632 -0.028766926 -0.6223583 0.32156053 1.0774702 0.6076442 -0.98267657 0.695339 0.75669914 -1.2162561 -0.18031184 0.13722408 0.8339997 -0.87111205 -0.11266861 0.9748862 -0.228493 -0.62272686 -0.6962929 0.555301 0.26444092 -0.85153747 -0.16435502 -0.35807008 0.54973316 -1.1197135 -0.4836701 -0.6338613 0.4301012 -0.059643 0.8249181 -0.23355222 0.07909214 0.06863587 0.028175618 -0.19136703 1.0968578 -0.6579069 0.4185988 -0.1205522 0.85561216 0.60606223 0.024313804 -0.2709905 -1.2072002 0.5925068 -0.62712944 2.9472525e-05 -0.23226371 -0.6402018 1.6737525 -0.4091671 0.42164814 -0.2151622 -0.6662424 1.5868691 -0.06863336 0.42171246 0.7188133 -0.31008667 -1.024532 -0.21554916 0.33868876 -0.46597385 -0.46972877 1.1701992 -0.83946127 1.4370401 -1.1725694 0.09549409 -0.3756211 0.20296569 2.1496613 -0.7626412 -1.287463 0.07448372 -0.2982488 0.048030846 0.86345804 -0.2224077 -1.1916846 -0.27881664 0.048916273 -0.642473 -0.48318794 0.5068525 0.77826506 0.4592425 -0.1424504 0.61468834 0.68397516 0.19378833 0.9308975 0.78604037 0.55752 0.1359771 -0.026137153 -1.009679 2.1652503 1.46632 0.5313272 -0.13719833 -0.31882194 -0.6061463 0.6766734 -1.068857 0.30388948 -0.13735425 -1.1701304 -0.98412293 -0.33768526 0.13824512 0.42652133 0.7555493
423 0.5590372 1.2260227 -1.0608852 0.7400018 1.6948158 0.14411844 -0.69140905 0.24957761 0.7921406 0.49586952 0.5245533 0.46563977 0.14136405 0.07536047 0.29654884 0.23800081 -0.74187505 -0.37961778 0.48362756 -0.26493004 -1.0417246 0.6482461 0.8405383 -0.44225946 -0.34579074 -0.6921938 0.08159757 -0.29278085 -1.4919673 1.1451799 0.6654098 0.1725615 0.54554474 0.5403698 0.0045901365 -1.038596 -0.37220976 -0.37482753 -0.031567007 -0.9462916 0.08009712 -0.14524627 0.62739223 0.974384 -0.07756994 -0.5906076 0.070446126 -0.58061534 -1.5691435 -1.1181978 0.22099492 -0.2822634 0.19705571 -0.45492056 0.9647834 0.71022314 0.10444749 0.47344935 -1.0755987 -0.08740011 0.5196614 -0.22819035 0.69225216 -0.8901812 -0.9065098 -0.05381277 0.26288912 0.7312236 1.0053892 1.0732349 0.42729276 1.1611105 2.1808996 0.45540023 0.34541172 -1.5913754 -0.9395657 -0.8024815 -0.3175683 -0.018175622 1.1129165 0.648371 -1.493983 -0.756457 0.69163996 -0.35980764 0.77365184 -1.2214687 0.1388019 -0.76417625 -0.30775297 -0.48549893 0.25231153 -0.6135326 0.01045571 0.23654054 -0.45736185 0.5441327 -0.4528081 0.49815488 0.13544567 -0.29098058 -1.1268116 -1.5461953 -0.62673306 1.493418 -0.5599494 0.44118896 1.1635433 -0.42431474 -0.6209283 -0.17985323 0.62821835 0.9012456 0.19988662 0.14935394 0.8407844 0.35989586 0.18566166 -0.36571074 -0.40573934 0.059997745 -0.9489238 -0.7425591 -0.8857893 -0.46090063 -0.5159832 -0.5487334
55 0.52777725 -1.176226 -1.2604686 0.8043215 0.306575 -0.066568345 -0.6408877 -0.24564156 0.55957097 0.7237655 -0.11242447 -0.14103316 0.27392805 -0.5484172 -0.30719224 -1.5056977 -0.70515585 -1.5221446 0.30467495 0.5345044 -0.314872 1.2893194 0.6337289 -0.40216997 -2.0520825 0.6816203 1.1347919 -1.275304 -1.2476631 0.27003837 -0.7919787 0.76846164 -0.47655123 -0.59474164 -0.30337164 -0.0444804 -0.53410554 -0.69698375 1.0004542 -0.51086575 -0.64791036 -0.15159349 -0.33577436 0.19237657 0.8093882 -0.15419653 -1.1198796 -0.7296991 0.14136073 -0.44586605 1.4627094 -0.17635469 -0.4526737 0.8377623 -0.40778908 0.36935768 -0.72033906 0.74444467 0.5891074 -0.5612236 0.68912196 0.68277574 -0.23337339 0.12065993 -0.03542976 -0.42176536 -0.80218405 -0.26533496 -0.2099545 0.7099799 0.445544 1.1038584 0.85075146 0.7614844 0.33238152 0.2745728 -0.15452784 -0.32469383 -0.40626323 1.0496988 0.58257735 1.1479198 -0.73697317 -0.026707307 0.5332676 0.24612159 1.9833201 -1.0325077 -0.086558364 -1.1589707 -0.5575102 -1.5820788 0.116876364 -1.4067385 -0.02620472 1.5338117 0.10677497 -0.042257186 -0.22617252 0.06514913 0.2997208 0.37422618 -0.2926488 0.6146437 0.5387381 0.71050435 0.40460455 -0.09899122 -0.39829925 -0.47568342 -2.550305 -0.26188543 -0.52299935 1.0748532 -0.72961634 -1.1805636 0.49492037 0.8172515 -0.30108938 -0.69833565 0.45002338 -0.40123537 -0.95540756 -0.9238096 -0.88910013 0.11747732 0.19901516 -0.7250311
115 1.5929189 -0.66616285 -1.4790591 1.4404616 -0.7573627 -0.1310644 -1.4599198 -1.230864 0.14571445 1.2411035 0.21110898 0.1005339 -0.1375571 -0.11610897 0.21288604 -0.29234442 -1.0330418 -1.7410052 -0.13487077 0.9041076 -1.1382993 0.9779041 0.9918151 -0.03879074 -1.8257803 0.25755465 0.61258304 0.32325456 -1.0249199 1.2884133 -1.1939037 -0.24794349 -0.45520154 0.02491001 0.2269089 -0.95700884 -0.6660309 -0.5290547 0.3111084 0.04867564 -0.32037017 -0.5688676 0.31445685 -0.39283022 0.83655673 -0.13627104 0.61669725 0.13282406 -0.18019803 -0.047424406 -0.1616824 -1.1813165 0.3100852 0.1482512 0.52534044 1.807902 -1.4518363 -1.2397076 0.25052974 -0.52778953 0.5554302 -0.20275953 0.16811319 -0.4158683 0.2211846 -0.47518438 -0.76475257 -0.29076764 0.40401104 0.5070371 -0.522038 0.7419105 0.4203237 -0.085846946 1.3890877 0.15605938 -0.34031776 0.1283398 -0.76852816 0.10402138 0.15326257 0.5569137 -0.5585108 -0.7643262 -0.7696904 -0.018292878 1.6004614 -0.75856465 0.0686261 -0.13190019 -1.0808884 0.16675986 0.3657774 0.09725279 0.7558675 0.92304873 0.03273874 0.17651762 -0.22299044 -0.41094112 0.42060906 0.5444652 -1.0126107 -0.38463145 -0.04402111 1.2517806 0.4554193 -0.21078755 -0.74493676 0.33057395 -0.89843273 -0.1842608 0.9169113 1.1241156 -0.07928935 0.06382913 -0.31416798 -0.12205446 0.7104496 -0.7819725 1.77096 0.68333304 -1.021113 -0.09604926 0.15323865 0.9006261 0.24571532 -0.016373374
