458 128
443 -1.2581135 -0.6339465 1.1936564 -0.31267533 -0.18159059 -0.0007530572 -0.30437854 0.7245009 0.75595945 -1.7560078 1.4226576 -0.39488912 0.19091865 1.4605668 0.17796977 -0.556519 2.0520637 0.66793865 0.88491386 -0.29715863 0.6483774 -0.89545655 0.580803 2.287791 2.4366558 -0.5602264 -0.28631067 0.9109919 0.7350465 -0.330445 -1.0722206 -0.113661155 1.8776674 -0.8258621 1.051468 0.13433947 0.7556774 -0.33919552 0.36057553 -1.4664263 1.8430929 1.018667 1.0353719 -0.2775548 0.02135386 -0.8666001 -0.79981744 0.5632891 2.4378316 0.3720436 -0.93200505 -0.6343704 -0.1394556 -0.42628106 0.540533 0.992956 -1.4011111 -0.6320928 0.9483479 -0.56018084 -0.05244671 -1.2816896 -0.7950679 -0.458102 -1.4473819 0.4764575 0.29519185 1.0749115 0.5418351 0.57045597 0.7352787 0.26933452 -0.38734347 -1.208608 -0.58262783 0.5162162 1.3408569 -1.0368878 1.2092206 -1.4282372 0.5668654 0.80502164 1.5189682 -2.0918064 0.39158654 0.7488086 -1.7500771 0.3164471 -0.45284954 0.050613835 0.7373691 -0.5094014 -0.27191156 -0.7062631 1.1132476 -0.28832307 0.13827571 0.382976 1.0584941 0.5713556 0.05055804 0.39446706 -0.46666265 -1.051675 2.1119401 0.58434504 -0.16570441 -0.030115781 -0.18972439 1.2581047 0.69561535 -0.57703006 0.69622487 -0.852442 -0.39288267 0.4151318 0.54402405 1.6189137 -0.23248707 -0.5200419 -0.07371133 0.8252673 2.0388622 -0.6710348 2.9823956 1.899975 -1.0120391 0.20106463
160 0.036124438 -0.44815132 1.2100593 0.7717097 -1.2039124 0.78030825 -1.4719744 1.3023291 -0.30186832 -1.766528 0.33117032 1.0338038 1.9046935 1.2255281 -2.1761446 -1.611446 0.3837162 2.072147 1.5449119 -0.75959414 -1.2480686 -0.30022028 0.34332612 1.7482246 0.88663423 -1.9251233 -0.7778688 -0.29981318 -0.2831297 -0.68518037 -1.5599374 0.5788179 0.5800017 -0.97046804 0.6842062 -2.388056 0.18970995 0.65534747 -0.93438005 0.31200686 0.3445167 0.73362875 1.0626247 -0.5132444 1.306404 -0.12655352 0.13820058 0.9649457 -0.82422763 1.4991436 -0.975798 -1.0040174 -0.15698296 -0.38952598 -0.037373852 -0.85851955 -1.5035366 -0.29361543 0.24002576 0.71436644 0.8837478 -1.3960757 -2.6561816 0.06653618 -0.67287236 -0.5652949 1.3177044 -0.45626676 1.6773498 -0.9447689 0.5956718 0.55620694 1.0598137 -1.0341115 -0.7675452 -1.4795394 -0.06044499 0.8689447 0.5734321 0.33850598 0.33440137 0.77377856 0.8621853 -0.6808721 0.18380374 0.22185469 0.9468366 -0.4530188 0.20293042 0.300429 -0.0063702087 -0.24957341 -0.7677001 -0.23775332 0.61255264 -0.79627204 1.0559402 0.5622135 -1.1166103 -0.17574002 0.5391268 1.5963516 -1.347715 -1.3381605 -0.8656789 -1.0399483 0.1821503 0.2806221 0.65714365 -0.17767487 0.7354843 -0.42562723 0.6517835 0.4235771 -0.076567695 -0.8646383 1.6724563 0.93340415 -0.44297406 -0.5563208 0.6654671 -0.58340406 -0.85819376 -0.27951673 0.056527786 0.50833243 -1.5903864 0.5883842
226 1.4488118 -0.0016250514 -1.3447034 -0.39757723 -0.18947409 -1.833685 0.42982566 -0.24694332 1.5603325 -0.83842194 -1.6479901 -0.41031325 -3.447552 1.119123 0.7320488 -0.19527502 -0.6763085 0.5087833 -1.4864994 -1.6789321 0.25785932 0.7632186 0.87928957 0.051618062 0.36594865 -1.0598896 0.52054626 0.98836553 -0.15472595 1.4791205 -0.36909667 -1.0626582 -1.1101428 0.03974989 -1.685749 -1.0624962 -2.9909484 1.713847 0.9064934 0.6519455 -1.4071981 0.48404837 -0.4823219 0.47033125 -2.3530257 -0.45542753 1.718099 -0.828955 -0.3170899 1.5069584 -0.74920183 -0.11482981 -1.9600636 -1.8243599 1.1507423 1.3650568 0.8195194 -1.4758761 -0.5358019 -1.6758633 1.820107 -0.15296857 -1.6656764 -2.0922894 0.74830467 -0.35828602 0.43641353 0.32344675 -1.1058712 1.645028 -1.2402836 1.2200259 -0.16703914 0.75930005 0.15185644 -0.76077616 -1.2163662 -1.2676613 -0.6062609 -0.21563597 1.7590564 0.37738648 -1.1802641 1.0803462 -0.6990189 0.21215115 2.2702494 -0.2984887 -1.1941364 0.33711237 -1.0577408 1.0506394 0.829727 -1.0862409 1.3838884 0.80203295 -1.3100839 -0.027875016 -0.41871232 -0.37031075 -0.31656176 -0.733449 0.11321315 -0.5186816 0.6162891 0.0546341 -1.2941196 -0.87383914 0.76202905 -0.8255363 1.3078967 2.0040364 -0.0013388244 -2.3443897 0.57939506 -0.3860124 0.060389627 -0.90771705 -0.8804253 1.2144853 1.8453238 1.2667071 0.15500733 0.18283871 1.5807387 -0.5873762 1.5136889 0.58146995
63 -0.13042955 -0.118659094 0.9442566 1.170292 -0.2370591 -0.44702104 -0.96519744 1.5995114 0.3029801 0.40337238 1.1431955 1.677613 3.0981443 0.35095143 -0.3605331 -0.17184678 -0.5483435 1.0893213 -0.36490044 0.6990609 -0.76718044 -0.084093265 1.1608181 -0.0061434144 0.095920205 1.246092 0.9809106 0.10239239 -0.83146137 0.26903266 -1.9899329 0.46926147 0.9600477 1.6725799 -0.598325 -1.2992221 1.0722401 -1.85053 -0.58306843 1.2322267 1.1689752 -1.6964871 2.6541514 0.5927315 0.93610287 0.7080813 1.2268533 0.041799895 0.36488238 -0.7273305 -0.4579974 -0.49030173 1.4253749 -0.07902851 0.1606625 -1.0430168 -1.6133939 1.1188502 0.037994627 1.1523026 -0.79715174 0.556621 0.17956193 -0.011671865 -0.4031833 1.8431196 0.26980707 -1.6591967 2.932403 -0.10621411 0.7959576 -1.7938197 -0.7807066 -2.4958344 -1.1087102 -1.4563383 -0.31579673 1.447772 0.1838356 -0.28890267 -1.3924303 0.5639908 1.584175 -1.2216283 -1.094903 -0.6272821 -1.5376678 1.5896175 -0.45661166 -0.36329684 -0.39284036 -1.6303279 -1.179241 1.3873456 -0.8203975 0.8126907 1.0015274 -0.6700274 0.9172195 -1.5658106 -0.3454161 -1.3393453 1.8536662 0.7899325 -0.30011168 -1.2898185 -0.39948857 0.21173029 1.6822854 1.0641179 -0.938084 -0.65185106 0.34411472 1.3918164 2.3484423 0.46376345 -1.7822517 0.7524473 -0.88620025 -0.13164622 -3.4434834 -0.35983455 -0.11658772 0.47892413 -0.49770752 -0.14781502 -1.5774008 -0.28157604
249 -0.0016290748 -0.5801026 0.081345685 -1.4338492 -0.0024885728 0.9576082 -1.8993524 0.79447734 -1.7581547 0.09730633 1.1859512 1.2907249 1.8335247 -0.5376764 -0.9613887 1.0439696 -0.8786504 0.8885335 0.51411104 -0.34494853 -1.4238824 -1.8508197 0.25233445 0.2985497 0.4737558 -0.46875894 -0.9923672 -0.7687043 1.8399597 -1.3900759 -1.641082 0.37105393 0.4225523 -1.4342256 1.6367894 0.20520273 1.4408413 0.09230193 -0.83751196 0.18507457 0.8071379 1.570793 0.62312496 0.045076367 2.0538523 0.12904729 -1.9496061 -0.32889697 0.040018886 0.21531251 0.42059743 0.9528451 0.8694526 0.82535213 -0.57433707 1.285118 -0.69469434 0.09938882 0.5964669 2.2107737 -0.15973054 -0.6079371 -0.93937904 1.4627497 -0.98101276 0.19459349 1.4761043 0.7453286 2.1032643 -1.3107712 1.2309206 -0.7826944 -2.2930658 -0.6775524 0.15048729 -0.92012304 -0.32348338 1.5018312 0.49415404 -0.33531848 -1.278629 -0.4194017 1.2242099 0.102555774 -0.41714385 -0.38085097 0.11821306 -1.2487725 1.3799335 -1.145775 1.0952458 0.2998875 0.4595075 -0.4713853 -0.1478099 -0.6019213 -0.21124917 -0.05881527 -0.74654216 1.2064128 0.32592276 2.180152 -0.24820115 -0.8630126 1.1894394 0.7894092 2.8736444 -1.2221562 1.2209456 0.19876084 -0.87828684 -2.2553022 0.8100091 -0.7260165 -1.0654693 -1.7448382 0.64277875 -0.5541209 -0.20450912 -0.014118652 1.0460633 -1.1509209 -0.39915022 -0.6434595 -0.9873743 -0.24200837 -2.4704182 -1.5581464
412 0.22657357 -1.223327 1.4869599 -0.74254763 -1.5472999 -0.2214313 -1.5659149 1.9359329 0.395663 -1.8561835 -0.23773283 1.4110429 1.8132997 1.5635055 -2.5133502 -1.3165015 -0.3919819 0.78911614 -0.64104927 -1.1010804 -1.5770434 -0.8528093 -0.02202441 0.50026536 0.5448513 -1.1121908 0.28495002 -0.5651394 0.010141252 1.0913415 -0.8259138 0.65790665 0.1880663 -0.81283325 2.3056958 -0.70820487 -0.101349935 1.3786937 -0.8661186 -0.9156483 0.28137136 1.1284549 1.0079428 1.4526109 1.4351776 -0.12710422 1.1151989 1.7959236 0.37016708 1.8948264 -0.6104575 -0.7323852 0.044225056 0.10392854 -0.47016624 -0.8262937 -0.1930151 -1.32322 1.7817148 0.3174424 0.53851485 -1.3366287 0.2075626 1.6785188 -1.374104 -0.08234657 0.1791535 0.46867362 0.45393768 -0.057683043 -0.7023486 0.08560679 0.77425915 -0.42871776 -0.9197551 -3.0460794 0.3605471 0.37118128 -0.91360444 -0.47458544 -2.346553 -0.42000747 1.7162796 -0.7837406 -0.09548142 0.6030499 -1.1191852 0.09797894 0.24798727 0.3436985 1.1960664 0.29791594 -1.4204013 -0.47774902 -0.20461012 1.2341274 0.30127332 0.4905389 -0.3085051 -0.5773931 1.6563963 0.8108971 -1.205539 -0.19498353 -0.7516953 -1.071789 0.17875788 0.56359446 -0.9117903 1.5559471 -0.22770052 -2.1783545 1.5731145 -0.26229748 -1.3262881 -0.8049254 0.19784379 1.158192 0.21646266 0.46766186 0.99714345 -0.15139131 -1.8503804 -1.1453593 -0.22377916 1.8226696 -1.6646296 1.2076672
457 -0.4533375 -0.9381006 0.56745803 1.5213411 0.17452256 -0.26899433 -0.07011944 0.960741 1.5402879 -0.34301868 2.0157259 -0.6713639 2.348685 -1.3208157 0.24291174 0.77022165 1.3800496 0.16547067 -0.07654765 2.3299236 0.47596928 -0.5557313 -0.23853453 -0.64182866 -0.5997227 1.2638847 -1.1360358 -0.3733271 0.42297742 -1.5337241 -0.7416131 0.5927396 0.46461418 3.2343092 -0.64500034 0.113367595 3.2296264 -1.5010622 -0.015672958 -0.10907521 -0.40701488 -0.6541009 1.3217925 -0.8334697 0.67721826 0.21109083 1.5573169 -0.7956161 1.1810746 0.07425624 0.8977119 -0.9481128 2.9577384 1.2846191 0.55716336 -1.1411996 -0.5784595 0.92672527 1.1782426 -1.1347518 -1.0053164 -0.2812961 1.8974104 -2.4582736 1.8439088 2.640125 -0.20403624 1.2435167 2.1183085 -0.43189144 2.7811587 -2.3042195 -0.3331169 -0.5886774 -0.1106521 -0.57542825 0.78351563 0.7726047 -0.037477978 1.5725577 -1.5948836 -0.913284 1.8723735 -0.13585137 0.30343196 -0.455466 -2.687602 1.1877549 0.16757312 -0.82762796 1.3552685 -2.6217206 -2.4875271 0.25579065 -0.18566158 -1.1324872 -0.82834125 -0.77927375 0.3503579 -0.53504974 -3.0038154 -0.42085266 0.010182937 2.7464805 0.16661045 0.38120058 -0.063877515 -0.82297534 0.5931696 0.054693006 -1.5743496 -0.21429133 -0.5014448 0.800096 1.3109125 0.22699843 0.07410538 0.86139935 1.4753073 -1.4065971 -3.3632808 -2.0082242 0.40743208 0.23180725 0.4745237 0.742293 -0.037380666 -1.7041454
315 -0.73847234 0.95772684 0.31074503 -0.5389271 -1.5130348 1.4762367 -1.062962 -0.060342018 -0.44521257 -1.3964655 -1.352105 0.7710798 1.220343 0.8183771 0.9060844 0.58630943 0.09377024 0.24786149 1.0441285 -0.4356357 -0.28710073 -1.2377094 0.04499652 0.90941584 2.0680969 -0.7156621 -0.15678973 0.28625318 0.61077714 -0.24052356 -1.2580328 1.275026 1.095103 -0.4661353 1.4437256 -1.3017701 -0.14475803 0.2920977 -1.0652419 0.48197672 0.7687732 -0.902662 0.8187396 0.7173435 -0.46601108 0.5823049 -0.36266786 -0.522158 1.0805526 1.1125746 -2.2164292 2.2651699 1.4984161 0.09969877 -0.4077191 0.17161891 -1.5158564 1.0840555 0.3202726 1.2198975 -0.2875631 0.45381448 -0.82107335 -0.22228374 -2.0260034 1.2938774 0.2668897 -1.5824643 0.9547817 -0.25454646 0.12635842 -0.792787 0.92482394 -0.25790867 0.6262285 2.1993089 -0.24371372 -0.054321814 0.7995883 -0.9955472 -0.24985647 0.3873236 0.15049624 -0.38925222 -0.18422869 -2.1098907 -0.4747698 1.4150743 -1.6542203 -1.603645 1.3573029 0.091981165 -0.35190207 0.7595279 -0.49207297 -1.3121816 -0.82661766 1.5100902 -0.6686509 -0.044993192 -0.51515406 0.5430715 2.8237762 -1.3148156 0.036611162 0.5824721 0.19958691 -0.6975575 0.33833912 0.9335367 -0.9990012 -0.0022783433 0.07034394 -0.73294413 0.013691538 -1.2031587 -0.30917957 0.9237509 -1.204126 0.50456715 1.2180866 1.4845499 1.1534936 -0.46784633 1.4662347 1.1746976 1.3420722 -0.20861551
388 -0.9415913 -0.26416725 -0.15811709 -0.9791061 0.20418568 1.9480349 -1.3589523 0.7565318 -0.5458928 -1.009573 -0.4257871 0.6359327 1.32686 2.2798119 -2.1433964 -0.67529535 1.2543991 -0.2874373 -0.1796015 -0.8215424 -1.5605487 -1.9791832 0.2785633 1.6823497 2.2761471 -0.14931689 0.3055238 -0.325967 -0.32163534 0.22110558 -0.19047198 0.14113721 0.20848338 -0.7864598 1.0024723 -0.66381687 -1.2059846 0.35860488 -1.1632118 -0.8660828 -0.20437607 -0.3165709 0.70249635 1.3128625 0.30903566 -0.95852363 0.21529683 1.4154232 1.194356 -0.42525825 -1.361301 1.0900383 0.9125438 0.3476597 0.6440922 0.24326102 -0.7959503 1.1281276 0.61825013 2.381312 -0.0823764 -0.25610855 -1.2879574 0.60650533 -1.4964763 0.44941434 0.68687665 -1.0597935 0.52876395 0.71856886 0.3189906 0.37274155 0.7111092 0.09865259 0.38696137 -0.84107184 0.12766235 -1.0261686 1.0727535 0.18817174 -0.8198633 -1.3930309 0.61979145 -0.17063685 0.1663001 -0.9567155 -0.3792325 1.2250112 -1.0158806 -1.0380923 0.76759785 0.8216728 -2.1356206 0.7421559 -0.366128 -0.49714473 0.83814704 1.4326254 -0.9947474 0.27884218 0.38703662 0.15461352 0.78482395 0.08277001 -0.3728209 0.8340361 -0.19107929 -0.6359947 -0.8327752 2.520772 -0.08651782 0.2102988 0.027585577 -1.2970037 -0.03838894 -1.4285334 1.1980356 -1.0238558 -0.611002 -0.00022957093 2.2981148 1.2896025 -0.03097833 -1.0066532 0.7109697 1.6278892 1.2352349 0.99664056
385 0.26214403 -0.4978081 -0.8176779 1.271714 -1.3580011 -1.7993376 0.46867648 -2.5876977 -0.15428282 0.091553405 0.6405126 -0.9865197 -1.4642794 0.7201183 0.9393973 0.24188565 -1.546693 0.12555747 0.9068938 -0.4405649 -0.19613834 -0.6523045 -0.049619652 3.1797502 -0.19834328 0.87655747 0.8756111 0.6982037 0.2488204 2.2704625 1.4469535 -2.222591 1.4061213 -0.33619198 -0.07699329 -0.52516085 -1.0821187 1.7767535 1.829213 -0.49384102 -0.85897523 -1.8616635 -0.06389205 -0.4780301 -1.6362143 0.188292 -0.2572407 0.10329529 -0.59136635 -0.38683343 -0.43130726 1.0591635 0.12595508 -1.5519361 0.7192189 -0.6342555 1.65684 0.26423332 -0.41056195 -1.7521288 -0.15993622 0.91908383 -0.9851419 -0.7315052 -0.47980002 -1.5675924 -0.71331525 -1.4382974 -0.23844886 0.33485776 -0.5587211 1.8345253 0.21132132 1.2293768 0.9002798 2.168062 2.1619384 0.08757662 -1.3724393 -0.59362787 1.1159585 1.8654579 -2.8187876 1.7011409 -0.7719269 -2.3930254 1.592575 0.25034177 -1.8854825 1.10874 0.30426872 -0.99143845 0.55820936 -0.6088031 -0.8155736 0.90402627 -1.1277242 -0.0991666 1.1519302 1.1569624 0.6731739 -0.97611755 0.8185944 -1.4319311 -0.41057587 1.049971 0.4763962 -0.47348562 -0.4705089 -0.5295181 0.012893691 0.8924943 -0.54335827 -0.25885072 1.8496803 -1.2662196 0.077573575 -2.003287 0.49388224 1.2465796 1.2513046 -0.49065337 0.03566666 -0.52035034 0.57857716 -1.1053396 1.2366427 -1.3942701
441 0.16083904 -0.0109793525 0.06832009 0.71583706 0.532866 0.9191164 -1.5515485 0.45088536 -0.96926326 -0.06745788 -0.5862501 1.7382883 2.1015234 -0.84442914 -0.9237416 0.39479253 0.17597438 1.469207 0.7488952 -1.5746548 -3.56612 -0.35158315 -1.4507011 -0.2953178 -0.7146862 -0.44819602 -2.036163 -0.24085693 1.6884431 0.2070117 -0.7710262 -0.266028 -0.26425943 -1.4475051 2.1923406 -1.7762938 1.8499262 0.8906859 -0.5207592 -1.4194854 -0.034506664 1.3176838 0.2923874 1.7737287 1.347293 0.38795823 -1.4238997 -1.6416028 0.21927509 1.5282934 0.6740065 0.835005 1.5980059 0.79887 -0.29333356 0.9016688 -2.385469 1.882341 -0.53129995 1.9200307 -0.53531903 -1.3216126 -1.4768758 1.0240128 -1.8907583 -0.21928705 1.6245327 0.6059197 2.1282356 -0.72434896 0.07929365 -1.7064869 -1.274037 -0.04183765 -0.34478414 -1.5188637 -1.2212318 0.16220738 -1.1150529 0.71573037 -1.2329518 1.2296863 1.8935223 0.42915598 0.5280204 -1.2154936 2.0933132 0.28930348 0.06055189 -0.72362554 0.5935397 0.765164 -1.1966381 -0.5537428 0.45331287 -1.1742797 0.05634968 0.49446264 -0.08776762 0.17903586 0.76702577 1.0861262 0.41088235 -1.3816416 0.39012778 1.1958929 1.9869542 -0.20233727 0.74897707 1.2965081 -0.06811945 -1.1365197 1.0319397 -0.25920275 -1.643124 -1.0276306 0.8034876 0.9718482 -0.6654596 -0.42726862 3.3796334 0.2979538 -0.7960116 -2.0836558 0.5144178 0.86175 0.31728727 0.5228858
401 -0.15991491 -0.36946163 1.9920723 -0.20266071 0.39529657 0.5335729 -2.5691986 2.0084813 1.3939095 -2.1118681 -0.11975799 1.9315255 1.3940727 1.0158304 -2.9788892 -1.3009554 -0.032772634 0.66272354 1.1546603 -2.5676792 -0.35332498 -0.7767814 0.37668043 1.286282 1.5683737 -2.1415303 -0.2072815 -0.5381312 -1.110524 0.23498498 -1.3783213 0.051387064 0.45477274 -1.9302922 2.044639 -0.7304033 -1.0765957 1.4530658 -1.5907251 0.1644268 -0.79986054 1.7084379 1.8326328 0.9473492 0.4636469 -0.7327892 0.4687707 1.0912474 0.75987583 1.5145777 -1.9826877 -0.8486633 -0.8018007 -0.9365831 0.17809382 -0.1955274 -1.2618071 0.072446704 0.70887756 -0.1857784 1.3693922 -0.71336824 -0.71424353 0.6603364 -0.77166414 -0.765795 0.77143437 -0.14343531 -0.5914817 0.8766364 -0.46365318 0.4259725 1.8378721 -0.40194705 -0.69678473 -0.91483486 -0.60710776 0.55481905 -0.12669699 -0.4584142 -0.7335029 -0.82021046 0.8310279 -1.0446247 0.45329905 -0.66940194 -0.003131687 -0.14712298 0.20845033 0.3414817 -0.016657632 1.7188156 -1.0553883 -1.0516574 -0.1679067 -0.435164 0.3543898 0.71952313 -0.11522862 0.3366512 0.3161084 1.7794589 -0.9293326 -1.7270528 0.30227837 -0.9910731 -0.061363075 -0.18537882 -0.86967856 2.1139226 -0.10860145 -1.3415875 0.62281585 -2.0314362 0.22891092 -0.5403784 0.4196931 1.262741 -0.8751948 -1.1478523 0.8740381 0.4188756 -0.5427153 -0.81961757 1.6694316 1.5481073 -1.3212074 1.4485309
192 -1.4291406 -0.45902786 -0.08147188 0.9194357 0.17830345 1.6382747 -2.437406 1.7355088 -0.40826637 -1.0527071 0.059643827 0.2296962 3.1121235 0.4592248 -1.9609834 -0.5519277 1.1178696 1.1213833 1.1360773 -0.7811523 -1.9775013 -2.1087263 -0.07433953 1.5504326 1.6073698 -0.079719365 -0.46779343 0.07927133 -0.3004364 0.07671249 -1.2816045 0.28028843 1.9404346 0.53424406 1.4564234 -0.76681346 2.4277549 -0.14274502 0.107231356 0.07111342 0.07313594 -0.9549513 1.9992486 1.2869501 0.7610113 0.8709974 -0.040050406 -0.29913157 1.6938264 2.1808286 -1.190764 1.0161624 2.1396585 0.4639305 0.0024336542 0.5490578 -0.8193781 1.375289 0.5246733 1.690496 -0.13435493 0.7687456 -0.35697854 -0.15824974 -0.40177265 -0.3925661 0.68875223 -0.6399275 1.6901565 -0.5883054 1.7831091 0.064657114 -0.5416214 -1.5292292 -0.15618725 -0.16648926 -0.56094885 0.47624883 -1.2228916 0.6191538 0.010882314 0.42144543 1.3333933 1.095942 0.31960887 0.6762911 -0.9436965 1.1505699 -0.57413596 -0.4855454 1.3687439 -0.08388834 -2.3226452 0.26157743 0.17391244 -0.08261203 0.023902336 0.24402179 -0.51838696 -0.5093722 0.7128932 0.38594344 -0.25371006 -0.077995054 -0.47350842 -0.6372963 0.3506484 0.78431076 0.96644384 1.1008323 -1.4158298 -0.90113455 1.1668702 0.66509813 0.44052574 -2.464314 0.2836629 1.5303665 -0.24374834 0.57600665 -0.32427013 -0.35704246 0.2637555 -1.8140506 0.43966424 1.8118374 0.879887 -0.982618
161 -0.07223568 0.25069126 1.1376382 -0.40284964 1.0140504 0.1610808 0.10074961 0.24000065 1.9001063 -0.25264117 0.38430995 0.69661725 -0.12873332 -0.19197127 1.7665652 -1.0058969 1.4475445 -0.99379253 -1.8060044 1.3600436 0.38006145 1.1235934 -1.3113542 -0.18201046 0.3173621 0.3736218 -0.24793853 -0.2646497 1.0095206 0.50653386 -1.6089275 0.09676027 -2.3537192 -0.62976354 -1.9141358 0.46372285 0.83578485 -0.30981845 -0.008784449 -1.8647066 2.6399486 0.2361454 1.1135864 -1.0205224 -2.1733365 -1.8789887 -1.497779 -0.20833562 0.5995989 -0.6130425 -0.9732576 -2.623662 1.942514 -0.362533 -0.011961812 -0.66214305 -1.0475572 1.1215441 1.4724131 -3.0165484 -0.5858355 -1.5185652 0.5444652 -0.8123452 -1.2349238 3.7273254 0.1747428 1.8911699 -0.03057622 -0.41415504 2.0884361 0.5700126 1.3743978 1.3403277 -0.8194934 0.5394604 0.9670666 -1.1085577 1.6450167 -1.041892 -1.0779984 -1.0961025 1.2662624 -4.18607 -1.1850783 -0.040748376 -2.5414102 0.03835339 0.046489418 -1.0951903 2.6357355 -0.80392903 1.0040001 -1.6617484 -0.8143016 0.7315059 -2.5552185 -0.5582331 1.1113323 0.09022134 -1.3333555 -1.0276893 -1.4267821 1.3296337 1.0219575 0.13492815 -0.30924097 1.0486928 0.44708917 1.9081928 -0.58498657 -0.2018202 1.1298448 1.2638333 -0.8848372 1.5878345 0.480107 1.8055472 1.0543256 -1.2425747 0.48767415 0.4810169 2.3002207 1.3128699 2.3859055 1.0355003 0.1117016 2.0052814
66 0.13209856 -1.3260441 1.251706 -0.46151102 0.6597619 -0.39092475 -2.3719795 -0.98118323 -1.0336976 0.26174557 0.6570881 0.11055406 0.5670955 0.14421558 -1.0226208 2.602849 -0.67720973 1.8896599 1.2630932 -0.9733283 -1.2683684 -0.9023648 2.6650739 0.95377296 0.40850168 0.30339912 1.0483409 0.8421144 2.196266 -1.9281998 -1.0427222 -0.2491887 2.0541565 -0.7335544 -0.028688487 0.9019137 1.9768896 -0.33434275 2.9357197 -1.4638537 -0.56369114 1.4786873 1.3427546 0.17517748 3.5530438 0.30454203 0.22951452 -1.01913 0.7169517 -0.2751357 0.58497673 -0.5450455 -0.42719895 2.1817193 0.79650044 -0.18085043 0.98501664 1.0602596 0.1588804 2.2258997 -0.38250324 -0.051467657 -0.7903468 2.491888 0.14829865 -0.55074096 1.6330998 0.20086436 2.6413946 0.16127059 0.9134225 0.86223114 -2.16014 0.056713462 -0.6476798 -0.41113293 0.9089359 1.2174938 0.80733067 -0.67328 0.2140194 0.40625033 1.2165655 -0.49346977 -0.42468658 -0.12087257 -0.6007114 -1.927832 0.9478018 -1.2771482 0.21484864 -1.3668675 0.37267768 -0.09243506 -0.19575948 0.38675758 -1.2911005 0.25598997 -0.029550862 -0.3617268 1.1854019 2.8543444 0.40974715 0.48218706 0.6464968 1.2390008 3.3537798 -1.6226035 0.5026755 0.5616692 -0.2604885 -0.81729865 0.37981334 0.20135912 0.6477565 -1.9974896 0.8110395 -0.9610788 0.51874924 1.3951781 -0.57133657 -0.7544643 -0.45192593 -1.2864228 -0.52513176 -1.0596483 -2.7781749 -2.010824
7 0.66232127 0.77864903 -1.7219859 -0.04805645 -0.72074664 0.40747413 0.72855985 0.62803876 -0.7004098 -0.19578052 -1.9977214 -1.1566931 -0.57222134 2.1092315 -0.7085255 -0.5470182 -0.42590612 0.41723943 -0.32769537 -0.95370466 -0.38212004 0.46631664 2.434532 -0.4574116 0.69736594 0.23853388 2.3801918 -0.6181889 -1.2251738 0.30798107 -0.07059218 0.09758969 -1.2825698 0.08216706 -0.43709654 0.051897325 -2.1882474 1.066712 -0.110825434 -1.3029906 -0.47609508 0.6473735 -0.38718033 0.40369383 -0.17105268 -0.2507843 0.30677256 -0.0074046724 0.9153071 -0.70663834 -1.2453433 -0.39758182 -0.5567192 0.791372 1.4792539 0.5856701 0.34051517 0.9405953 -0.6352913 0.28455842 0.7113513 -1.1497228 -1.2551901 0.6986765 -1.2169415 0.27626598 -0.16894184 -1.4929222 -1.2014766 1.6549464 -0.8165964 1.3230618 1.4675415 1.5366439 -0.5762741 -0.9606984 -0.81592166 -1.2308376 0.6235714 -0.23828794 0.042379394 1.1312001 -1.2829058 -2.0241504 -0.07495663 -2.1403048 2.2527292 1.0068033 -2.184436 1.3173327 -0.14013563 0.09757373 -0.81743604 1.4623711 0.16616543 -0.35277173 -0.084058285 0.5004354 -1.4745419 -0.6165502 1.0322015 -0.594416 1.599169 -0.09378005 -0.6451404 0.10230914 -1.3804182 -1.8318113 -1.2713238 0.40062994 1.2020613 3.2520738 -0.07367098 -1.3227625 -0.7219191 0.031516895 0.64612484 0.24588068 0.2547035 -0.18447204 0.4290686 3.436462 0.6012498 0.82402384 -0.28467172 -2.5700054 -0.6312331 1.2099503
280 0.7989846 1.3200719 0.029410403 -0.98871785 -0.114029005 -1.0664225 -1.0990187 1.1404657 0.82794523 0.384885 -1.564388 -1.072319 -1.4662411 0.934921 -0.036519457 -0.3503351 1.6199883 -0.82942396 -0.32355443 -0.92873836 0.91582876 -0.25730422 1.4078364 1.3766979 0.42917752 1.2397519 1.9167827 -0.3182711 -0.16924185 0.629873 -1.3918408 -1.2653389 -2.0224955 -0.7587747 -0.892474 -1.5066206 -2.7283108 0.068630405 0.2599707 -1.3519969 0.9021118 0.7216347 -0.73239577 0.5822822 -1.560058 0.08998043 1.278965 -0.11935803 0.7533174 -1.2456487 -2.3961592 -0.5519013 0.16206878 1.138381 1.813635 0.9396572 -1.5073937 2.8968058 -1.5364709 -0.2839343 -0.27140823 0.414023 -1.5872118 1.0828626 1.4957876 0.44126078 -0.75587016 -0.45242822 -1.0438738 1.1962917 1.4394878 0.8276911 1.1572421 0.51254845 -0.4204959 0.28778768 -1.0240511 0.7024277 0.21621579 0.37409478 0.20893504 0.49954712 -0.43406147 -3.6488116 -0.39966094 -2.1086438 0.37225154 -0.81616837 -0.8425092 1.341531 -1.533626 -0.2610115 -0.7933217 -0.22245781 -1.2780302 -1.6819552 -1.9068856 -1.2306781 -0.3603671 0.21593718 0.024888517 -1.5335417 0.8188689 0.12919267 -2.4238462 0.46628416 -0.69309443 -1.4177155 0.3521845 1.0942203 0.081272915 1.070897 -0.70597374 1.1381754 -1.6312642 1.9438808 -0.5571948 0.5272389 0.509102 -0.5760819 0.65285254 2.4230647 2.5289955 2.463199 -0.16241236 -0.21998563 0.076497756 0.71727103
253 1.9715415 1.1929764 0.5692488 0.58207214 -1.5608703 -0.7717475 -1.0511262 0.59609056 -0.13243392 -0.55891466 -1.6373595 -0.6572545 -2.1535509 -0.06394762 1.0086092 -1.6920775 1.1050608 -0.22708625 0.6699303 -0.54949594 0.71371555 0.8626688 -0.7231662 1.372413 0.70804703 0.3165062 2.0311706 0.54694635 -1.6819009 0.5507641 -1.0407887 -0.39979094 -2.070733 -1.5711967 -0.33119336 -0.30708143 -2.0301466 1.539401 -0.62367594 0.19269471 -0.22100295 -2.2178187 -0.8812942 -0.72922534 -1.3342711 -0.55658615 0.7047865 0.9361431 -0.88426864 -0.27405456 -2.7527337 -0.11140714 1.1535134 1.0856194 -0.3911386 -0.57279557 -0.17752697 1.0880035 -1.0112284 0.2973609 1.3840764 0.50380677 -1.0653208 0.20894232 0.31250945 0.17282128 0.17971838 0.2452355 -1.7012317 0.64454204 0.39095658 0.54721576 1.4729204 0.76921266 0.77429724 1.7790213 0.08183635 1.5921669 -0.58835024 -1.3900445 -0.25082365 0.65367895 -0.7106681 -0.70315385 -2.2337809 -1.2806513 1.9051836 0.8651893 -0.005055369 0.39295664 -0.58175796 0.6783207 0.5168836 0.16335875 -2.7051964 -0.92509496 -0.9709734 -0.29451543 0.27720872 0.031298503 -0.306034 -0.52687895 2.0392356 0.1756888 -2.158859 -0.48275384 0.9578715 -0.64344954 -1.271193 -0.8019346 -0.47236228 0.834217 0.20172173 0.75972366 -0.92268586 1.1612644 -1.665193 -0.6419022 -0.2673069 -0.84509224 1.1384771 0.45732912 1.8977177 2.4173307 -1.2406384 -0.6866147 2.0075011 0.2533796
395 -0.82375646 0.14440882 0.81251633 0.85939723 -0.31420717 2.372269 -2.1040938 2.0933943 -1.6193724 -0.47997996 0.12943888 0.015124979 2.5896695 -0.37235835 -1.7269651 -0.876509 1.9253486 1.3461378 1.5488293 -1.0737588 -2.5309708 -0.6426126 -0.16663696 0.3903938 2.3854194 0.3198642 0.43739155 -0.7101885 -1.1329902 -0.89901537 -0.5620209 0.3906887 1.9414817 0.28843164 0.7858534 -0.15300058 1.1227767 0.7246378 0.6112215 -1.3555208 0.4289619 -0.81220156 1.8932189 0.7150096 0.93865037 0.57629275 0.6698623 0.37249467 1.3933935 1.8386583 -0.82704955 0.17150292 1.0844398 0.8051946 0.429981 1.3733815 -1.7182002 1.2934612 -0.2670936 2.151217 0.43324295 -1.1273171 -0.6366065 -0.035861026 -0.31430325 0.078366004 0.37995628 -0.33031994 0.8572502 -1.044263 1.4754618 -0.07454731 0.03763831 -1.8566263 -0.60769814 -0.58022195 -0.83381194 0.14815092 0.6660785 0.27288014 -1.4286602 -0.015199526 1.9036769 1.604166 -0.4444774 1.0371827 -1.066041 1.240694 0.026742429 -0.46363026 1.7066599 0.52683824 -2.7731924 0.30647847 0.5063445 0.7670054 0.070039034 0.50896996 -0.63690394 -1.2406347 0.3570842 -0.73713183 -1.1688908 0.17422828 -0.97144943 -1.242358 -0.15457727 0.23837169 1.4760039 0.74137837 -0.8065978 0.3761576 1.0398062 -0.6362993 -0.17473064 -2.6196306 -0.20253447 0.72620356 -0.2202819 0.09370447 -0.8599904 0.16626729 -0.13806786 -1.0956714 0.26356906 1.5738984 1.021819 0.4407235
151 0.73758715 0.6353818 0.32982367 0.8234875 1.3401152 -0.0014664411 -0.387729 -0.033028845 2.2164114 -0.77909625 0.3269099 0.4029236 1.6117465 -2.0605237 1.6659576 -0.85180205 2.233257 1.2882241 1.2784418 1.633688 0.19543509 0.30858964 -0.28471082 1.39257 1.3424002 2.676631 -0.6698491 0.8594856 2.6016884 0.28815117 -1.7274793 0.7031975 1.5379399 0.37466568 0.27211782 0.5628915 1.1554798 -1.8449905 0.020744711 0.41334212 2.537245 -0.2984148 0.7601518 -0.1958932 -0.14073803 -0.12599677 0.5928053 -1.6534753 1.7491093 -0.93725616 -0.20986871 0.14849734 2.832664 0.16223544 -0.25384578 0.99174374 -1.140579 0.49940202 0.8404132 -1.108532 -0.25042948 -1.1547321 0.21582639 0.031392913 -0.42542264 2.0372307 0.21131037 1.6511477 0.48590487 -0.35350785 1.2788626 -2.123517 -0.7126357 0.82256186 -0.50016737 1.1409812 -0.5199709 0.34859258 0.047991075 0.78360933 0.23903932 0.2354075 0.9673188 -2.210626 -1.0711434 1.0475976 -2.7636395 -0.108921476 -0.62281644 -0.8403805 -1.8375573 -2.0657558 -0.82069486 -0.31700423 -0.941176 -0.58001304 0.28627384 1.0603904 1.3556304 -0.18284792 -1.5859997 -0.9716531 0.33435324 2.7061868 0.6228426 2.049814 0.059670452 0.106622115 0.45098546 0.6283369 0.80793816 1.0060339 -0.11067719 0.9325399 -0.9202514 0.8651162 -1.0243291 0.8959514 1.4421463 -0.35352814 -2.7453563 0.2374797 1.1480907 -0.58551204 2.680662 1.8472732 -0.6538241 -0.4387042
257 0.08568332 0.49273565 1.8044384 0.6297341 0.038886335 -2.7424254 -0.8500182 0.08698815 0.74723154 -1.7523115 -0.9186489 -0.103142925 -1.2773179 0.47631794 -1.1141989 -0.5787908 -0.6523724 -0.00848819 0.43511742 -0.82919586 1.1746631 0.95705134 1.6664826 2.533159 -1.0012113 -1.5603627 0.9264081 0.2720414 -1.1497153 1.62362 -0.07424342 -1.5527602 0.74152046 -0.73430717 -0.10444446 -0.38777956 -2.2808154 2.8237283 0.17164613 -0.8112148 -0.15787016 1.5367584 -0.47204077 0.60098344 -0.11118567 0.10216934 1.8075078 1.1732391 -0.3204582 0.2543613 -2.403854 -0.7252641 -1.060028 -0.8781216 -0.26481572 -1.3822608 -0.8571445 -0.0694429 1.6492021 -2.2583463 2.2897613 -0.82081693 -0.55199033 -0.94757646 -0.30803415 -0.17411038 -0.41416618 -1.1656322 0.5613356 0.8822222 -1.3136786 1.395384 2.1201174 0.5515944 0.28367928 1.6288059 0.4568063 1.2447292 -0.55554944 -1.2440675 0.049907926 -0.18362147 -1.407447 -1.0679197 -0.7386429 -0.6291271 2.5092292 -1.5197358 -0.4505376 -0.2335275 -0.43053553 0.48029992 1.2135313 -0.092345655 -0.05796302 1.3115698 0.7076189 0.5760491 1.6716118 1.1368871 0.26061863 0.054012433 1.1181744 -2.247936 1.3491838 -0.8491923 0.9564737 -0.8968415 -0.5377014 0.6814341 -0.35454345 0.87559205 -0.47805944 -0.8941465 0.5260172 -1.5322262 -0.60450375 0.53073895 -0.7573425 0.8912757 0.411157 1.3411902 0.62970865 0.9661719 1.3074567 -1.1362523 -1.0920895 1.4468032
335 -0.8345441 -0.71610284 1.1630379 -1.05565 0.30659044 2.736899 -2.188404 0.3107818 0.17342548 -0.2926283 1.1642392 1.1010938 1.7859849 1.0904216 -1.4965906 0.35006657 0.21358708 1.0859745 2.1081975 -0.8031458 0.6567921 -1.3866227 -0.3182012 1.2178164 1.6875153 -1.0812579 -0.7049802 0.37929037 0.5868659 -1.4488049 -1.4710565 0.38035843 0.26466048 -1.7788624 0.84139144 0.45650002 0.08819873 -0.40416574 -1.6563303 -0.4166694 0.46475616 1.0774696 1.82959 -0.5683248 1.1218618 0.08958866 -0.8171076 -0.43665555 0.99740225 0.6001397 0.58338374 0.08370977 0.7991833 -0.22232892 -0.18348548 0.2388695 -1.7272581 0.14374553 0.017626487 1.0400547 0.3447488 -0.8859999 -1.55404 0.41418946 -1.1017123 -0.6257217 0.86015207 0.097573064 0.43602595 -0.57236433 -0.7108539 -0.358847 -0.53644913 -1.2813882 0.42495006 -0.059708368 -0.4454623 0.042940505 -0.0969854 0.3184826 -0.50569814 0.63531107 2.0612488 0.6683461 0.20640165 -0.042204153 -0.6166637 1.0098584 0.8955846 -1.326844 1.4925892 0.793707 -0.5156339 -1.5665953 0.598555 -1.586834 -0.38439888 0.07114602 -1.239619 0.8809631 0.24501152 2.6977885 -0.17915684 -0.18755962 0.40446636 -0.07648771 1.1304333 0.54146796 0.78741604 1.4465656 -0.26108804 -2.1612341 0.9556614 -1.9402928 -0.11151674 -0.872472 -0.7153598 0.9916475 0.1273822 -0.8609937 1.4051437 0.68454456 0.6782428 -0.039419748 0.8265014 1.2721772 -0.90088624 -0.3179935
434 1.7178646 0.34294775 0.640832 0.40326834 2.0117397 -1.6838557 -2.1956408 1.0285968 2.124963 -0.50733215 -1.04186 0.2616981 -1.3072844 -0.32441843 -1.3011103 -0.86257 0.46456346 -1.0681783 -0.16653606 -2.1880436 -0.7284131 -0.35359645 0.97156405 1.2096301 0.80791676 -1.1876048 0.68934727 -1.0492071 -1.0959889 0.9445778 -0.6922848 -0.29869765 -1.4986755 -1.5747011 -1.4606881 -0.00639747 -2.2735999 1.0597239 0.76766855 -0.7955827 -0.7737206 1.7134928 0.14197949 1.0446275 -0.22459698 -0.36637652 0.65292984 1.9225897 -1.5331492 -0.38162833 -1.2128457 -1.7547841 -0.18204568 -1.3863508 1.9163126 -0.42237574 -1.0795193 0.056997646 0.083646536 -1.0189637 1.9574398 0.000342984 -1.9346989 0.023480138 -0.46849433 -0.48160577 -0.14947599 0.4178268 -1.6990561 0.22387427 -0.50001824 1.4371003 2.7517517 0.65537244 -1.044055 -0.33377054 -0.2610916 0.43525246 0.57705426 -0.6065986 -0.17449619 -0.75264907 -0.2985638 -2.2958088 -0.38584983 -1.5367769 0.281243 -0.23819399 0.49871227 -0.22427556 -2.1460395 1.7906965 -1.1461333 -0.56095064 -2.3628063 0.32259265 -0.49556488 1.0232269 1.4983937 0.12075503 1.1350895 0.2854857 -1.8624722 -0.56551194 0.18227407 -0.6897862 -0.31891114 0.26527363 0.034351714 2.1995115 -0.18995811 1.0732898 0.013501712 -1.8966762 1.5452838 1.5204731 0.70911646 -0.9749278 0.10834908 -0.6761955 0.8235784 -1.349084 0.40902147 1.1979369 1.9869285 0.6291787 -0.6997425 1.0601414
78 -0.59836805 1.0566856 -1.6960675 -0.13580637 -0.27042753 -0.9640896 0.535216 -0.3236089 -0.548761 -0.29726818 -1.3613857 -2.595215 -0.38048923 1.5837535 0.36181793 1.0312351 -1.7823931 -0.67431456 -0.4895814 0.82205456 1.149626 -0.73770493 2.5494797 1.1547564 -1.0408326 -0.62348604 0.6493202 1.2248499 -1.2646105 0.05678756 1.2770171 0.19189852 -1.158777 -0.020459922 -0.35705572 2.0695722 -1.4100871 2.1802466 -1.1631941 -0.19080393 -0.99891967 0.9667867 -1.1421978 0.10878534 0.08735399 1.6554953 0.42560136 0.39254948 1.3679541 -0.8804659 -1.2914627 1.2966542 -0.86377794 -1.3246619 -1.1203073 -1.0638528 1.4421012 -0.10959971 1.4498547 0.60490805 0.8304483 1.5148774 -0.017868254 -0.314505 -0.39441746 0.11154892 -1.2528116 -2.1696005 0.56853473 0.1675094 -1.5314746 2.595443 2.6658602 0.22330071 0.9202241 2.4513988 0.8989324 -1.1525255 -0.19143118 -1.0580361 1.5467178 0.19192722 -1.2962335 -1.4360793 -0.93491215 -2.0414212 1.9213897 -0.55995405 -2.216309 -1.1993145 -1.4117754 -0.021489114 0.6915564 0.62538075 -1.4985077 0.7859478 1.1604449 1.3605976 1.2652059 -0.46668044 0.4905726 0.90105575 2.9887996 -0.68614274 0.9318513 -0.36184043 -0.13420485 -0.6025902 -1.0126804 0.35927394 -1.4734906 1.4799305 -0.06234014 -1.1680309 1.3721383 -1.0503172 0.23597573 -0.24768461 -1.1979153 0.94477534 0.15438056 1.4140465 0.70163906 0.01520383 -0.060271204 -2.0355961 -0.9528616 -0.50875735
77 0.9743593 -2.1096778 0.8364647 0.020349622 -1.7153516 2.0625288 0.194325 2.2721593 -0.9528565 0.008237982 1.7000529 0.5592045 0.7858826 -0.21117532 0.16631709 -1.2567075 0.29944673 0.8174169 0.6176842 1.6634628 -0.3462571 1.5887762 2.3457253 0.35149845 -0.5902344 -1.117086 -2.647441 -0.03260111 2.9495983 -1.1904024 1.5650942 1.591335 1.3118651 -0.5954657 1.9451424 -2.2353709 3.3811152 -0.041839864 1.3690902 0.0752161 1.6736083 -0.29485542 0.84372115 -1.4336091 1.8444037 0.88205063 0.64264894 0.5794278 1.1746185 0.20735587 0.9266789 -0.6062745 1.5458611 1.1397923 -1.2320057 1.0859104 -0.22442889 0.14249074 1.5261757 0.17627059 -0.56973135 -2.670967 -1.5355474 0.7819714 1.1131009 -0.9810103 1.467973 0.5474079 1.7161478 -0.23359941 1.5717834 -0.5483293 -0.9137018 1.4618951 -0.7545714 -1.3446155 -1.2348481 -0.15448377 -0.33530328 1.2274425 -0.22118193 -1.0912403 -0.74234647 0.48370153 0.17759702 0.086658716 -1.3415228 1.1963556 1.1081381 -0.02852043 2.6623828 0.033663142 -0.55855656 -1.727692 0.6697779 -0.8653356 -1.9500643 1.2230396 0.44239613 -0.3906571 -0.42588773 0.87198585 -0.25824982 1.6773084 -0.2116401 -0.34788784 1.4595361 0.7547307 1.0535048 0.5318989 -2.000452 -3.0524395 -1.3149679 0.9553802 -1.977402 -0.1613632 1.5939556 0.6402897 1.731561 1.048201 -1.8901737 -1.7555745 0.8163395 -0.87230843 -0.927166 -0.828957 -0.9604863 -1.0675768
279 0.31175295 1.2269793 -0.9575648 -0.6795812 -2.134894 -1.143582 -0.6844209 0.6191849 -0.61233276 0.23514146 0.011967569 -1.7908015 -1.8810596 -2.189657 0.055543628 0.45893356 -1.2233597 0.3282076 2.0748575 -3.2785861 0.25029612 0.47343865 -0.5991551 0.43915474 -0.26186588 -0.6706606 -0.60835737 0.9483606 -0.12792112 0.32919276 1.0258867 -1.4067266 -1.0960084 -0.85290295 -0.4108974 -1.2952156 -3.7173684 0.09107217 -0.043634534 1.5491112 0.7490686 -2.2220693 -2.9973202 -0.55239385 0.36524445 -1.1941783 -0.29642528 -0.64868563 -0.54873717 1.0433911 -2.1962664 0.81123734 -0.789898 2.2514527 0.32179323 -0.2601842 1.4370022 0.3899386 -0.402348 1.2239044 1.0080377 2.136931 0.94429386 -0.0023215078 -1.1874892 -0.24264511 0.04829638 0.30406258 -2.3820436 0.42962685 0.004734346 0.91873765 2.3496778 1.1149862 0.6799131 3.369773 0.9586823 1.3332303 0.18483905 -0.9060783 2.0069609 2.0353482 -0.57959306 1.4715953 -0.53223073 -0.09831586 0.9656588 1.2162975 -2.0828938 0.9086166 -0.8520691 2.14475 0.9272754 0.6319605 -0.45813137 -2.1340215 1.2843003 0.3216501 0.80902773 0.50313234 1.4316038 -0.2809217 0.20904484 -0.4177942 -0.2551089 0.66634315 -0.74269646 -3.4038756 -0.3571503 -1.061405 -1.2442889 2.42206 -3.2813518 1.670723 1.8477372 -0.2805942 -0.059882917 -2.7032266 1.3492382 -0.52085584 -1.130475 0.7487958 1.4934874 1.0398581 0.19081978 -0.59252787 2.388033 0.3493184
320 -0.8414498 1.9112537 -1.1223266 -0.6566734 -1.253725 -1.6432067 0.2765819 0.87580633 -2.2594023 -0.42230046 -0.5119311 -2.1190767 -2.1749027 2.4187355 -0.37481037 0.3808146 1.5630202 -0.83524835 -1.9343197 -0.4400427 0.6652995 0.9524141 0.47778782 -0.16423441 0.42739886 -0.16397962 -0.74296314 2.1283958 0.11292452 -0.43192732 1.4743923 -1.6560069 -0.42126772 0.020921301 1.1949912 -1.2670276 -0.15067789 0.99374104 0.55887306 -1.1923877 0.3793695 -0.5130476 0.2234707 -0.18804379 -0.98847246 -0.2806851 -0.04915328 1.2450292 1.1359274 -1.9565082 0.13510942 1.3970094 -0.1311975 -0.13315439 0.8770263 -0.2596157 2.3258467 1.7766039 -0.04535773 1.7816104 -1.2177515 0.8165339 -1.3105764 -0.13817225 -0.15627232 -0.45728478 0.14159629 -2.3749132 0.15542266 1.3526691 0.011159093 1.429212 0.37012193 0.9445161 -0.15491067 0.59413433 2.1324122 -1.5702826 0.36645654 -0.9746073 1.0074227 0.13199842 -2.5789833 -1.2585262 0.11005077 -1.4371033 1.1525788 -0.6530754 -2.4162176 1.4853522 0.4406681 0.18627506 -0.6502294 1.2536162 -1.3989931 -0.7836804 1.2762908 0.57589024 -0.3952959 -0.14186029 1.0135319 -1.3450783 1.1796453 -0.22394557 1.3166703 0.53448135 -1.6577954 -1.1735184 -1.942687 1.040151 -0.75322145 2.0612462 -1.949851 -0.645638 0.66487795 0.27305984 2.5068614 -1.5053005 -0.5573145 0.4796471 1.0934339 1.6668562 0.39848614 -0.859717 0.37984955 -1.1376808 1.8550575 -0.557599
216 -0.15092088 -1.1556667 0.1624279 -1.6818612 0.20100188 -0.62312454 -0.5604973 0.455046 -2.127438 0.47743392 1.9290456 1.4338806 0.82026213 0.96518797 2.4541728 -1.3169024 -0.46962747 1.9324038 1.119812 0.6157936 -0.33114815 0.028552327 -0.72463995 1.1863792 1.184596 1.7403558 -1.5972193 0.62732464 1.5156106 -0.56244314 -1.7005728 1.2237191 2.241284 -1.2575729 2.0710335 -0.94449925 0.3609036 -1.9225262 -0.018459758 0.29247698 1.3189417 0.46420646 1.5408169 -1.3656557 2.2931826 0.15902157 -1.8476 -0.48212484 0.69786006 -0.76435083 -0.018577548 0.22388715 0.625932 -1.0019909 0.26204163 1.6515385 -1.9508221 1.189347 0.99902254 2.2226858 -2.0101075 -1.7641332 -1.7385486 1.9634182 -0.08285352 2.478518 -0.0058536786 -0.9942444 2.3268592 -1.1501356 1.434635 -0.464752 -0.44496045 -1.5130907 0.8157737 -1.2721065 -1.2592301 0.21940231 1.010214 -1.5358244 -1.4307672 0.8008118 1.0780445 -1.2862602 -1.0309836 -0.20504047 -1.6131624 -0.50473785 0.5463577 0.34269404 0.8168847 -1.5604861 -0.0055324435 0.38530844 -0.37728378 0.54175925 -0.29308423 -0.75276387 0.80035764 -0.27891722 -0.40093663 0.78400767 -0.31526855 -1.1992455 0.28504 0.64929676 0.48955595 -2.6697397 1.5286509 0.013252485 -0.8368658 -1.8509119 -0.16364075 -0.22682746 -1.5987824 -1.0657268 2.6740792 -1.161691 -0.07614265 -0.04823453 -1.7618105 -0.886632 -0.27813643 0.7384135 0.48533803 -0.3303343 -2.2646065 0.64152974
103 2.272289 0.10150494 -2.33418 -0.9230753 -0.09777348 0.15612099 2.5533996 0.71306473 -0.17148392 1.2766641 -2.1024578 -1.0795876 -1.2436897 -0.04094338 -0.0065021864 0.7576837 1.0660721 -0.23884346 0.13780409 0.48510188 -0.13369973 -0.069544174 2.7273648 0.543051 1.3807645 0.9529179 2.647283 -1.1538156 -0.5415509 -1.7587386 2.3779113 0.73457974 -1.0662326 0.6121609 -1.1059483 -0.52784437 -2.7895858 -0.2795075 -0.7018892 0.07650828 -1.2379043 -0.83515674 -1.319829 0.9015609 -1.3286096 -1.0197419 -0.22479743 0.45570537 0.70947504 -1.8523123 -1.0532556 -0.14739296 0.34705123 2.3821442 0.19195087 0.6636708 0.020511556 -0.31518325 -0.5834269 -0.10299593 1.3487439 -1.1980021 1.2553817 1.0537128 1.149132 0.4498313 -0.30914283 -0.9186626 -2.611174 1.8072841 -0.87944466 0.8017741 -0.4034426 2.5287213 0.47038713 0.1440588 -0.42868665 -2.0188172 -0.05713412 0.4035651 1.942448 0.6167839 -1.859422 -2.0743234 -0.05255013 -2.1592216 2.6168735 1.1932175 -0.9639161 1.9368476 0.38134703 2.0877209 1.3853419 0.04287768 0.41486824 -1.8126309 1.5974716 -0.60311395 -0.8391583 1.9146191 2.0108564 -1.3899939 2.6085017 0.46290457 -0.931872 0.7406332 -0.6200985 -1.626128 0.9207299 -0.1776559 0.592317 1.9367206 -0.10597426 -1.6935791 -0.1527482 -0.24858306 1.0941434 -2.6796148 -0.8613541 -0.46495685 1.0999842 1.1898521 1.0381466 0.060889963 -2.1977248 -1.0541098 0.67499375 1.1499041
3 -0.49752977 -0.1296258 0.5417882 1.246642 -0.23965226 3.3250303 -2.078853 0.6149565 0.059896387 -0.45325258 -0.15857133 0.27610928 2.1102176 0.8892368 -1.6560931 -0.59532994 0.5223301 0.024630133 1.211544 -0.8592432 -1.0227599 -1.6276238 -0.7167546 -0.10364653 1.0844479 -1.0543284 -0.22171786 -0.62495893 -0.5220064 -0.7738081 0.5185672 0.25110078 1.1430851 -0.045904204 1.9087087 -1.992092 1.7248442 -0.47777393 -1.329565 -0.64328575 -0.8248156 0.051906765 1.0114194 0.9919264 0.2761545 0.33015788 -1.216599 0.5343565 1.4192482 2.0179584 -0.4637375 0.97875834 0.94115376 0.89894384 -0.54210067 0.487225 -0.8229969 0.44378793 -0.07231193 1.1716098 0.5184135 -0.06073718 -1.0198506 0.32381523 -1.5701152 -1.4516903 1.4294068 0.11191919 0.68341553 -0.30731627 -0.16279168 -0.9701266 0.32334805 -0.9090343 -0.39888912 0.0405458 -0.3783314 -0.5588734 -0.07822807 1.0268532 -0.4243727 0.6960642 1.9971408 0.12195724 0.25066996 -0.024031563 0.06608349 0.5230916 -0.4998964 -1.0055094 1.5420853 1.052545 -0.8456671 0.11370539 1.0637767 -1.6399614 -0.7286714 0.5589553 -1.8706805 -0.46300465 0.42577067 0.9301993 0.568056 -0.37686014 -0.24859837 0.88861626 0.6712384 0.40089333 0.50463694 0.3972368 -0.7562669 -0.43085998 0.6219582 -0.32225057 0.23389003 -1.2001806 -0.37003502 2.094464 -0.881757 -0.58081 0.44147867 -0.43534628 0.2672972 -1.2620524 0.15881488 1.8489771 0.79297876 -0.42021805
58 -0.63482255 0.36623412 0.6811904 -0.88245654 -0.9961134 -1.5282592 1.7232106 -0.42944244 1.10449 1.1209476 0.9936165 -1.5369073 -0.9300353 -2.041179 -0.38656652 0.99787265 -1.8107738 0.57632875 0.12642778 1.8327373 1.750197 -0.21493039 0.29507408 0.5202285 -1.3700228 -4.0314713 -1.9519103 -1.0478683 -1.324836 2.2589893 1.1983094 0.59845877 -0.3765501 0.13608164 -3.6930718 0.34319434 -0.9719643 2.418065 -0.3105131 1.9355514 -0.38690862 -0.6705232 -3.74169 -0.48299098 -0.67533714 0.64252865 -0.25530478 -1.085797 -1.6040637 -1.1638286 -1.5839953 -0.09949714 -3.083975 -0.30370235 -0.9094253 -0.7067855 0.863447 -1.1150417 -0.2845094 1.4658688 0.1322238 3.6470149 0.11287228 -1.0401366 0.19468872 -1.2643465 -2.1194417 -0.8705805 -0.458264 -0.4611527 -1.8118982 0.04075614 -0.27329528 1.5971707 1.2549998 0.90606827 1.539356 -0.1324672 0.30506364 0.19721295 1.9019879 0.63039416 -1.3085938 1.7589581 -0.44649428 -0.22395836 1.2915058 0.874573 -1.2107282 -1.7087162 -1.347198 -0.012175797 -0.1253637 0.27624688 1.0667105 1.1470386 0.26583156 -0.08122476 -1.2948436 -0.22079928 -1.104986 -0.33264533 1.7637876 -0.2516422 -0.8002837 -1.1077378 1.0720774 -1.0542237 -0.8726811 -1.6823081 0.6840879 0.8897099 -1.2780632 1.5016065 1.8306965 -1.4372705 -1.1334589 -0.7322581 -0.6274767 -1.2183534 1.3022114 -0.8088398 -1.0023848 1.3229054 0.2893256 -2.10577 -0.40643576 1.2671969
71 -0.08653932 0.85108316 -0.74552476 -1.3785154 -1.2981706 -0.9775185 0.106625065 1.3791724 -1.3274857 -0.3115924 -1.2653824 -1.1187853 -0.1762599 1.9646528 -0.8668015 0.32505062 0.79049397 0.25284326 -1.1514299 -0.15814558 -0.3630437 0.88062745 1.8926504 -0.8890273 1.0637331 0.8819592 1.7537432 0.15697728 -0.7598358 0.9519111 0.48291236 -1.241795 -0.11882847 0.039378628 -0.91708046 -1.511738 -1.3947108 0.07345889 0.92438346 -1.7679828 1.1002522 -0.7022166 -1.4086844 0.06959346 -0.2047964 -0.36054468 0.8966756 0.10164272 0.6820608 -1.751237 -0.4585424 0.6799097 0.84694564 1.3349662 0.9251805 -0.06479775 0.62028605 2.7380126 -0.5851026 1.6760164 -1.2083471 0.060079202 -0.4130661 0.480852 -1.1628803 -0.74245554 -0.32739657 -2.3295565 -1.7311425 1.4335198 -0.31946567 1.050732 0.17575769 0.9783072 -0.35769677 0.102039166 -0.09710483 -1.7879889 -0.6615993 -0.083122805 0.088406704 0.52040875 -2.2505052 -1.7377517 0.21257184 -3.0711286 2.4000506 1.3328258 -1.8228787 1.3227876 -0.30582228 0.3655827 -0.86158854 1.460593 -0.61781204 -1.1197965 0.88210917 0.31924996 -0.41232175 0.72109723 1.3650815 -0.41061804 2.1415422 -0.16848877 -0.63830394 1.5700592 -1.3931046 -1.5965259 -1.7080967 0.7846681 -0.55985284 3.2599711 -1.7451495 -0.7394449 -0.6485751 0.5640604 0.11070437 -0.7192406 0.44033715 -0.33106163 0.44919926 2.6212387 0.6242495 0.37678456 -0.3068579 -1.7346017 2.3235683 0.71866846
133 0.738349 0.14889799 -2.9899268 -0.023812026 -1.4174402 -0.6473498 1.7830496 0.14906392 0.28146937 0.92250204 -0.43738818 -1.626864 -1.8002198 0.015758606 1.1764008 1.277501 0.7253253 0.8539831 0.61483955 -1.4897668 0.67359847 0.57139754 0.8524083 -0.08326297 0.14973919 -1.2132212 1.2066939 0.42552957 0.10135617 -1.4754212 -0.012810667 0.3579851 -2.7473602 0.8252133 -2.2404418 1.2853526 -2.6519837 1.978431 -0.48347366 0.94620806 -1.5907205 -0.48827696 -1.7285702 0.71055645 -1.4831642 -0.95138234 1.4663595 -0.38391855 0.09032132 1.0320759 -1.2182952 1.1108052 0.091944054 1.0659745 1.8168066 0.16102302 1.7807082 -0.32050052 -1.1165614 0.6206889 2.7920942 1.6254388 0.14153425 0.10895319 1.63682 -0.30731136 0.029074721 -0.2794209 -2.5124524 1.2534739 -1.1885959 0.89441407 -0.5584139 2.354645 1.5315245 -0.07435132 0.5789854 -2.3645055 0.9218934 -0.8849609 2.8678668 1.4751675 -1.2850881 -0.51810026 -0.46669888 -1.6451077 1.2581547 1.1105864 -0.6138035 0.19981952 -1.5048562 2.0244784 0.45990103 1.4456979 -1.0377346 0.30882242 0.34281734 -0.57800883 -0.9465831 0.20425433 0.34776112 -1.8037484 2.1465888 0.55933565 -0.5079725 0.48958766 0.016749311 -2.1681478 -0.17971528 -0.37113371 0.46449402 1.3106325 -0.37926054 -1.0622178 1.5896465 0.34094352 -0.21740921 -2.250044 -1.9524549 0.2500097 2.2869396 1.3063375 1.2464654 0.7365788 -1.348123 -1.3966206 0.7646338 -1.2938255
409 -0.4849899 0.6259288 0.44881347 0.35020652 0.46133924 2.887471 -0.50749356 0.92375624 -0.34854877 -1.0509162 0.42231888 1.68268 2.3885448 -0.5589799 -1.2209914 -0.7597476 0.1669803 0.27769795 0.4063765 -1.8771229 -0.91287893 -1.5155461 -0.8537243 0.23370633 0.53302413 -0.7658079 -2.1332467 0.014379393 -0.02523073 -0.19123392 -0.37231818 0.636342 1.6808177 -0.8341586 2.136585 -1.5423577 0.8814899 -0.8405468 -2.551715 0.68730706 -0.44446862 0.19072922 0.6776144 1.4943528 0.28303474 -0.7248777 -2.4916544 0.019703772 0.060422897 2.865702 -0.25148886 1.3194244 0.17866708 -0.6415623 -1.3651823 0.5826895 -1.0347073 1.0399206 -0.26484492 0.808206 -0.67246073 -0.7779926 0.43987727 0.109800056 -1.7251177 -0.37994787 0.7397424 -1.5180985 -0.36555806 -0.057353783 -0.6357809 -1.1989555 -0.5239906 -0.63767415 -1.8369756 -1.4277222 -0.12079436 1.1683555 0.4616492 -0.50573164 -0.62648284 -0.082403295 1.527756 1.1113856 0.18648179 -0.4751015 0.23558687 -0.044229545 0.21807317 -0.18378685 0.575935 2.3491266 -0.11584414 0.09574295 0.71151775 -0.4353944 0.58039385 0.89348954 -1.6579792 0.62682086 1.5903509 0.9422334 0.74144167 -1.4326097 0.8294191 -1.0091187 -0.8925792 -0.45672774 0.17723547 1.677274 0.3158054 -1.1800015 0.09221931 -0.7699323 0.19661883 -0.8897016 0.017696243 0.5796312 -2.451585 -1.7816085 0.9568337 -1.3980149 -0.5544616 -1.0496228 -0.5480536 1.6239852 -0.06855776 1.6236025
111 1.1914959 0.5862666 0.7234518 0.1409272 -0.574044 -3.2735665 -0.8375069 1.0383521 0.43002942 -1.3894535 -0.8829284 0.2853355 -1.6196097 0.04663945 -1.3832216 -1.261466 0.66077167 -0.4023182 0.558605 -2.1026347 0.19965112 0.8763333 1.4621964 0.7472035 0.5262083 -0.695793 1.6889316 -0.5424243 -0.781897 -0.20363533 -1.0824658 -0.7032421 -0.46945637 -0.19659925 0.51445806 -0.7306277 -3.1190062 1.9311333 0.71962655 -0.03785047 -0.14082167 1.274553 1.2792462 0.1741973 -0.5009954 -0.24942356 1.992683 1.4630831 0.11623548 0.07331682 -2.499085 -1.2908167 -1.2486986 0.079565585 1.1094891 -0.4445339 -0.9675685 -0.83195776 -0.08610862 -1.2451084 1.5295699 -1.0863086 -0.7915713 0.49210882 0.07974765 0.019575862 0.48844188 -0.48103496 -1.2567736 1.7836744 -0.88345164 1.2922025 0.81014395 -0.0508651 -0.919707 0.04473672 -0.07227503 0.4591996 -0.22131947 -1.0577706 -0.5870352 0.12474192 -1.5572782 -2.195092 -0.26766095 -1.3415902 1.1574441 -0.63567936 0.10820555 1.826887 -0.6653582 1.3871245 -0.04471304 -0.4745661 -0.0824098 -0.048868388 1.3399566 0.15698425 0.6485535 0.022524523 0.56025827 -0.6708388 -0.18758847 -1.1070614 0.39489654 -1.2759883 0.33895233 -0.099495955 -0.20795672 1.8114098 -0.12796599 0.6171958 0.06923376 -1.2513142 0.8799643 0.7983316 0.7645474 -0.1867605 -0.853824 -0.2652021 1.0018302 1.1949399 0.64379674 0.06459864 0.30865502 -0.20749988 -0.08673189 1.1175594
312 1.4458091 0.29676506 0.76570225 0.18453912 0.33653253 -0.64288825 0.46658367 -0.022972358 0.49764293 -1.0156976 0.42438966 1.1919266 1.7013236 -0.26977262 2.9730537 -0.051471982 1.4796039 1.7189257 -0.7117133 2.3076975 1.1846833 0.7396361 -0.8926217 -0.109916404 1.2602891 1.202243 -1.3053044 1.9261636 2.3761327 -1.0123944 -2.0746553 2.2556765 2.122408 0.7996475 1.6083204 -0.58960366 0.065169305 -0.9351575 -0.5987167 1.4027405 1.6936435 -0.2678803 1.3190408 0.057939094 -0.5347924 -1.062602 0.16292569 -1.3756961 1.4972737 -0.35456595 -0.41430888 0.5335199 1.8961034 -0.6392869 -1.2439349 1.171911 -1.9342657 1.4206959 0.70558894 -0.0199627 -1.3510054 -0.2562161 1.6022296 -0.0017301706 -1.3260603 4.499785 -0.23491004 0.0052797454 1.1321181 -0.52989197 2.4451208 -2.1267023 0.004826821 -0.50730604 0.37370747 1.6274297 0.3937803 -0.07401168 0.8467881 -0.986617 -0.20876849 -0.11428899 0.34308127 -1.5790207 -0.64876276 0.54858375 -2.8740733 -0.50098544 -1.447145 0.022330035 0.26442495 -2.5160532 -0.2764124 0.31584013 -1.2544441 -0.6003992 0.0009986195 -0.91653943 0.7161715 -0.0462929 -3.3063655 -1.4947509 0.89008576 1.3221891 0.4198777 1.8720629 -0.6500008 -0.1461628 1.3152663 0.5718565 -0.49125314 -0.38768125 -0.6480862 -0.022444151 -1.1502464 0.703671 -0.08388885 2.0720246 0.7297811 -0.6518863 -2.1942244 0.75380975 -0.12201385 0.1746175 2.6389422 1.4520512 0.2936099 0.2328176
287 0.9921571 1.1407597 1.4435065 0.26536095 -0.6161174 -3.24284 -1.2829446 0.8514519 0.07757977 -2.1631477 -1.4628311 0.3946083 -1.5373027 0.25666833 -1.0411245 -0.86523855 -0.034362737 -0.3005365 -0.29197234 -1.65272 0.5382765 1.6284106 1.7239207 0.57559824 -0.3514654 -1.9518346 0.28995404 -0.18355176 -0.42474362 -0.15416387 -0.12156919 -0.33300847 -2.0420725 -0.28562424 0.762473 -0.7713396 -2.9318826 3.2610118 -0.40921557 0.804944 -0.04273157 0.64724386 0.2686443 0.09745466 -0.41317084 0.3571942 1.7096764 1.7249838 0.54488206 0.8218561 -2.4681716 -1.3330508 -1.7479177 0.23585661 -0.14193027 -0.10556183 -0.5456138 -1.426406 -0.507483 -0.85900795 2.0805535 -0.94614804 -0.09122132 -0.19607575 0.20380633 -0.060337137 0.86799246 -0.990878 -1.0078745 1.1466397 -0.52093875 0.87903464 1.5392202 0.22068368 -0.9419056 0.6196181 0.14086778 0.9320909 0.7958362 -2.4774764 0.3998691 1.0742308 -1.2763188 -1.339141 -0.5166806 -1.3199948 1.0287247 0.3494478 -1.2744927 1.0765581 -0.45800057 1.3724803 -0.13900399 -0.23442486 -0.16899222 -1.1435177 0.74137986 1.4165835 1.7588569 -0.41039276 -0.08983405 -0.54792875 -1.1711391 -1.5393821 0.18939215 -1.5060152 -0.19403364 -0.56004876 -1.9594944 0.6986943 0.6120185 0.8726201 0.063963324 -0.1832141 -0.024277994 0.27228206 -0.33319142 -0.83811796 -0.32914093 0.21015322 0.39733815 0.35407314 0.18835983 0.7478748 2.2159345 0.8074455 0.28409064 0.94750434
159 -0.34093818 1.7144715 0.5221953 -0.9282514 -1.9937139 -1.8901094 0.9770121 1.4491482 -1.4824854 0.44932783 0.08601481 -0.9893949 0.11882765 -2.1203728 -0.044114683 1.26527 -2.4209144 -0.08423044 1.1409383 0.0035680635 2.0192993 0.55107546 -0.18818645 -0.12216146 -0.78524214 -1.8081304 -1.8007227 -0.52660835 -0.9637708 0.36943558 1.7849909 0.5543652 -2.459473 0.13422553 -0.8511143 -0.25284025 -1.7112005 2.4559753 -1.7368947 0.7721345 -0.0034690234 -1.6320361 -3.651732 0.34937003 -1.4541482 0.5769744 0.26889786 0.30573964 -0.7859234 0.066508606 -1.4353701 1.1405082 -2.954197 -0.48637667 -0.6321514 -0.39181945 1.0933152 -1.2126232 -0.29145184 1.3189279 1.1853689 3.5664647 1.3939925 -0.9729366 0.5070447 -1.3217283 -1.0401984 -1.6107972 -0.38564968 -0.5861401 -1.6507789 -0.6195411 -0.20044911 1.9180834 0.74328613 2.3894632 1.6560017 0.26594973 0.43081236 -0.34292388 2.3834612 0.33513886 -2.507372 0.05905038 0.6610992 -1.1701446 1.7244549 -0.4196079 -2.296152 -1.1773244 0.0881858 1.5240984 0.38300303 0.29688814 0.18362002 -0.25813574 1.4261754 0.50410336 -0.93621683 0.99079376 0.3291421 0.5167865 -0.3127953 -0.9581496 0.5437647 -1.717286 0.70696414 -0.92845 -0.25343594 -1.8164793 0.9903375 0.7946656 -2.0699546 1.1853756 1.6052693 -1.1715393 -1.735917 -0.8943319 0.1703352 0.68148184 -0.21021202 0.026596215 -1.67937 -0.6923265 0.7338159 -0.27449113 1.2712837 0.74695444
327 0.52898103 -0.95401883 0.47794223 0.80352354 1.4233495 1.9820502 -1.5065367 1.2690088 -0.457112 -0.06395848 1.0999832 0.7452105 3.182961 -1.4757127 -0.735404 0.7337718 2.1055675 1.0877719 0.36558282 2.3256729 -1.1822239 -0.51104957 1.2992073 1.1374022 1.6224496 0.54568195 0.34642947 0.99142325 0.5529849 -0.08803202 -2.0978355 1.7805682 -0.74782985 0.96730155 -0.95175564 -0.17546374 1.5010715 0.2326229 -0.89656776 -0.3279836 -0.39182726 -1.0239779 3.404744 -1.4072812 1.3315175 0.46483973 0.89246714 -0.68000793 2.4130452 -0.89150274 1.2965837 -0.32415155 0.987772 -1.6900176 0.9273372 0.7045684 -0.05788773 0.2747639 2.0334556 -0.61103964 -0.8402031 -1.18001 -0.65823495 -0.11705483 0.5956339 0.26352286 0.7546058 1.1138284 0.5156156 0.72699153 1.6174839 1.1255656 -0.96882975 -0.10206348 -2.4531078 -0.65773594 -0.47642893 -0.58686775 0.3101772 -0.1075907 0.35710874 0.40108967 1.7094129 -0.18938313 -0.55563384 0.79582953 -2.5288708 -1.2712967 -1.1904296 -1.3099257 0.19355917 -1.7653478 -2.1268878 -0.94997764 -2.2611701 0.015653467 0.38211164 1.5314776 -0.83823967 -1.3662771 0.11738233 0.52009624 -0.04437817 1.7396345 -0.59364426 0.6831245 1.4901488 0.5840331 -0.15680626 0.057308212 -1.7977353 -0.056630276 0.9397953 0.3461777 -0.07670176 -2.0149376 1.1002761 0.9565119 -0.1340249 -0.69668555 -0.81457764 -1.9188968 1.0881155 0.29150555 0.52352387 0.7553749 0.31092203 -2.81606
14 -0.08803332 0.11956867 1.1653436 1.7022104 1.0597657 -0.41887164 0.18239367 -1.4179537 1.8014601 -0.32450244 -0.6309359 1.0021441 1.4518607 -1.4286318 3.1911762 -0.30540064 1.0570819 1.3186319 0.50432426 2.3480844 1.0711757 1.7241323 -0.12537403 0.8942725 1.4761416 0.38884148 -0.81346774 1.8383027 2.6387274 -1.139238 -2.7742195 1.0090656 0.86505556 0.18760496 -0.19714488 -0.36641788 0.7963012 -0.8944061 0.2556246 2.230331 3.0177703 -1.9729382 3.040774 -0.45336586 -0.73578954 0.40149888 1.3688796 -2.6102922 0.5703246 -0.3033565 0.72125036 -0.15237845 1.8039695 -1.5819341 -0.18868177 0.44515842 -1.4707918 0.85902953 0.62719136 -2.6930256 -1.234352 0.025427653 0.016121935 0.10492388 -1.7112057 2.8067107 1.226272 0.9132759 -0.1436675 -0.95943373 1.93206 -0.9654189 -0.8519342 1.3062017 -0.80315804 1.5025755 -0.45656097 -0.9370542 -0.5701908 0.08351647 1.1732316 0.40880004 0.2616526 -3.232 -1.212177 0.563081 -1.9655235 0.40202546 -0.4957113 -0.30334166 -0.8465566 -2.3099742 -0.61477786 -0.378397 -0.9639159 -0.093453825 -0.18018481 0.9834329 1.578592 -0.86118674 -0.3379437 -1.2975634 2.5193257 2.0211964 0.36382475 1.724177 -0.29657045 1.4742959 0.49485484 0.56083477 0.21137185 1.3671807 0.18800357 0.87595165 -0.33103597 0.8110316 -1.0279217 1.111982 0.07565912 -0.72318804 -0.87472695 0.1132159 0.12175803 0.29971877 1.2089887 0.101298355 -0.71990037 -0.3683327
107 -0.45620275 -0.04605395 -1.3189837 1.1385574 -1.403558 -1.9081734 0.14207269 -1.7892605 1.4936714 -0.3643858 -0.773527 -2.408207 -1.8154343 0.44200987 0.96169466 -0.7583691 -0.29918134 0.22900657 1.1492013 -0.7919612 1.1677572 0.04213569 -0.31011838 2.996845 0.30486587 -0.3080731 1.0135759 -0.09997178 -0.91263914 0.662519 0.42140418 -1.0833931 0.74795777 -0.41927788 -0.40217662 0.21693152 -0.89385885 0.86904466 0.35986105 -1.5495384 -0.32303905 -0.1142111 -0.06545087 -0.10023604 -0.83728194 0.2276627 0.23728855 0.3587267 -0.7085169 -1.0117489 -0.85783494 -0.34829634 1.1602927 -1.9230657 0.51978 -1.6478653 0.1960364 -0.4329034 -0.57143223 -0.9221707 0.06877161 -0.5629637 -2.454182 -0.72773343 -1.3596421 0.17223413 -1.5059458 -1.350723 -0.19108593 -0.49616596 -1.060639 1.89992 0.56239027 0.8563231 0.78302294 2.2149537 2.441449 -0.9017582 -0.9763787 -1.1465207 1.5405403 2.0612617 -2.0549471 0.19494402 -2.5021415 -2.3428466 2.27415 0.3360808 -1.0021725 -0.011234049 0.43517524 -0.9707403 0.15750709 -0.96871746 -0.8564408 0.6432897 -0.8756424 -0.04565355 1.1809442 -0.123804614 1.9106647 -0.13494053 2.59004 -0.8002197 0.06729551 0.4579489 0.28510314 -0.18505035 -0.5369961 0.22970395 -0.5034548 0.7023631 -0.40874636 -0.5331094 2.2290502 -1.7563635 0.5467984 -2.9620929 0.16620177 -0.7566455 1.0842831 -0.7311706 0.39191496 0.46852615 0.5340176 -1.4298096 -0.43433955 -0.37275815
20 0.09417201 0.25546315 2.3192716 -0.017063795 0.79366904 -1.1171296 -2.62828 1.8851502 0.65300304 -2.099671 -1.3461678 0.530679 0.7884825 0.16846225 -2.5869303 -0.67473596 0.04441286 0.2571783 0.69198775 -0.7209905 -0.15348524 0.17841877 0.5208095 0.5286615 1.4264133 -1.5321599 0.3834746 -0.8547383 -1.1490997 -0.8602841 -1.5429302 0.00072046136 -0.26193416 -1.125538 0.2011362 -2.0101275 -2.1365993 1.2184207 -0.6903079 -0.49353138 -1.464348 1.332945 1.388947 0.37668628 0.5816879 0.24791084 1.7597735 1.3421199 0.55048126 1.6519475 -1.7494308 -0.9271885 -1.9691807 -1.3093325 -0.820492 -0.11330777 -1.6270835 -0.8049928 1.3364385 -0.31261745 1.9188944 -1.1992027 -1.3212287 -0.578441 -0.43059564 0.0060438816 0.70441025 -0.052758537 -0.73313785 0.5633907 -0.32966483 0.7826714 0.74755055 -0.61441505 -1.954186 -0.59221727 -0.5597879 0.7932356 0.23645756 -0.87945056 -0.45743597 -0.8282358 0.5007901 -0.67494464 0.92310864 0.646784 0.74620676 -0.04686794 0.5683817 0.8855508 0.040614165 0.3771784 -1.9603767 -1.3345611 0.023704268 -0.31519374 1.349664 1.0558271 0.11418261 0.41714403 0.6794077 2.0043645 -1.4676613 -1.1681415 1.137389 -1.2494528 0.8298889 0.02830295 0.738011 1.2803277 0.028836014 -0.36714265 0.15199488 -1.6633893 1.4112103 0.49948937 0.31553277 0.30896962 -1.5342956 -1.1194091 1.2164353 0.9974387 0.25627333 -0.99961036 1.7931199 0.26310065 -0.9454255 1.2018824
134 0.35876122 -1.1774104 -0.05351052 0.8649181 -2.273645 2.81753 0.21862759 1.8622277 -0.8274654 1.2191494 1.0852425 -0.27253115 1.3162094 1.420737 -1.1824198 -0.97561675 0.9540568 1.2250075 0.6892304 2.5480995 -3.1506932 0.6303038 1.0294509 0.2881694 -0.3756548 -0.699364 -0.21229774 -0.27600217 -0.8496374 -0.26982722 0.7842148 0.89427954 0.9389021 1.942062 -0.8881507 -0.14052945 1.4578223 -1.0010793 -0.25804698 -0.81042135 0.20738284 -2.4816303 1.5733874 -0.49435875 1.6201125 1.4593059 1.1602982 0.7923536 0.38597816 0.38607922 1.9683218 -2.2054021 2.2858849 0.40621674 1.1012824 -0.37395522 0.22329035 -0.8255347 1.2912979 0.0010242943 -0.4321568 0.049179558 -0.95833296 0.46589357 1.4090679 0.2998606 -0.69060975 -0.4419631 1.4237388 -0.7699181 1.0302894 -0.7438194 1.1827704 -1.751684 0.51383114 -1.2415512 -0.35086536 0.92046535 -0.5987414 1.6254792 -0.7423352 0.2903338 1.1325531 1.4115037 0.61586386 2.0549817 -1.2862235 1.4649211 0.61102515 -0.18550405 1.5748724 -0.4027045 -0.6127264 0.73295176 1.1974282 1.475732 1.3892828 -0.87600636 0.1639722 -2.640298 0.32016185 -0.97539955 -2.071769 1.8977109 -1.920172 -1.7051584 -0.67373043 2.3180788 -0.038364798 -0.042392224 0.33353555 -2.0572546 1.250469 1.280574 0.27735072 -1.5056388 -0.26132655 3.168894 1.4466143 0.321889 -2.3185444 -1.2809672 -2.0063438 0.60164535 -2.677165 2.7231393 -1.7542471 -2.1199791
390 -0.8561373 -0.90121144 -0.761897 -0.18932687 -1.7596346 -0.507148 0.71147126 -0.8774855 -0.48573232 0.042104524 0.59198236 -1.5217277 -2.2808273 1.3209065 -0.27846164 1.4988087 1.8449987 -0.6935724 -0.7681671 0.44706002 -0.8291553 0.7588555 0.48692638 -0.06044665 0.3615918 -1.3578542 -0.31878695 0.76593345 -0.054682247 -0.14796272 -0.4117352 -0.8917161 -0.11686449 0.048494175 -1.3641081 -0.12679382 -1.1521776 1.9090792 0.3254225 0.7363843 -0.20571259 -0.42738596 -0.23240276 0.36297294 0.26716748 -1.4309951 0.2552989 0.33081275 1.0483782 -1.2607151 -1.1502713 0.51790804 -0.61902755 0.38669032 0.6393924 0.4910473 0.29750687 1.1096373 -0.9053948 1.9006768 0.024042627 1.3142601 -0.72590196 -0.21627781 -0.97993135 0.051067706 -0.16411811 -2.3122692 -0.009155351 1.5949649 0.2943464 1.4339224 -0.28440934 1.7415508 0.70387167 1.3008544 1.3901316 -0.8346337 1.711084 -1.3739437 1.182258 0.48228052 -2.7849681 0.8131579 -1.1509932 -1.3560804 0.6065745 1.7468137 -1.8832303 -0.30808118 0.12547156 -0.18866163 -0.92595637 1.902844 0.33617187 -0.3843042 2.0363584 1.3783059 0.22882724 -0.20327434 -0.20244142 -2.2463467 1.8952693 -0.3631525 -0.42689112 0.41598466 -1.6333209 -1.2020015 -2.0866835 0.8162515 0.61263716 3.1427336 -1.437973 -0.15009081 1.6414309 -1.3916396 1.223996 -1.6804471 -1.0221308 -1.0719646 2.0521436 2.354361 0.06978166 -0.85569566 0.37099692 -0.6498281 2.1109776 -0.07376804
167 -1.1295072 -0.19994332 1.0295632 0.03858982 0.39235106 2.526549 -1.2525858 0.48895726 0.031281464 -0.75195813 -0.24429692 0.99823165 1.8905609 0.21709065 -1.2187245 0.21394956 0.2982758 0.17465848 1.6929564 -1.5833564 0.15893677 -1.213859 -1.1447669 0.5047599 1.3476286 -1.0421957 -0.86433816 0.22746351 0.12561445 -1.1650356 -0.59777683 -0.07507811 0.82194066 -0.7621551 2.1969204 -0.6457307 0.3097108 -0.056520954 -2.2125068 0.3134844 -0.030873492 0.5423675 1.5756252 1.2380052 0.34130844 -0.10419456 -0.92823905 -0.4094108 1.1728134 2.0115201 -0.39539996 0.95048827 0.3453834 -0.5341952 -1.1508061 0.1436632 -1.0546378 0.3919943 0.1505313 1.6032457 0.44491366 -0.7320501 -0.17744206 0.937434 -1.25329 -0.29710627 0.9145798 -0.20868948 0.41101447 -0.5294308 0.35486323 -0.8244085 0.05334578 -0.93298113 -0.56066936 0.1361547 0.35744783 -0.82705134 0.07497921 0.4089235 -0.8702386 0.1589676 2.3703618 0.89299375 -0.2432133 -0.06277214 -0.6369734 0.53488714 -0.07956388 -0.9743209 0.4465899 0.6893187 -0.88209707 0.053608783 0.3956345 -1.2120607 0.48482394 0.2822717 -1.5709879 0.75362855 -0.18602031 1.8301063 0.18965778 -0.9055716 0.35582456 0.27486375 0.23237713 -0.26867506 0.45396885 1.0548589 0.2462213 -0.9916114 0.28422296 -0.72114193 0.46101594 -0.9245805 -0.37113404 0.92224956 -1.0856245 -1.1627551 0.82647794 -0.03337035 -0.40349934 -1.74046 0.9702837 2.731616 -0.29450116 0.09453135
304 -0.976108 0.627199 0.39887932 1.056733 0.46121883 2.6847541 -0.7301177 1.5200659 0.22920239 0.045199525 -0.85712004 1.195178 1.0401727 -0.05751976 -0.8562003 -0.17726292 1.4355919 0.8390571 0.4814638 -1.2573103 -0.17512922 -1.3337278 -1.7797266 0.63400215 1.3803382 -1.834049 -1.8924336 0.14660855 -0.23687568 -0.62963665 0.19101083 0.30533823 0.2893223 -1.8041712 1.9043437 -0.604625 1.1227989 -1.202597 -1.4714544 0.08170724 -0.6812729 0.45418975 0.79030234 1.680611 -0.2884817 -0.36478645 -1.7623998 -0.27304536 -0.115420625 2.5478654 0.0075278454 0.9143504 0.63525736 -1.2478495 -0.81025916 0.24908897 -0.08217087 1.1769314 -0.74118805 1.7554382 -0.7343065 -0.16725582 -1.0723363 -0.11901945 -1.0230119 -0.5454813 -0.29996353 -0.4971662 0.3598339 0.1937897 -0.96228206 -0.64293903 -1.0945734 -0.30609378 -0.4251477 -1.2573353 0.47230688 -0.3033989 0.100012906 0.8563195 0.7862733 0.16769452 1.9455972 1.3447565 -0.71914047 0.020160595 0.68435663 0.58424914 0.02985687 -0.1259136 0.009892456 0.9703177 -0.22055121 -0.90709543 -0.02843299 -0.4342953 0.54466987 0.91158926 -2.8980598 -0.024252804 1.4265195 0.7727296 1.1036364 0.26302916 0.86060077 -0.64067805 -0.57166094 0.042015184 0.44944617 -0.0872837 0.3971627 -0.84556824 0.8554935 -1.4213523 -0.071980596 -0.9392397 0.87101614 0.10038549 -2.9560783 -2.2352693 2.1165578 -0.78148514 -1.5647632 -0.9688554 -1.0350138 1.7269188 -0.14172205 1.2228318
73 0.036927767 -1.0622677 -1.6496433 0.1556737 0.28290582 0.39984667 1.7117566 -1.1274812 -0.7255143 1.0564048 -3.5565884 -0.717188 -2.792677 1.0677016 1.8944062 0.17227094 0.5874798 -0.79900235 0.101797335 -0.4103208 1.5452127 0.38644856 0.69412184 -1.8178244 1.1233007 1.1848513 3.1005676 0.04832689 -1.9851233 -0.95255625 1.0621314 0.03359572 -1.3789321 0.11735616 -0.71012676 0.78794575 0.48408133 -1.5524005 1.0262532 0.07606926 -0.2253118 -0.9043264 0.064663045 0.25860292 -0.36482838 -0.1852812 0.73911005 1.8629154 -1.2212937 -1.3519696 -0.015864102 -0.060910437 2.7403932 -0.4619889 0.7920776 -0.097301774 2.0516832 -0.096007414 -0.9021182 -1.3383422 0.41074732 -0.70187867 -1.7368951 0.92646784 -0.16402014 -1.3090128 -0.60559446 -1.6449488 -1.5499569 1.6372803 -1.7490586 1.1523564 0.8173576 1.0130157 0.46912715 -0.32453847 -1.8402736 -1.84265 -1.1352975 0.15905887 0.35722566 -0.112560116 -1.4228119 -1.3810637 -0.3816366 -0.83798236 2.4909022 -0.96294564 0.26956987 -0.2427007 -0.6448805 0.31877077 0.5565575 0.52266234 -1.0580645 0.7070334 -0.81483775 2.4407625 -0.5878705 -0.10679241 3.2357073 0.40922895 2.8545084 0.9066398 0.88722163 0.9383455 -0.72246236 -0.1337848 -0.53886586 -1.5113102 -0.3021086 2.7190008 1.073271 -2.648461 0.4519877 -0.030797178 0.3678231 -2.4264119 -1.0288845 0.6439078 1.0173464 2.3418546 1.7430619 1.0036683 -1.0691417 -2.172315 0.04800074 0.10789278
42 0.6076196 -1.7849641 0.53223944 -1.9555355 -1.6108273 1.5262696 -1.0917996 1.9293134 -2.2866063 0.95837593 1.0343474 0.53161865 -0.2548354 1.1033795 -0.47143018 -0.5645991 -0.6467502 1.3021646 -0.6237143 2.2686172 -1.987504 0.8124162 0.3685522 0.47924936 0.4404019 -0.20325302 -0.38894776 0.3671445 1.9839059 0.019604336 -0.49221835 1.3104591 0.8074266 -0.2782261 1.2400838 -1.5533476 1.7369685 -0.80529416 1.2535763 0.5399904 2.0526626 -1.3309314 1.0844488 -0.7693531 2.5432746 0.986183 0.87096286 0.3879911 -0.46523184 -0.22500661 0.36017412 0.09451834 1.4715405 0.8986673 -0.61284715 0.5527773 -0.15694097 -0.19999164 2.2345717 2.5437922 -1.5488167 -0.44803646 -1.0300801 2.1333127 0.3753946 -0.29446405 0.77021915 -0.6223914 2.2695994 -0.42625207 1.8682233 1.0146148 -0.81936306 -1.7033302 -0.04523506 -2.5333369 -1.4523761 0.9723133 -0.6244226 0.6889759 -1.190514 -0.66285515 0.10702571 0.72609574 -0.39675075 1.1240026 -1.7672714 0.61416215 1.076809 0.24509181 2.2535472 -0.5902731 -0.22435461 0.44399458 -0.4787444 1.1546177 1.0315275 0.12906367 0.067823805 -1.7635678 0.6451231 0.117435895 -1.2154183 0.7553901 -0.8361944 -0.17962286 1.4907162 0.48024505 1.3399936 1.027064 -2.2166622 -2.7001398 0.25681463 1.7944338 -0.90588576 -0.37574095 1.317827 1.536924 0.5407951 2.0148017 -2.3988001 -0.3896275 -0.8036516 -0.82059467 -1.3406992 -0.33379614 -1.02672 -2.0219917
115 -0.8921503 0.6265843 -1.0114846 -0.5988933 -0.8702935 0.4330988 -0.12675938 -2.43802 1.6273454 -0.8906489 -2.819266 -0.98680866 -2.5303226 -0.96420145 2.4881654 0.37744856 1.2419052 -1.516626 -0.58993566 -0.5662456 0.5099338 0.85774374 -1.8189563 1.2208182 0.503695 1.1969796 0.23038581 0.65158767 0.06674548 1.7936977 -0.679552 -0.82353413 -1.412741 -0.52778894 -1.7118305 0.6245465 0.7205237 -1.1691585 0.24358325 -0.63368624 2.4013343 -0.860591 -0.80907816 -0.24409795 -3.1431475 -0.2972656 -0.9965752 -1.0651265 -1.0480182 -1.3050778 -2.4798918 0.41776356 3.181021 -0.6644238 -1.1838992 -0.1708931 -1.1959474 1.3689387 0.48452735 -2.3937666 -0.3728246 0.65098715 -0.015932327 -0.3796489 -1.0612053 1.0237095 -1.711584 -0.8133593 -0.53808177 -0.23065469 0.15915635 -0.25312713 1.8482119 0.7704619 -0.19347756 3.2657828 -0.21167175 0.8699514 0.15890223 -1.9092517 -0.94128567 0.46022722 -0.92809117 -2.3964539 -0.6688422 -1.2351639 -0.5534703 -0.26352766 -1.0315008 -1.9554902 -0.03645241 -1.2255044 1.085917 -0.24191727 -1.9210379 0.801627 -1.2567077 0.0081564775 2.967739 0.05162051 -0.15935022 -0.41800347 1.226923 -1.3988727 1.0753435 0.6484582 -0.2682027 1.2548441 0.12930407 1.5341268 -1.5575 0.90887094 -0.22529547 2.4612603 1.0231262 0.4703894 -1.4431186 1.0603569 -0.20334172 -1.4919131 0.05331185 0.31147176 3.2057235 1.798331 1.9498918 1.1594694 1.005008 -0.5360187
391 1.4013605 0.30557925 1.4876688 0.3143815 -0.72632134 -1.5918826 -2.2109666 1.370259 0.4811765 -1.4156212 -0.38860813 0.5726128 -0.24578482 0.5757002 -1.0209038 -1.3046974 0.19673122 0.18435486 0.72272074 -1.9272113 0.3211552 0.87449265 1.8080611 0.7148083 0.5788032 -1.1712991 1.0968443 -0.5030617 -1.1430489 0.7714425 -1.2617452 -0.36759526 0.12657963 -1.7431881 1.019712 0.114669085 -1.909588 1.3084036 0.89991945 -1.3909217 -0.541539 1.8316034 0.27295932 -0.98409516 0.35498568 0.59389156 1.3031882 1.5263673 -0.09709977 0.8032406 -2.021112 -0.9998994 -1.20773 -0.43163884 0.8172934 -0.4022847 -1.096642 0.0867406 0.5757842 -1.7296722 1.927061 -0.7103062 -1.4585575 -0.28147426 0.1353649 -0.03413238 0.10152556 0.26912135 -0.007063221 1.2817792 -1.4614301 0.96882063 1.5544904 0.42316496 -0.5423467 -0.6000747 -0.59592134 2.2554018 0.054725554 -1.0352918 -1.0673032 0.19930466 -0.6572578 -1.5511029 0.5281765 -2.0190804 1.3160102 -0.34025046 0.71056944 0.47480613 -0.3682827 1.2493064 -0.08029412 -0.3877573 -0.5039841 0.336995 -0.69003206 1.6413602 1.4849083 -0.7948339 0.8270186 0.28720042 -0.9079912 -1.4278288 -0.100155935 -1.7492331 -0.13059196 -0.16868459 -0.25971165 1.0613227 -0.23250926 0.6179518 -0.031298157 -2.0801635 -0.5255143 0.33571884 -0.017816583 0.7833037 0.21109661 -0.11952595 -0.44386923 1.3022995 0.18926154 0.90879726 0.9478057 -0.5490343 -1.1131052 0.7364355
194 -0.893031 -0.24501742 0.49076393 -1.8567259 1.3781664 0.8295449 0.3325933 0.72310174 -1.9709615 -0.6069152 0.06644863 0.032764934 1.2328295 0.7779842 1.5028319 -1.5368537 0.62906456 0.982627 2.2519214 0.19544744 -0.13764161 -0.102062486 -1.270431 1.1692709 2.2260742 -0.110716105 -2.1233976 0.020070665 1.2524935 0.14893888 -1.21952 2.4060726 0.93767697 0.06472079 0.4473464 -1.491566 -0.7986968 -1.9121028 -1.314187 0.78309846 1.3274726 -0.41043118 1.4209138 -1.1713543 0.9249755 -0.6383389 -0.35098156 -1.5576187 0.69922715 -0.8367636 0.1727285 -0.7485891 0.5409784 -1.769926 -0.08405447 0.8347597 -0.7796707 0.18170321 1.0069203 1.2493534 -0.78342295 -1.3179368 -0.9868815 -0.6582645 -0.61472374 1.8567448 0.039912015 1.3712437 2.0292907 -1.4565952 -0.620808 -0.81574893 -0.8003388 -1.5249815 -0.35985968 -1.3043028 -1.0075773 -0.446178 1.4275107 -2.7269807 -1.1328936 -0.21623291 1.7944534 -1.3625276 0.6022149 0.51123166 -2.5270343 0.6993154 0.5874218 -2.3875148 1.454208 -0.8237589 -0.17176661 0.68609804 -0.57891977 0.67520064 -0.9101936 -0.10984736 1.5475157 -0.9745727 -0.05353315 0.3774301 -0.5931332 0.1639724 -0.26288047 1.4569068 -0.8236084 -0.2718605 1.4961095 0.41297883 -0.50940186 -2.2641857 0.2848698 0.3747146 -2.0197198 -0.31298298 1.0612526 0.41805708 0.27023375 0.119564846 -2.9443488 -1.677347 1.1341661 1.0236096 0.4316761 1.6427313 -0.83692074 0.5048186
372 0.5269082 -1.3115218 -0.28249922 -0.42192417 -2.7320156 0.68097734 -0.80486673 -0.18136656 1.0451195 0.22702254 0.14455612 -0.48358053 0.02346633 1.2755315 0.4753927 -0.4088256 -0.96739733 0.7254331 -0.12855032 1.1428051 -1.6379219 0.0135312155 -0.97016555 0.9682609 -0.2804368 0.4771599 -1.1193854 -1.1667916 1.3871626 0.21725225 0.095840566 0.74983823 1.1084226 -1.19514 1.1449593 0.41146418 0.21497174 0.032428734 1.4226199 -0.12003358 1.3182288 0.019169394 1.0639151 -0.1355061 1.7591151 0.6116687 1.7347792 1.7079391 -0.47646263 0.3193611 1.0658925 -0.4549094 0.6074897 0.542477 0.2945199 -1.1030836 -0.42655212 -1.1277916 2.3050115 1.5029298 -0.26899233 -1.0832458 0.62674403 2.57025 0.17948876 0.42526904 -0.5387113 1.2443473 1.707161 -2.368421 -0.44322416 1.2536203 0.76149875 0.19554004 0.13262083 -1.9479258 -0.025978843 -0.5164639 -1.0318075 1.4735796 -1.3468204 0.11223898 1.3998125 -0.19892403 -0.7635104 0.37640607 -2.3975224 0.5002887 -0.08896411 -0.4486223 2.1426907 -1.8873564 -1.7413696 0.05409478 -0.4566463 1.8676796 -0.843573 -0.34261242 -2.3978908 -0.9256498 1.6195936 0.25273675 -2.3979511 1.4145504 -2.405612 -1.8001577 0.97930837 2.2238514 0.13980767 0.4163477 -0.9117668 -2.1141295 1.6479971 1.4969747 -2.1545384 -0.6034931 1.3780227 1.430793 2.311021 1.8548781 -0.94636995 -1.9475441 -2.2759173 -0.09881296 -0.023821082 0.3595048 -0.50088465 0.5363817
98 0.24611497 0.67394525 -1.3156035 -0.34430093 0.52474254 -0.7376252 1.1187584 0.7604339 0.4149782 -0.34033275 -1.110116 -0.5619537 -0.7217195 2.117157 -0.45338726 0.3697542 -0.7245678 -0.23719811 -1.2756563 -0.08039838 -0.89331305 -0.37430742 2.9878528 -0.6533931 0.798902 0.79851305 1.7431331 -0.74578625 -1.1439359 0.09292468 0.48553813 -0.60051626 -0.42936167 -0.0009839769 -1.394003 -0.14659223 -2.2715762 1.3629256 0.08416712 -1.122021 -0.735383 0.024343723 -1.4505874 0.072373874 0.15434721 -0.25556335 0.72016543 0.8262119 1.1443496 -1.1311322 -1.714187 -0.10592005 -0.08007431 0.950226 1.3035283 0.24979886 0.43506473 0.71915567 -0.059348933 1.4572853 0.38977364 -1.3393829 -0.13246815 0.45027834 -0.5934481 0.7449369 -0.27623022 -1.6447649 -1.6240104 2.0583725 0.0642731 1.6011544 1.4857928 0.8316027 0.07435185 0.49924985 -0.79149485 -1.4664487 0.8988971 -0.5926078 0.7888919 0.08884618 -0.8710555 -2.2069345 0.29406947 -2.4176714 1.0935395 1.4543182 -1.1447386 0.5867693 -0.90134245 1.5353878 -0.18782961 0.9278603 0.46126607 -1.3860021 0.1307431 1.0536604 -0.45032126 0.3012221 0.43298134 -0.22448799 1.3687325 -0.49478266 -0.96798027 1.4563 -1.0622488 -1.4821225 -0.76944184 1.1935639 0.63026494 2.592917 -0.11618105 -2.163206 -0.3816789 0.39119524 0.7745521 -0.5862791 -0.047137167 -0.21087942 0.24978028 1.8319587 0.66668916 0.52857155 0.5694171 -1.1014718 -0.004529847 0.9389773
199 -1.3614831 0.34659752 1.3769416 0.17608005 0.8248319 3.2067983 -1.9034245 0.26537034 -0.5205212 -1.7526959 -0.23832633 1.2312957 2.3794823 0.5884489 -1.4459329 -0.04131629 -0.047432285 0.7266595 0.78654486 -0.34563407 0.22878353 -1.3943032 -0.19589868 0.22028601 1.1494044 -0.5742184 -0.4101147 -0.3869707 -0.61898607 -1.1221532 -0.82125175 -0.16788405 1.4103298 -0.5701468 1.1321282 -0.7168004 0.7583174 -0.6934011 -1.7377698 0.39067894 -0.05668913 -0.8392478 1.6143966 0.5711239 -0.36463356 -0.20574994 -0.83058923 -0.13098565 0.36747402 1.7632294 -0.6526714 0.99757874 0.39884335 0.057444062 -1.0239232 0.5671947 -0.8329957 0.5938227 0.4248159 0.3576086 0.35128587 -0.59056073 -0.35197437 -0.068015456 -0.7197016 -0.23315291 1.6112466 -0.532048 -0.4176531 -0.820546 0.87773734 0.65820104 -0.37393415 -1.3029912 -0.8757567 -1.4211946 -0.75197303 1.018357 0.34140083 0.9749549 -0.48588726 -0.7193654 1.0356928 1.504595 1.0826219 0.026130002 0.17827016 0.060732253 1.0455927 -0.4397365 1.259192 1.0917125 -1.0029095 -0.49644768 1.0785824 -0.77967936 -0.14020972 1.1712191 -1.7190174 1.4505023 0.75319105 1.9263688 -0.48219392 -0.63485163 0.4571794 -0.28319454 0.77601236 0.08906373 0.25358856 1.4958686 0.908401 -0.46115923 0.84212327 -0.6618682 0.93374586 -0.5929739 -0.41378132 0.16240442 -0.8627026 -0.9703961 1.262388 0.89812505 -0.066733964 -1.2093381 0.56066126 0.29920152 0.5116667 1.2184325
341 -0.22599556 -0.24697024 -0.4016042 -0.13910492 -1.7068831 1.4129722 -1.2915075 -0.346126 -0.28408054 -0.5528888 -0.24866433 -1.2638909 -0.19256169 2.1115057 -0.082251124 0.7207348 0.9409312 -0.46038404 -0.7950847 0.25581262 -1.0939412 0.12899238 -0.03213923 1.8524814 0.60486424 0.42238855 1.134332 0.22822008 -0.12933257 -1.4806603 -0.040256843 -0.41413715 -0.1244218 0.6499068 0.6923543 1.089068 -1.7310989 0.3816706 -0.591001 -0.50528646 0.9294296 -0.9296117 1.1371567 -0.2928594 0.3526006 -0.1840727 0.9649467 1.0244877 1.485468 -0.97834665 -0.40002197 1.0932276 1.7067058 1.2517889 1.5014614 0.03838404 -1.5759448 0.33611047 0.6544596 2.3347423 0.22452275 0.03269124 -0.3587027 0.46647224 -1.0905607 1.5807595 1.2970964 -1.6942633 1.3293071 1.6370951 1.6186575 0.46803683 -0.06682777 -0.356479 0.7781077 0.8046734 0.95642763 -0.874113 2.834323 -0.305976 -1.3153582 -1.4242665 -0.368962 -0.8689425 -0.6496133 -2.7922738 -0.4421615 1.6689038 -0.7332414 -0.98919827 1.887653 0.5863913 0.024614379 1.8769852 -0.7989657 -0.0062877554 0.7573525 1.1947577 -0.6624396 -0.117204435 -0.61735666 -1.8702953 2.2120044 0.23017232 -0.5711129 0.3031997 1.232564 -0.97230643 -0.7431682 3.2204707 -0.7926759 1.7299056 -0.78845716 -0.6838837 -0.53123975 -1.5813884 0.25725868 -0.7978558 -0.5518726 0.9835534 0.633242 0.9156283 -0.3483519 0.51175416 0.17705439 0.99510145 1.7902998 -1.0033413
232 1.0879644 0.6094518 -0.32968992 -0.26286831 -0.95470077 -0.4256104 -1.0864758 2.4944775 0.12644416 -0.7830811 0.35538757 0.50345856 0.7058176 0.19696254 0.406677 -0.91569465 -0.17636088 0.8302605 1.7479129 -1.6644135 -1.3938918 0.9369986 -0.0797644 0.38954693 1.4787803 0.091341995 1.1572208 -0.028458906 -0.010263887 -0.4280366 -0.5187013 0.54650223 -0.8720382 -0.658487 1.4637005 -1.5346742 -1.3913044 -1.101657 -1.5833766 -1.5656224 0.8648358 -0.35959652 -0.06340203 -0.9576182 1.7838988 -0.71714073 0.26177084 0.31008562 2.5670671 1.1282432 -1.1733296 -0.087009646 -0.252631 1.153931 1.4705931 -0.34565336 -0.79691267 0.4047883 0.6568438 1.7375914 1.2334334 -0.2282156 -1.6237817 0.22419763 -0.053120688 0.78164124 0.28516817 0.45036778 0.22456624 1.1283691 0.058316994 -0.70795673 0.21627113 0.46171382 0.46469325 0.48574603 0.35889104 -1.223315 1.627532 -1.1471698 0.64351344 0.73487836 2.072114 -0.63203466 -0.6973967 -1.6966263 -0.2838613 2.3426456 -0.64300406 -1.701421 0.14494173 0.26254293 -0.38950396 1.1727682 -1.4299002 -0.7184326 0.7307426 1.0556648 0.087535895 -1.6602386 0.28615117 -0.738856 -0.47882527 1.0133502 -0.933521 2.2415624 0.35949767 -3.0296636 1.64026 -0.45100012 0.093412854 1.5623198 -1.0659962 0.37153986 -0.13138168 -0.080943026 0.8278993 -1.0802107 -0.21118765 1.3128306 -1.7027389 0.23969385 -1.2496445 -0.30776185 0.6947996 0.9554712 0.94272023 -0.9989131
436 -0.97425896 0.16389383 1.0437807 -0.15365869 0.2736434 2.2163837 -1.6814264 1.0515131 0.69266146 -1.0487978 0.20257491 1.2236329 2.2654824 1.0115458 -1.6248207 -0.46962243 0.90519476 0.8499993 0.5206311 -0.5912228 -0.63763565 -1.2303748 -0.6071554 0.43211448 1.6187028 -1.6837795 -0.82264 0.16241063 -0.43610466 0.16874531 -0.18950373 -0.21299544 0.5549131 -0.8413321 1.253747 -0.5919148 0.6314683 0.09035864 -2.1398091 -0.6555194 -0.4720334 0.3393128 0.53986776 1.7726511 0.027900385 -0.44121912 -1.3572679 0.41189894 1.0674781 1.8794513 -0.45688096 -0.21679524 0.86017764 -0.60798746 -0.91775334 -0.5279048 -0.5004136 0.3694049 0.56395036 0.625633 -0.26846677 -1.0604564 -0.16631907 0.07464342 -1.5253187 -0.082348354 0.5334196 0.23518619 -0.33632502 -0.57658017 -0.26004347 -0.574299 0.96371675 -0.9679419 -0.3870791 -0.6978958 0.7127398 -0.5031561 -0.4049449 0.12793553 -0.14511777 0.42599854 1.7876742 0.21766554 -0.06398639 0.21434382 -0.5971594 0.035959132 -0.1058274 -0.6203956 1.1865268 1.1730803 0.18380523 -0.4162872 0.83052564 -1.0568951 0.57656515 0.30841926 -0.97404814 0.334684 0.23523802 1.7142435 -0.17752214 -0.8196931 0.6437089 0.022242425 -0.5503483 0.16460748 -1.1874695 0.7982693 0.09385849 -1.8798279 1.1230826 -0.59544474 0.1576322 -0.6483512 -0.70586395 1.7738043 -0.80902004 -1.96653 0.9983868 0.031019809 -0.32088873 -1.3369163 1.0248718 2.4759088 -0.18187761 0.91739035
384 -0.9926983 0.4041886 -1.5157518 -0.28189826 -1.490558 -0.33550936 0.037428677 0.16514301 -0.14556257 -0.6724516 -0.7351922 -0.7379441 -1.530305 0.07697495 0.3052764 0.09576076 -0.01066095 -1.5507234 1.0704902 -0.44722456 -1.817888 -0.16879079 0.5407916 1.7667937 0.7106182 -0.36537585 0.5894104 -0.76680887 -0.6067588 -0.5200639 0.8602649 -0.528227 1.161084 -0.19410053 1.07817 -0.96749663 -0.55074984 0.45813176 -0.7594984 0.031963773 1.7523607 -0.6134201 0.40732902 -0.3561887 -0.47343218 1.5788119 0.17997724 0.3223964 1.6361102 0.2047765 -2.2280085 1.3546624 1.477324 0.3927131 -0.2064139 -0.7335996 -2.4092917 2.2213848 -0.32512572 0.91625094 -0.741871 -0.83184564 -1.2847123 -0.29887727 -0.3283532 2.1749682 0.33382177 -2.2845979 1.9608921 -0.23803794 2.5123112 -1.2356062 0.55517226 -0.3304038 0.6268958 2.1817603 0.0050583878 -0.7686911 0.6265683 -1.2387158 -0.3656469 0.098087914 -0.9719289 -2.1336117 0.55615175 -3.083411 -0.7323235 2.3167262 -1.0144037 -0.6972956 0.015117634 -1.1611599 -0.8393263 1.9818825 -1.0106738 -0.34356463 1.5299008 0.78153557 0.44327596 -1.3803713 -0.5563205 -1.7325901 1.267722 -0.6380346 -0.7228727 -0.6460615 0.715709 -0.5815621 0.97669524 0.86506486 -1.5912362 1.5462855 0.7707487 1.284235 1.144035 1.0827311 -0.0038605563 -0.15276018 -1.2506336 0.69226485 0.5804334 0.14941834 0.8054312 -0.34746057 0.4317903 1.0010877 1.0860933 -1.1682762
136 -0.78085524 0.19280903 1.1168542 -0.27031076 0.9668135 3.2021072 -1.7715677 0.6714589 -0.3399336 -1.4740853 -0.6604131 1.394946 2.3484454 0.52891666 -0.8028464 -0.038062003 0.4756117 0.14527622 1.0319992 -0.66609037 -0.024441836 -1.401347 -0.6276899 0.65807295 1.2043378 -0.76144683 -0.5558927 -0.013962321 -0.8866105 -0.54012895 -0.6650527 0.44222012 1.2213503 -1.0974305 1.565365 -0.5983203 0.5118225 -1.0276353 -1.8261944 -0.122601934 -0.36706805 -0.34457913 0.94029754 0.98950493 -0.050861627 0.11043115 -1.4461507 0.17084269 0.47299033 2.1284885 -0.39429837 1.0988795 0.9823476 0.06368961 -1.5360779 0.23364681 -0.60156226 0.22958757 0.05031407 0.1432805 -0.011786785 -0.54081 -0.24610941 0.2920321 -1.3493732 -0.3186888 1.2617108 -0.18296401 -0.32257637 -0.7136788 0.39401513 -0.07503305 -0.15230682 -1.1304421 -1.243315 -1.1476196 -0.7298323 1.225216 -0.48469383 0.4253297 -0.6910094 -0.6109276 1.089726 1.280691 1.1961809 0.06494567 0.4267888 0.2773711 1.0714996 -0.5285012 1.7751747 0.9421136 -0.23412666 -0.34331495 0.5826372 -0.9030393 -8.279335e-05 1.0518236 -0.9480643 1.2306318 0.99273777 2.2800522 -0.27482963 -0.40841663 0.5661861 -0.2701898 0.520334 0.22902164 -0.1527917 1.5068599 0.26845363 -1.142368 0.6196497 -0.43419838 0.16136165 -0.844352 -0.6931976 0.81415915 -0.5363907 -1.0975648 1.0017757 0.08313855 0.37069798 -1.4463075 0.51048446 1.4449377 0.37863472 0.75760853
266 -1.009443 0.4370194 1.0118082 0.2766581 1.0878749 3.4055593 -0.890783 0.8630706 -0.28322682 -0.9406091 0.027167248 1.2200196 2.5521312 -0.18636 -1.1120929 -0.122061096 0.7417008 0.86845624 1.2520272 -1.3401567 -0.32527423 -1.7117596 -0.72157687 0.56981826 1.0220255 -0.5386012 -1.3098652 -0.033877745 -0.25196218 -0.44960517 -0.387457 0.49421105 1.5478634 -0.56054044 1.5950596 -0.7418828 0.6490022 -1.338468 -2.0880878 0.11826185 -0.44276598 -0.14865215 0.8275176 0.9691447 -0.23741372 -0.27353674 -1.7793093 -0.48557875 0.5562775 2.0426564 -0.30934417 1.0987061 0.5970943 -0.46811768 -1.2511663 0.538544 -0.8614305 0.9238947 0.056121904 0.42312658 -0.2052495 -0.595602 0.018243253 -0.18006031 -0.89797425 -0.30545706 0.34656444 -0.1583597 -0.49238208 -0.66434187 -0.042315252 0.04387839 -0.689067 -0.84925145 -0.8432272 -1.066367 -0.6999314 0.62007195 -0.0965487 0.65007544 -0.50378567 0.10299641 1.3578787 1.5243024 0.544167 -0.2933088 -0.15249546 0.32850832 0.6677463 -0.5443728 0.79276997 1.3923509 -0.43622124 -0.58459044 0.53970593 -0.79714745 -0.058919523 1.1448069 -1.0497501 1.2608538 0.8746782 1.2221282 0.12536131 -0.3580352 0.4285726 0.006607102 -0.14673619 -0.06328852 0.45227623 1.7734001 0.21365006 -1.0854423 0.33046296 -1.1560518 0.44411805 -0.26983103 -0.119188905 0.37898785 -0.8396866 -1.1863935 0.5670087 -0.25035277 0.07723584 -1.2857563 0.68784755 1.6370443 0.5041185 1.4035745
349 0.9327159 0.6350334 1.2101227 -0.3817996 0.8587897 -2.0334704 -1.4981234 1.2863039 1.3542988 -1.2404801 -0.74449086 -0.052849665 -0.65556633 1.4526718 -2.6361644 -1.662314 0.13200387 0.48744655 -0.5707915 -0.95761687 -0.4187793 0.81547827 1.311547 1.0802544 0.86142933 -1.0183333 0.90476364 0.038670674 -1.3774934 1.1970067 -0.94164115 -0.49523142 -0.7449476 -0.6418632 -0.031406254 -0.35015953 -1.803293 1.8980778 -0.6333409 -0.43590224 -1.2426902 1.5393865 0.06477975 0.48694032 0.31111902 -1.0924935 1.1544324 1.1884569 0.54328126 -0.45208353 -2.0601356 -1.5818923 -2.7253945 -0.84971994 1.2032806 -0.19001228 -0.4825574 -0.5138561 0.71918684 -0.1711405 1.4384834 -0.51378036 -1.3459507 -0.051709827 0.39480126 -0.26759055 0.55025357 -0.21374965 -0.88015646 1.3615743 -0.27522945 1.6861494 2.375173 -0.21554933 -0.52665544 -1.322188 -0.47289953 0.97325844 0.6277663 -0.5807867 -0.324732 -1.4652957 -1.3270226 -1.2978938 -0.12256079 -0.5259231 0.62287825 -0.8368122 -0.3280642 0.64094704 -1.284362 1.1150457 -0.80458635 -0.4767723 0.014979896 0.49229583 0.4627029 1.2748128 1.3046575 -0.7650398 0.17541222 -0.06326431 -0.65975666 -1.384168 0.056664195 -1.2249871 -0.6099568 -0.3186638 -0.86694384 1.6595659 1.5004209 1.0885237 -0.018367857 -1.2915969 0.42636395 0.85854673 0.00849164 0.083842315 -0.65109617 0.11569014 0.1631734 1.7598509 -0.24887863 -0.018550845 1.9366521 -0.52019536 -1.0265329 1.4863219
52 0.07627931 1.084765 1.4808271 0.11602411 0.2427611 -3.119043 -1.0611331 2.4204717 -0.6235659 -1.4057415 -1.4357342 0.63152516 -2.00549 0.3792752 -0.7887132 -0.5384852 1.3264717 1.3587928 1.7796943 -2.6291986 1.4640558 1.1406511 0.0763843 0.23165955 0.19103247 -2.4480217 0.984073 0.46042812 -1.8608091 -0.35604018 -0.12890823 0.47267973 -0.6122212 -0.31682566 0.3837584 -1.0457445 -1.6615514 1.8307611 0.15879354 -0.3611012 -0.05631254 1.3172946 0.9063383 -0.26605946 0.10810628 -0.32264367 2.7357547 0.6919963 -0.7338541 1.1497756 -1.884855 -0.86622494 -2.423641 -0.49980366 1.786326 -0.28366557 0.98978996 -0.8843781 0.28635436 -0.0670247 1.5511401 -0.023597948 0.21788354 0.02192489 1.5110742 0.24620318 -0.070457876 0.46321696 -0.49621212 1.96602 -1.5858773 0.24593304 1.9230871 0.16070426 -0.92236584 -0.8790859 -0.5836896 1.2350321 1.4215626 -1.5362319 -0.37630928 -0.046816617 0.3577631 -0.80782557 1.2500646 0.20961086 0.64961475 0.4827198 -0.54874074 1.3370005 -1.3244576 1.567682 -1.4004169 0.08747218 -0.92641723 -0.8906676 0.45592096 0.786975 0.5647324 -0.62219274 0.44311714 -0.5473798 -1.2646502 -0.8273315 0.31799376 -1.8967923 -0.18243068 -1.4331237 -0.08681562 0.21243492 -4.6788464e-05 0.83233935 -0.459681 -1.9857949 0.34096944 0.41939586 1.4037869 -2.1209834 -1.227951 -0.45975003 -0.04833293 -0.015509833 0.8187895 0.19124982 1.7767336 0.70481676 -0.47719344 2.1831727
129 0.25949505 0.4376129 0.8241053 0.41354918 -0.44328454 -0.6539772 1.3030493 -1.1042001 -0.56225586 -1.2537123 -0.28077555 -0.94372964 -0.56231976 -1.6713557 0.4334017 -0.3338765 0.5551591 -1.0624181 0.834409 -0.9530384 0.8696261 1.0099796 -0.3170359 0.9911464 1.3280903 0.0149891935 -1.1934088 1.5911759 2.267236 -0.10097796 0.60785633 0.31792256 -1.3762462 -0.41561753 0.87844336 -1.1968327 -2.9333858 2.4475484 -1.1439775 1.1387261 0.8571061 -1.461143 1.4322395 -0.74445266 0.5126937 -1.3836803 0.11421391 -0.68951577 2.3431146 -1.3322483 -1.6116976 -0.5933071 0.33925247 0.026272763 0.02346471 -0.19232063 -1.912126 -1.2740872 -1.047389 0.7905836 -0.43476102 -0.9264045 -0.6107068 0.46919045 -1.1504127 1.2717634 0.1067949 0.1473434 0.60483545 0.22148697 0.2149844 1.7725507 0.41628075 -0.19115646 -1.309906 1.5143292 0.66783535 0.24047183 1.8534501 -2.944097 0.010466635 1.852741 0.65873235 0.40495813 -1.9404371 -0.51823956 -0.8817436 0.34961075 -1.761406 -0.8215379 0.18763834 0.8419695 0.07952781 -0.08569359 -1.1844645 -1.7589332 1.192961 2.0415955 1.485378 -1.7115148 0.919461 -2.6221051 0.7026107 -1.2376568 -2.185522 2.0266783 -2.2967136 -1.8517653 -0.96552634 0.4622163 0.2765631 1.4107544 -1.0950559 1.4509696 0.031107247 -1.6162362 0.52300495 -1.6475253 0.9816266 -0.07378112 -1.1062888 0.6618781 2.5491161 0.9940485 1.5940784 0.96333474 1.5426891 -0.838867
270 -1.0936335 -2.1835265 1.4773034 0.090359114 -2.217338 2.136882 1.8451768 0.6630747 -0.8924787 -0.74678564 0.61232 0.19375135 2.1356163 1.6247433 -0.11891096 0.32312042 0.866474 2.5133376 0.6575552 1.6844321 -1.7333845 0.22415687 -0.977761 0.1808086 0.32019618 0.44477415 -0.43467623 0.094962955 -1.2309965 -0.5028511 -0.028156001 0.3956471 0.5079935 0.6156997 -0.9796621 1.3012022 0.94027424 -1.0437826 -1.274597 -2.150812 0.1548034 -1.7172915 1.0459775 -0.52188647 1.6264579 0.95720524 1.5842593 0.20940636 0.2536242 1.0757105 1.7421768 -2.2929194 2.349399 0.109759085 1.2442187 -3.0101776 0.5586691 0.47470397 0.5852759 0.87615055 -2.0746756 1.0281774 -0.30806053 0.4609363 0.65046185 -0.3855612 -2.7724376 -0.17831662 1.2854413 -0.7742973 2.674173 -0.02248837 1.5426532 -1.7997985 0.31789613 -0.23069097 -0.036877565 0.29605505 0.47822455 1.6280597 -1.5999004 1.041194 2.0619798 0.7564337 2.2854736 1.6211377 -1.7513702 1.909179 0.4810214 0.038729906 1.1073127 -1.0217708 -0.13828085 1.508347 1.3738475 1.3280001 2.0474925 -0.6881281 -0.95055133 -2.247824 -0.07442513 -0.32182816 -2.846672 0.58313674 -2.865505 -1.8891231 -1.7972974 1.6860355 0.14733839 -0.2560509 2.5125153 -1.5084103 0.77612776 1.8834538 -0.8926812 -0.8536488 0.44996497 2.7529948 2.250249 0.045232154 -1.6493812 -1.0147544 -2.4581192 -0.024002412 -1.5376146 1.9343182 -1.2763691 -0.65399927
65 -1.0394025 0.46420076 1.0118836 -0.30413717 1.0880574 2.973552 -1.2648917 0.22794065 0.4360547 -1.5391672 -1.0315858 2.2782228 2.1874495 1.2675215 -0.5978462 -0.7006338 0.2649678 0.760584 0.31331253 -0.113797955 0.45874342 -1.020025 -0.8976279 -0.13286847 1.7033631 -1.1250513 -0.39765015 0.24649958 -0.25083482 -1.1245421 -1.7259771 1.62255 0.77653897 -1.5034407 1.155835 -1.3988696 0.33709094 -1.4764589 -2.5083418 1.4659011 -0.2956678 -0.61532307 1.9007146 1.2862984 0.14493436 0.28304362 -1.127514 -0.2829721 -0.8527679 1.9189665 -0.8786918 1.3290536 1.2974467 -1.0160512 -1.4175375 0.54993224 -0.23948441 0.040063612 0.81200767 0.41971767 -0.18470567 0.025717493 -1.2335696 0.43657973 -1.9416736 -0.6188978 1.2741011 -0.43746802 -0.48337585 0.08737951 -0.20856181 -0.30808148 -0.52450264 -1.068108 -0.51747894 -1.0165802 -1.5075628 1.0521445 -0.41063327 0.6864243 0.28138503 -1.2690239 1.3048459 0.95376754 0.31274372 0.7142033 -0.1842724 0.18826246 1.0210375 -0.916816 1.0750817 0.8318672 0.6443414 -0.46228036 1.0880879 -0.46799397 0.36928284 1.324498 -2.1062162 0.73004 1.2690904 2.2828958 0.3923448 -0.7736849 0.37831602 0.28915548 -0.42750505 0.88597786 -0.22496109 0.90043235 0.5040858 -1.7821203 1.0788329 -1.0184546 0.08139944 -0.9681732 0.15717643 0.1518306 -2.0720477 -1.3435225 1.1614689 -0.56818587 -0.12937506 -1.4365516 -0.26771966 1.1203154 -0.13519202 0.9419207
255 1.2197586 1.0505664 -1.3279775 -1.7057451 0.56186837 0.25962073 0.9964032 -0.8911483 -0.93678963 -0.23384598 -1.1291891 -0.08053316 -0.019451203 -0.40824753 1.0934268 1.057901 0.51218474 -0.5037879 -0.6043232 0.030613832 -0.23533285 0.7470886 0.90197074 -0.06694009 1.401879 0.14773527 0.719625 0.5271569 1.4557246 0.17848507 0.08751718 0.25000697 -0.12950812 0.81490034 -1.4050717 -0.9469341 -1.1598254 0.49560028 -1.5949435 -0.34212768 2.3641179 -0.59913874 0.7019256 -0.3940837 -0.5157805 -1.7372482 0.31862727 -0.75984794 1.8203682 -1.0333298 0.24819809 0.525912 0.71278167 -0.18975641 -0.81205565 1.0096388 -1.9484373 1.7306017 -0.36626336 -0.6669252 -1.8301579 0.24516106 -0.39176804 -1.093786 -2.7614014 2.8612366 1.8170011 -0.7018427 0.22003531 0.12328679 1.0387328 -0.48462173 0.22749978 0.90732473 -0.9618041 1.2425557 -0.56113136 -1.5926183 2.8570302 -0.6177615 0.073843986 -0.5424078 0.6646522 -3.2509456 0.50263524 -1.0925717 -0.97114325 0.73227984 -1.8185437 -0.7409913 -0.15935154 -1.5709037 0.16760822 2.7138743 -0.7154976 -0.6096284 1.4171079 1.6339178 -0.9830762 -0.2902789 -0.80830055 -1.7383826 1.9381245 1.1044308 -0.20292881 2.232836 -0.6884862 0.00391093 -1.4391314 1.8660029 0.5691534 3.1437244 -0.7058686 -0.6856141 -1.2008526 0.25642437 0.90648544 0.07587583 -0.47836584 -0.22812024 0.19041462 1.7159934 1.5376823 -1.322738 1.6388242 0.6530113 1.0989232 0.15326752
263 -0.7710035 -0.32121944 1.0569056 -0.38498878 0.70035136 2.677755 -1.2405312 0.5684327 0.20061259 -1.0460968 -0.102282986 1.3837136 1.8714086 0.8404167 -1.4512068 -0.112345606 0.52748847 0.75602204 0.40499458 -0.8203572 -0.0061455485 -1.7875053 -0.44418153 0.41588214 1.2705171 -0.6219276 -0.42790887 -0.038524255 0.33800542 -0.16550075 -0.73937535 0.2517051 0.80239135 -1.2203052 1.9325317 -0.19734083 0.7529032 -0.3364049 -2.1405194 -0.076808214 -0.3106699 0.2977557 1.4000489 1.005387 0.42481747 -0.29680827 -0.9726365 -0.31234962 0.8116 1.7356312 -0.5070947 0.7810994 0.60429335 -0.52519053 -1.0380982 0.19108826 -0.6129414 0.095296144 0.4935985 0.9000267 -0.14083242 -0.25094795 -1.2136115 0.20635821 -0.92749894 -0.8643876 0.48757872 -0.12520246 -0.5830537 -0.40864578 0.149053 -0.5204309 0.21028687 -0.9213749 0.05727164 -0.5484167 -0.70058167 -0.13026695 -0.9359441 1.1456157 -0.88408303 -0.39184842 1.9384187 0.7269517 0.38754678 0.22159283 0.03359001 0.07991061 0.40043136 -0.85907394 0.49885115 0.9132423 -0.17520253 -0.81085634 1.1068505 -1.0845869 0.08100351 0.6441873 -1.6773994 0.53343606 0.21886177 1.7703496 0.19406629 -1.0791595 0.6125304 0.6550188 -0.26958153 0.05771649 -0.49664658 1.1547568 0.3394174 -1.4872364 0.468564 -0.92443573 -0.3040628 -1.0928879 -0.4155914 0.92076516 -0.6560418 -0.8969939 0.82570416 0.24059276 -0.3235754 -1.4481663 0.87450707 1.5733926 0.46206096 0.2928146
28 -0.5872964 -1.0238737 1.6455903 0.4966636 0.2889394 1.2293085 -2.228103 0.07928483 -0.6895668 -0.5977438 0.6590239 -0.7164213 1.3000048 -0.019945238 -1.7608386 1.2275069 -0.62276214 0.36412668 0.6741172 0.4263587 -1.6783723 -0.4887923 -0.037730984 -0.1606725 0.8762705 -0.6405712 0.36624676 -1.8168079 1.3307989 -0.19087398 0.9719215 0.34556657 1.7956297 1.1032072 0.7468124 -2.0454872 2.2120273 -0.03196613 0.81972754 -0.8586647 1.0182303 -1.0287111 2.7602704 0.41515678 0.6635729 -0.61746 1.4624265 -0.53666234 0.9057009 1.3197272 0.5369798 -1.0858408 0.59417766 0.602034 1.0084013 -1.5873529 -0.14391357 0.5279441 0.40160146 1.0698957 0.4388924 -1.0322896 -0.13379958 -0.3133829 -0.5072897 0.47511095 1.5868354 1.0068982 2.074294 -1.6658834 1.595831 -0.26219606 0.6405738 -0.6742261 -1.7012833 -1.3137385 1.0800451 -0.93705046 1.2418334 0.12790908 -1.2714715 -1.0481821 1.2042466 -1.1202999 0.6628458 -0.42405745 -2.0975063 0.5929012 -0.05674215 -1.6944611 1.2100117 -1.1435144 -1.5157089 0.39234212 -0.5382558 0.25484246 -1.413811 0.08284413 -1.2984886 -1.3041848 -0.2218977 -0.48738533 -0.7571061 0.7379317 -0.8767391 1.25127 1.217669 0.26298994 1.2648312 0.1261968 -0.93861294 0.3645869 0.6647245 1.5846978 0.832777 0.4109734 -0.71903294 0.91749007 0.9201189 1.2116346 -2.2009552 0.045301802 -0.5351733 -0.48992565 0.5758469 0.22062775 0.5281764 -1.2735885
6 0.28436723 1.7720928 -1.6049982 -0.8333628 -0.4954557 -2.3924637 0.037895583 0.6236398 -0.40217727 -0.38304186 -1.3652338 -1.4668976 -0.64247674 -0.62890387 0.27429134 1.3443484 0.39030337 -0.5429371 0.040285274 -2.430096 1.3448404 1.3586203 0.439975 -1.0933952 -0.76521194 -0.49390122 0.61979127 1.100538 0.25012445 -1.2925429 -0.024338378 -0.46549717 -3.833272 8.838951e-05 -0.014738338 0.4414955 -3.0616262 0.8422593 -1.5167933 0.8506843 0.878747 -0.7059339 -1.7365701 -0.10327404 1.3473889 -0.8867893 1.1168374 -0.4183161 0.71111184 0.62794906 -1.1575677 0.8986469 -0.6460373 1.4082477 1.0952384 0.83945316 1.1926596 -0.38472944 -0.5284213 1.1542392 1.0602254 0.61513853 0.071053505 0.5068918 1.3789762 0.32554746 1.4513189 -0.47236207 -3.214679 0.91235673 -0.583019 0.73281753 2.7516518 0.872766 0.84906316 2.1472151 0.67445827 -0.9785085 1.4422367 -0.6850276 1.5364639 0.9162419 -0.65254354 -0.2170249 -0.48474735 -1.0914749 0.13182887 0.04809869 -1.422189 -0.75224155 -1.4519297 2.797385 0.89945275 1.4623209 -1.9762989 -2.1160736 -0.35868728 1.5064849 0.21614307 -1.4147813 1.5372611 -0.7302755 -0.52770066 0.14018352 -0.9238398 0.3018374 -0.870131 -3.4525216 -0.58848643 -0.7717928 -0.5118717 2.013365 -1.9972932 0.15163805 -0.7445548 -0.87962025 -0.0019893134 -2.7752392 0.21687657 -0.40890062 0.30064115 1.099023 -0.09674107 1.3402785 0.40657827 1.0890262 3.0332673 0.6420867
121 -0.8922538 0.17177193 1.275682 -0.39369082 0.25217775 2.893852 -1.3909374 0.86584437 0.17509976 -0.9183038 -0.15857652 1.1800935 1.8647115 0.83677727 -1.6681947 -0.36470327 0.18641047 0.40132362 1.0896685 -0.6991173 -0.3111666 -1.6424093 -0.7429556 0.59296834 1.4302701 -1.191093 -0.980431 -0.07998981 0.1904373 0.06302469 -0.65052694 0.26434833 0.70558506 -0.87401456 1.4782007 -0.9671084 0.93522865 -0.3915211 -1.918237 0.071503736 -0.22034456 -0.009012498 0.96309185 1.007896 0.19012854 -0.20077436 -1.2732835 -0.32430887 0.62260485 1.3490328 -0.65772885 0.637394 1.1282566 -0.3199426 -0.62631476 -0.22720088 -0.61647546 0.58077276 0.6077204 0.83715993 -0.005374993 0.18063429 -1.1696212 0.23032837 -1.2981253 -0.8654316 0.64045984 0.091837205 0.37543628 -0.46038756 -0.32391438 -0.52627677 0.10653263 -0.7734537 -0.121245444 -0.32921675 -0.54740816 -0.04667837 -0.66247904 0.6888842 -0.6638218 -0.35818446 1.8553162 0.29693714 0.464579 -0.1193571 -0.14354435 0.49398503 0.27157915 -1.4088868 1.34895 1.1934618 -0.21495841 -0.61226183 0.6683993 -0.99381125 0.11772995 0.6002872 -1.0798587 0.38627002 0.5877406 1.7381192 0.17067349 -1.0750655 0.35564533 0.8624579 -0.038191836 0.0022586344 -0.3798387 1.3184148 -0.13200487 -1.7559282 0.36648402 -0.535716 0.13924587 -1.0627574 -0.7770937 1.2941668 -0.6567887 -1.0218403 0.6537375 -0.055886887 -0.117963396 -1.1380785 0.58110654 1.637589 0.15995763 0.27529597
180 2.4209375 0.84269744 1.2084945 0.041605573 -1.5189985 0.40236 -3.2091858 1.2142603 0.9688326 -1.3659669 -0.59095174 0.023143033 -0.61706585 0.5785062 -2.1926425 -1.1399252 0.53309965 0.43384442 -1.523742 -1.5909518 0.5006159 1.1091996 1.1220483 0.029264942 1.2318485 0.22507803 0.57436246 -0.54079694 1.0409213 0.8532839 -1.9305282 -0.36041534 0.02252705 -1.1483532 -0.35014033 -0.40402478 -2.5154552 0.6959894 0.97746813 -0.5660425 0.037553143 1.2720377 -0.19992271 -0.40079644 -1.3561953 -1.2451904 1.9451054 0.68978953 0.0015408372 -0.45430455 -1.6511691 -2.5539985 -3.3198998 0.32803378 -0.42958575 1.1504908 -0.9015566 -0.1718117 0.05688291 -1.0128429 2.0054564 -0.59325594 -1.2329564 -0.3528935 -0.058788773 0.95624626 0.9925925 0.9433453 0.19764467 1.0616337 -1.2625732 2.1668422 1.4699092 -0.27590802 -0.2560479 -0.4419636 0.120338775 2.309495 0.7317419 -0.9315788 -0.6163687 -0.58119243 -0.5456064 -1.0807799 -1.3026377 0.30101106 0.8616494 -0.7465615 -0.65125793 0.14067614 -1.9494452 0.69067323 -0.06745499 -1.3521273 0.4492348 1.4537574 -0.20193729 0.17608008 2.3023736 -0.3850393 -0.7590248 0.49280375 -0.8638873 0.07649928 1.630338 -1.4016725 -0.14912368 1.0047916 1.9523787 1.7632673 -0.6418026 -0.34733185 0.49115285 -0.97110105 0.38898078 2.4189432 -0.15865524 0.47672084 0.60202336 -0.2801116 -0.3857208 2.100205 0.3530472 1.2857801 0.7819431 0.49181056 -0.88230556 0.5345228
