34 128
34 0.059192386 0.056632537 0.10228274 -0.06160584 -0.053375233 -0.07433907 -0.0063360175 0.10552579 -0.15757972 0.121743165 0.20077261 -0.106080174 -0.16322221 0.107175656 -0.022321794 -0.007295294 -0.0025483323 0.047919426 -0.262179 0.056227278 0.20776193 0.1050532 0.11515628 0.13569036 -0.12541305 -0.025472218 -0.18611935 0.07401904 -0.019963246 -0.025118697 -0.31652048 0.060003035 0.046351757 -0.07704352 -0.054564577 -0.08185285 0.35360512 0.0053298334 0.14527284 0.029538305 -0.0841042 -0.03614129 0.0071565127 -0.14044996 -0.18125273 0.029331606 -0.008517544 -0.16031513 0.0018540713 -0.05226035 0.033604104 0.02514436 0.119185574 0.14382659 0.14080247 0.080754146 0.20321046 -0.07154803 -0.14207701 0.08475067 0.05133554 -0.15436949 0.029199943 -0.0075461785 0.07928181 0.03294005 0.09384761 0.10869085 -0.21842544 -0.15756083 0.1758046 0.10587791 -0.16727266 -0.017158097 0.037939034 -0.15083453 -0.12951231 -0.226218 -0.010922629 0.09014275 0.1051534 -0.123293445 0.066977255 0.13698623 -0.0582628 0.20433678 0.05418085 0.013420582 0.04512763 0.17670687 -0.081221156 0.014471 0.1214994 0.080554135 0.16758218 0.07061054 -0.29416782 -0.17705236 0.046208978 -0.07605744 -0.17018804 0.119609185 0.033578034 0.082365386 0.012840944 -0.070367396 0.1830185 -0.04346786 -0.08347796 -0.23521331 0.023255933 -0.032936484 0.044456482 0.08629531 0.23237139 0.008002658 0.080843024 0.2770496 0.08880622 0.02327978 0.058434714 -0.16745572 0.04328613 0.047065612 0.02647362 -0.11586369 -0.0801138 0.07794375
1 0.08330724 0.047877032 0.30762348 -0.17540824 0.030890575 -0.22706169 0.07643632 0.21191286 -0.009079039 0.06614775 0.26302245 -0.13026789 0.02697999 -0.029213635 0.011047274 -0.0803343 0.05217983 0.13511765 -0.0928135 0.14325489 0.19304667 0.05578387 -0.021877384 -0.013880588 -0.20439592 0.064966835 -0.12612163 0.07492408 0.11731636 0.07879643 -0.2921654 0.1262549 -0.06867726 0.0041759303 -0.041969713 -0.017438464 0.22159295 0.10655953 0.08637679 -0.13812304 0.034845553 0.17203748 -0.076056354 -0.002079004 0.05419464 -0.0014070445 0.0028516967 -0.2519695 -0.030267324 -0.02369368 0.114182204 0.09625388 0.102501646 0.08097514 0.20541847 -0.03150876 0.23078656 0.10828641 -0.06508372 -0.13426903 0.030647695 -0.18743992 0.070867546 -0.095364355 0.12034009 -0.103411496 -0.01004353 0.04755462 0.011047891 -0.06633982 0.10466809 0.04133613 -0.23476024 0.029078018 -0.018982366 -0.13220161 0.03949873 -0.15077895 -0.02313867 0.1733058 -0.0042900206 -0.1624506 0.12556045 0.17874937 0.115460716 0.074697785 0.20653176 -0.12581305 0.14582554 0.1976637 -0.16285096 -0.038770974 -0.12754494 0.07988057 0.08873992 0.04557782 -0.23911591 -0.21882047 0.03352502 -0.077103764 -0.22835623 0.0689125 0.016978359 -0.011871218 0.053578068 0.026356885 -0.030825641 -0.20968018 -0.077240266 -0.07145474 0.11046487 0.036450744 -0.048178088 0.052562382 -0.010462641 0.044714667 0.08411523 0.11551692 0.08058092 0.11878553 -0.020464871 -0.12946293 0.07708073 -0.019490637 -0.020724569 -0.16546647 -0.0900324 0.12568146
33 0.04626034 0.05259395 0.11160092 -0.08391554 -0.033537365 -0.082084104 -0.005232236 0.10340633 -0.13747326 0.12337077 0.20447819 -0.09901822 -0.14070724 0.08235668 -0.018389307 -0.017018218 0.004077863 0.047663435 -0.22271703 0.0559543 0.18040356 0.0870538 0.091330566 0.10785582 -0.12148695 -0.018853074 -0.1638882 0.0654959 -0.010103191 -0.025614642 -0.27872813 0.048055205 0.020245632 -0.06145943 -0.05211915 -0.059054635 0.31363374 0.009369332 0.14007826 0.015463433 -0.051825803 -0.0194172 0.006325364 -0.12658915 -0.15887395 0.030767437 0.0039085927 -0.16357952 0.0018543851 -0.059387464 0.056279864 0.03702016 0.1253684 0.13350883 0.14993858 0.07049616 0.20567618 -0.054273468 -0.1256061 0.06674304 0.06004167 -0.15941684 0.033313595 -0.0060634385 0.08483209 0.023365052 0.08917394 0.10507519 -0.19325607 -0.14309478 0.16096736 0.08403241 -0.16197218 -0.0092126075 0.029493893 -0.15180509 -0.11419046 -0.21059713 -0.004290698 0.11253431 0.10089871 -0.13113838 0.06267428 0.14400466 -0.03508485 0.19006367 0.072965875 0.0024736202 0.05704082 0.16238701 -0.08307866 0.0058787866 0.09258266 0.07624221 0.15248115 0.05587747 -0.2882928 -0.18859506 0.029017717 -0.076018155 -0.16951385 0.1161104 0.032959525 0.078799546 0.024737535 -0.058310807 0.15721267 -0.07589624 -0.06926655 -0.21333806 0.028444612 -0.017299064 0.042222857 0.07332359 0.20062608 0.010894121 0.06782878 0.2580792 0.090972595 0.027379522 0.03766921 -0.14603546 0.043087937 0.05016104 0.016585615 -0.11978795 -0.06699209 0.07414613
3 0.04994371 0.0514565 0.17236306 -0.0999218 -0.022409672 -0.12789162 -0.0008999342 0.1287382 -0.10425331 0.10192091 0.22589245 -0.11464825 -0.0925474 0.040238198 -0.017055415 -0.046907082 0.006192043 0.065486394 -0.18838833 0.061038762 0.1711389 0.07939098 0.06941799 0.07778152 -0.14025298 0.018354118 -0.14476173 0.07226569 0.008491136 0.0004721667 -0.2768399 0.062198825 -0.015275544 -0.04121814 -0.042011496 -0.055021543 0.27627933 0.02626005 0.12636791 -0.024676034 -0.029347302 0.030860357 -0.024680486 -0.08192554 -0.10449434 0.015999163 0.010494874 -0.17766388 -0.00570278 -0.05110601 0.07842242 0.04446369 0.11014719 0.12302075 0.14804244 0.03984605 0.20463622 -0.015555114 -0.11795136 0.03452011 0.05058643 -0.15944174 0.05441272 -0.03080218 0.090593055 -0.011507548 0.060456447 0.08305219 -0.11717833 -0.12152237 0.13673538 0.05912471 -0.18170592 -0.010054673 0.010941961 -0.14552255 -0.06336533 -0.1901644 -0.009266928 0.12313494 0.062102497 -0.12783 0.09085054 0.1486024 -0.0066845845 0.155956 0.09795913 -0.01929332 0.0654805 0.16035375 -0.09733835 -0.0007696407 0.035931498 0.08070437 0.13186896 0.037764076 -0.27022964 -0.1933428 0.028936587 -0.072702914 -0.18553193 0.0897596 0.03212019 0.070890866 0.03206032 -0.046728425 0.1047321 -0.11551844 -0.066210315 -0.16968842 0.04963624 -0.020076234 0.024436228 0.078005984 0.13305669 0.027907152 0.06215394 0.2132818 0.09159089 0.047112074 0.012829239 -0.14579186 0.06137487 0.03607502 0.009885556 -0.14531097 -0.082378685 0.07985783
2 0.036588963 0.044606198 0.16405109 -0.10844541 -0.020003585 -0.12702161 0.00513486 0.12662292 -0.09291591 0.09745436 0.21802565 -0.10427894 -0.0842108 0.03185179 -0.014692059 -0.051777817 0.016273035 0.07054803 -0.16205567 0.055841774 0.15218157 0.06419281 0.058831647 0.07204989 -0.12856463 0.021711877 -0.12401221 0.06413825 0.021581076 -0.00436138 -0.26131982 0.059816077 -0.022254124 -0.04227883 -0.043755375 -0.03565155 0.25806427 0.030081753 0.117477804 -0.0478066 -0.017496381 0.04807601 -0.036083285 -0.07816473 -0.07739643 0.0076707085 0.00045319652 -0.17593023 0.0010091197 -0.040449042 0.08204476 0.047160856 0.109476075 0.11164604 0.1488494 0.030576102 0.19300865 -0.008028846 -0.100000754 0.025630437 0.04637989 -0.14514168 0.051420256 -0.03171456 0.084989205 -0.004716604 0.052539572 0.07853688 -0.10293456 -0.11312725 0.13398147 0.051043738 -0.17036353 -0.008568451 0.004759051 -0.13053834 -0.05029359 -0.16849537 -0.004925416 0.13010062 0.048496988 -0.123622335 0.08759841 0.14221454 0.002680099 0.12695433 0.112662144 -0.034981932 0.07156789 0.14649092 -0.09328592 -0.009403793 0.022990204 0.068383984 0.12422594 0.037560996 -0.26074317 -0.18999071 0.02735105 -0.06314241 -0.1814345 0.09469215 0.019894259 0.067917265 0.053718038 -0.033114098 0.08275707 -0.12379566 -0.06645054 -0.15367712 0.05747427 -0.013468325 0.014925444 0.07128232 0.109584905 0.026079996 0.0636376 0.18978907 0.08976034 0.060136214 0.009406189 -0.12780514 0.054765563 0.02426636 0.009875326 -0.13978066 -0.076331116 0.07175547
32 0.052563604 0.045292944 0.09455486 -0.062413886 -0.042486668 -0.054266836 -0.021709252 0.07797264 -0.14041851 0.10903781 0.17700578 -0.101223536 -0.15033615 0.087361254 -0.029593583 -0.01688614 -0.0100673195 0.031087942 -0.23919031 0.03893899 0.17864859 0.085835375 0.10855288 0.12166132 -0.11782417 -0.013671235 -0.16962689 0.06028958 -0.021576686 -0.029278493 -0.28139603 0.057658155 0.025800003 -0.06637286 -0.041260794 -0.076839566 0.32147127 0.011413363 0.13878147 0.0310307 -0.060668964 -0.040558442 0.0008256455 -0.12474093 -0.16612945 0.023382602 0.004151572 -0.15570006 -0.0052753803 -0.05290601 0.03769847 0.021502692 0.11095878 0.1371824 0.12526427 0.07442845 0.1936335 -0.06753273 -0.13524437 0.08618825 0.05635806 -0.14915834 0.042127788 0.007906943 0.06922992 0.029892717 0.09153304 0.09741244 -0.2016638 -0.15268618 0.15789807 0.08945112 -0.15483016 -0.0148529615 0.030899603 -0.1438405 -0.12082607 -0.21029583 -0.009265131 0.08835383 0.09639216 -0.1141327 0.06803478 0.12282485 -0.056050472 0.19664904 0.048768755 0.023857081 0.039726824 0.16470097 -0.08219188 0.015112585 0.10923532 0.073020965 0.14855492 0.053982764 -0.28207445 -0.17058189 0.032728072 -0.07136731 -0.15570286 0.114499696 0.027155433 0.08784622 0.021326497 -0.07289054 0.16966845 -0.057507936 -0.066626646 -0.22092287 0.015564042 -0.030800395 0.054631155 0.07331209 0.20958228 0.014626521 0.06377202 0.26501992 0.09110385 0.029478395 0.05710672 -0.15650463 0.038533885 0.06010877 0.02412073 -0.11125989 -0.07775921 0.074425586
4 0.05351671 0.04735271 0.19747595 -0.11763695 -0.0028180957 -0.1445876 0.016306456 0.15209451 -0.071036726 0.09325945 0.2287734 -0.12717003 -0.07141555 0.02745195 -0.019332822 -0.04831898 0.022426246 0.07802213 -0.15861176 0.091523215 0.17750542 0.0669738 0.04641984 0.0496816 -0.16409044 0.02633648 -0.1409924 0.06723595 0.031383634 0.015440712 -0.27403095 0.076807484 -0.036947697 -0.026828557 -0.036464673 -0.031588957 0.27170828 0.049059287 0.12092595 -0.061478235 -0.020122953 0.06726965 -0.034981344 -0.07259547 -0.057546288 0.0062219435 0.013236983 -0.19744734 -0.01890857 -0.04066951 0.0818234 0.060692564 0.11208172 0.11508284 0.17461407 0.013983644 0.21636425 0.02476719 -0.10270421 -0.015709698 0.03657119 -0.17005767 0.06527741 -0.052707948 0.10028498 -0.017661996 0.043027107 0.07859564 -0.095295474 -0.09870923 0.13359828 0.054048736 -0.19210538 0.0077932915 0.0061221966 -0.14542076 -0.037542563 -0.18379259 -0.013577419 0.13719003 0.04727151 -0.13799988 0.09366547 0.15073311 0.025070976 0.12579891 0.13556777 -0.045520768 0.08649111 0.16673492 -0.102683 -0.020523358 -0.0055538937 0.07029337 0.1289565 0.044679053 -0.27268165 -0.20052886 0.02457963 -0.06901964 -0.19891879 0.09142236 0.01403269 0.054088093 0.052499168 -0.020784669 0.061880846 -0.13848221 -0.07771513 -0.15086833 0.053784862 -0.0038965205 0.00267848 0.06362837 0.10001597 0.033449825 0.08020019 0.19042775 0.0900611 0.067616455 0.009645898 -0.13490124 0.06179985 0.018267395 0.01529759 -0.14218831 -0.06904769 0.103135794
24 0.056725163 0.049765114 0.08228861 -0.05591246 -0.047143072 -0.053138036 -0.017829467 0.08099042 -0.13439013 0.09491227 0.15239404 -0.08146523 -0.14113815 0.08803316 -0.014581253 -0.005622712 -0.010897921 0.03808488 -0.23390393 0.056745067 0.18238154 0.077732906 0.101781234 0.11646145 -0.10887036 -0.01820565 -0.16719934 0.057690986 -0.0035930383 -0.02340306 -0.27603504 0.06248298 0.039256737 -0.072249286 -0.039463546 -0.074329115 0.31376675 0.015527072 0.12519695 0.040656574 -0.06994071 -0.038203668 0.012839352 -0.12005724 -0.16147555 0.030445954 -0.009638127 -0.15091865 -0.00081478496 -0.051040653 0.027798746 0.017598856 0.113514505 0.1436613 0.12074353 0.085977755 0.17829603 -0.06080891 -0.13181525 0.069717295 0.047625188 -0.14478312 0.032862958 0.0040602637 0.06431643 0.03446003 0.09309612 0.09555518 -0.20336035 -0.15070365 0.15048808 0.08406131 -0.15106368 -0.015481741 0.037218224 -0.13143308 -0.13263127 -0.21323398 -0.004747459 0.07766211 0.096422985 -0.11950046 0.0691656 0.12012549 -0.047803905 0.18475597 0.0361215 0.024892753 0.044925645 0.15202887 -0.082885355 0.017255742 0.11453808 0.08233015 0.13987914 0.06595801 -0.257966 -0.14863603 0.049980674 -0.07900735 -0.15546378 0.11490106 0.031976353 0.07150213 0.0081390245 -0.06274479 0.18068895 -0.049992085 -0.07719067 -0.21957861 0.018335138 -0.021028057 0.04664347 0.06709892 0.22380047 -0.0017399695 0.07358516 0.24658059 0.08706316 0.024224985 0.05995025 -0.15261225 0.03496672 0.0496693 0.015338247 -0.10590858 -0.06323338 0.061358728
14 0.055139173 0.058840558 0.18478656 -0.112449124 -0.0064787357 -0.13069554 0.01233468 0.14616658 -0.085667826 0.108863086 0.228676 -0.12307714 -0.078101605 0.03993004 -0.015865158 -0.047245566 0.014957463 0.07244163 -0.18212631 0.08312222 0.17184524 0.070933685 0.05275621 0.066089556 -0.15591568 0.016858684 -0.1468113 0.06608889 0.021058097 0.012759208 -0.27755058 0.07803296 -0.019722544 -0.041161973 -0.038392477 -0.04507225 0.25834188 0.040483795 0.112788245 -0.040620036 -0.033022307 0.04816389 -0.037929174 -0.078074686 -0.07749318 0.012163566 0.0063000564 -0.17593104 -0.013126097 -0.030151412 0.07194403 0.06838645 0.117211446 0.10530566 0.14910743 0.037527107 0.2109972 0.01702197 -0.09997323 0.012160985 0.03127964 -0.15403026 0.051293995 -0.037156776 0.09888688 -0.015926989 0.054428708 0.07389541 -0.10547258 -0.10175749 0.12441904 0.06756854 -0.17008907 0.00083971967 0.013718017 -0.14376843 -0.045705415 -0.16887966 -0.012755162 0.12699047 0.058497127 -0.1337997 0.08267328 0.14629196 0.007386232 0.1341973 0.115018845 -0.031282417 0.07037325 0.15535888 -0.09560602 -0.012729328 0.015004684 0.06781258 0.11362167 0.03932535 -0.256546 -0.19128588 0.025420777 -0.07880297 -0.18602192 0.07826966 0.016825562 0.061629463 0.03907979 -0.033864334 0.07967976 -0.12146902 -0.06811268 -0.14523725 0.052753657 -0.008620967 0.010630193 0.06997658 0.0993576 0.020787736 0.061880883 0.19248083 0.08695992 0.070467755 0.014711838 -0.14064892 0.06966724 0.02200048 0.01151821 -0.124572046 -0.073029235 0.086285345
30 0.06317913 0.050722074 0.098099016 -0.069201 -0.033138342 -0.06463411 -0.0061863614 0.09229943 -0.117626235 0.100309424 0.17242144 -0.09443998 -0.12832971 0.086507656 -0.007880749 -0.0026863876 -0.009518817 0.049305752 -0.2185474 0.06901717 0.18165237 0.085401274 0.08598934 0.109784335 -0.1273502 -0.00870644 -0.16173135 0.055599928 -0.0012834682 -0.0003230851 -0.27646914 0.059023533 0.032794174 -0.057353973 -0.049213648 -0.071531504 0.3043398 0.022533176 0.12755291 0.014924193 -0.06867773 -0.016782027 0.010943047 -0.11507376 -0.14951208 0.018986257 -0.0045342357 -0.16051781 -0.0064238254 -0.05599845 0.048205283 0.0143907815 0.10902736 0.12915856 0.12598798 0.07273969 0.18933955 -0.04780781 -0.12709028 0.043437477 0.03773752 -0.14384057 0.026138123 -0.016077856 0.07538176 0.01884127 0.08102058 0.08908486 -0.18025896 -0.13487244 0.1491266 0.09243471 -0.15784986 -0.0003474002 0.022789313 -0.12791231 -0.10898064 -0.19298403 -0.014201454 0.09137939 0.08867257 -0.11995225 0.06388469 0.11620225 -0.037699156 0.16811782 0.056651577 0.0028998703 0.049905982 0.16403228 -0.08488215 0.010576265 0.07890409 0.067704566 0.1479772 0.054913804 -0.2603393 -0.15500246 0.04718327 -0.08201373 -0.15209863 0.09791548 0.02545801 0.055573102 0.0055064787 -0.049951892 0.15370208 -0.05243184 -0.079082526 -0.20022948 0.034537125 -0.01495684 0.033510964 0.07207066 0.19723824 0.0046705524 0.06024762 0.2337772 0.0880538 0.035546422 0.05215135 -0.15078847 0.038324885 0.043945428 0.019351326 -0.11340682 -0.0745241 0.072916456
6 0.1257586 0.04692193 0.43055713 -0.22281328 0.06719336 -0.32071337 0.13513061 0.29823261 0.028897297 0.050763927 0.32106256 -0.1928742 0.098742165 -0.06616293 0.043617345 -0.11521111 0.09155088 0.18729533 -0.06745912 0.22882095 0.2413454 0.060949847 -0.0977533 -0.054898664 -0.2894407 0.090270706 -0.15521662 0.07080408 0.17700021 0.1333443 -0.35765284 0.18504216 -0.09924768 0.026630627 -0.026981477 0.0039053624 0.22480498 0.16664462 0.06758329 -0.20574678 0.062276028 0.26895076 -0.105 0.069271974 0.14557199 -0.010521493 -0.003185683 -0.32175532 -0.0439653 -0.0048137275 0.14653623 0.15698434 0.14300127 0.06751763 0.27632686 -0.06458023 0.28945214 0.21098395 -0.059779964 -0.23995496 0.02294185 -0.24740611 0.09969643 -0.14190662 0.15604241 -0.18028866 -0.054153547 0.028394448 0.08996179 -0.043515436 0.10795872 0.036407247 -0.30852804 0.050237693 -0.026182469 -0.14714748 0.09872895 -0.16325042 -0.03537054 0.22437362 -0.026643982 -0.21232563 0.17820087 0.2354264 0.19556242 0.047948744 0.2892922 -0.1854682 0.20879409 0.24071053 -0.21133247 -0.057540398 -0.24105382 0.10895422 0.08780258 0.073283985 -0.27246603 -0.25674972 0.0319617 -0.10825117 -0.2767387 0.04370079 0.011309909 -0.0545127 0.067150705 0.07586694 -0.094050586 -0.27895486 -0.08802001 -0.032996293 0.16052032 0.07668778 -0.08115601 0.042192314 -0.10257232 0.04579873 0.10820981 0.0792181 0.0778519 0.18845972 -0.029331036 -0.14421976 0.102071926 -0.05238483 -0.028399492 -0.18883476 -0.09121207 0.19268093
7 0.1426167 0.034601815 0.42331585 -0.23476574 0.061426505 -0.31287843 0.11138434 0.29927385 0.028774241 0.051653743 0.31712028 -0.19593212 0.08195756 -0.044939224 0.040585157 -0.11454284 0.07093716 0.17243181 -0.08244695 0.2071614 0.24800998 0.048231207 -0.0916092 -0.041008487 -0.27279684 0.08233706 -0.15181457 0.06452862 0.17575672 0.13239332 -0.34642473 0.17819014 -0.071423516 0.024514308 -0.027277583 -0.0003829713 0.22036736 0.15792401 0.060606427 -0.18454354 0.04874878 0.246223 -0.101751134 0.062281147 0.12274137 -0.028431652 0.002544681 -0.30644864 -0.032866735 -0.006407813 0.13023964 0.14592408 0.12699722 0.06609861 0.25491214 -0.04378992 0.29043967 0.19248775 -0.06461761 -0.21681204 0.020185333 -0.23238036 0.08567941 -0.14284788 0.15456286 -0.15854159 -0.04083361 0.021430051 0.077011496 -0.03897544 0.10901927 0.038899187 -0.2918275 0.04870861 -0.017408399 -0.15106152 0.08621274 -0.15647909 -0.021725794 0.2058185 -0.027811244 -0.21423034 0.16992864 0.21342365 0.17396827 0.05499392 0.25836414 -0.1751625 0.18544088 0.23118597 -0.19809422 -0.03603638 -0.21767461 0.103728265 0.07692098 0.06943241 -0.26054707 -0.24715354 0.01925438 -0.09913076 -0.259118 0.051322773 -0.0031851397 -0.060158983 0.05942377 0.06944222 -0.094224125 -0.2712233 -0.088201486 -0.02060251 0.14564644 0.06875514 -0.07746532 0.048475776 -0.09092979 0.041689537 0.0830314 0.07594247 0.07556983 0.17985864 -0.028721118 -0.15530625 0.09167618 -0.04551926 -0.02670255 -0.16148664 -0.093415886 0.18730754
28 0.058454826 0.04581374 0.10327695 -0.063517965 -0.028344171 -0.08267929 -0.009668109 0.105793715 -0.123101756 0.115230694 0.18290071 -0.10750367 -0.12622814 0.066277325 -0.020491071 -0.019430563 0.0072943913 0.054338735 -0.22332641 0.061850287 0.1855361 0.086840466 0.09804556 0.11454814 -0.12363678 -0.011610623 -0.16273727 0.064010486 0.0032368419 -0.020789132 -0.28477034 0.06485873 0.021681273 -0.058007535 -0.056669008 -0.066811405 0.31099018 0.013962241 0.14098665 0.017010173 -0.057901602 -0.017958682 -0.0025674573 -0.11941941 -0.14922036 0.024086123 -0.00294302 -0.15797028 -0.009754405 -0.045780133 0.043349046 0.026513366 0.12740815 0.14259432 0.13477989 0.06878268 0.19685581 -0.052878357 -0.13383175 0.064543605 0.05510289 -0.1470282 0.04495119 -0.004637376 0.080937125 0.008264515 0.082466066 0.09439062 -0.17357214 -0.13783833 0.15211006 0.09110543 -0.1622335 -0.006928428 0.022639824 -0.14968623 -0.115361124 -0.19507839 -0.013677917 0.11224027 0.08036697 -0.1246305 0.067227505 0.12729768 -0.02848767 0.18433969 0.069297925 0.006568162 0.05593268 0.16759041 -0.079681866 -0.0012508354 0.084446 0.07609555 0.14443396 0.05178933 -0.26790297 -0.17866012 0.038842134 -0.07158798 -0.16170406 0.10285032 0.01923016 0.06701161 0.01687662 -0.06379608 0.14545211 -0.065185994 -0.06747767 -0.19796456 0.024809198 -0.025784783 0.044378996 0.07958294 0.18306637 0.0028820578 0.06962791 0.24555926 0.090537176 0.036345076 0.03755045 -0.15752728 0.038824838 0.04701035 0.020858029 -0.11806938 -0.06990182 0.0758482
9 0.051814646 0.052513976 0.13786435 -0.08400617 -0.020005787 -0.096520334 0.005626038 0.121567905 -0.10550522 0.10054259 0.20173898 -0.116295576 -0.0979862 0.053398818 -0.010861751 -0.035420287 0.005054855 0.048847497 -0.20198457 0.054192185 0.16571784 0.076688446 0.06680438 0.08163424 -0.13708834 0.00033663877 -0.14230102 0.066700846 0.013806605 -0.000649383 -0.2748941 0.06898716 -0.006553814 -0.05143916 -0.04749927 -0.049333986 0.28074062 0.031138511 0.12362541 -0.019350741 -0.034625117 0.009247981 -0.009953757 -0.092011034 -0.11551036 0.014241164 0.0008038262 -0.17370449 0.0014104167 -0.04873662 0.06807581 0.036850426 0.11286174 0.12141546 0.14801663 0.041571338 0.20464495 -0.023677034 -0.12136928 0.03247193 0.0423385 -0.15601332 0.04427907 -0.02698319 0.083925806 0.0035915019 0.06386815 0.08728532 -0.14631502 -0.12357975 0.14316916 0.07766564 -0.17525378 0.0018687701 0.024845317 -0.14129916 -0.07218581 -0.19465785 -0.0030031037 0.113696866 0.07354491 -0.12665616 0.075814895 0.13125017 -0.01283308 0.15616693 0.08963014 -0.0060521695 0.064706855 0.14996566 -0.08191323 0.001505265 0.056491084 0.0748074 0.13009986 0.049859088 -0.2661525 -0.18353121 0.023116764 -0.070955545 -0.1650749 0.097500525 0.024703683 0.0696198 0.03747882 -0.05100696 0.11623661 -0.09964116 -0.063473485 -0.16695665 0.045756068 -0.010141224 0.032247126 0.07688064 0.15407942 0.025841631 0.062463716 0.2236476 0.091312975 0.046554063 0.037451964 -0.1371429 0.06094097 0.038385566 0.024299892 -0.12266292 -0.06487006 0.08143366
8 0.084371015 0.047853418 0.2983439 -0.16112399 0.018910892 -0.21834822 0.060764022 0.20558512 -0.03555167 0.07702687 0.2720398 -0.15297633 -0.0061113257 -0.0082005765 0.008253699 -0.07644042 0.037851036 0.110340014 -0.13387375 0.12277715 0.19841085 0.071640305 0.00029259856 0.016109848 -0.20078197 0.060201343 -0.1305457 0.07945777 0.086668015 0.049922653 -0.31047073 0.107018866 -0.05043789 -0.011745526 -0.043740463 -0.014507059 0.24605064 0.085284196 0.10181552 -0.11515804 0.011949947 0.1408809 -0.0701221 -0.018987428 0.014345372 0.004570276 0.012688194 -0.24125054 -0.02074527 -0.030983709 0.11125364 0.10526644 0.11508599 0.09316274 0.1954854 -0.011819786 0.24787608 0.08489402 -0.08623863 -0.089727394 0.031625185 -0.18999414 0.07652681 -0.07608405 0.11641424 -0.07370405 0.014416581 0.055741806 -0.02119036 -0.06929033 0.12537742 0.04898755 -0.23056813 0.026004536 -0.0008140552 -0.13593382 0.015085102 -0.16404209 -0.013441904 0.16132668 0.022932006 -0.15715852 0.12736653 0.1738407 0.07799175 0.09659692 0.17727952 -0.102782674 0.11546097 0.1790944 -0.14050311 -0.021357862 -0.07889859 0.08184176 0.09997839 0.048244763 -0.2635968 -0.22620103 0.024744827 -0.082718916 -0.21579613 0.07468788 0.01899115 0.022294728 0.06338065 0.007027303 0.0007402147 -0.19227602 -0.067021176 -0.08694031 0.094883434 0.02567855 -0.035059545 0.062415604 0.02030964 0.03946996 0.076862626 0.13431355 0.08321142 0.11133408 -0.005973605 -0.13238399 0.08242255 -0.0047365776 0.0017172529 -0.1597322 -0.08454615 0.12080985
26 0.044164035 0.059982255 0.07380395 -0.058115162 -0.0553128 -0.052358065 -0.021833774 0.074609265 -0.1493734 0.12763575 0.17850335 -0.09816647 -0.15435107 0.09263644 -0.030061776 -0.0030874058 -0.015988993 0.030413482 -0.24464099 0.035670184 0.17593302 0.09950389 0.11534294 0.13675943 -0.106794804 -0.022832882 -0.16600858 0.058933154 -0.02092514 -0.032639887 -0.2816969 0.04266868 0.02470191 -0.07932345 -0.050285645 -0.07261533 0.32388407 0.004839421 0.1503328 0.03770471 -0.07177087 -0.056266617 0.0134017775 -0.13704036 -0.18049374 0.03907297 -0.0077396594 -0.14675467 -0.002412517 -0.059297755 0.034452364 0.021171533 0.12371281 0.14102511 0.11915098 0.08732762 0.19405688 -0.07341222 -0.14119995 0.092823535 0.05412398 -0.14680001 0.031656392 0.008333937 0.07941726 0.032415044 0.0934395 0.09680026 -0.20987894 -0.16112186 0.15847921 0.09295433 -0.15646243 -0.009403948 0.025850663 -0.15223663 -0.14270155 -0.20278974 0.00075404305 0.1031273 0.10454421 -0.11761713 0.057401337 0.13398075 -0.05916725 0.20456184 0.040678013 0.027063338 0.045888104 0.15423729 -0.07263236 0.013113856 0.12820627 0.08145393 0.15182218 0.049688425 -0.27620068 -0.16088602 0.031880233 -0.07224464 -0.15921827 0.116818324 0.024670182 0.09618861 0.006195164 -0.07736426 0.18837307 -0.051168844 -0.077682965 -0.22759679 0.018154008 -0.040563837 0.056318004 0.08259665 0.22221616 0.0041932454 0.06680292 0.27843982 0.093385726 0.017034324 0.05216967 -0.15684757 0.032236923 0.06505156 0.017105343 -0.12370191 -0.07623002 0.056178313
20 0.071797684 0.050607916 0.20760773 -0.123449944 -0.00032620152 -0.14981568 0.023770094 0.1591134 -0.06769037 0.08561375 0.21403977 -0.12891142 -0.05435952 0.035267476 0.0012068623 -0.05752024 0.014977079 0.08721348 -0.16047764 0.08911711 0.18715061 0.06431769 0.04018088 0.051876243 -0.1644219 0.025080487 -0.13469943 0.07162572 0.04937056 0.028863518 -0.28332272 0.08783509 -0.023201887 -0.028623277 -0.04245876 -0.04436304 0.24760035 0.064012624 0.10509771 -0.05848533 -0.020176882 0.074722126 -0.043964982 -0.053289987 -0.051834323 0.01585908 0.007490354 -0.19572005 -0.010466701 -0.032942384 0.065550886 0.064324774 0.110474095 0.10905688 0.16398719 0.029316455 0.20039429 0.03601214 -0.10144555 -0.024194812 0.03728275 -0.15518463 0.05959525 -0.045311015 0.10728616 -0.037172366 0.033432156 0.062545024 -0.079073034 -0.10430561 0.1260815 0.06678908 -0.1956495 0.0034300496 0.006588767 -0.13803333 -0.037532374 -0.171402 -0.02003964 0.13615945 0.049710024 -0.13486083 0.097100124 0.14324868 0.036858927 0.117472894 0.1266206 -0.059883352 0.08319963 0.1569712 -0.112742305 -0.016680308 -0.015297479 0.076768056 0.11161804 0.04645627 -0.25601506 -0.19388251 0.02732874 -0.078375876 -0.19368526 0.07986121 0.023058636 0.04271082 0.028850341 -0.017704878 0.056664165 -0.13838416 -0.06799118 -0.13094112 0.056842797 -0.0031111403 -0.0013790969 0.068175055 0.07645337 0.03048094 0.06869285 0.17603432 0.0900303 0.07882574 0.008835575 -0.13439366 0.064400926 0.019949472 0.0049697836 -0.1334632 -0.07508003 0.09394492
25 0.047203172 0.060771476 0.08705132 -0.048604462 -0.05575716 -0.061162733 -0.017475557 0.08211859 -0.15853 0.12324192 0.18425302 -0.10152568 -0.16248965 0.0992989 -0.019479431 -0.01852068 -0.01388544 0.03252636 -0.2500229 0.03839337 0.17394333 0.09889525 0.11001461 0.13454081 -0.10955735 -0.017238814 -0.16564552 0.07340927 -0.02406584 -0.03928664 -0.27906492 0.051655397 0.027229007 -0.08063794 -0.052701145 -0.08529913 0.32279712 0.0074977204 0.14861423 0.04604074 -0.0769425 -0.045708198 0.017233234 -0.13306001 -0.1785881 0.04052808 -0.008909922 -0.13534135 0.005877878 -0.049138278 0.027790882 0.026630122 0.12361183 0.14200753 0.11150124 0.09126102 0.17979993 -0.08012285 -0.13495274 0.1031175 0.06578256 -0.14798325 0.025432445 0.017515358 0.078191124 0.03157514 0.085756086 0.094199374 -0.20836018 -0.15680245 0.1532028 0.0895433 -0.14958306 -0.021831749 0.04016595 -0.14748545 -0.14189057 -0.19683297 -0.00455873 0.09908822 0.099328905 -0.12131596 0.061738282 0.12296902 -0.06820568 0.19950339 0.04266036 0.032732118 0.042519186 0.15760085 -0.078988776 0.012850109 0.11971064 0.08328089 0.1437994 0.052087605 -0.27349254 -0.16855408 0.028940197 -0.06789658 -0.16560493 0.11135615 0.032598514 0.09756143 0.0017043091 -0.07157048 0.1906757 -0.05531654 -0.07277815 -0.22044289 0.020302402 -0.03638456 0.064389266 0.07868871 0.22472751 0.0023236952 0.05789438 0.27410814 0.09400686 0.0088281315 0.050940175 -0.15461501 0.03876564 0.06811054 0.016622717 -0.119815454 -0.06653317 0.05189012
29 0.03416379 0.053364255 0.10755833 -0.077110924 -0.03465614 -0.08435349 -0.017844843 0.10326807 -0.13259816 0.1208363 0.20857772 -0.10363828 -0.12947883 0.066134125 -0.017748103 -0.027618133 0.0066052107 0.048465125 -0.21840899 0.036682613 0.16170275 0.095095105 0.0960023 0.11284859 -0.11562599 -0.009373467 -0.14489022 0.065701246 -0.020504905 -0.029991746 -0.2796036 0.045465432 0.013168028 -0.060524836 -0.05610183 -0.053619787 0.3117654 0.017614102 0.14327998 -0.0045188568 -0.05225868 -0.025499886 -0.0064484626 -0.11949794 -0.14761852 0.024948677 0.0043825055 -0.15657689 0.0055611315 -0.043442734 0.047191445 0.03868394 0.122804835 0.14017293 0.13901256 0.05899774 0.19225419 -0.050137352 -0.12704876 0.08003688 0.052286696 -0.14372055 0.045231223 -0.01783487 0.08661165 0.031168874 0.0776417 0.09742724 -0.17959194 -0.14155477 0.15881169 0.07718461 -0.1506575 -0.00789598 0.020807894 -0.14198434 -0.107495874 -0.19651467 -0.00448902 0.11276198 0.08682343 -0.116699435 0.05720417 0.13766594 -0.04583011 0.17821184 0.07287439 0.0020447422 0.04174889 0.14116345 -0.07665495 0.010534534 0.09948364 0.07060057 0.14123257 0.055306636 -0.27941754 -0.17909163 0.030279262 -0.07454196 -0.17282474 0.099695474 0.03149567 0.09389386 0.025643444 -0.06984602 0.1466305 -0.0715959 -0.072703436 -0.19928421 0.024856728 -0.025426496 0.042503703 0.08755083 0.17493568 0.0101370225 0.059584145 0.24739417 0.08593554 0.03625527 0.03133989 -0.14885171 0.051736053 0.039332237 0.02594957 -0.12949795 -0.062189143 0.07697454
11 0.11086423 0.044475246 0.35805503 -0.19980422 0.06033137 -0.26755363 0.1020657 0.24902013 0.005525971 0.05339902 0.28222883 -0.16871928 0.06108602 -0.041948497 0.037002437 -0.09736928 0.07022207 0.14075635 -0.07592121 0.17925178 0.2101752 0.05000039 -0.056362808 -0.02003352 -0.22487615 0.08118986 -0.122545674 0.07392319 0.14340244 0.09979576 -0.30385038 0.14437954 -0.06778154 0.019250818 -0.03880166 -0.013748896 0.19308366 0.13100234 0.059816793 -0.15833305 0.042838987 0.20355462 -0.0885523 0.041882835 0.09282818 -0.0093384385 0.0061102696 -0.2562789 -0.025141405 -0.008870933 0.1080307 0.12548879 0.11749103 0.065378256 0.20974569 -0.035573985 0.2474593 0.15630344 -0.054844182 -0.17483126 0.020907212 -0.19410843 0.081215166 -0.117925756 0.13701032 -0.13375127 -0.023769183 0.020363687 0.057396557 -0.036749985 0.097915694 0.030739486 -0.24545619 0.0364747 -0.021077456 -0.124437 0.06647713 -0.13902983 -0.029295726 0.18262923 -0.015887529 -0.17689537 0.13068789 0.18803453 0.14189139 0.054645423 0.2146278 -0.14898987 0.15173039 0.19097501 -0.1694829 -0.045821127 -0.17000729 0.08644625 0.062794864 0.049219243 -0.23110592 -0.21252967 0.0213532 -0.0858917 -0.22983655 0.038885307 0.004769521 -0.027545206 0.06004228 0.047643483 -0.06638472 -0.2360008 -0.0707313 -0.034233958 0.12343738 0.048087247 -0.0631984 0.033220667 -0.066110276 0.034848936 0.075976774 0.07473977 0.06841812 0.13967603 -0.032615487 -0.12867486 0.0837479 -0.031602964 -0.030204149 -0.15277508 -0.08811523 0.14894079
5 0.12308615 0.04346914 0.38234147 -0.20628119 0.061206345 -0.2743318 0.11107354 0.26040477 -0.0070466446 0.057129733 0.29562613 -0.18502277 0.043996338 -0.037080184 0.035436653 -0.105114676 0.062489625 0.15796782 -0.09535193 0.19134367 0.23465958 0.06202834 -0.060817324 -0.019636894 -0.2565872 0.080624826 -0.13902068 0.08445623 0.14195432 0.10820732 -0.34118485 0.15181692 -0.06394932 0.013219492 -0.037431158 -0.018411893 0.21370403 0.14095174 0.06716796 -0.1591516 0.03318561 0.21211743 -0.101847015 0.042948376 0.09500422 -0.00899512 0.01239188 -0.28181705 -0.041563988 -0.008595204 0.11783135 0.13619326 0.13432695 0.076900765 0.23137371 -0.03956876 0.2754931 0.15315348 -0.065689266 -0.18452194 0.032046627 -0.21981712 0.09371291 -0.123893894 0.13293943 -0.14110479 -0.030551147 0.03980858 0.039965358 -0.04766506 0.1158311 0.0411742 -0.26717344 0.04338228 -0.017057601 -0.13704479 0.05299696 -0.16448407 -0.027442658 0.19174656 -0.0042394777 -0.19836807 0.14876671 0.20611121 0.14217651 0.061105795 0.24225162 -0.15702848 0.1768954 0.21386564 -0.17877287 -0.039009247 -0.1709791 0.09863891 0.082070336 0.06579106 -0.26249844 -0.24144165 0.01976135 -0.105081044 -0.24836925 0.0477446 0.0075690094 -0.033793278 0.05338822 0.04959846 -0.05497028 -0.24683222 -0.08563958 -0.046552137 0.12852332 0.04897871 -0.061501835 0.0474056 -0.05441258 0.036005348 0.095917076 0.103075065 0.079880536 0.15895711 -0.023451021 -0.14027028 0.09034404 -0.020778118 -0.025265906 -0.17617166 -0.09325063 0.17116077
31 0.0458273 0.05601325 0.112784244 -0.076900624 -0.039861277 -0.08084978 -0.019709358 0.08745881 -0.12890457 0.11648462 0.19399664 -0.09663861 -0.13412501 0.08236496 -0.024542727 -0.014979657 0.001593265 0.042996872 -0.21435966 0.04107654 0.17484362 0.08878444 0.1051569 0.102793 -0.11493767 -0.0063231154 -0.15690112 0.061188757 -0.008083018 -0.02783207 -0.27477047 0.056568194 0.010710796 -0.05562624 -0.04961281 -0.064849615 0.30216217 0.0058611026 0.12764363 0.011657832 -0.061274182 -0.024648082 0.00503757 -0.12723881 -0.15816593 0.021401247 -0.0032107397 -0.16330156 -0.0024428007 -0.04577623 0.05751989 0.024431638 0.10466996 0.13097277 0.11901055 0.06386799 0.18585427 -0.050283518 -0.13226655 0.07310691 0.049188435 -0.1387181 0.038168922 -0.0146881305 0.082399406 0.020496355 0.088669375 0.095223814 -0.17272586 -0.13885032 0.15086012 0.08912327 -0.16350007 -0.016735526 0.027138732 -0.14514624 -0.11246961 -0.20291768 -0.01566865 0.10251574 0.08931229 -0.11902209 0.06745423 0.13230251 -0.037673656 0.17590582 0.059320852 0.0011343062 0.039060682 0.153584 -0.082863554 -0.0014194046 0.0929099 0.07148186 0.15014462 0.05063906 -0.26880774 -0.18227251 0.03231583 -0.0727803 -0.16033563 0.11138844 0.03015766 0.087227546 0.024783462 -0.07146205 0.15841557 -0.06656317 -0.06915347 -0.20345113 0.021369684 -0.032261673 0.046532933 0.07930818 0.18697819 0.017196793 0.06447122 0.25672656 0.09895334 0.026425865 0.041759614 -0.1485667 0.044377554 0.04775696 0.028400531 -0.11893181 -0.08643551 0.07438262
17 0.1369993 0.038987257 0.3952272 -0.21614715 0.06659212 -0.28885615 0.11604007 0.28275174 0.017805416 0.046943173 0.29630315 -0.17796473 0.06925474 -0.039368246 0.04685897 -0.09888576 0.081610866 0.15599433 -0.09318483 0.2050879 0.2429675 0.052613724 -0.081077054 -0.03578711 -0.2710428 0.08786321 -0.14757863 0.06523577 0.16415669 0.12220542 -0.34583274 0.16273616 -0.071417324 0.029482976 -0.04036572 -0.00749672 0.21793145 0.14512049 0.071031764 -0.17270629 0.039148178 0.22953826 -0.09954893 0.054206565 0.10909371 -0.022660758 0.0018486097 -0.2925851 -0.045851316 -0.02098489 0.119760275 0.12984605 0.13946535 0.08266888 0.25427622 -0.048564736 0.2854636 0.17760184 -0.06945643 -0.21094936 0.023646373 -0.22991624 0.08012719 -0.12636878 0.14695908 -0.15641417 -0.039744634 0.0383997 0.04688895 -0.05556222 0.11669301 0.04065408 -0.28717712 0.037379164 -0.016262172 -0.1398794 0.06568145 -0.17109564 -0.03154396 0.19304813 -0.023713822 -0.21399182 0.1681132 0.21897912 0.15800856 0.054288168 0.24586605 -0.16698287 0.19142993 0.22965135 -0.19715896 -0.045397174 -0.20348075 0.1053552 0.08290583 0.06578091 -0.25974834 -0.23770769 0.034197822 -0.10812428 -0.25019285 0.043578014 0.000685127 -0.05619591 0.054248944 0.05993442 -0.07437 -0.2547034 -0.07524178 -0.036470506 0.13622873 0.070724 -0.065543935 0.0419035 -0.07011573 0.046340667 0.08445656 0.09049616 0.08475134 0.16069329 -0.020531785 -0.15480669 0.094887875 -0.028401831 -0.03756935 -0.17075768 -0.083240725 0.17871572
18 0.06986468 0.047694396 0.24718522 -0.13851121 0.015348889 -0.1917521 0.04946475 0.18573949 -0.04890448 0.08462111 0.24291173 -0.14207847 -0.012307654 0.0028413536 0.00998859 -0.07071597 0.040391877 0.09416764 -0.11878008 0.11636294 0.17332403 0.057898525 0.0016958124 0.021148026 -0.18275276 0.049697407 -0.122335926 0.07553448 0.06251607 0.040616017 -0.27929404 0.090528175 -0.044923723 -0.008384519 -0.036139317 -0.020008035 0.21578257 0.07118917 0.08364362 -0.09423964 0.0069176247 0.1238732 -0.06449345 -0.01778337 0.002280391 0.0016542396 0.007957726 -0.20174722 -0.016483525 -0.017813122 0.09326055 0.08792693 0.11086689 0.07788635 0.16941574 -0.0063166274 0.21183562 0.07162273 -0.07445399 -0.05758855 0.026272982 -0.1621214 0.07143507 -0.067715384 0.110056736 -0.059392236 0.012164665 0.045928106 -0.028358065 -0.08173893 0.10941963 0.035786208 -0.20073459 0.008426575 0.0009985397 -0.13553225 0.01469834 -0.16155997 -0.021642707 0.14798422 0.01861811 -0.14076169 0.1015499 0.15680756 0.060601108 0.08324782 0.16519952 -0.08047298 0.10887523 0.15703093 -0.11822603 -0.032357626 -0.05772221 0.077691995 0.088250585 0.048468854 -0.24387138 -0.20550454 0.021526704 -0.06926789 -0.20147339 0.055541355 0.021643454 0.02545339 0.055204425 0.0025479018 0.0037015018 -0.16489127 -0.063071445 -0.08327734 0.07543341 0.015473482 -0.0161502 0.050445396 0.014826904 0.043408226 0.074296206 0.1274368 0.079897866 0.09478739 -0.013979159 -0.12367578 0.06676405 0.0024243444 -0.00023518449 -0.1459164 -0.07278558 0.10557878
10 0.067483656 0.05083099 0.16400482 -0.09574128 -0.026378797 -0.108090065 0.012158908 0.12675016 -0.11250714 0.102783926 0.21081959 -0.11371485 -0.10940171 0.055172052 -0.009100057 -0.0332452 0.014798882 0.06584405 -0.207767 0.07922227 0.19774754 0.08578675 0.07889658 0.09385272 -0.1544684 0.003411477 -0.16929065 0.06534995 0.018669717 -0.0045212167 -0.29344836 0.078479305 0.00291411 -0.05728171 -0.054310452 -0.067681946 0.31126717 0.035223223 0.13286145 -0.02392215 -0.035735548 0.025194092 -0.01805674 -0.099599384 -0.109693475 0.017079161 0.0044485903 -0.18441612 -0.0060074395 -0.04055513 0.063489705 0.041659046 0.12672289 0.12890603 0.1496634 0.056863785 0.20905164 -0.0076767495 -0.12264341 0.031227637 0.04839723 -0.16670285 0.044434 -0.020739257 0.09354997 -0.0108712325 0.06399268 0.08518331 -0.14395168 -0.13572761 0.15577121 0.08066835 -0.17917421 0.001487816 0.016176464 -0.14539261 -0.08305902 -0.20728461 -0.0054914574 0.13000105 0.079904705 -0.1388763 0.07726087 0.15092705 -0.011118654 0.16831881 0.09761191 -0.018479995 0.07618916 0.17045453 -0.10350904 -0.0010598553 0.052988164 0.074594855 0.1352787 0.053482883 -0.27090767 -0.18278891 0.03194085 -0.07555811 -0.18772481 0.10258108 0.029940812 0.06346945 0.022902817 -0.044808157 0.12449992 -0.092615664 -0.07157828 -0.18431662 0.046065643 -0.016833669 0.019810611 0.07729331 0.14631726 0.0115603125 0.07976742 0.23343076 0.09653874 0.05663114 0.025140816 -0.15833114 0.054849472 0.027070152 0.0071896072 -0.13001539 -0.07990874 0.08043389
19 0.06179207 0.043187335 0.12254796 -0.08344882 -0.030888913 -0.08784571 -0.005922282 0.11413307 -0.11433654 0.10001896 0.20452511 -0.099619895 -0.12867849 0.07158408 -0.012203162 -0.016117116 0.00032380724 0.049729638 -0.21922998 0.058791485 0.18370783 0.084670775 0.08873384 0.10053382 -0.13480882 -0.0062072612 -0.16434723 0.07095839 0.004397537 -0.002703444 -0.29421467 0.06036385 0.02216791 -0.06343471 -0.04359223 -0.06815284 0.31157392 0.018561589 0.13932104 -0.00049475813 -0.05429013 -0.010745211 -0.010344157 -0.11734168 -0.13161628 0.012385597 0.0034574764 -0.1782936 -0.004129405 -0.04333476 0.049812444 0.024696572 0.11743163 0.13910694 0.14988236 0.05704217 0.20192204 -0.03295939 -0.13225399 0.0551222 0.042161897 -0.15449576 0.044105846 -0.012040807 0.07927566 0.015212882 0.08042288 0.10221841 -0.18089557 -0.13651559 0.16109198 0.0817242 -0.16710542 -0.009948334 0.02521595 -0.1514032 -0.104076214 -0.21030656 -0.01074997 0.10409089 0.0889775 -0.13342996 0.071717024 0.14360686 -0.019964557 0.17598777 0.07402687 -0.0030050362 0.05909102 0.16926855 -0.09433074 0.0066314233 0.07936545 0.076528154 0.14599629 0.060484935 -0.2682837 -0.17579833 0.045728188 -0.08197569 -0.1670022 0.10269214 0.020931732 0.06904265 0.018563474 -0.055980224 0.14414161 -0.0704045 -0.07921648 -0.20578328 0.033448767 -0.011282214 0.028097777 0.08324906 0.18157536 0.014345947 0.07030393 0.23425591 0.09241451 0.04504871 0.037779335 -0.15205784 0.047973137 0.046322223 0.023042379 -0.12484658 -0.06601683 0.07406719
23 0.047173936 0.06287225 0.11418639 -0.08409661 -0.039125938 -0.08132678 -0.015312069 0.1022668 -0.13962138 0.12041496 0.19794115 -0.103537306 -0.14597549 0.0792186 -0.023054771 -0.015350091 0.0018672427 0.04665348 -0.2250585 0.051376972 0.16943324 0.084111 0.09695105 0.119826816 -0.12440039 -0.017447343 -0.15564078 0.06789341 -0.016358793 -0.024254357 -0.27780902 0.05091427 0.011543458 -0.0665702 -0.05164687 -0.063620724 0.3101859 0.01469371 0.13633247 0.011439257 -0.057729702 -0.02380683 0.00453449 -0.1233054 -0.16225979 0.025602564 0.009727199 -0.16410175 -0.005435197 -0.055654623 0.05464821 0.026157737 0.12308344 0.13073066 0.1396127 0.063278906 0.20095082 -0.051602494 -0.12823917 0.066785835 0.05615576 -0.1429508 0.034469668 -0.015363365 0.08560061 0.02254167 0.077055365 0.09869128 -0.18969287 -0.14995098 0.16187693 0.08338932 -0.15944833 -0.013022196 0.022957021 -0.14796749 -0.11755096 -0.20900844 -0.012649037 0.10946505 0.09736247 -0.12373425 0.06685061 0.12436558 -0.036574498 0.18828455 0.061964445 0.0029318254 0.045321517 0.15837522 -0.08290795 0.0103891445 0.105939835 0.0778027 0.14165029 0.056890924 -0.27499092 -0.17701058 0.041196316 -0.081425264 -0.16585203 0.10753694 0.020985518 0.08078829 0.021870758 -0.06645585 0.150711 -0.062881455 -0.07631876 -0.21301419 0.026010644 -0.027190108 0.048377793 0.07945161 0.202068 0.003141449 0.07001067 0.25430074 0.092720896 0.027218854 0.04282102 -0.1502416 0.038156446 0.044529803 0.020328153 -0.12185885 -0.0652096 0.06718695
27 0.056116737 0.0527613 0.066781305 -0.055674583 -0.05196105 -0.036626335 -0.025307732 0.06745915 -0.15954076 0.122438185 0.15706033 -0.08220795 -0.17236194 0.11047925 -0.015400792 0.0042301943 -0.011804012 0.03218117 -0.2522996 0.05134426 0.18539199 0.091560945 0.11312647 0.14911482 -0.108747736 -0.030757545 -0.1781888 0.06757158 -0.019493371 -0.032343663 -0.28298992 0.054019313 0.050569907 -0.07357062 -0.050631396 -0.08599526 0.34680125 -0.004444069 0.14451317 0.06069397 -0.09163814 -0.06703975 0.021954041 -0.14390647 -0.19555181 0.025894254 -0.0004914629 -0.15044521 -0.0043583456 -0.06433992 0.02995665 0.0011771666 0.11446198 0.14384393 0.12253026 0.10181635 0.18161151 -0.086225346 -0.14573216 0.0991319 0.048885517 -0.14092824 0.02899629 0.016828278 0.07450698 0.049940046 0.10896131 0.104857914 -0.23602714 -0.17202616 0.17686623 0.10828647 -0.1575601 -0.015807953 0.043240342 -0.14628683 -0.15197948 -0.23303492 0.0026762728 0.078900576 0.10942819 -0.12447128 0.05515071 0.11992782 -0.07651344 0.2147972 0.027209477 0.03134883 0.04118051 0.16836548 -0.07175132 0.020266691 0.15187955 0.081215456 0.17121091 0.07211624 -0.2964881 -0.17292888 0.057229515 -0.07884158 -0.15808924 0.1299526 0.027182728 0.08025115 -0.004158937 -0.071329854 0.20403934 -0.038924996 -0.08399204 -0.24363442 0.012316447 -0.03802768 0.06016645 0.08169299 0.25469986 -0.0040291385 0.07572497 0.28921205 0.09272535 0.015116724 0.0707296 -0.17223416 0.026087262 0.06827049 0.017667327 -0.11058045 -0.08112717 0.07032353
16 0.04447188 0.04503799 0.09089136 -0.06522814 -0.033815674 -0.05343668 -0.016501294 0.08824531 -0.1257266 0.10827357 0.17043364 -0.09248955 -0.13682397 0.08945915 -0.024963303 -0.01864467 -0.0015540223 0.049987994 -0.23270373 0.047876276 0.1717164 0.089804955 0.10930272 0.11440507 -0.11349137 -0.010828177 -0.15741786 0.056148246 -0.009475288 -0.02233284 -0.27682868 0.05956337 0.023027401 -0.057760324 -0.048256565 -0.070555806 0.31023982 0.0038039451 0.12770304 0.023820078 -0.06960467 -0.028565189 0.0057680584 -0.13223088 -0.16193753 0.01874962 -0.0069045695 -0.15731302 0.005405486 -0.056370895 0.038765553 0.025819294 0.11881959 0.1440767 0.1184238 0.07574587 0.18120423 -0.051325753 -0.12669972 0.07133814 0.05277888 -0.14842917 0.039338786 -0.00011605519 0.08049119 0.03326503 0.08481009 0.10204776 -0.1974871 -0.1509874 0.15891789 0.08203282 -0.15730336 -0.00979585 0.0355176 -0.14881271 -0.12011849 -0.21130463 -0.011996309 0.09588209 0.098140605 -0.12201688 0.06327935 0.13225088 -0.04585954 0.18063009 0.059517633 0.013565912 0.043553513 0.16287673 -0.071715385 0.012401495 0.10681235 0.07095944 0.1541047 0.059056286 -0.27377084 -0.17215677 0.0390746 -0.0810232 -0.15624921 0.10307999 0.02456979 0.081959985 0.017876795 -0.062159635 0.15516552 -0.053936753 -0.06881682 -0.20913365 0.02884176 -0.02571056 0.049534008 0.08598718 0.20298752 0.0072769467 0.07070473 0.24604672 0.09558606 0.024351737 0.046427768 -0.15231633 0.048216533 0.05150901 0.021923758 -0.11614186 -0.07358088 0.06651682
21 0.049622312 0.047352355 0.0706081 -0.049425542 -0.049207084 -0.037523292 -0.02300176 0.071825795 -0.15492398 0.117912725 0.1724322 -0.090811625 -0.1588874 0.111935064 -0.027134161 -0.0021603866 -0.020381223 0.037858386 -0.2612473 0.04667802 0.19741842 0.08721773 0.11273431 0.13907973 -0.1187159 -0.032908637 -0.18472457 0.06495206 -0.021349778 -0.029299723 -0.292438 0.06028751 0.051624104 -0.08142504 -0.047098633 -0.09405772 0.3453541 0.0032794261 0.14898269 0.044719353 -0.08453387 -0.055478364 0.010239183 -0.15256098 -0.201709 0.03103425 -0.0053570787 -0.16308358 0.0054360046 -0.06121447 0.03492776 0.012873155 0.11723087 0.16169645 0.12040752 0.09085783 0.18903412 -0.082627326 -0.15583375 0.10320237 0.0605436 -0.15693189 0.03357321 0.01285956 0.06882291 0.0458256 0.09742614 0.11805529 -0.2286083 -0.1678237 0.16627276 0.1009106 -0.16092968 -0.017297074 0.046788055 -0.1536909 -0.15488948 -0.23603307 -0.008045345 0.08971605 0.110342056 -0.12711044 0.07129148 0.12929656 -0.06067187 0.21541137 0.03005094 0.02534609 0.034820657 0.16569178 -0.08244804 0.023002703 0.13483231 0.089017466 0.16527526 0.05980923 -0.2881869 -0.16995712 0.04881115 -0.08356028 -0.16833086 0.12670377 0.024178557 0.078542195 -0.003088007 -0.069772296 0.20349054 -0.036641598 -0.07134529 -0.25117147 0.020683445 -0.030286059 0.06458188 0.08315358 0.2587088 -0.0032320223 0.076123305 0.2893183 0.096815884 0.018730648 0.06855974 -0.16616736 0.042279627 0.06591664 0.020751653 -0.10887787 -0.07325552 0.06214149
15 0.06088211 0.05078274 0.119244725 -0.08513946 -0.03662106 -0.07756042 -0.0027167075 0.09546896 -0.12238823 0.10711501 0.19258392 -0.095949255 -0.12780355 0.077097125 -0.016264716 -0.012681422 -0.00041002838 0.057053857 -0.23243555 0.067246854 0.18859267 0.08610624 0.09293745 0.111733876 -0.13389647 -0.017007086 -0.1661822 0.06916436 -0.0010647827 -0.0045943926 -0.2886203 0.060724813 0.0228408 -0.05752561 -0.056266673 -0.06872544 0.32476625 0.024374496 0.13986956 0.017478032 -0.06408801 -0.022071037 0.0074580633 -0.12509449 -0.15135026 0.018924989 0.0037021511 -0.17798877 -0.0028592309 -0.053761944 0.045338053 0.019326268 0.11570199 0.14261581 0.13443056 0.07605856 0.19964726 -0.053450793 -0.13716999 0.060811825 0.049621634 -0.15209149 0.030541833 -0.018146064 0.08016074 0.017803246 0.07837065 0.091816194 -0.19686551 -0.14972056 0.1688948 0.082213454 -0.17695989 -0.0064601656 0.031113809 -0.1547326 -0.11020331 -0.22328296 -0.0043362137 0.11285868 0.09649844 -0.1302511 0.07877568 0.14294544 -0.03936854 0.19064772 0.06024428 -0.0043725753 0.065269716 0.1654638 -0.09569665 0.0054369424 0.09326705 0.08535428 0.15407468 0.066023625 -0.28435868 -0.17557213 0.03819585 -0.08389644 -0.17699274 0.11131083 0.028922155 0.07195458 0.011006708 -0.055581007 0.16353253 -0.07651238 -0.08064188 -0.21223694 0.028819278 -0.012977063 0.04746299 0.08470201 0.20839933 -7.812828e-05 0.072148934 0.2471239 0.08903406 0.02803245 0.050445393 -0.15910867 0.03637676 0.056407534 0.014327141 -0.12229627 -0.078604236 0.07551649
13 0.07294175 0.05002203 0.25164407 -0.14803526 0.01815171 -0.18162635 0.04453446 0.19024368 -0.04978154 0.08382608 0.2399326 -0.14383757 -0.028265603 0.0029774383 0.0038057226 -0.068977796 0.04020291 0.10429717 -0.1328012 0.11532122 0.18143187 0.061455272 0.007107918 0.024462182 -0.1850225 0.038930126 -0.1317288 0.06768774 0.061931666 0.052689858 -0.2852667 0.09877555 -0.04310885 -0.017537154 -0.039733395 -0.034583367 0.23355311 0.0680058 0.08702408 -0.09851325 0.012002607 0.11108676 -0.06335227 -0.023019956 -0.012467607 -0.0037350445 0.007834197 -0.21915977 -0.024142882 -0.031794507 0.094253734 0.08589399 0.11085992 0.09255138 0.17791131 -0.0056845928 0.22176412 0.074721545 -0.07855545 -0.05773922 0.021521633 -0.16728716 0.07252647 -0.07053716 0.099490896 -0.06093259 0.013038441 0.05353876 -0.043085694 -0.073888846 0.11779147 0.04966763 -0.20764464 0.023228858 -0.0067958552 -0.14061286 -0.003321173 -0.17123194 -0.021430584 0.14386074 0.026641306 -0.14211684 0.10918556 0.1549967 0.06474509 0.09284799 0.16168237 -0.07226769 0.10272319 0.16691957 -0.12721302 -0.024198923 -0.06485879 0.07393443 0.09350009 0.043954268 -0.23812239 -0.19047464 0.016052485 -0.07345251 -0.1884977 0.068927005 0.010979685 0.027777534 0.057522777 0.0023600135 0.01453222 -0.16629755 -0.071279794 -0.09640882 0.0822126 0.01687093 -0.027471822 0.06113166 0.027023874 0.040454138 0.07643569 0.1285698 0.07870214 0.10065626 -0.007679499 -0.13169758 0.0759562 0.0006049769 0.0071663256 -0.1440467 -0.07389312 0.11510681
22 0.07800186 0.04721547 0.24944472 -0.15213206 0.008363391 -0.17837118 0.046290066 0.1798438 -0.04965906 0.08046049 0.24741922 -0.14177011 -0.029379765 0.008023278 0.0065548336 -0.069141716 0.043245446 0.10596741 -0.13857836 0.110682994 0.19105603 0.0654709 0.0043091807 0.028273491 -0.18504287 0.04291071 -0.14128599 0.06590049 0.0738677 0.04198347 -0.28472316 0.099252686 -0.039466336 -0.0201422 -0.040125076 -0.02595109 0.23771091 0.06973264 0.08960921 -0.08085529 -0.0046000592 0.111634776 -0.05592105 -0.03633737 -0.015632443 0.0023362804 0.009413625 -0.22174364 -0.022896852 -0.035047334 0.08986312 0.07924445 0.11679147 0.09949143 0.1837803 0.0059949853 0.2212667 0.062671855 -0.090965554 -0.066737875 0.04080345 -0.17668414 0.056684934 -0.06626799 0.114603154 -0.05859743 0.020560632 0.055516023 -0.05231848 -0.090238 0.11629918 0.042007577 -0.21151695 0.020998659 0.008514373 -0.13547614 -0.0073663946 -0.16164775 -0.016813867 0.14110634 0.031818975 -0.14879428 0.105174646 0.1579398 0.06611932 0.107784845 0.14788967 -0.08401757 0.107894875 0.17207977 -0.13213451 -0.012918254 -0.058553915 0.08321598 0.11008166 0.05176484 -0.24770729 -0.20196855 0.017169451 -0.079086155 -0.19952755 0.060109343 0.020670557 0.016259989 0.05140474 -0.002745375 0.016035445 -0.16907787 -0.06523862 -0.10878542 0.08345211 0.014602542 -0.008577823 0.063288234 0.051280797 0.037135184 0.06573714 0.13681592 0.074306466 0.091660246 0.0032611098 -0.12841609 0.06667137 0.007854331 -0.0050595854 -0.14607263 -0.07080122 0.10437218
12 0.07716932 0.040497795 0.2564976 -0.14662176 0.016161645 -0.18877573 0.052312557 0.1801168 -0.043241415 0.08068928 0.24751996 -0.1420531 -0.026385378 0.0015583399 0.00918473 -0.07063691 0.039549112 0.0990534 -0.12695467 0.1071287 0.18464379 0.06136387 3.5587582e-06 0.03328444 -0.18231718 0.047185615 -0.13245079 0.069899626 0.07120035 0.052557882 -0.2917007 0.106560856 -0.031237904 -0.012915545 -0.032064635 -0.021472989 0.23497236 0.070251815 0.092324175 -0.08950151 0.00561018 0.11831857 -0.06345327 -0.02547638 -0.013550873 -0.0025214464 -0.0012036278 -0.20832582 -0.019443145 -0.026500091 0.09218275 0.073856585 0.10767239 0.08581333 0.1722435 -0.007836223 0.20832679 0.07285771 -0.08668807 -0.060748633 0.026243662 -0.16678001 0.06628262 -0.075364016 0.10122883 -0.065022364 0.009609751 0.051719945 -0.041281056 -0.0776104 0.11471602 0.041996192 -0.20541866 0.012910436 -0.0054855095 -0.13615969 -0.0020447415 -0.1657065 -0.02342748 0.13466592 0.025106646 -0.14787735 0.1020353 0.15777442 0.06737049 0.08701665 0.15822056 -0.083821125 0.10170069 0.16933843 -0.1213816 -0.012404492 -0.05943579 0.07720929 0.101465635 0.0401957 -0.24211238 -0.1993451 0.022169948 -0.07845569 -0.18936802 0.058901012 0.013352381 0.01780655 0.05423779 -0.0053246627 0.009408871 -0.15315658 -0.059013933 -0.09439443 0.077568926 0.010622472 -0.019270888 0.048785906 0.024029743 0.035367846 0.06821739 0.13663825 0.06719104 0.09495122 -0.0016910787 -0.1287062 0.06674647 0.00321538 -0.0048021777 -0.13266161 -0.06849085 0.1110716
