322 128
118 -1.4108434 1.3865768 -2.3675518 -0.7421964 -1.4509652 -0.042044774 1.2726192 -1.0703279 -0.5523624 -0.8990352 2.6661496 0.17684872 0.97975504 0.9204171 -1.0460422 0.11121387 0.3978321 -1.4825591 1.2711561 0.63855726 -0.68457025 -0.2272899 0.4353997 -0.078302115 -0.6813931 -0.046815414 -0.03467551 -0.5399603 -0.894243 0.680642 0.115260474 -1.6196232 0.13059346 -1.6147265 -0.24358067 -0.29294306 0.19880196 -0.031635493 -0.23361243 0.544079 0.6639495 0.22542532 1.1847559 1.48794 0.8660306 1.0690917 -0.02796787 0.35868576 0.1764635 0.25807518 -1.2879081 1.8367423 -0.92628396 -0.31954864 0.9523518 -0.15313524 -0.7773197 -0.51725894 0.30517453 -0.16223545 -0.84098834 2.3186648 -0.70794517 0.025961326 0.28123245 -0.056856494 -0.34810874 -0.5988372 0.52157027 0.84557253 1.1184993 0.34840345 0.4072001 0.7545251 0.7530284 0.9619509 1.4896419 0.0020008546 1.1097714 -0.8618767 -0.9181244 0.041307077 -0.9438281 -0.26112834 -0.22247793 -1.5534693 -0.808215 2.026489 -0.2643948 -1.1537387 2.1640468 -0.49219123 -0.22263952 -0.74979377 0.3414809 0.89990664 -1.4736758 -0.45118082 1.92425 0.5138761 0.18254074 1.3857081 -0.2581388 -0.56468934 -1.608388 0.08051741 -0.42599264 1.2806855 0.9882635 -0.02994815 -0.28364438 -0.5626956 0.5563578 1.1756812 -1.2274481 1.10502 -0.857055 -0.51043683 0.82898664 0.34529525 0.33517992 0.80804783 1.1302977 -1.6353817 0.518557 -0.5487014 2.0469646 1.2800508
261 0.38811284 1.267522 0.12420865 -1.1422013 0.050937984 -0.107726604 -2.339876 1.4683186 -0.08831486 -0.52317417 0.9383665 0.51143414 -0.9056956 0.5474248 0.7162364 -0.8289315 -1.3244765 -0.5706543 3.1668217 0.019742662 -0.19643524 -0.7857704 0.43761852 0.856331 -1.3913686 1.0112079 1.0411844 -0.59084576 -0.2850596 0.0004281114 -0.026466476 -1.5543543 -0.476949 -0.8743133 -0.84384096 -0.2448645 -0.7353947 0.70527506 -0.765353 0.3017491 -0.86553204 -1.6003515 -0.5931147 -1.0493248 0.826303 1.1381567 1.45519 -0.35136345 -1.2232243 -0.82805705 -1.1253089 -0.6579675 0.48826072 -1.76599 -1.0471805 0.7918859 -0.021772815 0.8385224 0.26991278 -1.7155666 3.0735378 -1.1394039 -1.4157901 -0.025143884 -0.16295393 0.06508895 -0.49706602 0.98147655 0.5278043 0.30498907 -0.51162934 0.23019901 1.6880168 1.8617433 -0.70504373 -1.2886999 0.97653216 1.1741564 0.6173127 -1.6834831 0.13557039 1.1831479 -0.90750974 0.0358044 -0.7976441 -0.023851745 -0.94855607 0.7261016 -0.9385494 -2.0601509 -0.3755236 -0.45434913 -1.4484116 -1.7782012 -0.055453457 -0.7143087 0.59676445 -0.57923317 1.4542602 0.25669768 0.12632406 -0.49575672 -0.10645865 -1.0512679 -0.9001694 -0.59460217 -0.84609705 -0.06670114 -0.037631903 0.9574196 -0.23824418 0.9186112 0.46077958 -0.47926646 0.8214215 0.19181962 -0.12202245 1.10632 0.7637639 0.40112844 0.56941795 -0.20216525 -0.38253856 -0.13700838 -0.4795905 -1.355481 0.23068178 -0.08996882
255 -0.36440766 1.2422284 -1.3995528 -0.6419643 -0.069095865 0.09758879 -0.6584169 -0.04428042 -1.1504867 -0.77910566 -0.22274922 -0.098957166 0.26067773 -0.2933903 -0.07204592 -0.9877857 0.49582756 -0.42740807 0.21194382 1.4974036 -0.35252568 -1.863285 -0.07400198 1.0584024 0.9252571 -1.8876567 1.3373675 -0.40510476 0.5237629 0.12726136 -0.8020139 -0.51221997 1.3071934 0.03247499 0.97254336 -0.31766212 -1.3112228 -0.40380892 -0.035282932 0.6538723 1.191714 -0.14325671 0.58656865 0.45768526 -0.9447639 0.61994195 0.9239995 0.75760204 1.0588535 -1.2115947 -0.75389314 -0.46772027 0.30850962 -1.1585546 0.18594304 0.5074258 -0.08424679 0.34855196 2.183812 -0.34644 0.7964834 -0.24407186 -1.3687825 1.056975 -0.12257389 -0.58964103 -0.036436733 1.21182 -0.48826683 0.9096493 -0.68517375 0.1663591 0.45804998 0.33041713 -0.12231382 -0.19356339 0.11443373 -0.84650767 0.7882003 0.92698026 0.3317852 -0.13421248 -1.1364211 0.6110371 -0.5308805 -0.17817307 -0.10843878 0.82873845 -1.3654655 -1.0004362 0.5417521 -0.5373882 -0.19482864 0.06902 -0.44756666 -0.7821577 0.033780113 0.34541178 0.9657946 -0.45824704 1.2237945 0.10614959 1.701231 -1.2133453 -0.23582727 0.8989016 0.91659766 0.31923318 -0.73050356 -0.5807635 -0.32522556 1.0863558 0.28242788 -1.0332679 0.97193074 -0.77952075 1.3574704 0.8730498 0.87964773 0.9757898 0.40506586 1.2304542 -0.23797569 -0.9061065 0.048117816 0.67180866 1.0274897 -0.32104617
152 -0.36875343 0.9199466 0.16936038 0.29359362 0.091196604 0.40028405 0.7612691 0.7781522 -2.2147987 -0.6873565 0.06564347 0.34202728 -0.11540106 -0.40519202 -1.543732 -0.50799084 1.2151834 -0.7598806 0.2809339 -0.3927987 -1.0276675 -0.17637172 0.4595945 0.6123889 -1.6870877 -1.254066 -0.44022268 -0.30775777 -0.7339545 1.5240182 -0.593421 0.08187364 -0.43557948 1.1440591 -0.2046214 -0.72813636 -0.5887467 -1.2361851 -0.98666245 0.4983006 0.7878144 0.07173694 1.0849591 1.7513298 -1.0721229 0.2913537 1.1055821 -0.16849951 0.36417902 0.6847216 1.3150146 0.7502514 1.004289 -0.5226756 1.547091 0.38275605 1.0395128 0.51013076 0.3575725 0.83001024 0.5362216 -0.085676394 -0.9354393 -1.0427654 -1.0714986 -0.086315975 0.71382123 -0.25134212 1.0482136 -0.37925127 1.8317634 0.64859587 0.75025475 0.22686061 -0.10827621 1.0598524 -0.7121999 0.5603661 1.4592623 0.924963 0.18917455 0.15985669 -0.8676148 -1.1173444 0.07308654 0.96620613 -0.1116281 1.3589354 -1.1903787 -0.98740256 1.0758653 0.12654863 -0.2499688 1.271146 -0.25653294 0.059220705 -1.1668595 0.7891275 1.1867392 0.10518972 0.8187452 -0.24708103 1.3315941 0.1582418 -2.0872934 -0.30900103 0.33269456 0.57428706 -1.1941053 1.8856838 -1.1674588 1.1892135 0.3714232 1.1518515 -0.50829613 -0.11611407 0.56458217 0.60813445 0.76195663 1.6879964 0.38640615 0.69908607 1.4770112 0.025795376 -0.18332687 0.43603677 -0.2278833 0.071790844
182 -0.12057536 0.08312669 -0.41647488 -0.3978695 -1.1942084 -1.3113617 -1.0981162 0.872334 -1.0337552 -0.51380986 1.1686339 0.21847603 -0.48667026 -0.5889292 0.76328576 -0.67789376 -0.3473425 -1.6287075 1.1629114 -0.048311397 -1.3159522 -0.7089383 0.77741 0.8782827 0.6284434 -1.860871 0.5807456 -2.5062191 0.2813966 0.4897544 -0.25865427 0.03770634 0.49656612 -1.8840927 -0.09118132 -0.23187064 -2.0993009 0.45450747 0.07043658 -0.46601805 0.16588737 1.3178 -0.13092658 0.99617124 0.91169995 -0.4269 -0.28197473 0.695178 0.93756336 0.98191804 0.28720695 -0.3032171 -1.5641282 0.85757715 0.7923443 -1.1424943 -1.9506555 -1.3467631 -0.2224968 0.6776919 -0.81750804 2.0936089 -1.3498394 0.6908803 -0.79280746 0.15993203 -0.309228 -0.21622466 1.3576052 1.043034 0.2817043 0.4133357 0.474789 -0.9182612 -1.2703062 1.2142262 0.34694588 -1.1774882 1.3263545 -1.9093727 -0.5868874 -0.6786032 -0.60343057 0.7002948 -0.5994428 -0.5961754 0.90516263 0.90082496 0.9206509 0.6276317 0.82570595 0.80431825 -0.60587287 -1.5771654 -0.28097308 -0.1916688 0.6568839 0.08271856 -0.089162216 0.30326095 1.0026008 -0.076213285 -0.6183169 -2.6680784 0.44195625 -0.21750607 0.870946 0.55187106 1.044377 -0.7586847 -0.3803246 0.45690212 -0.8081417 0.9639578 0.24143767 0.9912102 0.64384717 -0.51704794 -0.39012134 1.5932846 -0.048788186 0.08686452 0.69226825 -0.7048454 -1.0308374 -0.28795096 0.11129047 0.66780275
67 -0.5937256 0.496121 -0.488929 -1.8004906 0.29614702 0.67965645 -0.1628714 0.55337775 -0.46867728 0.5743841 0.19577082 -1.1854273 -0.12776372 0.9843222 -2.6811728 -1.2591081 -1.4503024 -1.5254 0.67902553 -0.78333724 -0.98652 -0.018643029 1.8839201 0.0888518 -0.86064357 0.6386238 0.19810013 -1.2193332 -0.12974894 0.16469216 -1.3843493 0.45745906 0.18488473 -0.77242094 -0.026415827 -1.3328348 0.4158312 0.46846035 -0.32658386 0.57983375 1.6790365 0.51128787 -0.038606424 0.37837064 -0.45762563 1.1588634 0.58927053 -0.9139744 0.32156506 0.11095931 0.04289691 0.9703341 -1.6056148 -0.39602333 0.7937292 -0.20781976 -0.60266775 -0.31751052 0.654442 1.1040056 -0.6253065 0.5042559 0.45682186 0.0986296 -0.513049 -0.29686874 -0.29516765 -0.63460517 -1.1712217 -0.16688265 -0.13266999 0.660487 0.4647064 -0.5791392 -0.08154626 1.4639499 -0.9271236 0.2765579 0.1558766 -1.6132509 -0.14068973 0.34871715 -1.8443758 -0.6492382 0.1844395 -0.6303019 -0.41118342 1.592327 -1.8825859 0.30608967 0.22884832 -0.759552 0.40796542 0.65821975 -0.30781564 0.048759677 0.30864182 -0.10434086 -0.28105602 1.0486941 0.98596257 0.3769027 0.33739397 -0.0035119026 0.83770394 0.9327196 0.95176136 -1.4551533 0.34895232 0.3673449 -2.2017312 -0.62460184 0.64165413 -1.5355092 -0.27402306 1.6116874 -1.5582803 -0.31185144 -0.6591376 1.4108498 0.5179386 0.9145715 1.2935742 -1.10965 0.5546923 0.28999838 0.34897035 -0.32670957
166 0.7204468 -0.74333084 -0.42066893 -1.0762708 0.8828384 1.4792078 -0.74025357 1.057531 0.85230076 -0.08523407 0.42384496 -0.98449993 0.46321496 0.44474757 -1.1725391 -0.6241084 -0.44507834 -0.5535498 0.609074 -0.7080978 -1.280707 -0.29267853 0.88723195 0.97555995 -0.19275095 -0.3211371 1.9445202 -1.1424949 -1.3085647 -0.33284086 -0.2537873 -1.0243071 -0.37404966 0.46877518 -0.45669323 -1.0637414 -0.6692001 -0.34496713 -0.27440628 -0.3982949 -0.17204885 -0.25952888 0.34224257 -0.74463105 0.2186515 0.7521008 2.0693176 0.555307 -0.58861667 2.2160804 -2.16627 -0.21864875 -1.7855067 0.37297362 -0.037099306 -1.0666237 -0.46807352 -0.07368157 1.272917 -0.8794484 0.7411122 0.3318604 -1.0964965 -0.8112359 0.37150198 1.9114101 -0.532016 -0.53198236 0.41361994 1.3377597 -0.17229013 0.672747 0.10769814 0.9210508 -0.06891936 0.95400906 0.26262105 0.32558632 1.4834399 -1.7984756 0.03411183 -0.19819905 -1.0068337 -1.6920449 0.39669597 -0.31217578 0.33704287 1.4994383 -1.1542665 0.22231375 0.9870959 -0.81205356 0.0568821 2.0722878 0.15501308 0.028022619 0.42957354 -0.047284205 1.1269724 0.7773459 -0.9585481 0.3554503 0.107065886 -0.08568796 -0.5981379 -1.2794833 -0.9611248 0.7727676 0.17813215 -0.006668472 -2.156985 -0.7213197 0.85683405 -0.7664753 -0.10400417 1.8081813 -0.41471004 -0.5485036 0.34590128 0.07996863 -0.07687864 1.488864 0.034896743 -1.8289137 0.11034064 0.17736103 0.9671963 0.01895658
230 -0.6802664 1.4452876 -0.70503557 -1.3223921 -1.5806535 -0.6686524 0.48396793 -0.2401961 -0.90768343 -0.8002393 -0.43499458 -1.2582642 -1.260179 0.09362535 -0.28232044 -1.7392215 1.0334705 -0.23630716 -0.49345234 0.36437592 -0.40581715 -2.0644987 0.6233496 -0.16057315 -0.24309129 -1.9385626 0.6101486 0.88314724 1.3661128 0.7529215 0.19721465 0.9283205 -0.8852329 -0.086507514 0.8243973 -0.60182476 -0.116571315 0.884415 -0.07777073 0.48691946 0.37468615 -0.61646795 0.8854225 0.91145146 -0.54752845 0.7100196 -3.0336143e-05 -0.32777113 1.3642764 -0.9493673 -0.17045835 -0.4365751 1.2263035 0.33403698 0.4014672 0.44268832 0.053250078 0.6838628 0.65384567 -0.6148823 1.4755896 -0.5133221 -0.26720327 -0.53126925 -0.5882406 0.2375004 1.5507514 0.2387163 0.023241539 1.2318244 -0.3830418 0.080671266 0.52847725 -0.0971555 -0.6272658 0.011916366 0.80861044 0.08294086 1.4082589 1.1490551 1.3474308 0.7385231 0.1292245 -0.029184548 -0.35928255 -0.17875823 -0.35328496 -0.22393517 -1.2430059 -1.0303359 0.60534614 0.7035545 0.14853929 0.47918776 -1.0451941 -1.3217897 -1.550153 0.52799463 1.1162717 -0.40253264 0.018533193 0.20764619 0.23431988 -0.75683486 -1.0374026 0.34374785 0.54228777 -0.29664075 -1.0803641 -0.06168094 1.4441705 1.2493069 0.6082044 0.39066333 0.3333525 -1.1430025 1.8770814 1.2743865 0.8959674 0.5464497 0.5300209 -0.23978113 1.3200905 -1.2810472 -0.10502586 0.30536067 1.3575976 -0.4319575
258 0.36869264 1.1757239 -1.1327071 -0.42372775 1.1733457 1.2681936 0.08817593 1.0193764 0.1146053 -1.4258248 -0.3534381 -0.5137678 0.21020938 -0.28884315 -0.9310724 -0.15672156 -0.9194504 -1.017268 -0.06808809 -0.89529455 -0.5931033 -1.896161 0.40651625 -0.17511521 -0.12148383 -0.32600406 1.3781235 -0.8376946 -0.4574381 0.28440547 0.8040274 -1.3813565 0.18666025 -0.34396926 0.1901955 -0.63153046 -0.8745303 -0.89863324 -0.30077258 -0.69969726 0.35686094 -0.20487912 0.05928007 -0.96739584 -0.13133405 0.20504048 0.785507 0.5879983 -0.64075065 0.37399602 -0.76067257 0.37750775 -0.4851356 -0.70040137 0.14098534 -0.11247613 -0.027294869 0.84758896 0.27069703 -0.018103994 -0.4205339 1.1304442 -0.8253521 0.63241524 -1.0471956 1.0438478 -0.42188996 -0.19377066 1.4543836 1.2071776 0.119478345 -0.015077375 1.360524 0.11580275 -0.44941416 0.42690587 0.73128474 0.6388123 2.8750675 -0.21764421 -0.29807383 0.7438852 -0.20363764 0.10967736 -0.48099422 0.14206472 0.16183737 1.9274168 -1.3857002 -0.8867528 0.930836 -0.4065063 -0.69074565 1.3018458 -0.45050675 0.26966855 0.02614362 -1.2492515 1.3012264 -0.3447445 0.3725693 0.08377652 -0.17135634 -0.61352164 -0.25069916 -1.5465833 -0.5599897 0.28130376 -0.00085031765 -0.09143475 -0.96428883 0.32703415 -0.6884566 -0.54676414 0.036051415 0.09972358 0.04688991 -1.2554704 -0.13647036 0.010741871 -0.72452986 0.14135087 0.3446868 -0.8724856 -0.8636033 1.6070906 0.71217376 -0.048199795
147 -1.6588382 0.70663947 -0.69861525 -0.7562077 -0.32528836 0.97910845 0.73736984 0.5182648 0.16456367 -1.4531856 -1.0723678 -0.17738277 0.3394239 0.73911595 -0.33171976 -0.6049185 1.4124733 -0.37977332 0.453921 0.16805393 -1.0074905 -0.17628795 2.396099 1.797514 0.16100633 -0.4073445 1.2864885 -0.8734497 -0.2548021 0.6249349 -0.47071293 0.80570847 0.22621365 0.07735186 -0.62521434 -0.4801496 -0.44707397 -0.076318905 0.4092488 -0.61167604 -0.52875847 -0.3289687 1.3587213 0.78098196 -1.0788682 0.54105335 0.07260516 -0.70795614 0.103073105 -0.6129708 0.001660162 0.24579492 0.43902913 0.37054333 0.4698993 0.38741568 -0.18626355 0.7524044 0.6064774 -1.4816177 0.06390228 0.24589421 -0.5728723 -1.01678 0.18212491 -0.2469656 -0.5238662 -0.00652013 0.77744585 1.5545548 0.15336284 0.8598078 1.0380205 0.94477224 -0.8286789 1.094624 -0.029932125 0.24740307 -0.18967302 1.2247752 0.20039578 0.76469624 -0.44154102 -1.0198427 0.7583714 -0.97690445 -0.38209796 -0.062408283 -0.41449076 0.110072225 0.6952823 -1.193736 0.04090923 -1.2104135 -1.0589774 -0.45180508 -1.4923453 0.8449075 0.7230794 -0.5844285 1.5418673 -0.088570915 -0.842906 0.046307694 -0.3673659 0.7292053 -0.35997736 0.6537628 -0.41211507 0.9366146 -0.28601712 0.29659393 -0.031329013 -0.35625872 0.33746976 -0.94224775 0.6258475 0.90386 0.9087543 0.8268741 0.7877589 0.6565991 0.7804325 -0.1375497 0.40302166 0.31166768 -0.041569352 0.38554555
176 -1.0472504 1.8171799 -0.4746668 -0.26380146 -0.6005027 1.6522808 -0.19149218 1.0705984 -0.30639833 -0.4686602 0.26624984 -0.52440536 0.27905694 0.7906296 -0.94964373 -1.3491385 0.19461766 -0.119295396 0.9576823 0.36244223 -0.5354007 -0.95586777 0.47072905 1.1594896 -0.7371858 -0.945992 0.6041179 -0.94873387 0.53267044 0.329108 0.48392096 0.26873273 -0.30186933 -0.9363921 -0.34983015 -0.22535163 -1.2999578 0.25199294 -0.32710403 -0.7204855 0.55800194 0.21409789 0.45195028 0.54868895 -0.18068828 1.0361679 0.84768903 0.42726162 0.373826 0.071428105 1.0756916 0.8832472 0.382837 -0.72981113 0.16614847 -0.0054794303 -0.8951517 0.29829744 0.6493275 0.562788 0.008549954 0.055369128 -1.8834372 0.027673973 -0.34405887 -0.11980829 0.18049929 0.1385955 -0.10819705 -0.23752995 -0.5106834 0.69760054 0.3670205 0.6342818 -0.6526299 0.9614836 0.49339604 -0.8512427 0.42494428 0.23456365 -0.5108144 0.52500737 -0.011118527 0.64507115 0.89627886 -0.25072995 1.2586613 0.58666855 -0.022433348 0.050267395 0.23751204 0.062600315 -0.81933266 -0.6022205 -0.5296035 0.21743335 0.5178814 0.5982504 0.15144508 0.09619964 1.32682 0.45024866 0.08306469 -0.33887905 -0.41023973 -0.40781578 0.72344536 0.24749188 -0.78279674 1.0674111 -0.70531917 0.8887696 0.12386449 -0.3576254 0.39463785 0.08576575 0.24608257 0.9650205 0.047417738 1.0771357 0.25144178 1.2205602 1.6603261 -1.140754 -0.1089407 -0.14060916 0.35062116 0.19762442
112 -0.7967243 0.6882917 -1.2350812 -0.89440525 0.27312946 -0.29900298 0.4257352 0.13240513 -0.835264 0.16094151 -0.6350302 -0.69796324 -0.09144167 1.6136752 -1.5677354 -0.36703366 0.65076584 -1.1920221 0.10256232 1.3439647 -0.2736261 -0.16078089 0.92571354 -0.3160766 0.23499931 -0.11593592 -0.3715979 -0.026273664 0.9970217 1.386442 -0.30435443 0.1656235 -0.2293987 -0.028590603 1.1015174 0.6700786 0.13353485 1.1851357 0.6857887 0.43842068 1.4582518 0.6886648 0.78331786 0.6470472 -0.016272519 -0.10267979 0.016751722 -0.34426573 1.0282352 -1.216063 0.95032287 0.9779893 -0.26197806 -1.4671177 0.99229574 0.63201684 -0.41189474 0.14317402 0.6310828 0.4437829 -0.7155729 1.5950298 -0.8814785 -0.214161 -0.6085283 0.31978938 0.08654999 -0.14139211 0.53623474 0.103508726 0.5214065 1.0118567 0.8520315 0.9776778 -0.14619634 1.0420605 0.90421563 -0.9211583 0.44228226 0.35714144 -0.64211667 -0.4646816 -1.5464412 -0.8637985 0.98495495 -1.3741485 -0.45487368 2.04321 -1.641503 0.034153488 1.057077 -1.119371 -0.47397795 0.56128174 -0.551047 -0.6818553 0.6743402 -0.11296809 0.8011647 0.9953594 0.37151194 0.5838726 0.27686906 0.40680194 -0.13095485 0.9688399 -1.0717415 -0.7349364 -1.322081 1.099699 0.26595104 0.09785956 -1.0771933 -0.25572655 0.24740236 0.17051078 -0.9732282 0.3916842 0.8662727 1.1704537 1.5875674 0.6960688 0.1680186 -0.10761215 0.8564782 1.4395194 1.1662558 -0.0939535
162 -1.2175349 -0.012050826 -2.0023541 -0.45231548 0.23589127 -0.04728617 0.14789294 0.5634327 -0.2646605 -0.5909731 0.20080508 -0.8164495 0.7333026 0.29557598 -0.30329427 -1.7469647 0.48231858 -0.7265071 0.38584954 0.8387145 -0.3579409 -0.6303462 0.8866214 1.7550714 -1.1368849 -0.4358978 0.96492404 -0.41181466 -0.25227028 0.13751368 -0.0984394 -0.17281957 1.2421746 -0.902742 -0.88562924 -1.0366027 0.7440105 -0.31210026 -0.00793423 0.22915944 0.0030814079 -0.46360794 1.0622818 0.68241817 0.109280385 0.3243146 -0.04889551 0.6716517 1.1074109 -0.21212755 0.4787343 -0.5747012 0.83827835 -0.40333202 0.939875 -0.026402555 -0.40091953 -0.73419106 0.85463774 0.18891333 0.1681082 -0.7031488 -0.29659978 -1.3411384 -1.1652887 -0.19549882 0.44699925 -1.2358719 0.6919419 1.2883807 -0.21829133 0.5766817 1.7666847 -0.044632137 -0.06570305 1.0142425 -0.2562058 1.0224077 -0.02863112 0.81934 0.33356342 -0.2900654 0.01727323 -1.191594 1.2079897 -0.69779944 0.6246219 1.5401329 -0.026498942 -0.06795519 1.7902633 -1.1798078 -1.0557696 0.4518397 -1.1382445 -0.2111814 -0.62356853 1.1936882 0.7242556 -0.112177506 1.4363098 -0.2735772 -0.049697775 -0.47817346 -0.857462 -0.09464115 -0.3615419 0.49842858 -1.4989843 1.1562638 -0.9356772 1.4538491 0.22428508 -0.17608716 -0.0093451 -1.0644656 0.023338107 0.821939 0.14519863 0.51261353 -0.4412412 0.3539366 0.48913074 -0.9163127 0.8703149 -0.049100157 0.0549773 -0.26206598
217 -0.6296923 1.8108647 -0.94638085 -1.4498518 -0.64120233 0.5697969 -0.15299018 0.30521828 -0.13692145 -0.85724014 -0.09461556 -0.7554982 0.021754459 -0.072143175 -0.59266484 -1.6563294 0.43109062 -1.5499394 1.1471 0.9568468 -0.8625341 -0.15855557 -0.032475997 -0.033151835 -0.5543837 -1.6366296 1.3217617 -0.74429023 0.33502647 0.06386267 0.24956082 0.30065712 -1.1213802 -0.21443318 -0.25527367 0.98838013 -1.3734643 0.5274427 0.38729054 0.17491575 1.071025 0.20286709 0.02991667 0.6565447 0.42301124 0.37499845 1.187932 -0.06298258 0.8075388 0.5470569 0.96174383 0.51575196 -0.30055198 -0.6584205 0.38611254 0.14622575 0.011935811 0.40796152 0.863785 0.18759803 0.83421344 -0.09817094 -1.6364622 -0.3075987 -0.14391625 -0.24114613 -0.97966033 0.67909753 0.875857 0.34784883 -0.5637987 0.8586526 0.4181409 1.1242667 -0.7491896 -0.34308183 0.9340133 -1.150796 0.91250587 0.44391772 0.10602958 -0.07765082 -0.16007154 0.4318314 0.37862355 -0.22529244 -0.034770355 0.9825889 -0.76402557 -0.45067096 0.19706266 -0.35578182 -0.6283499 -0.40047416 -0.5716571 -0.3555339 0.104856074 -0.4418252 0.4025363 -0.330121 1.3496124 -0.25894707 0.70300907 -0.52435356 -1.2535923 -0.017919974 -0.06281549 0.3466149 -0.36226314 -0.46084517 -0.3945253 0.6801671 0.7314287 0.53952813 0.081464805 -0.5153659 0.5770547 0.70482606 0.91469663 1.6557838 0.46151397 0.84216756 0.7335304 -1.2788401 0.25236613 -0.0113435965 0.5532593 0.07232837
201 0.20983392 0.9970093 0.715838 -0.13304138 0.041604448 1.4488015 0.09951362 1.7455338 1.0253675 -0.26544857 -1.9865468 -0.56349725 0.07676964 -0.008870943 0.7237802 0.44407502 0.27659136 -1.813018 -1.71974 -1.7733717 -0.24394326 -0.56511676 0.12543914 1.834883 0.28602675 0.12200793 1.4400319 -1.0770495 -0.4624375 -2.3994174 -1.1537682 -1.6074498 0.6415343 -1.2208822 -2.5176976 1.3136603 -1.1047146 -1.9505198 0.47992745 -0.4053491 -0.13718417 0.26978612 -0.5652765 -0.030174613 -1.1098061 0.8299586 0.94393647 -2.4132185 0.3942054 0.50644547 -1.4750261 1.7560844 -1.9951522 -0.9630192 -1.3541898 -1.3981861 0.07079059 0.630384 -0.7093701 0.78646713 -0.23382787 -0.8660621 -0.9808912 0.33486676 -0.7895868 0.0061440594 -0.67801905 -2.4284997 0.7761139 0.12509464 -1.171093 1.115021 0.120462105 0.8084432 1.9050441 0.64920926 0.64584 1.1641568 0.7491105 -0.11606551 0.33702368 0.397835 1.4399071 0.28043592 0.121350706 2.308757 -0.60347086 0.9442961 0.08421439 -2.1979046 -0.8966369 -0.45181906 -0.3143045 0.5114877 -0.101809874 1.2496982 0.09686208 -0.36094272 -0.5476479 -1.546974 1.615111 1.7030379 0.9897852 -2.2943404 -0.20843127 -2.8628006 -1.2345254 1.1944689 -0.24382277 0.30507085 -0.76609343 -0.0535891 -0.8577887 -0.64472175 0.07650788 0.76997846 -0.072185285 -0.8834396 -1.4426489 -0.27888238 1.7369016 0.66275513 0.76255137 -0.44951487 0.8409277 1.1763495 -0.7201757 -0.06505669
293 0.15932699 2.5107694 -1.1794873 -1.7181857 -0.15042612 1.7785497 -2.009129 1.3148415 0.08274874 0.7537531 -0.06654068 -0.21941921 -0.011125491 -0.09276339 -1.9888991 -0.16202088 -0.6744828 -0.3468686 1.2540005 -1.2691559 -0.8920109 -0.828929 0.73483855 0.14041214 0.82638955 -0.5954371 0.7663626 -1.113554 0.2911227 0.5225519 0.05248406 -1.5559181 -1.3020688 0.046374764 0.98044664 -1.1475062 -0.53754234 0.25739053 1.1976105 -0.73628855 -0.10234069 -0.5014918 -0.50057435 -0.5409422 -0.15739705 0.25175828 -0.8627265 -0.8690509 -0.81871474 -0.17691308 -0.735839 -0.25961897 -1.058029 -0.20322026 -0.7017943 -0.22592896 0.12044313 0.52118266 1.4708924 -0.03680072 0.75959754 0.2350646 -1.3816934 -0.22224163 0.44483784 -0.97067386 -0.4389776 0.5866066 0.6525577 0.44615492 0.09170315 0.36475992 1.0918223 1.0659015 -1.4787471 -0.1767776 -0.20674452 0.7631401 1.2559972 -0.1682981 -0.4504811 0.439761 -1.198729 -0.65576565 -1.2565473 -0.5525259 -0.62198615 0.09640528 -1.91154 -1.4485353 0.038644146 -0.8582531 -0.83330077 0.1931282 -0.9315068 -0.7648537 0.15304394 0.5797654 0.71396387 -0.7327503 -0.50473773 0.11736119 -0.87619436 -1.8773713 -0.23112649 -1.222297 -0.211096 0.16375346 -0.69540775 0.46946442 -0.2932549 -0.32752264 -0.5241577 -0.73434186 0.08084365 1.6021844 0.22971562 1.2680097 0.49008572 1.3375473 -0.37672135 0.53285384 0.26454303 -1.1872246 -0.32038558 1.4280301 0.13000022 0.07077404
248 0.014820389 1.1020027 0.60590476 -1.0750546 0.6676807 1.0069513 -0.16937873 0.8979629 0.39337 -0.84090334 -1.4411732 0.4195361 1.0125766 0.8081789 0.40140554 -0.8801672 -1.2252884 -0.26095507 -0.93676186 -0.85986054 0.3459631 -1.2024754 0.5044301 -0.55160373 0.017595695 -0.4913365 1.3299942 -1.1305473 1.0692624 -0.06371975 -0.9999933 0.19937831 -1.4455688 0.0533565 0.514374 -1.6382018 -0.887655 0.09669038 0.4357761 -0.024332006 -0.025492525 -0.4114895 -0.97200006 0.8009178 -0.95636886 0.67443484 0.8682516 1.2511586 -0.7033711 1.0300848 -0.52113533 0.08882487 -0.10125681 -0.101088375 1.3014925 1.5614611 -0.66843617 2.359771 -0.11022976 -0.10737049 -1.4272779 0.28610036 -1.0809135 -0.13298847 -1.3309125 1.3291055 -0.24404253 -0.17533657 0.40236217 0.8135925 -0.5107702 0.89634633 0.73560387 0.9281517 -0.24016938 0.06633155 0.33108044 -0.29612815 0.07044204 -0.9591253 0.46654686 2.1073232 -0.36649287 -1.5283402 0.2767943 -1.2404156 0.23951024 0.3931719 -0.35181373 -0.031234989 0.37839964 -0.6742519 -1.3042167 -0.48649478 -0.3522062 0.53743273 0.7914694 0.5207558 0.73272836 1.1038646 -0.25177717 0.092726104 0.044925652 0.26412815 0.14017077 -1.6211625 -1.3109652 0.41445875 -0.50429666 -0.9590092 -0.5824524 -0.47219643 -1.8580507 -1.9617583 0.8715153 0.57374 -1.1669645 -0.77253073 0.4542401 -1.3084449 -0.70922315 1.4303449 0.46480283 0.31024373 -0.36209384 0.51569587 -0.019054724 0.29086035
174 -0.19850829 1.6319778 -0.955384 0.49792182 -0.4465126 0.5367147 -0.5215839 0.5851098 -0.5874714 -0.28820664 -0.2308562 0.35184842 -0.5824601 1.2145396 -0.66733986 -1.3905469 0.5033589 -0.5371388 0.2417879 -0.0041120085 -0.52228975 -1.0234455 0.9569355 1.060643 0.54065514 -0.4733268 0.44683102 -0.6220522 -0.043590136 1.1528449 -0.1829274 0.81355643 -0.47141525 -0.03563516 0.11119825 -0.5055425 -0.97720486 1.0001178 0.34246972 0.4543306 -0.4628224 -0.824764 1.0280193 1.0477101 -0.18689303 0.8655733 -0.0946914 -0.4357524 0.82720566 0.48637107 -0.56404865 0.72482955 0.22531232 -0.9574091 -0.12294324 0.65711325 -0.08272292 1.1396652 0.8639642 0.95735043 0.9796191 0.50684035 -2.0822184 -1.2419451 -0.04645816 -0.36059874 -0.37284073 -0.10980906 0.50089973 1.1036786 0.3560803 1.3773884 1.0066165 0.5701322 0.09831182 -0.042291384 -0.2829083 -0.38578248 0.17402312 0.5283823 0.78964716 0.8897914 -0.7095553 0.08038776 0.6763141 -0.36417115 0.3985294 1.5420355 0.00028946955 -0.67643493 0.14432174 -0.123519436 -0.3408284 -0.16452228 -1.7018682 -0.13291292 -0.3266667 1.4383137 0.86445373 0.02875407 0.048646376 -0.43675956 0.15522619 -0.37428308 -1.3978155 -0.12794976 -0.3203151 0.5742942 -1.9743884 1.1314174 -0.45815888 0.117975995 0.035406318 -0.07761228 0.44448248 0.13419172 0.99733645 0.9416436 0.10847988 -0.039015755 0.67462695 0.26607475 0.6050144 -1.4436773 1.0963857 0.8840039 0.9091168 -0.73470527
144 -0.7176033 0.5256357 -1.4437293 -2.1282654 -0.44635633 1.4250016 -1.635592 0.112810984 0.49747005 -0.8957715 -1.7724253 -1.122517 1.0618569 2.165772 -0.6834077 -0.06440918 -1.2046726 0.26980388 0.21472517 -1.8860065 0.83489126 -0.08305339 0.37487787 0.7810388 0.23807824 -0.16627374 0.84162694 -1.0434371 0.5349428 -0.906312 1.6915371 -3.6689658 0.28302097 -0.5181729 -0.12864865 -0.86659676 0.09154995 0.3455222 1.2224091 -1.7202106 1.2073513 -0.05421905 -0.21428613 -0.22191691 -0.118429765 2.0002952 0.7839117 1.1261729 -0.6394486 1.4647316 -0.6825907 -0.09627104 0.5971286 1.3185914 -0.5765358 0.36153734 -0.73476017 -0.38166472 -1.1470058 0.5457609 -0.35481188 -0.32193288 1.0434942 -0.43203887 -0.11322998 0.68056405 0.6467792 1.4365215 -0.7013087 -0.56712806 -0.4419104 0.5119586 1.713337 0.3845506 -1.1169931 1.4304407 -0.4990729 0.114952266 -0.14436288 -1.3767372 -0.68125224 0.34846026 -1.4072187 -0.49460122 -0.5122882 -0.90666723 -0.87655437 0.4148799 -1.9077973 -0.075064205 1.2571758 1.1339457 0.5038473 0.34547383 0.60599965 0.18404016 1.202955 -0.48390037 1.1241331 0.6036034 0.6359907 0.2883262 0.015500572 -0.5174752 -0.08133219 -2.509953 0.4903409 -0.3200408 -1.3740631 0.83175236 -1.6535915 -1.6762232 0.17711422 -0.67871064 -0.14366902 0.98783493 -2.2509596 -1.1632308 -0.58626974 -0.505164 0.3132712 1.1479293 1.2930996 -0.4678725 -0.4941313 1.1014919 0.7269536 0.03988396
109 -0.5672027 0.67957735 -0.40856752 -0.49602997 -0.2803881 0.5732788 -0.15058133 0.30622014 0.4440296 -1.2236022 -0.08986559 -0.42989063 0.11886796 1.2780709 0.233456 -0.83232075 0.7205639 -0.24400619 0.51960164 0.70294154 -0.83616173 -0.64609575 1.3367333 1.7195626 0.4089189 -0.50052106 1.2425513 -0.43718028 0.5636216 0.5588557 0.59819174 0.46021637 -0.075153515 -0.41939005 -0.67698 -0.57233757 -0.6776272 0.45342904 -0.21923558 -0.016010173 -0.7309625 -0.43653646 0.6576306 0.38281462 -0.12314373 0.9432284 0.52691287 0.15516242 0.73750997 0.23964083 0.22544268 0.48300746 0.1260305 0.0714865 0.22890134 0.9001096 -0.053719554 0.690737 0.5650997 0.6767082 0.36658064 -0.20757167 -1.2359697 -1.4383361 -0.23234105 0.10039306 -0.14941968 -0.59387964 0.570253 1.6412994 -0.14917682 0.8999364 1.4227581 0.80835325 -0.040478367 0.3564809 -0.07487846 0.2918517 0.27646306 0.526444 0.42235082 0.33882755 -0.46763048 -0.35419926 0.35681742 -0.59506506 -0.15200059 1.5620074 -0.4633381 -0.426657 0.5008478 -0.8420582 -1.0186785 -0.23500992 -1.5702778 0.38604409 -0.002381754 1.5397457 0.53206176 -0.10663075 1.2045183 -0.29470983 -0.3808676 -0.42268914 -1.1598655 -0.2565592 0.03877012 0.73626786 -0.80987686 1.058968 -0.59427553 0.6322693 0.28197798 -0.16418378 -0.15804875 0.18300025 0.00867266 0.137399 0.05404519 0.55558836 0.107083246 0.3731222 1.3189824 -0.7294343 0.92050385 -0.014142304 0.29801968 0.023273628
299 -0.84144497 0.8760357 -0.38694695 -0.59295225 -0.51810855 0.40695253 0.31417984 0.4508705 0.14272761 -1.5513965 -0.28766686 -0.637064 0.073233925 0.4340104 -0.23125894 -1.1526613 0.61633646 -0.4600099 0.32400227 0.24789613 -0.45608982 -0.48797774 0.8075843 1.8951832 0.7003725 -1.3010185 1.2706503 -1.2237059 -0.29970148 0.6279181 -0.7201083 0.21939002 0.48701945 0.34956703 0.18622227 -0.09246011 -0.24688415 0.56745696 0.22675307 0.15247849 -0.5995754 -0.6805481 0.58135587 0.830044 -0.22886993 0.8295407 1.2032667 -0.43776038 0.5894237 1.3741741 0.28809658 0.061601844 0.23925552 -1.215216 -0.010385396 1.2309138 0.007493624 0.67149717 0.1299033 -1.09379 0.9979672 0.20310198 -0.21747598 -0.86587197 0.21995072 -0.4786693 0.1555553 0.15366001 0.6635903 0.8958881 0.39474663 0.7014445 0.23500836 0.006839564 0.13960817 0.2231959 0.047619317 -1.0915948 0.36119917 0.28696 1.7102355 0.66905624 -0.88766146 -0.05617843 -0.09632249 -0.7073445 -0.15475346 0.27566805 -0.047843892 -0.07909394 0.6028791 -0.06408375 -0.48609444 -1.225151 -1.6538211 -0.7911836 0.16799723 0.37764725 -0.07652155 -0.36699328 1.0264137 -0.7104254 -0.72486585 -0.96915233 -0.30719215 -0.070038535 0.56758887 0.5058115 -0.6036498 0.07066545 -0.3372658 0.3294459 -0.0052053244 -0.21267875 0.6429424 -0.8409341 0.7060271 0.28036636 0.65997493 0.6634521 0.5440888 0.47444785 1.0314773 -0.76140046 0.6017112 1.2476804 0.24402648 0.60241127
131 -0.5815823 0.7644509 -0.6408699 -0.8766122 -0.08912722 0.12708715 0.059674997 0.8270432 -0.08558687 0.1482678 0.30649796 -0.41687366 0.01717913 1.7114094 -0.56936985 -0.8041774 0.08893088 -1.2187301 0.13397168 0.18900123 -0.39722618 -0.27998593 1.5062945 -0.059154153 0.07865736 -0.21394862 0.78845316 -1.3629261 -0.09763872 0.064998865 -1.1077502 1.0987933 -0.5528437 0.2572116 -0.04193917 -0.43114504 -0.7396589 0.07377252 0.57726 -0.1264624 -0.105831526 -0.23127098 -0.044474453 0.2789254 -0.6586028 0.09092664 0.59088355 0.054680552 0.69074166 0.68921435 0.17234372 0.7126801 -0.62219894 -0.34721756 -0.03829596 0.45138234 -0.34766713 0.5531067 1.0018048 0.07185607 0.4014698 0.083880745 -1.345685 -0.833277 -0.3216641 -0.7816927 0.023269478 -0.46529564 0.628041 0.60528266 -0.5780136 0.26692632 0.62858504 0.2990414 -0.4838848 0.82449603 0.30858043 -0.8104731 0.083951145 0.33298513 0.00088621414 0.36438087 -0.12806022 -0.80380327 -0.08411665 -0.019973425 -0.009218144 1.0037054 -0.61934286 -0.4376771 0.3643428 -0.68294996 -1.9267446 -0.89772683 -1.2405047 0.1536814 -0.063680485 0.46770728 0.29425982 0.28974503 0.71792585 -0.3508012 -0.78123045 -0.8270837 -0.4366704 -1.0972424 -0.5212945 -0.12047916 -0.8544338 0.5066272 -0.2882669 0.8318237 -0.30846572 -0.39324385 -0.008780568 0.35545945 -0.33197334 0.08833465 0.3907743 0.77040833 -0.2908596 0.78507537 1.1492349 -0.9177411 0.16489275 0.9400044 0.40433645 -0.5066592
47 -0.065296985 0.91239387 -0.15137921 -0.44715986 -0.032743793 0.8473731 0.56071496 1.5973047 0.33586627 0.7082797 -1.9722272 -0.5804608 1.1029596 1.7619288 -1.2999715 -0.05530664 0.80536926 -1.1578866 -1.6246938 0.88895845 0.5815685 -2.2427866 -0.8635941 -0.19894297 0.6149843 0.3332657 1.0169991 -0.16982804 1.1181045 -0.03840498 0.49403542 0.7408048 -1.5620366 0.85746115 -0.97322977 -0.87004995 -1.4633132 -0.6691202 0.9105581 -1.3092111 -1.2749436 1.0695469 -2.3902512 -1.3289275 -1.8459568 -0.7360467 -0.36336148 1.4153453 -1.04533 0.5367338 -0.42600188 0.8413129 0.2533058 0.8343949 0.87839144 -0.89960927 1.8005391 -0.35220623 0.28976503 -0.6875358 -1.5307562 0.34465903 1.1426085 1.7670522 -0.8119014 0.33381557 0.5434493 2.516318 0.7056804 -0.8098798 -1.1434194 0.9472868 -0.109904625 0.48733053 -2.1261744 1.7973764 0.65000534 -2.6497705 0.7010424 -0.011312742 -1.046683 -0.3941216 0.12143197 -0.6603317 -0.0014922369 -0.115019806 -0.8076039 -1.713505 -1.1246581 -1.1017315 -0.30117366 -0.7042801 -0.78991747 0.7336257 -1.0131758 -0.54038006 1.1137308 0.8473605 1.2601134 -0.09279577 0.55915165 0.46223253 0.8873469 0.09179842 0.79802567 0.19477688 -0.58250207 -0.14030375 -0.4133972 0.6592338 -1.0078981 -0.9651273 -2.50263 -1.9299513 0.61566025 1.6000314 -1.7096983 -2.3669782 -0.09168674 0.39576912 -0.46214175 0.3595171 1.063428 1.0306855 -1.5703266 1.176695 0.8137519 -0.600568
221 -1.2254113 -0.73928785 -1.7337915 0.534176 -1.0437129 -1.164693 0.2273586 0.36066487 -1.185625 -0.7447153 -0.16842645 -0.6350363 -0.08865304 0.9225069 0.27733085 -1.3061078 1.1052898 -0.6849886 -0.10489719 1.0576062 0.16666837 -0.40184912 0.5364036 0.7968242 0.66628695 0.01665046 1.0842086 -0.22853063 0.34555224 0.60864383 -0.7741389 0.15527405 1.6192402 1.0564431 0.17325161 -1.1072786 -0.042573065 0.046605274 0.3835912 0.062025156 -0.6031094 -0.179276 1.2323627 0.9956901 0.9102859 0.40088016 0.87017673 -0.8534237 2.1217046 0.23555572 1.2978232 -0.3586188 1.3931322 -0.37610653 0.4443672 0.8249537 0.5042791 -0.15543 -0.43585017 -1.5327975 1.6924573 -0.7703776 0.17079951 -1.9043648 0.4606766 -0.3565773 0.89966226 -0.7901803 0.43340722 0.29168516 0.14886883 0.019724056 0.6336313 -0.37836358 -0.45619524 0.9093422 1.1018511 -0.77117693 0.21493642 0.33254555 0.4630107 -0.2457704 -0.37608856 -0.4292449 0.7956198 -1.7517582 0.64344734 -0.12661515 0.73173374 0.16031855 1.4634818 -0.6025206 -0.09272637 -1.4030418 -1.3290118 -0.6372274 -0.2090569 1.4674294 0.38656616 0.39480868 0.5021612 -0.42559636 0.24145855 -0.3927619 -0.43951163 0.22025084 -0.06901725 0.49241352 -1.4407653 1.3471413 -0.07888854 1.2960577 0.33011082 0.32914543 0.0022634312 -1.1517643 1.7844937 0.9735973 0.891561 0.48196715 1.0093383 0.62558323 1.0818471 -1.1578356 0.85672367 0.8718281 0.6384118 0.10660496
219 -0.28919113 1.4156109 -0.16634713 -1.7893513 0.41547602 0.32623506 -0.60113674 1.2089505 -0.48433298 -1.1251899 -0.8442122 0.045757934 -0.029249165 -0.10511827 -0.9706936 -0.90585953 -0.40212303 -1.2432967 -0.14225034 0.019178597 -0.27203798 -0.8811974 0.033209 0.8416408 -0.34587005 -0.4630308 0.7420364 -1.126037 -0.07857324 0.7608434 -0.17412564 -0.61661875 0.28160724 -0.1761348 -0.5771429 0.38278407 -1.3557009 -1.119174 0.72716916 -0.46022248 1.0256213 0.40135154 -0.25096464 -0.31300688 -0.009656695 0.37563768 0.82333386 0.55682725 0.063561514 1.0980922 -0.44585574 -0.34594578 1.1217904 -0.59208167 -0.12271596 0.26441556 -0.53848517 1.4583786 -0.38300678 0.6722447 -0.84197783 0.7767533 -1.0100563 0.1608038 -0.17303805 0.6470681 -0.40100992 0.6997982 1.1108689 -0.26374787 1.1151723 0.7841292 1.3586338 1.2426974 -0.5107905 0.25687912 0.25861 -0.5130635 0.40020758 -1.234251 -0.43833685 0.42845774 0.032932974 0.4553715 -0.11397465 -0.58176523 -0.40766177 1.6424322 -0.5060067 -0.6238199 1.2439212 -0.42458296 -1.1833029 -0.12281069 -0.641433 -0.1856944 0.47221434 0.5487037 1.4345691 -0.66516924 0.7548643 0.7587899 0.35197356 -0.89402866 0.09724476 -0.85266834 -0.28929013 -0.021438075 -0.40832493 -0.1253334 -1.7256478 -0.28272006 -1.1744581 -0.22916888 0.48628047 0.08572491 0.07466273 -0.5072961 0.076477796 -0.064621285 0.009947262 -0.3534927 0.68357927 -0.43470103 -0.002043279 1.2117599 0.23961878 0.3518161
146 -0.25533548 0.9523508 -1.2759374 1.0303544 0.112434834 0.28014657 -0.12626296 0.59216535 0.12224852 -0.28386372 0.4966445 -0.0057410845 -0.7134607 1.0134465 0.08541249 -0.70633507 0.41818103 -0.67099625 1.2236526 0.9666397 -0.9253332 0.0185576 0.7934068 0.751757 0.2981663 -0.36643183 0.67924154 -0.7799312 -0.80067706 0.6735002 -0.049367793 0.5140413 0.35183725 -0.19376533 0.08560681 -0.96589595 -0.20119525 0.7615794 0.26918364 -0.59197694 0.25530195 -0.63518786 1.1594244 0.66831523 0.17212936 0.55102915 0.3045549 0.2584833 0.8093847 0.52826244 0.5617986 0.6293116 -0.371473 -0.8868502 0.84879404 0.11912699 0.4049145 -0.4547402 1.0412005 0.5584368 0.85504407 0.7594402 -0.7304914 -0.62262666 0.02357162 0.27278632 -0.038830962 0.42460722 0.9810039 1.6751544 -0.23919077 1.3290098 0.8335673 -0.14592497 -0.0971154 0.5197066 0.21973436 -1.2907884 0.23793548 0.59089756 0.4547351 0.069424845 -0.58136827 -0.57664245 1.1206115 -1.272111 -0.21200377 1.5547018 -0.64531267 -0.22542834 0.5803334 -0.28664473 -0.61127937 -0.83079064 -1.8328683 -0.48539943 0.31095755 0.5356204 0.024530068 0.06972669 1.1832802 -0.41008526 -0.53328586 -0.14128178 -0.94938624 -0.8035883 0.4404826 0.8233061 -1.618748 1.0130994 -0.6902242 0.04347903 -0.10898194 0.6947609 0.39474708 0.15701987 0.593556 0.7730162 0.4903216 1.3113046 0.33297145 1.1275802 0.8001873 -1.6767353 0.49983767 0.643212 0.66577256 -0.6441723
301 0.2232516 0.9719795 -0.17769052 -1.8958262 -0.033509158 -0.2515895 0.028916575 0.59732425 0.25098047 -0.3964284 -0.45770514 -0.7644991 -1.2289019 0.33002573 -0.0898767 -1.1681199 0.26526877 -0.82952446 1.3649628 0.21430148 -1.2580334 0.054587666 0.80431145 0.49957043 -0.3271854 -1.016275 1.68705 -0.5504268 -0.19828711 0.63086456 -0.3942267 0.9513259 -0.6673077 -0.23178113 -0.20959997 -0.02208774 -0.48609254 0.7010208 -0.09730181 -0.09131552 0.920464 -0.78290224 0.320177 0.7416199 -0.6994848 0.29250562 0.76087016 -0.10038146 0.21421015 0.14470847 0.49457145 -0.13853735 -0.30943835 -0.862952 -0.30652103 1.0747842 -0.0880491 1.3145355 1.5774586 -0.29258206 0.38587892 -0.008531358 -0.21806772 -0.63682514 -0.53275347 -0.25080553 -0.34939915 -0.17161956 0.5253644 1.403949 0.21307059 0.640776 0.7796742 0.17730935 -0.4720038 0.061756145 -0.16201536 -0.62073386 0.31420514 0.4255598 0.98052084 -0.015541338 -0.41484097 -0.8380253 0.5132375 -0.25819975 -0.35935053 0.4601895 -0.8267701 -0.13305591 0.55072045 -0.6187209 -0.4323385 0.21900208 -1.5765533 -0.5151932 0.20661353 0.5486137 0.036663424 -0.09514199 0.95627886 0.0531593 -0.58250344 -1.1073002 -0.52106875 -0.45324358 -0.30763382 -0.10069479 -1.2577623 0.33789352 -0.17271991 0.48112115 0.07654209 0.16237691 0.59659356 -0.30808136 0.31160808 0.14678346 0.48352003 1.2574077 0.24638046 0.65746737 1.0630631 -0.6738923 0.12010903 0.41556132 0.5756413 -0.20477128
311 -0.6909401 0.8213217 -0.1565706 -1.472434 -0.34894893 1.4345975 0.10186488 1.273193 -0.027855908 -0.38098896 -0.6641408 -0.4221783 0.4054371 0.7920515 -0.38194335 -1.2760297 1.4778982 -0.5956895 0.7662257 -0.16064017 -0.49231964 -0.3350273 0.46974888 2.2220316 0.87518704 -0.87475526 2.2617595 -0.8576521 -0.12842152 -0.030811809 -0.070054136 -0.6218538 0.26986247 0.1774355 -0.10378825 -1.5571822 0.22502558 0.42203274 -0.61640996 -0.033002406 -1.0634044 -0.26815712 -0.2911892 0.8655532 0.68870395 0.1400607 0.9319215 -0.9726402 0.23702845 -0.33836085 -0.15364149 -0.22335029 -0.6664928 -0.6931161 0.30229622 0.39500722 0.03723214 0.22668633 0.94269514 -0.70716816 0.7152378 -0.058167636 0.10785194 -0.45809296 -1.2130325 0.035075653 0.44663233 -0.7380244 0.23661566 0.9537506 0.14068985 0.38670692 0.90216297 0.59296715 -0.2804945 0.579122 0.11484459 -0.029490085 1.0059129 0.2516312 0.9193516 -0.7281121 -0.60168946 -1.0921226 -0.31160137 -0.13355128 0.52901036 0.09403676 -0.08350465 -0.055701833 0.5933441 -2.186226 -0.13926147 -0.3134365 -0.9018783 -0.25734556 -0.18381637 1.353893 0.15688671 0.034105483 1.6214164 0.3960025 -0.743815 -1.3858701 0.36815885 0.01017752 -0.86647564 -0.17031343 -0.8137863 0.92494315 0.3831414 0.8041831 -1.2223755 -0.12039912 0.36745423 -0.17931443 -0.20367385 0.62457675 0.37049654 1.2106069 0.3787155 0.48336568 0.85356545 -1.0440109 -0.28185865 0.27174395 0.45322376 0.19044305
150 0.046471123 0.3388894 -0.5859512 -0.0046860776 -0.002671592 1.3334408 0.2532686 1.111064 0.15953737 -1.1567115 -1.1651092 -0.34671092 0.048991673 1.1841352 -0.18879367 -1.0254058 0.90001935 -0.44494596 -0.07224763 -0.027373035 -0.40129372 -0.48835373 0.82884705 1.7127203 1.069014 -0.4792075 1.276559 -0.3587041 0.1849626 -0.054085262 0.41850147 0.339861 0.41908008 0.285801 0.017906876 -0.754725 -0.27484456 0.64332414 -0.9490413 -0.06997976 -1.346929 0.40411022 0.31410787 0.5539152 0.80254316 0.5064116 0.8188999 -0.77756286 1.0077844 -0.15337592 -0.2317175 0.31773096 0.57026076 -0.36368728 0.49958476 0.81966186 -0.5768796 0.4990402 -0.02038749 0.6656689 0.9414395 0.5112531 -1.1686223 -0.43589997 -1.2731907 1.3587847 -0.36311257 -0.6139936 0.636151 1.1882174 0.15057118 0.6363973 1.1486572 0.5499131 -0.3899075 -0.22803816 0.12809804 -0.5335538 1.2361239 0.041406408 0.9437379 0.02896649 -0.62176174 -0.9376739 0.69087046 -1.03325 0.8339527 1.0934352 -0.35814455 0.17453587 0.09129773 -1.2283251 0.1544281 -0.07295001 -0.5809877 0.42249155 0.3633659 1.2753773 -0.34798777 0.20563677 1.2166741 -0.61029357 -0.5094535 -0.49928924 -0.41638392 0.18199399 -0.54974973 0.44085312 -1.0873296 1.201967 0.08307705 0.59866107 -0.08578778 -0.22333007 0.8671731 -0.47112542 0.8334853 0.55953956 -0.5295624 0.58173615 0.6810283 0.29167327 0.4223615 -1.2445081 0.67699087 -0.018236531 0.34742782 -0.225323
177 -1.0113446 0.9376838 -0.8503422 -0.30541557 -0.08987951 0.2663143 0.10351242 -1.2640212 -0.31506312 -1.0103495 0.5647785 0.30799252 1.0107269 2.2584062 -0.27043933 -0.17860736 0.18708767 -0.65772986 -0.20282507 0.2708932 0.0706763 -0.92642975 0.7518946 1.2840574 -0.19389163 -0.82229286 0.99275994 -0.5931746 0.27723733 0.6877174 0.9316713 0.35780102 1.009225 -1.6411473 1.0002743 -0.8742484 0.31594527 1.1486866 0.16228764 -0.5859029 -1.2210456 -0.6651532 0.5514873 0.30195817 -0.6559646 1.0126806 -1.0010966 0.7883495 0.8860883 -0.59778094 -0.2577613 0.35384238 0.3604868 0.43805692 0.023543365 0.6352287 0.56104213 -0.57713586 0.23637868 0.58229834 1.129901 -0.06560484 -0.2177739 -1.1006066 -1.8533713 -0.89629966 -0.09858554 0.1966551 0.9736642 2.1721997 0.12405198 0.5649838 1.7601643 1.0178819 1.0245188 0.7017754 -1.229939 -0.40183276 -0.5962133 0.89996004 0.3946646 0.7354294 -0.3063322 -1.3485506 0.08092164 -0.5009524 -1.3859707 0.6103709 -1.5673777 -1.5338619 1.1582277 0.2996542 -1.7194151 0.73573506 -0.71606946 -0.30149245 -0.7376849 1.1554786 0.24366471 -0.7919943 0.08804764 -0.26979527 -0.9198045 -1.2148916 -1.0996811 -0.37105104 0.16156746 1.425152 -0.43605796 0.61823803 0.33160102 0.971761 -0.969464 -0.39282072 0.19279295 0.36405402 -0.8159782 -0.2592679 -0.009941933 0.0978324 -0.34521756 0.646092 1.0808201 0.35051125 -0.16191794 -0.14679316 0.07864341 -0.6344374
13 1.0864553 -2.414665 1.6894617 0.88893473 0.39771953 -2.1984358 0.4020578 -0.73687583 0.41787016 0.97923756 0.16290608 0.6561337 1.5943418 -0.5594618 0.7971536 1.941779 0.3165063 4.011866 -2.635806 0.7981957 -0.095726885 1.0106703 0.7209427 -1.8159993 0.44555885 -0.0090920115 -1.5237337 2.506294 -0.18012317 -0.31914183 1.4342552 0.36728212 -1.7349485 0.22823012 -0.6024673 -0.926122 2.1025937 -0.19437313 1.336359 -0.54906493 -0.15073955 -1.6311917 -0.8799691 -0.7030953 0.3336856 -0.72294325 -2.342362 -0.95132124 -0.03585068 -0.20061141 0.078605205 -2.2234495 1.0580809 0.8153075 -0.041987304 1.0800427 0.28530598 -0.14001372 -1.34962 0.6886134 0.27094933 -0.20069048 0.83385515 0.18963201 0.756527 -1.3061706 -1.8116527 -0.9197255 -1.3622191 -0.73684525 1.6506429 -2.0875938 -1.7493575 -1.7589837 1.2966272 -0.77234966 -0.59903246 0.98462236 -0.9420052 0.93998975 0.96230656 1.3968074 1.0556532 0.5986875 -0.5356242 1.2290621 1.0788436 -2.4250157 1.1285665 2.9060254 -0.8636321 2.0865767 1.1519259 0.70877916 2.733573 0.34476578 -0.2543732 -0.50579256 0.118716985 -0.027947828 -2.3635867 1.1689768 -0.87486184 0.9043108 1.0619624 1.0725931 0.2973014 -1.0941644 0.9975878 0.029981999 0.87899786 -0.00065803813 1.6736373 -0.2194878 -0.50321317 -1.6253053 -1.2806044 0.46210414 -0.48828307 -2.6236527 0.59552044 0.12308923 -2.007941 2.0829115 0.05814734 -0.0449162 -1.7079209 0.45242485
167 -0.0060099578 1.004177 0.76577014 -0.70528316 0.45194075 0.08464092 0.24654886 0.38555092 -0.13136065 0.049323957 0.008313669 0.03370394 -0.8298631 0.31760177 -0.6608641 -1.6560105 1.2187396 -0.48459783 0.7697292 -0.36421862 -1.7014943 -0.7445994 0.23318158 1.3013871 -0.33013502 -1.1975229 -0.043593805 0.08266295 -0.6335454 1.0983422 0.15335706 1.0513655 -0.45373717 -1.2136023 -0.07845098 0.6446541 0.28765747 0.06743659 -0.5109705 0.106733724 1.0246925 -0.55550355 -0.33621484 0.5699071 -0.7212021 0.649514 0.36890393 0.009197032 0.25493342 0.7743866 -0.15891787 0.6386546 -0.13768436 -1.718571 0.4503834 0.38413733 -0.0251887 0.93692607 1.2846935 1.5663124 -0.03428552 0.09505964 -0.86680067 0.19754189 -1.4598912 0.28727263 -0.16094866 -0.7821691 0.3390084 1.2579726 0.06584041 0.38959092 0.21936141 0.50668335 0.4451404 0.3299037 -0.1520238 -0.33703694 -0.34982008 -0.8449618 0.6076572 0.08510777 0.3140304 -0.20130011 0.6073738 0.33532548 0.66340053 1.4033939 -0.90015864 1.1276212 -0.22012083 -0.32362598 -1.4379153 0.460645 -1.1063764 0.020313565 0.5671052 0.7998368 -0.3582576 -0.09721129 0.65571064 0.56899405 -0.29870895 -0.9381938 0.4554627 -0.5144784 -0.014888882 -0.5007271 -1.5270582 0.89494306 -1.1161244 0.8141359 0.33693963 0.35629976 0.57540095 0.0745212 -0.49037838 0.7597027 -0.3085986 0.9180266 -0.12656078 0.28438038 0.9027321 -0.4791959 0.14694053 -0.028810179 0.18283488 0.62987494
65 -1.1795039 1.4102124 1.1538042 -1.0142279 0.79431444 1.2029121 -0.7186324 0.39324215 0.74608266 1.5043579 -3.1383429 -1.5571356 1.4320015 1.097137 -1.5551319 1.3391663 0.8792106 -0.3150574 -1.7137496 0.11760885 1.3654389 -1.4031655 -0.84580785 -0.17309195 0.68866223 1.1660553 -0.09518963 -0.31361476 1.5376182 0.4933062 0.19902243 -1.5464655 -0.58924407 1.0690548 -0.68268025 -1.3892983 -0.068651006 -0.12758815 1.5939312 -0.93159074 0.066352874 0.45132652 -1.1893388 -1.700966 -1.2567587 0.3776722 0.45178884 -1.1072378 -0.81474006 -0.79285926 -1.6557534 -0.039095003 -0.5056234 -0.49257132 -1.3538177 -1.5090837 -0.081881106 0.8157493 0.010156613 0.32304388 0.39387643 0.2921538 0.315421 0.85699815 0.1264335 -0.0057321806 -0.07716256 1.0732098 -1.1446018 -1.5666221 -1.4551629 1.5775344 -0.035200603 2.0315742 0.044117592 0.48631713 1.1894323 0.19738215 -0.073486805 -0.9300237 -1.8431263 -0.6068301 -0.743379 0.6276563 -0.3413501 0.5526889 -0.70621145 0.6936217 -0.97392476 -0.8198311 -1.0376359 -0.9792143 -1.146613 1.585582 0.24874622 0.318794 0.13518117 0.3503424 1.2327213 -0.41499126 -0.6016434 0.3807726 0.94125324 -0.6190218 -0.21725553 -0.46681014 -1.4448177 -1.039894 0.31564525 0.65426433 -0.27841285 -1.4052322 -3.0723743 -1.2443178 -0.593925 2.3589299 -1.9040428 -1.4697388 0.49308836 -0.12692691 0.17772296 1.8407434 1.1048945 -0.04050642 -0.06376517 2.0977497 0.9916868 -0.21153438
232 -0.5628465 0.8718132 -0.086354785 -1.7766881 -0.68555504 0.45640326 0.4725874 0.9891513 -0.09727974 -0.46807408 0.20703839 0.083355315 -0.6911234 0.34332564 -1.1093361 -0.8848574 -0.04840093 -0.83231276 1.0137911 -0.93663883 -0.579329 -0.89886665 -0.8052976 1.1672597 -0.32088467 -1.8359274 1.1545699 -0.2742642 -0.8105888 0.14677924 -0.13294622 -0.5832332 -0.07013179 -0.37952036 -0.817543 -0.08037631 -1.217661 0.21315888 -0.78105927 -0.9390681 1.2948905 0.13711897 -0.5716409 0.41920978 -1.180402 0.8113425 1.9379216 1.7646561 0.24826878 0.44355014 -0.36846566 0.053244237 0.5026892 -0.7405758 0.52825475 0.12846276 -0.09608304 1.4683985 -0.28017327 -0.23851736 0.4917705 0.34888086 -1.4674902 -0.42842683 -1.7046424 -0.09386054 0.4295421 0.24977332 0.17294243 0.5122708 0.15220484 0.17688939 0.92089 0.44957772 -0.7992796 0.08059349 0.97678775 -0.7290492 0.7154929 -0.15386446 0.09924205 -0.22123457 -0.26649004 0.33589357 0.44607133 0.6836477 2.1386776 0.1266355 -1.1467036 0.34291267 0.8695274 -0.7662509 -0.7214244 0.33148107 0.17594582 -0.16319719 -0.7298268 -1.1596208 0.5990332 -0.12801974 1.1955941 0.1452902 -0.23474228 -1.0023913 0.3626214 -0.47871915 1.3191874 0.1996909 -0.044488296 -0.017628781 -0.2756044 0.33732405 0.5002839 0.4595191 1.2052336 -0.96373725 -0.15921782 0.7272439 0.14870726 0.8654312 0.9068682 0.35023382 0.53827703 -1.0346886 -1.1821812 -0.31674403 0.97622776 -0.33736962
179 -0.7934046 1.1709182 -0.10029741 -0.61544746 -0.47109377 -0.37361434 0.108850844 -0.83324623 -0.82070726 -0.7459288 0.9101397 -0.75684047 -0.83791184 1.0544643 0.18248881 -1.1199366 1.297181 -1.4951463 1.5469457 0.2699918 -1.5052376 0.20120642 1.2358831 0.82317436 -0.2162404 -1.325371 -0.12499213 -0.50610566 0.054144945 0.36035392 -0.1121941 0.99348915 -0.58218354 -0.5079274 -0.13894315 -0.2036373 -0.3143778 1.0095187 0.19801846 0.18144695 -0.030594323 -0.087693885 0.6181151 1.4861511 -0.63886833 0.9393876 0.30948728 -0.29911697 0.84179944 1.0120815 -0.15886545 0.9638342 -0.41430184 -0.6114523 0.26915157 0.055039585 0.53977144 -0.60075796 1.461949 -0.055107363 0.92049426 -0.10901134 -1.016267 -0.33235255 0.039232265 -1.1999353 -0.26075417 -0.14207579 0.7110376 0.60044867 -0.8298395 0.67522067 0.541294 0.028398788 -0.80491066 0.1606331 0.15895724 -1.0379467 -0.31089303 0.21738593 0.7852661 0.6314144 -0.5867549 -0.12451661 -0.14249311 -0.15424246 -0.56444985 0.40919417 -0.9307592 -0.1398199 0.42113203 -0.6250004 -0.39160836 -1.0439196 -0.38773286 -0.2145201 1.181455 0.96548855 0.23501033 -0.08700686 0.9273202 -0.26142994 0.18930595 -0.76783097 -1.1378845 0.27805382 0.39457572 -0.06948948 -0.71274936 0.264326 0.025099441 0.4260203 0.43241835 0.10799662 0.037703138 0.2163405 -0.15811694 -0.09687287 0.6115974 1.9263573 0.09310496 1.7285725 1.258832 -0.05150075 0.07308028 -0.19713554 0.86219347 0.2615477
8 0.7949737 -1.0604643 -0.07387427 0.8027429 0.8964468 -1.4796544 0.40567356 -0.7141663 -0.7857863 0.24475294 -2.8489041 0.30832338 1.1738678 -0.11129667 1.0300055 0.5282019 0.011718992 2.2348456 -2.6598349 -0.9601963 1.2183931 1.0662755 0.941093 -1.7233449 0.9733146 -0.07997201 -0.5632608 1.014093 3.1819005 0.22889854 0.46526518 0.8686719 -0.68887675 1.2170026 1.7954513 -0.06382582 1.9728 -0.36847022 2.3812125 0.9513538 0.79669416 -0.7505121 -0.57714975 0.07945919 -1.2495507 -1.427577 -0.8016097 0.6115975 -1.6579776 -1.7452891 1.8002415 -1.183164 1.3502191 0.280216 0.9370584 1.6130602 -0.8879811 0.7433092 -0.43711367 0.58735514 -2.0471 0.33375087 1.770875 0.5797792 -0.6888757 1.2785553 0.056635734 0.10181268 -0.20320012 0.40588292 1.2955908 -0.57900363 -0.21891159 -0.495283 -0.5303663 1.3233403 0.50541025 1.0002779 -0.49501827 -0.5904978 0.2953839 1.3097755 -0.57608587 -0.5352041 -0.10055298 -0.07317867 -0.649441 -1.2825569 -0.7301733 2.281654 0.8356343 1.4542813 0.03198622 -0.60164535 2.1522458 -1.5368891 2.1292527 -1.1045794 0.7037451 1.730784 -1.9199085 0.15397325 -0.48147592 0.9006954 2.4321384 -0.5212877 -0.40351528 -1.3367444 -1.0483412 -1.4273853 0.56401396 -0.3825131 -1.5569259 -2.8947272 0.54227185 -0.5003518 -0.78978866 -0.4328562 -1.3667912 -2.4011347 -0.19478531 0.48459622 -1.6478226 1.8817343 -0.41910136 2.105577 -0.8585725 0.53495675
263 -0.6499656 1.7940047 -1.4260589 -1.4942807 -0.013412294 1.3152055 -0.3797009 1.0230092 -0.6915144 -1.006579 -1.5278504 -1.0184145 0.45123023 0.9002033 -1.2515565 -0.52933425 0.33749655 -1.4689153 -0.44508243 -0.671838 -0.25390807 -1.8119531 0.106930695 0.8599765 -0.19587328 -0.63933486 -0.049090978 -0.821504 0.08889046 0.114893176 0.791268 -2.0972207 0.13546038 -0.05421053 -0.1400199 0.66488516 -0.9719645 -0.37539655 0.56079876 -0.37891936 -0.06085058 0.61116797 0.12749226 -0.11965476 0.6420832 0.40189424 0.75912815 -0.87335306 0.10058736 0.5888002 -1.1550828 0.8672295 0.60239536 -0.0024510408 -0.51849717 -0.36107105 0.03958207 -0.06470105 -0.268722 0.18028766 -0.060625114 0.61851585 -0.18951966 0.7468065 -0.4392248 0.3776318 0.06947666 0.2454051 1.5105083 -0.48497218 0.68329823 0.5135446 0.048062284 0.9930071 -0.44623432 0.39279738 -0.43862176 -0.16839765 1.2421936 -0.7732111 -0.20867641 0.46909752 0.83284664 0.027303152 -0.33173847 -0.3106238 -0.71722823 1.3257581 -1.0715096 -1.5904597 1.0820419 -0.15468067 -1.215995 0.77019036 0.4549346 -0.58234626 0.6690023 0.17276673 0.5403823 -0.47077397 0.1868766 1.5779458 0.3978216 -1.5782549 -0.15253586 -1.2625618 -0.8278408 0.13196957 -0.9430517 0.48635757 -0.094441 0.06866879 -1.204797 -0.5704541 0.061645996 0.2056406 -0.39104524 -1.2976973 -0.31592113 0.00992415 0.85385484 -0.33173844 0.14753954 0.0529415 -0.058451954 1.6246848 0.20669702 0.57242274
94 -0.65138084 0.96974397 -0.54916686 -0.8064541 0.06408039 0.7175021 0.3854309 0.4269998 0.3250346 -0.39201686 0.60250115 -1.1099123 0.6318283 -0.4359693 -0.7706684 -1.034017 0.6074019 -0.23714213 0.52360654 0.12626414 -1.6214375 -1.1123308 -0.42405632 1.3054986 -0.926679 -1.353993 1.8027107 -0.4576649 0.35988715 0.6961689 -0.37008727 0.5856497 -1.4511876 -0.39974147 -1.0504115 -0.07536145 -0.40539807 0.2268581 -0.26249686 -0.358188 0.34188998 0.048716713 0.33758566 0.584459 0.3590595 0.46070516 0.678493 -0.5058693 0.25978774 0.29409665 1.169751 1.0772825 -0.027581455 -1.0805517 0.49705642 0.37033463 0.3030123 0.5517397 1.6390376 1.0508206 0.34905297 1.0371546 -0.013805953 0.28094524 -0.7627233 0.22901866 -0.039897125 -0.43614382 0.16024545 0.42952845 0.6162225 0.37577465 0.001576562 1.080141 -0.31086114 1.2565649 0.3653303 0.17570515 1.0949484 -0.037485104 0.0033716431 -0.41894937 -0.057588555 -0.6336961 -0.1578249 -0.2588686 -0.054580245 0.32816353 -1.4650718 -0.79539746 -0.0779479 -0.6464051 -0.70393026 -0.9493609 -1.0773394 0.22752544 0.0323458 0.6797165 0.1617488 -1.1019528 1.6774021 1.1025417 0.285628 -0.034733485 -0.025412217 0.36316186 0.13053666 -0.43381426 -0.4794798 1.1072394 -1.2723677 0.70990306 0.43158454 -0.21609765 -0.5344995 0.24528831 -0.22414704 -0.44274628 -0.4179605 0.6509535 -0.5421621 0.31754476 0.71574223 -0.7672415 0.47884795 0.37626752 0.5654106 0.4632162
310 -0.6230183 1.4170009 -0.2850666 -1.3612989 -0.41763774 -0.7047653 -0.4702282 0.17678127 -0.4332274 0.019109486 -0.24299422 -0.33536485 -0.4503746 1.1870359 -0.92301166 -1.2599443 0.83692497 -0.7682646 1.5038768 0.23054488 -1.4703063 0.5402171 1.7315543 0.34480554 0.41704658 -0.26845017 0.8897208 -1.1184316 -0.73917997 1.6680696 -0.410434 0.87781686 -0.10038699 -0.103731334 -0.20073304 -0.91170865 -0.35309985 0.72235906 0.21605864 -0.37308568 0.85318595 -0.99072057 0.42369738 0.62460196 -0.3393266 -0.3158893 0.475562 -0.74398345 0.617145 0.6472281 1.0736475 0.48031417 -0.37081796 -0.16920075 -0.38480607 0.71280235 0.43750566 0.24842702 1.3127459 -0.31863827 0.62854666 0.123322375 -0.38840374 -1.2678088 0.3244792 -1.4270574 -0.71606535 0.14153452 0.21241258 0.42255282 0.82452786 0.57430995 0.35729924 -0.5832596 -0.58201766 0.8288867 -0.7537388 -1.1127805 -0.38894472 0.18198386 0.4058962 0.4065128 -0.014088262 -0.02988755 0.19690648 0.09882985 0.06939 0.22012597 0.008286306 0.24618639 0.4208006 -0.4090482 -0.8688271 -0.96086514 -1.295701 -0.38115042 0.31221524 0.45506454 0.23291722 -0.71556467 0.9618004 -0.015405728 -0.20886467 -0.94062066 -0.06014824 0.41481376 0.12797697 -1.1991508 -1.2096125 0.6579613 -0.5214299 0.36559886 -0.3118494 -0.20993626 -0.51341784 -0.23927046 -0.38025683 -0.25078592 0.47975615 1.121717 0.9891935 0.9459644 0.9880582 -0.51955444 0.27874503 0.7074694 0.050718028 0.2733381
292 -0.68981713 1.5219108 -0.17785357 -1.0466741 -0.7792506 0.3872704 -0.19879544 0.119538166 0.119045 -0.1449008 -0.806073 0.38864622 -0.05474668 0.7469073 -1.2206573 -0.7159292 -0.049942452 -0.72706735 1.1766727 -0.98866385 -0.68400174 -0.041014317 0.5915652 1.1099911 0.34249803 -1.7629389 1.0763918 -1.2427675 -0.5868377 0.62075037 -0.07333093 -0.01227884 0.19772413 -0.9024707 0.055756617 -0.7654535 -0.10515015 0.9920618 -0.027335724 -0.0339077 0.9120919 -0.20254065 -0.08330947 1.2571515 -0.68845683 0.41147256 0.054606028 0.13577865 0.33863124 -0.16346318 -0.16985486 0.1886321 -0.5758171 -0.67498374 0.3157731 1.0274012 -0.50265574 0.43946934 0.28449085 -0.07492484 0.70186454 0.3375997 -1.3319978 -0.541373 -1.0365803 -0.8562685 0.035300497 0.27304223 -0.28810096 1.13203 0.48993924 0.7149133 1.0872465 0.35358512 0.35040027 0.7127851 -0.6670948 -0.54236376 0.017576449 0.25463223 0.74781775 0.22016011 -0.65863484 -0.2870053 0.13524434 0.3142368 0.43021515 0.07446774 -0.5036293 0.09232684 0.14280768 -0.0691883 -0.690365 -0.17129843 -0.3326814 -0.47398865 -0.38786504 -0.34706047 0.2611099 -0.70759946 0.7153163 0.08452074 -0.7492509 -1.9554605 0.03739322 -0.8536683 0.48569733 -0.44634065 -0.8643472 0.029860914 0.1753605 0.14822173 -0.63657653 -0.15942614 0.87061065 -0.24839509 -0.38172013 0.4661579 0.2454904 0.56741405 1.4614357 1.0905958 1.1081383 -0.92079353 -0.44247136 0.37674427 0.34150866 -0.06612775
159 0.63926965 1.0064216 -0.2357313 -1.2236325 0.9052455 0.4552837 -0.35877407 0.4141887 -0.08813899 -1.0903217 -0.48579726 -0.6664338 -0.31011057 0.08060276 -0.1577209 -1.2572626 0.34399232 -0.57868344 1.1050805 0.8126417 -1.1105655 -0.90132684 0.7734372 0.899259 -0.20033777 -1.0371174 1.4083166 -0.5575294 0.40982428 1.1380203 -0.27431795 1.2970021 -0.72887117 -0.073346965 -0.58266944 -0.24252753 -0.50299054 0.37601936 -0.28320545 -0.13287091 0.87201285 -0.59866536 0.416456 0.4207757 -0.7585697 0.70902604 0.94563156 0.5029308 -0.2846684 0.6091264 0.27671337 0.09802031 0.06874755 -0.68448144 0.36940578 0.93707544 -0.22061889 1.2098145 1.3827534 -0.05896676 0.33290178 0.4341047 -0.709202 -0.062458005 -0.06960585 0.76003295 -0.5814604 0.31806764 0.7711123 1.1496613 -0.24616133 0.97905296 0.86607575 0.47855675 -0.74613386 0.24636698 0.11207439 -0.46002594 0.7049716 -0.62644255 0.68301946 0.3113983 -0.4763038 -0.901011 0.7279983 -0.7606955 -0.3062899 1.547387 -1.2049478 -0.45460856 -0.0719605 -0.72025937 -0.6829985 -0.11769168 -1.1190146 -0.23564702 1.1676143 0.75163835 0.2968923 0.057057716 1.1487488 -0.46925196 -0.1229679 0.06550763 -0.6502589 0.3563356 -0.14567363 0.0067989435 -0.98225474 0.39158627 -1.01327 0.22411747 0.8336386 -0.42686114 0.3727469 -0.13694084 0.32357234 -0.31238016 0.53156507 0.5168755 -0.13850062 0.7594574 0.54424024 -0.39823914 -0.13560015 0.18629022 0.52039725 0.00026597435
307 -0.42989135 0.5881355 -0.7406656 -1.4868208 -0.53667074 -0.5318841 0.1422729 1.1623878 -0.6840357 0.29028112 -0.16710727 -0.5324147 -1.7144438 1.0638506 -0.17338476 -1.021095 0.5826589 -1.2447995 1.358172 0.4237847 -0.9694807 0.16565119 1.2657473 -0.052048657 0.83541834 -0.3417379 0.9062785 -1.0782881 -0.5543636 0.28337595 -0.4209381 0.9695948 -0.5304125 0.32280144 -0.40923554 0.012975995 -0.7404984 0.19824179 0.3169687 -0.5515246 0.96570873 -0.1410773 -0.35277742 0.44076577 -0.7189669 -0.08383185 0.23408839 -0.75490844 0.7839936 0.29045686 0.706235 0.022539027 -0.59305817 -0.9816689 -0.22196661 0.5501212 0.18011516 0.59646547 1.0517842 -0.29598755 0.10650841 -0.14887567 -0.60165524 -0.67536795 0.112220295 -0.70838875 0.006476457 0.19972365 0.87889886 0.48101684 -0.6814908 0.5125674 0.97505647 -0.048986014 -1.0108737 0.08922658 -0.033590913 -0.85126466 -0.37566838 0.79923755 0.44827014 0.096731864 -0.121066384 0.10330744 0.35776868 0.085885905 0.12047691 0.7952353 0.2352758 -0.0030620382 0.56798846 -0.94635266 -0.79127175 -0.8129162 -2.1260772 -0.022336138 -0.44844908 0.9422393 0.39880207 0.22279191 1.5344026 -0.46395877 -0.92250264 -0.8289534 -0.13482566 -0.7009705 0.09433835 -0.36119652 -1.9011191 0.5169107 -0.49726617 -0.010226569 0.020691512 0.67646396 0.32370153 -0.4574851 0.15292871 0.14638229 0.6685456 1.5155592 0.5204428 0.7171627 0.7690415 -0.7276569 0.18453564 1.2335371 1.4274284 -0.30839965
172 0.21895622 1.160291 -0.89727134 -0.76989895 0.12562357 0.58205384 -0.6885587 1.1226618 -0.4768453 -0.25442755 -0.24428686 -0.36452085 0.0918479 0.6112016 -0.6417184 -0.13543582 0.5527235 0.071797 0.9174258 -0.34638187 -1.2415718 -0.3482678 0.37236086 1.320804 0.30466205 -1.0343118 0.5573786 -0.81368464 -1.3233976 0.1869569 0.36941376 -0.506449 -0.112911366 -0.30452666 -0.8353342 0.44925177 -0.04285067 -0.40471077 0.2591483 -0.7236948 1.1182811 0.45954204 -0.6060558 0.2343325 -0.5456665 0.32036817 0.7010682 1.3758626 -0.7765281 1.4265782 -0.6206178 0.33265382 -0.54514074 -0.8369004 0.028634831 -0.0853673 0.44225743 -0.030930169 -0.17072451 1.158145 -0.2729243 0.829705 -0.38171816 0.1528894 -0.638744 0.67352223 0.22464037 -0.020770162 0.9878724 0.7563209 0.04434261 1.2414885 1.6250949 0.19505104 -0.029296936 0.89477366 0.49238643 -0.9599914 0.14442018 -0.7086689 0.109977596 -0.90864027 0.121618375 -0.89450926 0.6405793 0.6287488 -0.21837403 1.502019 -1.4034206 -0.425646 0.35792786 0.1697613 -0.93943435 -0.23217666 -0.6266712 0.4863992 0.14565288 -0.059091892 0.523691 -0.6444058 1.1079668 -1.0493248 -0.3681938 -0.078932844 0.32357782 -1.5771202 1.1945112 -0.08927549 -0.8002387 1.0513017 -2.5288227 -0.4549797 0.6024106 0.16697565 0.26796642 0.58488387 -0.16848278 -0.12508489 0.17557359 1.0138758 0.373448 0.8959293 0.22925438 -1.1630887 0.060396217 1.2354931 0.7341574 0.2489012
119 -0.90922004 0.39619243 -0.4693037 -0.014696156 -0.57804793 -0.5896768 0.33138216 -6.38983e-05 -0.78557265 -0.52540785 0.46265304 -0.743726 -0.098907515 0.5941971 0.2689406 -0.92203414 0.6554057 -1.3311317 0.6397332 0.1797409 -0.7199957 0.4995733 -0.05331589 1.0037216 0.5489899 -1.0720432 0.9521089 -0.16811904 0.23493962 -0.6374109 -0.1683624 0.34891483 0.03413006 0.13081963 -0.010017766 -0.8647653 -0.3561054 1.0575422 -0.58218724 0.27465272 -0.84798676 -0.021673871 0.4457851 1.3695222 1.1703156 0.38984764 0.41566393 -0.9797209 1.6737963 0.48241052 0.34448707 0.32532132 -0.4664359 -0.5429271 0.41649586 0.4474007 0.6941831 -0.1911132 0.86183757 0.5764335 1.4404752 0.47555795 -0.5033556 -0.58089525 -1.2719208 -0.43807963 -0.38328898 -1.1912693 0.8942303 1.2533107 -0.56842285 0.5162598 0.8229843 0.44528455 -0.09177813 0.08053256 0.5671109 -0.38975626 0.6382464 0.28835046 1.0878633 -0.57760113 -0.40997848 -0.8242389 0.24293938 -0.57754153 0.31543186 0.8576206 -0.758721 -0.4342828 0.5654345 -1.273436 -0.06641833 -1.0972741 -0.6959164 0.12628119 0.683827 0.98419064 -0.41483703 0.028646324 1.4000288 -0.2776168 0.6032754 -1.18784 -0.77839774 -0.3942724 0.022529751 0.22988926 -0.83168375 0.54310614 0.4620735 0.5074176 0.07882156 0.3345714 0.5610494 -0.33515072 0.4942624 -0.4781857 -0.1724226 1.2352571 0.32990375 1.1430475 0.9049248 -1.307141 0.7291201 -0.08014672 0.9202029 -0.67150766
203 -0.8920447 0.5538908 -0.07171791 -1.695893 0.59489125 0.6038882 0.07107611 1.6386917 -0.18931553 -0.121437795 -0.7670452 -0.19094037 0.99134976 1.1095616 -1.4048959 0.24928458 0.20608667 -1.1549774 -0.46506736 -0.005795972 0.8564086 -2.263864 0.286174 0.27785227 0.15895063 0.31804258 0.11772965 -0.7875692 0.8710677 -0.32804632 -1.2993044 -1.7436377 -0.46154785 0.21462917 0.37162787 -0.64012855 -1.7790118 -1.3483422 0.6706118 0.1269425 -0.837953 -0.33587855 -1.0893593 -1.4103105 -0.42997846 0.14559641 0.53443456 -0.69842 -1.1807739 -0.05448587 -1.367529 1.4843864 -1.223938 0.26148114 0.38726404 -0.2302843 -0.28997898 1.6325194 0.058217056 -0.24161781 -0.84988356 0.58315027 -0.6216126 0.6611578 -0.047236785 0.5252224 -0.49256346 -0.82094747 1.0428414 0.3708038 -0.47859573 -0.037035927 0.07206214 1.0902019 -0.98951465 0.5894153 0.9443326 0.9245265 1.2616162 -1.4662951 -0.797999 -0.17167187 -0.5779513 -0.4690654 -0.14535339 0.009496447 -0.07169998 1.2909722 -1.3212634 -0.4616692 -0.011107439 -1.5535094 -1.3060333 -0.24641435 0.04942359 0.0069734324 0.4477054 0.105938315 1.0664792 0.86427087 0.043695033 1.5016267 0.10667622 -0.901029 -0.3205366 -0.6929391 -1.5858732 0.49152443 0.6726531 -0.198063 0.09178968 -0.08165463 -1.0255775 -0.8708223 -0.63227123 1.0003294 -0.49204645 -0.24070562 0.14365296 -0.53051895 -1.2565984 -0.33605015 0.031887855 0.693007 -0.37089023 0.93216926 0.5106921 -0.18865082
306 -1.3048211 0.88879 -1.7467827 -0.20542493 -0.7697496 0.7829358 -0.24196781 0.6638562 -1.0854143 -0.090305805 0.73439944 0.08847613 -0.20561202 0.3939739 -0.12184671 -1.3226681 0.58902925 -1.5080553 1.3055444 0.15707237 -0.49978456 0.017562222 0.4514984 0.34608445 1.1043719 0.6120649 0.6451239 -0.9897711 0.10484934 -0.15485173 -0.3679617 -0.18828185 -0.11368356 -0.07169631 0.06696097 -0.22802155 -0.70308936 0.5326625 0.64271146 0.09488851 -0.23281914 -0.4860812 0.20318529 1.3734727 0.52776015 0.2530355 0.10538842 -1.1956693 0.5996835 0.12558243 1.1702873 0.26493043 -0.60361475 -1.2025467 0.15168929 -0.104991876 0.6780413 -0.07685795 0.80073917 -0.3912423 0.38235176 -0.50091976 -1.3501774 -1.0742828 0.20689262 -1.4002874 -0.34417894 -0.66548026 1.0659177 0.28507546 -0.5067549 0.275046 0.80830014 0.057689797 -0.4042337 0.067016594 0.34763068 -0.1512446 0.064263254 0.67884004 -0.039685864 0.3199389 -0.59153783 0.17012419 0.37124157 -0.42719823 1.1387138 0.56658727 1.1239942 -0.41964445 0.7508256 -1.9883949 -0.3209876 -1.8889576 -1.4135886 -0.003670432 0.38018113 1.3646698 -0.062387444 0.2926579 1.1290809 -0.27348712 -0.271515 -0.31823087 -0.63228863 -0.70175284 -0.87094736 0.74887365 -1.1824499 0.5287614 0.017248617 0.7153574 0.3526221 0.2490824 -0.015788468 -0.51281977 0.1279838 0.96046245 0.79577184 1.2145146 0.53062755 1.0100343 0.79040223 -0.82560986 0.14355938 1.0902888 0.9471571 0.23266043
313 0.47995237 0.19290902 0.40153432 1.0951741 0.86487883 0.9639191 0.13988891 1.0203176 -0.6803082 -0.12046777 -1.1979291 1.3407611 2.198743 -0.5392693 0.348599 -0.9582947 -2.4279745 -0.3894809 -1.9010279 -1.530621 -0.10930229 -1.1640717 -0.74253094 -0.8393429 1.1488569 -0.27530906 1.7261635 -1.3289355 0.33218092 -1.5566726 -1.2928572 1.8667667 0.0918428 0.33264288 1.5558764 -0.17841868 -2.5362756 -1.7596391 -0.3815904 1.032482 -0.11520726 2.0024054 -1.2594943 1.5095209 -0.6849627 -0.57138646 -1.0180551 2.4456081 -0.6690041 0.6250079 -1.1384792 0.9636237 0.34582242 0.7270927 1.210664 1.4793017 0.2907104 1.9307884 1.6324667 0.46090856 -3.1841779 1.2981135 -0.66685444 1.2060041 -0.76409465 0.8544646 -0.6829433 -0.5672876 1.0062418 0.64778215 -0.3450253 0.6776916 0.58960646 0.9841705 0.53660536 0.04452106 -0.90501225 -0.7137485 -1.3662915 0.57289934 -0.951152 0.29976937 1.0945916 -0.21830334 0.072425686 -0.88832814 0.75597996 0.22234094 -0.60037994 -0.15396957 0.025002738 -1.6050673 0.63952744 -1.5276039 0.59095854 1.5601821 0.11198292 0.17730394 -0.36793843 0.49521738 -0.11749691 0.9582953 1.8769702 0.23542036 3.336241 -0.2790131 -0.5881606 -0.45685413 -0.18605818 -1.3114635 -1.9867319 -1.5593421 -0.43896246 -2.7654595 1.9818515 0.8674417 1.0721847 -1.2972361 -1.6414944 -1.4895915 -1.6694933 -0.05566593 -1.1577654 -0.24430682 -0.7502156 0.5378186 0.23884062 0.3192154
123 0.78242755 0.31364796 -0.016961582 -0.49955067 0.7306777 -0.6613112 -0.4774522 0.41367075 -1.1404969 -0.5311705 -0.3353735 0.12524411 -0.8681162 0.9713378 0.60972923 -1.3295805 1.8730044 0.06526658 1.2584153 1.0460206 -2.3950937 0.23583941 1.1669121 1.0941157 0.7648216 -1.03444 0.58871657 -0.9592027 -1.3683178 1.9920083 -0.12287686 0.6600102 1.0421351 -0.5922073 -0.98367 0.50239444 -0.44172704 0.14889981 -0.0098681925 -0.48373502 0.61215246 -0.21448418 0.43369997 -1.0498755 -1.2449074 -0.6978391 -0.250416 -0.16289957 0.21034463 1.7583587 0.21954824 0.12737629 0.18674712 0.14142032 -0.5333002 -0.4942934 0.666456 -0.23740505 1.2313946 -1.211927 -0.16182625 0.37358347 -0.75761896 -1.0944923 0.6733418 -0.42227274 -0.42585412 0.82916117 1.1408268 0.9766621 0.41375676 0.9235103 -0.29977018 -0.33157164 -0.71383023 0.02762182 -0.90011173 -1.8566947 -1.0185167 -1.2724372 0.90012133 0.36978537 0.045218363 -0.020367607 0.9229817 -0.09909125 -0.71188253 0.5743671 -0.65755177 0.8061632 0.238165 -0.7112835 -1.1816787 0.069830194 -1.7963183 -1.4969944 1.2861956 -0.13897145 0.9461552 -0.8256186 0.9559687 -1.0073775 -0.15238164 -1.4642643 0.38603666 2.543818 0.29939413 -0.4425311 -1.7314527 -0.3081996 -2.0497472 0.1535441 -0.7116801 -0.2549798 0.1946394 0.32742968 -0.2503115 -1.2512009 0.567137 1.5808545 1.2265626 0.64702946 -1.371135 0.6793785 0.09410311 0.46150443 0.020953368 0.51207066
161 -0.09753348 0.80818075 1.3936933 -0.09138008 0.6964483 0.00245536 0.31506133 -0.13628677 -0.23190089 -1.0929366 0.64157677 -0.8271434 -0.35608488 0.66732687 0.10321155 -0.6788284 1.6549146 -0.24393764 1.4228051 0.6179093 -1.9647223 -0.9070796 1.6668106 0.35398656 0.0064118737 -1.176638 -0.25708115 -0.095728345 0.80258304 2.363475 0.010896331 0.90086097 -0.90706044 -1.8591408 1.1431433 1.1869236 0.93501323 0.87705165 -0.26682281 0.21227914 0.94300437 -1.1388973 0.8330373 1.8449754 -1.3600227 1.2472506 0.39323744 0.2619095 0.8564043 0.4570053 0.11986525 0.62190366 0.6496635 -2.0262449 0.52008533 1.2741497 -1.1986569 0.9964318 1.7866226 0.772231 -0.17650256 0.70854944 -0.29731375 0.39079142 -0.5675616 0.46088102 -0.5139384 -1.1579123 0.6725819 0.68280697 -0.40711728 0.6098026 0.41092634 -0.14915681 0.91291636 0.27518564 1.43096 -0.031341407 -0.22089936 -0.37977546 -0.12680972 0.5373985 -1.3849258 -0.08753964 1.3850031 -1.5120561 -0.35468695 1.5054255 -0.34756437 0.8903131 0.15633674 0.10101802 0.13616437 0.651924 -0.6593026 0.2969224 1.3542752 0.5422605 -0.21459033 1.3316609 0.14410463 1.0754232 -0.21366347 0.30928907 0.08192309 1.0245162 -1.7468977 -0.44179955 0.30306366 0.72081333 0.024073634 -0.09708384 0.5748487 0.50986785 0.22723132 0.25570107 -0.3313177 1.9154748 1.1599644 0.77491874 -0.8610255 0.84120315 1.3458753 0.26788008 -0.04695352 -0.4255907 0.11749031 0.7637213
246 -0.51014906 0.91720873 -0.85084957 -1.5377427 0.43088567 1.1199112 -0.49634036 1.10829 0.024477456 -0.64090854 -1.8099107 -1.3168352 0.78058773 0.544733 -0.7764285 -0.7938916 -0.41089782 -1.717495 -0.15324612 -0.9343023 0.2764166 -1.6638352 -0.007173114 0.4359835 0.33310542 0.49350393 0.12728958 -1.2148494 -0.016447963 -0.58535284 0.28203923 -1.8289205 -0.13832662 0.053464923 -0.5057523 0.2957145 -1.2599955 -1.1586547 0.62492573 0.28010404 -0.3978064 0.85590583 -0.5913037 -0.5299807 -0.1798068 0.31345 0.6038358 -1.014745 -0.40537333 0.77608645 -2.1005533 0.9141596 0.496179 0.08099469 -0.2866297 -1.2610351 -0.5498214 -0.048929438 0.20605327 -0.28841287 -0.15506355 0.3245922 -0.23236722 0.69904757 0.2890279 1.3271149 -0.46184385 0.58160985 1.148958 -0.98632747 -0.3368001 0.9160388 0.15701674 0.9348711 -0.80906355 -0.4592429 -0.79120505 0.58960754 0.4442976 -1.3399063 -0.62485904 0.8304434 0.48982227 0.30056465 -0.64487195 -0.56713533 -0.18919717 1.179492 -0.47361264 -0.99032664 0.6242946 -0.85860634 -0.8034909 -0.20182915 0.8485878 0.4828319 0.34961823 0.11115792 1.0520064 -0.1090654 -0.0022324554 1.4238154 0.6141707 -1.3659668 0.43385616 -1.0810949 -1.3250327 0.09866775 0.04972935 -0.6464234 -1.067007 -1.0477468 -0.6590593 -1.2669408 0.023119032 1.1742471 -0.41132957 -1.0539052 -0.76178575 -0.56150043 -0.26359123 0.01652297 -0.41026035 0.50560397 -0.4685718 0.99388576 1.0440005 1.0257169
183 -0.7569359 0.57387906 -0.69862187 -1.1012585 0.5108237 1.1964529 -0.36121088 1.5212859 0.1002705 -0.7557638 -1.8452581 -1.7197429 -0.2515248 0.3988713 -0.16059472 -0.27512074 -0.6299071 -1.1503121 0.590923 -1.796331 -0.37844098 -1.5160888 0.5072387 -0.2068858 -1.2259535 0.97703326 -0.99098545 -0.9622468 -0.70802355 -0.13886441 -0.019547213 -2.631895 -0.6626411 -0.05791986 -0.64300424 0.027154082 -0.07634247 -1.039982 0.22636151 -0.3477451 -0.061735906 -0.2513396 -0.3709442 0.5533805 -0.73975855 0.49695617 0.9736677 -1.8470706 -0.67334807 1.2756855 -1.806988 1.2211436 0.5173449 -1.3711988 -0.39633232 -0.63798213 0.08756307 -0.087288134 -0.4795445 -0.40803817 0.18690173 -0.20409678 0.8280044 0.63041836 0.13554116 1.2035383 -0.500847 -0.101647034 1.9761381 -1.0592121 -0.21815428 0.98600733 0.49193186 0.4680916 0.0072643585 -0.40114993 -0.7732303 1.4120215 0.19241008 -1.0670933 0.07625777 2.2728477 0.003890313 -0.15271458 -0.16514403 -0.35812694 -1.281802 0.8540933 -0.15114714 -1.3445554 0.48172244 -0.21674946 -0.6381086 0.4259547 0.078634866 0.30125996 -0.010759865 -0.22061169 0.83038086 -0.30563983 -0.708625 0.84414893 0.5533504 -0.40143266 -1.0295706 -2.34994 -1.6005638 -0.1816179 -0.07444083 0.4483487 -0.583622 -1.0369303 -0.761511 -0.75985485 -0.53434384 0.4455206 -1.0817959 -1.0581993 0.04480995 -0.1796539 -0.06885 0.8225315 -0.5284499 0.8139734 0.48509204 1.307098 0.2777462 1.5971975
327 0.008388631 -2.3659353 0.53146863 1.3610533 0.2676832 -0.117600694 -0.07266333 -1.0136936 0.08509456 0.28276956 0.43107903 -0.4943546 -1.8319012 -1.3918877 2.4381742 1.3455473 -1.0635793 0.98516136 -0.73320436 0.9672379 2.6434019 2.28714 -0.9313907 -1.4345542 -1.2175883 1.2122184 -1.8024507 1.4578056 1.0745968 -1.8582594 -1.1171232 0.5150203 1.4209734 0.981774 0.43079165 1.4558281 1.2326733 -0.17607358 1.047056 0.05047949 -0.31164747 1.3754029 0.98803 -1.0262843 0.9406819 -0.69945633 -0.58248174 0.33019805 -0.4436213 -0.031380225 1.2704909 0.78250736 0.56470937 2.7701914 0.077577814 -0.75676453 0.3579667 -1.0333825 -0.86747384 0.5348042 -0.5665659 -1.0526873 2.354309 0.33145574 2.2881224 0.70085776 0.95351857 1.4169121 -0.56876016 -0.47512394 -0.9412977 0.06479647 -3.0417051 -0.44445473 0.33003828 -1.5686992 -1.5019925 0.40379798 -1.2368613 2.0922115 -1.4381294 -1.9826292 1.1799119 2.293304 1.5693072 0.72094923 1.4309922 -0.63133687 1.4739672 1.1849984 0.021177161 -0.7916306 1.2155154 0.18263705 1.374682 -0.027193205 -1.5672715 -1.221628 -1.7985176 -0.27275336 0.16560066 0.037743926 -0.47907123 2.1360247 -0.15301993 -0.53278196 0.38656372 0.6171971 1.4716744 -1.8479816 1.8812809 -1.171647 1.1157566 1.3490413 -1.5320883 -0.8860458 1.3307976 1.0829073 0.6135499 -0.71519375 -1.2074898 -1.2398789 -0.605438 0.7396768 -0.8365682 -0.77652425 -0.11652099 0.121331185
95 -0.982834 0.88174367 -0.18310583 0.556722 0.24555136 -0.31929553 0.6638967 -0.32477188 -0.76837546 -0.59744346 0.5733296 0.14900878 -0.17379802 0.9288697 -0.08484115 -0.9568857 0.21147981 0.21832955 0.4908132 0.7874941 -0.047449075 -0.06918421 1.0400974 0.78667486 -0.040763818 -0.42546442 -0.38145998 0.25788245 0.38869873 0.014469776 -0.37674987 0.53095037 1.6338403 0.13242777 -0.0926768 -1.7501794 0.51652515 0.1144467 -0.3259099 0.09209625 0.029334616 -0.74747634 1.2247288 1.0908505 0.48417792 0.6517729 0.17729759 -0.119464405 0.9606414 0.2911912 0.36479545 1.0226696 -0.26817656 -0.05951215 0.32462507 0.7824595 -0.21975505 0.25867897 1.2322108 1.1225628 0.2948531 0.82956403 0.35847208 0.11310893 -0.5677864 0.2663593 0.051950045 -0.25541303 0.19175582 1.100278 -0.5460828 0.7170095 0.22596228 -0.8799936 0.20792782 0.7523658 0.2559568 -0.99387413 0.24125615 -0.48092768 0.5855841 -0.2646202 0.26108596 -0.5730198 0.75959826 -1.5059648 -0.064509645 1.2225633 -0.65395355 -0.42381164 0.07322209 0.2801916 -0.5257954 -1.0147558 -0.7567469 -0.14435671 0.9116628 1.2308474 -0.5667021 0.18744512 1.8967733 0.5877237 0.47574347 -0.36759052 -1.4512665 -0.34870657 0.55517197 0.43245617 -1.2550839 1.2997068 0.10854258 0.2893969 0.35894975 -0.33924413 -0.15549473 -0.5316985 0.64480036 -0.23475826 -0.69512427 0.49810085 -0.4769643 1.8038465 2.056774 -1.7979585 0.4844848 -0.0032333569 -0.039385125 -0.9918205
197 -0.97169006 0.7430121 -0.46802062 -1.5822861 0.67266417 0.63394463 0.36516306 1.4472166 0.43882275 -0.726978 -1.6218761 -1.3527709 -0.08669623 1.17714 -0.22893743 -0.3152703 0.020065235 -1.162055 0.16560483 -0.29718444 0.71952933 -2.018195 0.14783898 0.37562355 -0.58821225 1.0626503 -0.8026259 -0.26396173 0.19143203 -0.2414611 0.82193446 -2.299967 -0.29366764 0.108153805 -0.9886945 0.6143006 -0.35504052 -1.2352599 0.82380944 -0.26877564 -0.23340443 0.06429092 -0.6654605 -0.8183548 -0.20034266 1.073269 1.0987087 -1.3176857 -0.43706667 0.15933825 -1.5750586 1.7044269 1.2341315 -0.31724873 -0.6302708 -1.199474 -0.38426402 0.21800488 -0.526425 -0.19194858 -0.35895485 0.003378028 0.6852428 0.48249117 0.09604342 1.5172104 -0.0481038 1.0370326 1.3756055 -1.3835917 -0.1396515 0.70409507 0.28411585 0.5418741 -1.0849363 -0.5684042 -0.39510822 0.38154438 0.22257167 -1.4541045 -0.1478097 1.2387244 0.49858966 0.25245854 -0.30271423 -0.94905937 -0.7174907 0.5916207 -0.81869125 -1.2297649 0.8033252 -0.30569527 -1.1269723 -0.8487992 0.36242107 0.0054050395 0.17557958 -0.37947822 1.3608955 0.10072199 0.33322772 2.3108437 0.23980528 -0.961223 -0.20318094 -1.0081081 -1.5785924 0.08273306 0.17422104 -0.18753368 -0.3049103 -1.0574805 -0.98167896 -1.0832834 0.12376159 0.5809328 -1.5013437 -0.83946174 -0.82757026 -0.30513045 -0.020494498 -0.2947691 0.17785513 1.3075757 -0.06522289 0.7728741 0.692166 0.99661076
212 -0.71569884 0.9255684 -2.254121 -0.08746731 -0.9390887 0.38024873 -0.29443088 0.5861635 0.08533389 -0.76240975 -0.49885765 0.3786169 0.76222205 1.9130741 -1.1810725 -0.58935326 0.23689733 -1.0654991 0.7473747 0.35267535 -0.23422618 -0.8952236 0.86687434 -0.5349434 0.23526256 0.20877083 0.90210426 -0.41921046 0.40660113 0.66059154 0.16106197 0.5256329 -0.3586601 -0.18203859 -0.00854388 -0.26971787 -0.63467354 0.90846163 -0.26926044 -0.404333 -0.057980042 0.015136424 0.57716906 0.37069732 0.9221121 0.25560558 0.6719877 -0.1706304 1.2945757 -1.0097872 0.9954106 0.18022335 0.9914801 0.2232382 0.9791921 1.2317588 -0.12147707 0.28802428 -0.39611855 0.56215304 1.2441725 0.04351224 -1.4259202 -0.6857638 -1.0819348 -0.12781553 -0.98627096 0.72802764 -0.00059412955 1.0508902 0.2034083 0.29359737 0.7799992 0.698432 -0.048367955 0.5123762 0.07398906 -0.33204722 1.168581 0.2502251 -1.0119058 0.19059774 -0.2123356 -0.50617456 1.0827534 -0.5288334 0.1385957 1.0174137 -0.081204005 -0.5043038 -0.25165695 -0.45432454 -1.2066618 -0.5451804 -0.50476795 0.7178706 -1.1477556 0.55418664 0.06872492 0.10316799 0.73921126 -0.76431924 -0.40495056 -0.48768985 -1.1485647 -0.054180365 0.18603608 0.75007063 -1.236081 1.3510686 -0.2064245 0.9955018 0.8998003 -0.09318811 -0.37776965 -0.8413906 0.42814174 0.9020467 0.49477246 -0.016720554 1.2844048 -0.08082057 0.33048958 -1.5854543 0.4589578 -0.103829056 0.081042685 -0.74471104
296 0.8507618 1.2103543 -1.1546159 -0.19647188 0.7502763 2.5089684 -1.534625 1.0184305 -0.6276064 -0.7803408 0.21036209 0.15422733 -0.7865796 -0.029746884 -0.9297755 -0.31865948 -0.13000186 0.9752399 2.0412512 -0.5402033 -1.4236534 0.20797984 1.4811332 0.6891476 0.30838722 -1.9399482 0.19208801 -0.9942545 -0.56754297 0.7181605 1.0289706 -2.0356967 0.9470312 -0.5023156 0.50441116 -1.0191144 0.4829708 0.687394 -0.016691599 -1.5833021 0.67807204 -0.4176142 0.8383703 -1.4876891 0.7409147 0.27605736 0.44615516 -0.05546936 -0.4563293 -0.35734692 -0.4397466 -0.58802915 -0.80377287 -0.15598722 0.3486002 -0.38993543 -0.13606428 -0.61081797 0.7277075 -1.9978975 0.61588985 1.1889623 -1.7274162 0.6063302 0.07937625 -0.6247408 -0.20001046 0.44135633 0.29644927 1.039125 -0.3763048 -0.72490394 0.16091175 0.43290767 -1.5729566 0.6913453 0.46507138 0.13377634 1.6552286 -1.0958836 0.37926924 0.76303834 -0.7476646 0.14236027 0.41854763 0.38820428 0.5545009 1.4437085 -1.9147975 0.71911347 0.45605317 -1.9393005 -0.20758724 1.0373205 0.039859157 -1.3809705 0.9197239 -1.776036 0.07927327 -0.5120852 0.7807641 -0.6689874 -1.4363338 -1.212749 1.200382 0.83819336 1.1287879 -0.7423856 -0.90457755 0.13986664 -0.27446204 0.575357 -0.63116115 -0.13536021 0.44092754 -0.66367096 0.038653284 1.0273142 0.57661384 1.3951757 0.8811018 0.3280382 -1.993837 -1.3759941 -0.90741616 0.63154715 -0.6682983 0.026905738
284 -1.4473715 0.558653 -2.1224976 -0.56570524 -1.0608512 0.9607191 -0.5209343 0.5250105 -0.268901 -1.0348872 -0.76397395 -0.78443056 -0.6101027 -0.6307208 0.1951888 -1.1669607 1.0376722 -0.7210735 0.88866305 0.9167121 -1.6086572 -0.7933488 0.74407995 -0.20657988 1.2650889 -0.7656598 1.9046026 -1.0850574 -0.28960773 -0.09458094 -0.57595766 -0.85366696 -0.2682953 -0.6924655 -0.67537695 -0.9319625 -0.5232524 -0.067159645 0.80112773 0.20984763 0.53652996 -0.7867087 0.7729149 1.8688028 -0.18120356 0.25954673 -0.07213731 -0.5629872 1.0281746 -0.11729593 0.37144735 -1.0647973 -0.096428834 -0.23189384 -0.006968045 -0.5740613 0.8743497 -0.046424143 0.92931974 -1.4591461 -0.15158638 -0.3493846 -0.22269674 -0.14281291 0.6693386 -0.42956105 0.39495286 0.33593604 0.48167646 1.465492 -0.80598015 0.39412898 -0.3568598 -0.5473549 -0.3449029 -0.6983828 -0.110794336 0.06382133 0.6873102 1.3072842 -0.35465896 0.3247648 0.4660459 -0.17134812 0.33871958 -0.8001489 -0.06183501 -0.3442781 0.6645271 -1.0050561 1.2665918 -0.65191674 0.74382645 -0.8869834 -2.2339816 -1.3198249 -0.25225446 1.469496 -0.25124612 -0.38963327 1.6323847 -0.62587523 -1.3327211 -0.69172835 0.12466183 -0.59460807 0.373253 1.1408101 -0.74435735 -0.3561258 -0.64419323 -0.06461863 0.48202842 0.4099277 -0.37582332 -0.8160414 1.7403791 1.2701851 1.364074 0.6597778 0.85216147 0.54536295 0.28247318 -0.86899084 -0.16159353 1.7475191 1.1173189 0.9651913
253 -1.1448102 0.88361454 -0.6183876 -0.9556826 0.46361592 -0.027002878 -0.23784046 0.86696696 -0.46442708 -0.23699266 -0.95563275 -0.75134385 -0.0018266886 0.83184445 -0.9831537 -0.42250583 -0.1441417 -1.4086027 0.1358092 -0.7894725 -0.24825525 -2.7152674 -0.28746778 -0.09086073 0.13611214 0.37465596 -0.35395288 -0.67301804 0.012074714 0.13159811 0.30785948 -1.9842442 0.3538939 -0.47156134 0.32375512 0.060015257 -0.92093575 -0.84672326 0.5313003 0.5259152 -0.0742898 0.6785301 -0.684528 -1.1625081 -0.2516041 -0.02835499 -0.20958565 -0.8248615 -0.054023415 0.008645923 -1.8487813 1.3286988 0.15368095 -1.0388472 0.005261579 -0.52479446 -0.13473661 0.20027658 0.31215507 0.31103742 -0.26083875 0.3418931 -0.32797882 0.87131774 0.4293722 0.79542565 -0.56022257 -0.09590213 0.737056 -0.50806665 -0.21278518 0.61187905 0.19291267 0.49356154 -0.16701226 -0.0043153195 0.002052702 0.43355832 0.18435301 -1.145848 -0.6076926 0.44823682 -0.3973534 0.69869196 -0.23129518 -0.57734996 -0.3688069 1.2922717 -0.9696896 -0.56282216 -0.1667224 -0.78040105 -1.145341 0.39890814 -0.73417217 0.17508344 0.42950544 0.27418363 1.385737 -0.69142014 -0.17981762 1.2766336 1.2289137 -1.1531943 0.15310329 -0.27776173 -0.91371214 -0.9600158 0.39910907 -0.29847625 -1.319206 -0.53525984 -1.0784935 -0.9863382 -0.44541606 1.4047961 -0.64124566 -1.1078264 -0.2116145 -0.038996007 -0.6598654 -0.12809668 -0.107857004 0.907086 -0.108378634 1.727122 1.1799003 0.15925716
233 0.444006 1.7363908 -0.08458777 0.28534934 0.15452708 1.9678661 -2.8584914 0.45869845 0.7898879 -0.7007078 -1.1119671 1.3287629 -0.39484742 -0.4256377 -1.9439169 0.83997864 -1.9553174 -0.5663938 0.37824506 -0.5588318 0.6050864 -0.85009176 -0.4871918 1.1537017 -0.9812952 -0.17619422 -0.85555416 -0.80164963 0.5428511 0.410326 -0.74686927 -1.1892415 -0.17746334 -1.7578523 0.37883973 -0.86105543 -1.3350413 0.28571552 0.7498272 -0.5074466 0.05815283 0.121929005 -0.52866995 -0.09512428 1.3039916 1.5715867 -0.49808457 0.19990413 -0.68081546 -0.05994901 -0.7516423 -0.10279629 -0.4903736 -1.0014167 -0.22540711 1.1110865 0.48326993 0.49656928 -1.2161646 0.110306025 0.2300526 0.3648624 -2.437805 1.9612832 0.57505846 -1.2299857 -0.51126677 0.28946725 -0.4311833 -0.19471124 0.8564314 -0.39285126 0.73597103 1.3465871 -0.39340535 0.90033275 -0.2636629 0.16606247 1.438593 -0.86083275 -0.46838242 0.6712695 -0.72507316 0.36090282 -0.66623306 0.21510483 0.15410015 1.1607685 -0.85076576 -0.8911733 0.088171 -0.7357464 -0.15544586 -0.028438687 0.53358555 -0.6457054 2.4034898 0.69557416 -0.72440416 -0.7656341 0.32402545 0.13280004 -0.8869311 -0.606205 1.1870873 -1.820106 0.35899743 -1.4207075 -0.75387424 0.5692563 0.5768564 -0.11379285 -0.34193987 -1.0506619 1.3725014 0.18525848 0.06550585 -0.021593964 0.07061639 -0.720295 1.6858212 -1.086675 0.9431706 -0.44921854 0.22428398 1.0649984 -0.5343369 1.4874494
45 -0.24674045 -0.2179234 0.5058499 -1.7096531 -0.5129467 1.9046714 -1.113336 -0.031276193 0.8263114 0.460497 -1.4260719 -1.1830505 1.0706402 2.102649 -1.4994978 0.53494376 0.17256895 1.0638167 -0.5937809 0.80746835 -0.075653106 0.47567654 0.18845454 0.37790313 0.41368344 1.1720834 -0.025772918 0.5074866 0.6581309 -0.7350008 0.20345215 -1.5662172 -0.3643841 0.005002781 -0.96986187 -0.770617 -0.100610554 0.7069465 0.9769593 -1.6986197 0.3208541 0.63632673 -0.34071255 -0.96055555 -0.6833788 1.3570708 0.6558406 1.1123748 -0.6429381 1.8519686 -1.0348283 -0.5315607 -0.87335765 1.5367689 -2.134294 -1.1821545 0.9870435 0.44871983 -0.21424277 -0.18786843 -1.5922925 -0.5609855 1.3959764 0.047741983 0.31837666 -0.4762939 0.34103015 1.1338111 -1.950775 -1.2981803 -0.8415387 1.5412929 -0.19448572 0.20564087 0.32999295 0.031667806 0.15578581 -1.2199308 -0.6619425 -0.9502463 -1.3114995 -1.5819156 -0.54786026 0.20129435 0.7858105 0.6374947 -0.70005774 -0.20873736 -1.3788702 0.1928359 -0.56740075 -1.7148787 1.4778433 2.2967997 0.1285308 0.14816895 0.70055515 0.16257513 -0.26818457 0.08974385 0.84171236 -0.23416409 0.6113571 0.82629865 0.048552763 1.5253538 0.7555536 -0.7445145 0.18061048 0.8279013 -1.7993221 -2.264014 0.36053747 -0.70005244 -1.2062554 1.8916798 -2.353942 -1.3926847 0.63390493 0.3103574 1.1781026 1.5395372 0.6352974 -1.178895 0.46415272 0.8060319 0.3107574 -0.6011724
321 -0.7407792 0.5327907 -1.0518451 -0.35352027 -0.7139657 0.2720241 0.617259 0.8268792 0.4180869 -1.7088189 -0.96771276 -0.54101956 1.3320394 -0.010469351 -0.22295561 -0.90287036 0.3658778 -0.58425903 0.5949417 -0.23878275 0.038177703 -0.31123394 0.60226125 1.9625291 1.7868688 -1.070527 1.9957993 -1.1023464 0.19903906 0.2237138 0.9691765 0.088316046 1.0689195 0.96080524 1.137848 0.8542458 0.4641819 0.87497747 -1.3739505 0.3055796 -1.7149174 0.07448522 0.2445399 0.5313672 1.7154453 0.0006270479 0.08632558 -2.2122715 1.3270205 -0.7076449 0.634681 -0.027024055 0.10690706 -0.2925044 -0.13835712 1.7268202 -1.1529964 0.2126878 0.4144564 -0.07030898 2.0476034 0.58021593 1.5835233 0.038453702 -0.89058334 0.041206576 -0.8193938 -0.2899991 0.4793517 1.2680643 -0.14960799 0.20626996 0.24431865 0.70123976 0.8816546 -0.3660304 -0.5655009 -0.0753785 0.7083185 0.6949647 1.8312095 -1.0151546 -0.77222455 0.4049685 0.4438591 -1.7789204 0.53967804 0.06531377 0.8133997 0.029216597 0.0016015583 -0.7825062 0.56320286 -1.2270327 -0.591499 0.22468203 -1.831713 0.3819814 -1.194683 -0.08296675 1.2868325 -0.26629132 -0.58783084 -1.4798585 0.07955282 0.7591614 -0.68301666 0.83823276 0.42848933 -0.0266721 1.246068 0.53224945 0.48865154 0.17951646 0.71154016 -1.1965526 1.212969 0.15658791 -0.03273607 0.38208544 0.0030653928 -0.4399593 0.5703935 -1.542024 0.97449434 -0.18436971 -0.20041598 -0.1633667
305 -0.43779275 -0.112863846 -0.42278662 -0.21112154 -0.40107566 -1.1489936 -0.16349587 1.5641088 -0.8227101 0.10983375 -0.37403646 -0.37917238 -1.1809758 0.46207607 0.23845054 -0.6030353 -0.0041005416 -0.61366415 1.1757556 -0.69712114 -0.497446 -0.7975406 0.58029395 -0.030717652 -0.00484557 -0.56394213 1.1877322 -1.2340723 -0.25017112 1.0928774 -0.5712725 0.81408477 -0.29658088 0.8411098 -0.21253678 -0.84295136 -0.58330274 0.41149867 0.072202004 -0.43233606 0.15126798 -0.23068392 0.62187093 0.30027407 -0.04524925 -0.17716268 0.12277926 -0.6274254 0.8604846 -0.13101521 0.7071454 -0.54635394 0.5341036 -1.1048546 0.41418654 1.3629147 -0.40360108 0.65340346 0.6709793 -0.6172352 1.2973281 0.026446702 -0.111790664 -0.8432514 -0.19428702 -0.2092068 0.39369434 0.460879 0.7160475 0.7148241 0.3679079 0.12712687 0.84209555 -0.28948477 -1.2319262 0.9155642 0.2451209 -0.0077072484 0.44536018 0.3386438 0.4162837 0.065504536 -0.8816827 -0.298826 0.4677852 -0.9307667 0.2575948 0.17648695 0.41074947 -0.117527746 -0.12537542 0.308755 -0.86694974 -0.47100765 -2.042799 -0.26135823 -0.8870993 1.0329003 0.6140674 0.09788281 0.478583 0.053627096 -0.8105861 -1.5199196 -0.33885202 -0.79791033 -0.28897634 -0.3154961 -1.6248335 1.3470212 -0.024325458 0.3427822 -0.5589892 0.7300349 0.51981115 -0.08052866 0.8757921 -0.0646661 0.93001837 0.780783 0.038672596 -0.20118825 1.388678 -0.18998685 -0.30807045 0.9878044 0.7501663 -0.98530895
91 -0.7192959 0.12567969 -0.33510146 0.544799 0.103989124 -0.6216494 0.37732783 -1.3240772 -1.2869722 -0.53114665 -0.27540153 -0.073981084 0.10382139 0.94274354 0.32599938 -0.014014334 0.79613316 -0.5618591 -0.58062315 1.142256 -0.24176031 0.40122512 0.73611087 0.69156885 0.48177734 -0.6630772 0.21778375 0.33774775 1.2802943 0.03749744 -0.11550255 0.6837015 1.0594261 0.23069724 -0.8914632 -2.1061895 -0.053755943 0.614217 0.22067383 -0.09584916 -0.055316657 -0.8314562 1.7041031 1.0209574 0.04485897 0.83450925 -0.0014450293 -0.5329907 1.2614673 -0.31219226 0.46073136 0.30535194 -0.04744253 0.74998724 0.5111819 0.42904532 0.5088842 0.08055629 0.49575058 0.88648564 0.72301036 0.5962905 -0.8064278 -0.9197491 -0.9907666 -0.26014546 -0.7643275 -0.6225021 0.63703215 1.7243586 -0.24038742 0.8537985 1.1830236 0.37979943 -0.5174938 0.47570515 0.6051408 0.11109148 0.5468484 -0.16564512 0.09393195 -0.29511783 -0.5988756 -1.1846122 0.84563386 -0.73914826 -0.41512147 1.4156913 -1.0096164 -0.76850027 0.5235295 -0.468804 0.25242403 -0.2741513 0.26321864 0.1334527 1.0857995 1.4765098 0.23231804 0.20725797 1.4657334 -0.15181163 0.8012185 -0.3203201 -2.4953625 0.4490121 0.101451315 1.3565799 -1.3584406 1.384185 0.4839279 0.42400914 0.29857072 0.19982058 -0.21653658 -0.60337776 0.36950207 -0.6864829 -0.46556544 0.08691016 0.5813691 2.0455143 0.8052441 -0.6456714 0.66553605 -0.34561288 0.088030845 -1.5980748
202 -0.25747317 1.0374804 -1.8577645 0.0041432083 -0.68500644 0.11218293 -0.14509998 0.5859199 -0.19991456 -0.38117853 -1.1105571 0.34320423 -0.38074887 2.5555696 -1.1873454 -0.9406251 0.7202671 -0.93281156 0.4639533 0.35339534 -0.035995055 -0.7018018 1.2590902 -0.71100634 -0.47209993 1.0668303 0.3211014 0.44045287 -0.10196955 0.739452 0.37841362 1.2358619 -0.5206603 -0.093268536 -0.08142992 0.51072025 -0.14053039 0.63336056 -0.53043604 -0.6673765 0.34461752 -0.21485168 0.7088047 -0.15631476 0.55488396 0.6938802 0.45874986 -0.99729 1.614298 -1.2993037 0.5556103 0.41745758 1.569148 0.17624877 0.2948171 0.60816634 0.37305352 0.255766 -0.83970106 0.9636171 1.5830768 -0.71325 -1.3101121 -0.82319695 -0.66996187 0.2723352 -1.0973111 0.88675153 -0.23335229 0.62659013 -0.1299277 0.57276034 0.8856108 0.9023102 -0.066865206 0.45391944 -0.2111385 -0.40332437 0.16762137 0.3066807 -0.55796134 0.67685664 0.15516382 -0.53299314 1.9858029 0.29195347 -0.21444426 0.85676354 -0.24952506 -0.3746979 -0.709642 -0.035272602 -0.2858977 0.30861962 -0.8628571 0.93099016 -1.7970939 0.501402 0.17195238 -0.15785329 -0.0388163 -1.0111935 -0.07215494 0.18839793 -1.2131945 -0.012088424 0.12747136 0.5174769 -1.6552935 1.7165489 -0.6783933 0.5045568 1.2541293 0.09251631 -0.23661608 -0.67914027 0.8459275 1.5649902 0.3268957 -0.123738065 1.8748542 -0.38015845 -0.08863072 -1.4450564 0.9013694 -0.5837418 0.3499057 -1.1403157
92 -0.7894032 0.32345656 -0.7770826 1.3728181 0.12572062 -0.8082851 0.3645481 -0.83419347 -1.3315302 -0.62367564 -0.40036055 -0.09185091 0.11555928 0.35979635 0.22278996 -0.94354314 1.4989376 -1.058983 0.3835843 0.511283 -0.94166434 0.45217896 0.1921357 0.87366825 0.4495533 -0.4551512 -0.25455654 0.2505646 -0.008026133 0.16465671 -0.5142815 0.2853643 1.1843747 -0.107056476 -0.9359883 -1.5954236 0.20732719 0.18570709 0.1400145 0.2976226 0.037019107 -1.0007946 1.438476 1.8596048 0.16928731 -0.1459461 0.7491169 -0.31339076 1.0348351 0.7844912 0.26477477 0.4707964 0.7191751 -0.83905804 0.8674614 0.3542111 0.476416 -0.37253946 0.78962076 0.417307 0.767272 1.0002664 -0.5206378 0.12514961 -1.234905 -0.61882067 -1.2379117 -0.5351561 0.6700337 0.88728064 0.21038198 0.58106935 0.40432605 -0.83643353 -0.9210739 0.7072131 0.7862622 -0.8311111 0.82093465 -0.5707877 0.0035415865 -0.1808731 0.17549556 -0.3150071 0.7831701 -0.58201313 0.62539566 0.8012385 0.14614734 0.4614795 0.5341571 -0.64996296 0.4222692 -1.0329766 0.63324064 0.22113061 2.3308773 1.1489644 -0.26507038 0.016264139 1.555596 -0.047804896 0.95354015 -0.49560508 -1.1343905 0.2918159 0.13440934 0.30438763 -1.820908 1.5135834 -0.19371307 0.597497 0.34509557 0.35444105 -0.1442142 -1.6602707 0.6790109 -0.27061144 -0.6801195 0.04166749 0.47699848 1.8388324 0.25197086 -0.9248473 0.14040567 0.38196453 0.00011678393 -0.48554283
297 -0.2092466 1.7824528 -1.6459473 -1.7066413 -0.24815924 1.3046497 -0.2902355 -0.20155354 -0.29026753 -0.99694216 0.6216148 -0.058568764 -0.8807031 -0.6911891 -1.6543884 -0.5299025 -1.1736461 -0.3066174 1.1540879 -1.4550382 0.07135651 0.40678835 -0.045773625 -0.50462365 -1.5909117 -2.3662837 -1.0019935 0.051509544 -0.077650174 -0.02741225 0.5445908 -2.149339 -0.27803737 -0.38677567 -0.0597948 -0.589622 -0.29306185 0.14460917 0.62809104 -1.5667297 1.1608094 0.32236576 0.93417853 -0.78581774 0.94220144 0.6796612 0.20084625 0.48418042 0.575609 0.64655834 -0.36658102 -0.15943629 0.45488286 0.6179485 0.35397196 0.06775304 0.3179505 0.9256887 -0.14629345 -0.60299677 0.2957548 0.941639 -1.7126693 -0.30037186 -0.5983603 -0.75821686 0.15325944 0.3538176 1.0402806 0.09031337 0.20220006 -0.6304061 0.39899608 0.35428783 -1.8361268 -0.69545496 0.22860643 1.1906211 1.580419 -0.24015619 0.36454087 0.2851051 0.5267953 0.77656424 -0.008282927 0.43342686 0.39078456 1.211883 -2.2669342 -0.21049961 0.5133546 -1.3020236 -1.0932112 1.1352981 0.39576313 -0.3745207 -0.8100859 -1.5616808 -0.09597538 -1.0947026 0.9058963 -0.1722974 -1.0153333 -1.385066 -0.55314565 -0.9915672 1.3932606 -0.08243391 -1.1518573 -0.57810295 0.58281887 -0.15233372 0.26502818 1.0024318 -0.26278144 -1.3191564 0.9831432 0.45012936 0.02810441 0.8479381 -0.3641985 -0.67547363 -0.4924826 -1.6761638 -0.47661412 -0.10062882 -0.15740402 -0.669087
288 0.87393415 1.0622115 -1.5639709 -0.5192953 0.9007425 1.9696736 -0.97804546 -0.16249293 -0.40394697 -0.7614093 0.42563847 -0.103665404 -1.0336231 -0.893797 -1.9212891 -0.19827889 -0.4166527 -0.4293863 1.421509 -0.48260802 -0.2896151 -0.33038843 -0.1616461 0.004220975 -1.0889447 -1.1477925 -1.1828802 0.5133989 -0.17881575 1.1218839 -0.15942104 -1.7208505 0.123452574 -0.67327565 0.4881141 -1.2814479 0.43431464 -0.41422254 -0.04550715 -1.1031432 0.2529638 -1.2089647 1.2231293 -0.9295019 0.41303486 0.5705683 0.003331482 0.27929744 0.07833976 -0.009472739 -0.96295565 -0.38044867 0.8528209 0.02543702 0.4550461 0.12181078 1.5300461 0.46797144 1.1157445 -1.6638161 1.2099613 0.09406211 -1.3617144 0.23338805 -0.2682731 -1.3091189 0.2336613 -0.44500512 1.2973394 0.8161012 -0.39378628 -1.1464233 0.28498507 0.56795883 -1.6280447 -0.4032033 0.28321746 1.9202772 1.947249 -0.24828836 0.38194597 0.3548298 0.06968968 -0.5023379 0.61625123 0.5404835 0.24741906 1.9229279 -2.3127346 -0.9434471 0.9011915 -3.091181 -0.68146974 2.5183096 0.50600815 -0.98296785 0.6700665 -0.6317075 -0.45678976 -0.39858267 0.46886042 -0.07435444 -1.095292 -0.77280915 -0.046088953 -0.8164048 -0.2141772 -0.39539066 -1.6589766 0.2948203 1.5012763 0.38480225 0.52571803 0.42612013 -0.07718031 -1.6082091 0.9909862 1.1869439 0.6169654 0.36425555 -0.33880144 -1.1063831 -1.2104092 -1.1428944 -0.50314146 -0.18360862 -0.6077027 -0.29452744
273 -0.82131624 0.35439563 -0.7905064 0.29508182 0.10360787 0.15060157 -0.20704938 -0.3100846 -0.026455462 -1.7859647 -0.10190558 -0.052293234 0.48477855 0.14510712 0.41762733 -0.7529692 1.1390722 0.39196965 0.6490472 0.8703117 -1.1833115 -1.7447495 1.049167 2.3817425 1.5207479 -0.50963295 2.208529 -1.1888685 -0.6081712 1.9688306 -0.3003398 0.33743268 1.333535 -0.9235153 -1.1468275 -0.35727897 1.0349596 0.5971566 -0.13236381 0.17340994 -1.3133639 -1.2457811 1.2585118 0.51634765 -1.1179165 0.16339123 -1.0380365 -0.25219697 0.37197036 0.13293228 -0.024026485 -0.30109003 1.6233525 -0.15088327 0.10139648 1.5412598 0.5251329 -0.523012 0.5842617 -1.4561733 1.3624684 -0.6407449 0.92327124 -1.5056595 1.1151456 -1.0164958 0.45451832 0.79777634 0.34760752 1.764796 0.7147529 1.3573774 0.5370108 -0.102862276 0.7343887 -0.5854684 -1.0132176 0.17565878 -0.69314015 0.50946337 1.3932049 0.39360458 -0.61704296 0.0051319017 0.7194725 -1.3947142 -0.86148036 -0.75847626 1.2935982 -1.5323952 0.54652125 -0.3407988 0.48849413 -1.0302345 -1.512481 -1.3580009 -0.6612852 1.2876095 0.38889238 -1.2161427 1.1149743 -0.8670756 -1.5286022 0.18226938 -0.3151013 2.3370616 -0.06794423 1.027289 0.21439053 -0.15507035 -0.29434794 0.18570232 0.88175243 -0.5252839 -0.31972092 -0.99514323 0.94689673 0.60145247 1.2492657 -1.1534235 0.80539316 -0.10129241 -0.43761554 0.7098542 0.16029944 0.44467017 -0.08125592 0.33779776
218 -0.64284736 1.7182372 -0.5403884 -0.052383803 -0.5237552 0.17414351 0.55713993 -1.0715299 -0.6130976 -1.0155821 0.27132845 -0.9539221 -0.7374516 0.7753686 -0.5353585 -1.1587461 0.89046484 -1.9342985 0.9037932 -0.15506095 -0.5825804 -0.98566157 0.9807058 0.4230292 -1.3770688 -0.7215564 1.001234 -0.84380704 -0.9448091 1.2866821 -0.30930218 0.7307859 0.20473985 0.2989656 -0.09193459 -0.46205947 0.2551351 0.5507765 0.7925975 -0.37976348 0.5464896 -0.46172783 1.1210474 1.0306946 -0.29076192 2.254582 0.6260685 -0.7613338 1.3718679 1.4037493 -0.62270474 0.5363551 0.45646363 -0.8258544 -0.73065555 -0.31385875 0.59526026 -0.11158196 -1.3455973 -1.3134232 3.958024 -1.0027359 -0.08663431 -0.9685382 0.9274956 -0.71255 0.53245986 0.9877335 0.41173893 -0.5172596 -0.97155 0.82063484 0.43097916 0.06915243 -0.45791495 -0.12303528 1.1342633 -1.5212244 -0.0540657 -0.30982134 1.231172 0.61570495 0.07311495 0.49990973 1.3798748 -0.23241408 -0.54632765 -1.1394486 -0.10965266 -0.91308063 0.039679755 1.4463139 0.7265569 -0.33306146 -0.38537624 -0.34450078 -1.4346175 -0.18724053 0.4430188 -0.70666313 -0.7503867 -0.7403546 -0.48378208 0.5307508 -1.6680248 -0.29216403 -0.112429745 0.65734696 0.6301307 -0.097024895 -0.28871518 -0.0305299 0.7543392 1.0015147 -0.104188815 -0.23497203 1.9511113 1.1679595 1.9144771 0.06904025 0.27154088 1.5579511 1.6489296 -1.2313733 -0.39711413 -0.17191577 0.8646364 -0.29555884
276 0.6918133 1.253803 -0.4049118 0.24936195 0.5770944 2.2029662 -1.1152174 -0.15267092 0.18993208 -0.27300882 0.5737593 0.21737584 -1.0626018 -1.1385663 -1.6825101 0.33089072 -1.4925734 -0.14568108 0.6737595 -1.2624016 0.16203867 0.2438594 -0.4782357 0.37733284 -1.770582 -0.49524716 -1.3048185 0.05079528 -0.39279866 -0.021659927 0.50258183 -1.7329726 0.47445923 -1.1516602 0.15288271 -0.4022689 -0.72676873 -0.2438181 0.52148736 -0.7688326 -0.06710501 -0.07056477 0.68146074 -1.6070954 1.4750202 0.20659205 -0.42398256 0.32158995 -0.8422741 0.48520222 -1.0606838 0.39283296 -0.15312555 0.33991772 -0.5976637 0.3130994 0.65994895 0.34821984 -0.036222618 -0.20581725 0.332857 0.83088034 -2.177206 0.5819166 0.069566086 -1.1756606 -0.25021404 -0.6814601 0.9662837 0.24146888 0.9888949 -1.0013368 0.32370853 0.89444125 -0.9589533 0.09870192 -0.094846055 1.5062243 1.822836 -0.2531436 -0.028760007 0.16960916 0.6749367 0.82174337 -0.1887214 0.886614 0.48434725 1.817815 -1.5867956 -0.58091104 0.7176246 -1.8883877 -0.7871076 2.084781 1.2493675 -0.60352474 0.9458132 -1.2724117 -0.31805605 -1.380974 0.20246473 0.9170705 -0.71661127 -0.78410286 0.31051296 -1.8378643 -0.007802757 -1.0000643 -1.1263638 0.1423507 0.98556405 -0.06747894 -0.20901905 0.40295196 0.021020595 -0.84509546 0.48691058 0.101674706 -0.57384676 0.021070981 0.09984919 -1.5376791 -0.191269 -1.4004358 -0.38013187 0.4721923 -0.66252923 0.12623939
