329 128
118 -0.30439496 -0.399597 -0.8263292 -0.3055973 -0.68775177 -1.7908226 1.3065044 0.45893747 0.004823148 -1.2876902 0.609627 -0.4737546 0.008142258 -0.306203 0.25224322 -0.88133925 -0.10507889 -0.774284 -0.3075145 0.16655852 0.40002018 0.72141576 -0.21997523 1.853592 -0.10747043 -0.90934086 -0.41241637 0.13808045 -1.1493549 -0.16558605 -0.600646 -1.5910999 -0.35429057 -1.8294617 0.3124519 0.94764817 0.938255 0.08387826 1.1401007 -0.95953596 0.45284075 0.19635643 -0.7531075 0.1319252 0.75423646 0.34145144 -0.46699068 -0.91419166 0.7534105 -0.16913198 1.1765198 0.15765223 -1.0899519 -1.6046226 0.9266534 0.5957354 -0.3494598 -0.5140366 -0.29550308 0.23121867 0.3129943 -0.8446152 0.026534006 1.0408329 0.045686122 1.6024216 0.30130923 -0.82779354 0.017137121 0.34298837 0.59706396 0.984737 0.9550197 0.10771946 1.6380653 0.49755847 0.61588067 -0.922862 0.51780325 -0.45888254 0.4445688 0.7377839 -0.005788321 0.46398678 -0.33386675 0.22488545 -0.23570354 -0.10814811 0.6187304 -0.3115854 0.2799461 1.4017626 0.28960532 -0.70349365 0.956282 0.6383843 -0.58825016 0.3451925 -0.15172862 1.2137167 -0.6542411 0.4982923 -0.19215943 0.7832302 0.96294254 -0.9692647 -0.030416692 0.06371333 -0.5674882 -0.5149941 0.31459022 0.7432424 -1.4939272 -0.035962455 0.6010589 -1.1283206 -0.15869582 0.059409104 -0.18350232 0.29317945 0.58578914 1.7821661 0.11300078 0.42532286 1.3200414 -1.0043981 -0.017168997 0.34713706
261 0.2805817 0.45189223 -0.72711354 -0.7544478 0.6002977 -0.570524 0.64121807 0.45966765 -0.5182723 -0.28950503 -0.10660567 -0.48396775 1.1709744 -0.027107518 -1.6144593 -0.21029319 -0.97376245 -0.34934545 0.44776216 -1.1784586 -0.34028447 0.056626465 0.9200025 -0.19456638 0.79080826 1.1472014 -1.0211612 1.022903 1.2958779 0.45049068 -1.6674001 0.16007388 0.65556014 -0.8740211 -0.38396123 -1.3903366 -0.3710313 -0.1343112 -0.6808 0.016899038 -0.120262355 0.124625996 1.2648075 -0.6786621 0.14876664 0.83610636 -0.25276235 -1.4466088 0.069794506 -0.6651111 0.20262603 -0.4523373 -1.1817983 -1.3313769 0.48273358 -0.15413015 -0.3064324 0.7376645 -0.20041333 -1.3273133 1.205186 -0.7049699 -0.68481386 0.32324955 -0.9059958 -0.81565064 0.7854796 -1.7115558 0.6777422 1.2214898 -0.9349202 0.77816474 -1.4080863 -0.34052268 -0.308652 -0.16123061 0.57378316 0.86080164 1.3525372 1.4163278 -0.5127987 1.229391 1.086253 -0.44908392 -0.012839674 -0.5453751 -0.42857486 0.1723582 0.8469388 0.4360538 -1.8811698 0.6270087 -0.8671976 1.3205544 -0.17312172 0.48885503 0.024014786 -0.06758358 0.1684126 0.18215723 -0.34501243 -0.38320646 -0.69891554 -0.16868772 -2.02217 -0.4288702 -0.06777175 1.2169622 -0.2678738 0.80354744 -0.36179814 -0.19369096 -0.062719256 0.3889414 -0.7455491 -1.7863177 0.39918366 0.5673323 0.28871885 0.09869706 0.34182474 0.24457273 0.49366924 0.55868983 0.63837284 0.5984622 0.29365405 0.62624544
182 -0.4049079 -0.56845057 -0.17707445 0.06325152 0.31062928 -1.0299497 0.87808746 0.96196765 0.18461698 0.44880855 -0.0010207735 -0.44854903 -0.24934252 0.9224255 0.11576789 0.5624484 -0.00045150213 -0.9947025 -0.3465526 0.05218305 0.35333684 1.3712116 -1.2617601 1.2171909 0.8651664 -0.019442901 -1.0334115 0.29962373 0.9376574 -0.4173339 -1.156247 -1.5007839 0.106486976 -0.34708914 -0.44276917 0.7035279 0.23448108 0.13948345 0.3857338 0.11071877 0.744797 -1.1762663 0.6393141 0.52654237 -0.47660065 1.0886475 -0.17245467 -1.0031598 -0.05964461 -0.6651621 1.1635482 -0.3633688 -0.23041877 -1.8992985 1.2285577 0.5576826 -0.73390174 -0.19323091 -0.34469697 0.027536588 0.02880964 0.066347264 -0.00549456 1.4231721 -1.3142496 -0.04646136 0.67729455 -0.01648681 -1.1186534 0.6562043 -0.17142339 0.4516381 -0.6154706 0.8944727 0.319619 0.38194072 0.77043587 -0.88699013 0.3917562 -0.7799882 0.4737554 -0.21472906 -0.55902123 0.0036538602 -0.58976936 0.13930613 0.13358223 -0.10159738 0.99623483 0.08388298 1.1159866 -0.41235244 -0.2505102 -0.5291793 -0.053898476 0.27687666 -0.41001388 -0.27983522 -0.1956134 0.7581642 0.8724575 -0.39562666 0.017269477 0.34427014 -0.027612519 -0.794658 0.7632109 -0.2022675 -0.44092557 0.33133212 -0.2884572 0.45556816 -0.41952825 -0.4513533 -0.044414487 -0.73019016 -0.7300059 0.2695888 -0.25582233 -0.24785715 0.5415744 1.2556865 -0.09843643 0.8161868 0.79019856 1.4419522 0.49927425 0.36345223
255 1.1652507 -0.04085755 0.059418462 -0.24841964 -0.8436857 -0.79146373 -1.5910777 0.72915083 0.0989172 -0.6414602 -0.6243126 -0.95232207 0.5453972 -0.6704098 0.18208522 -0.19155897 -0.19455348 0.20216484 1.3342047 -0.3799653 1.1233009 0.24713704 -0.06985308 0.22665438 -0.428721 0.75955755 0.25891662 0.30655423 -0.59716964 0.5402822 -0.34209242 -1.2655325 -0.3790436 -0.65982085 0.82857984 -0.80447614 -0.13639553 0.7427243 0.6271138 0.5972484 -0.062852584 -0.258913 1.1342369 -0.5055561 0.1618355 -0.8666759 0.013134067 -0.8574483 0.4280766 -1.0645168 0.4913172 -1.0139872 0.076243356 -0.08800925 0.42040876 -0.03513255 0.4102894 -0.034028087 -0.3319498 0.82338494 0.219584 -0.5014793 -0.86696607 1.098406 -0.14566407 0.3223737 -0.6740473 0.09787527 0.48683462 0.7533362 -0.38735196 -0.32255897 -0.6760793 0.29797134 0.5883429 -0.59324956 -0.067040384 0.27255544 0.97723013 -0.63936424 0.22932282 -0.3222168 0.97319925 1.4129007 0.5521771 1.1411897 -1.0060687 -0.08315419 0.37413144 -0.8183613 0.13426627 1.1145518 0.5367228 1.002106 1.0517423 0.31052053 0.10098339 0.21220438 0.5749241 -0.48982462 -0.6042794 -0.16341867 0.8979412 1.0427631 0.3365131 -1.0537035 -0.08270597 -0.14525771 0.30287814 -0.42580146 -0.19039081 0.7820764 -0.03543352 1.2849973 -0.057028253 -0.028033193 -0.7419392 0.20003016 0.28903618 -0.3929734 -1.2398417 1.5291535 0.49223125 -0.20051083 0.23164758 -0.37758425 0.6924108 -0.7560994
152 0.2270828 -0.74059933 -0.5715911 -0.5368125 -0.63952786 -0.6964984 -0.9478287 0.56561834 -0.4920169 -0.24589853 -0.080523126 -0.62563574 -1.032464 -0.60589117 0.34406638 -0.4192216 0.956022 -0.079744436 1.3260518 -0.4982988 -0.00019216041 -0.6128038 -0.17678627 1.1473078 0.4094056 0.49981722 -0.20888747 0.37768686 0.21174937 0.20531124 -0.73167264 -0.658743 -0.27289394 -0.7929964 0.12928498 1.0951091 -0.19845408 0.60335034 0.7034538 0.5951974 -0.80752844 0.11787551 -0.39989862 0.06290569 -0.12614468 -1.242762 0.17141359 -0.087124005 0.34869996 -0.25835705 1.7359926 -0.17212902 0.4159143 -0.11716604 1.2816463 -0.089753166 0.8504998 -0.14046194 0.055842664 -0.42148158 0.37944055 -0.28598753 0.15351132 0.30623862 -1.0770158 1.6568869 0.037775 0.16696788 0.015534183 -0.05477307 0.19666341 -0.6701377 0.24271092 0.03751893 -0.2464504 -0.64546525 -0.6779726 -0.33158672 0.07972372 -0.33951682 -0.62352043 0.061737645 2.0052373 0.15505125 0.08791085 0.3593932 0.18624724 -0.1534208 0.3671243 -0.8718701 0.14870737 -0.42958084 -0.22556503 -0.44185925 0.92442846 0.3741382 -0.23971437 0.3894296 0.2215652 -0.2720688 0.3618666 0.33746135 0.019568363 1.7003462 1.5887568 -0.4483779 -0.7212034 -0.28046015 -0.79713124 -0.3445777 0.37863883 0.099391736 -0.63171077 1.5882704 -0.8328112 -1.4703285 -1.2107562 0.6022597 0.6932942 -0.08801767 0.5556596 0.57212263 -0.38214052 0.84511095 -0.10805306 -0.70780396 0.1116333 -0.09221943
166 1.4562086 0.6243954 -0.37180436 -0.026953295 0.8435525 -0.3922072 -0.6379154 -0.54188055 -0.04546728 -0.46799007 -0.6714262 -1.1373959 0.040948328 -0.36871347 -0.9230995 -0.9551355 -0.332046 -1.1234888 0.4986241 -0.17553693 -0.4028951 0.38063443 0.40118176 1.8576822 -0.41139084 0.513204 0.25418139 0.23751466 -0.51143533 -0.16379702 -0.16678873 -1.1561599 -0.24060725 -0.6886417 -0.5064987 -0.4273683 -0.57544976 0.47560078 -0.63783056 -0.3104043 -0.42617956 -1.5539056 -0.40119514 0.65349126 0.9198136 0.48382372 0.19241737 -0.12031283 -0.59009224 0.030240001 -0.7255626 0.11143579 -1.2081165 -1.315367 0.3856755 0.8781371 -1.1702077 0.16059479 -0.78020024 -0.19887705 -0.34647644 0.6509827 0.04191937 1.274917 -1.634166 1.213502 -0.41916493 0.19152081 -0.107274905 1.0783148 0.4874601 0.6709062 -0.4892215 -0.0022463584 0.6949283 0.19617608 -0.07113667 -1.279572 0.9578813 -1.3085845 0.50183153 0.10896477 -0.025810018 -0.15168716 -1.0141106 -0.61328757 -0.5115532 0.43510434 0.2930767 0.6008903 -0.049259152 0.9357421 -0.21803701 -0.53111213 -0.10244033 0.13577893 0.42995226 1.1421311 0.3718291 0.8184898 0.6973754 -0.93679357 0.6306715 0.596882 0.23483373 -1.0983692 -0.76650983 0.29661202 -1.0490913 1.3248904 0.15411061 0.15561606 0.8508406 -0.21220069 0.3165856 -1.7726717 -0.23989084 0.0062655546 -0.016614985 -0.8590817 1.0108898 1.3515954 1.609506 -0.05372986 0.5460019 -0.6479356 0.39087412 -0.0895513
112 0.21289533 -0.82503945 0.09445533 -0.78759086 0.059068188 -1.2758107 -0.6845976 0.52006525 0.46097344 -1.2437316 -0.3569669 -0.86324626 -1.0292987 -0.62924016 -0.06608291 -0.5535394 -0.11564732 0.28536943 1.2775439 -0.81887126 -0.17198996 -0.3562277 -0.13370715 -0.16164918 0.17597331 -0.88558286 -0.5944833 0.6644913 -0.3157635 -0.13537687 0.5941375 -0.5648879 -0.4583318 0.3083638 0.49477553 1.2835232 0.2304446 0.65269065 0.08140339 -0.30267146 0.71980923 0.2711314 0.28179196 -1.0605017 0.9356651 -0.9888632 0.09423091 -0.62918097 -0.08115368 -0.4598334 0.9596236 -0.5863645 -0.3899968 -0.7443162 -0.5452768 0.22738577 -1.2446386 -0.05425604 0.69151074 0.4570994 -0.038836487 -0.55076236 -0.23474696 -0.26479933 -0.30184412 1.4006381 0.3238209 -0.13762566 0.2839591 -0.30527285 -0.059197035 -0.5017248 0.34725866 0.13257796 0.68619865 -0.75087774 0.01515224 -0.15251382 0.24284399 -0.5906349 -0.667752 -0.40202898 -0.08778763 -0.11826133 -0.27993357 -0.0019386434 -0.30094382 0.52595794 0.32100302 -1.387529 -0.19457723 0.03974555 0.39217284 0.32820183 0.010527374 0.28590575 0.1483912 -0.34262812 -0.42526096 -0.23148732 -0.15289085 -0.72616726 -0.027652765 1.1455009 0.8263941 0.050860398 -0.8857569 -0.8788406 -0.14472707 0.18794844 -0.33164802 1.0408642 -0.17099264 0.34311232 0.6278796 -0.33914953 0.18083611 0.5709808 0.047500845 -0.53756803 0.03509744 0.074100204 -0.09555313 1.3719468 0.39389768 -0.15475062 0.96211964 0.37581578
230 0.34896222 -0.14390568 0.11023475 -0.75412595 -1.0242734 -1.4878985 -0.9979101 0.37619412 0.07820163 -1.1073374 -0.83586967 0.025473842 -0.23957624 0.19848344 0.52309835 0.18657996 -0.29037344 0.9590761 -0.017596662 -0.28978887 0.55464286 0.32253695 -0.11430754 0.13700257 0.7375943 -0.10849482 -0.3883924 0.5319713 0.020874277 0.26663902 -0.70664257 -0.46893978 -0.3660691 -0.44221652 0.8923394 0.16924798 0.3026025 1.0999889 0.4747186 0.54844505 0.13629603 0.13492921 1.773327 -0.29126212 -0.78065336 -0.4676725 0.009981489 -0.8824913 0.17514363 -0.6032838 0.6033962 -0.74725914 0.9013826 1.0222454 1.1286225 0.69413304 1.4557366 -0.17458041 -0.32024387 0.6383799 0.39451998 -0.56108016 -0.21987414 0.27681935 0.43897808 0.72752625 -0.16714188 0.6463491 -0.55478066 0.288637 0.4091714 -1.0604426 -1.0488937 0.049870368 0.903669 -1.0898206 -0.70967513 -0.69490004 -0.2932724 0.79015815 0.5087005 -0.56772363 0.290542 0.58640164 -0.88356245 0.32008576 -0.6807064 0.24961887 -0.28739855 -0.8105722 -0.21169439 0.63197005 0.8359896 0.99238724 0.62889725 0.7987423 -0.24271144 -0.2743019 0.99953556 -0.9057385 -0.99469334 0.15080395 0.37190372 0.9945383 0.11480748 -0.6907537 1.0237706 -0.13723578 -0.6788292 -0.4095911 0.21598276 0.85025233 0.13389438 1.3788989 -0.13650717 -0.9093551 0.18308464 0.37472498 0.52125 -0.14801794 -0.38103074 0.7993591 -0.16726595 -0.05704081 0.17013866 -0.25031817 1.1882148 -0.47815853
67 0.6741214 0.8938849 -0.6834085 -0.41919994 0.2191978 -0.34272152 0.43009138 0.09532386 -0.12046145 -1.4304904 0.5686133 -0.50426745 -0.3678072 -0.11541351 -0.52304107 -0.84736776 -0.47894764 -0.6557479 1.1370332 -0.6995284 -1.0851685 -0.06786679 0.029371543 0.77461594 -0.37320864 0.17556356 -0.061259 -0.48760274 -1.1815249 -0.6752325 0.79850036 -1.7304155 -0.48401162 -0.81189084 -0.058512513 0.53944135 -1.268082 0.7923008 -0.28023952 -0.6585763 -0.35799888 -0.18295692 -1.1738955 -0.7386553 1.7993691 -0.99746674 0.3964502 -0.37057015 -1.5011677 0.7746723 -0.028320557 0.11655502 -1.4209874 -1.7898875 -0.46403506 0.5243934 -1.1878909 -0.32936355 -0.5744151 0.38132903 -1.104234 1.366753 -0.5027664 0.6514969 -0.43537542 1.2715422 0.35820082 0.24300407 0.33949822 0.008760766 -0.07974318 0.8307067 0.6267327 -0.69679976 0.13460776 0.019198122 0.66835064 -0.7389854 0.7033152 -1.5238844 0.18128677 -0.22477865 -0.1835342 -0.55339456 -0.86252284 -1.0296772 -0.085696705 0.64525783 0.04757936 -0.72989476 -0.40987957 0.5453376 -0.5726828 -0.4555186 -1.030143 0.48536974 0.6216341 -0.70594364 -0.17584872 0.61343426 -0.30148253 -1.5779756 -0.40703335 0.67386526 0.8703184 -1.0710227 -1.3048817 -0.28492174 -1.0621811 0.057170663 0.6426442 0.38660377 0.43418095 0.14692853 1.5994015 -0.45953026 0.31925112 -0.17650177 0.29387337 -0.15987551 -0.05943426 -0.09459956 0.27257928 0.18189824 0.6454048 -0.96357405 0.92641824 -0.08499355
162 0.42646214 -0.30812016 -0.6724276 -0.43611935 -0.6597976 -0.6236841 0.04095503 0.5977038 -0.29592836 -1.3205456 -0.26419827 0.0057614683 -0.21237078 -0.04994086 0.89320624 0.03599216 -0.016482502 0.09717367 0.3387304 0.2136532 -0.3036995 1.1961297 -0.0840115 0.13829747 0.15963626 0.10684124 -0.98145247 0.2549529 -0.16261755 0.49439913 -0.48489255 -0.5549632 0.5972288 -0.24182674 -0.6335523 -0.28066224 0.24138299 0.19435512 0.40302768 -0.60334986 -0.4536798 -0.01054048 0.662268 -0.18340789 0.21611571 0.052650377 -0.049829412 -1.2694497 0.21567203 -0.074710324 0.71578026 -0.7728362 0.40982974 -0.16750802 0.56449336 0.22233078 0.14184164 0.6086805 -0.28355223 -0.11083354 0.12354073 -0.33135638 -0.31016225 0.085554555 -0.17524405 0.71988136 0.11192108 -0.13683844 -0.2258916 -0.14870332 0.70157295 0.09040828 -0.2823452 -0.06028017 -0.015345756 -0.2731943 -0.8683054 -0.42598572 -0.31674027 0.5206937 0.68023795 0.113239735 0.52142686 -0.1898578 -0.012721827 -0.4990473 -0.6397773 0.11289792 0.2312701 -0.50425005 -0.14810933 0.4778672 -0.5004733 0.23228078 0.45750025 0.5194062 -0.15759441 0.6073946 0.75879586 -0.1882917 0.18059227 0.38338867 -0.14192589 0.21173754 -0.3176729 -0.35381615 0.5238262 0.58842653 -0.57914984 -0.25475273 -0.24613038 1.7102911 -0.25417414 1.3694654 0.57379484 -0.5578051 -0.4504547 0.048068605 0.38796833 0.6130367 -0.10767709 0.7172363 0.18356381 0.13405918 0.90437716 -0.83027273 0.5186454 -0.083086476
147 0.36561197 -0.035639018 -0.61098313 -0.6801363 -0.7217943 -0.28868812 -0.41008553 0.37622944 0.111191355 -1.069475 -0.68824416 -0.46427366 0.18839382 -0.10621327 0.5322017 0.12942615 0.5099002 0.3168831 0.5374066 0.45454773 -0.17298837 1.4145955 -0.35193583 -0.25800237 -0.018062405 0.20121585 -1.0176945 0.4044003 0.05399707 0.24786966 -0.39275083 -0.41923666 0.32279012 0.035885066 -0.32212707 0.35961306 -0.11690165 0.058471832 0.35026002 -0.6886875 -0.20919652 -0.15623856 0.73265195 -0.7370777 0.55237067 0.15827106 -0.119510055 -1.3084922 -0.21214499 -0.36952674 0.82502407 -0.7935803 0.5444875 -0.64313203 0.16543934 -0.1990499 -0.31589264 0.9329362 -0.45784464 -0.35381648 -0.28216204 -0.2744645 -0.2333174 0.6270136 -0.3354074 0.75208557 -0.016080968 0.27065924 0.064473346 -0.48027852 0.30866107 0.008700311 -0.18101542 0.23757409 -0.15839301 0.19869027 0.085684195 -0.40436235 -0.07408757 -0.05765668 0.6031709 0.1378094 0.0720308 0.017146371 -0.0014563788 -0.24666515 -0.71644306 -0.092592485 0.42980546 -0.79451627 -0.0055160723 -0.0065798205 -0.49119997 0.20280196 0.5138689 0.34324592 0.053030927 0.260276 0.58488196 -0.8014063 0.44428456 -0.23434198 0.53513706 0.7452846 -0.35783267 -0.6435813 0.3483043 -0.07893882 -0.017393783 -0.1553557 -0.15316683 1.6438873 -0.030618034 1.0403517 0.16406581 -0.2647107 0.10425039 -0.25133067 0.3907526 0.32872906 -0.45817503 0.39651468 0.20805296 0.14398892 0.5932737 -0.5882251 0.4337443 -0.13845633
293 0.861851 0.41499525 0.16670819 -0.36768878 0.6395695 -0.5863051 0.02722784 -0.19699346 -0.4254001 -0.341731 -0.48311925 -1.4953896 0.812776 -1.4545535 0.03944129 -0.38283497 0.3975417 -0.67015845 0.63072556 -1.2892077 0.051208455 0.41276592 -0.16970864 0.16408658 0.050108157 0.60817146 -0.39862633 -0.32486612 0.16274732 -0.16688818 -0.9730611 -0.8149445 0.7695338 -0.40549245 -0.027264249 -1.0947237 0.18993793 0.18289796 -0.5333231 -0.36318207 -0.28832984 -0.90872586 1.4011339 -0.20078328 0.96382385 -0.7926756 0.027707517 -0.72832996 0.027456459 -0.10220527 -0.57346445 0.4988911 -0.53269905 -1.0627822 0.53172916 0.5119232 -0.07085837 0.29381815 -0.25298116 -0.007586068 0.1229103 -0.39303246 -0.8041864 0.61461496 -0.7511278 0.40292844 0.0142541025 -0.96608394 0.6411508 1.0857513 -0.55588126 0.56933665 -1.5204806 0.13102007 -0.31895116 -0.122887485 -0.07876625 0.3232861 1.0849235 0.024929726 0.09487498 0.1681008 0.7591879 -1.0579469 0.10753661 -0.18653916 -1.1781101 0.87370896 -0.08179049 -0.24469213 -0.4956731 0.7244785 -0.915826 0.5662391 -0.36177093 0.33841056 0.09171513 0.80378956 -0.23669393 1.0060018 0.81243175 0.03701306 0.41373876 0.31034467 -0.62013036 0.20995244 0.1467338 0.9293461 -0.70056415 1.0402906 -0.3715522 0.83936775 -0.26712883 0.54756314 0.24637003 -1.0154126 -0.4406974 0.19570836 -0.33956826 -0.18873899 -0.37614805 0.88538826 0.76273733 0.113663316 0.54892147 0.1637669 1.1574217 -0.14656508
201 1.756608 -0.8157428 -0.026605 0.87211573 1.4044648 -0.35493356 0.50161713 -0.7560888 -0.25542682 -0.638596 -1.3794888 -0.3441778 -0.22573136 -0.69600844 -0.37807417 -0.77370507 0.06076302 -0.34773985 0.1799671 -0.15493429 -0.29357702 1.4619007 0.64606416 0.7495252 -0.3752681 0.5920813 -0.88354564 0.42585766 -1.122668 -0.13498673 -0.077208854 1.1029106 -0.46602088 0.18632855 -1.729167 -0.7295836 -1.1289508 0.6434442 0.7606549 -0.4887076 0.75620073 0.7185861 0.3603994 -0.18699335 0.2627044 -0.89207363 0.13082023 0.66608715 -0.39901546 -0.15193897 -0.9187868 -0.8081167 1.1230502 0.053641018 -0.891043 -0.26991272 -1.389966 -0.58469313 0.38422877 0.21415813 -0.12388752 0.2181646 0.0067018904 -0.36816737 -2.0760837 -0.4763682 0.114811115 0.21111372 0.56279296 -0.23716934 0.6359187 0.85239285 0.39409304 0.22650218 -1.0390782 0.019519504 -2.212438 0.19824211 0.34013784 -0.26042393 -1.0653961 -0.033739045 -1.1671683 -2.2857814 0.36930394 0.27306497 -1.0155023 1.5083265 -0.56222594 -1.1027569 -0.44244647 0.05066929 -0.005265332 -0.055409975 -0.047688298 -0.29190776 0.09916803 0.06557076 0.23671155 -0.0023075577 0.9365867 -0.026352016 -0.1892854 0.55717516 0.42548227 0.016586464 0.36544767 0.9620895 0.8575419 1.4165351 -1.0511835 0.19253111 0.69118994 0.7109097 -0.14115019 -1.743669 0.07798494 0.85845494 -0.66188455 -0.54903877 -1.5919975 -0.6550171 -0.08839051 0.08580006 0.08016665 -0.15328074 0.47911626 -0.76741254
176 0.07830346 -0.1403467 -0.5213838 -0.28060818 0.07242628 -0.6527336 0.050146118 0.6341147 0.026016423 -0.9946723 -0.39574343 -0.138724 -0.21032324 -0.2704576 0.010203935 -0.04741796 -0.22385 -0.43832406 0.7399334 -1.044095 -0.009771954 0.24200332 -0.23999846 0.52597356 1.1021119 0.18975167 -0.08249112 0.059873573 0.029789492 0.47518805 -0.76447654 -0.30974197 0.027304817 -0.13066134 -0.2535643 0.46363994 -0.5094461 0.4863384 0.09166548 -0.41820213 0.6791497 0.30843985 1.0007265 -0.2646611 -0.010660098 -0.56919175 0.07847285 -0.9934338 0.22471438 -0.4976747 1.2370638 -0.43966582 -0.039568484 -0.40536675 0.6703053 0.11711531 0.307806 0.15423238 -0.059475727 -0.24095534 0.13985637 -0.7148551 0.0937931 0.38185522 -0.24247175 0.37960577 0.9224461 -0.21716361 0.119581416 0.14219524 0.021637762 0.1559674 -0.55101544 0.17159824 0.1172068 -0.28400674 -0.43608856 -0.49080336 -0.022776483 -0.42657384 -0.22292194 -0.31249955 0.18726717 0.38173202 0.21847841 0.31903458 -0.36165863 0.5870638 0.65672696 -1.732958 0.19705781 -0.07852356 -0.4417624 0.08906403 0.57601714 0.6264252 -0.09810835 -0.015926838 -0.1730677 -0.09604593 0.59387785 -0.2508139 -0.44722697 0.6837922 0.92609453 -0.520648 0.68441266 0.34010157 0.21562669 0.17030929 0.34021112 0.96018374 -0.7171877 0.77842015 0.5308179 -0.82541317 -0.6297242 0.3325972 0.41550317 0.029262079 -0.13357228 0.76594174 0.19327837 0.37558767 0.92748237 0.14749484 0.7776299 -0.89667785
217 0.16043673 0.29664817 -0.14691049 0.020524696 -0.04473516 -1.0763501 0.052366223 0.2901594 -0.20863703 -1.034461 -0.3648722 -0.53350925 0.028864412 -0.5388712 -0.44711277 -0.07459942 0.11731546 -0.5516543 0.5573052 -1.0963876 0.2876709 0.46913302 -0.21517089 -0.15112989 0.6019467 -0.08291151 -0.055450227 0.39113453 0.2782016 0.037959065 -0.7947649 -1.0385044 0.44892332 -0.5119286 0.03122237 0.6136814 -0.021676436 0.26244462 0.50880784 0.09978143 0.44771755 -0.3486983 1.2644018 -0.12764986 0.066739224 -0.32933456 0.044391625 -1.2282263 -0.11739751 -0.54961556 0.9404234 -0.4698528 -0.27845606 -0.89059705 0.1535154 0.61760354 0.08133857 0.039623026 -0.22761908 0.19092487 0.46742725 -0.30717784 -0.6233642 1.0923222 -0.5479713 0.04856308 0.5940317 0.023799045 0.047046967 0.5708539 -0.255188 0.056676958 -0.8445716 0.26677933 0.12904337 0.14999832 0.22523119 -0.20177804 0.35613534 -0.29594246 0.117247045 0.75676763 0.48141643 0.03208215 -0.29714403 0.69402784 -0.7018997 -0.2636351 0.6546469 -0.89574414 0.1829874 1.0292287 0.054029882 0.40708545 0.10233134 0.518817 -0.4855257 0.023916667 0.121404655 -0.34235823 0.31526318 -0.662818 -0.23828003 0.34108657 0.36271808 -0.64649916 1.1570454 0.21206373 -0.14345556 0.27753013 0.19133729 0.625184 -0.4495327 1.233079 -0.55031925 -0.91632175 0.046017762 0.34424686 0.9590748 -0.1069943 -0.5196611 1.2711082 0.3594727 0.02556055 0.45276362 -0.038641386 0.59120816 -0.3751255
258 0.43759212 0.07391095 -0.66692924 0.34541324 0.048908323 -0.88212234 -0.18768063 -0.32504302 -0.4396408 0.40793878 -0.5945009 -0.97900534 -0.08346972 0.058528088 -0.39400187 -0.0681666 -0.32372245 -1.0630462 0.11369317 -0.3408956 0.5975805 1.2022196 -0.198811 1.1565009 -0.32611305 0.60700613 -1.1808727 0.3407511 -0.5124136 -0.9872315 -1.3650047 -1.2941408 -0.45696548 -0.595111 0.16217954 -0.24134201 -0.25716603 0.32599574 0.28361648 -0.121959455 -0.004934498 -0.6342679 0.36192065 -0.30531025 0.44692662 0.37259752 -0.059775595 0.46795478 -0.73798037 0.15684722 -0.42393062 0.7073985 -0.81995595 -1.5398481 1.3526896 0.34412962 0.5180908 -0.28531948 -0.3278098 0.32618877 -0.18979996 0.07558186 0.011598881 1.057448 -1.2916148 0.8626419 -0.7015451 -0.23927054 0.24969691 0.9708993 -0.38976857 0.98302716 -0.40638173 -0.034995914 0.11839822 -0.33709216 -0.1648837 0.21749924 0.92270297 -0.29473397 0.933946 -0.0034598808 -0.411301 -0.8883857 -0.7378113 -0.8412684 -1.0777466 1.5143027 0.068774395 -0.51930344 0.06680067 0.68046457 -0.40128443 -0.09185746 0.055809006 0.38588038 0.24171871 1.281361 0.67948395 1.8409415 0.65992683 -0.038632188 0.91919935 1.1782516 -0.09224446 -1.0444969 -0.13129142 0.45968157 -1.2496594 1.3619412 -0.5647802 0.043885592 -0.8035058 -0.5703188 -0.338342 -1.8495142 -0.07906965 -0.113393836 -0.43726122 -0.39567214 0.5791609 1.2590512 0.4664578 0.4543765 0.7474792 0.18316852 0.16917735 -0.7408396
299 0.66529244 -0.63201326 -0.26605532 -1.3540204 -0.5747297 -0.7159453 -0.30122504 0.8374368 -0.05773441 -0.9958696 -0.3078844 -0.65990496 0.043661997 0.25226548 0.2342348 -0.35791263 -0.19038361 0.7748217 0.64647526 -0.7007317 0.109812304 0.26328596 0.11497305 -0.37096226 0.089330256 0.27913374 -0.0506317 0.31569675 0.35165724 -0.30750898 -0.22608763 -1.1251255 -0.09622878 0.3940649 -0.1027127 -0.30360693 -0.08140433 0.9052354 -0.8304451 -0.37049672 -0.5623054 -0.6761607 0.11446063 -0.36555946 0.08892914 -0.20174854 -0.27094665 -2.211695 0.010010265 -0.5203258 0.0837632 -0.4364626 0.341124 -0.30691817 0.32054433 0.4419251 -0.16629489 0.51226383 -1.2476918 -0.49473268 -0.6316137 -0.06615921 0.42432806 0.67799413 -0.5725604 0.6702538 0.22208428 -0.2333742 0.52753484 -0.37476912 0.16694464 0.3685247 -0.34001082 -0.11914502 0.42304894 0.12956408 0.03694341 -0.02956408 0.021968806 -1.0159011 0.72829986 -0.40313515 0.3185949 0.040162448 -0.17553978 -0.32212886 -0.9825257 -0.4308481 0.10284995 -1.27117 -0.3961056 0.58410823 -0.35948563 0.73056257 0.1765241 0.2701806 0.56139475 0.24742067 0.46455505 -0.39930177 -0.18985315 -0.620375 0.29649037 0.660855 -0.65400726 -0.5265938 -0.35597917 0.40924928 0.25710252 0.09297959 -0.19765332 0.94883883 -0.39758196 1.5832006 0.2870484 -0.1350932 0.08068419 0.13443859 0.387382 0.063616976 -0.5309665 0.31425062 0.3926378 0.16113381 0.71530056 -0.5366414 0.931131 -0.37964067
219 0.4610834 0.5769234 -0.50133485 0.44456005 0.15314077 -0.36938497 0.07464043 -0.27026486 -0.9465094 -0.48030534 -0.9101925 -0.83835244 -0.59449524 0.0008883415 0.3298635 0.032681685 -0.40773383 -0.81182563 0.4046785 -0.034326334 -0.30046016 0.9763244 -0.46919256 1.0780458 0.16021957 0.45833388 -0.68736726 0.43712372 -0.6127575 -0.45919335 -0.26388308 -0.8429247 0.36438662 -0.28154925 -0.61149 -0.4927648 -0.10378588 0.29381147 -0.49790224 -0.4057634 0.3301712 -0.53495985 0.734022 0.15510803 0.53501844 0.23505262 0.19966623 -0.12344793 -0.9511837 -0.2717178 -0.52063674 -0.2559255 -0.3196102 -1.3665591 0.24618149 0.23479724 -0.59174865 -0.2734684 0.17456117 0.20113856 -0.12439003 -0.038196392 -0.25462055 0.7718804 -0.97734636 0.8750524 -0.34988827 -0.7220177 0.2995154 0.94391453 -0.20079839 0.34869236 -0.42699715 0.064352855 0.40468934 -0.08788766 -0.23066917 -0.3585248 0.59072393 -0.58472455 0.53041255 -0.8188536 -0.62891835 -0.84052783 -0.26450762 -0.72280836 -0.61838806 1.798671 0.55844986 -0.9737808 -0.21106377 0.49763513 -0.65009123 0.12124757 -0.247426 0.338301 0.7737204 0.719363 0.17524289 1.071266 0.13331504 -0.69827425 0.27814758 0.56970096 -0.40376833 -0.5106597 0.34691432 0.43609563 -0.6094009 1.0519335 -0.3470406 0.81804425 -0.1026663 -0.19762745 0.41563013 -1.3924326 -0.10836956 0.40252316 -0.28218246 -0.7544547 0.1247336 0.6860629 0.11742731 1.3240641 -0.079272866 -0.5140143 0.45888245 -0.9218269
174 0.33178326 -0.6297077 -0.5697744 -1.1037163 -0.285192 -0.8147795 -0.28174612 0.8219117 0.30856678 -0.78593946 -0.35911936 -0.5043975 -0.22723383 -0.037151195 -0.069083266 0.0102757225 -0.057336323 0.46812987 0.7189589 -0.34598178 -0.12032774 0.84583 0.118947886 -0.05343172 0.45874077 0.18115021 -0.62324154 0.7719836 0.4728958 -0.20169161 -0.5120115 -0.7449973 0.03565004 -0.08782219 0.0570159 0.3327367 0.303259 0.21427797 0.15439671 -0.66281307 -0.041736986 -0.20700704 0.63617194 -0.86260116 0.31381577 0.1034582 -0.15374112 -1.6973357 0.53376776 -0.4256484 1.1235541 -0.62909675 0.28448242 -0.35875657 0.69484806 -0.102074884 -0.06853336 0.47649956 -0.3004722 -0.45225334 0.3126942 -0.3969074 -0.0036060654 0.28977194 -0.46156958 0.9334397 0.3962776 -0.0022708704 -0.029892428 -0.16434209 0.13079405 -0.16192102 -0.35384148 0.22522505 -0.09526083 -0.1649062 -0.18290508 -0.48424733 0.06990227 0.34575605 0.4615862 0.116719544 0.39684588 -0.12843634 -0.1424198 -0.45198095 -0.5049955 -0.09107851 0.30611187 -0.77541137 -0.1604483 0.062782265 -0.19418024 0.3631938 0.110924534 0.6380216 0.03847261 -0.09286847 0.34902954 -0.725439 0.42776752 -0.08287405 0.16421993 0.76762015 -0.30620328 -0.8168298 0.006955644 0.19630629 -0.34553045 0.034171075 -0.24220715 1.1266091 -0.380726 0.75686127 0.19674969 -1.0633358 0.0741261 0.1842305 0.41480994 0.0073051048 -0.20668517 0.33705142 -0.054524872 0.07517461 1.0494919 -0.18650766 0.86464506 0.43468252
144 0.49729583 0.64689296 -0.072375685 0.19558935 0.9778053 -0.064700596 1.6499201 0.01756197 -1.5563298 -0.72519875 -0.031096322 0.10015235 -0.066863164 -0.70571756 -0.5014395 -0.15552463 -0.837687 -0.059666045 1.5382508 -0.66183376 -1.4139832 -0.7355809 1.0655308 1.8514918 0.46922544 0.19197707 0.71088886 -0.36329052 -1.2737623 -1.1138508 0.69622713 -0.80105203 0.7834769 0.33971786 -0.8330407 -0.9434771 0.61494905 0.29392603 -2.4346118 -1.6293795 0.5282409 -0.22639386 -0.13647689 0.25805658 0.8894671 0.4099262 0.5321463 -0.6380618 -1.4367615 0.6215336 -0.6032712 0.43892327 -1.0444508 -1.6566329 0.063039064 0.14255011 -1.2069138 -0.10503514 -0.542529 -1.070626 -1.0239315 0.4899589 0.40332487 0.33851764 0.0424102 0.6884595 0.6895886 -0.6926999 0.90645105 0.6233616 -0.009513691 0.34155646 -0.3403117 -0.9160362 -0.043840468 0.21920961 -0.291271 -0.87018293 0.51931673 -0.8729471 0.6319362 -0.5131849 -0.61526674 -1.192396 -0.08415261 -1.774341 -1.1277146 1.152863 0.05309299 -1.3813747 -1.5510861 1.4490936 -0.3415687 -0.19554225 -1.3076128 0.37482592 1.1785927 1.1649679 -0.17112233 1.3779316 -0.068966016 -0.60421747 0.3599169 -0.74150956 -0.14389518 -0.124087185 -0.71243495 0.74459654 -0.4023421 1.0569613 0.66411096 0.20627707 -1.086002 -1.1899297 1.6351647 -0.78492177 0.593379 -0.2654658 -0.1922242 -0.4329933 0.40597817 -0.10090516 0.36309117 0.5003568 -0.24985076 -0.78260446 0.32359806 -0.5993979
248 0.32285795 -0.4024808 -0.7442205 0.6381477 0.2188552 -0.10481836 1.1026868 -0.27025697 -0.2959805 -0.4406349 -0.67427474 -0.27705872 -0.36646244 0.8275918 0.18169266 -0.13379045 -1.0298012 -0.35217234 0.374132 0.24946433 0.19714421 1.345655 -0.090153664 0.93429625 0.45739508 0.61082184 -1.0988411 0.43803793 -1.226902 -0.5574895 -0.73457664 0.28071323 -0.21204536 -0.14839168 -0.56438977 -0.61104286 -1.0348024 0.41074693 0.045165367 -0.18510486 0.79477704 0.038032036 0.12092312 0.075099394 0.44084844 0.024543772 -0.38694277 0.22220397 -0.5805459 -0.044343665 -0.48322177 -0.14909768 0.25609374 -0.8015843 -0.074754685 -0.57021034 0.21597753 -0.74326247 0.03306397 -0.54874843 0.38067073 -0.031557087 0.39892662 -0.15078145 -1.5701436 -0.25441962 0.5220476 0.06480332 1.0056589 0.9096351 0.2694371 1.2244339 0.6043511 0.015401873 -0.513506 -0.14974208 -0.8598676 0.2145093 0.6247864 -0.8866227 0.30097345 -0.82683665 -1.1991199 -1.1409684 0.22990197 -1.1416235 -0.5763253 1.6312276 0.3020017 -1.4265882 0.26454934 0.16866511 -0.9500862 -0.27016684 -0.33956793 0.3808673 0.49168468 0.06036945 -0.06903698 0.8578845 0.6719193 -0.61055887 -0.70459616 0.6066789 -0.6193791 -0.28485167 0.18382539 0.4698702 0.3449713 0.5887954 -0.4912301 0.49610364 -0.68369275 -0.77667516 -0.1662145 -2.3298483 0.46792358 0.3846646 -1.1026098 -0.48500282 -1.3201271 -0.18354209 -0.76963747 0.64668506 0.4355314 -0.0022750567 -0.00488989 -1.0757929
150 0.18646741 -0.3585972 0.10362639 -0.7921752 0.43066558 -0.40296683 -0.5157506 0.9067637 0.18586066 -0.7823468 -0.034614585 -0.6803176 0.012374945 0.19049051 0.29248863 -0.40602538 0.0052975537 0.48273045 0.96872 -0.76733106 0.7237058 0.9928944 -0.641974 -0.5981218 -0.17822835 -0.51659995 -0.92045915 0.69033307 0.13088161 0.0606968 -0.20756589 -0.53470963 -0.38480356 0.8459325 -0.7682065 0.110406995 -0.20156404 -0.42719638 -0.7655882 -1.1203535 0.1893523 0.5933537 0.6004741 -0.63694376 0.20727164 0.15555358 -0.3385315 -1.4376309 0.024000162 0.37434262 1.0674384 -0.81261814 0.54101074 -0.5412105 0.019485043 0.097599424 0.06622856 0.9597971 -0.48240745 -0.090543665 0.05759293 -0.19857404 0.8849161 0.35559672 -0.6675606 1.2936195 0.4806775 -0.14727975 -0.08537013 0.08034236 -0.53742045 0.24784197 -0.98158437 0.28913915 0.39795712 0.10483585 -0.09001207 -0.5924881 -0.216949 -0.9953355 0.012841328 0.28542727 0.27804613 -0.52563095 0.5041326 -0.6613673 -0.8157608 -0.07673102 -0.60239685 -1.3806491 0.14742337 -0.046104096 -0.59605724 0.9992612 -0.5591563 0.33718595 0.43424022 -0.046446297 -0.14098737 -0.54771173 0.6665457 -0.28965452 -0.38786045 0.37604207 -0.110966735 -0.5266035 -0.24890487 0.16836536 0.5637181 -0.0011203681 -0.24833521 1.0966767 0.26375297 -0.077327885 0.60960585 -1.007612 -0.30221456 0.05270592 0.6542784 -0.81360984 0.22496559 0.6056934 0.14402565 0.039471902 1.4254508 1.0053574 0.057081938 0.60026145
131 0.49151275 -0.1974414 -0.46597978 -0.7362586 0.33972824 -0.60586584 -0.038645323 0.43874574 0.112164944 -1.2841142 -0.57741445 -0.41931525 -0.16294193 0.3432647 -0.1348832 -0.24074544 0.053464852 -0.038360357 0.63270193 -0.42089263 -0.12424466 0.9633461 -0.16176435 0.24837768 0.10106839 0.13941808 -0.63552547 0.50007 0.20187423 -0.27167022 -0.29381263 -0.9113478 -0.134473 0.08176795 -0.11486292 0.001387932 -0.57910234 0.33320957 -0.011886664 -0.36034524 0.14655991 -0.49103764 0.5873601 -0.543712 0.6166452 -0.06786069 -0.17333135 -0.9275122 -0.09027509 -0.39066914 0.3932868 -0.42367363 0.042254105 -0.6428307 0.053636722 0.40741605 -0.6102919 0.4582246 -0.2390286 -0.05744604 -0.23611197 0.049899604 -0.31942642 0.6209046 -0.6897369 0.73324496 0.39058703 0.2332862 -0.06394042 -0.15024784 0.3455251 0.13100016 -0.5507137 0.15872766 -0.23007786 -0.16241182 -0.1732704 -0.7058131 -0.002432068 -0.3491894 0.23377405 0.025319686 0.085458934 -0.4901893 -0.47952065 -0.5751965 -0.7677661 0.48434004 -0.050010946 -0.6245376 0.18081918 0.0066498173 -0.6636885 -0.17156881 -0.059963528 0.2077108 0.44893137 0.17319871 0.070331275 -0.23120096 0.39867273 -0.3611958 -0.40537372 0.64605653 0.0008487947 -0.72791755 0.14538313 0.2193728 -0.3385608 0.4255381 -0.020081125 0.93510306 -0.030136181 0.5110335 0.36806238 -0.8505318 0.14945734 0.12869872 0.34272844 -0.41485906 -0.43961826 0.14734386 0.2035678 0.2764312 0.70156705 -0.17945504 1.0830451 0.12299322
109 0.443799 0.09730188 -0.44605038 -0.42807588 -0.158302 -0.5766372 -0.13366103 0.21900825 -0.5927133 -0.6787061 -0.39730975 -0.6859547 -0.31721717 0.00315117 0.10803359 0.20279743 -0.24418437 0.3387916 0.73327416 -0.05706939 -0.12817147 1.0755572 -0.44662803 -0.035478804 0.26026416 -0.49706906 -0.9787367 0.9635433 -0.35262835 0.13268204 -0.32111135 -0.20470837 0.19064878 0.38883704 -0.5367804 0.5622493 -0.062177904 0.5888132 0.10513544 -0.6859311 0.15682554 0.29580522 0.4688592 -0.458296 0.4399556 0.5633227 -0.19841792 -0.73669803 -0.2937619 -0.101274095 0.6488356 -0.31576267 0.31753853 -0.56304353 0.19258136 -0.13729312 -0.5640561 1.0700151 -0.5142678 -0.74300057 0.111426115 -0.47308478 0.35672876 0.526986 -0.4433525 1.0212276 0.222803 -0.12664792 -0.16241425 -0.61913204 0.4399458 -0.24570417 0.25743663 -0.086157374 0.23356567 -0.048703853 -0.2231469 -1.082098 -0.30476725 -0.1925297 0.16475965 -0.15986021 -0.28409702 -0.49431396 -0.48177588 -0.8661597 -0.81814957 0.116875894 0.21068545 -1.440232 0.037740834 -0.37441555 -0.9925436 0.24249205 -0.06638641 0.18455745 0.26814035 0.19942187 0.2553411 -0.77334535 0.07740467 -0.2275783 0.22627237 0.75576216 -0.21631914 -0.7857291 0.11876901 0.13464603 -0.29722393 0.43843612 -0.00013225386 1.2906748 -0.008309647 0.042166263 0.69668806 -0.81783825 0.28029448 0.29395336 0.6371811 -0.012979154 0.2404623 0.52759504 0.370286 0.37931097 0.9374664 -0.5209232 -0.033697065 -0.22503628
47 0.35018116 1.1703578 0.028548442 0.0073582875 -0.014184364 0.6023822 -0.010994328 -0.9509665 -1.3646085 0.6857452 -1.1056896 -0.6662003 -0.8716606 -0.98504853 0.32366058 1.0791651 0.6555748 -0.3445456 0.20538127 0.6241872 -0.35314754 0.9821821 -0.8439922 1.4176513 -0.63628715 0.96707606 -0.49640465 0.32575327 -1.3175575 -0.2974399 0.17080553 0.34925058 1.2224813 -0.588813 -0.68161154 -0.22124161 -0.27235967 -1.7280141 -0.20166543 -0.95115364 1.0907652 0.5810313 1.1249714 -1.5699462 -0.08633029 -1.0246793 0.7681481 1.5680627 -2.437452 0.08843942 -0.10096769 -0.58112985 0.44784352 -1.0735506 0.26325354 -1.3967531 -0.15165465 -0.55761445 0.30039242 -0.109659955 -1.0544904 -0.3468362 -1.1759996 0.29170015 0.6869179 -0.14579192 -0.37745965 0.21714954 0.25753817 0.9824267 0.15260585 0.14608541 0.23801452 1.1230328 -0.6007827 1.4937973 -0.44855976 -1.637084 0.90455043 -1.6254135 0.32643652 -1.3784679 -1.2622426 -1.8423101 -0.03057643 0.8877051 -1.2909061 1.7000682 -0.8150206 -1.9038546 0.14823359 -0.2524933 0.08237546 -0.6087098 0.17415868 0.201866 1.2241255 0.43296275 0.39271113 -0.96662045 0.66350293 -0.37411976 1.3277975 0.89046323 0.5576994 0.25128642 0.536972 0.8580131 0.486274 0.9830797 0.5506849 0.32879496 -1.2294878 0.1826986 0.6625453 0.13940884 0.57584256 -0.6872567 0.011849578 -0.6466254 -0.7036719 -0.70414305 -0.12140437 1.3498578 -2.1910048 0.45588604 0.6399706 -1.1570293
146 0.4907788 -0.55370533 -0.8722695 -0.7745536 -0.4076581 -0.14034563 -0.08802989 0.7042679 -0.2687007 -1.8127825 -0.55611753 -0.2109804 -0.37545827 -0.045076333 0.27040935 -0.3069107 0.45238405 0.29765597 0.7385578 -0.13252151 -0.78123516 0.3489889 0.5735186 0.30639273 0.5670832 0.15020674 -0.50617516 0.15011665 0.2211737 0.40222645 -0.01577298 -0.66452235 0.39547485 -0.1979575 -0.2149818 -0.27758467 0.0026956745 -0.37969065 -0.24546121 -0.56452346 -0.069525905 -0.7791811 1.0356942 -0.7272315 0.33117926 -0.435452 0.3854732 -1.0076535 -0.010877431 -0.21405122 0.990953 -1.0957208 0.22723404 -0.3677613 0.03612387 0.3688996 0.1751762 0.11534476 0.3480486 -0.12701161 -0.039247904 -0.14774868 -0.54276955 -0.5954295 -0.50104225 0.8000202 0.3424226 0.21912803 -0.2428034 -0.08048369 0.92110884 0.07060107 -0.7906885 0.050983265 -0.1464959 -1.0545127 -0.62180793 -0.49824756 0.124232434 0.032248206 0.625827 -0.043189242 0.915225 0.51125675 0.4102963 -0.3194588 -0.28002656 0.1870137 0.42901376 -0.100273 -0.40350932 0.32521838 0.13379306 0.32689565 0.6087858 0.651622 0.2138752 0.052546885 0.30385613 -0.008734462 0.4803725 -0.053708877 -0.6298923 0.2631429 0.16924018 -0.3663872 -0.26922628 0.37898797 -0.5298818 -0.5193378 -0.20391792 1.1200353 -0.4415549 1.4663836 1.232242 -0.09028659 0.23485842 -0.07453057 0.2088264 -0.0714109 -0.14257832 0.29644346 0.33009434 0.94980156 0.91228145 -0.20098886 1.0975198 0.21161908
177 0.45860124 0.21871327 -0.1525044 -1.1353791 -0.73598224 -0.8907259 0.10132536 0.16994722 -0.3803537 -1.4272798 -0.5602228 -0.47172347 -0.41100502 -0.44629177 -0.25697714 -0.48678166 0.31235853 0.21510117 -0.1495688 0.08871091 -0.62069625 0.52195036 0.4032332 1.4896789 0.36639255 -0.52376044 -1.1527797 0.85407406 -0.71683395 0.3214721 -0.5104479 -0.013727766 0.023702193 -0.5938206 -0.5266774 0.41908452 0.37396953 0.30407447 0.8661953 -0.5873743 0.10841306 0.06891518 0.7223098 -0.56695366 -0.011079835 -0.18545392 0.31997278 -0.67714626 0.10700755 -0.34416908 1.0344456 -0.81442827 0.16869414 0.5131652 0.52271914 0.49186096 0.252096 0.17235073 -0.091937415 -0.06984806 0.83205307 -0.108529754 0.18968397 -1.1301414 -0.01597796 0.9047078 0.04877974 0.33110797 -0.6233045 -0.26632434 1.6746322 -0.0436739 -0.4198224 -0.30761993 0.57093185 -1.1223029 -1.1144398 -1.5556942 -0.15875217 0.71621186 0.222483 0.22457072 0.37079316 -0.25879106 -0.15691623 -0.3973936 -1.0584337 -0.19886722 -0.30783415 0.13344745 -0.7011826 1.0833231 0.2365665 0.09041574 0.45917076 0.37762564 -0.12741713 0.4213124 1.0587957 -0.24650684 -0.18965486 0.72846025 -0.48328853 0.1352476 0.40323564 -0.31806377 0.10693656 0.22574249 -1.1466124 -0.20923568 -0.35610273 0.7603819 -0.17109045 0.8376226 1.0881189 -1.1948929 0.6385239 0.61914724 0.22051696 -0.20937742 0.2138184 0.9006149 0.09612538 0.10603204 0.52536464 -0.41233078 0.4628855 -0.11438225
167 -0.16411598 -0.084002405 -0.6736604 -0.5046883 -0.01871507 -0.25993234 0.99782205 0.1842199 -0.67291516 -1.2474308 -0.030993568 -0.48570985 -0.18004775 0.59401405 0.19887252 -0.06048647 0.9297991 -0.0935466 0.18387423 0.005178502 0.29617286 1.0833533 -0.88573843 -0.21757211 0.4681764 0.19928734 -1.7239685 -0.32152465 0.20011678 0.26514456 -0.5606058 -0.020426817 0.039728478 -0.5829601 0.10866487 0.44117954 -0.90886635 0.036241695 0.34009767 0.62577665 0.09340928 -1.0385817 0.7159026 0.0847632 0.15862067 -0.12643905 1.4737715 -0.8671912 -1.2172028 -0.58040863 0.5651463 -0.73648053 0.34046844 -1.3474455 -0.381294 0.090602785 -0.48274624 0.22301815 -0.5143787 0.037177306 -0.0928864 0.21651518 -0.47090083 0.3988731 -0.65094405 0.43849996 0.49353248 -0.20115176 0.11432916 -0.5853458 -0.12592548 0.24229029 -0.10191391 -0.20819966 -0.44240656 -0.16318464 0.480056 -0.55636513 0.90980417 -0.69841015 -0.057249803 0.34038714 0.25057626 -0.40334013 -0.4829948 0.22368075 -0.57643217 0.124800436 1.081928 -0.7977697 0.06273779 -0.5920442 -0.46309593 -0.01591318 0.06038139 0.55051935 0.23173957 -0.78697795 0.09397986 -0.08621522 0.22339737 -0.9790388 -0.85256076 0.51670945 -0.5834902 -0.5217277 -0.44976836 -0.9398965 0.018198287 -0.47491917 0.047501735 0.32649785 0.31497636 0.5998995 0.016544038 -0.07902734 0.690407 -0.41687328 -0.024148284 0.59776485 -0.6570824 -0.50230825 -0.6114864 1.1900259 0.47364503 0.8988076 0.3615029 0.25323746
221 0.043459482 -1.2514814 -0.44006047 -1.7476428 -1.0231147 -0.73929876 -1.8389533 1.8137445 0.47876126 -1.0087467 -0.7927782 -0.22799158 -0.02912685 1.1611356 0.81358254 -0.38575232 -0.47241536 1.0865041 0.34657478 0.09044658 0.2114946 0.22473334 0.07879588 0.10631894 0.2876428 0.29693353 -0.26334485 0.30081084 0.31250972 0.12490954 -0.098662764 -0.9905026 -0.54598755 0.6479356 -0.16459197 -0.058914706 0.47837982 0.042173475 -0.419579 -0.28773195 -0.46018374 0.24861751 0.77726 -0.7948963 0.046910997 -0.13080414 -0.7859728 -1.4996269 1.2453566 -0.36479452 0.3368576 -0.9115506 0.80298537 0.809795 0.8304221 0.40738353 1.6024643 -0.06689802 -0.039290138 -0.022334991 0.06753299 -0.90641844 0.22084422 -0.106609896 -0.20067675 1.3841777 0.03635071 0.22686078 0.058753952 -0.44236153 1.1041554 -0.33669862 -1.0072147 0.10774284 1.1111583 -1.0204223 -0.45687947 0.13209055 -0.38978422 -0.85481554 1.0260115 -1.2304159 0.45753863 1.1485014 -0.03389718 0.15591511 -0.22481886 0.08233075 -0.2756291 -0.35168293 -0.098729126 0.6597513 0.050208773 1.3565137 1.0544754 0.78640145 -0.41412553 -0.41741404 0.98898476 -0.27379683 -0.5905426 0.29149157 -0.22645894 1.2829636 0.16112576 -0.11918586 -0.24397445 0.586579 0.4836106 -0.6638544 -0.72361255 1.1201999 0.040113345 1.9506198 0.6617075 -0.3420564 -0.8345976 0.007032508 -0.13008249 -0.89870846 -0.5404146 0.57725513 0.5492566 0.5841517 0.74690574 -0.42465034 1.1506093 0.4648379
311 0.33071756 0.09890006 0.25141665 -0.9878871 0.09274484 -0.3934724 -0.34291428 0.18960914 0.17376062 -0.91589797 0.046122774 -1.2443322 0.04044787 0.20373605 0.28717303 -0.6096891 0.142627 0.3682525 0.5556974 -0.7618525 0.69317305 0.8257814 -0.73585075 -0.7166595 -0.44880947 -0.3447757 -0.40819928 0.46396154 0.17447414 -0.30649775 -0.3551416 -1.1951605 -0.07400648 0.6866811 -0.62520593 0.15753211 -0.55099875 -0.008366906 -0.66165406 -1.1618813 0.3454668 -0.16331752 0.3052287 -0.9984928 -0.17186339 -0.4781415 -0.46523306 -1.5162264 -0.66616344 0.1658324 0.3476009 -0.78382134 0.3184248 -0.45470226 -0.09562842 0.1660565 -0.34471828 0.8001528 -1.073917 0.36393517 -0.33146462 0.28606388 0.3971339 0.28012574 -0.82638144 0.99515057 -0.14349325 0.13769482 -0.2363101 0.07959032 -0.31241897 0.46405163 -0.6925763 0.4532951 0.7119863 0.6315349 0.1878419 -0.416013 -0.3323181 -1.1795207 -0.12210674 -0.40216494 -0.16346022 -0.48428535 0.49097806 -0.5353436 -0.53648674 -0.38826013 -0.9054831 -1.1286138 0.06852211 -0.1969371 -0.44500136 0.94686216 -0.2999978 -0.07109289 0.63784915 0.20149963 -0.6466091 -0.54427433 0.39981425 -0.93843883 0.27284807 0.48018017 -0.4166821 -0.7771221 -0.07525124 0.54131097 0.61541 0.21406953 0.030503513 1.2432759 0.4598273 0.7793315 0.34264642 -0.028431851 0.15412885 0.45712632 1.0166187 -0.6296309 -0.114329 0.44244874 0.43223643 0.37788597 0.87464184 0.4634485 0.4828351 0.05046532
301 0.35460818 -0.021372283 -0.2814124 -1.0067698 -0.27717367 -0.5841609 -0.12155124 0.09280297 0.0142899 -0.9512719 -0.33519968 -0.9355226 -0.15999798 0.28548655 0.024435764 0.22763668 0.095958225 0.4181607 0.2971072 0.15777496 0.079944864 1.0194938 -0.2656287 -0.3429352 -0.09939169 -0.006787268 -1.1422797 0.62788105 0.042316627 0.36642286 -0.012614464 -0.69192123 0.18826155 -0.18498915 -0.21068154 0.021418437 -0.30050266 0.6777428 0.30596343 -0.4400176 0.07890645 -1.0790718 0.5643112 -0.7010483 -0.088534914 -0.17676875 0.47572097 -1.412314 -0.62804544 -0.6170992 0.58203757 -0.95013934 -0.3595452 -0.6745597 -0.07824396 0.35433272 -0.53052586 0.49474603 -0.83738786 0.18712866 -0.106776536 0.28268522 -0.26584432 0.33132023 -0.8442774 0.9692759 -0.29026514 -0.19051474 0.11200181 0.27427894 0.13606417 -0.051578302 -0.34132224 0.32728785 0.6907648 -0.15132211 0.49926344 -0.39705503 0.2738827 -0.37723663 0.18510805 0.011981498 0.120818555 0.114034966 -0.09175451 -0.18435097 -0.6050941 -0.29394823 0.6027229 -0.26913822 -0.24046639 -0.45990744 -0.29942334 0.27448782 0.4002448 0.19022736 0.49691477 0.027656434 0.03389466 -0.45491847 -0.23753685 -0.90511817 0.34027526 0.56317675 -0.77063805 -1.0062788 -0.46199492 -0.5329714 -0.15653397 -0.018208101 -0.31565672 0.8103794 0.12575106 1.1992686 0.21407093 0.15582874 0.21808304 0.14677726 0.65887564 0.10108056 -0.24225865 0.5578386 0.061833974 0.80314636 0.475207 -0.16552915 0.2575126 0.022690091
310 -0.05345449 -0.20296308 -0.17879377 -0.43651006 -0.09343118 -0.41471025 0.5590483 0.28053954 -0.3263757 -1.3068188 -0.16192862 -0.5028013 -0.32314768 0.48707476 0.14083473 -0.098143175 0.26428148 0.7218967 0.48642513 -0.33107898 0.14481744 0.84345216 -0.42970675 -0.72618115 0.2834048 -0.53915 -0.8794739 0.29670382 0.50567144 0.07133062 0.0868304 -0.931797 0.42612043 0.2041013 -0.11905071 0.37489206 -0.15173298 0.31236982 0.0716946 -0.030401802 0.20496875 -0.9284725 0.47600785 -0.3673732 -0.17910734 -0.23947766 0.24244334 -1.37261 -0.8447026 -0.228605 0.7466647 -0.82037413 0.22093253 -0.8422335 -0.50134706 0.60270876 -0.35129148 0.22270036 -0.553555 0.019452654 -0.04391173 0.40491825 -0.31619996 0.31280833 -0.70919085 0.4724401 0.21069466 0.17859744 -0.1662771 0.033332236 -0.11890533 -0.008000415 -0.6436298 0.24728598 0.02430985 -0.30476546 0.30623987 -0.21531095 -0.055116255 -0.31603318 -0.01200464 0.52107686 0.39951545 -0.3139168 -0.046401795 -0.28362384 -0.21796341 -0.42409125 0.4103276 -0.19145663 0.11651603 -0.1829467 -0.2758429 0.36541435 -0.18861075 0.11876285 0.21303213 -0.30431253 -0.20851527 -0.05120075 0.16062394 -0.93195516 -0.38066566 0.014565354 -0.37152934 -0.5888248 -0.09186359 -0.39614233 -0.10799312 -0.070091195 -0.112427905 0.7644578 0.13344136 1.1655625 -0.039809108 0.34248382 0.31252906 0.11380424 0.79160625 0.1102825 -0.5532045 0.08221493 -0.14349253 0.836896 0.40048635 -0.0020797309 0.23292916 0.47558364
179 0.46583593 -0.1491402 -0.6124037 -0.6852678 -0.26302382 -0.22078508 -0.13471006 0.58415776 -0.20169854 -1.4072692 -0.052193 -0.120873414 -0.20503221 0.3515807 0.017040234 0.049862206 0.09189461 0.79962933 0.84128857 -0.0017653259 0.17129463 1.1802409 0.169226 0.06707749 0.247895 0.24104297 -0.9196848 0.38107234 0.31753033 0.68682337 -0.28827336 -0.48912284 0.23159929 -0.1083967 -0.40434384 0.32770112 -0.4525903 0.30486605 0.18883917 -0.16229814 -0.14049484 -0.45901716 0.3570929 -0.5058373 0.21481596 0.079023734 0.64328355 -1.3967253 -0.6829824 -0.34251362 1.0848358 -1.1215266 -0.27670926 -0.45382962 0.22802225 0.17006697 -0.2851203 0.4748098 -0.62440413 -0.47571653 0.24515732 0.32218674 -0.3031398 0.18948616 -0.6401383 0.62702 0.13847487 0.11502464 -0.0015167802 0.10405065 0.35241207 0.091442116 -0.38423324 0.028372971 0.12839417 -0.26189443 0.0616353 -0.8924523 0.33927548 -0.36284652 0.21573281 0.14397822 0.76873016 0.24222864 0.19851619 -0.517163 -0.42484516 -0.19865969 0.7050235 -0.3874179 -0.25377986 -0.13855618 -0.47902903 0.043338187 0.68741393 0.43286544 0.4457556 0.09984235 0.6084386 -0.32573253 0.22155668 -0.64693594 -0.3778727 0.2793062 0.016545651 -1.101615 -0.61473817 -0.5318975 -0.11304215 -0.29621178 0.01881635 0.9879756 0.294459 1.223655 0.61591667 -0.03578618 -0.13505037 0.0017504371 0.75838697 0.32517865 0.12655829 0.64631695 0.2080779 0.6762031 0.72065985 -0.26558197 0.3006428 0.15422125
263 0.46515426 -0.14476947 -0.150657 0.30381623 0.09282581 -0.32399926 -0.22627817 -0.15259588 -1.0515813 -0.33936375 -0.385556 -0.520758 -0.53816974 -0.2539234 0.519496 0.14223158 -0.12654033 -0.6828874 0.56399345 0.10969739 -0.36735073 0.6680561 -0.053675093 1.3803332 0.15572023 0.5541454 -0.40856624 0.780721 -0.7019838 -0.12447578 -0.21893585 -0.55108976 0.59780234 -0.10998798 -0.77165806 -0.33322656 -0.25387207 -0.03874282 -0.47076362 -0.62584305 0.4894402 0.050041284 0.63168246 -0.13872764 0.49300566 -0.2074706 0.07616026 0.40124395 -1.175171 -0.22044842 0.15827572 -0.9073823 -0.33888167 -1.040029 0.2562391 -0.21586767 -0.78359336 -0.058402404 0.24801414 0.27182654 -0.28170407 -0.11079287 -0.14021417 -0.15462932 -1.1550661 0.4903997 -0.49037775 -0.57499146 0.5033222 0.94319123 0.32157043 0.23494017 0.33886808 -0.048956566 0.59435457 0.09523456 -0.36514136 -0.17778637 0.89308655 -1.290878 -0.0044556293 -0.9995252 -0.6078428 -1.1274159 0.08135245 -0.7448692 -0.7588168 1.5959501 -0.10513431 -1.227918 -0.11920682 0.8715488 -0.18233915 -0.08862858 -0.044058982 0.13829927 0.9313318 0.93534225 0.07450062 0.37813762 0.32340536 -0.571286 0.29299003 0.5361984 -0.2255203 -0.24232857 0.27677712 0.9007254 0.022434212 1.0140418 -0.7594686 0.6471583 -0.49549 -0.3855432 -0.18403521 -1.3275019 -0.06265997 0.73612726 -0.7221006 -1.2748648 -0.09788491 0.30758578 0.08213737 1.876771 -0.55577224 -0.018881842 0.053648345 -1.0347935
232 0.2746839 -0.35738716 0.3071629 1.0711303 0.6567176 -1.4650681 -0.43123186 -0.012448506 -0.09171255 -0.58542717 0.0456952 0.14799987 -0.037866667 0.24195716 0.33271164 0.23783502 0.05456571 -0.6904075 1.16601 -1.0308255 0.5336429 0.88125587 -0.81457126 -0.002313977 0.23617114 -0.6147257 -0.90208143 0.38514462 -0.5735723 0.75010264 -0.72759545 -0.102651656 -0.19723228 -0.040746674 -0.00452356 0.11638026 -0.6638585 1.9197222 0.9655502 0.981889 -0.008674372 -0.59417784 0.8526015 1.0242811 0.22922823 -0.16363159 -0.06406477 -0.22888857 -0.38888702 -0.6154367 0.4131259 0.16451357 -0.07591902 -0.600614 0.53785473 1.6794758 0.10370274 0.20843175 -0.25411046 0.26608482 0.4698628 0.045390278 -0.077476904 1.5695019 -1.1771963 -0.01623282 0.54144573 0.056306582 0.30929253 0.33805653 0.17316318 0.24195199 -0.5518459 0.2395274 -0.05951175 -1.1854633 -0.67930835 -0.19668312 0.023114482 -0.36600867 -0.3106675 1.0412638 0.41494232 -0.52162606 -1.3750534 0.3657987 -1.5514389 0.3299411 -0.009181475 -1.2199497 0.33712465 0.36436936 -0.8817893 -0.45759854 0.19243357 -0.20541987 0.078360066 0.37852234 0.24804665 0.7209575 0.107448794 -0.5745984 -0.6527074 0.22586414 0.3300632 -0.41925326 0.5790545 -0.18959786 -0.52666575 0.9710757 0.38197634 -0.06867797 -0.012586544 1.0244787 -0.20708881 -0.5018895 -0.70860356 -0.010355913 0.6383516 0.964788 -0.060269184 1.5941117 0.17215522 -0.23394732 0.52639663 0.09803557 0.44162622 -0.92809844
94 0.47538206 -0.2707939 -0.26359576 -0.09288774 0.0966601 -1.353875 -0.12602466 -0.040637236 0.15802886 -1.4971833 -0.67739844 -0.7002893 -0.42018157 -0.37748533 0.6721116 -0.2772927 0.04131767 -0.2637067 0.20632562 -0.34983668 0.30295214 1.0505242 -1.0880609 -0.061632503 -0.092765346 -0.7936241 -0.85997534 0.62132305 -0.11239238 0.050108653 -0.16087463 -0.61185515 -0.2817165 0.079078466 -0.37928677 0.46360672 -0.5470275 0.52612877 0.27736917 -0.38168997 0.5261173 -0.07355281 0.1006723 0.09278611 0.62863624 -0.34299752 0.35916632 -0.63075185 -0.7901895 -0.31283948 0.122145034 -0.4767808 -0.28553602 -0.9691828 -0.3528313 0.5766692 -0.7948216 -0.029591475 -0.10119952 0.9404652 -0.27992383 0.10682057 0.18575051 0.6155864 -0.52037 1.137877 -0.13835153 -0.0103833815 0.33505914 0.18241729 -0.22797194 0.40903336 0.011770443 0.31725016 0.5497855 0.07649773 0.12823357 -0.33672622 -0.12401746 -0.5153381 0.031294454 -0.094937414 -0.684097 -0.66477996 -0.4213321 0.20707218 -0.847137 0.6704292 0.17205521 -1.1030918 0.08292031 0.34716788 -0.23923564 -0.072381645 -0.331593 -0.0353357 0.43048263 0.16412285 0.08953534 0.4427415 0.018840056 -0.7816536 -0.14477229 0.48248643 -0.041358635 -0.16987512 0.042155795 -0.09974953 -0.015889505 0.46014482 -0.0666297 0.78806686 -0.0069449493 0.49503466 0.11637304 -0.48505384 0.45125476 -0.019631922 0.46575847 0.16590777 -0.24162674 0.26470828 -0.16159746 0.91033417 0.5630203 -0.28182033 0.61125755 -0.011142252
292 0.26490074 -0.06518486 -0.31114098 -0.36310154 0.40569207 -0.61839443 0.39196113 -0.23999843 -0.18650565 -1.4642206 -0.07269496 -0.7251 0.30818057 -0.5135649 0.23909512 -0.65687597 0.533523 -0.005926919 0.60241896 -1.07216 0.30717525 0.6420315 0.037244577 -0.5328124 -0.35561928 -0.22260213 -0.77561074 0.321557 -0.0279181 -0.17247424 -0.7553681 -0.9418702 0.17087899 -0.061495893 0.37793276 0.010092061 -0.21530539 0.41437027 0.12719078 0.3558816 -0.38926786 -0.8310586 0.7332919 -0.13603531 0.62510145 -0.62741196 -0.041485783 -1.116465 -0.15748024 -0.16670626 0.13663241 0.18162844 0.046906743 -0.4316269 -0.40940478 0.82895607 -0.019927876 0.50886977 -0.3974534 0.07552245 0.24593788 0.11064846 -0.23267348 0.4574538 -0.69764847 0.51801586 0.45146918 -0.02711868 0.14779131 0.18460031 0.18524481 0.49912855 -0.71329737 -0.045080617 -0.22846913 -0.32499668 -0.16950624 -0.44616032 0.39442608 0.014919969 0.20237577 0.7808218 0.92338437 -0.58010733 -0.117772736 -0.48128134 -0.8987936 -0.13540992 -0.19725823 -0.59199196 0.41377756 0.39149946 -0.49510726 0.13988785 -0.2574068 -0.16922645 0.5040086 0.88898677 -0.39125055 0.71454823 0.7251528 -0.17782773 -0.60004574 0.08688565 0.1319519 -0.32866576 0.043947205 0.018800728 -0.4637538 0.40147427 -0.12040449 0.95901626 0.13995901 0.69210833 0.02442154 -0.62372243 0.4629354 0.01885991 0.5108283 0.04763644 -0.44109532 0.5746719 0.058038373 -0.25013554 0.8406886 0.23937568 0.63040966 0.030455459
307 -0.17780615 -0.4525886 -0.41917837 -0.7911817 -0.2666403 -0.09204483 -0.13927676 0.28470525 -0.70524204 -0.8735019 -0.12860325 -0.4180638 -0.29054454 0.35719547 0.57075256 0.4029258 0.16299482 0.44297206 0.44388115 -0.3029791 0.20366767 1.0016252 -0.32749483 -0.6245057 0.114255436 0.13966203 -0.77435154 0.09321114 0.5334976 -0.03117012 -0.16639878 -0.9474021 0.5550233 0.06932122 0.079476476 0.09766081 -0.1608783 0.122848414 -0.1074365 0.19265874 0.2536159 -0.89914393 0.9764375 -0.33367643 -0.0669964 -0.13593645 0.3068985 -0.9124633 -0.7282249 -0.5364186 0.38035825 -0.651692 0.24374965 -0.62053365 0.052481353 0.12089203 -0.15722233 0.24368614 -0.172047 0.023350472 -0.35523525 -0.14077142 -0.7092294 0.53026885 -0.32272246 0.3571898 0.06264805 -0.3243629 0.14848423 -0.25491983 -0.09705311 -0.28532255 -0.574426 0.055551555 -0.06543303 -0.10568644 0.3162981 -0.085282534 0.20729032 -0.43516472 0.34441143 -0.030879691 0.42937338 -0.20001006 -0.08495412 0.17292039 -0.48921502 0.24259171 0.31819698 -0.7642109 0.2438509 -0.23668209 -0.4125378 0.4802185 0.48273134 0.3161509 0.5370256 0.32758582 -0.069858365 -0.07167544 0.3675389 -0.45854825 -0.09624473 0.57647836 -0.45202821 -0.51205325 0.30155328 0.103155114 -0.06783476 0.22499722 -0.21281451 1.1975198 -0.015255421 1.5815333 -0.35077867 0.21977644 -0.048005 0.16610758 0.45517704 -0.13926771 -0.5774019 0.029504297 -0.066484876 1.2079341 0.034787748 0.20243497 0.6911181 0.29822364
65 0.6802964 0.8241415 0.45291469 0.08131605 0.43998876 0.8914033 -0.2963496 -0.7558998 -1.2112908 0.05756125 -0.9839002 -0.13576405 -0.36706102 -2.1205344 0.4687812 0.3638581 0.9133276 -1.2025295 0.019659523 0.27103776 -1.2032467 1.0475239 0.87218136 1.0185286 -0.06746758 0.38236588 1.1057351 -1.3959092 -1.0968341 0.7335269 0.9392021 0.3308355 2.0549817 0.96055907 -2.5148509 -0.38371277 0.39381677 -1.2127184 -0.5538502 -2.173634 0.8503207 1.0361936 0.7130107 -0.47602648 1.6872699 -0.2406046 2.0303118 1.7347876 -1.604144 0.9549824 -0.6180963 -0.07745308 -0.6823965 -1.630616 -0.63702404 -0.03723378 -1.3819606 0.46132883 1.2872916 0.4214735 -1.6027204 -0.03918088 -1.2742507 -0.4365589 0.7622632 -0.43906775 -0.9852089 -0.07222274 0.53193504 0.003936109 -0.5034098 -0.36367503 0.28343993 -0.40356088 -0.1588146 2.0136101 -0.68591696 -0.2844184 0.6122821 -2.2262356 -0.4857491 -0.44312522 -1.1881007 -1.089098 0.4380467 1.2429731 -1.1216946 2.24531 0.07377676 -1.9667456 -0.28736046 1.0821878 0.6839627 -0.64731425 0.31189832 0.7537795 -0.07952272 0.9361882 0.9029662 -0.7372957 1.0049357 -0.5909814 1.0839279 -0.24229096 1.2724235 1.3985932 0.5989176 1.3386034 0.7404252 1.328144 -0.18697885 0.71465826 -0.67841995 0.31965312 0.2761487 -0.10463035 -1.1084585 -0.42466933 -0.39600348 -0.99211216 -0.782399 0.3764708 1.474021 1.5068859 -2.0156188 -0.111254185 0.060314525 -1.3168942
172 0.1301147 0.17476974 0.11790928 0.27173367 0.41663277 -1.0519536 0.15647078 -0.35108453 -0.3286718 -0.10701469 -0.7913709 -0.49536422 0.09229275 -0.2515705 0.4073519 0.9022287 0.07891137 -0.7958091 0.6520259 -0.42588052 -0.34479713 0.8158256 -1.090812 0.9157907 0.38562068 0.05992098 -1.0026937 0.23439375 -0.3489747 0.3445109 -0.54442096 -0.20814437 0.7993209 -0.078029536 -0.53184986 -0.5993878 0.09230672 0.7978029 0.22569038 -0.083049506 0.2703774 -0.8448913 1.3006313 0.3506921 0.48936287 0.091409326 0.012967603 -0.45718393 -0.6099496 -0.6615705 -0.14680791 0.020286167 -0.38109705 -1.2785046 0.31739315 0.83583045 -0.052580945 0.3367974 -0.34943557 -0.24419864 -0.2976103 -0.13803633 -0.37937224 1.137456 -0.5724703 -0.084289156 0.5596637 -0.49925512 0.38057524 0.5500332 0.32519552 0.30108273 -0.86059374 0.13164937 0.11246852 -0.28549522 -0.49098185 -0.16289443 0.07724947 -0.9356354 0.033616792 0.35293764 -0.4122391 -1.1387131 -0.97182596 0.17890927 -1.6916888 0.9386385 0.39369392 -0.93145204 -0.122270145 0.26196525 -1.0568075 -0.27554289 -0.23242989 -0.04992163 0.28725404 0.7970774 0.30350435 0.6324247 0.320246 -0.6714843 -0.17007947 0.105593964 -0.23697984 0.6030641 0.65159804 0.4708935 -0.47177106 1.045526 -0.3020681 0.2516815 -0.8548643 0.74973845 0.43481767 -0.18146513 -0.56398845 -0.54534143 -0.14328572 0.3106453 -0.6816619 0.9895832 -0.057301745 0.48224306 -0.3613225 0.12500435 0.39713386 -1.3078773
119 0.29530162 -0.3211063 -0.2186542 -0.65165627 0.11929139 -0.43834436 -0.3373728 0.75447935 -0.23274575 -1.0699167 -0.47679663 -0.57206994 -0.20731138 0.01610893 0.11155551 -0.08757752 -0.34316435 0.8922283 0.8829919 -0.42352048 0.22414422 0.9726601 -0.133346 -0.2897005 0.4562618 -0.62241215 -0.4967592 0.51146674 0.3899279 0.05866122 0.021307953 -0.78835934 0.38086146 0.71035296 -0.47642016 0.29174462 0.22680062 -0.10870672 -0.16731349 -0.97326064 0.45883328 0.14835241 0.7119846 -0.5773344 0.039810315 0.34483925 -0.21418674 -1.2493306 -0.10229978 0.4921959 1.1058589 -0.80214256 0.11645189 -0.5092259 0.26601654 0.07604412 -0.24293853 0.64816606 -0.23169005 -0.1081351 0.24201895 -0.35650605 -0.0031202508 0.37619123 -0.48271677 0.87114334 0.32651412 0.21910457 -0.36224473 0.12032299 -0.057639632 -0.36257115 -0.87499785 0.24974751 0.22798349 -0.10294847 -0.2979165 -0.6222349 -0.45601115 0.13046014 0.37052003 0.04700544 0.09985457 -0.044977207 0.371559 -0.6875317 -0.31010106 -0.037030604 0.28998774 -0.6148261 0.24626799 -0.26353988 -0.28186986 0.5629894 0.0658077 0.25011563 -0.074631624 0.12476788 -0.23596136 -0.28995505 0.6923013 -0.13789074 0.05155744 0.13081433 -0.07869183 -0.7548305 0.0690005 0.39520508 0.005787748 0.22898589 -0.2741324 1.474134 0.14872324 0.3591934 0.54790735 -0.29730344 -0.23026597 0.409325 0.86071783 -0.40692642 0.18143885 0.55658066 0.3169877 0.64653647 0.88493 0.24659146 0.19308195 0.6660738
306 0.20444584 -0.5047556 -0.46755153 -0.94228244 -0.28848568 -0.5984792 0.36421072 0.6188912 -0.3070648 -1.2034615 -0.11136102 -0.5067184 -0.08752409 0.37710908 0.38505673 -0.20899628 -0.1703531 0.6551518 0.4467202 -0.39089078 -0.024517506 0.9464778 -0.20423362 -0.4432873 0.29108605 -0.29583728 -0.3969082 0.46079713 0.57337433 -0.23591095 -0.006123034 -1.3249418 0.7243942 0.0452982 -0.1816124 -0.09816072 0.55423486 -0.12655883 -0.3905614 -0.49471 0.068000555 -0.40753737 0.52838665 -0.43337208 0.05022064 -0.03878588 -0.45436445 -1.5452946 -0.29150152 0.16823198 0.6799481 -0.9007145 0.25984177 -0.81180924 0.34979722 0.3236566 0.09835007 -0.11327299 -0.19783889 0.001577102 -0.057229068 -0.4131683 -0.27675015 0.6351951 -0.6942333 0.7925678 0.28064358 -0.10982338 -0.23198442 0.39488912 -0.12645046 -0.034183577 -0.698256 0.3465884 0.352517 0.088199235 0.19808033 -0.09459504 -0.21037538 -0.21893264 0.1585037 -0.032365356 0.46204066 -0.39217553 0.13147517 -0.18254757 -0.09427793 -0.13169758 0.2478673 -0.30512202 0.120060444 0.26367092 -0.11275696 0.7135934 0.021434078 0.34768748 0.14270909 -0.18967378 -0.48774529 -0.10307434 0.35418814 -0.35679775 -0.26317495 0.12324641 -0.39552826 -0.5775913 0.52533346 0.68174607 0.14439124 0.15691756 -0.18363298 1.5369471 -0.16686131 1.3898575 -0.17824881 -0.41210666 -0.25564656 0.6373107 0.57961416 -0.3850681 -0.3199981 0.2706906 0.075623065 1.0022306 0.490738 -0.2562305 0.59828764 0.7278241
159 -0.072859176 -0.18151699 -0.3980522 -0.4086986 -0.13182761 -0.42546812 0.019010553 0.5683519 -0.4983615 -0.76776177 -0.29352167 -0.48863265 -0.46162105 0.29150587 0.36282867 0.3704865 0.41521153 0.17322126 0.59570664 -0.18610407 -0.16226563 1.0401945 -0.52050084 -0.4778618 0.36300492 -0.029958604 -1.1184506 0.252119 0.6084288 0.029199384 -0.1780573 -0.76674956 0.25872687 0.014262244 -0.06892483 0.4092935 -0.20588629 0.20451307 -0.2484214 0.24958803 -0.12821905 -0.8355138 0.67331177 -0.10704549 0.6478473 0.50737756 0.927429 -0.9524581 -0.79784644 -0.51657146 0.3988483 -0.5606213 -0.083498575 -1.4120032 -0.22922464 0.28418192 -0.7011034 0.26737604 0.14452226 -0.02824371 -0.3579468 0.25069797 -0.43766236 0.5866766 -0.5013768 0.9195782 0.05432716 -0.50318617 6.233323e-05 -0.3643726 -0.47947127 -0.05864127 -0.30414876 0.061563376 -0.036739502 -0.2712968 0.5381922 -0.48012555 0.41400227 -0.5875581 0.29932213 0.27526224 0.5166305 -0.1696579 -0.54996616 -0.011147124 -0.32761282 0.41344255 0.93073595 -0.74463075 -0.25944313 -0.2231866 -0.24935189 0.44247174 -0.21592826 0.6952055 0.5699755 -0.22250178 0.41883826 -0.102109425 0.18239373 -0.88893694 -0.15860488 0.5626509 -0.558905 -0.33401147 -0.38316384 -0.6387377 -0.5344005 0.11928817 -0.17590843 0.678855 0.23742767 0.78506655 0.2189962 -0.3450036 0.33619583 -0.1959153 0.14223626 0.077955104 -0.0020607533 0.08402764 -0.25460827 1.1909248 0.38931885 0.30013865 0.48450842 0.47051764
8 -1.7656934 -2.1231751 0.4342455 0.60875887 -0.076190524 1.4978538 1.6513376 -1.8454347 1.6235182 0.029878026 1.8292409 0.48948133 -1.0597024 1.1700233 -0.8039326 0.88202816 0.7780193 -0.7390323 0.36335886 -0.5904066 -0.9522938 -0.13906355 2.2252645 -2.5216496 0.09027465 -0.6426983 0.42538264 -0.27088022 -0.86316437 -1.4263064 1.5928905 0.71429473 -0.11804956 2.2899907 1.3238322 1.2756338 0.37054253 1.9813848 1.1001129 -0.3873264 1.2944407 -1.1712996 -0.77202237 -1.6203694 2.2525337 -0.48482424 -1.2462913 -0.27524653 0.43168142 -1.4405848 0.53197885 0.365067 -0.13828443 0.12651575 -2.74101 0.59695494 -0.95690113 0.29220697 0.98502016 0.4576779 -0.4090478 1.3100469 0.36083466 -2.2704184 -0.72657865 -2.1024094 0.62230074 0.45479175 0.582419 -3.114082 0.7094169 -0.0983382 2.5707943 -0.81378156 -0.5661362 -1.243836 -0.20768672 3.185825 -1.2610509 -1.1022873 -1.9002866 0.43711048 -1.1356636 0.3668798 0.60546005 -2.123065 0.41925198 0.18790351 0.058581866 -1.0297749 1.0630602 -1.1619148 0.29636073 -1.7992818 -0.33104673 -1.104578 1.4236687 0.14012039 -2.95597 -0.037682567 0.9730725 -1.1213384 -0.89868027 -0.6662232 -0.13562813 0.029341755 -0.7025455 -1.2250693 0.3193371 0.05823595 -0.86420083 -0.37750697 -1.9113247 -2.2163656 0.2940978 2.567323 1.7068796 0.2006536 -1.9862334 -0.6269623 -2.2818348 -1.8258244 -1.7388109 -0.3599577 0.30185515 0.03836864 -0.8646786 -2.5480268
246 1.172223 -0.30521083 0.20902072 -0.05305459 0.17341585 -0.77285665 -0.12716235 -0.061547186 -0.5558996 0.3087139 0.23274098 -0.7502055 0.3613128 -0.6607323 0.3823468 0.74575156 -0.28561476 -0.2721792 0.56748235 0.7335911 -0.5085845 0.4032959 0.42904222 1.1981456 -0.38053846 0.42721355 -0.36921424 1.0238425 -1.1535558 -0.11416257 0.009019852 -0.5420961 0.034405146 -0.47456926 -0.8791364 -1.1305712 0.06845873 0.37611496 -0.4479443 -0.7423222 0.016271066 -0.14916913 0.036534466 0.16722731 0.41644722 0.0050998623 -0.38178086 0.31683835 -1.0187573 -0.23836988 -0.16251065 -0.6253761 -0.83007014 -0.68074054 0.34431505 -0.38440603 -0.8783533 -0.023843892 -0.5183809 0.3032369 -0.5886005 0.06316641 0.42078394 0.05750894 -1.2722673 -0.016697994 -0.9042977 -0.21697885 0.65631056 1.3306515 0.60016483 0.23517321 0.60919183 -0.005331844 0.89002496 -0.060250055 0.14508145 0.12669174 1.2597266 -0.88248783 -0.25498754 -1.0289347 -0.653093 -0.91516256 0.17844811 -0.51864535 -0.9637022 0.65624714 -0.16635117 -0.34023473 -0.7515096 0.9447477 0.040149435 -0.4310228 -0.13320807 -0.30999804 1.1049309 0.9015257 0.31128293 0.11578059 -0.018950852 -0.15831293 0.81681454 -0.023789499 -0.88069475 -0.08497896 -0.2811484 0.49022484 0.3094219 0.8956046 -1.067301 0.11128408 -0.7440319 -0.80025506 -0.086476594 -0.80779 0.30418026 0.5477514 -0.72974604 -0.81966966 -0.14241633 0.41363677 0.099619396 0.9454837 -0.5266709 -0.19329675 -0.49787304 -1.09626
161 -0.23246029 -1.2808585 -0.7259527 -1.0063764 -0.04345898 -0.46567613 0.2219685 1.2761388 -0.32084954 -0.9789624 0.774758 -0.27987844 -0.28676572 -0.3758555 0.87037176 0.31573638 0.57991993 -0.084332824 1.1697887 -0.3988645 0.2635421 0.10024087 -0.12876414 0.7103094 0.29671934 -0.10919912 -0.7678577 -0.45217004 -0.11153959 0.6982517 -0.22837721 -0.65359926 -0.550802 -0.6777308 0.4938102 0.5234629 -0.18197307 0.37628704 0.2570589 0.4701376 0.5046369 -0.10431476 0.08698971 0.6688641 0.29000208 0.12870292 1.1277312 -0.6375888 -0.29424044 -0.975469 1.271569 -0.6243688 -0.109561354 -1.2769153 -0.02838387 -0.5933412 -0.97955054 0.7193867 -0.61420715 -0.10183321 -0.847628 -0.82347363 0.15251693 0.3499247 -0.10066773 0.96660036 0.0858748 -0.8571452 0.13469934 -0.82311755 -0.5678166 -0.67298305 0.36461443 -0.3912504 0.086188756 -0.66141343 0.5176419 -0.57707053 0.8724869 -1.1767098 -0.62652653 0.19038312 0.8908183 0.63076055 0.1001967 0.52957594 0.12817971 -0.009529733 1.0039767 -1.1964215 0.19285621 -0.8021601 0.11867929 -0.039463073 0.18719979 0.55336446 0.5478444 0.024173241 -0.24758157 -0.21695031 0.34170833 -0.0639349 -0.10812581 1.1771103 0.6151264 -0.94465923 -1.0968063 -1.1114067 0.19877943 -0.77523804 0.35481822 0.70509475 0.05743318 0.2709382 -0.11925718 -0.56873685 -0.6241204 -0.0583834 -0.056656145 -0.46911073 0.35926327 -0.29870293 0.046047222 1.1737906 0.590942 0.48535758 -0.15303072 0.74854976
296 -0.25767234 0.46427897 0.6372599 0.79940563 1.8528924 -0.601239 0.98548216 -1.1294494 -0.6888238 -0.33007872 0.5638343 -0.78722334 1.5607415 -1.0244724 0.18757471 -1.2239746 1.2558285 -0.4443418 0.645804 -1.9853114 0.9360753 0.53345025 0.13886291 -0.94718677 -0.86800635 0.24478365 -0.6736764 -0.07357917 0.034792945 -1.0544095 -2.4307358 -0.98317116 0.4369674 -0.7081677 1.8120393 -0.9291505 -0.30392477 -0.40947604 -0.35221398 1.3481628 -0.6420719 -2.0116062 2.171349 -0.22332367 0.5117903 -0.7632521 -0.41269696 -0.5338223 0.46678916 -0.18984845 -0.7125611 0.8267543 0.16366775 -0.74981993 0.14499608 1.5836319 0.15066816 0.6808522 -0.12082734 -0.23105022 1.2366514 -0.01349765 -1.5320531 0.5454036 -0.68527305 -0.043162182 0.6222215 -1.2219392 0.093212046 1.2631698 -0.73964506 1.2764847 -2.0673063 0.32977536 0.110643044 -0.59804815 -0.05420633 0.045199685 1.7308322 1.3491898 0.042536207 1.421631 1.9931073 -0.50025785 0.28495464 -0.79269415 0.02086181 -0.026299404 -0.6665205 0.43808544 0.27560395 -0.026104048 -0.32167575 0.7042443 0.029016187 0.5056419 0.35212073 1.9081509 -0.90126115 1.7859452 1.2480322 -0.14011766 -0.5269627 -0.16166554 -0.3568915 0.14417249 -0.098304786 0.38517407 -1.2624631 0.9335241 -0.15082924 0.2378805 0.874942 0.19559497 -0.5761287 -0.76920426 0.42650637 0.11935598 -0.3085391 -0.39266723 0.21978036 1.4865446 0.7996747 -0.3009976 1.2921524 1.7065946 1.257773 0.44284588
13 -1.7500168 -1.2958713 1.2779719 0.2868492 0.77042145 1.9591122 0.7381961 -0.8067076 -0.42165884 -0.026537 1.8474998 1.6176037 -1.0016302 -0.073996924 -0.5341138 -0.17609993 0.6283349 0.68576646 -1.8092033 0.22126558 -0.014866443 -0.3377946 1.877799 -2.8585575 -0.14516488 -0.85047835 0.32734168 -0.62732136 1.3237078 -0.13609946 0.6937449 2.3987646 1.1119987 1.9321139 0.8335863 1.8351024 0.11137292 -1.2687122 0.68405366 0.36269045 0.22541632 0.18761724 -0.3930235 -0.8940333 0.39998037 0.49256808 0.20222121 1.0715216 0.16323952 1.3467385 -0.2067732 1.6233543 0.10189827 2.3763187 -2.7929254 -0.22163244 -0.30373162 0.77346075 1.0324283 0.46296555 0.59413886 0.36530623 0.25245303 -2.9044251 2.3620584 -2.1291614 0.5054541 1.0513991 -0.17794137 -2.4568686 0.6120595 -0.97995967 0.32690093 -2.207458 -1.1959546 -0.20111792 -0.9353246 1.2083838 -1.8261998 2.0546157 -0.53680253 0.931358 -0.308406 2.1357641 1.6059469 -0.47631723 1.5272034 -1.3898258 0.71315247 2.0391994 0.6549863 -0.6492343 0.70556206 -0.46144065 0.1318828 -1.080069 -1.3080765 -0.28466016 -1.5702546 -0.8731428 0.06082057 -0.52218384 -2.0770338 -1.7278606 0.32963815 0.9240387 0.49030554 -0.55442786 0.9528118 -0.97058773 -0.40011042 -0.92074835 1.0152882 -1.1056559 -0.87384236 2.0623996 1.3393947 0.084036864 0.12351268 0.5070753 -0.23962875 -1.9243202 -0.58147526 0.024699759 -1.2638372 -0.14116625 -1.4624258 0.035641227
203 0.9330463 -0.20250936 -0.17272271 -0.05788143 0.73529553 -0.3054393 -0.29029757 -0.70471495 -0.7158331 -0.3111853 -0.41819906 -0.97280383 -0.03633472 -0.9526469 -0.062806904 -0.29619512 0.24922794 -0.87672484 -0.10673946 0.104559705 -0.51841867 0.49388266 0.40621927 1.1751091 -0.49785414 0.8495077 -0.1354177 0.6880237 -0.43390435 -0.62800103 -0.27050635 -0.16988786 0.39575052 -0.50660765 -0.6336817 -0.3304031 -0.3827465 -0.48098212 -0.81610256 -0.9579466 0.11442872 -0.2560408 0.18429475 -0.11781201 0.42660716 -0.018064909 0.2334161 0.12629859 -1.0151432 -0.41955632 -0.57833076 -0.6075983 -0.45276377 -0.52604693 0.13178115 -0.46647388 -1.4973487 0.14617981 -0.35080135 0.28942108 -0.3728429 -0.4380952 0.10571198 -0.07613999 -1.1712393 0.8429691 -0.78779364 -0.88940024 0.39505056 0.33516663 0.4340799 0.5412625 0.2824635 -0.03901011 0.691792 0.44946575 -0.039854918 -0.5108043 1.1604676 -0.64219224 -0.094461076 -0.87610126 -0.27416584 -1.2642819 0.14549793 -0.4686121 -0.31273696 1.2124274 -0.1406944 -0.24017574 -0.77457833 0.736353 0.11587195 0.11563879 0.13421458 -0.23512784 1.0826657 1.2784786 -0.22671962 0.3494937 0.62087107 -0.21778561 0.98620546 0.6723496 -0.618583 -0.32581252 -0.107707284 0.9934119 0.1692319 1.2514331 -0.7199473 0.49629247 0.3849444 -0.21093231 -0.2646224 -1.0088507 0.6202714 0.58850795 -0.6151689 -1.1227221 0.55054665 -0.2536691 0.85145265 1.5856832 -0.27703905 -0.42541742 0.09835766 -0.29259363
253 0.3905798 0.084191754 -0.09394995 0.043879155 0.12181731 -0.25689182 -0.43350235 -0.60160506 -1.1385487 -0.017619276 -0.10884569 -0.41806737 -0.5038274 -0.62237334 0.24190629 0.33083853 -0.23547968 -0.38839585 0.10654727 0.28934118 -0.65452707 0.15748529 0.45618966 1.0820637 0.4955954 0.2274217 -0.28942436 0.72476476 -0.45494667 -0.16932388 -0.07222958 -0.022049222 1.3947303 -0.3702189 -0.23576686 0.04188992 0.25762028 -0.5364608 -0.6911278 -0.5967845 0.2133142 -0.123029344 0.67369324 -0.3191707 0.4092459 -0.28476447 0.25519416 0.90560615 -1.4897344 0.24605504 0.38248283 -0.49675745 -1.059528 -0.9058717 0.5397926 -0.034086198 -0.790488 0.18643866 -0.06709866 0.041328788 0.05433093 -0.6037586 -0.40643296 -0.5121031 -0.48619458 0.4078964 -0.6885946 -0.32176548 0.3029933 0.76867235 0.24428417 -0.5619854 0.24280651 -0.31379682 0.82929856 -0.024602568 -0.08420372 -0.23966984 1.0048714 -0.5835448 -0.25891426 -0.85811156 -0.24950844 -1.1298591 -0.3194121 -0.69380623 -0.2475657 1.2278004 0.41010985 -0.30067664 -0.3129734 0.7612178 0.21577124 -0.4522016 0.27729934 0.13341914 0.6422588 1.201184 -0.05286188 0.26308352 0.64403915 -0.5202271 0.9279662 0.16830407 -0.5425106 0.20575897 0.27989796 0.826475 -0.4024164 1.0643897 -0.545935 0.6380718 -0.39298242 -0.46217722 -0.26698145 -0.53354675 0.019667622 0.62980455 -0.3922047 -0.9900421 0.82056 0.34068874 0.6715198 2.1786585 -1.1031345 -0.114107735 -0.37940213 -0.63566333
123 -0.38820472 0.10905151 -0.41889328 0.024613146 0.32048196 -0.8309315 0.64081573 -0.23884337 -0.33737627 -1.3263283 -0.5190877 -0.80368143 -0.65939784 0.58111316 -0.07523145 -0.05679211 1.0224438 -0.88458073 -0.4067025 0.0570897 -0.29859883 0.32678205 -1.0085806 0.18402423 0.8575308 0.38567594 -1.3457426 -0.15380342 -0.018719936 0.09457857 -0.17135695 0.0113526 0.15906323 -0.8974782 0.23231559 0.64782315 -1.0286374 -0.27446654 -0.103027806 -0.07750318 0.19201353 -1.5123845 1.1879653 -0.08093868 -0.13603358 -0.7254115 1.2150576 -0.81489176 -1.4781054 -0.76968706 0.8317633 -0.72649664 -0.033076614 -1.511065 -0.71957797 0.84603745 -0.13592155 -0.34055713 -0.43691316 0.7549118 -0.045341026 0.60296935 -0.5909934 0.07435943 -0.57855815 0.6565034 0.45379302 0.35843104 0.21824278 -0.21885782 0.18579523 0.26392406 -1.0232882 0.28931627 0.033876404 -0.59041697 0.49164686 -0.56123805 0.43645334 -1.1610911 -0.008770996 0.54188067 0.05930217 -0.47435322 -0.8707375 0.5016372 -0.43189767 0.22667609 0.6827446 -0.2880257 0.0046212203 -0.11844244 0.040911753 -0.45069632 -0.08123129 0.45448756 0.41173217 -0.9861457 -0.14482436 0.12639855 0.030906722 -1.314599 -0.2881547 0.613219 -0.33151445 -0.19100443 -0.2884994 -0.6957414 -0.18367937 -0.56677735 0.45098314 -0.6312637 -0.3278688 0.5968488 0.66957855 0.9506601 1.2911602 -1.208496 0.12126277 0.5550415 -0.5416243 -0.2830946 -0.5332314 1.1569009 0.31908026 0.6393909 0.69767606 -0.0951538
313 0.53280324 0.03131117 -0.5568029 0.24858458 -0.8044765 -0.39746863 -1.0217618 0.060830496 1.2261428 0.63824785 -0.015869481 -0.40564567 0.04035359 1.7651317 1.0922649 1.4606508 -1.890518 -0.59601444 0.29397634 1.8086227 0.9818152 0.98400235 -1.2310288 1.2883787 -0.5556438 1.1495509 -1.0852653 0.99945486 -1.8059443 -0.16846071 -0.35438403 -0.043810677 -1.9632066 -1.1148676 -0.19278058 -0.45172852 -2.280562 0.5219037 1.3468682 -0.055714633 0.7175934 0.4314406 -0.48445 -0.24492484 -0.29610795 -0.7841542 -0.38952148 1.0033233 -1.0626221 -0.33814037 -0.34265772 -0.6197416 -0.5836869 0.42160594 1.4620728 -1.5373987 1.6488693 -1.003522 -1.4312274 0.9746602 0.067413494 0.85623085 0.66047865 0.21073644 -0.52732164 -0.5954807 -0.2907038 1.0847017 1.099245 1.4747833 0.5873459 1.4589778 0.67252314 0.5330552 0.17623506 -0.5419608 -0.26578245 0.43959576 0.6334757 -0.7754706 0.55006325 -2.4887195 -2.0532155 0.10688656 0.33679432 -0.30193695 0.24095978 0.9718907 -0.47534654 -0.57799774 0.8632946 -1.0251814 -0.72443426 -0.56837696 0.3019439 -0.102465965 0.6166174 -0.4161387 -0.0703822 0.973588 0.01725786 -0.6048054 0.018801149 1.0141541 -0.97873944 -1.2113136 -0.30246875 -0.09014245 0.65201485 -0.7932566 -0.19845952 -0.41298497 -0.01926705 -0.6431716 0.18920518 -0.35188606 0.3979894 -0.21261872 -0.89577574 0.027966116 -1.3874214 -0.03645132 -1.4468292 -0.9829922 0.023234775 0.40649825 -0.052252542 -1.6533121
183 0.61932236 -0.5233896 -0.034915555 0.8376994 0.22785474 -0.36006948 -0.5126217 -0.82550156 -1.0994275 -0.16709444 -0.0693013 -0.2890169 -0.43801963 -0.7790008 0.5606277 0.46704444 0.08664659 -0.53349906 0.18339817 0.617947 -0.9949919 0.50221765 0.884375 1.2950349 0.017264077 0.42697838 -0.5184036 0.96437734 -0.7479753 -0.08697213 0.2251786 0.42610043 1.4795817 -0.033165377 -0.925873 0.005230213 0.4262575 -0.2884415 -0.34114757 -0.79428923 0.012767601 0.0503163 0.35368735 0.21660672 0.76824814 -0.29619762 0.11220549 1.1288489 -1.7204653 0.10098813 -0.03158761 -0.7148833 -0.7311977 -0.5186136 0.048473883 -0.26827547 -1.1001428 -0.2127843 0.09533036 0.20585495 -0.24957424 -0.33924565 0.0719991 -1.0099313 -1.5750835 0.37966248 -0.9394588 -0.42400965 0.58549464 0.44063905 1.001677 -0.3187871 0.69154537 -0.40467277 0.38743767 -0.3232379 -0.47943678 -0.17942676 1.376828 -0.48624304 -0.19724037 -0.8040109 -0.2954763 -2.078607 -0.2920804 -0.89269507 -0.50949335 1.5587293 -0.10707257 -0.33058777 -0.7952455 1.2219739 0.33815068 -0.6408281 -0.09502729 -0.45676616 0.9247841 1.1523939 -0.034928028 0.663923 0.7374133 -0.27775535 0.96358144 0.1656102 -0.5663902 0.44551644 0.4217145 0.81832796 -0.051556658 1.3423994 -1.0965145 0.57953197 -0.0801523 -0.20428838 -0.5393675 -0.7180087 0.1647666 0.75517195 -1.085271 -0.961123 0.2604497 -0.17740804 0.38462594 2.1767285 -1.3989029 -0.6278948 -0.7226565 -1.0112926
233 -0.97955966 0.12784737 -0.789169 0.43742323 0.55819356 0.6389806 -0.2116618 0.5653597 -0.9011367 -0.5930312 0.4137167 -0.66756546 -0.073757395 -0.60222286 0.5647723 0.005205175 0.3303905 -1.5901191 0.41865018 -1.5145134 0.17105912 0.5898076 0.27902684 -0.55887884 0.1338001 1.7883179 -0.5966944 -0.6369029 0.85245264 -0.8631482 -1.3334423 -0.74466115 0.35178554 -0.36939543 0.8120602 -0.37642184 -0.2648534 -1.0155956 -0.8009074 0.6013828 -1.0520105 -0.061910704 1.227976 0.49980897 1.9358726 0.59758276 0.18775675 -0.5729579 0.6343663 -0.46704075 -0.7556879 0.98390335 -0.23452547 -0.68773645 -0.5025867 -0.16243513 -0.12463085 0.049624097 1.0342263 -0.13115084 0.6827102 0.17436062 -0.34191045 0.12466836 -0.62388617 0.405209 0.74337083 -1.9136589 1.5362679 -0.62998813 -0.64253545 0.5652838 -0.62690586 -1.1205754 -1.2847319 -0.2716732 0.49915168 0.32170722 1.1354158 -0.019670164 0.86808544 1.1819447 1.8316215 -1.5275041 -0.3651778 -1.1078354 -0.85935944 2.0410955 -0.1254438 -1.2501267 -0.04624919 0.9485618 -1.3745896 0.5445243 -1.073694 0.96883726 1.0139616 0.014784144 -0.121480085 0.9362439 0.47102353 0.5235415 -1.5553001 0.95358914 -0.74034643 -0.10330574 0.6963947 1.0015472 -0.6015419 -0.14069784 -0.17708077 0.057409693 -0.20890863 -1.2498063 0.455619 -2.3810792 1.0691918 -0.630661 -1.5423126 -0.72056615 -0.93568677 -0.32698715 -0.7000257 -0.03215856 1.2960296 0.93311673 0.90548766 -0.09718995
197 0.75747454 -0.35225543 -0.039361745 0.29788244 0.8464005 -0.088441275 -0.20674904 -0.79302174 -1.1253897 0.09223794 -0.28128397 -0.43301654 -0.30933666 -0.69099724 -0.39441606 0.22125106 0.012890739 -0.41334155 0.031663824 0.5196561 -0.83948445 0.30946958 1.0180949 1.0756799 0.05010373 0.60258156 -0.13820855 0.99899405 -0.4154531 -0.28356886 0.13509867 0.22205918 1.0810621 -0.18990847 -0.6268433 -0.3934741 0.084450044 -0.28778416 -1.1811965 -0.87391937 0.20630193 -0.50268257 0.5557285 -0.08881706 0.2628306 0.26460508 0.23735718 0.39560604 -1.3401958 -0.4138574 0.038322773 -0.76129603 -0.7277877 -0.80616957 0.20365007 -0.10242829 -1.2905475 0.262643 0.03384007 -0.09670451 -0.23661916 -0.5248046 -0.03932487 -0.18142916 -1.1421602 0.4709296 -0.6318645 -0.8477458 0.4523526 0.9760222 0.2572736 -0.10982413 0.18325248 -0.05319877 0.84504366 0.15619533 -0.079385735 -0.048570957 1.2059685 -0.4214402 -0.2071176 -0.70102865 -0.37344542 -1.1047754 0.18566233 -0.93625385 -0.2994251 1.1679279 0.41772673 0.027217738 -0.74827117 0.89311737 0.39722586 -0.33293203 0.32397103 -0.12574467 1.0827692 1.7279489 -0.20375423 0.48343116 0.60107106 -0.527459 1.1129467 -0.14538969 -0.78058666 -0.1633313 -0.04137048 0.7312331 -0.08887437 1.6740535 -0.9149796 0.37440526 -0.10675454 -0.5593615 -0.8231973 -0.9253559 0.18058243 0.7001061 -0.5145398 -1.144694 1.0442367 -0.029537123 0.69349223 2.1884906 -0.94446623 -0.5926298 -0.38348338 -0.4911777
92 0.38941237 -0.98393494 -0.24317722 -0.5952167 -0.42078933 -0.5504777 -0.5554328 1.1176387 0.2714585 -1.0944356 -0.31902167 0.11815454 -0.47305804 0.5767802 0.4175213 -0.0011984265 -0.21467897 1.2584509 1.2042673 -0.08327591 0.6525442 1.2449491 -0.1967202 0.060591772 0.23608296 -0.6964236 -0.32817915 0.5144211 0.12935664 0.06923131 0.29086614 -0.92633545 -0.079458274 0.64571434 0.010289232 0.39826724 0.56715494 0.24311087 0.0937063 -0.3511794 0.2662079 -0.00432575 0.4580243 -0.42655128 0.37002656 0.2456777 -0.21221948 -1.1119441 0.22234292 0.33062547 1.4634149 -0.88743764 0.4906506 -0.18322647 0.75062007 0.31200224 0.45020813 -0.03642858 -0.020153798 -0.051397376 0.11586959 -0.13062647 0.05526848 0.52045906 -0.24154018 0.9746728 0.37843093 0.87886333 -0.52768236 0.13299832 0.13138789 -0.56449807 -0.8557638 0.25854573 0.21208805 -0.4731949 -0.6381015 -0.80041707 -0.5529057 -0.53705484 0.43199944 -0.1511797 0.40998647 0.3474908 0.20239435 -0.4402391 -0.32663685 -0.1588322 0.35995835 -0.69549155 0.8720807 0.101802945 0.04477028 0.04559726 0.26469672 0.4869128 -0.0008044216 -0.046204057 0.29049915 -0.4786228 0.6529078 -0.022686673 -0.32951263 0.22730953 0.641027 -0.7134234 0.00614403 -0.295344 -0.0908121 -0.22256294 -0.010029891 1.5307673 -0.16022225 0.5774779 0.43492258 -0.6185418 -0.79658955 0.3053031 0.50895923 -0.4284267 -0.089341536 0.92406076 -0.0011180756 0.1311093 0.8371945 0.03233813 0.46727777 0.54535335
284 0.4532873 -0.5657057 -0.8427577 -1.7525789 -1.4027281 -0.13456324 -0.86966264 0.9943593 -0.22280924 -0.8578522 -0.7811253 -0.7010518 0.5731168 -0.32835963 0.76809984 0.6243432 0.078790575 0.48137984 0.07006744 0.09599692 -0.08363385 0.96765333 0.25682688 -0.29301456 0.029818669 0.6520792 0.22079253 0.24106918 1.0339051 -0.19445617 -0.32705447 -1.9331517 -0.048164994 -0.47972694 0.4634144 -0.76599383 0.19292735 -0.13837339 0.17414966 0.50727224 -0.43785098 -1.0641768 0.917016 0.048804242 0.39444184 0.16603194 -0.5450504 -1.5096946 0.90506417 -0.9495221 -0.06149413 -0.5385621 0.035974406 0.04184541 0.31076378 -0.18810141 0.22474404 -0.0013868279 -0.29799882 0.1735594 -0.40561995 -0.37502134 -0.7863874 0.9299745 0.024424758 0.057864632 -0.12081288 -0.4263757 0.45424747 0.08895268 0.4033733 -0.2063349 -0.59966344 0.0462287 0.20884418 0.09053452 0.8525946 0.21747285 0.59773594 0.14127181 1.3072507 -0.24698131 0.55292624 1.016985 0.23070051 0.8948442 -0.4136452 -0.3798279 0.62030923 0.38997668 0.53266567 0.7289653 0.0639419 0.71242946 0.6155997 0.2788148 0.008393152 0.28227678 0.66845846 -0.5656783 -0.028512452 0.417246 -0.23153937 0.69969016 -1.0296847 -0.5733995 0.8765721 0.6812324 -0.3300783 -0.35341913 -0.85905665 1.3436282 -0.15150994 1.6530502 -0.77465373 -0.51474625 0.26446623 0.30147657 -0.01565429 -0.90501225 -1.3764353 0.30907458 0.22982147 0.41499802 0.033255085 -0.4105284 1.1278168 0.7530461
305 -0.15948133 -0.6434142 -0.15493715 -0.7636588 -0.3735169 -0.6342596 -0.573733 0.66105676 -0.13031659 -0.48449337 -0.37426144 -0.6609139 -0.0902851 0.15358725 0.78359276 0.36336574 0.1315857 0.5467266 0.5682636 -0.39140078 0.5871531 0.8599017 -0.6458395 -0.5299226 0.022082731 -0.36853957 -0.8471112 0.6384281 0.6789806 0.18702471 -0.33502668 -1.1379421 0.2720273 0.2980225 0.15479317 0.17857619 0.4394072 0.13134626 0.2202465 0.30887133 0.16849303 -0.12894334 0.8668491 -0.29407656 0.09609688 0.081836395 -0.2903174 -0.83088213 -0.0688017 -0.3648723 0.57852685 -0.52358556 0.48285332 -0.51456314 0.29797903 0.045155793 0.19873635 0.2935256 -0.03479732 0.14787447 -0.22856404 -0.5392695 -0.23311158 0.5729778 -0.30887502 0.65169406 -0.09777195 -0.29925478 -0.21919942 0.056458272 -0.27305463 -0.5016808 -0.6848836 0.43235815 0.10449645 -0.3469966 0.115169846 -0.019650178 -0.11248377 -0.129571 -0.015614325 0.1988873 0.541245 -0.23932809 -0.23969083 0.30141556 -0.4611682 0.01260277 -0.06051706 -0.5580512 0.4804364 -0.13040282 -0.1842159 0.7573778 0.04535101 0.09534131 0.18769337 0.0990839 -0.09927287 -0.22609979 0.2830989 0.0502848 0.07629739 0.7274865 -0.23044166 -0.30702588 0.40783337 0.09214897 0.03624629 0.2246384 -0.30625796 1.1551377 -0.058008045 1.1508995 -0.6505523 -0.49418113 -0.48011667 0.40315333 0.36486927 -0.3979499 -0.3524072 0.3294863 -0.046003398 0.7424647 0.122107334 0.3928726 0.396754 0.7284411
95 0.4030909 -0.7847902 -0.4799436 -0.5591406 -0.3399156 -0.026402041 -0.4175348 0.76290417 0.5115345 -0.9907156 -0.7153079 0.15194406 -0.28599066 0.24837744 0.5756035 0.44409534 -0.24414971 1.2118698 1.2362138 0.34483418 0.4617264 0.8930311 -0.0869481 0.28513658 -0.048563506 -0.48467705 -0.7469517 0.7269395 -0.18611492 0.71434575 0.39390177 -0.26756796 -0.4162443 0.50392187 -0.10800695 0.0641197 0.2987674 0.1746901 0.5064012 -0.55952895 0.33908758 0.31999728 0.28784168 -0.5761275 0.19152066 0.15346923 -0.30553013 -1.0654845 0.5840229 0.008268896 1.3796262 -0.723466 0.46333328 0.21675245 0.2122764 -0.30374536 0.7606841 0.3644525 -0.0675591 -0.51505566 -0.025691643 -0.2750076 0.2279596 0.31193134 -0.00056376006 1.0540969 0.48734337 0.60731727 -0.20824148 0.03702289 0.5508588 -0.34092814 -0.54495245 0.32986647 -0.007188913 -0.8059743 -0.9831576 -0.66724044 -0.6392833 -0.057426695 0.38517132 -0.14332141 0.31048253 0.86896074 0.72122127 -0.34562242 -0.43983898 -0.17033167 0.39981905 -0.58608985 0.6229568 -0.4203145 -0.3704588 -0.066606 0.6003629 0.1040631 0.072890125 0.28465617 0.07378838 -0.2981333 0.62927717 0.5870485 -0.4584932 0.28413993 0.8003586 -0.7466388 -0.3166147 -0.53052026 0.15195744 -0.36090568 -0.0227815 1.2939129 -0.46879676 0.57236814 0.7806926 -0.45095894 -0.71798015 -0.11298168 0.6212347 -0.23981512 -0.42406392 0.6208013 -0.20685847 -0.21794912 0.71257955 -0.27832258 -0.10427122 0.3303056
321 -0.06963709 0.14277528 0.51697135 -0.75975347 -0.105958275 -0.43642595 -0.32805046 1.021068 0.15916853 -0.36446083 0.06371578 -1.0340716 0.24683987 0.9712576 0.38480493 -0.4214366 -0.52603024 1.0501356 0.22193557 -0.5304081 1.4084437 1.0191702 -1.2173654 -0.7534578 -0.2742492 -0.88327277 -0.7444993 1.1227413 0.64275247 0.066347525 -0.44743767 -1.1935117 -0.20604342 1.236279 -1.1919549 0.20747513 0.07516436 0.051350072 -0.458034 -1.0269494 0.18513712 0.5703016 0.16017693 -0.47407895 -0.8379704 0.68183374 -0.9854496 -1.9586458 0.031688124 0.08127098 0.65805566 -0.9349518 0.6805192 -0.08076928 0.0071410993 0.14677946 0.57691896 1.377994 -1.7801527 -0.34523097 0.14751434 -0.27525523 1.2952043 0.4234958 -0.6359394 0.9583074 0.03793328 -0.28194132 -0.93933296 0.09795547 -0.49188587 0.26568565 -1.0698992 0.53072435 1.0673504 0.4492717 0.29699272 -0.24021053 -0.7345734 -0.92917085 -0.07232192 0.048177272 -0.15322031 0.106130935 0.61534125 -0.53595275 -0.24598147 -1.497139 -0.5567611 -0.46933085 0.10690903 -0.20797403 -0.75832784 1.819754 -0.48072362 -0.21508534 -0.06602824 0.06383116 -0.4865873 -0.32975134 -0.22253136 -0.64859086 0.16574109 0.21657103 -0.7269218 -0.8807767 0.11278388 0.38263232 0.8949627 -0.07684419 -0.34224436 0.8979765 0.77484524 0.51874185 -0.07846354 -0.08668059 -0.65622765 0.6939392 1.1966958 -0.95037043 0.1301813 0.8849373 0.59993356 -0.2431909 0.98006487 0.4533621 -0.9159839 0.5863651
91 0.6033445 -0.68138516 -0.28519094 -0.6691181 -0.46630415 -0.25244126 -0.47878137 0.9480031 -0.06114661 -0.83405656 -0.7345734 -0.24446465 -0.47107148 0.23807104 0.09958448 -0.08394689 -0.3216575 1.2610195 1.1983075 -0.15122156 0.4796864 1.0523245 0.006653759 0.1423584 0.19832051 -0.40268797 -0.33284575 0.6687231 0.10728109 0.14768392 0.36570302 -0.77890784 0.29753053 0.7600721 -0.18872838 0.018997455 0.71071684 0.11590954 -0.10024493 -0.5418978 0.10739879 0.0932623 0.5944422 -0.7780396 0.3391763 0.20819886 -0.20526585 -1.0306151 0.22237045 0.49428144 1.2724758 -0.6906314 0.6557947 -0.3021815 0.6167178 0.049330067 0.5403568 0.1517307 0.09841286 -0.39302483 -0.03446012 -0.38780558 0.043566845 0.4932892 -0.18209751 0.9944365 0.26330215 0.6412267 -0.46214178 0.45353737 0.011628597 -0.58869237 -0.75316226 0.2852233 0.00035006274 -0.26423275 -0.82180053 -0.6314208 -0.41928536 -0.25909048 0.56266767 -0.17820549 0.28336024 0.09340986 0.38063473 -0.6254575 -0.7669145 -0.13605498 0.30576503 -0.8821161 0.6701246 0.13438955 -0.09398469 0.17360236 0.20796674 0.37399572 -0.007567074 0.1563883 0.31802085 -0.4753678 0.49551764 0.11993318 -0.045053177 0.1320929 0.41796127 -0.679622 -0.06831204 0.091675825 -0.16401272 0.1759024 -0.09022393 1.5237378 -0.6082319 0.49037465 0.2998902 -0.7816045 -0.9114756 0.4264179 0.5122466 -0.4557183 -0.16607338 0.7564621 0.107319 0.16832817 0.47119987 -0.100991234 0.3546422 0.296519
212 -0.0860548 -0.3444759 -0.6106088 -0.4285047 -0.044048406 -0.37628117 -0.24265394 0.7750158 -0.101331115 -1.0571154 -0.6699864 -0.149687 -0.3642103 0.5096267 -0.28249198 -0.34619948 -0.3214274 0.23622848 0.7098076 -0.59557474 -0.037823312 0.34768367 -0.13599929 -0.16299383 0.6795106 -0.5302886 -0.66152 0.7596923 0.6731753 0.6014464 -0.25784135 -0.2928968 0.07648856 0.39191842 -0.42363137 0.36242476 -0.1410058 0.23892052 -0.0091707995 -0.0547692 0.49053097 0.113579735 0.8910153 -0.49868405 0.41813946 0.5274383 -0.19832598 -0.755522 0.20760427 -0.33368433 0.93226063 -0.5570753 0.3744078 -0.58944184 -0.19017626 0.35326722 -0.016142676 0.73915124 0.3735831 -0.5373632 0.20833421 -0.3134738 -0.049799368 0.040911943 -0.28097406 0.47718167 0.7812953 -0.16055055 -0.4390371 -0.23448458 0.15341784 -0.30683562 -0.7596926 0.0011098004 -0.20275515 -0.54498714 -0.44416726 -0.29340914 -0.38528746 0.09801633 -0.14484522 0.6771582 0.42180726 0.2499521 -0.2800762 -0.1765903 -0.3691456 -0.096829005 0.26115456 -0.5823431 0.100211665 -0.057016604 -0.34395117 0.6218343 -0.1362244 0.29044342 -0.20456576 -0.3818561 -0.05826366 -0.51124084 -0.15213557 -0.30701268 -1.04306 0.4699349 0.082393214 -0.29516032 0.09737203 0.35771337 -0.37291938 -0.018151963 0.08577403 0.663438 0.05656488 0.7602748 0.04217694 -1.1815419 -0.13088687 0.4660043 0.54046905 -0.24363405 -0.025983786 0.26939577 0.17470863 0.4163831 0.7425064 0.25881746 0.47771406 0.672439
297 0.33785003 0.24070308 0.46124017 -0.20626247 0.7676165 -1.1600989 0.6762946 -0.64800996 -0.27949467 -0.5669852 -0.15141068 -0.9216809 0.8319627 -1.0488842 -0.060747515 -0.96173674 0.9580246 -0.2588691 0.22676419 -0.9319717 0.6248019 0.11636532 -0.03875256 -0.18447763 -0.47193697 -0.03044048 -0.6009808 0.35691303 0.061194316 -0.55849576 -1.6032416 -1.4028707 -0.1953368 -0.9504213 0.9872095 -0.70798415 -0.048274633 -0.15004899 0.018777387 0.6621535 -0.5390231 -1.0072922 1.3241266 -0.11842545 -0.06847053 -0.80670595 -0.29376468 -0.46005642 0.40241277 -0.25323018 -0.17080012 0.19547784 0.044217695 -0.9398045 0.0050717834 1.0888069 0.16379783 0.5113225 -0.5280961 0.18345144 0.5942666 -0.11257743 -0.48856074 0.60925347 -0.5197227 0.7162252 -0.26595482 -0.34689957 0.13073549 1.5217973 -0.8455379 0.5878051 -1.5036154 0.18130933 0.47871304 -0.27563095 0.2330236 0.16441992 1.0427656 0.6147763 -0.39288372 1.2515935 1.3319386 -0.19842446 -0.03319971 -0.43991333 -0.3174193 -0.3770044 -0.49688724 0.48798302 0.030075615 1.0248214 0.019326804 0.85793054 -0.3515189 0.50595343 -0.16344272 1.1770582 0.104809225 0.27896714 0.43603307 -0.2048833 -0.14455676 0.35220483 -0.37519845 0.02649467 -0.0016947842 -0.055239275 -0.9407285 0.39585862 -0.195528 0.20846279 0.27323455 0.13726424 -1.1946244 -2.016753 0.5421674 0.09488418 0.4738457 -0.8692861 -0.25209445 1.2227159 0.7366534 -0.3964656 0.7505861 0.4916295 0.45868045 0.43688795
218 -0.035001796 0.07969163 -0.841082 -0.3504159 -1.2452195 -0.14748129 0.12846026 -0.025953686 -0.66970336 -1.4046223 -1.2849188 0.41036257 -0.10814612 0.023656072 1.0076575 0.05761796 0.24570611 0.53399795 0.1272147 0.14800943 0.2631415 0.7218664 -0.16452946 -0.7018872 -0.13403586 -0.42871395 -0.6711865 0.49933088 0.25805646 1.3688941 -0.49345177 -0.5961062 0.44422185 -0.04634526 -0.40262336 -0.40928212 -0.17742057 -0.19698891 0.10931719 -0.03412839 0.0052663614 0.4466426 1.2671969 -0.16974105 -0.28138182 0.20873578 0.6144129 -0.5223548 -0.46552104 -0.11074128 0.5329143 -0.621541 1.0993004 -0.28816348 0.013600875 -0.023253264 1.3124138 0.8677052 -0.17315294 0.15692852 -0.6653752 -0.24603596 -0.5657298 0.025965719 0.84922874 0.6168191 -0.49627557 -0.3062324 -0.12068373 0.41683856 -0.10924812 -0.26530257 -0.86468524 -0.32426688 0.2527814 -0.17508164 -0.8783622 -0.043666426 -0.529686 0.98620164 0.29638165 0.8860252 0.58372873 0.5888867 0.057355147 0.4428854 -0.52159625 -0.070951775 -0.06683914 -1.0008069 -0.3842247 0.45222643 0.21842155 1.1798447 0.30582926 0.65625954 -0.08753253 0.6692853 0.95655257 -0.56842923 -0.9738387 0.35106784 -0.2978326 0.20909332 -0.23014034 -0.17459297 0.5519187 0.44979012 -0.20908853 -0.23849322 0.18171597 0.9284966 -0.19407645 1.8308092 -1.0183952 -0.8373938 0.1992144 0.0632251 1.0663712 0.4984998 -0.44405147 0.3826041 -0.3172904 0.29414102 -0.041195832 -0.49600175 0.1705435 -0.033455845
288 -0.5387549 0.14919014 -0.3518933 0.20989996 0.8667643 -0.039936703 0.06584902 -1.1218688 0.25807688 -0.5977733 0.44311833 -1.3189663 1.2676715 -0.58912987 0.49631688 -1.3681388 1.3809398 -1.2613685 -0.15299037 -1.6028289 1.1328053 0.666117 0.60335404 -0.8797797 -1.3989766 1.0025457 -0.35261372 0.07510708 0.5365124 -1.202104 -2.2482512 -0.9285762 -0.027277768 -1.0946743 1.8920537 -0.80517906 -0.068212636 -0.8470857 -0.27095148 1.4106845 -1.3325211 -1.0094585 1.556068 0.019800074 1.3796649 -0.20280482 -1.1658566 -0.6711548 1.7228081 -0.3145293 -0.8614175 1.1100289 0.90140456 0.15176044 -0.33048525 0.80889255 0.86165136 0.18765494 0.45133787 0.05846271 1.4709563 -0.10055041 -1.1476856 0.51529163 -1.0830953 0.8090393 0.22806522 -1.0504695 0.037247192 0.37258852 -0.15727411 0.65065235 -1.2099348 -0.13258903 -0.0011136883 0.018427674 0.27263844 0.3756705 1.4027903 1.0913148 0.15818584 1.4165188 2.4356327 -1.0151428 -0.13787226 -0.7877868 -0.10534472 0.22922449 -1.2010813 0.12785287 0.8455223 0.45369366 -0.25849578 0.29092044 -0.020001588 0.6183347 0.45466584 0.7105235 -1.1209954 0.7096102 0.65465343 0.84644526 -1.231746 1.071764 -0.33568877 -0.5275659 0.89376426 0.7722745 -0.85761064 0.14692058 0.13707076 0.6435238 0.6648925 -0.0156201385 -1.1193854 -2.1226077 0.49085766 0.39526084 -0.73900515 -1.3788173 -0.6376401 0.8051024 0.16654585 -0.9998902 1.4481105 0.972462 1.1471647 0.63400906
245 1.2715824 -0.010025579 -0.0852939 -0.5123918 0.54416984 -0.41827813 0.04417633 -0.6319679 -0.8047228 0.017256662 0.07133104 -0.73606277 -0.14803202 -1.0355198 -0.8904573 0.059033986 -0.6701672 -0.58257926 0.4230428 0.20941569 -1.0973853 -0.20948122 0.9140645 1.0825837 -0.024616165 0.65620923 -0.6196219 0.4989908 -0.94139874 0.3603104 -0.16512848 0.3635898 0.5009863 -0.39486966 -1.1718993 -0.46182278 -0.17590071 -0.050475378 -0.77548045 -0.84839875 0.15541576 0.27600577 0.26668242 -0.31050158 0.18928201 -0.2553826 -0.29142955 0.62134635 -1.0664722 0.11729986 -0.33758807 -0.22126156 -0.9976017 -0.8677359 -0.41482016 -0.6233749 -0.9391434 0.12233744 -0.4469771 -0.664344 -0.4841517 -0.13683592 0.29076126 -0.5094309 -1.3345505 -0.4450701 -0.15468064 -0.011020212 1.010964 0.87919086 0.6552812 -0.029743 0.33365744 -0.86759 0.33315614 0.5658894 -0.0828634 0.24293602 1.1915983 -0.7905361 -0.64308155 -0.5197777 -0.8709693 -1.0544448 -0.37482333 -0.5637254 -1.3231 0.38698253 -0.060348835 -0.65439016 -1.2899686 0.9121139 -0.012452357 -0.10481278 -0.3652901 -0.18896519 0.31433243 0.34342954 0.5726147 -0.6892049 -0.14690803 -0.7503754 0.39184186 0.3964325 -0.795546 0.32265297 -0.43987513 0.8249314 0.48210987 1.0549656 -0.7253604 -0.33437234 -0.5298898 -1.0985081 -0.36826184 -1.5174536 0.83263475 0.07856815 -0.5205096 -0.44099435 -0.34189862 -0.28472543 0.4796601 0.7545542 -0.43893808 0.08947701 -0.4595894 -1.2031786
202 0.3231165 -0.36422402 -0.65529156 -0.89411426 -0.4338089 -0.20507434 -0.27268144 0.8186543 -0.020608623 -1.0748597 -0.69313246 0.21894483 0.06265405 0.023084689 -0.1695096 -0.111800656 -0.24937026 0.6096001 0.5129061 -0.23956761 -0.20077606 0.45605382 0.27600652 -0.35025802 0.5171058 -0.50632954 -0.56278074 0.8517351 0.9696144 1.112559 -0.33210453 -0.27154532 -0.07805825 0.22146517 -0.67904586 -0.22484918 0.27548203 0.17011358 -0.09125141 -0.26316348 0.46978962 0.30294052 1.0491946 -0.5302787 0.22854121 0.5635089 -0.053365756 -1.2607317 0.6645222 -0.6948978 0.87832576 -0.96182305 0.5119906 -0.05275909 -0.011188011 0.26074627 0.13885318 0.7770266 0.65088254 -0.42899773 0.20453545 -0.3258126 -0.11974053 -0.21805951 0.17492159 0.22387336 0.4398657 -0.3484066 -0.49352396 -0.016757753 0.03990676 -0.38271415 -0.91232425 0.08828421 0.040974777 -0.57345223 -0.57780325 -0.07102491 -0.29750755 0.6231878 -0.15375374 0.5130025 0.52462035 1.0044125 0.35166234 0.21954913 -0.23758817 -0.2887651 0.26233405 -0.30438513 -0.47463682 0.4942225 0.14673737 1.0300943 0.02774543 0.35810432 -0.18019828 -0.12791099 0.49849766 -0.82439494 -0.14289176 0.26211172 -0.7597635 -0.15334605 -0.20043181 -0.05745345 0.349468 0.41802636 -0.22493072 -0.08349901 -0.08486943 0.7874925 0.11450863 0.86785996 -0.16606648 -1.3906014 -0.08585953 0.49139348 0.6412619 -0.31411883 -0.13035534 0.30967632 0.19402951 0.19837014 0.7402349 -0.010114942 0.5345607 0.7838244
45 1.0246924 1.0586035 -0.43070236 0.20178433 0.28533033 0.16405004 0.85009515 -0.37156916 -0.9482052 -0.40872827 0.26953316 -0.04127285 0.021141449 -1.2229117 0.8881416 1.1011189 -0.94245255 0.48551497 1.6507638 -0.34874737 -0.8479979 -0.5850247 0.4727726 0.29173353 0.53229004 -0.061439253 0.7973143 -1.9835907 -1.0975119 -0.3278609 0.7345174 -0.51792574 1.4611076 0.5043459 -0.81457925 -0.32706875 1.0443616 -1.3312757 -1.8478725 -1.3417968 0.85991454 -0.9457295 -0.39233682 0.6689998 1.1931478 0.23660678 1.4788455 0.121747345 -2.6075656 1.4878087 -2.030553 0.45926008 -1.1255925 -0.62916666 -0.09779695 -1.1655002 -0.60481733 -0.8039236 -1.3988837 -0.6257003 -1.8391976 1.4734356 0.4829533 -0.8372029 0.6241346 -0.36573654 -0.22033817 0.7439179 1.1547503 -0.71866643 0.23834193 0.1739711 -0.25193986 -1.9064435 -0.6861775 -0.07461445 -0.5830829 -2.083651 0.37403443 -1.7885636 0.7190375 -1.8947674 -0.8323315 -1.1284884 -0.11338244 -0.62336165 0.32973817 1.5016234 0.32542402 -1.5431029 -1.5818197 0.4244085 -0.26162156 0.27975747 -2.2800071 0.40508023 0.7750409 0.029964797 0.7814374 0.55219305 1.7600572 -0.9035069 1.0249851 -1.2166482 0.29171652 1.3003908 -0.6957164 0.6460091 0.45165682 0.08114293 1.0659655 0.37283507 0.47070175 -0.24126643 2.890075 0.6689668 1.377225 -1.138929 -0.10377835 0.5591022 -0.5238589 -0.25298724 0.8512665 -0.6899836 0.017704107 -0.28582174 0.48835722 -1.0407265
276 -0.2984909 0.2039642 -0.44070768 0.18904397 1.0927681 0.21519221 0.0052709407 -1.2665 0.17737524 -0.43806034 0.53503186 -0.9778071 1.240469 -0.7271295 0.22432894 -0.998306 1.3348366 -1.523022 -0.19742794 -1.2085905 0.66097856 0.6428525 1.1207225 -0.6289934 -1.2921901 1.4032952 -0.2259201 -0.04224646 -0.1571752 -1.0146778 -2.243401 -0.34873426 -0.1604566 -0.9672496 1.6880784 -1.0240204 -0.3861757 -1.2449987 -0.29726094 1.0649948 -1.0933902 -1.0746746 1.6471711 -0.017402688 1.3376286 -0.10008798 -0.85075045 -0.25011867 1.476409 -0.22128098 -0.9848407 0.9743386 0.4975224 0.3283545 -0.19719476 0.45148668 0.77238333 0.30101413 0.32601216 0.21204111 1.2852207 0.020607304 -0.8763589 0.116956845 -1.0483757 0.33848545 0.1824228 -0.61182857 0.5400007 0.61495954 0.1527119 0.78783214 -0.7117845 -0.39599812 -0.025815768 0.27549204 0.32902968 0.05555678 1.7280954 0.9249231 0.42984146 0.88105214 1.7001678 -0.7282017 0.053067215 -1.0239251 -0.2761698 0.41806298 -1.2050935 -0.007935506 0.7262506 0.43624038 -0.0384239 -0.2049575 0.062522545 0.5097492 0.60608613 0.99827605 -0.5479929 0.19632064 0.8809042 0.6519881 -1.2241602 0.77337843 -0.51076937 -0.5194162 0.5601655 0.7508822 -0.505278 0.05839468 -0.009595674 0.19686414 0.48368284 -0.95374554 -0.8732529 -2.2042053 1.0999892 -0.08718689 -0.9379454 -1.3299936 -0.5699275 0.64579976 0.26050016 -1.0940183 1.3247651 1.2761515 1.1395122 -0.0077984524
