151 128
116 0.18991299 -0.20079124 0.09972927 0.34638166 -0.13929941 -0.29212198 0.32600543 0.9659931 -0.2734037 0.4594822 0.34861487 -0.196014 0.3151107 -0.2762608 0.2621481 -0.39606863 0.15698917 0.7000269 0.011233717 0.1917497 0.300296 -0.1613665 0.2747594 0.12822635 -0.25868216 -0.46465018 0.10129713 -0.22648458 -0.041948937 -0.05952762 -0.47602442 0.2981816 -0.6148175 -0.15508667 -0.5053991 0.06695103 0.5366218 -0.060940314 0.2546933 -0.65844476 0.0018571584 0.035976738 0.037702046 0.46670455 -0.71803707 -0.61753416 0.6490948 0.7332816 -0.060470745 -0.74310243 -0.07689219 -0.77144736 -0.1432581 0.6191058 0.49252588 0.05324812 -0.45292482 -0.71992457 1.1405773 1.0215467 0.8920926 0.20507872 -0.1307135 -1.1131951 -0.77950567 -0.9005349 -0.07601778 0.17965558 -0.42342493 0.4874905 -0.52414685 0.493545 0.61033183 -0.005318555 0.45844564 -0.120580345 0.32454148 -0.05429203 0.46288285 -0.60495347 -0.2615134 0.07124547 0.3408007 -0.4241528 -0.042929515 -0.0005030171 0.6376786 -0.41288394 -0.18667763 -0.4749116 -0.36365923 0.21364422 0.042724334 0.5822097 -1.099642 -0.500695 0.19976902 0.049143627 -0.34142607 1.0938562 -0.6883079 -0.25904638 0.4925916 -0.6022159 -0.025963224 0.67525005 0.082541265 0.19939764 -0.739048 -0.4455085 -0.32984963 0.055560198 -0.10852994 0.14244546 -0.114249654 0.041056585 1.0383133 0.5728387 -0.32573724 0.17974606 -0.07623733 0.060262423 -0.5951272 0.013564356 0.23280983 -0.018325182 -0.0752781 -0.34224758
24 -0.09163123 0.6173681 0.27022183 -0.21885535 0.16441445 0.0037420583 0.6146221 -0.13368787 0.88875395 0.39827147 0.50617 -0.41486427 0.5655475 -0.69403124 -0.20801835 -1.2031804 0.02971001 -0.14766641 0.3875565 -0.25024903 0.4392073 0.17052361 0.45199835 -0.21726567 -0.4965864 -0.06134617 -0.38511065 0.068309985 0.25222626 0.060138103 -0.50558406 0.39534625 -0.4772153 0.4660481 0.41060922 -0.36578736 0.53974485 0.18873574 -0.020726599 0.023294413 0.5802442 -0.39052057 -0.30654535 -0.019514011 0.49493232 0.24343 0.88207287 -0.04909366 0.05040411 0.36361808 0.6401603 -0.011345606 -0.34257135 1.7231191 0.15428276 0.8106945 0.03354442 0.31853276 -0.39953902 -0.1616211 0.35602862 -0.23396862 0.4070933 0.0037156527 0.16016676 -0.22555809 0.05909863 0.46812454 -0.26337045 -0.088580765 0.11449316 0.03972786 0.57261586 0.18164976 0.30090055 0.2712715 0.16788316 -0.30719605 0.10804141 -0.18789244 0.12367613 -0.18616724 0.23206574 -0.11588809 -0.41101712 0.3421143 -0.2952226 -0.29731792 0.08528268 0.9707589 -1.0088648 0.075713605 0.14596227 -0.33274266 -0.8273843 0.19275874 -0.541019 -0.53572005 -0.3145863 0.025079522 -0.72604686 0.29703262 0.60645276 -0.049211353 -0.2228358 0.64348483 -0.06307334 -0.05595473 0.009319293 -0.1798016 -0.6095644 -0.448229 -0.44232628 0.70473236 -0.2975083 0.048594218 0.13712251 0.7242802 0.7695211 0.31484666 -0.19319044 0.29670504 0.5619016 1.3250628 0.16315937 -0.9953561 0.023113025 -0.13936783
111 0.25709555 -0.016571144 -0.6629113 0.14461437 0.23793137 -0.7447824 -0.20677806 -0.6178763 0.6880697 -0.009317352 0.43692002 -0.055596713 0.9644867 0.8237421 -0.6360371 -0.8354841 0.42320767 -0.15447919 -1.3690424 -0.13034306 0.15638901 -0.43681216 0.17232566 1.4152255 -0.5396636 0.30968642 -0.119454905 -1.4072908 0.20464987 -0.47557992 -0.2904542 0.7003623 -0.093622245 -1.000786 -1.0410199 0.7543687 -0.37325293 1.2348131 0.81035733 0.49045628 -0.4736112 1.0273652 0.5671961 0.8895782 -1.0518408 0.15970911 -0.68877053 0.39680088 0.43698835 0.32289752 -0.2724282 -0.9559868 0.389887 -0.18869923 -0.40156642 -0.1312601 0.10342833 -0.47672158 0.076493256 -0.42494592 1.0028536 -0.13440627 0.5753799 1.1648442 1.6436028 -0.6977009 0.36590797 0.5174595 -0.1721402 -0.76415664 0.07163454 0.15999886 0.57130766 -0.63890177 1.0209562 0.43998542 -0.121832825 -0.9546522 -0.6189937 -0.28055826 0.46775153 -0.62247443 -0.58093387 -0.42578304 -1.2038766 -0.2582243 0.37357613 -0.7633661 -0.20188624 -0.5539328 0.050064243 0.85472673 0.09246005 -0.44235328 0.72118294 -0.34081 -0.22642612 -0.3752054 0.68061477 -0.14004683 -0.5036176 -1.3224075 0.12163518 -0.12047007 -1.2472818 0.34929654 -0.22700332 0.19249149 0.10987738 1.1331916 0.23260401 0.41067275 0.7590472 -0.3733035 -0.584165 -0.07306323 0.03438011 0.15042444 0.6497587 0.52025354 0.49491355 -0.15965475 -0.3435043 -0.47846657 0.49666363 -0.18330073 0.113556564 0.07472168
119 -0.24373114 0.59746474 0.31543297 0.27875704 0.35172394 -0.42614135 0.89051193 0.051938247 0.62385625 -0.0062303506 0.2561327 -0.016855495 0.08874923 -0.03889305 -0.07718016 -0.6081317 -0.48130336 -0.63645124 0.21960115 -0.78371954 -0.17081445 0.53618395 0.002234528 -0.88498586 -0.52335095 0.22030133 -1.0847785 -0.02488804 0.34932753 -0.3513135 -0.8047306 0.052154247 0.04952463 -0.0054855044 0.412912 -0.033710662 0.56132054 0.16201578 0.15099826 0.48445237 -0.33720762 0.025120227 0.38424352 0.34510556 0.16523516 -0.091313615 0.7060311 -0.85868853 0.89180803 0.13683581 0.53090096 0.20559597 0.26795617 0.7446102 0.72541696 1.407319 0.23580818 0.51724464 -0.63157684 0.10900961 0.5754701 0.0023071123 0.7827635 0.15935384 -0.5692624 0.28111318 0.21707731 0.017337088 -0.033309158 0.024054864 0.46543306 0.052846923 0.034287516 -0.15529501 0.74529743 0.76608527 -0.09322409 -0.15913321 0.27137852 -0.011522148 0.9118761 -0.0953862 0.20985577 -0.8144296 -0.86804515 0.21897575 -0.48150176 -0.015368896 0.15193255 0.5165456 -0.7579083 0.15965916 -0.028634332 -0.16316395 -0.10216618 0.20775755 -0.7725697 0.43287537 0.09367354 -0.14394161 -0.19066481 -0.12467019 0.52008796 0.48674363 -0.4809461 1.0698719 0.28578484 0.056399673 0.21814221 0.34410828 -0.058576707 -0.60567296 -0.30122244 0.0023579078 -0.31590298 -0.60173124 -0.34017155 0.3898692 0.7156314 0.42156494 -0.7779977 0.5056965 -0.29520777 0.6044888 0.66109735 -0.94132745 0.09747326 -0.10930825
63 0.74868387 0.38969755 -0.19961278 -0.002161016 -0.28598127 -0.6534882 0.43911391 0.42265937 0.05522508 0.38386425 0.31008476 -0.18522006 0.21211948 -0.04452044 0.69622844 -0.6091293 0.07148278 0.20680645 -0.008581119 -0.20036472 0.21226278 0.40405723 0.24570556 0.07291648 -0.44377333 -0.5471853 -0.117472455 0.013366835 0.5489676 -0.18142381 -1.0672973 0.110402964 -0.6141278 0.6964953 -0.19169381 -0.27727804 0.767583 0.2637076 0.23841245 -0.19404085 0.3777141 -0.5618279 -0.20351742 0.62253565 -0.14012285 -0.3834954 0.87020606 0.053538244 0.3156723 0.35187173 0.36778897 -0.032826163 -0.05916002 0.70674217 0.3369291 0.8834199 -0.3519417 0.6537583 -0.16090642 0.22767052 0.30723345 0.15287004 0.3768804 -0.0027164095 -0.5744627 -0.24919146 0.49056548 0.4552215 0.12750958 0.17391452 -0.41248155 0.3574941 0.7023961 0.4299332 0.49911106 0.65591216 0.56666315 -0.5034826 0.32294556 -0.4863235 0.037049882 -0.26597682 -0.16543321 -0.27969474 -0.5133992 0.47079474 0.27987227 -0.27743188 0.15189004 0.40919355 -0.66225946 -0.13484177 -0.41105476 0.044510078 -1.008771 0.24385077 -0.17922468 0.10896626 0.5193995 0.50929296 -0.43243152 0.08711474 0.7897882 -0.15191205 -0.15049091 0.32494348 0.29813808 -0.09887582 -0.29038894 0.10824342 -0.24003465 -0.21906002 -0.8479391 0.63647205 0.41084754 -0.034640636 -0.012333382 0.39372653 0.8419542 0.30132538 0.091904186 0.8584881 0.45986444 0.35792384 0.58776253 -1.0318469 -0.19465095 -0.26841646
101 0.5773288 -0.12974577 0.3397378 0.061625253 0.26206687 -0.5259783 0.26349118 -0.080076925 0.36763975 -0.42460036 0.41694182 0.006347412 0.10959241 0.6097357 -0.29864773 -0.45087692 0.25905764 -0.069625065 -0.88216203 -0.5989688 0.06587079 0.15610377 0.42097905 0.07584877 -0.49452558 0.4363618 -0.85526955 -0.291126 0.10327206 -0.34893054 -0.86291426 0.5143248 0.360419 0.5815196 0.124757476 -0.036141932 0.54100335 0.22946553 0.6125007 0.0793969 0.32681692 0.17937526 0.48291287 -0.06973851 0.156764 0.27153796 0.37699416 -0.757293 -0.19033754 0.84459555 0.0961039 -0.23488465 1.1070209 0.44804904 -0.2443646 0.38490406 0.54570764 0.30563524 -0.83927196 -0.46142724 0.28497794 -0.49821168 0.70459515 1.025645 0.5172336 0.2021115 0.39360005 0.29631197 -0.041844394 -0.24674225 0.6641177 0.08419133 0.40617192 -0.19474511 0.51900345 0.86009246 -0.16567212 -1.075565 -0.626127 -0.061251573 0.58476156 -0.5607229 -0.23296933 -0.05653794 -1.5201741 -0.15483642 0.23872916 -0.22937982 0.3222016 0.60130954 -0.59720045 -0.36685777 0.029202908 -0.769932 0.13940246 -0.10517915 -0.45404065 -0.9369759 0.29947263 -0.6904653 -0.79628307 -0.7157437 0.33406693 0.035277817 -0.39913395 -0.25314927 0.02570515 0.11644406 0.094236374 0.74757326 -0.6892621 -0.02880766 0.31177565 0.17109032 -0.21824881 0.009578358 -0.2922585 0.53181624 0.6951038 0.29224387 0.20112464 0.08823318 -0.15016875 0.7931294 0.32331756 -0.6275832 0.21159512 -0.0015715403
129 0.031250436 0.301423 0.17277928 -0.075190865 0.16966166 -0.12714434 0.5772941 -0.13490629 0.4387989 -0.31179813 0.234664 -0.35841495 0.49629596 -0.16890033 -0.05400727 -0.80044013 0.41967645 0.15683293 -0.41980416 -0.16200534 0.3150995 -0.44251612 0.04565813 0.039004877 -0.64185923 0.00825306 -0.5958553 -0.2944379 0.12388703 0.108651415 -0.83291286 0.67534107 -0.24436714 0.51585704 0.17079355 -0.03418215 0.59654796 0.17188175 0.48665532 0.15057786 0.32067055 -0.14331435 0.13229997 -0.07746844 0.1099578 0.04470931 0.6232177 -0.06348915 0.121771835 0.3660093 0.5169958 -0.31388974 0.36043543 1.5468552 0.2272658 0.48771605 -0.05959986 0.48942697 -0.40280166 -0.23465987 0.45837346 -0.3289969 1.1493151 0.19922623 0.25222686 0.09758972 0.09415219 0.5910725 0.092762776 -0.5462314 0.2124769 0.23967874 1.035586 0.29242253 0.6649007 0.5299202 0.4705407 -0.5950922 -0.18343922 -0.09161394 0.26283112 -0.31457576 0.003890286 -0.05447639 -1.1033175 0.31253967 -0.07607221 0.0006277112 0.26274547 0.33241 -0.7076639 0.05829504 -0.2182306 -0.44358575 -0.59106964 0.012151843 -0.984344 -0.69293267 0.009245656 0.11040266 -0.7856135 -0.2787843 0.72932154 0.14562419 -0.08571603 0.5422001 0.027664378 -0.040091857 0.27727985 0.50793266 -0.7316974 -0.3856241 -0.39153922 0.43325278 -0.39851147 0.17762749 0.26423308 0.8548191 0.45706955 0.51521033 -0.061212424 0.14758517 0.31525794 0.90899277 0.52478963 -0.39283755 0.30319357 -0.10875679
61 1.4376798 0.04176892 -0.013660856 -0.17144148 -0.4676064 -0.7288566 0.13610502 0.5958417 -0.24092638 -0.15582052 0.26421928 0.116796464 -0.24990405 0.45163688 0.82454044 -0.41544762 0.63187826 0.28584972 -0.8093281 -0.106582195 0.22943604 0.56003517 0.5276513 0.29237732 -0.2103892 -0.3329487 0.077972755 -0.0649028 0.22259702 -0.1913136 -1.1691769 0.02364596 -0.252144 1.0724338 -0.38514146 -0.13210718 0.76294756 0.118228965 0.56448895 -0.69985837 0.6262719 -0.42516074 -0.1361586 0.2928728 -0.10005007 -0.18018618 0.5767294 -0.16561216 -0.5910476 0.819719 -0.05092965 -0.26553318 0.74206316 0.2416438 -0.18027566 0.41063252 -0.10071953 0.38890943 -0.46454 0.10384041 -0.22345367 -0.12980762 0.43501264 0.36775568 -0.3551207 -0.057455227 0.4353808 0.28253815 0.026993228 0.21052267 -0.14335561 0.37643293 0.50583607 0.11470506 0.22564386 0.58699447 0.23954587 -1.0015081 -0.22899853 -0.47320458 -0.050330944 -0.4880511 -0.416735 0.287241 -0.87571466 -0.18816222 0.88551813 -0.04690539 0.21706788 0.71849453 -0.5156079 -0.86883014 -0.27545777 -0.022620097 -0.5625111 0.14288342 0.18651566 -0.71554255 0.6571621 -0.03915759 -0.7098275 -0.3045021 0.4764607 -0.25529817 -0.000179133 -0.78134555 0.30063838 -0.06407142 -0.5375573 0.10750474 -0.62295866 0.24542479 -0.18973123 0.6820649 0.52873737 0.09932843 0.0015875603 0.46727931 0.86749136 -0.047496255 0.58313537 0.4599347 0.35274363 0.5004357 0.20173635 -0.7049741 -0.26165912 -0.07047517
4 0.19131693 0.15905088 0.0441383 0.12151552 0.2748952 -0.5454119 0.48958933 0.07590082 0.59910506 -0.331026 0.44359973 -0.38186955 0.4785565 0.29444945 -0.16366568 -0.72640324 0.21052445 -0.03328311 -0.34198126 -0.36951163 0.22047889 -0.20064427 0.17425035 0.053771127 -0.7084398 -0.030730894 -0.7460913 -0.45161223 0.25843024 -0.1682934 -0.9215899 0.6183495 -0.1332967 0.28801447 0.013015289 -0.11911782 0.5562599 0.52936983 0.5246564 0.35363513 0.011350438 0.22581974 0.19817059 0.3413507 0.027353732 -0.08450851 0.62156814 -0.3336098 0.26746067 0.48170748 0.24607533 -0.19283704 0.44094214 0.74273586 0.20652425 0.6442224 -0.32820782 0.44245616 -0.33551246 0.00818554 0.51487756 -0.16957304 0.75627613 0.61305726 0.41211715 0.045586374 0.25637415 0.23248549 0.18159504 -0.33387375 0.26486275 0.28582492 0.8591251 -0.07370888 0.97464454 0.7084421 0.12901506 -0.64521295 -0.2644578 -0.29278302 0.5139755 -0.46235138 -0.30737588 -0.11781583 -1.0399182 0.41606984 0.121435694 -0.21282913 0.17952725 0.35735962 -0.6134828 0.052614488 -0.30682704 -0.41018948 -0.28633344 0.095307484 -0.6523345 -0.27848998 0.44305506 -0.1677387 -0.7782536 -0.49020615 0.6699149 -0.09261777 -0.4018275 0.43062356 0.11508305 -0.021122666 0.276609 1.0170451 -0.34399697 -0.3548045 -0.17966443 0.15372838 -0.5411376 -0.08499142 -0.021897042 0.6887498 0.6140264 0.7874073 -0.2197387 0.168594 0.09934338 0.5323825 0.7256433 -0.52545327 -0.1043473 -0.07487516
56 0.6270278 0.015305464 0.015260641 -0.09074965 -0.11378542 -0.5772637 0.3053862 0.08242293 0.28567034 -0.36988592 0.2568228 -0.16910234 0.3801017 0.44976133 0.32567963 -0.13657627 0.47309676 0.19962741 -0.77772737 -0.30727646 0.0761313 -0.16603135 0.03531801 0.15395516 -0.5150619 -0.09159665 -0.46473393 -0.28571242 0.3003854 -0.00085674704 -0.8863808 0.5690896 0.0074082967 0.6822212 -0.09350995 0.074286506 0.71006775 0.44135106 0.54408705 0.14504716 0.27305505 -0.07843712 0.23239243 0.09856799 0.044048786 -0.037844524 0.4097805 -0.32839137 0.13649872 0.5851303 0.100769386 -0.009091499 0.7504153 0.54097486 0.018035537 0.35622847 0.17511895 0.72894907 -0.5070503 -0.17492953 0.29549977 -0.42593822 0.828274 0.71434146 0.51451504 0.1711262 0.3428251 0.461154 0.1883065 -0.45047864 0.09407433 0.299268 0.67834884 0.41712946 0.6715597 0.7889501 0.39208642 -0.7612841 -0.30239207 -0.02671636 0.18173076 -0.6562667 -0.3051121 0.07864237 -1.0580119 0.31482285 0.17465565 0.02126941 0.3669128 0.25273728 -0.43172958 -0.16897741 -0.41741306 -0.39926803 -0.15556471 0.111206435 -0.7457157 -0.43854418 0.61042833 -0.17272325 -0.7060495 -0.3474834 0.68841845 -0.050745245 -0.13061005 -0.058147926 0.21249934 -0.05889675 0.2581422 0.92930394 -0.45965308 -0.07639076 -0.2423727 0.4051538 -0.088664375 0.22288533 -0.23463033 0.5098692 0.65333194 0.525088 0.22086835 0.38894916 0.3248771 0.4562259 0.6402091 -0.3777193 0.18803108 0.026132423
40 0.28783178 -0.16407642 0.19263163 0.20573394 0.2504524 -0.54580635 0.52534616 0.25487548 0.49481848 -0.4050957 0.5080848 -0.2887997 0.34817022 0.32634848 0.12815149 -0.47398973 0.19268326 0.030284142 -0.08161226 -0.399545 0.14506817 -0.101336256 0.15052247 -0.20469825 -0.707031 -0.19144532 -0.78339845 -0.40644738 0.23841293 -0.26419377 -0.89073783 0.5507222 -0.049649972 0.2813015 -0.0064588403 -0.18488625 0.6939927 0.3832955 0.5248548 0.29870802 0.052277867 0.33656925 0.26470074 0.3398221 0.11710171 -0.25021505 0.63016564 -0.3503899 0.2256246 0.56943077 0.16980103 -0.23682584 0.68261653 0.69213647 0.40027317 0.76230794 -0.33478615 0.39433196 -0.18459374 0.24950725 0.52003664 -0.17622305 0.68808067 0.4630303 0.15756834 0.11801486 0.28388968 0.11240062 0.23856035 -0.07507665 0.46392503 0.43788773 0.89480966 0.043067068 1.0054725 0.8399577 0.06584837 -0.6230978 -0.301191 -0.4127664 0.4913681 -0.511067 -0.29212046 -0.19666012 -0.82199407 0.3266156 0.27132013 -0.20448765 0.11516362 0.39659473 -0.69919354 -0.059470937 -0.36611938 -0.15146655 -0.30265245 0.020685095 -0.5165614 -0.14947984 0.45753813 -0.14144775 -0.61670244 -0.47638044 0.694062 -0.15713961 -0.23797372 0.45000583 0.067118905 -0.08324873 0.20569175 1.0111226 -0.37589607 -0.2811527 -0.15323414 0.18464278 -0.49482897 -0.14320362 0.029207641 0.7394851 0.4743787 0.7799008 -0.3365538 0.11748047 -0.040996835 0.3671446 0.83429384 -0.48202065 -0.13751805 -0.09237551
3 0.5478865 0.18410859 0.063306786 -0.21224578 -0.36575463 -0.35689577 0.74426275 1.1867787 0.2253237 0.060794882 -0.07760473 -0.4926419 0.60026497 -0.29466966 0.7068707 0.20528643 0.20920603 -0.15019119 0.68328804 -0.29543173 0.7801904 -0.39789882 0.11468577 -0.16021866 -0.07653159 0.40372282 0.16746278 0.34085137 0.28410143 0.40903568 -0.3872607 0.5146454 0.0810013 0.28677288 0.34449685 0.2959697 1.1272985 1.1101387 0.15114012 -0.69538164 0.9061429 0.1756382 -0.45474485 0.02448662 0.183885 -0.4811956 1.15777 0.03349596 0.52989024 0.028513353 -0.4175695 0.5060246 -0.016181612 0.70851487 -0.08382655 -0.1726488 -0.26319012 0.74034446 -0.32026726 0.5824181 -0.12511207 -0.29687136 0.23749858 0.41591564 -0.16075413 -0.35108435 0.07793336 0.5321028 0.2919686 -0.36420137 -0.87341595 0.100375295 0.3699716 0.47186187 -0.079197556 0.29415601 -0.0009546446 0.85751617 0.49374288 -0.11920792 0.121893525 -0.16861945 -0.21353032 0.13376854 0.36528206 1.0123135 -0.047121502 -0.10375518 0.20486905 0.37195483 -0.433041 0.14812894 -0.2858635 0.46100807 -1.0172207 0.35686994 -1.0080155 0.07802259 0.43919176 0.1412686 -0.68004084 0.49527732 0.8133542 -0.36712664 0.53574616 -0.6040219 0.57583076 -0.342079 0.28849977 0.18039674 -0.21550357 -0.33323038 -0.715968 0.16604125 -0.052596547 0.1274815 -0.30921784 -0.39997765 0.55961293 0.8692514 -0.4947317 -0.0049657174 0.12234584 0.38189048 0.5981266 0.08903938 -0.7410447 0.33145776
12 0.74008733 0.12843922 0.104903 0.15604052 0.28616637 -0.627769 0.3288339 0.40893093 0.32768545 -0.085489385 0.3455497 -0.6697273 -0.108768865 0.30758664 0.3379969 -0.6014891 -0.28950405 0.21178001 0.33654022 -0.21419746 0.7898972 -0.07718131 0.22378175 0.016481329 -0.30090022 -0.16391073 -0.4559954 -0.18432353 0.551602 -0.03062832 -0.46916464 0.34657574 -0.04075192 0.6688408 -0.1299876 -0.50569165 0.65310544 0.45100123 0.47249871 0.31113875 -0.17425197 0.5713598 -0.33289006 0.3847676 0.10652969 -0.41083023 0.59976137 0.11128343 -0.27871254 0.67403847 -0.052694626 -0.069086224 0.51915437 0.68537796 0.16273718 0.7225563 -0.4563642 0.3087304 -0.31638715 0.5685192 0.55506104 -0.11966366 0.36687323 0.449485 -0.3499569 -0.1694529 0.267242 0.07090144 0.13951579 0.10025561 0.22690561 0.36716962 1.0034184 0.12752083 0.5051654 0.49768078 0.11147379 -0.40512505 -0.35505092 -0.47949675 0.18155314 -0.5741406 -0.38554054 -0.11167622 -0.64663815 0.2073863 0.36297867 -0.37164214 0.12962972 0.16932829 -0.7036462 -0.3311326 -0.61377424 0.051562276 -0.18475646 0.039098144 -0.2802031 -0.44885004 0.38591376 0.023559315 -0.46033585 -0.36263892 0.8547576 -0.13898443 -0.25993153 0.02522191 0.40130785 -0.05933435 0.010835645 0.6543107 -0.07914181 -0.032671057 -0.4774828 0.22455092 -0.17837018 0.28674814 -0.24767187 0.52775866 0.68029165 0.9254172 -0.5309921 -0.27820438 0.18699546 0.40017706 0.695034 -0.8368092 -0.46263027 -0.051557407
89 0.5821914 -0.11059283 0.0048528756 -0.01003027 -0.37469667 -0.68143547 0.54333407 0.1882164 0.3888795 -0.16094518 0.3508684 0.13727464 0.7070344 0.3408704 0.59083205 -0.07567105 0.58262485 0.13549307 -0.7658541 -0.49496505 -0.18688555 -0.031823523 0.013599257 0.05745897 -0.5485383 -0.27267843 -0.35205135 -0.21707152 0.42928338 -0.17962578 -0.8849506 0.50184786 -0.06247868 0.60340434 -0.22049865 0.20046194 0.94994974 0.39117277 0.47831836 0.039869513 0.38849854 -0.3055809 0.26091108 0.24328779 0.057871837 -0.038944934 0.5626482 -0.32284355 0.38752678 0.5832445 0.055238605 -0.038916707 0.6646969 0.54102314 0.080170706 0.5787151 0.34287924 0.7582753 -0.46887684 -0.17193128 0.44892937 -0.44633016 0.8557179 0.55017734 0.4560428 0.21951291 0.37440738 0.45570895 0.026375564 -0.3600339 0.17050464 0.28053692 0.5493789 0.61372256 0.7626282 1.0522099 0.49336073 -0.790296 -0.12879018 -0.047285687 0.2901653 -0.6939424 -0.2584491 -0.13374816 -1.0486778 0.41217333 0.20653893 -0.084888116 0.4409499 0.3807516 -0.4949528 0.0144681875 -0.28247672 -0.27518016 -0.3212367 0.07664646 -0.83619714 -0.2612168 0.7260094 -0.049850203 -0.6239671 -0.17600086 0.65085036 0.02861851 -0.18362291 0.1368289 0.13146879 -0.14902751 0.28640708 0.8497282 -0.48224863 -0.1500179 -0.15727922 0.57539475 0.024283476 0.0486421 -0.42259267 0.43983516 0.6010555 0.29979247 0.2435686 0.6678177 0.3967904 0.28450748 0.7677795 -0.3855797 0.35739332 -0.002193476
128 0.66259724 0.25094643 -0.13495474 0.13805744 0.07585365 -0.6387169 0.61566687 0.6154356 -0.039999675 -0.29906312 0.1991447 -0.53188545 0.011028311 0.110096194 0.22256625 -0.6440902 0.2266489 0.15584356 -0.276197 -0.073480204 0.7825805 -0.100666866 0.3100662 0.2164348 -0.31254503 0.06611343 -0.35898486 -0.19540599 0.30647892 0.21666811 -0.8235259 0.3465577 -0.19341181 0.4964722 -0.23221605 -0.08848004 0.60848886 0.4859693 0.6249646 -0.25465086 -0.027319124 0.21573071 -0.15445921 0.34404784 -0.3003264 -0.42269284 0.7642814 0.00096162857 -0.25751585 0.19277392 0.119074985 -0.32294956 0.3712596 0.60085076 0.07272998 0.21198569 -0.5713414 0.16776167 -0.36088237 0.4965015 0.2711526 -0.008082218 0.5139883 0.34752035 -0.3264854 -0.32204857 0.19698241 0.26064962 0.10812806 -0.21315666 -0.25434002 0.2060332 0.93100685 -0.0918417 0.44983873 0.39119083 0.13401489 -0.28530914 -0.11114851 -0.46461993 0.4150998 -0.19662227 -0.40681347 0.026761398 -0.7757816 0.23030463 0.24030778 -0.20257951 0.23604715 -0.09767566 -0.48132586 -0.07915367 -0.4378849 0.06635903 -0.49702743 0.034792244 -0.51360244 -0.5021227 0.35795036 0.12185073 -0.65760994 -0.49053633 0.73222345 -0.17950517 -0.22879212 -0.18607616 0.5075415 -0.004592384 -0.079455554 0.4483991 -0.21459094 0.03947857 -0.54323083 0.26025948 -0.21261798 0.21918125 0.05604603 0.41396132 0.47811848 0.7338539 -0.21195391 -0.16734003 -0.038736776 0.5380401 0.54899555 -0.48572567 -0.4455899 -0.05241036
146 0.7898422 0.9125164 -0.38822278 0.07733252 0.23981489 -0.49973595 0.19321087 0.022788787 -0.12928426 0.36367255 -0.0067061502 -0.8476592 -0.24626338 0.24559544 -0.38020107 -0.32353964 -0.57851917 0.24056125 -0.08150511 -0.23605491 0.36697817 0.4769783 0.56833154 0.39399 -0.08274475 -0.179542 -0.67882997 0.19813524 0.6428154 0.34493524 -0.638727 -0.11596234 -0.47549865 1.0780818 0.30771485 -0.5203057 0.23289251 0.6948812 0.34698132 0.31426194 -0.21938922 -0.9057085 -0.061182205 0.4032861 0.20440863 -0.037858456 0.70329326 -0.58431154 0.011674758 0.29004103 0.86738276 0.31911764 -0.29555276 0.14118925 0.052066572 0.46169317 0.042451806 0.8608909 -0.21289153 0.14700964 0.59648466 0.08123216 -0.2145971 0.6238586 -0.21220829 -0.5622819 0.3999068 0.31344008 -0.120680265 0.0735034 -0.66303104 -0.0046290616 0.20117447 0.43887606 0.15078016 -0.31216574 0.46620187 -0.38832211 0.28125846 0.70096946 0.045303054 0.053419434 0.12462714 0.10918675 -0.6059812 0.47017983 -0.36680895 -0.097888336 0.85171235 -0.4801176 -0.37235022 -0.27504036 -0.27884614 -0.93912053 -0.2307374 0.418205 -0.14584795 0.07582722 -0.1178977 0.29938185 -0.14017382 -0.1864214 0.7857011 0.15599217 -0.5253456 0.07356209 0.640608 0.22820339 -0.47552517 -0.09196794 0.13069035 0.5076591 -0.92058337 0.35293525 0.56149817 0.11805996 -0.3411319 0.2631935 1.1471955 0.21325888 0.08725768 0.97209066 -0.0008403407 1.0585262 0.29992348 -1.5667518 0.15682474 -0.03079139
48 0.883086 0.8376023 0.31762725 -0.5812117 0.27951437 -0.04123082 -0.50719196 -0.74016094 -0.25160453 0.017786099 -0.06449095 -1.0174497 -1.0640669 0.2424826 0.20173784 -0.6559273 -0.047880005 0.49961638 -0.477528 0.2403868 0.3254367 -0.25737086 0.3263428 0.62708396 -0.097247444 -0.42156765 0.054416887 -0.22889885 0.06349892 0.76083726 -0.3030145 0.2574933 -0.54340684 0.8272575 -0.033695918 -0.27873582 -0.075597644 0.07443716 0.36126703 0.29255953 -0.059172638 -0.38312 -0.063063145 0.15111649 0.03699473 -0.03524961 -0.3412787 0.064065315 -0.51827264 0.47092542 0.44024083 -0.04829236 0.45833096 0.90440315 0.26779935 0.20076534 0.092986695 0.96147233 0.22880173 -0.018597763 0.4471894 0.06002543 0.5612775 0.24616037 -0.28156534 -0.1440633 -0.00038431952 0.4993796 0.067084275 -0.08916028 -0.22633438 0.6367357 0.7544913 0.5772892 0.29404634 -0.81867045 0.59836435 -0.767469 -0.46841365 0.62086254 -0.8918796 -0.53842014 0.2907649 0.019497149 -0.74495375 -0.6790902 0.06857964 0.54424906 -0.04997925 -0.8635058 -0.3204116 -0.5571351 -0.3681165 -0.7028729 0.14462744 0.41063654 -0.18013225 -0.9289866 -0.40052283 0.096178524 0.023028437 -0.71194875 1.0329747 0.54228646 0.17115413 0.3698727 0.34512183 0.43655774 -0.16616103 0.3041686 -0.21439853 0.68844306 -0.6152437 0.4550656 0.26324153 0.72994393 0.5240087 0.9159527 1.4688927 0.5127586 0.3951945 0.14006113 0.29964915 1.0951716 -0.20939195 -1.5329425 0.3511839 0.17487217
67 1.0339972 0.17358108 -0.24977456 -0.27346066 -0.54389 -0.6356758 0.41720292 0.38080674 0.10446977 -0.22427821 0.16835685 -0.3112721 0.20889796 0.1604612 1.075332 -0.17784944 0.7447373 0.18022116 -0.54516655 -0.103894226 0.27449813 -0.035453618 0.15254168 0.38157946 -0.34440237 -0.58484536 0.090565845 -0.099021465 0.3377623 0.2878289 -0.77001286 0.25203556 -0.34933764 0.71174705 -0.42596436 0.12332179 0.8506339 0.57511413 0.52058744 -0.27222994 0.33012044 -0.46243382 -0.34545943 0.37416464 -0.04111345 -0.39761716 0.48741615 0.13294101 -0.05080228 0.5832108 -0.03960849 -0.0018166867 0.38443166 0.5863353 0.07906606 0.34212673 -0.19472642 0.74854517 -0.27697474 0.40325552 0.07016707 -0.22659938 0.7511259 0.43275878 0.100755796 0.022063069 0.14729069 0.45022187 0.14125142 -0.32003605 -0.38400993 0.40030006 0.67653495 0.5855558 0.55598426 0.29221228 0.5271929 -0.5140351 -0.058314636 -0.023258505 -0.056485392 -0.60552377 -0.27534285 0.21227647 -0.5049747 0.3312237 0.42580214 0.17697734 0.32737938 0.14858024 -0.42767078 -0.19112705 -0.48044622 0.14841948 -0.48267618 0.27511588 -0.67352736 -0.31925327 0.6713713 0.17638405 -0.3839798 -0.23726952 0.81440896 -0.13389356 0.04208569 -0.19059466 0.37926635 -0.23959887 0.05557924 0.61718297 -0.34376824 0.25132447 -0.47691453 0.73984057 0.1268029 0.22427987 -0.090183355 0.45618203 0.74652594 0.415991 0.2918231 0.34777352 0.49951407 0.45567408 0.61292905 -0.3680405 -0.077301025 0.22898075
32 0.6927589 -0.27232054 0.3329403 -0.14529194 -0.3409713 -0.51461524 0.64148676 0.22939421 0.44488135 -0.3274494 0.29860085 -0.52429926 -0.13850646 -0.36461955 1.2478116 0.06755405 0.4926292 0.14029452 -0.048501246 0.0026894235 0.7821958 -0.14543284 -0.021766957 -0.17999639 -0.12916657 -0.45256394 0.17776151 0.26966685 0.1390606 0.6921768 -0.032892574 0.299439 -0.0003482698 0.21698175 -0.4081881 0.4588847 1.1746892 0.48611277 0.17489268 -0.46839568 0.16393766 0.15581271 -0.84975016 0.15106525 0.52074295 -0.31859186 0.13379253 0.22340044 -0.531364 0.5067224 -0.4788318 -0.13637163 0.7047241 0.9517805 0.39513922 0.11864694 0.38393635 0.21461056 -0.2456754 1.0912399 0.3883956 -0.19420904 1.3579206 0.27333528 -0.5995218 0.1850153 -0.4208376 0.49231175 -0.12843327 -0.13178846 -0.26696768 0.3362828 0.6052477 0.50296783 0.27872318 -0.07751715 0.14266287 0.37616765 -0.28046873 0.018606687 0.5481884 -0.7136972 -0.032136578 -0.18758546 0.09134992 -0.07208232 0.17485468 0.42280784 0.16775937 -0.13520598 -0.72676295 0.20257623 -0.095601246 0.53339773 -0.10774428 0.1918947 -1.4168293 -0.5112256 0.15114476 -0.1426968 0.10605126 -0.48867187 0.88491243 0.17734382 0.47603622 0.2510884 0.43021676 -0.15398252 0.4423101 0.2262868 -0.12075555 0.42825082 -0.29281545 0.7265496 -0.1579198 0.1401044 -0.3105762 0.11674542 0.5169821 0.70578027 -0.5160648 -0.53323704 -0.031143667 0.8323426 0.68084985 -0.49152422 -0.1389928 0.7307443
43 -0.18899013 0.67087466 -0.7427834 0.16785325 0.14229318 -0.031563293 0.7133515 0.99914175 -0.79892224 0.41859323 -0.13852763 -0.3222032 -0.07285458 -0.57001054 -0.20030108 -0.4408791 -0.20705022 -0.32727098 0.5995954 0.40246543 1.1732596 -0.48250243 -0.30077982 0.12226293 0.21519876 1.1452208 0.17270365 0.4530291 0.42273828 -0.19424234 -0.46293786 0.22372732 -0.38294414 0.37796667 0.51440555 -0.39282313 0.21768121 0.50412226 -0.41799727 -0.7874286 0.8699428 -0.059657075 -0.31253204 -0.08985603 -0.4111796 0.039876565 1.3491966 0.10448752 0.44613668 -0.48717073 0.39668313 0.59542274 -1.0162129 0.07049949 -0.64821076 -0.5014767 -1.4005826 0.21309343 -0.88121074 -0.423707 -1.0613064 0.422929 -0.5163013 0.04286299 -0.51023155 -0.7402958 0.32991362 0.2990994 0.56116474 -0.6707519 -1.4508421 -0.6084357 0.38225076 -0.3777422 -0.88729686 0.34258816 0.35577923 0.79393005 0.8942757 -0.76541287 0.6310209 1.0178918 -0.8692462 0.62212044 -0.020840717 1.3065737 -0.27107295 -0.5944319 0.45253524 0.3005774 0.10552336 -0.03717505 -0.38492203 -0.25706446 -1.4256098 0.53441656 0.025100622 -0.045901146 0.444097 0.3711056 -1.2467434 0.6666005 0.29321706 -0.31927383 0.028606066 -1.1541282 0.5806508 -0.06879176 -0.20822693 -0.49070764 0.3834339 -1.1909368 -1.2323495 -0.35449564 0.29386118 0.23207155 -0.023985175 -0.737551 -0.23849566 0.4103705 -0.2663447 0.3507501 0.6089555 -0.18447839 0.024602221 0.07061799 -0.8553515 -0.74731183
66 0.49622703 0.21395494 0.12767223 0.007753947 0.24865922 -0.3719519 0.5270273 0.39150095 0.34051406 -0.27846235 0.33027157 -0.66673684 9.8526085e-05 -0.054655906 0.2193118 -0.7286275 0.13170367 0.05033625 0.24478139 -0.11749978 0.72115576 0.00386184 0.3536645 -0.09618564 -0.5247908 -0.13525 -0.4613846 -0.090777084 0.17199501 0.075413875 -0.8519168 0.37732375 -0.22737424 0.5722824 0.064128056 -0.3637996 0.652698 0.38160747 0.4827024 -0.029809942 0.13518646 0.13691714 -0.27948117 0.19308694 0.107418045 -0.34460416 0.8104766 0.025691465 -0.1901503 0.5152841 0.18552713 -0.17652765 0.3653575 1.0899624 0.2459458 0.5769138 -0.51045537 0.28519696 -0.2822728 0.48066318 0.24508847 -0.09620083 0.61363935 0.2690969 -0.24378513 -0.15508223 0.14673498 0.23645121 0.20274997 0.028576044 0.059497725 0.38751307 1.0335852 -0.012799693 0.5500161 0.3329845 0.03628324 -0.28998402 -0.16396837 -0.45024782 0.30723304 -0.29751018 -0.23591962 0.017980687 -0.5462603 0.32528648 0.29443476 -0.17859203 0.042318497 0.5123099 -0.72963166 -0.3013966 -0.38174394 0.024242258 -0.6529929 0.09487854 -0.49449572 -0.44745472 0.17540991 -0.015180064 -0.6453819 -0.30238384 0.7738269 -0.27940553 -0.13344888 0.12263982 0.27650893 -0.0926509 -0.044652812 0.44235548 -0.43280128 -0.20048507 -0.506055 0.3005061 -0.34175166 0.02979333 0.23791273 0.68574846 0.5732945 0.7589945 -0.38025987 -0.16057165 0.13658114 0.8570457 0.58399576 -0.5557547 -0.48301122 0.014503953
148 0.6728923 0.22421515 0.07098721 -0.10478408 0.12711582 -0.44094586 0.34656262 0.30348223 0.12305636 -0.25994942 0.19997235 -0.7275625 -0.11287805 0.042036355 0.3673473 -0.5349502 0.3248026 0.24377587 -0.1645095 -0.039207753 0.6968297 -0.1652677 0.31126913 0.19542263 -0.5026657 -0.11164527 -0.3750912 -0.29294717 0.14453979 0.3582913 -0.778038 0.4988107 -0.31248188 0.4697392 -0.14774771 -0.08541085 0.577956 0.47746027 0.65016884 -0.061346944 -0.024685511 0.13412642 -0.1399206 0.19612849 -0.23579295 -0.526381 0.5733217 0.14132005 -0.1740845 0.27667618 0.12299736 -0.29631564 0.4506141 1.0289834 0.30300435 0.24316427 -0.4234877 0.3228663 -0.08893881 0.56100255 0.40309545 -0.11237115 0.63013303 0.25378686 -0.08707843 -0.2705062 0.15322429 0.41003618 0.15835583 -0.2147111 -0.17087281 0.4811545 1.0613338 0.13607642 0.5812402 0.16946515 0.17840335 -0.37055504 -0.1849421 -0.22216813 0.046010114 -0.3983078 -0.15620534 0.014906713 -0.6642816 0.09891593 0.21069133 -0.019593544 0.007536115 -0.16863722 -0.53100437 -0.13346729 -0.49564442 0.07339051 -0.43691105 0.026467852 -0.6263922 -0.5203176 0.16976048 0.14835745 -0.5915293 -0.54309094 0.9352952 -0.15975925 -0.077895984 0.14624663 0.4307582 0.006666968 -0.0523264 0.58658665 -0.42490277 0.13315529 -0.53917855 0.34810212 -0.2921385 0.37670135 0.32587698 0.71347374 0.6416435 0.86049205 -0.12793954 -0.18993387 -0.008954767 0.7531043 0.56193006 -0.4685 -0.21208325 0.12204025
118 0.9125003 0.72816914 0.11895739 -0.23461846 0.24056299 -0.48076245 0.27737525 -0.04116624 0.35362387 -0.1791429 -0.028180698 -0.8512456 -0.51982754 0.27985033 0.6375817 -0.5198629 -0.06742324 -0.1706893 0.06091491 -0.296459 0.38408762 0.23485295 0.3258341 0.11007004 -0.3005534 -0.2753412 -0.36424989 -0.24453522 0.21348299 0.49967116 -0.58347416 0.10264684 -0.18196586 0.3914466 -0.16241758 0.024523418 0.40247625 0.5797447 0.65735567 0.2924205 -0.42312264 0.06784148 -0.14852841 0.37497538 -0.096799344 -0.60775954 0.10721018 -0.037839744 0.09249525 0.53505695 0.090038575 -0.017705973 0.6222936 0.9690749 0.61034364 0.72275937 0.058063716 0.73270744 -0.15152441 0.68926287 0.570271 -0.03538281 0.7623166 0.3819728 -0.49645302 -0.06609855 0.056769717 0.31543276 0.09365152 0.073073536 0.01943091 0.5965067 0.66938776 0.2815124 0.565162 -0.18113449 0.1077837 -0.3010185 -0.20411944 0.36409068 -0.068270944 -0.6203113 0.13841173 -0.30249777 -0.6343277 -0.32321963 0.07931862 0.2746067 -0.07466706 -0.2764275 -0.5980951 -0.34125075 -0.49501404 0.098757565 0.13712569 0.20981693 -0.6829947 -0.24252845 0.05519305 -0.052283 0.12628858 -0.67488354 0.9698386 0.3448347 -0.22369674 0.4836051 0.58588314 0.11431309 -0.017896187 0.5685466 -0.055942878 0.47453496 -0.5596885 0.31176445 -0.17988151 0.10815507 0.03569444 0.61142886 1.3450689 0.8194272 -0.29949132 -0.18741597 -0.13982026 0.9073131 0.56014484 -1.1042322 -0.12347812 0.4356873
25 0.72727907 0.43736666 -0.13544475 -0.05582742 0.10901149 -0.5729186 0.45948482 0.16562855 0.36632106 -0.33730018 0.21059835 -0.63752764 0.011137719 0.18235232 0.28180215 -0.829418 0.45442662 -0.06951917 -0.51985717 -0.106272615 0.5774398 0.070882216 0.4222423 0.39510116 -0.44101742 -0.065139614 -0.29396084 -0.21640134 0.08704801 0.25136435 -0.8757466 0.3540378 -0.2702035 0.36095777 -0.3036732 0.2062517 0.5376565 0.5911605 0.66102964 -0.20828998 0.037093665 -0.006376986 -0.17711091 0.36355287 -0.0925442 -0.18691237 0.33374003 -0.030830005 -0.25501034 0.52598625 0.14055192 -0.42991278 0.55158156 0.8966905 0.095167 0.3146998 -0.10531545 0.28597075 -0.3297935 0.3902299 0.37767938 -0.089033775 0.99212456 0.60302424 -0.106369734 -0.18657868 -0.059348974 0.4378182 -0.0194696 -0.22305678 -0.24451114 0.26847297 0.8275216 -0.08527273 0.6326839 0.01633827 0.12784474 -0.4785508 -0.32879686 0.0047385287 0.3943968 -0.41521576 -0.11968445 -0.044970866 -0.8646649 -0.12706012 0.39181858 0.02448065 0.1983145 0.13621207 -0.65020484 -0.20904237 -0.15744351 -0.21559969 -0.31189716 0.14689802 -0.78652513 -0.6626831 0.23227853 -0.092471406 -0.49637756 -0.85924596 0.7282838 -0.002634096 -0.33426583 0.13077542 0.31981757 0.12723902 -0.019489015 0.49939466 -0.3072657 0.2066652 -0.20220126 0.3795049 -0.36803308 -0.06055801 0.1891399 0.58542794 1.0308765 0.62234205 -0.015852021 -0.12536658 -0.048357848 1.0254186 0.5279504 -0.84981304 -0.24784197 0.28970486
94 1.0350293 0.21642059 0.08506754 -0.25088707 -0.34525117 -0.57336825 0.20546395 -0.060194198 0.1810534 -0.051727694 0.26682612 -0.27103394 0.07647589 0.16996473 0.69505244 -0.49541938 0.48780409 0.3825769 -0.6970391 -0.12988485 0.10377609 0.002515473 0.2967963 0.46202615 -0.27287573 -0.6390261 3.2767028e-05 -0.31714955 0.28141636 0.2171235 -0.621303 0.24835229 -0.4163843 0.7230919 -0.4847569 0.018382473 0.6724827 0.23779337 0.546835 -0.15433182 0.2886684 -0.43420342 -0.07196159 0.39155865 0.010220809 -0.14518912 0.20477657 0.09158581 -0.23269121 0.66148454 0.14421745 -0.33865845 0.54441386 0.8074503 0.10821141 0.53127414 0.22131073 0.6189928 -0.051149745 0.1328231 0.5776524 -0.20757271 0.8581803 0.24221821 -0.033973943 -0.09752206 0.19636233 0.5373029 -0.058434766 -0.09505174 -0.018111309 0.5249545 0.7777729 0.6196665 0.5626574 0.23348679 0.5803191 -0.9296617 -0.25550792 0.064021505 -0.1177809 -0.6985496 -0.023124276 -0.09524703 -0.8868705 -0.14658473 0.40984103 0.11441466 0.21476033 -0.008215771 -0.6098578 -0.24116614 -0.24730898 -0.21936913 -0.29062796 0.07154185 -0.39389646 -0.5732914 0.22130376 0.18933617 -0.3331451 -0.4723341 0.76331747 0.11446414 -0.076187484 0.21769528 0.19284086 0.057745438 -0.11716677 0.31970647 -0.461794 0.45154008 -0.32120156 0.7887944 0.17129283 0.1771193 0.12749815 0.7063784 0.98370135 0.18664713 0.3941298 0.35839835 0.27704087 0.63938606 0.370926 -0.8990176 0.30448836 0.047584087
141 0.63074404 0.28030065 -0.06915553 -0.13599552 0.080187485 -0.54568005 0.29953212 0.1474425 0.36390808 -0.3364936 0.36910325 -0.571162 0.13820998 0.13100897 0.17509304 -0.81123185 0.52647465 0.13560122 -0.48957258 0.015165452 0.5763289 0.107770026 0.4136098 0.2685191 -0.58357036 -0.25931728 -0.33129138 -0.34681925 0.14572862 0.22614361 -0.9609125 0.39646068 -0.3842139 0.54384077 -0.29479286 -0.103711 0.51252776 0.45945972 0.680707 -0.10844392 0.022142753 -3.461625e-05 -0.21860978 0.35238716 -0.117203854 -0.23149246 0.526072 0.043753065 -0.3932455 0.5187813 0.22697856 -0.39160788 0.42232403 0.9353756 0.1295634 0.37507743 -0.40655258 0.25294384 -0.23288241 0.3450269 0.28193626 -0.122989744 0.7381394 0.41963485 0.17346957 -0.20412743 0.10235647 0.33814752 0.028834356 -0.15373823 -0.07312642 0.38813704 1.0199021 -0.027250355 0.73381174 0.28096887 0.12322268 -0.6772629 -0.36093882 -0.40666628 0.1012014 -0.48767883 -0.31109092 0.12337395 -0.766505 0.053898912 0.350192 -0.04969391 0.014223374 0.3022103 -0.58667064 -0.18094578 -0.37435728 -0.060760617 -0.39200416 0.11043768 -0.4790288 -0.5948222 0.3262775 0.007832196 -0.6996922 -0.5610287 0.6754973 -0.29720235 -0.3009361 0.05368639 0.25298375 -0.0010686571 -0.03412102 0.62317926 -0.5030872 0.13411303 -0.31677786 0.5029984 -0.3446197 0.18542401 0.23602293 0.8625979 0.73417926 0.652881 0.0691244 -0.00030890285 0.24127361 0.9071203 0.45645002 -0.5819845 -0.29547244 0.12775175
11 -0.5709648 0.7659042 0.24946345 -0.10445443 -0.18963835 0.5330721 -0.00840051 -0.12070331 -0.7858934 1.0050564 -0.06371222 -0.10371883 -0.41330048 -1.3067553 -0.008114315 -0.4505585 -0.06492812 0.44927844 0.24817294 0.5592303 -0.8208848 0.62113285 0.0018299602 -0.34531724 -0.042031676 -0.9217918 0.36317587 0.5566044 -0.50159067 0.3617785 -0.41695428 -0.44681135 -1.3006493 0.10844415 0.10538341 -0.1116833 0.027453747 -1.0149475 -0.52973104 -0.70979416 0.26331878 -1.8343103 0.14537504 0.2302999 -0.21459454 0.037260458 0.4249221 0.18797386 0.11422199 -0.99888027 1.1851201 -0.22786398 -1.1298287 0.78052485 0.85945106 0.3964161 0.12803145 0.18804662 1.221233 0.08626054 0.18837416 0.80416507 -0.016577674 -1.9070033 -1.2914387 -0.5401965 -0.3359537 0.30914488 -0.4842831 0.5057136 -0.86229634 0.10335498 -0.4262074 0.14491613 -0.083223976 -1.2044684 0.63327354 0.12693298 0.95750946 0.44965553 -0.55687267 0.76247466 1.1191081 -0.29505372 0.5805887 0.16289109 -0.10409708 0.36438075 -0.24393556 -0.24062051 -0.11339534 0.13790853 0.6161496 -0.11312292 -1.2047873 0.29309922 0.33471915 0.7212805 -1.2881575 0.9826676 0.1770001 0.5719795 -0.056473915 0.2889597 0.5061249 1.4771705 -0.11214593 0.6068061 -0.65222794 -1.4862568 -0.15960522 -0.32494915 -0.6578941 0.51910967 0.22652127 -0.60038763 1.3370278 0.5445043 0.07341459 -0.7951208 0.23261878 1.0458592 -0.1718912 0.7851008 -0.69775045 -0.75369364 0.5022719 -0.39250287
144 0.7593485 0.3380645 -0.15623192 -0.099876896 0.17843543 -0.57034093 0.25550222 0.19906832 0.11350615 -0.24193746 0.21887949 -0.4934688 -0.022523781 0.29722923 0.28036815 -0.6722475 0.4566121 -0.15179975 -0.3796031 -0.10903848 0.46999106 0.064321004 0.3851707 0.43988287 -0.5935743 0.021605352 -0.34126896 -0.42339098 0.14167199 -0.080309846 -1.1829349 0.3515297 -0.30952826 0.47269452 -0.16217808 -0.089415535 0.43192983 0.7347654 0.8214234 -0.039606564 0.14643335 0.08824707 -0.023887832 0.35816965 -0.29831398 -0.31349334 0.56868196 -0.0435143 0.021471532 0.61470556 0.17032614 -0.36476582 0.4694693 0.7742555 0.120797865 0.41391712 -0.5837074 0.437541 -0.4222145 0.12850334 0.0765163 -0.012892475 0.7081545 0.6761348 0.17903396 -0.21098895 0.28235948 0.3030399 0.26575857 -0.23516412 -0.042961072 0.48722172 0.935241 -0.14417896 0.63779753 0.35840335 0.05559474 -0.65898556 -0.19898415 -0.34184673 0.16334024 -0.35123277 -0.5202372 0.0575171 -0.9783885 0.13714056 0.40570986 -0.11655135 -0.054322764 0.3634038 -0.4531193 -0.35314417 -0.4338449 -0.08707128 -0.4355627 0.16017832 -0.40917426 -0.47818363 0.56733567 -0.008979177 -0.6682285 -0.6015166 0.70364857 -0.12596196 -0.39085746 -0.1292603 0.31322026 -0.100776725 -0.16199546 0.70266503 -0.44700122 -0.016994271 -0.34428778 0.17340243 -0.16277122 0.0051402333 0.20801345 0.6512886 0.90401495 0.66712856 0.03813533 0.030243011 0.1512452 0.59232694 0.55601144 -0.5011716 -0.4235628 0.1298001
124 0.8518815 0.56949097 -0.12589224 -0.118762456 0.19331132 -0.6124199 0.26010522 0.055303063 0.281335 -0.069550246 0.094369695 -0.748486 -0.122623034 0.3494814 0.41110677 -0.634407 0.1674385 -0.0139643615 -0.3519478 -0.18735124 0.57442415 0.022053668 0.37134188 0.42333218 -0.38932788 -0.06768966 -0.3369055 -0.4198557 0.36482906 0.28164604 -0.7031268 0.36797538 -0.25070786 0.42593873 -0.27264988 0.06863824 0.39224464 0.78659165 0.7362435 0.18077399 -0.26530638 0.1725164 -0.08078768 0.44072828 -0.2991136 -0.43118376 0.26714015 0.10021493 0.056976102 0.44600666 0.08403312 -0.16676933 0.5145966 0.8585311 0.18952782 0.4384024 -0.19355398 0.53013325 -0.19966945 0.4062439 0.605014 -0.18139857 0.68388844 0.6106813 0.026429368 -0.3289636 0.17726904 0.4531585 0.039872516 -0.27160725 -0.18045965 0.41817242 0.87500894 0.19224904 0.6300264 0.08316474 0.19913313 -0.4910536 -0.277171 0.08799683 -0.012794367 -0.5701996 -0.18481924 -0.103262015 -0.9090531 -0.08927936 0.24533966 -0.069239244 0.1231483 -0.18757528 -0.5022714 -0.15453039 -0.4873353 -0.05941413 -0.049417887 0.13321324 -0.66626114 -0.5127887 0.3185561 0.08154042 -0.40043923 -0.70979357 0.9900705 0.07344326 -0.43560928 0.16895495 0.51466304 0.076370075 -0.041692123 0.69269454 -0.15181442 0.3562597 -0.4668942 0.3299075 -0.20992875 0.30965093 0.04816612 0.5936661 1.2131324 0.8611264 -0.06348546 -0.024741597 0.09098777 0.7361638 0.5707585 -0.94357324 -0.1978926 0.22071685
28 0.81948406 0.5226404 0.53327036 -0.11528761 0.42612374 -0.31132555 0.26707828 -0.13621506 0.22186163 -0.27622172 -0.015752917 -0.67898536 -0.73091626 0.32267147 0.43998218 -0.50669146 -0.32118854 -0.027188659 0.050181787 -0.4029476 0.32553673 0.12302 0.19471675 -0.16093005 -0.27109712 -0.089341976 -0.6683148 -0.26920226 0.1140516 0.25537956 -0.5686707 0.2110679 0.041086826 0.46607727 -0.025461247 -0.087298594 0.43307245 0.119258806 0.6821993 0.32589453 -0.30845153 0.28183237 0.21124987 0.08030742 -0.035688173 -0.439698 0.026920708 -0.20137894 0.066506736 0.61743444 0.18489937 -0.094746865 1.0066288 1.1508768 0.6094804 0.8694119 0.36433247 0.6247683 -0.23216558 0.43880627 0.6775125 -0.13595209 0.9346306 0.23290184 -0.7273632 0.10467517 0.1022564 0.29909506 0.121503234 0.17674647 0.43870407 0.6780442 0.6650715 0.20749786 0.5149092 -0.04830508 0.0864636 -0.55779284 -0.31055984 0.34678948 0.053497314 -0.61200255 0.3703076 -0.4394635 -0.9687324 -0.55487955 0.115500525 0.28226054 -0.12145054 -0.22956386 -0.7627483 -0.5969738 -0.35598317 -0.12718555 0.24529678 -0.020799765 -0.5017357 -0.50082326 -0.2799224 -0.17131285 -0.0025198075 -0.80755585 0.8540006 0.48116902 -0.12405149 0.5938356 0.44748086 0.28360787 -0.07793958 0.47175193 -0.23924123 0.36478856 -0.40181932 0.14418928 -0.21684745 0.04796071 0.2485124 0.7553603 1.1496148 0.6531952 -0.37048995 -0.32382914 -0.4448436 0.9891072 0.43861023 -1.1227742 0.18921112 0.20687976
26 -0.34431693 0.13085347 -0.08432521 0.36362025 -0.20320685 0.16020955 0.4629148 0.7692003 -0.44391233 0.5607129 0.14634635 0.07917507 0.19165778 -0.93315107 -0.15394387 0.0003573651 0.11836671 0.17472517 0.1507235 0.28112528 -0.58075553 1.0441796 0.5096125 -0.50926834 -0.21419157 -0.8272912 -0.19214177 0.7575066 -0.4145693 -0.015331331 -0.8302391 -0.7012486 -0.94391024 0.2749465 0.14858954 -0.09620832 0.3268778 -0.45824268 -0.16788797 -0.9361883 0.24887699 -1.8281401 0.060820583 0.2272291 0.051752016 -0.048712146 1.0209696 -0.31278726 0.0213665 -0.8086158 1.0700486 -0.32158864 -1.1488461 0.09440698 0.4970672 0.27442566 -0.058952663 -0.36123258 0.99853945 0.66387373 0.021983767 0.57367367 -0.44553703 -1.2550086 -0.88365597 -0.5759802 -0.27632454 -0.042992864 -0.5804988 0.78759134 -0.9387774 -0.1477188 -0.7673098 -0.11504191 0.03584319 -0.985195 0.21510907 0.26646665 1.0755041 0.34099054 0.031753395 1.0402033 0.9300483 0.118849605 0.79067546 0.6097993 0.12822874 0.1300034 0.32760453 0.38094804 -0.1873741 -0.10172787 0.68647176 -0.049083266 -1.3855028 0.07629508 0.4566435 1.0517192 -0.97126645 0.87612927 -0.06515357 0.5244484 -0.3574006 -0.4752532 0.12510614 0.7079275 -0.15083909 0.25768384 -0.8532672 -1.5086939 -0.30422428 -0.0882179 -0.2532478 0.48969507 0.20131941 -1.1099831 0.9675081 0.32601532 -0.35349748 -1.1000303 0.119670905 1.1784043 -0.65091336 0.9127425 -0.25167885 -0.13132405 0.0323225 -0.16010344
80 -0.11964616 -0.48089924 0.5232675 0.2953028 -0.12545936 0.08439932 0.3813474 0.81445056 -0.4233119 -0.20408054 0.3248005 0.06525076 -0.12503779 -0.6625695 0.40781915 -0.26840582 0.7383105 0.4180363 -0.20937358 0.3432743 -0.5300987 0.8865279 0.5363552 -0.8058167 -0.63636255 -1.1912949 -0.34220344 0.25897115 -0.7829589 -0.086019926 -1.3316066 -0.4371253 -0.84922975 0.15890208 -0.2533245 -0.07644256 0.49069682 -0.9051961 0.393342 -1.0974567 0.23221916 -1.1472771 0.12717612 0.22630844 -0.12819156 -0.43461904 0.8050703 -0.08721792 -0.5148221 -0.57644707 0.7155381 -1.0676826 -0.08297595 0.73948663 1.0113022 0.50474733 -0.4824272 -0.79599655 1.3402685 1.1605831 0.16485073 0.43396574 0.40615666 -1.5400656 -1.2588028 -0.12558378 -0.50913393 -0.25589716 -0.41281784 1.1069795 -0.11100545 0.6353492 0.13729195 -0.21258964 0.7574935 -0.5812656 0.038878303 -0.35819352 0.4084607 -0.3722868 -0.15991977 0.52946174 0.8458209 -0.10035743 0.39018235 -0.22837958 0.9247359 0.5019737 -0.2502852 0.65879583 -0.5344449 -0.49355128 0.3932262 0.6348296 -1.3370765 -0.3587091 0.41463217 0.49983776 -0.954009 0.77357864 -0.16855545 -0.15711558 -0.20322949 -0.6537266 0.44471514 0.95743966 -0.33071172 0.10270042 -0.74974924 -0.83895314 -0.9085445 0.074098386 0.17540053 0.5336848 -0.43811235 -0.9372427 1.6200492 1.2843125 -0.42796385 -0.69333375 0.012077404 0.436737 -0.85051686 1.0032443 -0.033383027 0.15481359 -0.16960973 -0.017020844
20 0.3146839 -0.026534991 0.16395047 -0.7945028 -0.42499834 0.5539113 -0.25987893 -0.14781214 0.45022696 0.53856087 -0.21929339 -0.021292057 0.8930168 -0.46875578 0.85419095 -0.07744165 -0.13511607 0.40983465 1.2508702 0.006820007 0.85313904 -0.65569896 -0.329753 -0.11749484 -0.30249405 0.13754892 0.5617843 -0.074759044 0.6407207 -0.11400421 0.12514448 0.59809047 -0.08136666 0.7171145 0.5644794 -0.55090326 0.52283794 0.50271815 0.06017452 0.48734096 1.1789056 0.49197432 -0.597006 -0.47992623 0.20045592 -0.3290303 0.670735 1.1343969 0.54620594 0.7572173 -0.15440445 0.36043617 -0.16355151 1.9011221 -0.049891934 0.45011455 -0.16030797 0.8649604 -0.40182543 -0.43127435 -0.09935028 -0.65679324 0.07900622 -0.13939919 0.6839983 -0.15609117 0.80515754 0.953884 0.5773087 -0.6484604 0.40754706 0.34236676 0.87676513 0.92686415 -0.36800992 0.81325376 0.34686604 0.20218664 -0.016015658 -0.52705026 -0.88810205 -0.5607485 -0.42240083 0.34935045 0.36053815 1.0369737 -0.09432974 -0.56280994 -0.3869829 0.8346311 -0.49589613 -0.0020457248 -0.8218035 0.6203351 -0.5720852 -0.016082622 -0.24859674 -0.36728 0.34588784 0.3085325 -0.47502738 1.3020773 0.7194108 0.0799124 0.7073838 -0.38608855 -0.024413297 -0.7460759 0.37110388 0.04655527 -0.46209064 -0.6213671 -0.7948404 0.37604028 0.27608496 1.1884183 -0.35436353 -0.108385906 0.40778285 0.57351935 -0.2862227 -0.28952834 1.4701127 -0.42500544 0.25402766 0.40830445 -0.3126587 -0.26348552
5 -0.43826473 -0.3582036 0.90086144 -0.047197793 -0.32010964 0.34236032 0.15692723 -0.04130363 -0.64187425 0.011050173 0.16883056 -0.08335751 -0.9802972 -1.2425869 0.7176879 0.35529357 0.5358146 0.58827186 -0.24458565 0.7119555 -0.54820955 0.5529314 -0.123651765 -0.98208034 0.065577134 -1.1345716 0.37190482 0.85206485 -0.87717086 0.85428256 -0.10715826 -0.4202461 -0.70397127 -0.08140745 -0.27125984 0.44253105 0.54316795 -1.3854386 -0.533069 -1.1944205 0.05623665 -1.2150908 -0.3201932 -0.034566842 0.41133246 0.046001263 -0.2678329 -0.057267446 -0.8513948 -0.79435086 0.45463958 -0.42336276 -0.0467188 0.4770254 0.95841855 -0.13524136 0.49685115 -0.37479317 1.1794637 1.0543298 -0.055771243 0.5410277 0.8492799 -1.6896945 -1.7118047 0.17610586 -1.0918785 -0.03179475 -0.60074484 0.7317528 -0.6518251 0.22500245 -0.5429178 0.10499531 0.10878497 -1.4289939 0.22448964 0.45919257 0.30895418 0.33582982 -0.21038082 0.27927017 1.1615318 -0.10763044 1.0732362 -0.643414 0.28877616 1.1262279 -0.19795336 -0.3071936 -0.16631502 0.023788888 0.77343744 0.4580839 -0.45037112 0.16756235 -0.2844017 0.2268268 -1.3462051 0.35177708 0.521973 -0.09302166 -0.16144387 0.14225443 1.1737405 1.230984 -0.10582344 0.5568536 -0.001255316 -1.1329592 -0.18832509 0.16698015 -0.012966529 0.6304479 -0.22042358 -0.5222634 1.1746368 0.7079433 -0.39520225 -0.64698136 -0.07834644 0.15002179 -0.6633367 1.1138246 -0.63077295 -0.2746043 0.38877794 0.36861932
108 0.9751559 0.343676 -0.062411487 -0.11947197 0.0852409 -0.5714347 0.24139002 0.064844936 0.2963698 -0.22657138 0.21959853 -0.639292 -0.06589409 0.41250524 0.3053127 -0.5796233 0.25188345 0.23481542 -0.49948773 -0.16271672 0.5536637 0.045994483 0.43113068 0.42619142 -0.35373953 -0.29568377 -0.36258966 -0.33849043 0.3234718 0.3081709 -0.5647382 0.34333932 -0.21465811 0.68266696 -0.33332956 -0.04225828 0.49286678 0.5721834 0.72203195 0.1044915 -0.15896724 0.06761393 -0.11085495 0.33009148 -0.024467926 -0.2863659 0.20945393 0.04041927 -0.38078073 0.67805314 0.13874938 -0.25044864 0.64979076 0.7700399 0.09009238 0.38485888 0.056632042 0.42866594 -0.20067407 0.4180822 0.63040715 -0.32278368 0.6022569 0.6062069 0.116749234 -0.22096209 0.16867271 0.41560546 -0.10984772 -0.12933418 -0.013287397 0.4020833 0.8570541 0.3193202 0.55022794 0.07717956 0.27097017 -0.73778224 -0.4525758 0.13081016 -0.023349538 -0.6400116 -0.10532409 0.0675314 -0.8605792 -0.1944754 0.33918092 -0.056385644 0.31574112 -0.1548566 -0.6078856 -0.30311272 -0.38060242 -0.26136994 0.01838278 0.03319635 -0.48103264 -0.7409161 0.2154453 -0.013796466 -0.41036618 -0.74011374 0.8430813 -0.015673785 -0.32950905 -0.025306297 0.3502742 0.074869804 -0.09552129 0.569652 -0.26544148 0.5574735 -0.2826033 0.51535016 -0.12848164 0.38149524 0.03922368 0.70259166 1.0073969 0.61441135 0.11805546 -0.042295076 0.113611855 0.7973332 0.4769839 -0.93307155 0.0020897547 0.1805236
27 0.71860003 0.19058317 0.15302889 0.053516652 0.21314482 -0.63361496 0.58956426 0.579057 0.079703726 -0.2509708 0.25776264 -0.71102095 -0.19351612 0.15790015 0.18897961 -0.6061972 -0.07806231 0.17925109 0.06393811 -0.15127474 1.0285201 -0.2917296 0.23311384 0.057090946 -0.22069399 0.31638953 -0.35653925 -0.07061297 0.3378837 0.2054679 -0.5269724 0.5412641 -0.018491302 0.4540567 -0.02950814 -0.20471731 0.68312806 0.5019638 0.41474846 -0.2051552 0.12370752 0.59756297 -0.22944097 0.26003408 -0.08384421 -0.4131088 0.7003273 0.0007345508 -0.16517533 0.28772423 -0.075043075 -0.07806432 0.4993399 0.6626556 0.002771677 0.13864629 -0.46622416 0.2643168 -0.44863 0.47318143 0.23944902 -0.037779443 0.45060742 0.49448448 -0.4682831 -0.30557185 0.20365454 0.28609937 0.21348539 -0.20697843 -0.29702708 0.1997713 0.93270284 -0.112298794 0.34027103 0.3772278 -0.002128485 -0.087234974 -0.16799305 -0.55854726 0.40362477 -0.29485878 -0.40044543 -0.11878529 -0.6502697 0.19344203 0.15380687 -0.275157 0.09379693 -0.10304174 -0.55835384 -0.068270996 -0.4205089 0.015346105 -0.47647336 0.09935257 -0.48535734 -0.5967317 0.32461923 -0.055629626 -0.75712615 -0.49459502 0.89576435 -0.14625782 -0.042542484 -0.16939744 0.5378363 0.026726644 0.054691453 0.5397055 -0.11404505 -0.09107682 -0.6247907 0.061945286 -0.23430972 0.31113356 0.013928716 0.2620032 0.58988297 0.9722157 -0.46065477 -0.32215953 -0.12502338 0.5089473 0.50476557 -0.68516594 -0.54516876 -0.019817958
98 0.65728676 0.37195656 -0.12386881 0.0053136586 0.11784633 -0.6894354 0.57275635 0.27154922 0.4027311 -0.40348756 0.3207339 -0.61304337 0.09023792 0.2788136 0.11237763 -0.73408765 0.36840716 -0.097799204 -0.56908035 -0.24413787 0.5664584 -0.021679448 0.3941226 0.34874994 -0.42669398 0.009957239 -0.49624568 -0.309248 0.19023106 0.20418318 -0.7555498 0.38976365 -0.19159865 0.38906902 -0.3242631 0.13546653 0.62390363 0.7076895 0.64969194 -0.16190398 -0.0505342 0.12368808 -0.0956791 0.36017656 -0.09823684 -0.18065368 0.52546185 -0.19034225 -0.2434543 0.4744886 0.07806008 -0.298904 0.5102219 0.7024296 0.005131976 0.3171547 -0.21536252 0.23743808 -0.4529638 0.37558106 0.42357087 -0.18709958 0.82378626 0.74155796 0.123945646 -0.19400491 0.00346035 0.30434525 -0.044441458 -0.3421341 -0.17173669 0.22024606 0.79919994 -0.08994146 0.6735904 0.22533956 0.075992964 -0.5663651 -0.29713947 -0.1536461 0.5466348 -0.42469445 -0.25068098 -0.014623944 -1.0051682 0.056944985 0.24939322 -0.043497656 0.27633393 0.06678369 -0.59234995 -0.09300282 -0.24610221 -0.22286269 -0.17776361 0.093034506 -0.70701915 -0.62331384 0.29057497 -0.18566464 -0.7230648 -0.7961281 0.71888757 -0.13230287 -0.4259803 -0.013516216 0.39537826 0.06709309 0.03305829 0.6713642 -0.29015574 0.1870629 -0.2318258 0.3383618 -0.3744909 0.008786396 0.008097454 0.5615819 0.78306085 0.6738836 -0.043087706 -0.09095488 -0.13294609 0.9557712 0.57413346 -0.689045 -0.21267866 0.2212798
110 -0.20256801 -0.15624645 0.91340685 0.1434949 -0.14169504 0.08453592 0.41656676 0.19685754 -0.38056606 -0.16203737 -0.15268369 -0.09771699 -1.2437154 -0.70889527 1.1001645 0.8495334 -0.1712563 -0.015319488 0.3588072 0.113428526 -0.8173788 1.0539542 -0.17919785 -1.5775267 0.22135368 -1.3024639 -0.1708866 0.75070345 -0.5868304 0.5985314 -0.0416525 -0.96293133 -0.29622674 -0.2849824 -0.2968863 0.48411036 0.5516775 -0.9513652 -0.19664146 -0.6359813 -0.7179002 -0.7890492 -0.11386655 0.30376077 0.46004185 -0.50225294 -0.36428288 -0.42707506 -0.22508144 -0.5700348 0.33823797 -0.08451832 0.23592678 -0.015833318 1.5410098 0.70795006 0.6879058 -0.23633307 1.2486746 1.7798302 0.3610177 0.548726 0.94496405 -1.5539691 -2.2014434 0.44610372 -0.88060355 -0.4019955 -0.48575464 1.1932513 -0.22756213 0.5657002 -0.9613732 0.21765818 0.42212826 -1.3014296 -0.032890115 0.667011 0.41281715 0.6809393 0.059589908 0.095364824 1.3220762 -0.518026 1.214117 -0.71825886 0.30208382 1.3029426 -0.22379124 -0.28751197 -0.27027243 -0.23342408 0.5088345 0.8825858 0.3563314 0.20525247 -0.19986027 1.2237289 -1.2181271 0.26342595 1.422541 -0.1412024 -0.1470027 0.44975412 0.95901763 1.5395833 0.1462446 0.37815312 -0.008851419 -0.8781645 0.29027367 0.6407739 0.010125353 0.3037023 -0.2483037 -1.1035588 0.7880672 0.51525956 -0.017189953 -0.54528475 -0.7400436 0.16301836 -1.424563 0.79765666 -0.0066275997 -0.36247468 0.17912188 0.69103897
133 -0.35893255 0.295635 -0.015911827 0.2690795 -0.48074046 0.066298835 0.49085656 0.38477176 -0.26269788 0.7562058 0.06438694 0.396819 0.46590388 -1.0898643 0.27950788 0.02851269 0.3148408 0.06702784 0.18012704 0.11382771 -0.98362267 1.3356417 0.3295064 -0.59826344 -0.25589523 -1.1032367 -0.0061895717 0.6701862 -0.35894507 0.0068353633 -0.95068204 -0.8036468 -0.9629078 0.07397554 -0.004638799 0.13697308 0.50786424 -0.4074122 -0.12843437 -0.8200994 0.13804398 -1.9493687 -0.028396605 0.46818137 0.04859306 -0.10468485 0.824643 -0.1859625 0.32662278 -0.5857689 0.998494 -0.4329956 -1.0871656 0.3502085 0.87831026 0.7346485 0.19243751 -0.15757978 0.9358532 0.55511135 0.2846719 0.621649 0.16876258 -1.485768 -1.0771116 -0.37348562 -0.2582454 0.048163768 -0.6260226 0.92237777 -0.65493804 0.030749694 -0.70648104 0.0795366 0.21925098 -0.53536505 0.28173813 0.2754426 1.1061745 0.3232585 0.19891588 0.8210075 0.9046577 -0.31977937 0.74909985 0.5177947 0.0947866 0.22326975 0.13162631 0.6061435 -0.2700563 0.121892035 0.6787152 0.25277495 -1.2575254 0.132822 0.09553245 1.3961085 -0.7202108 0.9294827 0.38438728 0.6236609 -0.4175164 -0.0038193325 0.09789527 1.2112185 -0.1408237 0.081893176 -0.6766931 -1.4945794 -0.29274324 -0.09671139 -0.22787105 0.5473768 0.2148929 -1.3254595 0.6207865 0.30524233 -0.09992872 -1.1428031 0.02874246 1.3088893 -0.44495007 0.71603763 -0.016468262 -0.20287006 0.14902742 0.0036160378
21 -1.0874488 1.0445454 0.17906599 0.54294056 0.46443728 -0.24402805 0.8615365 -0.29301786 0.64436144 0.7388969 0.07293658 0.6353263 0.5087557 -0.1795759 -0.5482943 -0.45843574 -1.0208393 -1.251281 0.7106218 -1.1282797 -1.0094918 0.7137674 -0.40718612 -1.0251012 -0.33207056 0.7062427 -1.0866404 0.054368597 0.6073104 -0.98248625 -0.61725134 -0.13080932 0.17838392 -0.41136703 0.7353932 -0.055475596 0.26459414 0.17718312 -0.2831212 0.9637243 -0.50058216 -0.15249419 0.8507344 0.5041857 0.08086961 0.3283261 0.78127104 -1.1303092 1.9546587 -0.014169901 0.66669136 0.7637675 -0.414185 0.2380578 0.55801284 1.8146089 0.41191024 0.9375926 -1.0193816 -0.8659311 0.47787014 0.24077259 0.47212532 0.04437182 -0.21968684 0.2908037 0.51616496 -0.19394721 0.009826993 -0.15919697 0.6504538 -0.41606545 -0.764028 -0.42170858 0.560655 1.1560874 -0.17834207 0.044352666 0.77004457 0.19668546 1.1244937 0.23653533 0.08917321 -1.1415975 -0.9753661 0.71624696 -0.9556922 -0.4557779 0.09967707 0.8236338 -0.41354635 0.5291394 0.25198743 -0.52401924 -0.033860374 0.44887367 -0.51359725 1.2215692 0.38884994 -0.08395579 -0.016277486 0.5391595 -0.04834883 0.8946062 -0.94853354 1.3556803 0.13215505 0.08354101 0.37515947 0.20291731 0.33339122 -1.4393651 -0.21984357 -0.46412453 -0.26431328 -1.1422902 -0.7524662 -0.16548242 0.5381342 0.1305993 -0.8240027 1.1142787 -0.030006465 -0.15651424 0.5300209 -0.88487625 0.28046182 -0.5095076
139 0.3810696 -0.08633579 0.1834811 0.24260435 0.350586 -0.41815037 0.44061044 0.70788395 0.22367758 -0.081900254 0.46559998 -0.5606086 0.14237899 -0.0051751253 0.25286028 -0.7973365 -0.09908439 0.20649807 0.57896554 -0.123069316 0.7136704 -0.21091929 0.27484554 -0.08502016 -0.48383597 -0.14041612 -0.4260224 -0.26537615 0.30269316 -0.20329905 -0.75032634 0.4320042 -0.2569226 0.55422294 -0.019027269 -0.6464774 0.6757033 0.27743813 0.4980113 -0.0013438655 0.16554575 0.5141234 -0.1666169 0.31259072 -0.05483911 -0.4694327 1.0305047 0.2578891 -0.15389408 0.44915044 0.094640136 -0.3234022 0.2812268 0.986697 0.17235218 0.6897374 -0.95278716 0.07681772 -0.09359444 0.55391294 0.29638344 -0.01554365 0.13642034 0.023454744 -0.27338895 -0.2934349 0.26057348 0.016871123 0.21522395 0.14074719 0.27842557 0.34766546 1.1608368 -0.11646783 0.53466564 0.6062463 0.014128536 -0.4018336 -0.15751712 -0.8733769 0.19684735 -0.23855323 -0.49443966 0.06215982 -0.5882364 0.5222133 0.5415374 -0.57857174 -0.058262862 0.56980157 -0.7326934 -0.29881185 -0.5347756 0.19718763 -0.8438651 -0.079368465 -0.055834893 -0.37546888 0.22467987 0.17878045 -0.8555415 -0.09023558 0.74755174 -0.45487684 -0.16580346 0.009260026 0.19954596 -0.20618047 -0.17721307 0.46979916 -0.37226453 -0.48314345 -0.47784665 0.17477073 -0.37689933 0.13389485 0.2119543 0.6878425 0.2469225 0.7785434 -0.5282232 -0.30178657 0.18689996 0.28967708 0.6145544 -0.33825174 -0.66218096 -0.37612054
99 -0.37836593 -0.5329206 0.6011335 0.1912139 -0.31676435 0.4712945 -0.17021163 0.42525083 -0.76314205 0.22293153 0.007193653 0.44770464 -0.31397313 -0.8094208 0.61909753 0.43271983 0.43706816 0.55729836 -0.031164125 0.57056457 -1.1258147 1.0174721 0.19583522 -0.92713815 -0.2812546 -1.3625709 0.1438261 0.4368558 -0.8743251 -0.02398239 -0.76876867 -0.76495415 -0.93763745 0.06305184 -0.23308328 0.10684772 0.13613385 -1.3172449 0.072774984 -0.9685178 0.018488705 -1.4960139 0.29639784 0.06151806 -0.12635182 -0.33975485 0.2364503 0.18265186 -0.27943727 -0.877154 0.75637245 -0.8115524 -0.4484102 0.40051883 1.1139458 0.38630605 0.061691735 -0.6716147 1.817449 0.97771996 0.091646135 0.48150188 0.052766282 -2.1937325 -1.2826289 -0.1610813 -0.56251484 -0.2555856 -0.5703782 1.1597439 -0.2326552 0.53250754 -0.6107385 0.066811465 0.30722147 -1.1516641 0.21265484 -0.034113098 0.68042266 0.24439424 -0.80785334 0.6707039 1.264322 0.029632594 1.010389 -0.3041177 0.82489985 0.6811009 -0.36416984 0.28320992 -0.024400037 -0.47168812 0.59537995 0.70641744 -0.94880986 -0.33807608 0.78238606 0.98661166 -1.3136871 1.014847 0.37224606 0.33600286 -0.5716524 -0.3039485 0.7105557 1.131707 -0.40808553 0.27080813 -0.80295897 -1.3785461 -0.59138733 0.14603862 0.2638506 0.4428959 -0.2078062 -0.950569 1.7155625 0.9978994 -0.64080083 -1.24065 0.20373511 0.6340936 -0.8096917 0.56389815 -0.51708966 0.40515226 0.2037008 -0.07690643
122 0.08019768 -0.38674012 0.27136403 0.04666668 -0.5463608 0.17784297 0.014413051 0.68796605 -0.6656011 0.03252985 0.029948214 0.46708596 -0.09198853 -0.56031525 0.73643273 0.35551867 0.83687925 0.36646125 -0.38127398 0.43940458 -0.94967365 1.0940628 0.41658238 -0.7388855 -0.3479159 -1.3200852 0.13466159 0.40768635 -0.70604074 -0.11556616 -1.1519165 -0.7355889 -0.87001944 0.25839505 -0.23167771 0.20771025 0.40169454 -0.79253393 0.2458575 -1.1204058 0.38830504 -1.5783305 0.1216611 0.21032812 -0.019768335 -0.2545912 0.47037253 -0.07158659 -0.30259317 -0.52552766 0.6806534 -0.7383897 -0.32728943 0.19210282 0.85157186 0.35985592 -0.09550389 -0.44829345 1.3592013 0.89477766 -0.20530054 0.37278163 0.20955682 -1.5474677 -0.99627954 -0.10666573 -0.4641303 -0.1782978 -0.4225823 1.0043734 -0.4103767 0.507048 -0.5008729 0.05139156 0.44768333 -0.79179037 0.19874184 -0.1698039 0.6032743 0.09429516 -0.5854031 0.4902567 0.85022444 0.26285115 0.77552146 -0.08326591 0.9265871 0.676064 -0.07979455 0.69263816 -0.14998068 -0.58886373 0.49237683 0.6319652 -1.034891 -0.050450627 0.6257198 0.8032796 -0.7479507 0.799169 0.14634243 0.2585214 -0.45483392 -0.45649517 0.6165418 0.5191906 -0.26707324 0.10126358 -0.77426237 -1.1230996 -0.7082532 0.19689897 0.2663849 0.5537867 0.052259214 -0.9443157 1.3415551 0.9083113 -0.2503539 -1.1409776 0.38409466 0.89836526 -0.586082 0.66593516 -0.2900954 0.38454583 -0.05543062 0.10120628
91 -0.4951241 -0.51546973 0.7528381 0.24647102 -0.3166683 0.36018842 0.102164574 0.6200764 -0.64424783 0.13634524 -0.018906185 0.47951993 -0.19336288 -0.8340886 0.64598775 0.48437202 0.44547057 0.35469356 0.043574933 0.3381844 -1.1356144 0.97686017 0.09261552 -1.1664696 -0.28106815 -1.0019181 0.012009898 0.50885975 -0.89370763 -0.00892752 -0.8058155 -0.63879883 -0.7144009 -0.10546664 -0.08464122 0.27262506 0.41120455 -1.1454877 0.064597726 -1.066534 0.117111795 -1.2754635 0.39021617 0.023871263 -0.10529202 -0.36990163 0.45036373 -0.04564875 -0.043147292 -0.951445 0.5948255 -0.7050013 -0.24765992 0.4226987 1.1197677 0.36270043 0.14763579 -0.58110744 1.513019 0.92913723 0.054970913 0.4475637 0.29271623 -2.022361 -1.4018997 -0.06460574 -0.5865598 -0.22097775 -0.46099487 0.9560126 -0.18778056 0.4172894 -0.6590668 -0.10532046 0.3518047 -0.8330379 0.035092276 0.19835058 0.68825674 0.14181449 -0.45919085 0.6107679 1.1503464 -0.12251797 0.8494476 -0.1784494 0.6872514 0.6676809 -0.40265197 0.39673263 -0.06634938 -0.3001328 0.62799025 0.8131395 -0.89632165 -0.28364447 0.41245538 1.0032189 -1.1882436 0.7542698 0.21945903 0.37348562 -0.4995294 -0.15772767 0.79169345 1.1145138 -0.2668935 0.264065 -0.5233312 -1.1834311 -0.5913928 -0.14710826 0.22710752 0.31652436 -0.37003562 -1.075617 1.4565165 0.77646995 -0.58762133 -0.9881244 -0.09832134 0.537743 -0.9972984 0.55366945 -0.38329262 0.4640027 0.075646624 -0.0050886534
106 -0.8832641 -0.3701759 0.6721375 -0.16041555 -0.29192865 0.929584 -0.09190974 -0.054845374 -0.2466413 0.25017136 0.19009216 0.3836519 0.38495493 -1.3100703 0.24746946 -0.31496236 0.8153146 0.61010784 -0.07634352 0.67870104 -0.77062 0.27581286 0.08536136 -0.7725484 -0.43085256 -1.1300023 0.25643784 0.20197846 -0.8936482 0.1648593 -0.484825 -0.20999269 -0.9765913 0.0128544355 0.018863907 0.0425007 0.122274734 -1.3100984 -0.16074175 -0.85460913 0.60721874 -1.3394663 0.118230045 -0.38325503 0.07397806 0.14730231 0.33949375 0.5589523 -0.5232071 -0.73995894 0.87992615 -0.84999365 -0.6553416 1.5101551 0.7707507 0.25644436 -0.02790537 -0.7930186 1.4811021 0.31091768 0.0022372403 0.10635936 0.38441128 -2.145147 -0.39456302 -0.0983435 -0.66255623 0.16858792 -0.6582326 0.46743768 0.11979132 0.3248357 -0.10932771 0.124464825 0.25736234 -0.827047 0.3584665 -0.24614932 0.40529865 -0.019860433 -0.85462874 0.4755723 1.1294788 0.3656037 0.6923693 -0.06579038 0.5125206 0.5273707 -0.41591653 0.7118305 -0.3265171 -0.067470975 0.662907 0.52878654 -1.0663201 -0.3033889 0.3004163 0.09544897 -1.591498 0.82310766 -0.23707947 0.6822958 -0.47236905 -0.3049299 0.83969545 1.1820505 -0.6474377 0.08282052 -0.42215747 -1.2509187 -1.066458 -0.27450445 0.29394808 0.72072536 -0.5479884 -0.34129804 1.7378135 1.2935798 -0.8465237 -1.0690619 0.3417558 0.3124295 -0.08020922 0.96507275 -0.70239246 0.76520485 0.43716463 -0.23963675
130 -0.28686863 -0.40660003 0.27077386 0.103017 -0.45514587 0.18038258 0.21570025 0.7749231 -0.74614096 -0.09256382 0.11331365 0.40235013 -0.16992511 -0.7620111 0.5231881 0.38606578 0.9446721 0.22100993 -0.62624013 0.53617245 -0.89463776 0.83328027 0.23628119 -0.8318164 -0.3238152 -1.0199586 0.12701856 0.47357574 -0.8512265 -0.034626964 -1.0892419 -0.5878375 -0.9418285 0.053998716 -0.23811865 0.41279724 0.37997666 -0.8464237 0.052091222 -1.3799888 0.4683517 -1.50161 0.18218432 0.16901895 -0.0030630834 -0.024662882 0.4524011 -0.27406937 -0.26694322 -0.89388764 0.7068392 -0.6305143 -0.47531673 0.024408508 0.67397696 -0.009911067 -0.23045309 -0.5188971 1.2577544 0.7681794 -0.42253682 0.4188698 0.28371948 -1.4810181 -0.9240222 -0.103422545 -0.7140226 -0.20949574 -0.431612 0.6861201 -0.8141444 0.28205153 -0.5838347 -0.09549379 0.42367902 -0.89847845 0.21531646 0.000105896135 0.7131403 0.05443857 -0.3440775 0.7066011 0.8339833 0.3287386 0.77163213 -0.041157145 0.76984435 0.8003496 0.017270422 0.5813182 -0.020372802 -0.36754578 0.66911465 0.4168232 -1.1397213 0.09291989 0.39675736 0.750015 -0.77964 0.6905062 -0.13932434 0.19917941 -0.5046124 -0.5501451 0.7141013 0.46147096 -0.31937742 0.20248199 -0.5588942 -1.0443318 -0.6423097 -0.06565772 0.29807276 0.44346216 -0.113314725 -1.0012515 1.4881779 0.84973985 -0.5067882 -1.0925419 0.42859134 0.93434954 -0.6706835 0.7426729 -0.36591282 0.5157284 0.020843498 0.05287016
125 -0.5703111 -0.539412 0.5558163 0.35707834 -0.1394165 0.4940387 0.1731963 0.64955753 -0.83912176 0.08494571 0.11816583 0.31501368 -0.5507561 -1.0204761 0.48437455 0.3632404 0.4674964 0.3486588 0.01983973 0.61759335 -0.73266214 0.8379646 0.10338967 -1.109482 -0.24612957 -1.037561 0.003126025 0.62213206 -0.88092875 0.0007495393 -0.7241153 -0.6794643 -0.85036105 -0.019094588 -0.11492614 0.11416458 0.25288472 -1.3034487 -0.15361811 -1.1802865 0.08957133 -1.3155584 0.14426291 -0.057636816 0.016037753 -0.21181726 0.38644937 -0.0143560935 -0.39688623 -0.9776107 0.7711023 -0.6138751 -0.5090813 0.29671818 0.9276637 0.18626368 -0.1767463 -0.8167008 1.3967854 1.0105512 -0.24371438 0.58223426 0.04720778 -1.9894495 -1.4104218 -0.11395858 -0.71654564 -0.2991431 -0.5199444 0.99432325 -0.488144 0.28569302 -0.602321 -0.18880554 0.1504433 -1.1087914 0.12154653 0.21921538 0.77154905 0.07533703 -0.27297065 0.9114266 1.101665 0.19872557 0.9796144 -0.1444502 0.6718903 0.6468381 -0.14028592 0.35133106 -0.09618609 -0.43245474 0.65841764 0.5545786 -1.0881174 -0.11058505 0.5213231 0.7890862 -1.2625823 0.8048626 0.14479479 0.24002402 -0.5285387 -0.40844807 0.7248277 0.89059407 -0.2869395 0.270977 -0.688586 -1.3949162 -0.46936598 -0.1347145 0.1556892 0.3272814 -0.21375538 -0.9033767 1.6232091 0.8359458 -0.9104148 -1.0666068 0.036705855 0.52179164 -0.8114677 0.7060793 -0.4568061 0.45359132 0.096234135 -0.11773448
36 -0.5832043 -0.5738508 0.5300656 0.28119552 -0.28475153 0.45610186 -0.08218541 0.5471773 -0.8201775 0.20511891 -0.045718115 0.5946992 -0.29882762 -0.75371665 0.46430746 0.5196118 0.43555224 0.40443888 -0.07401325 0.51914036 -1.0507562 0.89861417 0.072057664 -0.9680392 -0.12078099 -0.92968214 0.2196564 0.51846516 -0.87978256 -0.030554276 -0.5831722 -0.68681085 -0.70220613 -0.2495498 -0.16594058 0.32933143 0.11407804 -1.2544311 -0.09824427 -1.083184 0.0667984 -1.1995083 0.31199023 0.0095652705 -0.19619851 -0.21788028 0.15095896 0.069484524 -0.2171858 -1.049378 0.5174533 -0.6677659 -0.3941736 0.050292265 0.8837942 0.04437152 0.093513116 -0.8077042 1.5449717 0.8380626 -0.12779285 0.51568407 -0.017410299 -2.0239108 -1.2475816 -0.15612282 -0.61404717 -0.2617137 -0.54502165 0.9421385 -0.32193187 0.23951301 -0.8360129 -0.26147276 0.13445139 -1.0091428 -0.0026799915 0.25463542 0.68700624 0.17256056 -0.49815464 0.7550104 1.0525119 0.08082857 1.0027843 -0.2721098 0.7063489 0.5499955 -0.3227144 0.2203678 0.15660211 -0.2560422 0.7128654 0.71097445 -0.75641876 -0.27436057 0.6400331 0.90313894 -1.154584 0.752596 0.27024823 0.31955847 -0.7399784 -0.26357087 0.6934128 0.880138 -0.31819612 0.3152985 -0.60756135 -1.3127267 -0.3796287 -0.07608161 0.38264325 0.2018694 -0.25468752 -0.90955096 1.4249003 0.6002284 -0.8051214 -1.1286912 0.12504698 0.47563314 -0.88789934 0.31590384 -0.59885335 0.57784 0.08591174 -0.06588098
70 -0.5417463 -0.5949221 0.53379506 0.24504332 -0.3441176 0.42532846 -0.055707917 0.30342117 -0.6117277 0.31879836 0.09662379 0.44035077 -0.21762615 -1.0285001 0.618808 0.5626203 0.42783698 0.45313004 0.01629716 0.61405843 -0.87829936 0.81945443 -0.024437914 -0.8645569 -0.19344357 -1.0492543 0.30835783 0.6635764 -0.7610385 0.07424158 -0.41296768 -0.57272995 -0.7996051 -0.17488661 -0.21969163 0.33944303 0.31619072 -1.1361476 -0.31656325 -1.0340108 0.1288984 -1.3091391 0.085956596 0.057058085 0.051036652 -0.077775836 0.118995756 0.20129573 -0.23859839 -0.8852091 0.53867805 -0.5625054 -0.51599586 0.26755843 0.8672785 0.04019046 0.2609806 -0.6047497 1.3985276 0.8219601 -0.082857326 0.48328808 0.19641258 -1.8444825 -1.1217448 -0.17057562 -0.65019983 -0.0936318 -0.555494 0.82448983 -0.5097147 0.17523451 -0.80453 -0.08850788 0.118242696 -1.1304934 0.15323403 0.3792165 0.6904269 0.22282995 -0.42729852 0.62325335 1.0673289 0.08911903 1.1732701 -0.06662742 0.56454 0.55735654 -0.24738067 0.22364552 0.060416203 -0.058606893 0.7755366 0.6376445 -0.8013094 -0.14933117 0.39386386 0.8480626 -1.1294469 0.7653681 0.34699067 0.42590934 -0.56870586 -0.22139661 0.7512885 1.0336022 -0.35348654 0.31623414 -0.4046458 -1.3416889 -0.30590266 -0.13793677 0.18188182 0.40882507 -0.18890402 -0.8843511 1.3045666 0.5278645 -0.6976718 -1.0622479 0.11792112 0.5042269 -0.61391973 0.45069274 -0.53338206 0.3559343 0.13137794 0.005270525
135 -0.39127612 -0.56157064 0.32804108 0.3752081 -0.3436041 0.19308192 0.022114806 0.6898538 -0.7115612 0.10884754 0.033658322 0.50373054 -0.10896376 -0.683454 0.49983987 0.39598384 0.52372545 0.34662393 -0.22287057 0.4830788 -1.0676687 1.1988189 0.23818219 -0.92320347 -0.36012122 -1.2064976 -0.0004061956 0.400905 -0.80356985 -0.13466588 -0.98545265 -0.81722766 -0.92223954 -0.1494514 -0.35499766 0.24527745 0.20336023 -0.97556514 0.19896504 -1.0705163 -0.08729927 -1.3626282 0.29363298 0.30443117 -0.27756938 -0.39126676 0.42277464 -0.028412607 -0.18794192 -0.9472171 0.7186371 -0.89584625 -0.5048892 -0.011764861 1.0363454 0.31669292 -0.15540987 -0.81669295 1.6098286 1.0534508 0.05777162 0.55895233 0.06960416 -1.8903837 -1.2029905 -0.2026092 -0.5130843 -0.32002556 -0.5272325 0.99589926 -0.37177655 0.34752113 -0.65850127 -0.25941926 0.47415754 -0.87644327 0.036233228 0.054033358 0.7003064 0.02819619 -0.3278037 0.7684777 0.94967645 -0.0046112933 0.91623163 -0.11531088 0.8137598 0.55335957 -0.23774748 0.36571229 0.0018541873 -0.24067394 0.56044483 0.78026205 -0.8672723 -0.28239974 0.67409533 1.2268124 -0.9574173 0.8758636 0.2543528 0.22790994 -0.6848504 -0.41690928 0.4567038 0.9613248 -0.30341834 0.20471442 -0.71169 -1.1559002 -0.43938625 0.09352531 0.33202025 0.30483732 -0.30248576 -1.1469699 1.4437329 0.7716572 -0.66833586 -1.1475894 0.10327912 0.71015817 -0.97477126 0.38441035 -0.31281972 0.52447224 -0.073321305 -0.023526983
1 -0.6553999 -0.51497626 -0.8738446 0.7216497 0.1787161 -0.26577085 -0.7631032 0.67540973 -1.2893705 0.5790152 -0.025643388 -0.15699229 -0.29720792 0.46445888 -0.9454159 0.44914848 -0.52009606 0.90566874 -0.75203186 0.9998485 0.77636945 -1.0000083 -0.8685533 0.8589571 0.8246639 0.9814824 0.4497745 -0.49876434 0.28494227 0.34186658 1.4779091 0.49988165 0.008419761 -0.7790813 -1.0653783 0.15549733 -0.9368325 -0.097641215 -0.6582037 -0.2166765 -1.3048979 1.5072172 0.20314948 0.28145605 -1.6634125 -0.14104015 -0.57606775 0.94503206 -0.8109952 -1.7235805 -0.6729746 0.16423073 -0.5438364 -2.256847 -1.1260344 -1.885364 -0.89315194 -1.6141684 0.6173352 0.38395455 -0.04714376 0.13540827 -2.0179484 -0.37228385 0.7216522 -1.2680959 -0.07725237 -0.46388233 -0.4612715 -0.9847271 -1.1672717 -1.1628329 -0.45328096 -1.1092589 -0.6259535 -0.3390806 -0.0012555849 0.20529279 -0.05186029 -0.80376244 -0.3242723 0.3094786 -0.82166755 0.8306647 0.116133064 0.13711427 0.08545517 -0.9604461 0.18768205 -2.2734125 1.5105797 0.9860278 -0.4764687 0.29246524 1.1962981 -0.3594563 1.222985 -0.1601939 0.025943281 0.26075175 -0.9584834 -0.031158749 -0.5552589 -0.8487412 -0.58575535 -1.1138787 0.5769149 0.5242427 -0.20931292 0.32368305 1.526727 -0.012555695 0.14229225 -0.954077 -0.45633343 1.6128229 -0.12974489 -0.93021566 -2.0299606 0.42722553 0.49698654 -0.9511635 -0.2629489 -1.8306571 -0.8797686 1.4349608 -0.1730617 -0.9454847
58 -0.45542744 -0.5968702 0.495919 0.28009182 -0.40796342 0.36080185 0.068646856 0.7017018 -0.6201197 0.15051404 -0.020708846 0.30517647 0.05070504 -0.85519856 0.48258734 0.5711283 0.54310673 0.6134883 -0.07327024 0.51273096 -0.93306446 0.8219602 0.21853434 -0.8703128 -0.2665804 -1.1932392 0.10884553 0.5095617 -0.8650374 0.20041715 -0.6728003 -0.5782599 -0.8026747 -0.16169524 -0.20197605 0.38798895 0.35523695 -0.94308865 0.05694848 -1.10034 0.05597447 -1.3678913 0.18143259 0.080779925 -0.14290081 -0.38056254 0.41122156 0.17546916 -0.20562077 -1.1551282 0.56551945 -0.8036801 -0.49934924 0.33063242 1.0547773 0.016776212 0.10043577 -0.7967229 1.8319261 1.1930227 0.24869107 0.42310762 0.10753479 -1.9876024 -1.1631796 -0.3123872 -0.65254456 -0.11025999 -0.62400067 0.9489906 -0.5384362 0.37159905 -0.634293 0.02116945 0.34227425 -1.0970159 0.123073205 0.35505068 0.7746324 0.26480392 -0.56140876 0.67856234 1.2197822 -0.032163046 1.1357042 -0.06161201 0.6142383 0.6195116 -0.2195919 0.048418388 0.014072514 -0.06501165 0.6553784 0.8267377 -1.0254338 -0.36584395 0.310472 1.0709755 -1.256388 1.0397925 0.27060738 0.34386098 -0.4735989 -0.42930076 0.73872006 1.1270988 -0.2654703 0.23240238 -0.6269985 -1.3235344 -0.57379705 0.14223859 0.23420317 0.3918607 -0.2860843 -0.920127 1.479296 0.7235886 -0.7749238 -1.0001209 0.038017288 0.56389236 -1.0169305 0.5979824 -0.3401244 0.637856 0.14213547 0.120795965
2 -0.5488371 -0.67308635 0.50609624 0.44756222 -0.30267894 0.31124517 0.044510227 0.58351064 -0.6990007 0.2113364 0.08615108 0.6546665 0.029001001 -0.74527174 0.29975626 0.3710395 0.40703386 0.5480246 -0.21421845 0.41922674 -1.0752355 0.9267312 0.16453332 -0.88062257 -0.22057694 -0.97565645 0.06102544 0.38432056 -0.8498637 -0.12881525 -0.6295628 -0.6327496 -0.73041266 -0.27219778 -0.35524413 0.35239393 0.23738758 -1.1817266 0.06736318 -1.0845305 -0.02048958 -1.1342218 0.44411308 0.12296849 -0.2773843 -0.23364457 0.2537518 0.09809236 -0.22540365 -1.060527 0.55308956 -0.9938644 -0.3676174 0.15595834 0.89998776 0.13383213 0.17968737 -1.0100868 1.6169877 0.87808484 0.2707291 0.45184723 0.055295035 -2.0473304 -1.2129569 -0.2715257 -0.5704669 -0.25252804 -0.70075303 0.95926714 -0.20124593 0.22129539 -0.714399 -0.28990254 0.30305898 -0.857599 0.036593314 0.07400937 0.6682744 0.06971355 -0.28619033 0.7128105 1.1050164 -0.10077318 0.7981815 -0.29266095 0.74669176 0.38667366 -0.25505272 0.14369483 0.004325381 -0.07453122 0.79997563 0.685947 -0.76416445 -0.51465344 0.64963746 0.894968 -1.2199985 0.86585414 0.17549127 0.16436006 -0.7577529 -0.28122267 0.49438494 1.0746425 -0.4174351 0.33697173 -0.7017913 -1.3479947 -0.45346406 0.02466131 0.53379786 0.24037294 -0.32999215 -1.0437801 1.4281939 0.64498967 -0.8980234 -1.238106 0.0987621 0.48049608 -1.1027107 0.2865487 -0.4799333 0.5609331 0.22749542 -0.16314843
18 -0.41189697 -0.31270632 0.17698684 0.37000504 -0.17984737 0.31017444 0.26815888 0.99047357 -0.8608955 0.18600181 0.0958129 0.109551646 -0.6422904 -0.91116613 0.39827576 0.39744607 0.25420275 0.15945554 0.09766113 0.5914138 -0.3356222 0.79515684 0.14148927 -0.9128887 -0.12636884 -0.6967707 0.111523256 0.76548594 -0.6495687 -0.003152304 -0.54946756 -0.62319696 -0.8553376 -0.026572397 -0.11873574 0.19035076 0.30216935 -0.8485444 -0.39004368 -1.350871 0.18752876 -1.2392586 0.008024378 0.05840715 -0.07782306 -0.20400932 0.5653445 -0.09173638 -0.2839391 -1.1463232 0.5592923 -0.21235177 -0.7178513 -0.08690761 0.63197315 -0.09726811 -0.26840314 -0.7178963 1.1591961 1.0580999 -0.39135757 0.6110994 -0.28398404 -1.4903044 -1.3486378 -0.34280783 -0.6135784 -0.19456178 -0.44133043 0.71270466 -1.0846727 0.044400297 -0.750354 -0.26348105 -0.08062535 -1.1908277 0.107834555 0.54027003 0.9608657 0.044389293 -0.09289901 0.9746306 0.9130981 0.22778861 1.0940212 0.08948827 0.4826819 0.52437425 0.02271303 0.10970017 -0.014807623 -0.27022555 0.5988759 0.4835315 -1.133263 0.043029904 0.45669058 0.79897195 -0.97173387 0.7631825 -0.06668732 0.28968605 -0.3433656 -0.6290589 0.6095591 0.50380874 -0.06353033 0.3166374 -0.7412463 -1.3455262 -0.13426732 -0.12089496 -0.085864365 0.2588265 0.03448648 -0.8221747 1.3844575 0.31554228 -0.73268497 -0.8508426 0.07047524 0.62174684 -0.8092704 0.6607013 -0.428124 0.2642747 -0.1472207 -0.10265176
147 -0.32143757 -0.4592515 0.5102599 0.3261684 -0.14561965 0.39462128 -0.09047179 0.4599426 -0.7326287 0.18318465 0.093168065 0.26972115 -0.548856 -0.76058334 0.43948942 0.3115564 0.2639249 0.46321473 -0.0074021467 0.54544675 -0.8341641 1.0541843 0.22758357 -0.9037225 -0.25077486 -1.1621099 0.012841212 0.5572152 -0.76021713 -0.025047544 -0.6426654 -0.7191906 -0.849528 0.058978993 -0.2204759 0.05505255 0.1645903 -1.2130613 -0.07404041 -0.96936846 -0.040835764 -1.3441049 0.20645323 0.09475532 -0.025697092 -0.22994539 0.22941467 0.029376183 -0.42453006 -0.79034823 0.7237106 -0.6317091 -0.38518584 0.23134515 0.9714456 0.3146758 0.05436368 -0.6882679 1.5240134 1.0168175 0.0227232 0.53584 -0.029117519 -1.8326284 -1.3688483 -0.14828935 -0.5539426 -0.2847515 -0.56487644 1.0974426 -0.32687056 0.35710302 -0.6427208 -0.15759581 0.25147626 -1.1788443 0.096773304 0.030089783 0.61341774 0.23676227 -0.44918588 0.68735105 1.1485546 0.045298398 0.9557421 -0.29884386 0.7202779 0.583272 -0.21193822 0.20890881 -0.120065615 -0.43220955 0.6364906 0.51794976 -0.8158119 -0.2093732 0.69613904 0.82392216 -1.2454913 0.78711945 0.3163831 0.15475443 -0.48390508 -0.3341562 0.5762122 0.98038846 -0.30417973 0.36088312 -0.77303994 -1.2764596 -0.37441793 0.12538481 0.18207183 0.3794068 -0.16401888 -0.92253923 1.4936987 0.8127817 -0.5526519 -1.0713792 0.11930925 0.53300166 -0.8438057 0.68165445 -0.47346294 0.09468557 0.10673119 -0.08477988
33 -0.37158465 -0.6351495 0.718467 0.15433624 -0.47366086 0.3592308 -0.15059097 0.25933552 -0.5288381 0.25815234 0.06718612 0.82796013 0.12764105 -0.65526253 0.63527256 0.5133076 0.5777404 0.47894818 -0.21796592 0.26383018 -1.3186271 0.9038358 0.07976136 -0.93255055 -0.27739772 -1.1414812 0.2339347 0.32733083 -0.7840777 -0.2562332 -0.6628644 -0.57404125 -0.62698275 -0.11029569 -0.2565012 0.36414105 0.3082735 -1.1257966 0.03988641 -0.9158401 0.2532606 -1.2030274 0.44438416 0.059221186 -0.05611348 -0.12355517 0.08898803 0.09730064 -0.009858034 -0.63929516 0.46638688 -0.7205554 -0.20238772 0.34100863 0.92356455 0.37236243 0.4396608 -0.5467488 1.5096226 0.5386953 0.12851162 0.31383732 0.31520993 -1.8808614 -0.91165966 0.012940216 -0.42942804 -0.119612984 -0.5672045 0.96024513 0.03832272 0.4854555 -0.7646482 0.059092406 0.39080098 -0.6443852 0.13770446 -0.15433303 0.55486405 0.17995901 -0.61889946 0.42351678 1.1316646 -0.08983437 0.75129473 -0.2690592 0.8109373 0.5255019 -0.4104916 0.5217273 -0.045958344 -0.278443 0.7644879 0.64843607 -0.7143882 -0.31140992 0.59108555 0.8598434 -1.004312 0.7495581 0.28256088 0.3822174 -0.6666393 -0.10585344 0.7224869 1.0969636 -0.51349765 0.17007378 -0.5423783 -1.1520287 -0.6648828 0.011810437 0.533474 0.38057217 -0.17914468 -0.9901101 1.3552619 0.76373285 -0.52744144 -1.2463934 0.26290798 0.72784543 -0.6994211 0.25803784 -0.45271605 0.482714 0.31881195 -0.038471058
121 0.27315044 0.4143236 -0.47344035 -0.85212827 -1.1474551 0.23807758 -0.72741616 -0.13327003 -0.74601346 0.92615163 -0.8089237 0.43347946 1.0574422 0.029068623 0.7726828 0.64800656 0.4068298 0.8136619 0.050041813 0.39097717 0.10418471 -0.8285019 -0.8450173 0.38664296 0.49018216 0.2918448 1.3058127 -0.1799651 0.7619762 0.24017434 0.29950857 0.43812528 -0.13702051 0.7173592 0.25550348 -0.10026888 0.21628846 0.7329444 -0.20858559 0.12812419 1.0511292 -0.06894944 -0.30852547 -0.065308124 -0.7140879 -0.14887777 0.41299602 1.007797 0.6884834 -0.03225616 -0.30573782 0.8245973 -0.47758603 0.059786852 -0.5380096 -0.5617954 -0.43186483 0.9700615 -0.12723853 -0.89660376 -0.6837858 -0.39281496 -0.38257813 -0.15540399 0.8481489 -0.4797749 0.8848779 0.73559946 0.6431221 -1.2506386 -0.59941626 -0.11807556 0.14502591 0.81614083 -0.64386106 0.96396554 0.89502764 0.264721 0.3413578 -0.4151361 -1.4474236 -0.40472364 -1.0723622 0.877359 0.2261743 1.3551793 -0.13474524 -0.29057202 -0.11691473 -0.068792164 0.81993896 0.33179942 -1.114133 0.70372075 0.052597594 0.32360816 0.22475572 0.23692374 0.8887917 0.61834204 -0.6511549 1.8929367 0.08872822 0.15154037 0.7095288 -1.0999126 0.6213513 -0.5078028 0.4654306 0.3149959 0.16698769 -0.57491666 -0.95828956 -0.01084735 0.5597615 1.6310854 -0.8693159 -0.71595514 0.1317967 0.255719 0.48638144 0.5474789 1.8462318 -1.511615 -0.45749635 1.2379717 -0.3137874 -0.34213224
37 -0.2868302 -1.766793 0.75754946 0.28687 0.784727 0.7368912 -0.9435034 -0.7126151 0.14850003 -1.0757669 0.004433714 0.81357354 -1.0763327 0.40961272 0.28346434 1.5974785 -0.11854151 -0.62974954 0.25450572 0.1460731 0.02682098 0.99456966 0.016069701 -0.76505744 -0.16399474 1.0022026 -0.41138908 0.82726073 -0.6964312 -0.708658 0.56242204 -0.38031745 1.35868 0.093429804 0.4771275 -0.12855992 -0.5497433 -1.0166159 0.17887102 0.36130497 -0.3426728 0.78356916 0.19692075 -1.6452872 1.2946795 0.5764817 -1.4566016 -0.43395102 -0.7363414 1.2442507 -0.22501248 0.25191298 1.2014081 -0.5570396 -0.65904295 -0.5720989 1.4680554 -0.2751265 -1.3124143 -0.42308939 -1.7914437 -0.5688888 -0.40609348 0.73217463 1.1792928 1.0534421 -0.2811666 -0.3806973 0.30557597 0.07437396 1.7870218 -0.764616 -1.8024027 -1.389342 -1.2532216 -1.1047368 -1.5229697 0.36911127 -1.0081222 1.4500902 0.37655506 0.2073147 0.31417114 1.9034469 0.87874657 -0.41477892 0.6996944 -0.09173727 0.2167452 1.5193905 0.5191369 -1.5408328 0.89128155 -0.6181391 1.7563007 -0.17768663 0.42555267 -0.9974697 -0.42543653 -2.0430744 0.58457 0.0060640424 -1.5404267 0.27148193 0.1966546 -1.5005658 -0.5933871 0.03675714 0.34498915 -0.481728 0.087918945 -0.27531615 1.2908698 -0.271887 -0.8936193 -0.53006685 -0.19330235 -0.38120148 -0.4354664 -0.7642302 -0.23336348 -1.80721 -0.035463814 0.038297087 -0.7336107 0.92498064 -0.2683082 0.39562255
85 -0.2301689 -1.797134 0.7877446 0.2799871 0.7969436 0.740806 -0.98280096 -0.7582879 0.17589113 -1.1428958 -0.0103696585 0.8099411 -1.1364563 0.44979414 0.29453793 1.6711372 -0.114787295 -0.6073234 0.20769572 0.14749117 0.056596477 0.9779841 0.027584337 -0.7961492 -0.12870103 1.004244 -0.44124672 0.840584 -0.7094104 -0.65287805 0.62629133 -0.37114874 1.4395275 0.10375157 0.48289484 -0.13813776 -0.57193476 -1.0378944 0.18018098 0.36306977 -0.3724596 0.81674725 0.17405188 -1.696334 1.3845948 0.60297596 -1.5510573 -0.47184402 -0.8304516 1.3235079 -0.26122558 0.28422645 1.3023093 -0.59710157 -0.69727486 -0.6103459 1.562135 -0.26711065 -1.3401003 -0.4045669 -1.8140618 -0.59211755 -0.3990941 0.82533145 1.1698536 1.1200897 -0.3064411 -0.3888061 0.28860012 0.07999408 1.8366597 -0.7559226 -1.8241578 -1.3567427 -1.2679076 -1.1612487 -1.5625541 0.3646614 -1.0844392 1.4881321 0.39283887 0.12607008 0.33325955 1.9619837 0.89523685 -0.47620896 0.71631455 -0.03702104 0.26869065 1.495205 0.51521474 -1.582007 0.8956662 -0.6410727 1.8603857 -0.18041681 0.415543 -1.0711962 -0.45492435 -2.1357498 0.6390672 -0.029890796 -1.5413682 0.3156585 0.2332828 -1.5507506 -0.60521185 0.03957827 0.36570856 -0.42618898 0.11722535 -0.20550996 1.3208108 -0.27355775 -0.8814735 -0.5190677 -0.23690477 -0.38848773 -0.40408432 -0.77463245 -0.22732244 -1.8735404 -0.024435367 0.06007167 -0.7633331 0.88605815 -0.27557513 0.4576465
114 0.33927685 -0.18495847 0.2444605 0.13515456 0.40836436 -0.13674875 0.23475607 0.7053452 0.24246125 -0.14137271 0.45610905 -0.5034033 0.01989774 0.07752002 0.14238873 -0.8485126 -0.15859732 0.19166888 0.8581125 -0.049445 0.74788535 -0.09210266 0.36641207 -0.1662619 -0.5797501 -0.17145643 -0.43996862 -0.23698135 0.16003162 -0.48584786 -0.7838803 0.31026584 -0.22292711 0.588143 0.1816771 -0.9368095 0.5311359 0.08450143 0.45102698 0.051439084 0.41474566 0.5110325 -0.20861116 0.08216237 0.028391853 -0.51105386 1.065419 0.2988058 -0.21853246 0.56268966 0.15443389 -0.3614069 0.22713298 0.9979664 0.18896997 0.7907895 -1.0761558 -0.07724189 -0.025469737 0.47853574 0.02199374 0.026492534 -0.17092568 -0.053138815 -0.25757897 -0.21585292 0.36883798 -0.11247047 0.33893073 0.34576225 0.52385396 0.4594642 1.1045785 -0.25901207 0.4010326 0.57294333 -0.13560808 -0.4309055 -0.18925631 -1.0629927 -0.033824265 -0.13268894 -0.46441877 0.13167426 -0.337764 0.53206885 0.6929021 -0.6395689 -0.25981423 0.91295314 -0.76560867 -0.61550057 -0.58712393 0.2549084 -0.93968683 -0.15153067 0.3741161 -0.3584599 0.14253254 0.14815384 -0.8648852 0.07712808 0.5912262 -0.6032169 -0.03995418 -0.13231204 0.034137174 -0.27074543 -0.36203253 0.3509955 -0.5167204 -0.5788293 -0.42066503 0.07290896 -0.3240811 0.1330306 0.38631636 0.79216075 0.17696518 0.64718205 -0.5664378 -0.4083485 0.23212427 0.23666641 0.4980838 -0.16040286 -0.82567066 -0.39807454
59 0.42056233 0.47889724 -0.8398061 0.09013396 -0.8494915 -0.40926194 0.38647658 0.127812 -0.043706384 1.14486 0.22151136 0.6099734 1.0146772 -0.4755483 0.6910495 -0.16903496 0.05370651 0.2360104 0.015206466 -0.08729485 -0.25496265 0.8337146 -0.036870297 0.38455546 -0.12195963 -0.80491185 0.3314316 0.5347933 0.9457282 -0.4873802 -0.7390765 -0.3846609 -0.7216902 1.1673145 -0.12297427 -0.42243978 0.80395484 0.17689373 -0.27031958 -0.11027134 0.5973758 -1.7008346 -0.42834032 0.57573575 0.14868455 0.18545805 1.0175121 0.16237697 0.52858573 0.6129363 0.7587224 0.38599062 -1.0291588 0.22813609 -0.16822614 0.98590463 0.19336799 0.95591307 -0.56920457 -0.5442817 0.020419115 0.15698655 -0.020441664 -0.21107332 -0.05562264 -0.26779762 0.79638416 0.5821597 -0.13660906 0.11998145 -0.5902321 -0.3151222 -0.13158652 0.78013194 -0.18072066 0.7598314 1.0119789 -0.39965194 0.7696663 -0.10562714 0.22587162 0.15670979 -0.23828198 0.093588114 -0.12370772 1.2905158 -0.03895774 -0.67819047 0.7222475 0.9371726 -0.3204406 0.047402684 -0.13999937 -0.4036457 -1.1958265 0.40110675 0.09023941 0.6448168 0.71327406 0.8044992 -0.104240924 1.125255 0.09949123 0.061276145 -0.38916716 0.041077144 -0.034196828 -0.269471 -0.39354745 -0.8637458 0.0376381 -0.47076103 -0.9520374 1.0188539 1.1301672 -0.31445748 -0.76323223 -0.3187457 0.38956532 -0.78693956 0.57326716 1.7378863 1.3475008 -0.22260767 0.4303293 -0.74692255 0.22351328 -0.57181996
54 0.17513578 -0.080098584 -0.6750523 -0.23643495 -0.43596753 0.11742237 -0.66801 0.7863967 -0.81611085 0.91515756 -1.1102409 0.39839506 1.377562 0.36276072 0.23836526 0.5502242 -0.5049276 0.5615178 0.5806551 0.091958106 0.38493538 -1.4075079 -0.8016445 1.039813 0.28874573 1.4525734 1.2408962 -0.8189696 0.38332734 -0.09036024 0.4510171 0.7239796 0.12901272 -0.8331163 -0.21849559 0.7522934 -0.2741002 1.3028572 0.67304844 0.03618446 0.4805632 1.4984475 0.46889704 0.0036045208 -1.9442748 -0.8757217 0.18482386 1.872555 1.5514132 -0.92669296 -1.0350174 -0.32890376 -0.5279567 0.10071665 -0.5268761 -1.1745495 -0.558491 0.029236007 0.5275043 -0.59434783 0.38501555 -0.17494294 -0.68889827 -0.49294704 0.7489219 -1.4272422 0.9541868 1.0181179 0.5678319 -1.4845558 -0.6487257 -0.0751146 0.41246966 0.08787144 -0.84650344 0.69780064 0.15369456 0.91822153 0.6322806 -0.34704623 -1.0102724 0.08628758 -0.8517819 0.24534929 0.029057002 1.1061302 0.22194417 -1.2145526 -0.5988433 -1.2844024 1.1389363 0.9418873 -0.7908397 1.1502613 -0.08029949 -0.59059596 0.050239384 0.36729512 0.65714854 1.0027143 -0.6632418 0.81060255 0.05724461 0.2997056 0.19154906 -0.97351295 0.5529595 -0.19636472 0.07222796 0.097308695 0.51639533 -0.5668032 -0.36930826 -1.1219838 0.065028846 1.0750704 -0.31448674 -1.4569374 -0.23977649 0.761625 -0.08142531 -0.68340003 0.09574828 -2.4831471 0.1307514 1.7878498 -0.49253935 -0.41643494
95 -0.39147455 -0.893202 -1.1130978 0.348663 0.11977499 -0.18811794 -1.1722775 -0.5198923 0.11726462 0.26918146 0.081740424 0.21217097 0.93842167 0.5631559 -0.7247858 -0.37556842 0.2094708 0.121850885 -0.87778354 0.7743643 0.27733526 -0.9772454 -0.3395224 1.8073237 -0.14336102 0.35575202 0.9373648 -1.5865146 -0.17673752 -0.47621223 0.9474473 0.5021301 -0.3998991 -2.2693725 -1.7370971 1.0458101 -1.5205684 0.9810086 0.50470793 0.37973526 -1.0551763 1.9424226 0.39151874 0.9524059 -1.8565203 -0.26394424 -1.7600739 1.820967 0.28832975 -0.7643642 -0.9098741 -1.5153964 -0.5670254 -1.0942802 -0.65158486 -1.3363748 -0.5988724 -1.7410614 1.2649585 -0.03757695 0.7335601 0.25064418 -0.52694815 0.17219913 1.9563131 -1.244991 0.061741173 0.25315955 -0.14840709 -1.0094047 -0.3493317 -0.065732315 0.078579925 -1.3204815 0.44314232 -0.7212326 -0.4369786 -0.13628483 -0.5166248 -0.580585 -0.2165677 -0.1321704 -0.53271097 0.08925929 0.29300198 -0.38289833 0.8478255 -1.140328 -0.9296953 -1.5329562 1.026255 1.4574002 0.20766068 0.5555476 1.2167711 -0.8700685 0.9337132 0.18893987 0.41670004 0.24477395 -0.058291487 -1.2534876 -0.77847606 -0.4081157 -1.0493331 0.17656615 -0.63899875 0.17991555 0.0058325096 0.6538884 1.1719071 0.5302265 1.393355 -1.0146267 -0.9743707 0.1949825 0.7888302 -0.7378255 -0.6408287 0.30626288 0.6149967 -1.3270743 -0.57659847 -2.2689426 -0.10130057 1.2769985 -0.33592868 -0.18790352
86 -0.28926918 0.13336977 0.19354714 0.41461548 0.533515 -0.55352885 0.8237357 -0.22212283 0.6306784 -0.59410626 0.4659929 -0.077365726 0.57586414 0.4259261 -0.5851428 -0.76643914 0.25212407 -0.31586993 -0.79464555 -0.7255095 -0.32456857 -0.2768348 0.045427628 -0.1818847 -0.7345063 0.26252803 -1.310839 -0.6629481 0.15573964 -0.3193869 -0.9805379 0.67109543 0.13371108 -0.07756347 0.018136544 0.21823101 0.4597821 0.34056997 0.5995496 0.45949343 -0.21561235 0.30019495 0.897721 0.31142792 0.026491513 0.21504916 0.43050602 -0.91784006 0.5905296 0.36226532 0.53336716 -0.36362255 0.740939 0.6538421 0.29277006 0.7806771 0.035512853 0.39408383 -0.565834 -0.3313822 0.70699376 -0.21755092 1.158894 0.7232591 0.5955487 0.2995449 0.19208156 0.14782861 0.020395966 -0.56555957 0.7088934 0.09023054 0.6406175 -0.28687993 1.2843529 1.0037787 0.036637574 -0.94432765 -0.36889035 -0.05277082 1.0850621 -0.33966845 -0.16066009 -0.37975022 -1.6820923 0.21090963 -0.12133396 -0.17112653 0.42811388 0.25553477 -0.7021524 0.34606856 0.02621547 -0.790255 0.07376113 -0.003247794 -0.9736662 -0.29679123 0.23756428 -0.43143666 -0.76073664 -0.8753882 0.47696036 0.25547034 -0.6881254 0.88044363 -0.026281334 0.15820386 0.48747656 1.2541108 -0.35884744 -0.5060811 0.15174772 -0.019570544 -0.9145751 -0.42582148 -0.02153062 0.8488244 0.4446578 0.6478978 -0.23091488 0.29385695 -0.38817194 0.60548323 0.83734465 -0.5760779 0.4195667 -0.21740913
96 -1.129168 0.47128707 0.61546314 0.28097314 0.5947171 -0.108236924 0.6807407 -0.5521412 1.100534 -0.035804667 0.039220124 0.74612635 0.79850477 0.3768166 -0.24815348 -0.033790763 -0.6760101 -1.3756024 0.5558349 -1.3612642 -1.1905372 0.144454 -0.7405709 -1.3989084 -0.726388 0.8175981 -1.2166194 -0.43703505 0.39636955 -1.1689751 -0.57497853 0.3651687 0.7474151 -0.6183691 0.77930576 0.25004917 0.3133956 0.31982088 0.056097474 1.4816743 -0.47488284 0.8397845 1.2195051 0.17639248 0.30863854 0.2587677 0.2528657 -1.1409758 2.2718432 0.4244291 0.150305 0.80224705 0.59566873 0.5636493 0.70563066 1.8164248 0.58010757 1.1491082 -0.99505264 -1.0128845 0.44595316 -0.30708262 1.06929 0.43580297 0.61179745 0.8963404 0.48566273 -0.21359345 0.3732367 -0.503532 1.5116582 0.05591228 -0.45822185 -0.20056991 1.0923204 1.64708 -0.41573316 -0.13951895 0.1131036 0.23254871 0.847223 -0.45855096 -0.062080335 -0.9568517 -1.0923508 0.52790695 -0.66275114 -0.17313075 -0.25736368 1.1044854 -0.37748462 0.36719677 -0.024386685 -0.24194726 0.6583778 0.32554537 -0.92826897 0.9995704 0.70929 -0.5886507 -0.059307422 0.34884423 0.050790645 1.0020162 -0.54270273 1.2950844 -0.14364506 -0.20633945 1.0534078 1.3631691 0.012325475 -1.507363 0.33191606 -0.73713446 -0.783707 -0.959969 -0.76238877 0.15718547 0.53377265 0.5425307 -0.98504937 0.5478668 -0.018585881 -0.5577024 0.8559538 -0.15312102 0.3118124 -0.19419609
57 -0.28009945 0.9700876 1.1601483 -0.3754662 0.745059 0.4225766 0.4132221 -0.5945764 1.0095365 0.41215956 -0.4132653 -0.16703866 -0.93016064 -0.17858666 0.7076629 0.46777445 -1.8007269 -1.5943904 2.383809 -1.2352515 -0.4227127 0.5166034 -0.366178 -1.7422858 -0.21628413 0.574299 -0.75562865 0.3428346 0.2896617 -0.4068845 0.44211957 -0.27309453 0.7984676 -0.490596 1.0881639 -0.13502826 0.19289556 0.27850428 -0.21338874 1.4994527 -0.6657908 0.91991436 0.4412263 -0.25145385 0.6993858 -0.5864359 -0.25739643 -0.44114086 2.140661 0.5463523 -0.21716654 1.4246966 0.49456564 1.2098987 1.4114058 1.9379123 1.1708444 1.5414684 -0.58245766 0.13654776 0.38134468 -0.032328334 0.50310826 -0.10262568 -0.827523 0.72459316 0.45455408 -0.045543563 0.53214735 0.49892363 1.4124724 0.7172673 -0.80814636 0.27822983 -0.0077575548 0.08215396 -0.74034834 0.96864784 0.4195129 1.0765755 0.055386536 -0.5261048 0.8994231 -1.1771278 0.2780372 -0.07641753 -0.966147 0.20719399 -0.9476076 0.49140087 -0.57905984 -0.3450347 -0.05388557 0.4650615 0.7939405 0.43367812 -0.7308797 1.055984 -0.23686372 -0.60633093 1.3163234 0.50483316 0.7009877 1.4417298 0.19304603 1.4763676 0.33671674 -0.12066757 0.5311889 0.22962211 0.3367445 -0.4851071 -0.5137489 -0.68842715 -0.18784058 -0.70635235 -0.38512218 -0.2777866 1.3868043 0.89715797 -1.7136524 -0.38086072 -0.48463345 -0.0056447675 0.66152596 -0.9620409 0.029999053 0.4367946
72 -0.14903092 -0.5892426 0.7119653 0.29349443 -0.22135049 0.22000423 0.1487329 0.62063074 -0.5265023 -0.019845217 0.13467579 0.29762754 -0.1919184 -0.73072064 0.6276276 0.35417864 0.50024587 0.5745427 -0.04521757 0.3372317 -0.9099357 1.0721947 0.3642479 -1.058985 -0.44059008 -1.2915256 -0.21769403 0.3931962 -0.8628182 0.074750975 -0.9394931 -0.6401398 -0.78253835 0.024137747 -0.29471302 0.20834003 0.53546554 -1.1078513 0.31344718 -1.0086942 -0.053426675 -1.2237265 0.28971642 0.113107026 -0.13047098 -0.47786525 0.4050484 0.048224807 -0.3403952 -0.7651571 0.594043 -0.97476166 -0.012998223 0.711184 1.289441 0.4719815 0.15835269 -0.81576496 1.6543754 1.3760746 0.37748966 0.3623413 0.34778446 -1.9767182 -1.424334 -0.17357694 -0.62282217 -0.27049005 -0.64236355 1.2703065 -0.053015895 0.6043592 -0.33652133 -0.04594342 0.55840325 -0.8639337 0.04296478 -0.075784504 0.5920375 0.09725474 -0.4554907 0.42000476 1.2333854 -0.12901153 0.7293801 -0.37917134 0.8338614 0.6562003 -0.33373132 0.30574685 -0.34732723 -0.40835795 0.56983024 0.9250916 -0.91152817 -0.5167452 0.40898842 0.7694993 -1.3007302 0.9016969 0.21341994 0.0093752695 -0.3688552 -0.3925462 0.58303434 1.2062082 -0.23105255 0.25215778 -0.74279004 -1.1342067 -0.7581412 0.20818546 0.30285293 0.4203695 -0.37565145 -0.945182 1.5632943 1.1768376 -0.534799 -0.9881317 -0.042497877 0.3874402 -1.1490833 0.8373807 -0.22531962 0.34642875 0.16159232 0.09131712
35 -0.6006547 0.27469414 0.6154937 0.43483022 0.96489173 -0.108209506 0.6479208 0.108039856 0.9315007 0.36995646 0.43722862 0.036660243 0.04248435 -0.17731799 0.29887584 -0.37596744 -1.3408511 -1.1462318 2.027867 -0.94174 -0.22337985 0.42258862 -0.23214486 -1.4216311 -0.64789325 0.26236436 -1.0193375 -0.12730359 0.5891038 -1.029466 -0.4353733 -0.0950114 0.41987085 -0.030941369 0.67794055 -0.9713206 0.4625782 0.1687546 0.097592674 1.3856803 -0.72387886 1.024975 0.29575336 0.39359605 0.36723724 -0.52798367 0.8917726 -0.24549738 1.329322 0.6986972 -0.0052805846 0.6196852 0.16203825 1.0014464 0.9543948 2.2154627 -0.43167707 0.711052 -0.72493595 0.16333583 0.43535575 0.05906725 0.23921047 -0.21568133 -0.3854122 0.40654498 0.6677563 -0.5672389 0.5376486 0.5253502 1.7664186 0.38103706 0.3137737 -0.26875225 0.59082246 1.2367282 -0.61583906 0.107016906 0.18536334 -0.5007102 0.74084896 -0.31468824 -0.35602725 -0.7443028 -0.44457504 0.6878735 -0.19343719 -0.7684383 -0.57515085 1.3380983 -0.7273342 -0.17721562 -0.47933018 0.5342044 -0.06950837 0.073069416 -0.21241063 0.8609755 0.4356871 -0.21969625 0.2366425 0.55205125 0.39781645 0.3743481 -0.6053822 1.0263901 -0.04493358 -0.53420687 0.2562436 0.49516967 0.07819434 -1.2045391 -0.32988086 -0.40895638 -0.51696384 -0.7613923 -0.45322242 0.29630858 0.3381176 0.88211626 -1.5744985 -0.3259843 0.108437486 -0.5470321 1.0626273 -0.32940683 -0.5882937 -0.42226622
65 -0.49288556 1.2113886 -0.84611535 0.6227003 0.19006744 -0.22057657 0.89731497 0.06019171 0.07177032 1.3852646 0.50136286 -0.10395755 0.59033465 -1.1397228 -0.9140052 -0.9462676 -0.7098571 -0.24721204 0.5989661 -0.17144889 0.037547823 1.3414879 0.5334925 0.12785473 -0.24004272 -0.21358164 -0.629453 0.88766587 0.6382265 -0.3857465 -0.8401517 -0.57372946 -0.99149454 0.80149066 0.5276712 -0.87071383 0.31889787 0.06325696 -0.57449514 -0.05352957 0.15168886 -2.0100925 -0.25970036 0.5955116 0.39816532 0.51208365 1.4654459 -0.6267182 0.41697946 -0.0467327 1.7019527 0.3527589 -1.8539553 0.19981396 -0.04203489 1.0198448 0.00055531267 0.4310373 -0.6261146 -0.42372113 0.17064683 0.6981667 -0.6826513 -0.17989105 -0.48472488 -0.81350714 0.42760795 0.21684752 -0.4920672 0.4663441 -0.93962187 -0.91823035 -0.5736826 -0.2571147 -0.30746198 -0.20415483 0.5135619 0.051882133 1.2250551 0.27860352 1.1058543 1.1698425 0.28699014 -0.15664424 0.024157505 1.4280844 -0.78668386 -0.90142703 0.9627797 0.7629048 -0.5018667 0.2886831 0.57613504 -1.3175982 -1.4259199 0.5842179 0.22712258 0.91681916 -0.34572986 0.5605231 -0.16828008 0.8529878 -0.17364746 0.0052206083 -1.0283774 0.6397054 0.010696869 0.23041177 -0.84025997 -1.6230308 0.37620085 -0.67937005 -1.1242659 0.57816255 0.661104 -1.1160889 -0.35949925 -0.27572513 0.3120441 -0.8909255 -0.0023642702 1.7145283 0.42980507 0.94453114 0.13495943 -1.4937397 0.11059996 -0.71745664
