128 128
128 -0.23311651 0.06451919 -0.07287785 0.009738596 -0.11167554 0.09409286 0.12037679 0.20146014 -0.2495014 -0.062192112 -0.027671222 0.029787008 -0.28561515 0.35920486 -0.32098472 -0.18857177 -0.0062062526 0.21850584 0.07778519 -0.19122282 -0.04309744 0.039291717 0.25803638 -0.05133653 0.23014343 0.22354944 -0.116106704 0.1709085 -0.07521981 -0.0141290985 -0.043293934 -0.31382495 -0.012082001 0.08534359 0.11254093 -0.043291606 -0.11087675 -0.19215135 -0.08318431 -0.15667084 -0.090457276 -0.048403583 -0.03236193 -0.19742739 0.15075655 -0.079427585 -0.17540401 0.1099559 -0.021523476 0.12577622 0.39121556 -0.19855551 -0.2052989 -0.029039903 -0.03600946 -0.1126174 0.09973824 -0.19707094 -0.18292396 0.1461704 -0.22470072 0.08002688 -0.06960107 -0.44548643 0.018252179 -0.1781842 0.07618925 0.14616461 -0.14828311 -0.057106912 -0.055850085 0.015415815 -0.28170398 -0.28549272 -0.20062731 -0.20651689 -0.1640631 0.07335333 -0.27125332 -0.07929982 -0.20486791 0.03724998 0.03296181 0.5705813 -0.034782704 0.037269354 0.17582609 -0.42177284 0.16285704 0.37502614 0.22357301 0.016604539 0.1051657 0.04445345 0.260992 -0.04032315 -0.023408644 -0.1584093 -0.11162878 -0.09547994 -0.13342643 -0.19320983 -0.12982872 0.11669586 0.06690886 -0.09540789 0.08666939 0.29787013 -0.18291855 -0.0054730317 -0.109015 -0.4471022 -0.0471876 0.02783077 -0.2294482 0.025873419 0.064764686 0.17852972 0.11983091 -0.021341557 -0.053841583 0.16975331 -0.11445083 -0.18330893 0.06651131 0.077078834 -0.28702742 0.1357847
123 0.2749561 0.08569822 0.35087264 0.45637566 0.24497189 -0.15580669 -0.26438317 0.09943506 0.4028487 0.41639578 0.05477542 0.18335749 -0.32659897 -0.16167606 0.22531785 0.125066 0.18107156 0.0514523 -0.14027615 0.47375032 -0.019602008 -0.42299312 0.34497848 0.17835544 0.07891925 -0.15764 0.29858878 -0.24756828 -0.1426242 0.0329253 0.08245785 -0.10993055 -0.02848072 0.1842327 -0.20712225 0.20851076 0.24651366 -0.008483074 0.016332556 0.0003925944 -0.3485753 0.06038615 -0.23528373 -0.0804354 0.02093169 0.053859398 0.13736486 0.07301924 -0.1870866 0.18567583 -0.25894412 -0.21897705 0.10630871 -0.35339057 -0.022808539 -0.23322126 -0.16628431 -0.2035819 0.26824257 -0.5024666 0.05471071 0.44359937 0.24013716 0.5109983 0.057716068 -0.33991924 0.17394543 0.12841457 0.16320908 0.142913 -0.6686443 0.3243258 0.14470656 0.25996637 -0.18247823 -0.16319883 -0.027919104 0.23179768 -0.0069094654 0.23301953 -0.20370111 0.028094543 -0.049782947 0.16776657 0.199917 -0.34703982 0.49483067 -0.31039387 0.29331392 0.020082496 0.32136086 -0.32206014 0.06337332 -0.20890234 0.02528596 -0.04171316 0.26563773 0.08416659 0.33448398 -0.16010179 0.052568477 -0.3987765 -0.031748146 -0.3861743 -0.16038193 0.30151996 -0.49880195 0.54764193 0.2163924 -0.20700262 0.41224912 -0.14373338 0.067846164 -0.022300158 0.31035224 -0.29577884 -0.0044092494 0.016343353 0.40666175 -0.02783284 0.113844566 0.21029024 0.10081241 -0.21271479 -0.50231034 -0.39455125 0.036774464 0.27031934
44 0.1146744 0.1976943 0.034224063 -0.41545984 -0.14090607 -0.07361742 0.052870013 0.0048507387 0.16395274 -0.27107444 0.31853563 0.13274376 0.017496837 -0.048857957 -0.045361783 -0.091317 -0.15001176 -0.23338073 -0.2460964 0.13621913 0.35600427 -0.029359646 -0.0065842285 -0.17990516 -0.14835629 0.0707491 0.06801053 -0.046404988 0.20202804 -0.22763349 -0.37418488 0.16008735 -0.20338285 -0.20360272 0.019375954 0.20292671 0.1609508 0.14016943 0.13217333 -0.11093981 0.22644703 0.37949365 0.24012361 -0.021486135 0.17335205 0.19098108 0.21057394 -0.23762633 0.20258221 0.04189823 -0.040395465 0.4923825 0.14292407 0.3927483 0.0581261 0.49830377 0.4486487 0.575909 -0.02624824 -0.46427667 0.3697153 -0.38637823 0.032907482 0.24297947 0.16352512 0.0075042723 0.1552575 0.5850807 -0.12426399 -0.37278312 0.32806534 -0.24586087 -0.06001931 0.19612627 -0.1327047 0.04882164 -0.0031058046 -0.36858532 0.13937911 0.44300878 0.34164852 -0.18035366 0.2863961 0.27418658 0.10024868 0.6449564 0.48822504 -0.2756602 0.3852783 0.06555617 -0.3336777 -0.51606125 0.13480686 -0.20350678 0.35334387 0.16550127 -0.05753494 -0.059630003 -0.3579878 -0.493022 -0.48686746 0.37419203 0.217028 0.28938478 0.24266864 -0.12962273 0.19725235 -0.54783267 -0.14434715 -0.6322171 0.08983001 0.019011986 -0.079767466 -0.2114129 0.13465624 -0.5117872 0.32222342 -0.17025705 -0.025019879 -0.28190318 -0.25094843 -0.22258465 -0.122740224 -0.22087812 -0.04501843 -0.16410604 -0.012000344 -0.3042576
45 0.05960071 0.008426395 0.14983512 0.10613306 -0.0675026 -0.027286647 -0.21989693 -0.07111275 0.23585218 0.053254556 0.09650571 0.0411376 -0.0009970288 -0.14246692 -0.078403786 -0.06133294 0.08180814 0.0007239273 -0.049778484 0.14167461 0.009435194 0.007834668 0.14764282 0.07697108 -0.07889732 -0.07399984 0.013828765 -0.1984396 -0.13905397 -0.04237639 -0.0052689007 0.060829002 -0.22962643 -0.042529035 0.036695607 0.1067989 0.1275337 -0.02183848 0.08263232 0.06189852 -0.10734506 0.07766961 0.020424703 -0.08296359 0.081172414 0.17050637 0.108920716 -0.15986973 0.040366806 -0.042424038 -0.020228302 -0.12173879 0.06283071 -0.06881174 0.09486892 0.023487926 0.033189543 -0.11814119 0.0037121125 -0.22717114 0.32199866 0.120305285 0.06292095 0.28048706 0.32563215 -0.2516658 0.0077251443 0.2151673 0.18376406 -0.09443107 -0.09985306 -0.0086477 -0.12420426 -0.0038771809 -0.17023775 -0.120223016 -0.10238747 0.046305757 0.0060281046 0.3815029 -0.046689257 1.8000792e-06 0.08423363 0.22856021 0.21871825 0.17145301 0.29749152 -0.14589088 0.19339792 0.12575024 0.050606057 -0.27916762 0.101280004 -0.047473125 0.31547132 0.021319862 -0.0124981655 -0.16228719 0.064690255 -0.23699918 -0.19879317 -0.073730834 -0.0422256 -0.039333377 -0.16275121 0.061274897 -0.19134931 -0.067283124 0.16806506 -0.25385663 0.06995636 -0.19353633 0.16497809 0.119342834 0.09241576 -0.27866167 -0.007760777 0.06074775 0.10123835 -0.06035461 -0.0030574515 0.018095374 -0.11831473 -0.17920884 -0.29790732 -0.22338 0.0397381 -0.009856567
100 0.15918754 -0.47198105 0.199994 -0.054025877 -0.1222387 -0.11997587 -0.1351082 0.0070958203 0.04730694 0.07681485 0.3391658 -0.014801952 0.0977316 -0.19432527 0.45543334 0.21969585 0.05180101 0.14880924 0.17711401 -0.2852916 0.024746923 0.25371978 -0.06527574 -0.048688352 -0.12063849 -0.12793705 -0.049812645 0.10146337 0.21504863 -0.086012974 -0.14740577 0.18275328 0.09605049 0.20126341 -0.1519823 0.2107956 0.5265806 -0.12946242 0.1863181 -0.121485606 -0.0008955933 0.2147013 -0.18157427 -0.10140678 0.52153456 0.0064297416 -0.09814361 -0.19176881 0.057851117 0.065822564 0.026893508 0.22751576 0.42850012 0.31659514 0.20971829 0.15116107 0.39709932 0.19084854 -0.052808616 0.20965654 0.30478936 -0.29997653 0.013491353 0.19880675 0.18877417 -0.004698227 -0.026531868 0.07769783 -0.32244542 -0.16648884 0.3550698 -0.35869536 -0.21041517 0.014821387 -0.03568245 0.05314058 -0.12738153 -0.012717373 -0.1121274 0.5221497 0.01413818 0.02281698 -0.013738187 0.28905007 0.08555453 0.31345764 0.33092585 -0.15798372 0.32976404 0.13605049 -0.44612983 -0.35161018 0.13301109 0.13812277 0.29837704 -0.034708697 -0.41495198 -0.45419678 -0.004246612 -0.23536134 -0.49723813 0.29204187 0.088493325 0.28753024 0.092121914 0.0025363718 0.15949202 -0.5419053 -0.05034162 -0.14513092 -0.20527336 0.12073428 -0.13810907 0.53949153 -0.034517113 0.11219178 -0.08052138 0.22010289 -0.11824982 0.22105835 -0.16012725 -0.07470911 -0.13525513 -0.006071107 -0.034659103 -0.13976853 0.14592642 -0.26835203
68 -0.05530714 -0.2501206 0.1364251 -0.036175754 0.1218753 0.3708031 -0.15912688 0.024615388 -0.030426318 -0.0034255842 -0.16412102 0.5236852 -0.19947134 -0.038167577 -0.29078212 -0.069807544 0.2701694 0.047811005 -0.24129374 -0.09414137 -0.119676776 0.061387677 0.19826184 -0.16180728 -0.24536574 0.04089783 -0.11817108 -0.163969 -0.20473246 -0.1993428 0.218404 -0.041714884 -0.28912526 0.16284086 0.119360596 0.14540005 0.14968736 -0.10087866 -0.052923042 -0.49623567 0.016685275 -0.00980452 -0.013981109 -0.11146985 0.4194664 0.2159569 -0.046633434 -0.0701248 -0.30254227 0.07455773 0.045804296 0.11493616 0.26895976 0.05806279 0.3079896 0.18297344 0.24530889 0.10904326 0.20379083 0.003990192 -0.04412988 0.10693383 0.14683771 0.19330889 0.11717041 0.0039004395 0.049901642 -0.048919413 -0.039401814 0.07220559 -0.031770993 -0.04517015 -0.38938227 -0.25713083 -0.2844891 -0.11998767 -0.29790616 0.43446514 -0.37660924 0.5010963 0.17574787 0.41158885 0.053816263 0.645727 -0.03887225 0.07546881 0.23055464 -0.0432384 0.5188921 0.42711008 -0.09483796 -0.21824166 0.12313198 -0.28134474 0.036690444 -0.17391255 -0.23977599 0.0069832504 -0.34744844 0.22835046 -0.10057291 0.015687887 0.031897236 -0.09193292 -0.07957662 0.18008576 -0.23142761 0.14501667 -0.22911584 0.017282058 -0.16876583 -0.442175 -0.09035159 -0.08106383 -0.027876139 -0.18289019 -0.081578195 0.17014991 -0.032045282 -0.05727811 0.20502456 -0.14726168 -0.1967819 -0.066266164 -0.058481984 -0.26414725 -0.18769354 -0.12560742
43 0.31466565 -0.16814418 0.23298606 -0.187993 0.14596249 0.09557547 -0.11713552 0.38130656 0.075220965 -0.07348638 0.15703529 0.16920474 -0.27500528 -0.11281392 -0.096976765 -0.028580926 0.25376806 -0.25569966 -0.19249505 0.09049057 0.14116333 -0.08324943 0.11448955 -0.33526897 -0.2051115 0.0313395 0.1128823 -0.06358668 -0.09535025 -0.26112518 0.018714963 -0.1379208 -0.42914096 0.12675852 -0.15414773 0.12348009 0.213685 -0.10302358 0.43880853 -0.42269984 -0.07316524 0.22378033 0.06253203 -0.18736713 0.2950463 0.3661099 0.1765448 0.025678247 -0.2846566 0.168545 -0.27282187 0.0044058682 0.22920196 0.26344684 0.40645874 -0.00057106547 0.21567792 0.33067754 0.09463118 -0.38444898 0.26071244 -0.22404476 0.18877786 0.35417414 0.04168637 0.12464001 -0.29261178 0.19023761 0.05036292 0.06951211 -0.097116426 -0.061463233 0.19231021 -0.020040633 -0.27080247 -0.040998973 -0.16054119 0.0494119 -0.12160281 0.6148879 0.20560531 0.07327716 0.24261439 0.47002804 0.018887604 0.074012205 0.37813377 -0.08605021 0.68905216 0.47420827 -0.31914198 -0.6117844 0.0425752 -0.07676528 -0.09429956 -0.1609149 -0.12818429 -0.13712692 -0.541173 -0.2710551 -0.49866828 0.14738683 -0.27610078 -0.17751911 -0.021151947 -0.13896112 -0.49342087 0.24304 -0.054774143 -0.5900636 -0.10391939 -0.54311264 0.08982163 -0.17321448 0.18994923 -0.52998596 0.47384334 0.06279196 0.17629649 -0.44983858 -0.24994807 -0.11537582 -0.10923819 -0.16738106 -0.28147358 -0.4855476 -0.15431488 -0.24606612
49 0.36374626 0.06977949 0.45050976 0.0604496 0.016358623 -0.20246725 -0.25659436 -0.016553212 0.08786888 -0.54338646 0.4965103 0.26495466 -0.094498836 -0.25867248 0.5481748 0.30321127 -0.39261967 0.05777038 -0.12453022 -0.08614018 0.44049242 -0.1978125 0.028361684 -0.13647805 -0.19077954 0.22918747 0.14631073 -0.059216846 0.43244535 -0.15951301 -0.42786774 0.30899918 0.068126075 -0.076704785 0.04118172 0.37446102 0.28802907 0.68403125 0.32226908 0.21563894 0.3389081 0.5068105 0.2726233 0.3685237 0.31859317 0.06750218 0.22363637 0.007931712 0.21763629 0.25169244 -0.07616286 0.43196866 0.052945737 0.6686714 -0.0018274351 0.5997999 0.28181836 0.70939636 -0.22205383 -0.66348606 0.32981533 -0.25868937 0.20643046 0.07377265 0.111972675 0.055490974 0.17582244 0.5472706 -0.04747578 -0.2514999 0.6360665 -0.35447112 -0.11075537 0.18382548 0.18292588 0.10065322 -0.08332729 -0.53911835 0.3198316 0.103253536 0.38530838 -0.30378222 0.40757167 0.22207604 0.037477758 0.59618443 0.41179374 -0.14789161 0.07587645 -0.0677691 -0.38018104 -0.49434856 0.043683656 -0.48117882 0.4572096 0.49051827 0.028976856 0.21503466 -0.20107988 -0.32830617 -0.46294174 0.3918924 0.54060286 0.46638054 0.5725147 -0.4617757 0.18447365 -0.98349804 -0.14350042 -0.51046616 0.13945948 0.3938582 -0.14288819 -0.44055772 0.25783893 -0.3963029 0.19867256 -0.28699994 -0.12983565 -0.25359702 -0.0534247 -0.29279622 -0.03811147 0.02855969 -0.13998035 -0.0023829425 0.019948725 -0.21076006
81 0.22490926 -0.078765534 0.14933954 0.12711652 -0.29511887 0.092822105 -0.15730093 -0.18342623 0.2224198 0.35929725 0.13571413 0.42965248 -0.092446655 -0.080867566 -0.071215734 0.11300812 0.4604683 0.03934205 0.07913415 -0.020520287 -0.12693207 0.2605266 0.11059867 -0.031987216 -0.4657814 -0.26644906 -0.13715862 -0.09971029 -0.11411848 -0.036802776 0.055120822 0.15514484 -0.040650394 0.23767938 0.23667692 0.4905069 0.5384267 -0.39847663 -0.3250767 -0.21218295 -0.34730798 0.12698634 -0.3129424 -0.50898 0.6544634 -0.1286069 -0.34882107 -0.041820683 -0.21007712 0.11341467 0.20254195 0.25639585 0.42133555 -0.06618265 0.10088679 0.104286864 0.44269603 0.067460075 0.128229 0.29477194 -0.43605056 0.21086238 -0.049431905 0.4112108 0.3121898 -0.27008918 0.4768181 0.06406815 -0.38974625 0.009592205 0.060859837 0.16031039 -0.20230575 -0.15032524 -0.3262527 0.24284391 -0.28187004 0.7163074 -0.39243752 0.3021539 0.03541567 0.2569765 -0.006313271 0.42232317 0.18266559 0.18904564 0.36962196 -0.2689493 0.16268562 0.30386025 -0.10526088 -0.33168823 0.1561713 -0.14932312 0.27054164 -0.349356 -0.31073445 -0.31729567 0.45751 -0.14400671 -0.22127548 0.08521729 0.08298079 -0.0049157557 0.17079511 0.3031072 0.21218678 -0.051229123 -0.13324445 0.11315443 -0.24619094 -0.20303342 -0.474915 0.33219236 -0.06804481 0.18504196 -0.32164335 0.1645771 -0.12402964 0.42480946 0.2887125 -0.2164643 -0.07767453 -0.0026602854 0.14631934 -0.19189025 -0.060257398 0.058584873
31 0.29022005 0.6880651 -0.15728344 0.10774114 -0.18722591 0.15225485 -0.21635918 -0.22040416 0.14682534 0.087216035 0.02457275 0.0967147 -0.5936336 0.58293396 -0.07549616 -0.17551987 -0.043439563 0.096328296 -0.24289371 0.38359916 0.18651855 0.285321 0.08427231 0.006642459 -0.13216567 0.093954176 -0.16606665 -0.043885216 0.15145653 0.078808196 -0.46648973 -0.0343779 0.078792825 -0.20552967 0.09180136 0.054732453 -0.1625319 0.17683417 -0.6483834 0.10346098 -0.49096245 -0.043271273 0.2904413 -0.19458546 0.016546628 -0.4180882 -0.41864052 -0.026005423 -0.21641707 0.2930892 0.4862552 0.1467503 -0.002682807 -0.28680226 -0.23557964 0.57471406 0.43387258 0.09889614 -0.28632134 -0.5243875 -0.624115 0.07454771 0.17440443 -0.15251733 -0.050477717 -0.21311119 0.6644694 0.36628816 -0.09094512 -0.1635506 0.13079457 0.5093508 -0.0012396387 0.20664284 -0.082068555 0.21003735 -0.094538815 0.2882156 0.06425337 -0.4195425 0.06728186 -0.2875749 0.13293494 0.016708704 -0.19849129 0.1864284 0.42462814 -0.41646177 -0.34013638 0.018914528 0.023208335 -0.027247312 -0.14936619 -0.43155187 0.52055925 -0.06648066 0.49757743 0.1685108 0.10315784 -0.53990716 0.24403183 -0.3245476 0.14532655 0.004407492 0.14909707 0.48564517 0.6760888 0.3913602 -0.39182624 -0.0009248143 0.5332852 -0.14976129 -0.44444257 -0.12467921 -0.13601786 -0.28445202 -0.11344388 -0.5149196 0.27878076 0.30590424 0.24817133 -0.005982267 0.2212945 0.075510934 0.2286104 -0.05067684 -0.7833486 0.39205292
69 -0.10877125 -0.18744439 0.09806883 0.20177034 0.042598516 0.40251607 -0.3353743 -0.011220428 0.08846861 0.094286226 -0.28547055 0.5530182 -0.3498467 0.3560262 -0.3404579 0.059657507 0.21445906 0.03430847 -0.45641503 0.3187869 -0.13885543 0.064177416 0.21698771 -0.22264248 -0.022386072 -0.010527213 -0.14670455 -0.25495157 -0.31732365 -0.12903404 0.12966643 0.016033873 -0.2542097 0.08706825 0.18870272 0.15363105 0.060193613 -0.03486799 -0.26564154 -0.41021776 -0.17026 0.037944518 0.21412827 -0.16594967 0.37462386 0.20278321 -0.16170621 -0.17706716 -0.263869 0.08917264 0.19068009 -0.001055126 0.26675233 -0.32866222 0.17915386 0.19594827 0.23446174 0.053278662 0.21933644 -0.30362037 -0.1579531 0.28002426 0.21740659 0.2817003 0.070454694 -0.14482574 0.09876348 -0.052266374 0.20488884 -0.107939616 -0.1963987 0.018948926 -0.3291749 -0.046930198 -0.24389993 -0.05574926 -0.2845702 0.46295133 -0.3600725 0.3180281 -0.019309977 0.4092021 -0.092146434 0.46884522 -0.25678477 0.13836011 0.294353 0.11076825 0.48522094 0.12021068 0.28017554 -0.1469061 -0.11044253 -0.22977565 0.03253637 -0.057077 0.08348139 0.23870346 -0.070434146 0.16990559 0.1605232 -0.14536507 0.10607599 0.011582509 -0.3492971 0.5125988 -0.10390871 0.32202166 -0.27484107 0.2709547 -0.065525554 -0.34595847 -0.17077826 0.05520943 -0.05785615 -0.24231322 -0.15856707 0.09293054 0.0550454 0.17543645 0.3311244 0.18316922 -0.16954775 -0.21208917 -0.05907701 -0.18622085 -0.16213936 0.033390064
36 -0.05571013 -0.3758831 0.3694875 0.11429692 -0.1113594 -0.018108403 -0.44201654 -0.106065616 -0.022531567 -0.2802512 0.19853114 -0.018478189 -0.2710251 0.261233 0.30911762 0.34370622 -0.35986096 0.59471494 0.16323417 -0.075651005 0.1427857 0.35091084 -0.19504137 0.0049989983 -0.19958067 0.33992875 -0.41739777 0.05846001 0.25396058 0.32030308 -0.36195222 0.461829 0.0849838 0.014629776 0.16526414 -0.008919096 0.034787577 0.3634352 -0.07901413 0.23603235 0.12908034 0.03988259 0.26268864 0.16773154 0.39742 -0.28688514 -0.26782924 -0.47913417 0.118497886 -0.14221963 0.6987154 0.06902751 -0.013919372 0.24269451 0.07632148 0.4596243 0.71231216 -0.015315479 -0.4427062 0.0010492086 0.27076918 -0.48398745 0.219166 -0.6448587 0.10071642 -0.17159878 0.055486847 0.1284114 -0.014458526 -0.2681415 0.6551168 -0.1605955 -0.43302745 0.14953339 -0.05014497 -0.2035757 -0.1923827 -0.17737345 0.007775092 -0.026861243 -0.11718544 -0.0836496 0.08026467 0.26856986 -0.048733033 0.298804 0.2491011 -0.22427385 0.02544289 0.2796131 -0.2569215 0.20459254 -0.49783882 -0.15898211 0.5109078 0.16821973 -0.18278477 -0.33066627 -0.36485612 -0.21388468 -0.16117667 0.30669287 0.12571187 0.36362404 0.076084204 0.118018 0.61409473 -0.8170241 -0.41342357 0.1293521 -0.17498736 0.28434804 -0.14693365 0.2639666 -0.24217029 0.012461619 -0.19586755 -0.11316394 -0.14300908 0.38861406 0.11624918 -0.20061313 -0.17961797 -0.073913835 0.04807278 0.20105383 -0.32305506 0.06399716
85 -0.0094201695 -0.7317607 0.19995224 0.43712264 0.046042275 -0.11470269 -0.22629295 -0.023044817 0.036851343 0.27619696 -0.11641798 -0.24863476 0.114246204 -0.239967 0.29824612 0.28601554 0.25586656 0.5191749 0.5525733 -0.16822432 -0.23308559 0.1105362 0.14928932 0.29751983 0.083320156 -0.053159103 -0.14602368 0.111577325 0.0143056195 0.22294341 0.20337605 0.18401869 0.32570446 0.50867075 0.077802144 -0.10213246 0.34814587 -0.36785328 0.1462541 0.2962527 -0.08659856 -0.2711204 -0.33880785 -0.22453208 0.19416828 -0.038635187 -0.08674477 0.010108816 -0.15550742 -0.167076 0.08162087 -0.4692974 0.19847827 0.023013214 0.06870108 -0.32583177 -0.016206361 -0.538375 -0.278517 0.7019612 -0.04845384 0.16393517 0.111777 -0.19840913 0.1856652 -0.15057921 -0.111919716 -0.35021833 -0.038991038 0.09386219 -0.12711196 -0.079263344 -0.44330725 -0.4299653 -0.1333451 -0.3753491 -0.19226806 0.42082646 -0.40057054 0.18857366 -0.42335078 0.09423257 -0.17754796 0.40567446 0.5045464 -0.21051273 0.026901897 -0.16673264 0.025111506 0.63620126 0.1040958 -0.03788369 0.18659641 0.2728516 0.2521139 -0.17682749 -0.39725584 -0.7056286 0.30312002 0.025912791 -0.06415882 -0.17950465 -0.40081337 -0.24268188 -0.09319735 -0.048122343 -0.10303668 0.06322435 0.25255024 0.056157004 -0.52782416 -0.2508865 0.32546073 0.51572376 -0.32245943 0.26890868 -0.17866613 0.29391813 -0.23749976 0.17735462 -0.064212196 -0.2104747 -0.2500636 0.09332046 -0.20893511 0.14014621 0.000984018 0.042870972
124 -0.26939535 -0.017035916 -0.063435875 0.01845152 -0.103040986 -0.44246343 0.41787165 -0.4926541 -0.7199886 -0.26745245 0.31952313 -0.26280272 0.5238909 -0.2133191 0.2849481 0.2652398 -1.0550783 0.36973894 0.046594504 -0.14072497 0.11323547 0.44479683 -0.62616163 -0.28510436 -0.50119877 -0.10179588 -0.15637943 0.5512995 0.21516691 -0.23486952 0.102753945 0.11387896 0.19960476 -0.049851034 -0.38726756 0.2258058 0.13959865 0.3720452 0.0042433296 0.24526826 0.28055105 0.34542242 -0.09197427 0.4438449 0.01584675 -0.10734581 -0.37254483 0.21537799 0.39573157 -0.258837 0.3781158 0.50815433 -0.2732284 0.28855988 -0.2892814 -0.01357634 0.35548553 -0.21924783 -0.05566712 0.4123905 0.24967228 -0.47680834 -0.32917282 -0.46866047 0.21837069 -0.15903331 0.13653868 0.023196032 -0.7221805 -0.3584912 0.57412946 -0.37366977 -0.65529037 0.030167107 0.50551856 -0.33959085 0.19804208 -1.055655 0.42130738 -0.02249409 0.068955064 -0.30314028 0.21229106 -0.013717753 0.2851551 0.132464 -0.11821121 0.24592361 -0.5175859 -0.66700685 0.011855001 0.57475966 0.22007646 0.24132276 0.79911155 0.539622 -0.0927536 -0.08926503 -0.12362948 0.30397362 -0.150564 0.45233834 0.086053915 0.63120425 0.7955696 -0.6015729 0.38778034 -0.9041456 0.35221174 0.26636058 0.18966602 1.0754206 0.32992548 -0.02873274 0.07116531 0.7204173 0.1234695 0.4847637 -0.37748203 0.1794598 0.33817518 0.017913075 -0.010823482 -0.11413635 0.38639387 0.35755348 0.93553424 -0.11151388
84 0.44062674 -0.33132014 0.27331042 0.5308078 0.088910855 -0.25379786 -0.19227755 -0.3242714 0.26389548 0.2223797 0.16428341 0.22647375 0.08206844 -0.42772993 0.6231003 0.4941103 -0.013115613 -0.0034876843 -0.17966224 0.2194766 0.13410045 0.16334514 -0.18597469 0.18395433 -0.2745014 -0.1795194 0.2877596 0.10480398 0.19676962 -0.27401584 0.030114736 0.241873 0.328678 0.19398127 -0.36435544 0.35783625 0.45828542 0.012552119 0.21599272 0.19861588 -0.2224885 0.09602491 -0.2885262 0.07086881 0.073609695 0.07392348 0.06601274 0.18261595 0.034895632 0.0505218 -0.36132458 0.23268269 0.16829467 -0.059137378 -0.103056476 0.08695588 0.0673801 0.08233951 0.09296528 -0.13782193 -0.0522482 0.27743042 0.09651479 0.69644296 0.12835898 0.2103343 0.27775854 -0.16670354 -0.08069934 0.111786455 0.09793303 -0.00050070736 -0.12641016 0.02537462 0.2698575 0.35322273 0.21814649 0.2204302 0.16515252 0.26379713 0.38529193 -0.20065938 0.22143915 -0.0020184815 0.2647869 0.0878817 0.009687279 0.02173656 -0.11137462 -0.2401177 -0.23094516 -0.2388248 0.31316718 -0.27215388 0.18608892 0.14144512 -0.15673487 -0.021676702 0.5892371 -0.11693534 0.11536478 0.04127675 0.17794791 0.17076169 0.21239576 0.009343336 -0.19296275 -0.12703075 0.43893653 0.0733309 0.22136234 0.33565992 0.15995124 0.062479533 0.06930087 0.029644381 -0.22437237 -0.10123489 -0.18185258 0.10035924 0.25753993 -0.16709268 0.10935663 0.27525452 -0.17262922 -0.1017536 0.2843895 -0.15509398
57 0.0026097111 -0.023669967 -0.07224023 -0.004099441 -0.14627393 0.41234767 -0.21641345 -0.061110288 0.35524926 0.37336165 -0.27778924 0.533196 -0.17437881 -0.00044665986 -0.5344681 -0.057642017 0.5946594 -0.20482267 -0.12105496 0.11142625 -0.15378912 0.10377749 0.16987514 -0.17670992 -0.32571062 -0.25821266 -0.11588159 -0.35314676 -0.36824918 -0.06162558 0.17593297 -0.00069838355 -0.38689122 -0.019037556 0.36905536 0.31021285 0.17669135 -0.3679929 -0.33047876 -0.41129974 -0.19574177 -0.02691861 -0.10677904 -0.45182228 0.34277806 0.23515512 -0.13564488 -0.17714447 -0.3393976 0.046367265 -0.2012125 0.08003791 0.432098 -0.36693466 0.3301807 0.049270574 0.13698666 0.055558417 0.22495241 -0.029294759 -0.25587204 0.4021322 0.09267734 0.50034434 0.3277736 -0.16345988 0.22282915 -0.042612996 0.1586751 0.07813148 -0.41968566 0.21142304 -0.29232424 -0.26085755 -0.43481278 -0.058836002 -0.38807565 0.8774472 -0.3890897 0.49567613 0.046269983 0.40688926 -0.061307695 0.47579047 0.25439075 -0.0120330965 0.25029248 -0.017544577 0.43223083 0.3806223 0.1802053 -0.34652 0.23638836 -0.11953337 -0.016536845 -0.27636448 -0.09755929 -0.053168382 0.116036125 -0.065447256 0.055671986 -0.066812634 -0.19680539 -0.38166118 -0.15087712 0.45934987 -0.31560016 0.45993507 -0.027712638 -0.06243425 -0.023886038 -0.6486672 -0.12851956 0.0072629615 -0.026432492 -0.25459704 -0.17654754 0.052892886 0.08321578 0.1010919 0.26832736 -0.14218773 -0.2856298 -0.1394107 -0.16876595 -0.4036152 -0.20712754 -0.0021772992
59 0.08897376 -0.48219976 0.27925205 0.062259126 0.1709638 0.31760484 -0.24288927 0.24185362 0.26333728 0.07952405 -0.25100988 0.47402155 -0.082150206 -0.26892492 -0.20134196 0.04454356 0.528917 -0.034252994 -0.07757174 -0.0014891896 -0.12656203 -0.12712128 0.28200927 -0.12838358 -0.18962419 -0.01313363 0.05938871 -0.28230995 -0.3127556 -0.10327374 0.31546775 0.045330018 -0.37218794 0.27926615 0.079837605 0.10575829 0.33725715 -0.22853398 0.35180473 -0.47386533 0.06454755 -0.0044166693 -0.10823437 -0.10362937 0.47145358 0.5039781 0.24201578 -0.17379507 -0.32618922 0.019441387 -0.3034519 -0.16134842 0.456528 0.011101826 0.5349459 -0.02899832 0.113547355 0.1136015 0.1620596 -0.1250613 0.22819458 0.2331592 0.30204228 0.4844771 0.22265196 0.012479683 -0.20388438 -0.14084114 0.35633394 0.12692085 -0.2651299 -0.048244327 -0.2908742 -0.29143476 -0.50501066 -0.20023228 -0.3903666 0.53412527 -0.43128228 0.8865234 0.17674975 0.49942985 0.06927364 0.6223441 0.24136879 -0.108966604 0.26473558 -0.04277704 0.83900803 0.56085086 -0.07782628 -0.5561319 0.15664221 -0.18426247 -0.2434953 -0.19020927 -0.33480972 -0.123882614 -0.2953176 0.004596697 -0.19545452 0.05636485 -0.1725161 -0.29613233 -0.28353646 0.13704838 -0.77040017 0.16989729 0.011784753 -0.24947087 -0.32282573 -0.62276405 0.0891652 0.034413062 0.07051745 -0.4608943 0.04962377 0.17861593 0.010513325 -0.20740058 0.019021597 -0.21013221 -0.34353235 -0.16997989 -0.43739253 -0.5016898 -0.03229349 -0.2455603
63 0.6186925 -0.1859595 0.32206216 -0.058208857 0.26249373 0.035413787 -0.045271147 0.2720506 0.095043935 -0.10138429 0.5580992 -0.059215743 -0.28584632 -0.53249836 0.8324116 -0.22246414 0.4744449 -0.14981201 0.12787247 -0.5047319 0.08113587 -0.12916689 0.28209054 0.2456638 0.018926885 -0.040088814 0.2720032 -0.03706262 0.21865176 -0.14617854 -0.1871305 -0.17161456 -0.010317194 -0.029569274 -0.39760536 0.03981469 0.5103151 0.013007496 0.6430634 -0.2021632 -0.09048193 0.16661958 -0.026088763 0.1641387 0.34645852 0.34093142 0.18225232 0.22067831 -0.1638729 0.61492527 -0.62924975 0.17290981 0.5363265 0.5394864 0.3538268 0.11396357 -0.07833251 0.576009 -0.0850343 -0.2847104 0.36938128 -0.23230322 0.10231021 0.49512202 0.3904228 0.23678459 -0.31071252 0.12128611 -0.10389246 0.21409857 0.12798937 -0.2445491 -0.03280746 -0.33453622 0.117205024 -0.1294951 -0.34744796 0.42671964 -0.045700297 0.8174859 0.4087864 -0.11651133 0.1139619 0.45544732 0.0044384035 0.3441144 0.4909289 -0.2971539 0.38947883 0.62722135 -0.88450086 -0.7502575 0.47090605 -0.14474429 -0.1962254 -0.21165058 -0.25586239 -0.36269623 -0.41545913 -0.38934362 -0.53153086 -0.05724005 0.06381467 0.09586893 -0.1707032 -0.09267661 -0.34895563 -0.12894607 0.0390958 -0.80959123 -0.003998607 -0.47727102 -0.013355909 0.13675326 0.016351445 -0.56447625 0.2526129 -0.06808103 0.09363406 -0.43189806 -0.5215795 -0.108346954 0.08217056 0.4163461 -0.40496525 -0.4657223 -0.459526 -0.33124253
96 0.10564136 -0.32051373 0.26621744 0.25324535 0.30331284 -0.1351072 -0.30832875 0.07456086 0.1028713 -0.10699566 0.12587707 -0.09420123 -0.052301865 -0.32231587 0.48788106 0.022151487 0.057476796 0.37953737 0.21370354 -0.16733961 -0.12534624 -0.10352352 0.35509837 0.32671142 0.30640334 0.2210716 0.2575687 0.07043381 0.0064331708 -0.04318238 0.045675434 -0.0044280146 0.25677097 0.22552662 -0.3545696 0.05921138 0.3284896 0.19323345 0.25016338 0.09166396 0.026481168 0.060723662 -0.055235684 0.17355306 0.13150826 0.2024564 0.25867835 0.14745474 -0.04111102 0.12921971 -0.35336778 -0.22682127 0.15772185 0.18584804 0.027223846 -0.17449023 -0.10750937 -0.053579263 -0.14258163 0.027408438 0.33246934 0.031661667 0.061759703 0.14915791 0.4368531 0.017177248 -0.24986684 -0.21097253 -0.075597 -0.013884329 -0.0104744965 -0.4382856 -0.37023568 -0.30225444 0.090819344 -0.2565379 -0.13878347 0.2084273 -0.049581338 0.3684776 -0.10282238 -0.10954192 -0.17404166 0.3527316 0.04555483 0.16283278 0.15500045 -0.18435806 0.02806967 0.073075466 -0.27048787 -0.04658216 0.40084603 0.0971794 0.09109102 0.10432665 -0.30692092 -0.3761214 0.09566087 -0.12948398 -0.19491231 -0.18801193 0.10792696 0.26378673 -0.17617351 -0.23384877 -0.13300304 -0.18790363 0.25435248 -0.17349172 -0.1746869 -0.032712884 0.31973854 0.20779242 -0.25504532 -0.12726456 -0.13278393 0.10489451 -0.019880876 0.0060381196 -0.117085434 -0.09561798 -0.04096678 0.23585382 -0.4518037 -0.05161875 -0.021125074 -0.059630953
62 0.14878131 -0.39084876 0.25700945 -0.20707247 0.35026732 -0.07238504 0.06866991 0.18060583 -0.029732872 -0.47923076 0.2104265 -0.0131257335 0.024396433 -0.4889233 0.6309994 -0.014258238 -0.031133244 0.098730244 0.025903355 -0.30787826 0.10925828 -0.123504 0.32032773 0.21879719 0.26858908 0.23953733 0.34109247 0.18659908 0.36935985 -0.32688394 -0.06310333 0.024422854 0.18643978 0.09476428 -0.30056402 -0.035057448 0.25272563 0.15230493 0.48195136 -0.21218048 0.28316966 0.16064173 0.08086626 0.32450148 0.30068538 0.32227498 0.4013308 0.15331219 0.092086665 0.2737178 -0.1901604 0.21063064 0.28786388 0.802978 0.08659658 0.32330608 0.3017283 0.6873327 -0.100390755 -0.115261875 0.29103073 -0.32396886 0.302061 0.13344772 0.27780363 0.37471122 -0.30685353 0.19848813 -0.15705897 -0.044647466 0.35489246 -0.56556475 -0.474774 -0.36976805 -0.01779537 -0.30505517 -0.11098716 -0.061042 -0.12033693 0.7718498 0.45502284 -0.13261461 0.079833455 0.52020603 0.10970412 0.57300633 0.22413073 -0.3141588 0.36695984 0.4489618 -0.61245877 -0.5640085 0.48589864 -0.24097313 0.008273977 0.07516016 -0.35120597 -0.100711636 -0.47547752 -0.09464846 -0.4284467 0.11315781 0.28697765 0.39520523 -0.11166651 -0.32081833 -0.13129589 -0.4835401 -0.21588735 -0.5754187 -0.24076392 -0.15259087 0.079497285 0.025688844 -0.056770463 -0.5246237 0.29524544 -0.021150196 -0.09444836 -0.46280757 -0.5388038 -0.2021449 -0.0035843127 0.1704674 -0.18965259 -0.09592398 -0.15842506 -0.39110473
37 0.026446562 0.4680136 0.2200002 0.19710137 -0.024702847 0.039378658 -0.27795228 -0.08326566 -0.15360504 -0.34162086 0.11533545 -0.07375414 -0.6511724 0.61805725 0.03753394 -0.16484493 -0.39319274 0.48845357 -0.06871072 0.2959213 0.009014876 0.057403225 0.20909561 0.1557011 0.13407624 0.39906943 -0.16505629 -0.030818323 -0.077333316 0.25266004 -0.33096224 -0.09607667 -0.09133717 -0.14911099 -0.05754767 0.0014986723 -0.28766298 0.5314286 -0.38313067 0.102077276 -0.28521028 0.062472302 0.2921675 0.24361986 0.30575994 -0.26990834 -0.30123368 -0.18627629 -0.14040703 0.12661289 0.9615108 -0.08932164 -0.22591983 -0.15572132 -0.23138337 0.3345565 0.6979741 -0.19583717 -0.3655469 -0.6156558 0.034777593 -0.24239273 0.22590837 -0.5860696 0.11236557 -0.6535546 0.20281935 0.46170148 -0.15929146 -0.4142543 0.2708407 0.16814247 -0.2454818 0.40054595 -0.20808114 -0.31612444 -0.3707179 -0.2664449 0.047095686 -0.22176388 -0.35619456 -0.10125467 0.0022453954 0.07297132 -0.48282856 0.15546028 0.616555 -0.466563 -0.027209567 -0.049790516 0.17355472 0.27361947 -0.42580694 -0.23999721 0.53975594 0.14761417 0.36526197 0.010047 -0.3329492 -0.26030865 -0.08725224 -0.211186 0.2029075 0.41755614 -0.100257054 0.25889286 0.69117326 -0.22551788 -0.5599684 0.17781943 0.15406024 0.13447517 -0.33719626 0.08137222 -0.035379216 -0.18715605 0.05871258 -0.05850711 0.40491402 0.48143426 0.24201784 0.32222682 0.041655663 -0.16045423 0.03727576 -0.113066815 -0.46521103 0.5805926
32 -0.09662201 0.13621567 -0.02906154 -0.12953843 -0.527034 0.04236164 -0.05089009 -0.11064817 -0.32059988 -0.029474122 0.13006504 -0.050426945 -0.14913934 0.5034795 -0.31733552 0.18539715 -0.29987967 0.2421336 0.15302905 -0.26852635 0.3064598 0.70344883 -0.40964764 -0.56109214 -0.6839163 0.19642912 -0.79554254 0.16942856 0.091629066 0.2300288 -0.40775898 0.19273646 -0.25785047 0.0051493566 0.44654116 -0.1256574 -0.16568778 -0.017350592 -0.31514785 0.10562437 -0.1278266 0.045211453 0.18456177 -0.22613356 0.39013767 -0.40773478 -0.64846754 -0.30846095 -0.043835074 -0.068457104 0.9035899 0.28791258 -0.10123684 0.16730085 0.14534627 0.33804095 0.70621574 -0.12516996 -0.502728 0.33474264 -0.14764479 -0.41508254 -0.047064282 -0.9022312 -0.20827411 -0.34826687 0.30486992 0.29979116 -0.08448254 -0.16511212 0.6750567 0.2916016 -0.29647166 0.056674525 -0.10684266 -0.0019195994 -0.24478532 -0.32789013 -0.01399562 -0.41026473 -0.11175872 -0.08227094 0.36827275 0.27482945 0.082832664 0.03353016 0.19955896 -0.086115204 -0.22131088 0.20484331 0.0013153147 0.05898014 -0.5718803 -0.14035767 0.82859576 0.087835476 0.117592014 -0.29350975 -0.4763302 -0.27112147 -0.22881462 0.38254133 -0.07330334 0.19356154 0.6455702 -0.17794813 0.66095394 -0.39827448 -0.43396422 0.17086484 -0.083728924 0.07609898 -0.42901963 0.028941764 -0.20249066 0.3286926 0.027240593 0.0871463 -0.2720977 0.2206034 0.21569923 -0.22255872 -0.24646717 -0.19257852 0.52399975 0.1850875 -0.25101665 0.13569337
117 0.5336251 -0.30818984 0.50581956 0.44263652 0.37163672 0.004063788 0.00393532 0.5457268 -0.3041678 -0.103255816 0.44185692 0.1574255 -0.32452318 -0.41346842 0.5882612 0.42564398 0.21681333 -0.090477854 0.1387598 -0.46852413 0.0858111 -0.065975495 -0.13257368 -0.15741158 -0.37334237 0.28014877 0.18325526 0.21563444 0.1087961 -0.065246016 0.11688719 -0.3507505 -0.023085 0.55103093 -0.35379612 0.2750628 0.3666964 -0.07855894 0.9656436 0.06677827 -0.20009725 0.05716201 -0.36310554 0.22644013 0.24866597 0.07941975 0.00033061433 0.47479066 -0.43411762 0.31381777 -0.25306976 -0.10552071 -0.05709823 0.31529164 0.24763842 -0.52406687 -0.17288285 0.06534938 -0.40266374 0.028060917 -0.26768917 -0.0421216 0.1127088 -0.06637432 -0.32119867 0.25554878 -0.18031667 -0.2552146 -0.04289832 0.38207492 0.23293789 0.13687782 0.12636518 -0.46212682 0.04317102 0.10517078 -0.12150151 -0.13362084 -0.02680995 0.062951125 0.31084287 -0.09584077 0.6280982 0.49471307 0.09611138 -0.3965966 -0.10719908 -0.21166843 0.20648083 0.5083743 -0.3035722 -0.27076238 0.00019636218 -0.2554478 -0.008959342 -0.09382038 -0.14081773 0.02947046 -0.26579154 -0.17779645 -0.23673095 0.017827904 -0.36286858 -0.17908452 0.5868505 -0.78999597 -0.6313373 0.32790953 0.41647306 -0.20032436 -0.11504704 -0.30175287 0.22097851 -0.4835048 0.115514554 -0.02498571 0.3315247 0.12820043 -0.1366553 -0.49426767 -0.06884131 -0.21279688 0.13120322 0.27719873 -0.27824885 -0.19224462 -0.113398105 -0.1642218
40 -0.63503146 -0.5238668 -0.38666442 -0.34908757 -0.05273845 0.09737454 0.26457387 0.021732457 -0.5467095 -0.062786475 -0.15993814 -0.51789653 0.22627322 0.2717168 -0.1544051 -0.015596163 -0.51773614 0.1788554 0.13830055 -0.16997138 0.14934658 0.5354955 -0.5669786 -0.40385604 -0.15944014 0.23109472 -0.64025414 0.4544038 0.1114831 -0.016713731 -0.22227268 0.047231793 -0.1044602 -0.21198407 0.00083419256 -0.54099923 -0.3667878 -0.18956709 0.12176285 -0.03914618 0.40518486 -0.074419476 0.26844272 0.12822406 -0.29880345 0.13993753 -0.24823399 -0.30505246 0.14478768 -0.375352 0.2811529 0.10887007 -0.075841784 0.052316364 0.15335943 0.00011219473 0.09854065 -0.27456293 -0.34309816 0.6041782 0.47202903 -0.8253259 -0.020974908 -0.7977163 -0.10707439 0.19321822 -0.26226225 -0.13284767 0.017882379 -0.35732174 0.010657085 -0.43398607 -0.5569613 -0.27867293 0.17905696 -0.63330215 0.0140198795 -0.67037326 0.004621151 0.08660033 -0.18302864 -0.054948542 0.08740911 0.23747264 0.23976223 -0.160964 -0.25638202 0.17767738 0.09926114 0.13298362 -0.11288746 0.5782851 -0.064717345 0.53137505 0.2847846 0.18329889 -0.08148552 -0.5099458 -0.83611894 -0.12338698 -0.049274378 0.23885846 -0.6086034 0.031787686 0.038473777 -0.18332887 0.14805909 -0.05224151 0.21335046 -0.18086798 -0.026645977 0.019751474 0.6701983 0.035343483 -0.4977242 0.08486177 0.22595046 0.14082249 -0.13763684 -0.20951025 -0.30408427 -0.034800485 -0.37052226 -0.21219005 0.006775274 0.2759591 0.08627567 -0.48708868
94 0.16841465 -0.15292558 0.26584297 -0.16585778 0.018495748 0.05546672 -0.2405024 -0.05529643 0.2222731 -0.12932952 0.14855714 0.009022037 -0.04966367 -0.25068358 0.3184935 -0.20258284 0.33109182 0.11884116 0.16284628 -0.061940353 -0.023259772 -0.023269676 0.2169329 0.19205558 -0.0921099 -0.028120952 -0.03201099 -0.25721475 -0.011220067 0.022804637 -0.09523846 0.23728181 -0.078301184 -0.037874375 -0.23361778 0.14665537 0.42757085 0.14372621 0.31025603 -0.13915247 0.14780515 0.19505961 0.008072523 0.07206755 0.46644035 0.30270195 0.12982702 -0.22988872 -0.12781304 0.09922385 -0.16938113 0.07421699 0.46223038 0.28156117 0.34609377 0.20531344 0.29821816 0.30852485 -0.06395198 -0.24740903 0.61898065 -0.31132245 0.15978561 0.32963613 0.6252398 -0.13790233 -0.1957351 0.005092085 -0.026245777 -0.15936074 0.106748275 -0.3614299 -0.26021007 -0.01969263 -0.11511038 -0.17574577 -0.4119285 0.2529571 -0.06839008 0.75031024 0.0043591387 0.07649214 -0.14531595 0.4152457 0.11325833 0.36862016 0.4952352 -0.122012824 0.42279705 0.38074994 -0.6034943 -0.35880357 0.13529228 -0.02936268 0.1329217 -0.03702792 -0.3123782 -0.42553294 -0.2535583 -0.23517144 -0.42180818 0.13091643 0.10476554 0.20454799 -0.2325957 0.070420966 -0.09219855 -0.47387502 0.0899183 -0.42819113 -0.21708806 -0.1056178 0.076604955 0.39990637 -0.12876056 -0.40275666 -0.05083069 0.08379987 0.050297316 0.2122546 -0.09583612 -0.110070765 -0.16636668 -0.007731447 -0.4890027 -0.36168656 -0.1275786 -0.26417
111 0.20956656 -0.5278761 0.24832654 0.19324234 0.20935032 0.13828254 -0.17355105 0.28213027 0.08920561 -0.09120319 0.1699404 0.009902754 -0.19224398 -0.08909867 0.6655016 0.3046542 0.12114119 0.11157465 0.13625188 -0.23903435 -0.03228752 0.044943333 0.14447305 0.023611944 0.19779338 0.05479693 0.07994304 0.19324313 0.30775166 0.02013914 -0.12793013 0.019087056 0.15991834 0.24066685 0.12184768 -0.0076424163 0.1963776 -0.09052365 0.25849488 -0.113992214 -0.005348224 -0.110192835 0.0075188386 0.09041015 0.41314402 -0.10201289 0.026491888 -0.01689295 -0.120309204 0.2533554 0.22928496 -0.073168464 0.2984242 0.3590452 0.12321353 0.18182378 0.26426047 0.35012847 -0.14251034 0.08674092 -0.13967781 -0.21964887 0.4555926 -0.021229398 -0.18442959 0.17865719 -0.03669386 0.30376798 -0.1380095 0.07589669 0.16303085 -0.19101784 -0.22364952 -0.11223211 -0.16129567 -0.36999077 -0.20735659 0.118034974 -0.40544635 0.32876018 0.10105477 0.117281854 0.021839364 0.39158854 0.06925123 0.15897195 0.28185865 -0.3879149 0.44467297 0.5221392 -0.20445575 -0.41430366 0.044850882 -0.1933091 0.026183005 -0.12762456 -0.15410739 -0.09500168 -0.27815187 -0.16764094 -0.11228182 -0.101601236 0.0124093145 0.018256957 -0.21488504 0.14268123 0.050956715 -0.018705256 -0.4553501 -0.24274983 -0.16995116 -0.15494892 -0.18849689 0.26463267 0.033999477 -0.23399532 0.108915165 -0.1269483 0.10732887 -0.1537753 -0.3760222 -0.019028103 -0.005284503 0.1528144 -0.051449224 -0.08339354 -0.33985186 -0.10482468
78 0.051697392 -0.075557664 0.05402081 -0.069590405 0.06090068 0.11812748 0.14500259 0.08499082 0.03672867 -0.10508133 0.06872597 0.18677716 -0.15546001 -0.21530738 -0.115485944 -0.07921043 0.083856456 -0.12161392 -0.04653376 0.03766322 -0.10112587 0.076012515 0.10406369 0.088014044 -0.017353075 -0.0076240543 0.29461968 0.055738334 -0.010027376 -0.43707812 0.116446376 -0.09775614 -0.18239167 -0.07676115 0.023621475 0.30640334 0.18010843 -0.24838394 -0.11861068 -0.3024458 -0.04701879 0.23599587 0.014740974 -0.10324684 0.17620614 0.24387932 0.022365263 0.09083934 -0.03447525 0.07068447 0.15887901 0.18776365 0.1636314 0.07232447 -0.08220529 0.084125616 0.4135603 0.3006322 -0.07383993 -0.13167295 -0.30507404 -0.05882316 0.14402263 0.23838817 0.26665238 0.0003860661 -0.01830034 0.3212664 -0.31068465 -0.25928172 -0.06008607 -0.08446315 -0.36485335 -0.37922665 -0.36610073 -0.19715464 -0.14309883 0.14674172 -0.26416785 0.5128164 0.26490256 0.07403524 0.034737647 0.027403839 0.034920674 0.36821964 0.05357157 -0.2938995 0.19937319 0.36577958 -0.0428118 -0.1762395 0.5034496 -0.10489412 -0.10558928 -0.19045345 -0.022714289 0.04788287 0.044042934 -0.12783334 -0.08780974 -0.006187714 -0.07695552 -0.04783398 -0.108849816 0.06996479 0.014892177 0.18560411 -0.1800809 -0.3107895 -0.10921743 -0.41985673 0.031939227 -0.19338003 0.093478054 -0.34346792 0.22393401 -0.069637775 0.057711218 -0.14719868 -0.1552567 -0.05125675 0.031245956 -0.17061387 0.1712524 -0.136611 -0.01930353 -0.054049626
79 0.359533 -0.61606014 0.19412649 0.16995138 0.021465786 -0.15566777 -0.20206094 0.123832375 0.34346026 0.44224995 -0.013368109 -0.23506002 0.069464915 -0.33753008 0.50343347 0.370871 0.41373494 0.08486235 0.3792428 -0.054038264 -0.03184562 0.1670046 0.052427445 0.07144025 -0.10582715 -0.25634792 -0.0036737355 0.13743295 0.19691361 0.078013726 0.021562712 0.24930312 0.20062132 0.47029594 0.020267623 -0.081107 0.46951637 -0.46471602 0.10333114 0.06868576 -0.23258919 -0.16547638 -0.30525795 -0.35763374 0.34427717 -0.0032015354 0.07609912 -0.0325915 -0.2505797 0.02234356 -0.22872654 -0.133433 0.5540109 0.20325045 0.22295757 -0.051693004 0.27823633 0.083862625 -0.05595195 0.4352241 -0.05498105 -0.020318246 0.32130834 0.32294905 0.024537368 0.06472458 -0.09683231 -0.023945926 -0.10475335 0.19161318 -0.037317596 0.021090781 -0.20050353 -0.14045058 -0.1953171 -0.17721377 -0.05022193 0.44492656 -0.31941688 0.48175785 -0.028049733 -0.04774709 -0.12927268 0.25530228 0.48889467 -0.023740403 0.22488104 -0.18559895 0.28016728 0.5576646 -0.21839061 -0.6034547 0.22022335 0.10117913 0.07988557 -0.2853355 -0.4180268 -0.65746754 0.08239195 -0.2758212 -0.28116304 -0.007001873 -0.20793526 -0.31405848 -0.10730135 0.095799506 -0.12055604 0.1277807 -0.03384344 -0.30573127 -0.33255666 -0.30011556 0.038755853 0.5664103 -0.0979752 -0.089037105 0.109865524 0.10577742 -0.15158975 -0.06661868 -0.38137865 -0.37486923 -0.1252154 0.14391689 -0.18003245 -0.21442056 -0.0848524 -0.10507763
102 0.17668074 -0.5167764 0.2754903 0.25677532 0.25895447 -0.079300135 -0.3399103 0.31427878 0.41635963 0.09824565 0.037688572 -0.32607558 -0.09550361 -0.0006198105 0.7016252 0.45047206 0.06458722 0.15194954 0.12986282 -0.084504865 0.034148928 0.0508376 0.17853199 -0.041917346 0.42031124 0.09303815 0.09239052 0.13998817 0.33696774 0.15413572 -0.29181108 0.21599019 0.25927874 0.29285455 0.17852633 -0.19454403 0.09081632 0.0049678036 0.12529476 0.20442997 -0.09256529 -0.09034811 0.09830308 -0.029939223 0.08795405 -0.22877082 0.20704313 -0.11805952 0.045914534 0.12571354 -0.0760343 -0.22392234 0.30083656 0.24196012 0.00020172424 0.056376044 0.11199652 0.25634474 -0.15050593 0.077364184 0.1118596 -0.12289215 0.425781 -0.00013269036 -0.23361945 0.15446976 -0.2329592 0.31818518 0.10104276 0.061923906 0.010660184 -0.20521303 -0.1580914 0.02416136 -0.035620775 -0.42878994 0.017011328 0.044233497 -0.2542238 0.14766692 -0.10335953 -0.1966514 -0.14829627 0.28628427 0.2265063 0.18213682 0.33363685 -0.30706027 0.28324813 0.33377546 0.031643994 -0.5116599 -0.048642807 -0.040575534 0.23177168 0.026966844 -0.10257305 -0.23477428 -0.11545955 -0.35977986 -0.06536391 -0.20170185 0.006294448 0.011196999 -0.23647752 0.061423913 0.025775803 0.025658906 -0.25113562 -0.2728387 -0.045077655 -0.08124529 0.07216591 0.34273088 -0.053818632 -0.33534452 0.0673757 -0.17288904 0.1157466 -0.24922246 -0.547784 -0.03526287 -0.06596073 0.08659123 -0.29135486 0.0807728 -0.24269667 -0.060242858
41 -0.21052453 -0.20934331 -0.16875494 -0.3744849 -0.03151868 -0.13792737 0.20542479 -0.12636024 -0.0648287 0.17035593 0.26056334 -0.34255627 0.3734803 -0.23831892 0.21724659 0.21178435 -0.4133994 -0.13339168 -0.020410148 -0.030277947 0.3288054 0.38339555 -0.6717962 -0.36295778 -0.5701252 -0.15727136 -0.2969846 0.16281702 0.27288178 -0.14386508 -0.25735024 0.26966527 -0.13991632 -0.30179948 -0.12717786 -0.065082796 0.036822386 -0.027887175 0.088097714 0.07658513 0.29252356 0.20746952 0.018556187 0.14212489 -0.31282085 0.09216383 -0.016103506 -0.43916136 0.28695932 -0.28497827 -0.28449133 0.5971318 0.15608573 0.21725194 0.12799245 0.13393667 0.064651586 0.15468971 -0.09479874 0.2984903 0.62229735 -0.67885286 -0.022003088 0.018371128 0.0019454197 0.19667199 -0.031012636 0.06736052 -0.022489509 -0.27271807 0.06372571 -0.2830912 -0.2023167 0.07058051 0.28452775 -0.23301211 0.21151736 -0.6706906 0.3186389 0.34571195 0.2170049 -0.24645634 0.25648394 -0.014497381 0.52208817 0.039234143 -0.046906322 0.11989442 0.015257978 -0.24220908 -0.35812595 0.08133199 0.09149876 0.218299 0.41370592 0.19698665 -0.033877157 -0.32732975 -0.45120192 -0.4037252 -0.18934402 0.448888 -0.31108457 -0.1401201 0.30241066 -0.14238565 -0.0017935446 -0.22319296 0.5474808 -0.53139645 0.4573441 0.31046867 0.559142 -0.1157409 -0.034407843 -0.10905906 0.17347638 -0.07386205 -0.14326708 -0.1988927 -0.18891746 -0.2264337 -0.13406247 -0.18743186 -0.15569156 0.013442071 0.39884698 -0.52891093
105 0.17147551 -0.86099285 0.50533646 0.46147394 0.27050078 -0.13402805 -0.23096828 0.21470585 0.1912005 0.08606241 0.06313111 0.16436276 0.061744094 -0.35527995 0.72093016 0.8550674 -0.16365866 0.39580432 -0.012037994 -0.011246454 -0.08746876 0.14355962 0.037216146 -0.030509485 -0.06044296 -0.13203287 0.100058645 0.23057687 0.25271225 0.022400184 0.18489835 0.17827888 0.23181795 0.6260983 0.16584285 0.08349846 0.31280118 -0.084738284 0.3220738 0.050168786 -0.05999309 -0.13018422 -0.18111846 0.09712944 0.42078787 -0.18207185 0.08190462 -0.06920435 0.0097537525 0.013441015 0.29691696 -0.14525637 0.15684545 0.34020323 -0.013329997 0.06535518 0.34939733 0.11811596 0.082104735 0.34944934 -0.1591602 0.121286206 0.49365103 -0.011828637 -0.40431237 0.10651399 -0.11038982 0.094587825 -0.01683237 0.22355703 0.2589284 -0.06594212 -0.25216815 0.01687219 -0.18211235 -0.311111 0.031868707 -0.12146557 -0.39861664 0.4317147 0.14295077 0.12372141 0.12652098 0.43559423 0.29404613 -0.044950895 0.12692268 -0.32645622 0.4429744 0.32230353 0.17609021 -0.53130496 -0.06888944 -0.31139034 0.23330694 -0.04373043 -0.3734027 0.07647443 -0.21075061 0.1417464 -0.11458935 0.069378965 0.049429443 -0.07121721 -0.08322224 0.031315666 -0.060676213 -0.08248923 -0.4071782 0.0831452 -0.25609195 0.11658501 -0.08768916 0.32767385 0.29762504 -0.12516466 0.074608594 0.11489906 -0.08715143 -0.20417604 -0.26037312 -0.14654648 -0.14519247 -0.009305158 0.050450437 -0.01425847 0.14701214 -0.060298122
35 0.069574215 -0.2062253 0.42236286 0.057674296 -0.029833619 -0.14014176 -0.27993202 0.023426203 -0.06451466 -0.24392906 0.21621732 -0.14017618 -0.22853816 0.08251156 0.48017067 0.4636571 -0.410782 0.4556293 0.11726432 -0.012431553 0.19203895 0.3996332 -0.23721702 -0.11434232 -0.39460444 0.23117748 -0.3893916 0.13799728 0.21256733 0.29725343 -0.32966498 0.31317112 -0.09220774 0.06766249 0.10032398 -0.14034343 -0.05081952 0.34887388 0.021862201 0.16897888 0.044842325 0.029951898 0.11255292 0.2402509 0.38879192 -0.31827325 -0.15320916 -0.4189858 3.1906224e-05 -0.10947698 0.80151975 0.1973576 -0.021286301 0.4129086 0.09189664 0.32872504 0.95901316 0.14208722 -0.36270097 -0.047077384 0.25643763 -0.57414186 0.38075852 -0.61176246 -0.0749971 -0.24652986 -0.034313433 0.33420962 -0.07299985 -0.19181515 0.71560514 0.039038252 -0.3720043 0.3290215 -0.12850769 -0.3042953 -0.17406484 -0.47929588 0.003327988 0.083823696 0.022910494 -0.109353036 0.2503197 0.15095411 0.03596353 0.17885566 0.34539732 -0.192334 0.051410727 0.17444023 -0.24182013 -0.14088921 -0.57275814 -0.32601488 0.60301703 0.097620755 -0.062107235 -0.20224331 -0.641692 -0.22470017 -0.2520262 0.33682007 0.14293194 0.37035468 0.2645802 -0.099857256 0.4925922 -0.67917997 -0.48631108 0.006728311 -0.088902794 0.39232337 -0.25293964 0.26887566 0.002272275 -0.04547125 0.16108038 -0.004346236 -0.020130783 0.24795915 -0.06353394 -0.19999751 -0.11718981 -0.10646739 0.15996942 -0.046129994 -0.1495223 0.11997877
95 -0.15221302 -0.17192334 0.0075439755 -0.36390987 0.08850206 0.366905 -0.15436417 0.0033045914 0.07741746 -0.3004149 -0.013382909 0.09431582 -0.14231981 0.038091067 -0.03217537 -0.541532 0.28795972 0.07746666 -0.018841196 -0.0797057 -0.06727186 -0.053580966 0.2880539 0.14822565 0.2642868 0.1484875 -0.0648245 -0.27160078 0.0025895666 -0.11608744 -0.1073256 0.13340819 -0.15669224 -0.2506062 -0.1360953 -0.005431371 0.12355079 0.092735946 0.09312318 -0.36786923 0.26549456 0.08186648 0.26034495 0.119840056 0.3545171 0.36726224 0.13458452 -0.40182707 -0.089555316 0.05065145 0.12317663 0.059377883 0.36790487 0.18953678 0.33561122 0.46510193 0.28462175 0.28400168 -0.059592735 -0.34849176 0.57243794 -0.3805819 0.20567915 0.18795224 0.6084808 -0.044909097 -0.1268623 0.17412859 -0.0064181164 -0.34021345 -0.043709084 -0.51421255 -0.4702549 -0.07166188 -0.24430273 -0.39729235 -0.47439894 0.25575095 -0.26193836 0.7777965 -0.06510456 0.32653528 -0.22446068 0.39015067 -0.11687279 0.49702126 0.4390185 -0.20518845 0.6367507 0.44021997 -0.49815518 -0.11496544 0.1538308 0.0056622745 -0.050214242 -0.025526462 -0.1457619 -0.32708827 -0.43365756 -0.232571 -0.24423419 -0.026781566 0.05154714 0.20394588 -0.56549394 0.37085152 -0.07846395 -0.41410232 -0.1862123 -0.42673317 -0.1150312 -0.32110178 0.110748276 0.3575124 -0.17950583 -0.5104961 -0.11979922 -0.13149272 0.2376877 0.16211659 -0.11252624 0.10269087 -0.18622813 -0.122008786 -0.40756357 -0.285023 -0.33059385 -0.31431684
55 0.40207574 -0.5301218 0.27325705 0.55391335 0.16726466 -0.19106537 0.101395324 0.28147924 -0.22870655 0.29259565 0.21793696 -0.12849084 -0.08677125 -0.41072094 0.5409254 0.55674887 0.05860575 0.11472725 0.3259186 -0.49292922 0.099817745 0.20061879 -0.23293692 -0.17953116 -0.376179 -0.06845597 -0.038279787 0.44479424 0.20338081 -0.030742398 0.2005525 -0.25846174 0.22019018 0.61423177 -0.0016919384 -0.010040115 0.29678103 -0.402394 0.56532514 0.26144972 -0.27632067 -0.11488845 -0.40162078 -0.09443229 0.029419677 -0.06528955 -0.1876101 0.6189931 -0.25129133 0.2620879 -0.29160637 -0.21996692 0.0045993244 0.21909952 0.103926025 -0.5421477 -0.34648973 -0.15173428 -0.27270153 0.5916664 -0.50437886 0.1960994 0.03246268 -0.18394913 -0.45362264 0.26095077 -0.15997417 -0.27532506 -0.038690045 0.5662062 0.029484589 0.22884953 0.009058002 -0.5728526 0.15293969 -0.08213477 0.09548596 0.008899513 -0.13005215 -0.108939834 0.23742819 -0.21496224 0.39411354 0.41645992 0.46786493 -0.5215382 -0.24190108 -0.12544204 -0.13397063 0.5509379 0.0382315 -0.27115366 0.21526882 -0.029038722 0.104343176 -0.15582082 -0.21419203 -0.14903684 -0.07990389 0.051155116 -0.096567184 -0.086175956 -0.41666335 -0.4409322 0.5231835 -0.6261123 -0.4628896 0.6149831 0.33079913 -0.116487995 -0.1510623 -0.3665866 0.18867497 -0.22062609 0.036080156 0.26694676 0.3299707 0.24805419 -0.35158005 -0.60062057 -0.25393218 -0.26517949 0.058142215 0.32686737 0.03021303 0.08559203 0.034872722 -0.043643188
112 0.562559 -0.13046077 0.49751374 0.25413778 0.18799777 -0.19748725 -0.118259355 0.35133433 -0.049226355 0.13660115 0.50154144 -0.017946076 -0.06436353 -0.47924078 0.62356335 0.28070006 0.36230022 0.03347224 0.31842312 -0.3072657 -0.05619168 0.0136515945 0.027050124 -0.18990062 -0.33363423 -0.3095502 0.034075037 -0.009438791 -0.090689145 0.13684677 0.23430933 -0.25159788 -0.06032795 0.45511657 -0.2633699 0.22697929 0.50494015 -0.063952886 0.6620363 0.09110992 -0.34590384 0.07128607 -0.48360476 0.0103617795 0.40971717 -0.025118448 -0.07509718 0.20209277 -0.3885553 0.26775813 -0.2076223 -0.16059387 0.1991151 0.2603614 0.3929894 -0.41626668 -0.031699795 -0.09623374 0.01720463 0.13980679 0.16928264 0.0103092035 0.034653246 0.25125903 0.063517354 -0.21245453 -0.1446637 -0.06104286 -0.10742749 0.37254933 0.075038634 0.1576056 0.29825765 0.0035557027 -0.043381974 -0.10583116 -0.25534165 0.006538964 -0.16023214 0.35428354 -0.065668315 0.060960077 0.27739382 0.50009084 0.3216356 -0.3210335 0.43613738 -0.26337463 0.28056985 0.3305229 -0.24093856 -0.5687121 -0.046306524 -0.015870262 0.27203232 -0.20372362 -0.18602149 -0.26457512 -0.2042858 -0.21278667 -0.46181244 0.0011593595 -0.33335334 -0.26044798 0.3132925 -0.42424425 -0.54064137 0.16263524 0.38039142 -0.3165562 0.04183168 -0.11002815 -0.0059632165 0.23466226 0.28491122 0.082558095 0.24313061 0.3132455 0.14391026 -0.032463986 -0.041649114 -0.063891225 0.077016875 0.055687074 -0.3485538 -0.38864666 0.08130871 0.045180045
98 0.18049715 -0.7038001 0.28054976 0.6500743 0.08629753 -0.036949582 -0.08187206 -0.038200308 -0.39067587 -0.20248914 0.019659279 0.23338641 -0.07731905 -0.10214875 0.59410614 0.64039123 -0.35128516 0.4492639 0.11097083 -0.5577356 0.20612788 0.25563043 -0.15268594 -0.10621724 -0.18279614 0.24864109 -0.11881612 0.48531717 0.4234634 -0.14824083 0.02928172 0.11161034 0.48707408 0.4946153 0.21858886 0.033414625 0.17452644 0.08942762 0.3681325 0.23228452 0.12335325 -0.028391803 -0.01955428 0.25017497 0.30387098 -0.14424823 -0.25549528 0.60110223 0.00017474091 0.24397787 0.24894294 -0.06564408 -0.09421694 0.45278662 -0.03946283 0.15531261 -0.07867702 0.05672073 -0.33801708 0.45565698 -0.5423789 0.16505384 0.20049928 -0.4825438 -0.42913476 0.42228886 0.054605097 -0.088072754 -0.10010453 0.31934783 0.502013 -0.10235534 -0.46655822 -0.53891647 0.32397303 -0.07104821 -0.029741848 -0.04189273 -0.13556492 -0.33866826 0.301349 -0.105705895 0.331208 0.4066467 0.14923033 -0.061993044 -0.28978783 0.019105291 -0.26403993 0.3901192 0.016053984 -0.01946149 0.105659746 -0.42202735 0.2582064 0.2452743 -0.1709183 0.09847568 -0.056391247 0.38713342 0.06594039 0.095898904 0.15109357 0.20388463 0.5462765 -0.51180375 0.041833114 -0.22164878 -0.26275402 0.21555269 -0.2724289 0.07694638 -0.081119716 -0.3322856 -0.103408955 0.2739833 -0.01576138 0.05372183 -0.52885383 -0.4243622 0.03518358 -0.24768788 -0.08639898 0.44388536 0.29224914 0.45980912 -0.110517815 -0.094802
51 0.3909352 0.38179258 0.26225325 -0.088580646 0.14075811 0.15114643 0.19864413 0.45751792 -0.42081982 -0.6706738 0.6736212 0.30700216 -0.5646823 -0.05896475 0.12047294 -0.060710832 -0.24353138 -0.28810033 -0.21905467 -0.4810489 0.40346196 -0.2214448 0.10987082 -0.3508001 -0.27553734 0.47047603 0.2952997 0.13663298 0.22674511 -0.4344317 -0.21465248 -0.45663872 -0.29776677 0.008787481 -0.16499987 0.34797654 0.12440317 0.3322692 0.46661696 -0.19361572 0.03910324 0.47700796 0.20038652 0.3031145 0.37942755 0.2037619 0.12158271 0.4188315 -0.1319204 0.7163731 0.06342716 0.39991835 -0.17183132 0.7251996 0.019628465 0.21160857 0.26406258 0.67131233 -0.50716704 -0.6465862 -0.21693344 -0.32432857 0.11687895 -0.15886801 -0.07435953 0.11707146 0.0024444675 0.59582615 -0.18468173 -0.08415264 0.64049625 -0.043792725 -0.040061533 -0.2823201 -0.098943315 0.09616991 -0.26735723 -0.557046 0.17771842 0.08193917 0.6609249 -0.17426872 0.73353815 0.40409055 -0.29243773 0.49383622 0.3173611 -0.38777992 0.25195244 0.34264004 -0.2647721 -0.54789376 0.15165403 -0.5080657 0.20023462 0.1540875 0.19791214 0.44862595 -0.58406293 -0.30538905 -0.5315827 0.27543017 0.21833207 0.25489196 0.645643 -0.73324156 -0.12198114 -0.27838072 -0.25737616 -0.5298075 0.054209515 -0.35077745 -0.29675406 -0.7898858 0.32319382 -0.4352471 0.66464055 -0.1372095 -0.0029562847 -0.71338177 -0.19182172 -0.09369743 0.14717066 0.07311985 0.15130168 -0.15700293 -0.42569685 -0.036757424
39 -0.46868634 -0.101202786 -0.2374739 -0.53904396 -0.15609278 0.077870905 0.4350214 0.0837221 -0.76873153 -0.105417974 0.184651 -0.597876 -0.028383758 0.1862934 -0.24720287 -0.3854913 -0.29385102 0.21201171 0.35818282 -0.32395026 0.066490375 0.54834306 -0.4879808 -0.22663268 -0.40529516 0.27967104 -0.5905826 0.32051814 -0.08981691 0.00872633 -0.101763815 -0.20298886 -0.35929534 -0.24668586 -0.3955844 -0.33054388 -0.14942037 -0.31565824 0.17633437 -0.17493267 0.11190809 0.026150087 0.00329128 0.10616786 0.04871485 0.18553397 -0.46461973 -0.27042708 -0.085096575 -0.23579052 0.6458338 0.18621811 -0.07780187 0.15265219 0.24191773 -0.12415716 0.46076334 -0.42204505 -0.5559767 0.5117445 0.4099682 -0.9976417 -0.10510517 -0.8598105 0.32950148 -0.21041462 -0.20879818 -0.09478241 -0.319092 -0.3925769 0.09890761 -0.17156957 -0.52043855 -0.27867988 -0.13266669 -0.6016147 -0.32995135 -0.56464255 0.043290418 0.28457236 -0.23410752 0.053552575 0.18770087 0.16040586 0.16685463 -0.1775264 -0.035167526 -0.1322955 0.04978437 0.44607273 -0.40492314 0.65418863 -0.10947809 0.5206645 0.30726716 -0.04156862 -0.06661229 -0.70409095 -0.8023683 -0.3182638 -0.37370664 0.3154267 -0.71902347 0.019202527 0.10958679 -0.2241482 0.0885979 -0.16182983 0.20234616 -0.31135562 -0.1207776 -0.18413925 0.36894888 0.22244221 -0.3292532 0.16192643 0.2660037 0.31067586 0.0003433015 0.07849214 -0.16398461 0.045799185 -0.17848252 -0.34720537 0.083183154 -0.019672558 -0.022441125 -0.17825527
93 0.34670022 -0.3461863 0.2912998 0.031857055 0.20911628 0.06552092 -0.19434749 0.11142721 0.1361353 -0.16495723 0.20232184 0.022225829 -0.027652597 -0.32161483 0.32628056 -0.13235757 0.35912913 0.030319793 0.18376282 -0.11385576 -0.077317 -0.005765344 0.28242105 0.038793173 0.100256905 0.11635189 0.25794256 -0.047630467 -0.028659334 -0.14684165 0.0014044738 0.13974997 -0.023611072 0.18734097 -0.33806026 0.055768628 0.53170073 0.06858255 0.53056914 -0.17303899 0.09456764 0.20058616 0.045270137 0.11812763 0.47584918 0.42641002 0.12468268 0.10683537 -0.18506888 0.16432405 -0.28891015 -0.12081592 0.441375 0.33902228 0.34555176 0.06391335 0.2372135 0.2241895 -0.117344774 -0.22515488 0.41965708 -0.24824972 0.11326164 0.40630242 0.53192014 -0.018691434 -0.37332463 0.03017351 -0.15728764 -0.084284306 0.12844032 -0.4130448 -0.2937574 -0.22324656 -0.14166993 -0.2265322 -0.35818964 0.28233707 -0.18212338 0.76246077 0.037829142 0.079677984 -0.082851514 0.35704428 0.062402286 0.34082484 0.43626085 -0.054116108 0.40082955 0.4156374 -0.55181307 -0.44570595 0.32476386 0.053632963 -0.076527156 -0.08922948 -0.30382597 -0.42627877 -0.09520165 -0.25300777 -0.31502092 0.045563385 -0.012472671 0.23738639 -0.257882 -0.15251961 -0.265064 -0.39653397 0.07113403 -0.43115854 -0.37039486 -0.16862173 0.16573569 0.24249636 -0.0761074 -0.3121254 0.11304759 0.10581763 -0.040761933 -0.043753635 -0.13184936 -0.14419998 -0.028323242 0.13953784 -0.4364846 -0.27162504 -0.05603082 -0.32297036
30 -0.5391209 -0.20481262 -0.15885928 0.36499453 -0.16232066 0.16222197 -0.46953568 -0.53097 -0.14739352 -0.030267809 -0.23195167 -0.12042408 -0.23142515 0.53409815 -0.0989131 0.1664815 -0.535961 0.49064553 0.05503966 0.33435383 -0.04386852 0.6757752 -0.573573 0.0934102 0.02972971 0.27772433 -0.58332217 0.19457202 0.06104058 0.20134155 -0.35187122 0.40789524 0.16726796 -0.5618697 0.040518515 -0.10695262 -0.42209056 0.4247555 -0.41104397 0.5213579 0.19703883 -0.17177215 0.4295275 0.14485352 -0.3999237 -0.106270656 -0.4359003 -0.4668228 0.24446419 -0.48917937 0.35817572 -0.042114194 -0.46873367 -0.61668813 -0.119933575 0.2340243 0.044356298 -0.562489 -0.5630429 -0.057442 0.32253727 -0.3711795 -0.013350694 -0.62600124 0.34604084 -0.09152345 0.26358044 -0.39892972 0.20679623 -0.48850307 0.0869857 -0.30486506 -0.60143584 -0.09293398 0.5155951 -0.13163897 0.015403568 0.008207499 0.35239944 -0.5273066 -0.4924176 -0.29798907 -0.09283372 -0.06491558 -0.09720549 0.12519678 -0.35436815 0.36667603 -0.5763399 -0.28658837 0.031597678 1.1564553 -0.27875754 0.24100183 0.6237681 0.3845679 0.3108325 -0.28678498 0.17996219 -0.14479916 0.70644844 -0.09155404 -0.31050628 0.36625192 -0.09564776 0.3020309 0.7398511 -0.15628265 0.48868957 0.4661129 0.3570754 0.3635792 0.7407905 0.037609443 -0.82113755 0.21781634 -0.61722445 -0.32015866 -0.10954437 0.7510562 0.55307454 0.22344004 -0.14325571 0.063027404 -0.20274189 0.53344977 -0.211586 -0.08882168
60 0.57271796 -0.620553 0.44987246 0.0223246 0.41729218 -0.10705736 -0.11569964 0.30156437 0.09997822 -0.297349 0.45976245 -0.08699547 -0.13718268 -0.6564474 0.9100147 0.07467181 0.26107806 -0.042541966 0.19060436 -0.4643888 0.12171833 -0.1827085 0.2898554 0.22700402 0.18965088 0.095048845 0.38692313 0.12582554 0.26062116 -0.2857906 -0.08048792 -0.0022183836 0.1099777 0.1250626 -0.41351965 0.017200666 0.54904807 0.089705534 0.7876726 -0.1317021 0.16262537 0.3490941 0.037570067 0.25064668 0.23397395 0.48508683 0.44009596 0.31737044 -0.08323628 0.4507492 -0.7069585 0.064065136 0.4784323 0.6702507 0.26005468 -0.058528993 -0.01156371 0.6640188 -0.090016514 -0.15113023 0.43364745 -0.32663795 0.12479851 0.5781751 0.3888171 0.43760005 -0.5986462 0.10278854 -0.10867262 0.023212284 0.18508641 -0.6238729 -0.2048338 -0.52017754 0.12700531 -0.24580447 -0.18273583 0.16478041 -0.112868294 0.8763129 0.47166014 -0.1688638 0.0069521153 0.36986914 -0.002387542 0.5213508 0.30654132 -0.13025194 0.38559353 0.4869069 -0.86935663 -0.6767639 0.6012445 -0.08073873 -0.3000052 -0.12256669 -0.35917473 -0.34648514 -0.3800956 -0.26910746 -0.5319498 0.116543174 0.11544495 0.26522988 -0.19088563 -0.4142686 -0.37537563 -0.28920645 0.110952236 -0.76620203 -0.30993193 -0.33897987 0.22142836 0.030028768 -0.0701322 -0.47715917 0.40784392 -0.012162638 -0.043588422 -0.5390096 -0.6909113 -0.23404391 0.056904033 0.42821276 -0.40274388 -0.24140476 -0.18897437 -0.46378404
19 -0.40293732 0.033952486 -0.4085305 0.022477211 0.2539202 0.28938115 -0.006718911 0.018958468 -0.0131552415 0.29067644 -0.6600674 0.0155165205 -0.50362754 0.64043224 -0.8343585 -0.4558882 -0.09060338 0.033346344 -0.53340083 0.9601986 -0.1731443 0.17880325 0.16571122 -0.14821428 0.4966282 0.14076337 0.002223503 0.109542385 -0.34722528 -0.39611527 0.11635263 -0.27470988 -0.14043738 -0.19825213 -0.36226088 -0.36778063 -0.4907407 -0.2816361 -0.47064748 -0.36236665 -0.3407844 -0.18399845 0.40552163 -0.26648626 -0.55334324 0.22655378 -0.11787615 0.031400822 -0.21400477 -0.13691626 0.104989216 -0.519212 -0.17196907 -0.9491844 -0.10387588 -0.002641757 -0.06101373 -0.53502136 0.1978281 -0.40436208 -0.16650991 0.16122204 0.16624822 0.14128469 0.056343928 -0.031445023 0.047131505 -0.10867172 0.25293022 -0.22347772 -0.99865776 0.17337374 -0.17954524 -0.079799615 -0.23679273 -0.41676956 0.11245027 0.29649004 -0.16959748 0.113249406 -0.3437414 -0.03637877 -0.27469137 0.07770162 -0.1738564 -0.22876297 0.003620201 -0.028117653 0.1837907 -0.051028516 0.48697388 0.5177465 0.13146964 0.22229585 -0.13545924 -0.12071398 0.57525307 0.17215776 0.0008410092 -0.15593073 0.7159646 -0.6985173 -0.5902193 -0.32732803 -0.79317904 0.7148149 -0.2279506 1.3630267 0.13736054 0.0559076 0.5248617 -0.5905848 0.565909 -0.05168469 -0.3637819 -0.5239588 0.00069332664 -0.22564633 0.6181666 0.010384039 0.08236936 0.48850226 0.12867692 -0.37462276 -0.26518863 -0.08468842 -0.30744043 0.074559726
20 -0.40506545 -0.27527174 -0.3276823 0.13418873 0.334866 0.30730614 -0.031459667 0.01772018 -0.10136373 0.27152574 -0.6303901 0.016149672 -0.29475814 0.47889277 -0.57512826 -0.23424958 -0.07651596 0.117253035 -0.49392807 0.8001798 -0.23884541 0.23259234 0.013679125 -0.107195035 0.40489334 0.0332967 -0.06730815 0.17656559 -0.23840952 -0.31341976 0.23053886 -0.10241127 -0.06390714 -0.106091976 -0.26348278 -0.3657234 -0.48969275 -0.25564766 -0.1981739 -0.27976418 -0.19634227 -0.3516537 0.30740532 -0.116040796 -0.43579426 0.1341316 -0.15836173 -0.05989397 -0.16932862 -0.21661596 0.2702557 -0.5991901 -0.20180278 -0.7800839 -0.040408395 -0.042377792 -0.14642732 -0.5363352 0.25496694 -0.15855119 -0.15063202 0.1650447 0.2766447 0.072852254 -0.06817867 0.12959324 -0.09361307 -0.18440004 0.33117607 -0.060317397 -0.8170021 0.09804797 -0.24283637 -0.15096058 -0.116879016 -0.54269546 0.123436645 0.26303184 -0.26478866 0.2076996 -0.31874567 0.08849125 -0.21291953 0.13982119 -0.06324252 -0.35986495 -0.086965874 0.048700966 0.30226976 0.0903649 0.3964891 0.4870873 -0.03896815 0.101189815 -0.15686484 -0.08570728 0.49686816 0.15867476 -0.08677883 0.03724487 0.7529861 -0.6525662 -0.6501692 -0.35511887 -0.8825858 0.71972364 -0.35516778 1.165519 0.039697137 0.15543182 0.4037054 -0.44919202 0.65597683 0.04964299 -0.25755772 -0.41335183 -0.01806106 -0.18516557 0.5266395 -0.016310297 0.07992664 0.45185336 0.06787086 -0.27855954 -0.23273316 -0.017309777 -0.24958694 -0.047049455
38 -0.007432812 -0.28116167 0.30030322 0.3714717 -0.3249479 -0.21963787 -0.11993617 -0.04096508 -0.35241032 0.06922978 0.18081307 -0.30698556 -0.069446 0.15212488 0.24954529 0.48779687 -0.2389523 0.45315477 0.5113634 -0.28057754 0.019531313 0.5718785 -0.37754673 -0.2579251 -0.5416237 0.1498033 -0.5616344 0.3619842 -0.054561056 0.42018428 -0.12765571 0.07290412 -0.06755299 0.3220257 0.102647886 -0.11863164 0.079534255 0.009775287 0.20948613 0.33870035 -0.21379703 -0.05590256 -0.21491031 -0.040683102 0.41470358 -0.33088195 -0.5076781 -0.06547339 -0.100787275 -0.17997082 0.65461385 -0.18504885 -0.16907497 0.078275174 0.15159553 -0.21735945 0.47998285 -0.49967173 -0.4724133 0.5115487 0.10182733 -0.3263191 -0.034792434 -0.8473395 -0.14878583 -0.4512272 -0.034369186 -0.08867249 -0.13574912 0.04127282 0.4734265 0.22745426 -0.25567225 0.047869634 0.014827276 -0.24472885 -0.19614626 -0.25751838 0.021617642 -0.3066827 -0.35586277 -0.113783434 0.28153744 0.27025068 0.28626963 -0.28207037 0.07697176 -0.063909486 -0.30373263 0.25272393 0.049332708 0.18738493 -0.5004307 0.12258273 0.71688545 0.089668535 -0.15342177 -0.5381099 -0.265612 -0.0855834 -0.22031967 0.22933084 -0.28192982 0.17579526 0.5676682 -0.46642253 0.28603137 -0.30650026 -0.016250098 0.2243248 -0.266882 0.27101097 -0.039933667 0.30861133 -0.16262585 0.50222796 0.08787513 0.41107318 -0.3081196 0.26033476 0.15360996 -0.09939308 -0.22890942 -0.044683974 0.11816765 0.15054 0.05326174 0.21481115
61 0.12551512 0.063461386 -0.1309422 0.117952935 -0.25691 -0.033666477 0.32102537 -0.12695847 -0.57395685 -0.008896118 0.31875375 0.1087131 0.07714036 -0.03750105 0.22891566 0.18834804 -0.27690026 0.009972145 0.048516285 -0.7343193 0.2867678 0.43584794 -0.22655743 -0.41672218 -0.49313796 -0.05213581 -0.22386666 0.5109471 0.34860164 -0.3630775 -0.062316407 -0.260136 0.31523633 0.23364832 0.1422093 0.26201448 0.2283887 -0.18505584 -0.06445816 0.041739076 -0.19629773 0.1879396 -0.1596103 -0.09580835 0.39776903 -0.20865735 -0.52556145 0.6312187 -0.02957014 0.4783248 0.22088225 0.5308062 -0.023385834 0.49888453 -0.13542646 0.1265746 -0.0048320615 0.20713505 -0.24531345 0.6351315 -0.73118216 0.03034607 -0.19658512 -0.3403647 -0.2029036 0.17364669 0.4166651 0.119574875 -0.540645 0.22415993 0.5704493 0.008465141 -0.40128303 -0.5039389 0.35714447 0.1760301 -0.06375623 -0.18969902 0.023202462 -0.33613035 0.36911637 -0.18683714 0.45429507 0.4062342 0.20517813 0.15251748 -0.1002627 -0.072111614 -0.44814268 0.03697461 -0.051375903 -0.14092205 0.37208113 -0.19542833 0.60432386 0.16768931 -0.05459964 0.05367298 -0.011183079 0.13382621 -0.2169913 0.19672279 0.21846701 0.26790196 0.9156909 -0.5826764 0.28177306 -0.13584794 -0.061195195 0.08076346 0.03295595 0.08501274 -0.37212867 -0.23686191 -0.060665127 0.51887184 0.060173307 0.22856829 -0.5106077 -0.29972345 0.08930453 -0.1802991 0.05933382 0.3441591 0.59667516 0.31097883 0.027923984 -0.09058279
99 -0.031300064 -0.82154036 0.5683874 0.8175187 0.62760806 -0.006761401 -0.51104987 0.4480075 0.27836055 0.27429685 -0.5702475 0.69308877 -0.053790856 -0.5539567 0.14825644 1.0348032 0.042248882 0.28938338 -0.30631635 0.32389146 -0.13394585 -0.15005149 0.039514888 -0.16793568 -0.31005543 -0.04192221 0.115148626 -0.15012048 -0.2880672 -0.12755822 0.7555664 -0.06468456 -0.19637574 0.66153693 0.21833989 0.16180816 -0.09283205 -0.0719068 0.42331472 -0.07192609 -0.15051612 -0.24130231 -0.33875674 0.104335114 0.040703617 0.13307783 0.2790002 0.14992692 -0.356359 -0.21949832 -0.17245089 -0.48238263 -0.20705621 -0.124646135 0.3102688 -0.36396948 -0.1693324 -0.24179538 0.3932794 0.17615321 -0.19630894 0.77766764 0.68840563 0.18281633 -0.6061805 0.189414 -0.17188731 -0.4117728 0.7248064 0.73295754 -0.50546956 0.3870998 -0.18123518 -0.2354046 -0.22346608 -0.42604804 0.13808873 0.22456026 -0.29566824 0.32156217 0.13616854 0.31854552 0.36537492 0.58055234 0.5096778 -0.8962105 -0.2542563 0.13232353 0.46564135 0.324693 0.712168 -0.24820659 -0.17199443 -0.6801056 -0.085368216 0.04097216 -0.056555063 0.47689575 -0.3642128 0.5845807 0.42718217 -0.18804821 -0.39655364 -0.8142318 0.076130144 -0.20410848 -1.1082187 1.0982298 0.09662642 0.14174774 0.18723153 -0.34846595 0.54477954 -0.5567084 0.34868592 -0.4067358 0.08023967 0.09836619 0.05465117 -0.5843346 0.19891654 -0.34170413 -0.21603823 -0.20495129 -0.3975804 -0.20847256 0.27379704 0.020132104
127 0.6043982 0.056272943 0.36119118 0.58350205 0.06399969 -0.3818894 -0.036544476 -0.08414544 -0.11777943 0.5033973 0.5496519 -0.13940349 0.15694092 -0.7922225 0.94668853 0.5570838 0.094330214 0.00868187 0.33081177 -0.5044599 0.20165148 0.09556017 -0.61958694 -0.19630429 -0.8622707 -0.5184875 -0.1488973 0.10006508 0.17159827 0.21322788 0.05055648 -0.17653106 0.11731624 0.28856674 -0.21192187 0.35555196 0.35282424 -0.0077773 0.6904031 0.5997421 -0.33754137 -0.11549259 -0.7048355 0.167961 -0.05021686 -0.22745124 -0.23669882 0.40388435 -0.22054696 0.28814474 -0.7260485 0.107648306 0.0934544 0.030864751 0.310191 -0.41551334 -0.7185441 -0.18556535 -0.051651116 0.22715656 0.09800146 0.32556063 -0.19565064 0.090234764 -0.20308836 0.024404038 0.23423442 -0.34205246 0.10286837 0.7309813 0.12546514 0.48345047 0.28606445 -0.0045532933 0.59827024 0.08262034 0.09721821 -0.18110059 0.48862702 -0.15144145 0.26476714 -0.30112273 0.64359635 0.29847515 0.8371776 -0.74967545 0.042773068 -0.04484592 -0.38058066 0.03541685 -0.0869453 -0.34276515 0.036943786 -0.15330976 0.56983274 0.24844976 -0.07861788 -0.08068132 -0.06512117 -0.10764497 -0.041660506 0.01189618 -0.2953509 -0.5304965 1.0930263 -0.62906927 -0.7433306 0.18510267 0.963179 -0.30888474 0.64084446 0.2566405 0.29343504 -0.27234474 0.35636026 0.32045373 0.06604158 0.17645508 -0.35411465 -0.3241378 0.2255385 -0.2791059 0.09305129 0.32782808 -0.35857284 -0.09041393 0.3275606 0.034269147
121 0.236538 -0.55593306 0.29888383 0.25649148 0.07960095 -0.03810362 -0.07344248 0.2382444 0.05276848 0.38971123 0.12146481 -0.046008173 0.017983766 -0.43120003 0.43568543 0.432757 0.32756728 0.1600166 0.33727095 -0.19306578 -0.089973435 0.023973279 -0.033015117 -0.050858635 -0.3558326 -0.32710376 -0.10092348 0.11270063 0.0057421364 0.199498 0.18297175 -0.10709849 0.00431364 0.47763103 0.07380529 0.09311754 0.40115374 -0.44359365 0.48692805 0.031526193 -0.16746558 -0.20738345 -0.5027153 -0.18390597 0.2876027 0.016006373 -0.07017413 0.09509826 -0.28148046 0.051370382 -0.20350504 -0.2151844 0.26030108 0.15149829 0.28228486 -0.40668073 -0.085524544 -0.15181744 0.025524843 0.4513097 -0.060684655 0.14413743 0.15448722 0.0005215106 -0.17019768 -0.026688036 -0.10421984 -0.1940845 0.03592665 0.39996147 -0.09779207 0.20828836 0.03464594 -0.192277 -0.122831896 -0.20954272 -0.15009804 0.22276689 -0.27039462 0.38315517 -0.0023519134 0.10829247 0.22390075 0.6215525 0.6283177 -0.40114528 0.16869146 -0.2972593 0.33833274 0.6835491 0.010785903 -0.5196211 0.13499396 0.08458325 0.17832237 -0.25642353 -0.44172257 -0.38012806 -0.22275773 -0.10116554 -0.28253287 0.0029012929 -0.47368017 -0.54611915 0.24607491 -0.14155932 -0.47050598 0.3779933 0.23837651 -0.26904473 -0.23289263 -0.3818063 0.15284275 0.251519 0.09310752 -0.019042173 0.26238978 0.34576535 -0.1020743 -0.25593212 -0.18931806 -0.24208857 -0.23053074 0.013748562 -0.30389237 -0.25605124 -0.029318865 -0.03290757
86 0.089518644 -0.28284484 -0.13708684 -0.31396365 0.086549096 0.14227696 0.0951841 0.0049606645 0.23482351 0.15348472 -0.051641557 -0.0134208985 0.07973376 -0.4718026 -0.16206405 -0.29840505 0.39492533 -0.17540495 0.2264612 -0.04260054 -0.048080087 0.03223971 0.1324723 0.034796115 -0.17909294 -0.15247257 0.13328645 -0.07658291 -0.07358933 -0.2955682 0.064570986 0.045125287 -0.22994258 -0.1320006 -0.14038672 0.059294824 0.38322318 -0.4161911 -0.034311555 -0.41511694 0.16272132 0.1196117 0.0057124766 -0.2282543 0.05760284 0.5215293 0.15914981 0.006972854 -0.096669935 0.008946312 -0.7151094 0.074735165 0.58521485 0.049169287 0.3398428 0.017604083 -0.005844404 0.21383452 0.15134168 0.034828227 0.28454453 -0.15793844 -0.009069308 0.5722583 0.46831158 0.111695684 -0.20249476 -0.035291295 -0.13459013 -0.020093236 -0.38968623 -0.24593595 -0.3713606 -0.46333614 -0.20672892 -0.30227202 -0.17082292 0.56442016 -0.13158633 0.8383206 0.21276161 0.011162973 -0.18842895 0.31826994 0.39552408 0.1636221 0.20347853 -0.024075799 0.35046592 0.52880037 -0.44964543 -0.3186439 0.7566411 0.2979752 -0.2191543 -0.26765218 -0.30253187 -0.53523266 -0.18467931 -0.24738376 -0.191339 -0.0016835592 -0.2975208 -0.39204684 -0.21824934 0.13895461 -0.32143605 0.28000584 0.21717808 -0.70814955 -0.087693915 -0.662941 0.3787679 0.008005607 -0.24426544 -0.4947439 0.24953334 0.052600406 -0.079655714 -0.35527885 -0.27049062 -0.38118523 -0.16712014 -0.030334074 -0.37600774 -0.36153784 -0.12090909 -0.3620486
101 0.18629798 -0.5517887 0.15474504 -0.059507117 0.24953334 0.0016467597 -0.15088543 0.3166921 0.39115924 0.123137265 0.045305766 -0.28958097 0.102129005 -0.38169947 0.5313274 0.19685699 0.26824477 -0.048896585 0.21149933 -0.14917292 -0.028452603 -0.02058838 0.152567 -0.10541735 0.17463486 -0.17090264 0.03538579 0.06177903 0.19902353 0.044099662 -0.15778609 0.069963984 -0.05499553 0.14437035 0.1765926 -0.2521016 0.1753988 -0.20566635 0.33815333 -0.060552184 0.09261963 -0.09868921 0.010726969 -0.12272558 0.040594775 0.09475384 0.32448247 -0.14096366 -0.06981814 0.09198664 -0.4801962 -0.20687892 0.5069413 0.27067682 0.3126289 -0.02311303 -0.039413564 0.32629052 0.06435248 0.12196261 0.4133804 -0.189239 0.28842863 0.22850284 -0.05790425 0.18405144 -0.39083734 0.28674033 0.17966093 0.12455856 -0.18773457 -0.2193115 -0.10991967 -0.111172915 -0.16240038 -0.58262956 -0.043741357 0.18686625 -0.31942606 0.6429365 0.030294731 -0.03889676 -0.075697854 0.52348024 0.4976773 0.096323185 0.41886693 -0.2814119 0.58191365 0.64728147 -0.19619843 -0.7433864 0.26279062 0.12122915 0.07895621 -0.1788082 -0.3050561 -0.40505108 -0.5066903 -0.3560899 -0.25021747 -0.1126028 -0.28279382 -0.36750838 -0.28806803 0.020073324 -0.34611988 0.22663519 -0.05597772 -0.7221954 -0.067983784 -0.42376733 0.33323568 0.2659167 -0.041886758 -0.5886279 0.37092492 -0.044759255 0.12632845 -0.5595919 -0.7252683 -0.25375426 -0.24978752 -0.0073741875 -0.46443868 -0.19101828 -0.23806408 -0.2865223
106 -0.019864146 -0.39593583 0.09928238 -0.020522416 0.08273254 -0.07759997 -0.054057926 0.12158666 0.13896614 -0.04881446 0.015029277 -0.11468138 0.023035133 0.008138703 0.26121837 0.21370226 -0.15465026 0.17112927 0.053122807 0.09614603 -0.037407205 0.08337211 0.18636921 -0.10375225 0.2601657 0.019904949 0.10353931 0.20944864 0.18791333 -0.18215154 -0.08788875 0.1672706 0.15139847 0.1736728 0.11977606 0.025216322 0.21915571 -0.11039458 -0.29274133 -0.11558042 0.010048638 0.18241791 0.12726855 -0.11127683 0.3068154 -0.053105153 0.07401821 -0.07619116 0.04902905 0.06183173 0.2756116 0.04191759 0.34067753 0.22047393 -0.16571921 0.24037954 0.47733167 0.25254658 0.01760374 0.18770546 -0.08734957 -0.23285064 0.26782116 0.10040066 0.01376351 -0.06667298 -0.029628769 0.41307566 -0.31447423 -0.26134217 0.029430127 -0.32449636 -0.36316407 0.015034404 -0.2651 -0.39064118 -0.080487214 -0.05388897 -0.3736683 0.2976306 -0.09851248 0.030346315 -0.22730821 0.14389166 0.07367957 0.38118824 0.3224432 -0.32590577 0.31260747 0.13025928 0.103697464 -0.29742625 0.18780534 0.08825178 0.17412546 -0.03129789 -0.15430537 -0.1485731 -0.0137617765 -0.13184655 -0.20885111 0.030172551 0.14281292 0.12059988 -0.22991568 0.16164827 0.3157355 -0.18384023 -0.46017593 -0.18556277 -0.23078232 -0.021539915 -0.1518799 0.33885333 -0.0059322366 -0.17878453 0.10074779 -0.0066936836 0.05636797 -0.046873003 -0.36356825 -0.08531037 -0.0843736 -0.12238239 0.12329425 0.08597894 0.020481784 0.0023759922
76 0.3216315 -0.18730748 -0.0023804235 0.018945156 0.2414082 -0.037678063 0.16955134 0.34890184 -0.27350074 -0.36335757 0.28235638 -0.35470545 -0.2224869 -0.07009345 0.6215539 -0.029659195 -0.11480871 -0.18448323 -0.032474317 -0.44766408 0.21416995 0.020071141 0.12049398 -0.17820704 0.46105942 0.14099891 0.23488155 0.50450754 0.38336018 -0.41104224 -0.21125327 -0.36525133 0.291945 0.06556251 -0.24507025 -0.116239026 0.061659 0.03447235 0.49735993 0.04123547 -0.07918 0.22850674 0.23453626 0.13179809 -0.054398485 0.20981345 0.17074943 0.676314 -0.05389062 0.55969685 -0.40245205 -0.022872949 0.12949638 0.47874144 -0.046432603 -0.08376413 -0.23754293 0.51922524 -0.28657886 -0.08673686 -0.1313239 -0.22674887 0.072747394 0.045199085 -0.03382185 0.50756216 -0.39497986 0.2378426 -0.1486363 0.013163881 0.12681378 -0.44121683 -0.13010201 -0.5183814 0.340787 -0.24544552 0.025584051 -0.2054231 -0.012727762 0.11310603 0.29981163 -0.44677243 0.14071952 0.2870725 -0.09918043 0.44125545 0.03732058 -0.10302477 0.031769313 0.2641999 -0.2827936 -0.46325812 0.4939089 0.09255301 0.021746889 0.10844098 0.024589498 0.030083071 -0.34867936 -0.22045523 -0.29103217 -0.13728137 0.008962868 0.35697997 0.037041582 -0.5624767 -0.13119593 0.1325989 0.025478523 -0.513527 -0.07297778 -0.3285899 0.16703002 -0.12701714 -0.13612264 -0.30324796 0.5282444 -0.034856796 -0.009514025 -0.7244874 -0.72994566 0.11842825 0.15155359 0.39539042 -0.06791873 0.1472298 -0.2837658 -0.26621532
18 -0.4724159 0.1387774 -0.48376188 0.13291486 0.46185535 0.30828857 0.0058141495 -0.10536145 -0.19073638 0.018923232 -0.57990307 -0.08741674 -0.5363927 0.6897385 -0.6765181 -0.6168245 -0.3521974 0.1742269 -0.6051235 1.0099024 -0.21066917 0.019096017 0.30811685 0.07536804 0.76411945 0.31591922 0.16223657 0.22870572 -0.2611137 -0.46921632 0.084040776 -0.26283818 0.011463443 -0.3928882 -0.52220017 -0.43844733 -0.6183881 0.08650365 -0.38342032 -0.26070783 -0.12487033 -0.18055671 0.6224277 0.056640897 -0.7240468 0.2009171 -0.015291995 0.1135877 -0.053995796 -0.0983963 0.23327509 -0.6472307 -0.41247255 -0.88746685 -0.36157614 0.014939587 -0.27460766 -0.5413824 0.18197122 -0.5765214 -0.08442682 0.11585109 0.13378388 0.12885417 0.20127267 0.027905097 -0.020814462 0.0012706706 0.20075776 -0.37593132 -0.9455231 -0.06984748 -0.24471222 -0.1234035 -0.03212662 -0.5924107 0.15142159 0.12188437 -0.07550143 0.061750375 -0.35014015 -0.103797786 -0.34546924 -0.08268934 -0.35581854 -0.11253831 -0.0038828459 -0.07004256 0.023727784 -0.3035578 0.42295024 0.78507006 0.19415233 0.16017759 -0.20990555 0.018274793 0.75849706 0.31604904 0.034535557 -0.124317676 0.88050914 -0.8540331 -0.4638752 -0.069178306 -1.0362892 0.715655 -0.14202914 1.1416372 0.1200139 0.07031876 0.615534 -0.37360302 0.75721455 -0.1573717 -0.4316044 -0.6007686 0.04011456 -0.36091414 0.7705478 -0.06081592 0.09226962 0.65592366 0.23223431 -0.22026363 -0.33334386 0.07035884 -0.40627196 0.06416702
92 0.24518998 -0.6229015 0.24955988 0.36768714 0.2096452 -0.18771984 -0.21302032 0.33139578 0.09838756 0.5954024 0.07624261 -0.21457787 0.07158361 -0.575881 0.6412949 0.6004644 0.28446263 0.10284741 0.36209145 -0.19682455 -0.052053355 0.1632492 -0.20253702 -0.13461587 -0.416443 -0.3942811 -0.1450875 0.17548664 0.00615392 0.18490417 0.31330407 -0.16296302 0.022888407 0.50888604 -0.10353359 -0.032433163 0.36226222 -0.4374044 0.370729 0.16224234 -0.33781743 -0.20059326 -0.5654844 -0.22255197 -0.0059732804 0.01335076 0.011680347 0.11201997 -0.39620218 0.020022314 -0.59957516 -0.17990464 0.29070836 -0.028619748 0.30758962 -0.5516284 -0.29280868 -0.24198756 0.040435012 0.6709014 0.0078312615 0.103914335 0.1540395 0.16263744 -0.23468971 0.13001072 -0.121786 -0.5153287 0.14249223 0.5233843 -0.33468315 0.16803381 0.022637961 -0.24067779 0.06375943 -0.2667273 0.07567015 0.26837438 -0.13178714 0.25787884 -0.009560888 0.008066095 0.15424432 0.42894256 0.6113663 -0.6423875 -0.04101248 -0.05319858 0.08770859 0.38093206 0.0057413355 -0.27259928 0.08319932 0.22313006 0.1333534 -0.2526483 -0.35727876 -0.49319565 -0.18371208 -0.10483901 -0.1600551 -0.050576728 -0.61325663 -0.75291187 0.25614604 -0.20831433 -0.5409324 0.748277 0.5496766 -0.2707769 0.08862812 -0.30310014 0.39975798 0.23128137 0.035056785 0.09675729 0.16785794 0.29299453 -0.12422656 -0.29276317 -0.26294735 -0.34521675 -0.09341155 0.15780813 -0.35267353 -0.18476647 0.085433625 -0.054333728
66 -0.047297522 -0.96110344 0.33927813 0.5805747 0.37729812 0.0076180287 -0.5008739 0.22497816 0.48892227 0.53237987 -0.7512061 0.708285 0.13818704 -0.42873922 -0.09524469 0.93601674 0.12066283 0.33124936 -0.36215058 0.4268526 -0.06888692 0.012666969 -0.009430578 -0.2115763 -0.4464681 -0.21110414 -0.013895145 -0.15325087 -0.13331853 -0.13753088 0.64855236 0.3072254 -0.08811425 0.76954234 0.28377256 0.03218885 0.07292431 -0.27288362 0.21210022 -0.19646817 0.017374817 -0.37756518 -0.3036363 -0.1320169 0.15228415 0.1589105 0.2460016 -0.069485426 -0.33210847 -0.25827667 -0.2739682 -0.3704371 0.15330914 -0.1629819 0.3752755 0.010709557 -0.016065432 -0.11970707 0.57805145 0.32061872 -0.1633058 0.81380606 0.69352907 0.43764797 -0.65273637 0.3114281 -0.03945936 -0.42850393 0.7373251 0.7207673 -0.44960475 0.34666196 -0.25146338 -0.17287228 -0.31204763 -0.2174097 0.20235457 0.49379998 -0.41989422 0.56405336 0.24054518 0.33018476 0.16706024 0.7045692 0.6244268 -0.7674982 -0.08724241 0.15682472 0.67641354 0.43397978 0.5090211 -0.4827443 -0.11456807 -0.6875914 -0.070372105 -0.050340924 -0.29018977 0.26669204 -0.30202588 0.5243315 0.34678984 -0.06834233 -0.24404587 -0.87439543 -0.056633074 0.16913795 -0.8942173 0.93679404 -0.12789805 0.19278616 0.02918972 -0.44392693 0.39500007 -0.23428527 0.20159833 -0.46041045 -0.047197968 0.08984596 -0.13356741 -0.5429289 0.1430474 -0.55276865 -0.35821316 -0.18402249 -0.32666367 -0.2813185 0.20195574 -0.1932095
74 -0.06896835 -0.3948245 0.14871034 0.075496934 -0.06235211 0.2728892 -0.19864666 0.0185313 0.043472342 -0.10459606 -0.16188574 0.22845742 -0.19570585 0.14647768 -0.33439177 -0.111441486 0.26094493 0.09902341 0.15667239 0.030033331 -0.14779243 0.036174137 0.30934203 -0.10998016 0.12395311 0.10088698 -0.07807786 -0.1435009 -0.3441084 -0.07144343 0.14198023 0.08955435 -0.22530112 0.023865497 0.19232908 -0.047998715 0.22367844 -0.13342196 -0.05882746 -0.334586 0.06664892 0.18486267 0.17809308 -0.22860329 0.43175262 0.3656291 -0.05481966 -0.032142974 -0.1102601 -0.050563037 0.12725507 -0.2078456 0.26497757 -0.04365131 0.27946937 0.02038044 0.35589814 -0.15108784 -0.047889404 -0.0706777 0.21118946 -0.030567674 0.070035174 0.08764229 0.5241844 -0.28873923 -0.18911207 0.14405422 -0.0023565073 -0.23654185 -0.22425932 -0.23655692 -0.46467438 -0.25266957 -0.4276953 -0.38304612 -0.4911563 0.4325879 -0.41894135 0.48476 -0.28815266 0.35368523 -0.21809527 0.3814768 -0.0015511932 0.23124792 0.3285633 0.06247209 0.4086484 0.46080846 0.06725645 -0.14074948 0.1921159 0.19119136 -0.06380701 -0.11069929 -0.13241205 -0.3762183 -0.008981857 -0.015271374 -0.2045019 0.04278134 -0.19532366 0.10461893 -0.36537105 0.16417117 -0.13353789 -0.1473457 -0.15641952 -0.13000785 -0.4717492 -0.4100898 -0.0009293008 0.21836269 -0.19184737 -0.16138941 0.053238213 0.22741708 0.073815584 0.09759409 0.041595075 0.011296461 -0.35784468 -0.22917484 -0.20783629 -0.1720598 -0.0739678 -0.03404919
114 -0.07174628 -0.40454888 0.00045957975 0.114617065 -0.028254662 0.15664871 0.07016174 0.11475361 -0.08645088 -0.08907902 -0.080291174 0.18345743 -0.0875631 0.24434376 0.10697841 0.290506 -0.16978419 0.09136889 -0.16480231 -0.11440622 -0.014347543 0.20304441 0.17189963 -0.26810992 0.2681439 0.054012332 0.0545097 0.3528959 0.2522936 -0.34814653 -0.031952016 -0.02746637 0.1442774 0.286615 0.3541422 -0.032009646 0.06979446 -0.2061188 -0.19005476 -0.22330491 -0.01784291 0.016085036 0.12941103 -0.12988235 0.3401472 -0.11723185 -0.11979593 0.14477256 0.06178184 0.1886501 0.48693243 0.07521217 0.16814877 0.27810308 -0.17267983 0.3364062 0.41135234 0.3330467 -0.020076372 0.23861644 -0.54829234 0.010299843 0.2690844 -0.090751216 -0.34691286 0.112333864 0.07886778 0.47774208 -0.22718032 -0.13381234 0.16432622 -0.15514174 -0.38961142 -0.20460662 -0.22554667 -0.23507994 -0.0027676665 -0.0107173165 -0.4878765 0.112997316 0.113593414 0.098148786 0.005167825 0.36992696 -0.071601674 0.41077492 0.17148091 -0.29970214 0.3117418 0.3100234 0.271598 -0.39184803 0.1566363 -0.19234127 0.20183966 -0.0698007 -0.03838491 0.23702629 -0.056290947 0.14326866 -0.0662253 -0.02460142 0.21248679 0.16335794 -0.11071658 0.114673994 0.31979594 0.051816575 -0.71862155 0.082833104 -0.2763815 -0.23021138 -0.33990827 0.10886391 0.043542556 -0.06591283 0.16192795 0.048813876 -0.030683268 -0.28503042 -0.29175112 0.08400463 -0.042505242 -0.0660483 0.41175747 0.2111306 -0.1460069 -0.022442225
82 -0.087734185 -0.4258069 0.16869736 0.34470478 -0.052327074 -0.08041011 -0.10534693 -0.06671888 -0.14193104 0.1639947 -0.016605703 -0.20371012 -0.039745726 -0.07710428 0.098978624 0.12286502 0.11402065 0.34392488 0.5470778 -0.23290214 -0.21448246 0.20283243 0.043946978 0.15373187 0.02120738 0.052375775 -0.13391149 0.19519317 -0.13125716 0.1585321 0.19532642 0.0036583846 0.26361337 0.26744217 -0.0139318835 0.06990722 0.32700208 -0.233809 -0.05564615 0.2478224 -0.127028 -0.003203729 -0.27000886 -0.21181759 0.20881608 0.042821944 -0.25027484 0.1109238 -0.13364117 -0.10608862 0.046356525 -0.18793167 0.08208923 -0.14466405 -0.009547449 -0.41395062 0.015335458 -0.5357107 -0.37378323 0.5409401 -0.097593226 -0.04405207 -0.098926485 -0.24703638 0.42085564 -0.22453792 -0.016316615 -0.4113528 -0.26153708 -0.026537888 -0.12586984 -0.16175622 -0.486005 -0.45806748 -0.04050055 -0.24746591 -0.3085117 0.3310446 -0.22156286 -0.003502607 -0.43857402 0.07283492 -0.18730539 0.23279598 0.25794092 -0.15643041 -0.11124705 -0.031261057 -0.23981102 0.3059134 0.088584684 0.32074606 0.24613543 0.42531085 0.22530459 -0.075178675 -0.26023555 -0.6090501 0.4297785 -0.03906851 -0.048609313 -0.09719131 -0.33869866 0.0018202872 0.093599744 -0.1752397 0.07815878 -0.044376638 0.43469784 0.13539967 -0.3859711 -0.08584111 0.26329848 0.30532506 -0.3599507 0.4789112 -0.2915122 0.3008747 -0.23883158 0.37289515 0.1568716 -0.03710872 -0.14900607 0.11499954 -0.117720686 0.18756208 0.13573307 0.0736128
72 0.0029085106 -0.5071806 0.24104953 0.42396295 0.1485704 0.214168 -0.40835857 0.043399394 0.3503822 0.21846709 -0.5771305 0.75737673 -0.046384085 -0.061790653 -0.44392878 0.50899065 0.18936908 0.13644974 -0.32271665 0.30274507 -0.06896292 0.008727797 0.16570435 -0.3368325 -0.2671969 -0.08117946 -0.035135154 -0.24877463 -0.33507854 -0.13737959 0.4583122 0.18393041 -0.26645157 0.41451198 0.4616758 0.11227054 0.06595907 -0.13862494 -0.052899957 -0.34582713 -0.055549696 -0.090994015 -0.056174584 -0.1848377 0.34159923 0.16080846 0.0071688867 -0.004534624 -0.25253066 -0.077245414 -0.0042066504 -0.27390403 0.1844051 -0.25770247 0.28673145 0.029367847 0.14846282 -0.12017895 0.44852057 0.014669627 -0.22580554 0.7273365 0.37510422 0.38875592 -0.25187954 -0.0031008485 0.009217531 0.034039658 0.49080467 0.3247851 -0.34142503 0.27150932 -0.28650096 -0.14931145 -0.48397964 -0.22820264 -0.16525884 0.5270313 -0.53280634 0.3958493 0.08530438 0.4617043 0.05760385 0.49472043 0.27073866 -0.3820444 0.11819566 0.16803987 0.58067095 0.27969456 0.55633295 -0.40477705 -0.09580951 -0.5059711 -0.08794373 -0.044706628 -0.07297107 0.2851781 -0.059882898 0.3615634 0.26149437 -0.04094412 -0.08559305 -0.40748745 -0.120111614 0.18231966 -0.66742265 0.45678577 -0.3471517 0.2788904 -0.09434092 -0.38334575 -0.036424015 -0.22235297 0.21044916 -0.28078932 -0.06435874 0.114227556 0.049224168 -0.29093084 0.30196917 -0.2452573 -0.36095417 -0.29949564 -0.166724 -0.25347635 0.087517716 0.05345649
113 -0.09993162 -0.4865372 0.021379957 -0.015917717 -0.0012234165 0.1305485 0.10976384 0.15456048 -0.038385343 -0.18065208 -0.031509236 0.12121023 0.030306598 0.17531736 0.036644474 0.24565305 -0.21005185 0.12674512 -0.053851705 -0.111665994 0.015211144 0.21414223 0.1733852 -0.29230073 0.22941141 0.07296101 0.021128869 0.3535542 0.22032595 -0.37227035 -0.088742666 0.065650545 0.037492953 0.2395663 0.43986514 -0.11453824 0.07562258 -0.26125574 -0.1289247 -0.30769646 0.13026664 0.08922487 0.17910862 -0.12289059 0.42800662 -0.12949753 -0.122569546 0.06644039 0.11997003 0.11851846 0.6636379 0.023613485 0.18259636 0.41891068 -0.11102691 0.32691166 0.57438433 0.33913657 -0.015713086 0.27136156 -0.3461276 -0.1621637 0.30661547 -0.13380115 -0.24801609 0.019345224 -0.013082206 0.75484955 -0.28824732 -0.26859304 0.20774643 -0.20946948 -0.44844636 -0.15367432 -0.42641866 -0.48489216 -0.10100097 -0.15534717 -0.61581856 0.29953897 0.0031006942 0.19219457 -0.0028559568 0.29922166 0.038720425 0.42834944 0.33602273 -0.32628807 0.47517347 0.40537763 0.23279062 -0.45736668 0.10240299 -0.15892671 0.14943683 -0.12113133 -0.04516726 0.09826079 -0.190746 0.07591233 -0.09017796 0.050107196 0.11739345 0.17883238 -0.19669951 0.0769447 0.29859588 -0.144951 -0.853592 -0.035338037 -0.38295543 -0.1330685 -0.35484436 0.15604849 0.09949317 -0.11996231 0.3262735 0.07008557 0.0736697 -0.33368844 -0.43032432 -0.015013395 -0.14485188 -0.2481492 0.4172053 0.1629493 -0.083520755 -0.056299776
77 -0.12751934 -0.5179806 0.27716732 0.52841926 0.45307958 0.071056984 -0.28248852 0.28769064 0.29182494 0.30930203 -0.563183 0.6221861 -0.104878366 -0.34515294 -0.30707595 0.49925607 0.05966886 0.14038971 -0.36580828 0.5221291 -0.205996 -0.12940893 0.090345725 -0.08843671 -0.26004106 -0.14827126 0.23494358 -0.19691595 -0.34241316 -0.31119376 0.7229512 -0.11757641 -0.30791846 0.39973664 0.14177518 0.20249389 -0.08300812 -0.23627715 0.033009797 -0.33205748 -0.15817681 -0.14702594 -0.19614945 -0.10631274 -0.068518266 0.23376782 0.20833135 0.046206042 -0.2515259 -0.13061365 -0.074177824 -0.38000163 -0.113186896 -0.37261805 0.0934378 -0.24798055 -0.08625092 -0.25027892 0.50683737 -0.050520252 -0.23486263 0.6954723 0.52280706 0.36697564 -0.29823017 0.033088773 -0.08182987 -0.1851168 0.50079685 0.41632956 -0.7183208 0.3833459 -0.19830412 -0.19870503 -0.43044326 -0.36927235 0.09907605 0.2631124 -0.36690336 0.46712905 0.1398392 0.33594954 0.15884046 0.38900107 0.39302525 -0.6963721 -0.10300526 -0.047804084 0.5112552 0.28300777 0.67899144 -0.17914835 0.037183423 -0.4910135 -0.15188752 -0.086715564 0.066255 0.45494655 -0.15993147 0.45516738 0.41901124 -0.25302953 -0.41816652 -0.87504685 -0.19457763 0.1479774 -0.9171261 1.1657956 0.0802339 0.07889701 0.27521995 -0.50548565 0.4396408 -0.46639735 0.3597875 -0.47109315 0.10174221 0.022606328 0.20995075 -0.42376414 0.16851811 -0.1672935 -0.15549383 -0.4369352 -0.220137 -0.32074887 0.2346047 0.05032096
23 -0.49419147 0.43724597 -0.6804125 -0.042316366 0.3024715 0.4219162 0.040126827 0.0037043905 -0.4316673 0.09281337 -0.5877845 0.021664867 -0.7312379 1.1205494 -0.88574314 -0.83250487 -0.45384395 0.1380557 -0.79520047 1.1082895 -0.13234304 0.10897885 0.36571127 -0.21648802 0.852275 0.24010614 0.059498984 0.3579102 -0.27927884 -0.68484855 0.028124195 -0.64701176 -0.030283855 -0.3985638 -0.4896247 -0.431943 -0.6866372 -0.015951367 -0.7258263 -0.45543337 -0.3173676 -0.09648821 0.7139767 -0.15862489 -0.6214209 0.22933538 -0.3456644 0.32281402 -0.22283807 0.13494672 0.49425793 -0.45486665 -0.3829401 -0.9414449 -0.43708923 0.27939773 -0.16730562 -0.4087388 0.21244678 -0.7370974 -0.3941387 0.12767488 0.067385666 -0.003254637 0.120586164 -0.18615948 0.27109328 0.1365918 0.013954841 -0.53504544 -0.9877193 -0.007859996 -0.13957812 0.08340583 -0.04461006 -0.43855673 0.076960854 0.015476403 -0.16064894 -0.2066085 -0.5096534 -0.05535063 -0.28532505 0.044411987 -0.6554026 0.014619226 0.20279615 -0.15791942 0.008635196 -0.4117381 0.68914497 0.7632442 0.19356517 0.2875172 -0.053668734 -0.00044914387 0.9586402 0.54751974 -0.02125131 -0.07992314 0.8443112 -0.9068822 -0.3615498 -0.016041446 -0.91833997 0.84312224 0.19642745 1.4613516 -0.084530756 0.14163317 0.7630013 -0.47463575 0.37947443 -0.17636465 -0.3506373 -0.4905035 0.09345978 -0.29788476 0.8792949 0.06886171 0.1823114 0.853055 0.31346002 -0.36307785 -0.005201645 0.11085318 -0.5389663 0.23708054
21 -0.48567677 -0.40617645 -0.060843125 0.35277653 0.59442914 0.17770903 -0.06604293 -0.014987785 -0.069601 0.06730885 -0.78467 0.37837294 -0.17832832 0.15416151 -0.6494313 -0.03680604 -0.3969307 0.40026772 -0.5485745 1.0064687 -0.26012748 -0.05816641 0.18697274 -0.09640188 0.31153807 0.19400111 0.14685449 0.10806366 -0.32244578 -0.4810138 0.5310197 -0.04865704 -0.16203897 0.042935777 -0.13795882 -0.31490454 -0.46469605 -0.010473875 -0.1498893 -0.34993055 0.09380869 -0.20946051 0.31778064 0.15463158 -0.37420598 0.18491898 0.02470416 0.09723204 -0.094881296 -0.3638274 0.4672649 -0.69991505 -0.37822893 -0.6569908 -0.16100736 0.009430442 -0.020417338 -0.61258036 0.4991341 -0.24833578 -0.112524174 0.36429518 0.4314881 0.12434944 -0.104067795 -0.06623455 -0.02360505 0.08167953 0.370058 -0.07793278 -0.8695569 0.1216778 -0.36814716 -0.04879439 -0.44979316 -0.8239736 0.11248807 -0.010058049 -0.423031 0.3356011 -0.29421026 0.35199752 -0.13063537 0.09062475 0.019175798 -0.59287167 -0.037913293 -0.03932919 0.423098 -0.079514384 0.7656049 0.529445 -0.05277702 -0.21701641 -0.26526722 0.004711255 0.4466626 0.5243673 -0.14695302 0.38310987 0.8586861 -0.5630293 -0.46995443 -0.4379888 -0.79774076 0.52326405 -0.5553197 0.9470897 -0.23160648 0.22588353 0.36559898 -0.17855182 0.619138 -0.304893 0.063935585 -0.5127309 0.13449834 -0.14124288 0.64002115 -0.2599285 0.21983649 0.22704217 0.0004714217 -0.54259014 -0.18009612 -0.006410361 0.1006972 0.079889685
73 0.13306402 -0.41111153 0.23839273 0.24693725 -0.011522924 0.22373487 -0.37154594 0.03854357 0.31496012 0.15475039 -0.18682945 0.22162437 -0.17493929 0.12140999 -0.049062677 0.07728762 0.49868098 0.057596724 0.042998232 0.15045689 -0.20561509 0.04230961 0.31839806 -0.029617742 0.09915207 -0.06886034 -0.012481383 -0.21973544 -0.28358132 0.09144898 0.14341785 0.15466027 -0.11359968 0.22326556 0.117178634 0.01877342 0.31218922 -0.15901725 0.026736634 -0.21767765 -0.20091054 -0.008345528 0.0037052908 -0.23961306 0.4948032 0.21533476 -0.008652495 -0.14212766 -0.2381131 0.014812538 0.006870668 -0.28027323 0.43565583 -0.14105043 0.33826014 -0.02169298 0.32191026 -0.097601086 0.04678553 -0.07680698 0.11547118 0.2032014 0.24848585 0.3569571 0.33508003 -0.23091747 -0.15511797 0.004245223 0.14579988 -0.0068696328 -0.25463152 -0.06417622 -0.21524325 -0.078820005 -0.40070423 -0.1966804 -0.4097866 0.6328039 -0.46797815 0.561132 -0.27633017 0.3296395 -0.2172796 0.42471552 0.0677456 0.069079384 0.40634322 -0.03199729 0.52679473 0.41027355 0.028301917 -0.39151374 0.032396697 0.028250707 -0.039875366 -0.1789333 -0.17184368 -0.3368929 0.124105774 -0.13648288 -0.18016823 -0.097288 -0.17031404 -0.024071727 -0.49017644 0.36193454 -0.2725981 0.08359022 -0.114559844 -0.013350548 -0.34081975 -0.3924292 -0.063011535 0.4490271 -0.08631731 -0.21716747 -0.108533554 0.16240963 0.1596029 0.19583818 0.05826022 0.036563486 -0.29060063 -0.12961279 -0.37724912 -0.35698083 -0.113532916 -0.0021531635
115 -0.12104561 -0.48548505 -0.0055318545 0.10700999 0.0072249193 0.13118486 0.07454476 0.042487375 -0.13640963 -0.12821424 -0.009103693 0.036731265 -0.056293555 0.29891062 0.13732311 0.2722362 -0.30576786 0.11362672 -0.12301876 -0.1629348 0.060391717 0.24279444 0.085874096 -0.32489544 0.2818873 0.11711115 -0.026842156 0.39832658 0.30620936 -0.36714748 -0.1233054 0.06452611 0.18813795 0.17754903 0.39253473 -0.13075921 0.008129121 -0.15471043 -0.27117684 -0.15334392 0.009591806 0.069114976 0.21274388 -0.07717242 0.31599784 -0.15493868 -0.15079227 0.109709665 0.12591727 0.19906324 0.5659374 0.10056073 0.1736959 0.32744247 -0.2193447 0.33295155 0.4023585 0.23673896 -0.06769027 0.3003743 -0.39349705 -0.10710257 0.23682648 -0.18991819 -0.26277757 0.049556125 0.012742554 0.6256908 -0.26897147 -0.20883079 0.1653321 -0.2486453 -0.47943777 -0.16934109 -0.19576466 -0.40499946 -0.071978904 -0.14310864 -0.4965757 0.083860226 -0.026433615 0.086016275 -0.023969946 0.23184335 -0.00519797 0.41655022 0.21101804 -0.2267093 0.27612793 0.24643962 0.30097327 -0.30486318 0.12644444 -0.09668093 0.24523468 0.042967994 0.04743864 0.13900267 -0.043364666 0.13073982 -0.06202967 0.008742924 0.18733966 0.24455234 -0.1493503 0.100961655 0.33247942 -0.19018878 -0.7160449 0.09370631 -0.27706748 -0.06731788 -0.3105455 0.17840536 0.042351346 0.042839576 0.15427046 0.020986669 0.0005221056 -0.27030084 -0.32126796 0.116435274 -0.10345826 -0.101257734 0.4022178 0.28927648 -0.0888314 -0.009958706
53 0.38187063 0.30634543 -0.22831856 -0.13412008 -0.04481597 0.08838363 0.3952197 0.111643955 -0.26681703 0.03202493 0.29600587 0.15212224 -0.21921611 -0.18910788 0.11500747 -0.032897297 -0.0538002 -0.3578695 -0.16133831 -0.43775535 0.32218444 0.25882274 -0.08089301 -0.38863346 -0.36967704 -0.16636086 0.081030674 0.34951782 0.34000543 -0.5175214 -0.09158772 -0.48077178 0.039676145 0.013271918 0.035390593 0.26009354 0.14504316 -0.27630037 -0.036959767 -0.20256218 -0.29538202 0.21082908 -0.044266395 -0.1767118 0.05885052 -0.012752123 -0.2337907 0.65584636 -0.111198254 0.6101289 -0.26934704 0.52346486 0.12685105 0.37069935 -0.025246218 0.15031709 -0.06873497 0.5962023 -0.14094262 0.008028017 -0.7395426 0.08303975 -0.06274913 0.071056664 -0.21969728 0.35338077 0.31070402 0.23513587 -0.3108616 0.27270743 0.19903871 0.21404158 -0.0057975855 -0.45888388 0.1733673 0.24256268 0.0050784633 0.014707581 0.05802649 -0.030690214 0.65947884 -0.30681393 0.508346 0.31677914 0.16665204 0.1752656 -0.05790148 -0.20383382 -0.22181624 0.22077656 -0.1218859 -0.5708594 0.62649846 -0.21036494 0.2155185 -0.09008637 0.12682116 0.3196534 -0.17228279 -0.17607026 -0.092348225 -0.03101342 0.01634261 -0.090715334 0.64756113 -0.35266906 -0.07132625 0.52463776 -0.012688774 -0.3619969 0.30119142 -0.4262003 -0.29530862 -0.5214814 0.132502 -0.13413593 0.39799497 -0.0961162 -0.13755289 -0.6194217 -0.21632104 -0.13481504 0.16875157 0.25862294 0.37343755 -0.04121576 -0.24268192 -0.12673303
87 -0.030271621 -0.05453762 -0.4170525 -0.49880284 -0.15138699 0.11551474 0.4778524 -0.10809776 -0.30274394 0.0014848119 0.15898073 0.04976573 0.23242816 -0.30326477 -0.2491172 -0.19142465 -0.10384545 -0.08357876 0.16284014 -0.48045173 0.10333416 0.47070798 -0.15698516 -0.28947753 -0.48436138 -0.20492207 -0.21039431 0.2924362 0.15404698 -0.38780725 0.09671243 -0.21440351 -0.12716715 -0.08472259 0.061729975 -0.012546329 0.22868213 -0.47756022 -0.27374583 -0.33959404 0.1131282 0.103275225 -0.058369983 -0.24189371 0.14314008 0.08036553 -0.25184703 0.15152486 -0.002333844 0.15305638 -0.1096055 0.5319574 0.30489144 0.4204511 0.14626503 0.21553373 0.34521502 0.23802716 -0.060683675 0.59692395 -0.23780054 -0.27509698 -0.23243673 -0.0022890924 0.19293116 0.13434732 0.17840862 0.15501945 -0.52054304 -0.03736971 0.27884275 -0.12173833 -0.463826 -0.5084031 -0.13604438 -0.1378968 -0.08045845 0.010876102 -0.14668246 0.45753425 0.42195836 -0.039510693 0.16435727 0.33669564 0.3302786 0.27233595 -0.03898811 -0.05642901 -0.037360236 0.27397904 -0.28599653 -0.19118555 0.65149695 0.1965004 0.19041455 -0.2777187 -0.2886717 -0.2791093 -0.36602885 -0.038139816 -0.2281197 0.24510346 -0.1874706 -0.13030276 0.3720476 -0.16937496 0.19148774 0.041199546 -0.081289805 -0.25418842 -0.026168397 -0.34158766 -0.06313488 0.00015259333 -0.15772924 0.09999869 0.32511824 0.19619365 -0.23473854 -0.38014486 -0.21340433 -0.41448876 -0.16627999 -0.014452143 0.38856086 -0.04459341 0.0049418192 -0.24358746
