34 128
34 0.4073581 -0.21518111 -0.6518653 0.8371556 0.18266518 -0.16023904 0.9473069 0.50281745 -0.67161006 0.08383338 0.16467942 -0.5775833 -0.298665 0.3404638 0.57476217 0.43743768 0.5851454 -0.237161 -0.12875329 0.54551935 0.45381635 0.38342613 -0.29224586 0.46518302 -0.16288286 -0.33457392 -0.052478015 0.22890083 -0.30180368 -0.023974149 -0.3175007 -0.44367564 0.7657198 -0.032324616 -0.51867217 -0.18573694 0.113922626 -0.22836095 0.05611318 -0.029236853 -0.29069147 -0.036971897 0.11118524 0.15167174 -0.12911244 -0.0796393 -0.22610986 0.64414614 0.07199051 0.22158468 -0.4458665 -0.19501635 0.46778634 -0.13786235 0.20733382 -0.3064698 0.1530306 -0.39781794 -0.027977018 0.083272666 0.03614324 0.06295786 -0.23692241 -0.2454388 -0.0799192 -0.34120357 -0.3231579 0.2932583 -0.44831324 -0.056192216 0.6416671 0.3377877 -0.11440791 -0.08866222 0.016845493 -0.02068115 -0.17855994 -0.44801846 -0.27640527 0.174178 -0.025326304 -0.18832858 -0.37238806 0.22765437 -0.17670748 0.025108714 0.32568774 -0.09190122 0.59805006 0.33080274 0.36116877 -0.38040882 0.10331654 0.18966967 0.32109103 0.42832315 -0.37745777 0.011619426 0.0015517325 0.16461065 0.06499232 -0.35309905 -0.10417258 -0.43542528 -0.12898347 0.07961746 0.28141668 0.84488815 -0.04484809 -0.19661374 0.016130455 0.053192526 0.08494244 -0.12879623 0.24617268 -0.08495891 0.48133564 0.43971366 -0.11159781 -0.24181008 -0.038957525 -0.17773929 -0.2428832 0.010151383 0.09763407 -0.039035596 0.30705038 0.46193483
1 -0.06514531 0.3876052 0.65664804 -0.46999732 -0.0545076 -0.15800656 -0.41406664 0.040408235 0.8235513 -0.060252458 0.11069372 0.1900412 0.5340777 -0.43921193 -0.31503275 -0.33733004 -0.31531775 0.4192496 -0.16939138 -0.2671845 -0.110031456 0.14279315 0.43151647 -0.5172451 -0.08167523 0.49902508 0.06354523 0.40217012 0.3977984 0.1075981 -0.06567549 0.2764736 -0.68987316 -0.011715644 -0.025218247 -0.012257802 0.10551676 0.26387057 0.3208965 0.073622845 -0.016574914 0.2646448 -0.25031173 -0.34955722 0.23383996 0.49169347 0.39263412 -0.65765935 -0.33786738 -0.25237387 0.092847615 0.43663615 -0.1391132 0.47999728 0.3317387 0.21257947 0.23993985 0.33441383 -0.15963319 -0.4132149 0.09926382 -0.2748279 0.28759998 0.34970936 0.59502804 -0.02412018 0.28296384 -0.20249324 0.12644736 -0.08555652 -0.45589152 -0.059822347 -0.25658524 0.26581782 0.13414507 -0.2524885 0.28204185 0.6128669 -0.119350694 0.024460929 0.08696915 0.20509501 0.19944325 -0.15199931 0.46425557 0.370848 0.0165444 -0.22453053 -0.2355857 0.2582301 -0.6522404 0.08525753 -0.29945698 0.0023695282 -0.08406322 -0.24142352 -0.00625987 -0.53432196 0.18837906 -0.20173144 -0.5258824 -0.09466961 0.43394303 0.31738564 -0.050142277 -0.24432889 -0.50665045 -0.91564566 0.0026369805 0.039911825 0.07625864 0.025714127 -0.13214009 0.5078722 0.040163897 0.42094645 -0.3278081 -0.38666472 0.114156984 0.16398689 -0.08218914 -0.046597775 0.4252526 0.21084629 -0.013915948 -0.67975104 -0.1852896 -0.43856847
33 0.28919 -0.22678708 -0.15006393 -0.095294476 0.057681877 -0.03447545 0.67674005 0.31780788 -0.39923295 -0.051972646 0.20497842 0.035058927 -0.5621146 0.42519248 0.21002476 0.4996192 0.34584805 -0.0030122162 -0.13361393 0.3279427 0.36936104 0.29768708 -0.38380104 0.1728037 -0.09273518 -0.6235921 -0.04057742 0.08984097 -0.23549083 0.14397715 -0.06519357 -0.65765786 0.6452912 -0.14018093 -0.4408665 -0.023331622 0.23936541 -0.0845305 0.21496257 -0.08444409 -0.18800412 -0.29604796 0.15622425 -0.002517115 0.13781972 -0.13398653 0.14898427 0.05857145 -0.1286087 0.044583995 -0.46553084 -0.008818313 0.36385062 -0.18039219 0.76304114 -0.28770965 0.5778861 -0.4110922 0.17370144 -0.26642156 0.23720151 -0.124623574 -0.5758535 -0.19859153 -0.13320157 -0.23072203 -0.2946724 0.5082335 -0.8473527 0.08143996 0.9215729 0.3881257 -0.08725475 0.10108714 0.0005768845 -0.06669173 -0.4028105 -0.3338763 0.100897424 0.2600424 0.27371058 -0.36001307 -0.17186302 0.4999132 -0.107557714 0.27686003 0.31056792 -0.44884196 0.7806159 0.5151188 -0.06941393 -0.10964634 -0.07013735 0.08396326 0.38715222 0.59687185 -0.32217246 0.045454614 -0.16665767 -0.023882477 0.14750355 0.21998976 -0.30935472 -0.45968187 -0.26043555 0.3683693 0.27771088 0.35244447 -0.38905227 -0.34075654 0.0015896881 0.39683044 -0.197915 0.09357118 0.42341775 -0.21644506 0.25976738 0.37087774 -0.18449464 -0.14881736 0.06782483 0.0035754563 -0.3774417 0.15176974 -0.04230925 -0.001764634 0.25825325 0.504513
2 -0.37474445 -0.33619994 0.9222003 -0.25772327 0.050763063 -0.5206837 -0.28936848 -0.4344578 -0.013938135 -0.020871552 0.8040536 -0.03907269 0.20382428 -0.50513 -0.0008506883 -1.0873661 -0.037637677 0.19157973 0.10646459 -0.6543049 -0.34108037 0.16796467 0.06873268 0.43592313 0.3485442 0.8868044 0.09490639 0.27923357 -0.1308731 -0.03554112 -0.11009715 0.46996763 -0.12492532 0.43274444 0.24844554 -0.2685471 0.4624386 -0.100168146 0.3545851 0.23932989 0.24729446 0.46118134 -0.22751208 0.09584448 -0.4168595 -0.0783763 -0.15598807 0.075912945 0.53225 -0.28508162 0.42932543 -0.054577928 -0.13929869 0.31514186 -0.5318425 0.09611124 -0.47860363 0.0007767702 -0.30663866 0.68083525 0.5925717 -0.48362923 0.4295672 -0.12708385 0.20191301 -0.18303864 -0.13460134 -0.32658577 0.6048098 -0.24051668 -0.30426785 -0.9874294 -0.15773064 -0.5351212 -0.115326904 -0.23350106 0.24899803 -0.12182194 -0.15306847 -0.18434708 -0.292832 -0.0960803 0.14602008 0.36065787 -0.21505691 0.21363245 -0.08011442 0.02424846 -0.59867716 0.34798884 -0.2244939 0.74186504 -0.07650041 0.27132738 0.14786284 -0.6745642 -0.53740615 -0.6499008 -0.051400933 -0.1522586 -0.5242062 -0.6113868 0.47339785 0.5035998 0.09629572 -0.43772867 -0.2891984 -0.51865184 0.6163344 0.022330843 0.3417698 -0.54710615 0.43920094 -0.15326783 -0.46801335 0.059142534 -0.69668645 -0.08640042 -0.36966753 -0.39039755 -0.4947599 -0.22274405 0.3045132 0.1755204 -0.6590053 -0.23216403 -0.39420813 -0.15631095
3 -0.17462981 -0.9170678 0.24217044 -0.43618363 -0.33384106 0.089179195 -0.31508276 -0.39756575 -0.8790253 -0.0145969065 0.5861162 0.29630038 -0.5810011 0.02496034 0.100189894 -0.6864341 -0.06221066 0.078998595 0.1494595 -0.6427281 -0.09629395 -0.2554967 -0.18634845 0.63921446 0.17327932 -0.03749063 -0.23192036 -0.6062875 -0.18300454 -0.4036211 -0.13650808 -0.011711232 0.48598644 -0.17082784 0.013098947 -0.29698372 0.7239733 0.03592691 0.42726168 -0.5229928 0.8857914 0.1676141 -0.41966832 0.21756478 0.08207844 -0.68292075 -0.16192439 -0.37143135 0.7084853 0.063924514 0.607545 -0.2924763 0.26997617 0.1873846 -0.104422115 0.18103799 -0.0894388 -0.48105642 -0.06321496 1.0070707 0.79308957 -0.39419004 -0.0012333773 0.4907563 -0.613935 0.02206776 -0.19180906 0.22822763 0.29759622 -0.53848076 0.4901767 -0.46196324 0.25100085 -0.32853928 -0.36047512 0.2708554 -0.25340903 -0.38595283 0.5877906 0.53627807 -0.24841723 -0.2936043 0.3239005 0.5241675 -0.60656154 0.24139406 0.19688049 0.06645018 0.1954883 0.21021478 -0.39274412 0.65637904 -0.007841565 -0.0318926 0.18424657 -0.09233289 -0.23410442 0.16566196 -0.23940986 0.22100899 0.040287774 0.49441966 -0.103181675 -0.084857464 -0.0019645593 0.32805654 0.36241564 0.064500175 0.3348131 -0.15834938 0.4528545 0.099152416 0.15013434 0.04615085 -0.4931189 -0.34738106 -0.3246367 0.35064617 0.19130301 0.5546831 -0.29581597 -0.3012199 -0.21947622 -0.08929371 -0.4744195 -0.019259373 -0.4460226 -0.038599823
4 -0.19129857 -0.23968808 1.1390965 -0.7436552 -0.24638616 -0.3055826 -0.7897521 -0.28155875 -0.15260406 0.16247022 0.8287477 0.16967157 -0.14612393 -0.4304695 -0.32933265 -1.1382236 -0.14827918 0.35235056 -0.22163542 -0.71057475 -0.21017493 -0.0759612 0.4186258 0.04450227 -0.12607428 0.64846957 -0.3680293 0.02571018 -0.15873766 -0.4095209 -0.1977476 0.45460454 -0.45765433 0.0030291558 0.12998725 -0.5036511 0.6790129 0.1593413 0.48351702 -0.08304998 0.7323348 0.36325812 -0.606447 -0.05731389 0.04482647 -0.1848404 0.23303847 -0.6231092 0.15691064 0.059711393 0.5054328 0.28985512 0.034441587 0.42698175 -0.13611674 0.33106512 0.008583048 -0.11639659 -0.05664335 0.9891701 0.7951632 -0.4471671 0.42806885 0.71748513 -0.017272985 -0.095264845 0.06716177 -0.18739381 0.42368504 -0.52168584 -0.22400567 -0.5742412 0.10677386 -0.41783756 -0.1141919 -0.24453793 0.13347647 0.08038726 0.07065823 0.3316181 -0.30901873 0.035953637 0.5115535 0.14043137 -0.31867832 0.46131238 0.13706443 0.22603856 -0.28762633 0.3889075 -0.8777672 0.39060128 -0.29774588 -0.028849734 -0.2578382 -0.4098138 0.017328063 -0.2679761 -0.25390276 0.22645974 -0.31566492 0.21664672 0.25283134 0.4483899 0.14275256 -0.0650792 -0.19857469 -0.74304116 0.41413757 0.07334684 0.11824809 -0.11183269 0.3291121 0.20218617 -0.69210595 0.20359488 -0.6410745 -0.027996682 0.2445992 0.4258585 -0.4400029 -0.41576883 0.19911705 0.19144912 -0.3691779 -0.41236812 -0.5953044 -0.2594045
32 0.13198122 0.28159693 -0.7049113 0.3161516 0.18030146 0.33740166 0.18250044 0.36270642 0.6430447 0.08729556 -0.2782774 -0.6711345 0.33336332 -0.13747786 -0.20663121 0.474271 -0.23588756 -0.47052646 -0.38436964 -0.047967475 0.1366213 0.45339268 0.05519295 -0.31436902 -0.4617548 -0.045279436 0.26380613 0.20720257 0.3895446 0.3866532 -0.38860762 -0.31451747 -0.6997833 -0.032999456 -0.3960573 0.502219 0.2413912 0.38108912 0.7442785 -0.32698375 -0.1505786 -0.44040635 0.3080598 -0.24574722 0.2500523 0.18856324 0.050654035 -0.3054667 -0.40420783 -0.29704648 -0.36754453 -0.18699332 0.18343198 0.18452185 0.6911164 -0.51401263 0.7740545 -0.06311498 -0.29714087 -0.84329295 -0.38128138 -0.28246504 0.09347689 -0.20080142 0.31890666 0.23618217 -0.10999246 0.01613849 -0.47751224 0.12678728 0.029362941 0.3679771 -0.4263561 0.8791146 0.010389943 -0.4012777 -0.020479226 0.20210688 0.3405983 0.18958813 0.009498197 0.078108534 -0.35383362 -0.25939474 0.29041353 0.06938949 0.19791417 0.27929577 0.52946484 -0.15123814 0.538158 -0.3814996 0.108577676 -0.0025525836 0.014745759 0.046076592 -0.073596895 0.15899056 -0.49598876 0.4037504 0.2273135 0.2904883 -0.4829819 0.1680671 0.10871017 -0.08137657 -0.28244153 -0.39894527 -0.4385971 0.25879335 -0.21471961 0.024931956 -0.062332366 0.26781827 0.43648183 0.6183913 0.21304244 0.17339183 0.14874448 -0.3079729 0.2935195 0.3092404 -0.074921064 0.44034585 0.51041675 -0.30808538 0.46668828 0.12363748
7 -0.002172591 0.5216732 0.7263327 -0.6280554 -0.06396773 -0.38353106 -0.5947571 -0.15199797 0.73556006 0.044326022 0.44343534 0.5905636 0.06623751 -0.17193691 -0.12840524 0.17806599 -0.38493553 0.10199939 -0.19127114 0.14200038 0.22345373 -0.28227666 0.57606757 -0.58267295 -0.6386054 0.55342233 -0.45374453 -0.087601915 0.4822249 -0.057626832 -0.87126946 0.5772327 -0.60962427 -0.05478678 0.489227 0.5270757 -0.09204196 0.28301278 0.01315326 -0.09800131 -0.31474185 0.40625915 -0.110530935 -0.5982311 0.1379852 0.14559609 -0.005149603 -0.6025138 -0.2873982 0.5605844 0.7785469 -0.0026101735 0.061711475 0.12667505 -0.07376731 0.39657423 0.18513514 0.6699998 -0.35580513 -0.21666992 -0.56346154 0.13115326 0.025763938 -0.06358658 0.2859532 0.13250718 0.9068077 0.2167843 0.16741022 0.053103216 -0.30333778 0.28300244 -0.030892836 -0.41598678 0.007932767 0.07646575 0.17196654 0.1557384 -0.19382711 0.23206137 0.40470374 -0.4295145 0.4292823 0.38303247 0.3289796 -0.6293993 0.17268899 -0.32071742 -0.26182413 -0.40284058 -0.3038173 -0.4018725 -0.13067321 -0.3572044 0.09963872 -0.28317583 -0.08476245 -0.7141903 0.6983068 -0.97507066 -0.5894695 0.13995229 0.41758335 0.49367166 0.27575496 -0.5029126 0.47431937 -0.4146532 -0.03096369 -0.21550049 -0.27230182 0.14559107 -0.17462616 -0.001544648 -0.21852493 -0.14470422 -0.2552439 0.31519842 0.73182696 0.685223 0.2670857 0.090412475 0.46674347 -0.23926787 0.22893085 0.11803554 -0.22099961 -0.41120678
6 0.01266112 0.64419866 0.95546234 -0.72513527 0.005415708 -0.5960014 -0.6349353 0.013317009 0.8628222 0.1297233 0.6007522 0.68456703 0.15507534 -0.18915386 -0.18971032 0.103562005 -0.25481147 0.29439455 -0.26571843 0.2613765 0.2637884 -0.23497519 0.7048422 -0.74607265 -0.6998545 0.6311282 -0.5186454 0.11441577 0.41446534 -0.13113607 -0.86009866 0.5723954 -0.67964435 0.015136727 0.44174975 0.44638932 -0.2121607 0.21936227 -0.010235678 0.041208185 -0.50085574 0.51722187 -0.25125036 -0.71890754 0.2172545 0.27263945 0.15614867 -0.5503645 -0.4416211 0.71859765 0.60833377 0.28589675 0.11664259 0.16181794 0.007450888 0.46947998 0.21353209 0.7808495 -0.2512929 -0.18561782 -0.4838447 0.21105945 0.02392993 0.034245614 0.53374964 0.032414094 0.95897603 0.24494366 0.14212437 0.051443823 -0.36190996 0.2990383 0.020075688 -0.59442896 0.13821204 -0.093016356 0.2444829 0.29123265 -0.41354406 0.28662154 0.40053892 -0.4413629 0.458933 0.47482526 0.41149232 -0.5466598 0.25169238 -0.48129115 -0.2984425 -0.26240265 -0.48721892 -0.57838494 -0.26255435 -0.3427 0.026332464 -0.23947142 -0.08614295 -0.9972196 0.80996937 -1.081378 -0.8465031 -0.053881638 0.53227925 0.52961034 0.18471211 -0.5440888 0.30630782 -0.5516783 -0.020843806 -0.2224825 -0.38090256 0.17486651 -0.15461817 0.10134154 -0.3373837 -0.12070973 -0.3001115 0.21157368 0.74807525 0.67355216 0.10853102 0.016258337 0.56688994 -0.21555784 0.1896095 0.032025833 -0.21338363 -0.43624195
28 -0.12510885 -0.17165072 -0.9010568 0.52507615 -0.055634562 0.6865823 0.29391032 -0.45949662 -0.59122914 -0.0028833784 -0.017684044 -0.6622131 -0.24039061 0.09493896 0.38655296 0.07676574 -0.3278993 -0.435055 0.10333152 -0.21945363 -0.46500766 0.37194455 -0.5222359 0.6946238 0.0944309 -0.06416828 0.14824112 -0.5723989 -0.18342128 0.54414016 -0.07047695 0.0034972215 0.0563252 -0.123213075 -0.04428371 -0.10775469 0.6950086 0.39442724 0.34785366 -0.49877235 0.34309295 -0.39146364 0.7623091 0.37884703 -0.39631903 -0.4428495 -0.7535722 -0.045251913 0.57605815 -0.44719523 0.5877333 -0.92326576 0.1362424 -0.1346996 -0.129766 -0.23937897 0.16018002 -0.5744615 -0.36279988 -0.07248388 -0.18098803 -0.4593379 -0.07806727 -0.62928855 -0.3308286 -0.06340161 -0.27084985 -0.024120469 -0.19837965 -0.24000648 0.4509365 0.21086264 -0.48163795 0.58665055 -0.61715287 0.21581812 -0.06070901 -0.1986489 0.234727 0.43111417 -0.13137972 -0.056093253 -0.46314085 -0.06033619 -0.5237099 -0.18341003 0.3738813 0.6710554 0.44301042 0.25564522 0.54776055 0.27359775 -0.1532039 -0.13900933 0.68518525 -0.16982855 -0.6855601 0.5715014 -0.4469087 0.21880199 0.58320665 -0.13857447 -0.22307195 0.035926025 0.11361894 0.04260351 0.7227851 0.46779963 -0.3429741 -0.18196662 0.81308275 -0.034335632 0.28122753 -0.08856535 0.31954142 0.12188842 -0.3568954 0.76154274 0.01446976 0.059412595 0.39301613 0.05177498 -0.21031767 0.18324669 0.32751164 -0.36940476 -0.14282458 0.5113698
24 0.10764724 0.19208404 -1.2417051 0.9006859 0.08407294 0.5289826 0.6661412 -0.030791573 -0.37036958 0.09802951 -0.2134806 -0.7195092 -0.113647275 0.28700027 0.47982144 0.7567039 -0.06944033 -0.518047 -0.0010759769 0.40474948 -0.093659714 0.4553692 -0.43218908 0.37787676 -0.23992139 -0.28514034 0.02160721 -0.4594027 -0.07360155 0.5290909 -0.37633863 -0.13740192 0.07387468 -0.16445462 -0.10586575 0.21982913 0.27454865 0.30408502 0.12511425 -0.42637497 -0.20566882 -0.4196822 0.8434804 0.19441788 -0.22489811 -0.15132728 -0.790678 0.2137368 0.17133944 -0.05735365 0.21324998 -0.74887013 0.33095497 -0.3019096 0.047301497 -0.34986094 0.2522664 -0.251464 -0.29486528 -0.5214454 -0.67921215 -0.08817956 -0.21558954 -0.7384948 -0.07777667 -0.17538409 -0.08806827 0.23991987 -0.4962259 -0.08504022 0.5389104 0.729814 -0.5632289 0.5344167 -0.43149886 0.12362186 -0.10844437 -0.20886427 -0.09324956 0.52207 0.09300834 -0.18966606 -0.54794276 0.12528619 -0.1734601 -0.48379344 0.5650606 0.42005634 0.7348343 0.09592714 0.7664512 -0.43405184 -0.13078521 -0.14039803 0.74454576 0.14338462 -0.6773248 0.37253776 -0.088551916 -0.08276896 0.43071112 -0.30109304 -0.2264518 -0.088605836 0.07073291 -0.060917664 0.88098925 0.82830834 -0.53279734 -0.30156687 0.4643209 0.14465167 0.13327293 -0.10960777 0.44636345 0.08585626 0.13866177 0.95149887 0.21711493 0.10842371 0.57033545 0.13405417 -0.18040556 0.082264826 0.6559088 -0.29388058 0.2189895 0.6182059
9 0.1704953 -0.44968456 0.24506316 -0.40104765 -0.17803884 -0.04432271 0.13830686 0.061128948 -0.4022843 -0.13888083 0.22795679 0.40601736 -0.36194396 0.24970093 0.17307839 -0.08876492 0.12035092 0.37909508 0.10149914 0.016207363 0.18399863 -0.046730112 -0.20130505 0.16231704 0.17759973 -0.33743402 -0.14356883 -0.13276225 -0.0685752 -0.102985896 0.13060892 -0.27106825 0.69382876 -0.19382334 -0.21175762 -0.3141327 0.23529187 -0.056130018 0.023556385 -0.10956279 0.18975338 0.09419688 -0.25574023 0.074380495 0.27778077 -0.1799939 0.19115616 -0.23700361 0.14731124 0.063921764 -0.06369991 0.18963416 0.1746483 0.07070522 0.39430022 0.22460781 0.16948448 -0.25961217 0.19265233 0.15796572 0.502928 -0.15721451 -0.29379132 0.36074358 -0.16479449 -0.18364188 -0.064647876 0.28208008 -0.20895272 -0.17532814 0.55871046 0.08952565 0.09110979 -0.068106815 -0.023178859 0.15654647 -0.21111949 -0.04997636 0.1597178 0.3016017 0.093432315 -0.19574477 0.14853668 0.39518878 -0.12332027 0.3921126 0.18890338 -0.464056 0.37940997 0.53800005 -0.6122828 0.24368569 -0.23677975 0.015492055 0.25353423 0.38436413 -0.17642042 -0.05773973 0.07284861 -0.04715667 -0.11361644 0.23377901 0.065816544 -0.4377336 -0.31796944 0.4332094 0.14535113 0.071859986 -0.08755502 -0.2824208 0.2864008 0.38839012 -0.23521832 0.27960253 0.013450334 -0.27706435 -0.030069472 0.020999119 -0.015553534 0.4052047 -0.15298915 -0.24422993 -0.18492986 -0.03774929 -0.26612395 -0.19641443 -0.2253041 0.10766627
30 0.7617763 -0.4560377 -0.9729385 1.2529483 0.2953676 -0.6742761 0.6860592 0.9649949 -0.6714943 0.33917594 0.06428198 -0.71368814 -0.21530515 0.4180912 0.8096182 0.3901928 0.8092582 -0.27615955 -0.24082658 0.85821867 0.76493996 0.21354735 0.010341398 0.4117942 -0.43762147 -0.043806735 -0.1989579 0.32114753 -0.24958442 -0.51545864 -0.996723 -0.48464411 1.0378511 0.25821275 -0.7021639 0.0525871 0.04683069 -0.34552836 0.15186995 0.15269463 -0.4319194 0.40496626 -0.21875091 0.1300608 -0.073786154 -0.121567585 -0.37498644 0.90120757 -0.06674068 0.7348365 -0.48390114 -0.078819975 0.79589564 -0.12270006 0.056276873 -0.14884719 0.033132844 -0.49470645 0.028168846 0.4642764 0.040183056 0.44596103 0.0602492 0.18488267 -0.067487046 -0.33427337 -0.056101207 0.25828764 -0.18477641 -0.20697281 0.44875383 0.35696092 0.18271792 -0.6489331 0.15128411 -0.08712049 -0.10573219 -0.29632246 -0.68689156 0.17382398 -0.392286 -0.1824518 -0.21382987 -0.054237057 -0.15229014 -0.39084524 0.5801073 -0.034136433 0.5470062 0.2478105 0.4709082 -0.8805138 0.10404906 0.13780059 0.025567474 0.5553609 -0.28605992 -0.478589 0.38734183 0.2303033 0.049113635 -0.5049071 0.031805094 -0.64443487 -0.0020222685 -0.031864572 -0.03379468 1.0769632 0.29872745 0.24613291 -0.49799713 0.16781613 0.27124402 -0.26859072 -0.3508708 0.031911727 0.5312089 0.30973336 0.3494121 0.12387962 -0.32136336 -0.4658563 -0.4162955 -0.0071093263 0.32642695 -0.0049390905 0.39065224 0.43957824
25 -0.10913068 0.33347338 -1.0701045 0.42819166 0.12184864 0.79482305 0.041552465 -0.15111575 0.5669827 0.10524347 -0.19152264 -0.9764601 0.31925514 -0.25666988 -0.09610497 0.36663553 -0.6603131 -0.76375365 -0.3473677 -0.37900943 -0.30846733 0.6053544 -0.1252736 -0.028996173 -0.50061643 0.20855685 0.2940952 -0.25234398 0.4544132 0.8111371 -0.6004687 0.014921143 -1.0962003 -0.05845354 -0.17426923 0.5927874 0.69273984 0.7589366 0.9936359 -0.6688558 0.10344809 -0.608887 0.8435425 -0.15103254 -0.06963501 -0.124364674 -0.54156053 -0.562833 -0.0086754775 -0.57962716 0.39388323 -0.904267 0.17426537 0.16305609 0.4296898 -0.5720285 0.8413745 -0.22936934 -0.7103262 -0.9098274 -0.6530001 -0.6532874 0.1393005 -0.7062768 0.19574103 0.30548856 -0.05933802 -0.106404796 -0.40007994 -0.04680124 0.009763881 0.3860382 -0.7854686 1.2104306 -0.42129984 -0.29925582 0.103890814 0.16779357 0.5264251 0.43597853 -0.056149878 -0.0031689242 -0.5628067 -0.29699424 0.019572493 -0.24142106 0.40593365 0.8315193 0.58293986 -0.16864523 0.8956589 -0.14817986 -0.020759111 -0.19727916 0.4428798 -0.35259724 -0.5037015 0.36913285 -0.74167365 0.347553 0.5081389 0.18244074 -0.5011635 0.49170113 0.3536567 -0.30109605 0.20982546 -0.40453705 -0.59073293 0.20855772 0.33045182 -0.10487078 0.199377 0.19680496 0.5221121 0.7796561 -0.27752292 0.67258984 0.30482775 -0.1973937 0.62844616 0.42957023 -0.0057011186 0.54423124 0.75009215 -0.4922082 0.24396694 0.2597694
5 0.013489432 0.61639863 0.6534867 -0.49708676 -0.117084734 -0.22897835 -0.7108883 -0.13710453 1.3009347 -0.14821933 0.055231217 0.4245995 0.6246598 -0.4953061 -0.1493733 0.06025282 -0.8997651 0.16655247 -0.2441011 -0.19291739 0.039581753 -0.10284635 0.72246325 -0.6571464 -0.5133782 0.77681935 0.032060582 0.241552 0.8606228 0.111588836 -0.83295923 0.51956576 -0.88198245 -0.14353716 0.20325999 0.62919986 0.19295563 0.62910426 0.60869795 -0.26900727 -0.20950727 0.5010725 -0.20032482 -0.65787953 0.32116973 0.60058993 0.2198871 -1.0673717 -0.3153943 0.038985766 0.7858934 0.11320856 -0.079255246 0.5378089 0.19945489 0.4556668 0.3392317 0.6797117 -0.61804724 -0.68409425 -0.59038526 -0.07734596 0.3922809 0.3044532 0.5314154 0.28956866 0.9120058 -0.061973672 0.34612632 0.06694425 -0.51159835 0.33649635 -0.30182824 0.21366736 0.00965412 0.13834015 0.33327073 0.6907043 0.016535476 0.20260142 0.43223673 -0.03783097 0.48025072 -0.11149267 0.5904632 -0.31918877 0.06854405 -0.3654967 -0.40663594 -0.42281795 -0.43657914 -0.13157192 -0.08344768 -0.2928323 0.06329077 -0.43871742 -0.2210348 -0.8592338 0.7933086 -0.8607774 -0.7278321 0.23510739 0.61045504 0.637131 0.15441948 -0.51810753 0.06387431 -0.91723365 -0.020327108 -0.014488501 -0.06840704 0.16791482 -0.41998377 0.4423765 0.044166993 0.19375506 -0.32102653 -0.041049343 0.7324124 0.7860509 0.34242907 0.16065726 0.64630383 -0.0013639767 0.38219184 -0.5135335 -0.22977056 -0.7641869
26 -0.0048723286 0.5515675 -1.2951666 0.6501941 0.1864721 0.7223189 0.2036406 0.09154675 0.7506757 0.20419852 -0.3571776 -1.0126971 0.45958564 -0.1707784 -0.13045397 0.7849878 -0.53272843 -0.84889925 -0.4113033 -0.04347817 -0.058856517 0.63675505 -0.02215648 -0.23954563 -0.7128579 0.07058149 0.21328314 -0.2176918 0.55324835 0.7486598 -0.79787016 -0.07989343 -1.1247828 -0.08888944 -0.17711227 0.8340012 0.40771532 0.68145627 0.87876576 -0.63788635 -0.19379751 -0.6418013 0.8032631 -0.2788563 0.073446974 0.0924911 -0.5330053 -0.4035523 -0.28757665 -0.33988038 0.110190496 -0.7299316 0.2599706 0.07832734 0.48250887 -0.6354854 0.8465694 0.054211345 -0.65671873 -1.1543355 -0.9811175 -0.3928788 0.12444662 -0.68436134 0.37196356 0.28429183 0.056143276 0.040434014 -0.53050435 0.03260315 0.004640362 0.66621727 -0.8125557 1.1971507 -0.30344194 -0.39615145 0.041437604 0.17323641 0.38603947 0.51043326 0.07056927 -0.058777142 -0.58350605 -0.15645479 0.26719755 -0.4023106 0.46942344 0.6848035 0.7280007 -0.37273175 1.0443052 -0.5914475 0.061794765 -0.1771409 0.40090606 -0.20026797 -0.4450514 0.27975193 -0.543315 0.2002036 0.38397947 0.1523547 -0.5550839 0.45933577 0.32205647 -0.36930355 0.27147955 -0.2093807 -0.6766284 0.1509792 0.038828857 -0.02958196 0.09774068 0.18455814 0.53536314 0.76117903 0.09086406 0.7943271 0.45242205 -0.1526779 0.7082801 0.47082263 0.0045009097 0.48898432 0.92457765 -0.43481824 0.48281252 0.27263734
11 0.053980876 0.513454 0.75252193 -0.45015156 -0.06534589 -0.4262871 -0.60633045 0.025377141 1.0585581 -0.08195894 0.19048792 0.44973856 0.542619 -0.37649179 -0.06510125 -0.06961338 -0.65158945 0.32353818 -0.24072298 -0.04579386 0.119563326 -0.10213896 0.69930834 -0.5725663 -0.46177936 0.7150711 -0.03210504 0.36143535 0.64510715 -0.028502954 -0.75491667 0.4323524 -0.62639594 -0.07376956 0.124080524 0.42007938 0.107017666 0.474238 0.50397235 -0.13333346 -0.30761033 0.6114276 -0.35484332 -0.59840965 0.32061088 0.5969313 0.2704488 -0.8158924 -0.28283125 0.21006459 0.54711413 0.31322587 0.01919072 0.50521326 0.17630178 0.5170695 0.20007145 0.6457723 -0.45183244 -0.43134218 -0.38645273 0.036911655 0.35480574 0.4076495 0.5736487 0.15031835 0.7952663 -0.010187534 0.34518656 0.00800549 -0.42335358 0.27050507 -0.17170958 -0.08769087 0.097098336 0.06904126 0.30665255 0.62439746 -0.18031529 0.23589173 0.36497766 -0.07486492 0.49816126 0.029055562 0.51810735 -0.24703185 0.13458277 -0.4912932 -0.38736594 -0.26444918 -0.5423691 -0.2201667 -0.15043898 -0.20536648 0.023015989 -0.31217626 -0.24984705 -0.97349316 0.8455427 -0.84829205 -0.868514 0.03824686 0.66475785 0.5239684 0.012749833 -0.42171708 -0.010055674 -0.7810492 0.070543066 -0.052782994 -0.11975578 0.17128743 -0.34650564 0.42235878 -0.11800843 0.09027663 -0.26838714 -0.09189098 0.659504 0.7357052 0.11963293 0.025045078 0.61462367 -0.024611298 0.23459074 -0.4827018 -0.21318021 -0.6820977
14 -0.25686768 0.025473408 1.1147026 -0.47216803 -0.034592763 -0.42565027 -0.5404453 -0.22916788 0.17706181 0.0905609 0.73885596 -0.043078367 0.21889032 -0.5082528 -0.2542382 -1.0938753 -0.14353494 0.34478343 -0.19735989 -0.581701 -0.34434247 0.23719364 0.36340538 0.01916993 0.0697263 0.8539365 -0.05360607 0.3833051 -0.109373465 -0.12248167 -0.033120636 0.47975954 -0.57428133 0.22798105 0.12042134 -0.44983596 0.50443196 0.14607204 0.41817448 0.20739155 0.28514585 0.29531452 -0.28766674 -0.025236167 -0.087564275 0.107156925 0.14245974 -0.29327112 0.15514222 -0.16256858 0.17629042 0.36358318 -0.12102018 0.41072863 -0.2329928 0.2253273 -0.14783597 -0.00080331345 -0.079736985 0.5669219 0.61918855 -0.45600373 0.47191957 0.32075074 0.34995788 -0.15667318 -0.02458574 -0.35522994 0.38425574 -0.2944554 -0.3721866 -0.62567747 -0.14079764 -0.3005968 0.0032528078 -0.37282884 0.24257879 0.23503229 -0.16110638 0.072564855 -0.30418557 0.10670805 0.27147862 0.07868289 -0.17970325 0.42754883 0.030517528 0.18380864 -0.44156936 0.4546547 -0.6052114 0.37869975 -0.31226715 0.12318314 -0.1562775 -0.48193246 -0.24009423 -0.49808884 -0.19901863 0.08829267 -0.4906752 -0.29445192 0.38380975 0.60115707 0.042351782 -0.25323987 -0.36994407 -0.8767652 0.3210386 0.11214179 0.20134816 -0.30334848 0.37134725 0.1375049 -0.44460824 0.28148383 -0.6830731 -0.19374493 -0.0947626 -0.11821822 -0.41260245 -0.258517 0.3237948 0.30997935 -0.3719977 -0.4945078 -0.43093935 -0.16843365
8 -0.33730152 -0.5310423 0.39944923 -0.31229183 -0.15505235 -0.09032228 -0.48018184 -0.37305295 -0.21333504 -0.015155835 0.53771204 0.08089298 0.067328304 -0.42214367 -0.03529791 -0.89025277 -0.18834943 0.080051914 0.11608197 -0.8006706 -0.3319807 0.011716201 0.06396597 0.41882223 0.2827896 0.47365186 0.08503818 -0.16030866 -0.011088972 -0.2353296 -0.10624491 0.17970249 -0.098675996 0.09362446 0.026202537 -0.17459846 0.6592347 0.13986203 0.61100537 -0.31220776 0.68036294 0.22179183 -0.3410898 0.11177268 -0.015859699 -0.24767579 -0.054900344 -0.319546 0.5801232 -0.2072371 0.46936867 -0.103442445 0.05145477 0.4040181 -0.18299855 0.1260889 -0.18184184 -0.19236879 -0.22790965 0.69648284 0.6267326 -0.4559295 0.36830708 0.31302765 -0.046361983 0.04662176 -0.09960986 -0.12764262 0.5099065 -0.42843348 -0.0024206224 -0.6714064 0.022679282 -0.15814885 -0.2827233 0.0056099375 0.054716244 -0.026380481 0.3600481 0.30069807 -0.33142707 -0.031153865 0.15725565 0.28115234 -0.33901942 0.355534 0.05557143 0.1465244 -0.2204692 0.15376523 -0.30258018 0.6731639 0.010053369 0.076610155 0.04926361 -0.4248539 -0.32959393 -0.17351136 -0.19376834 0.18480937 -0.2757636 0.027688742 0.18375768 0.33941856 0.04821624 -0.09836921 -0.11766317 -0.4487483 0.41452152 0.040882457 0.3875211 -0.21518482 0.22632265 0.12784675 -0.49807766 0.023827858 -0.5503613 0.051212005 -0.009916381 0.15283266 -0.4280787 -0.233305 0.09518727 0.06225321 -0.4514002 -0.3463258 -0.37187627 -0.19730394
20 0.09599522 0.0063634827 0.38041425 0.26477656 0.21900195 -0.5147741 0.49730068 0.24765462 -0.122471265 -0.090262 0.34565172 -0.27684647 0.2702677 -0.16493608 0.2960571 -0.32132167 0.40958387 0.29226196 0.049923882 0.13924307 0.027855141 0.39246202 -0.083789654 0.26559612 0.37864 0.25627545 0.24303782 0.71882546 -0.22006284 0.061723292 0.2251741 -0.06889233 0.40083084 0.22194315 -0.30546716 -0.52353734 -0.0032462608 -0.22269683 -0.063491784 0.41140684 -0.24985762 0.20159225 -0.121430166 0.18693647 -0.20652102 0.355033 0.18457514 0.44880274 0.065122664 -0.23252855 -0.49615413 0.35829645 -0.062709324 0.17553687 0.010221803 -0.047591664 -0.19603673 -0.098016895 0.042792592 0.045273762 0.3848619 -0.08814085 0.12935466 -0.12656543 0.38936988 -0.43095803 -0.2672741 -0.19280355 0.019910233 0.04141313 0.03843032 -0.2573493 -0.20535685 -0.16588406 0.15037301 -0.15247309 0.12505509 0.038482618 -0.53468 -0.26206654 -0.12376195 0.16063099 -0.16552396 0.038750138 0.06986104 0.51937044 -0.11942745 -0.32772964 -0.20202294 0.5913988 -0.3067997 0.17443076 -0.13843751 0.3933188 0.071883716 0.021204306 -0.31825003 -0.37322605 0.13840058 0.009144917 -0.42021748 -0.77314526 0.38786754 -0.09053179 -0.24109794 -0.11657851 -0.3814744 -0.04958548 0.21069139 -0.121215746 0.20737186 -0.21516839 0.09186516 0.024081724 0.12806453 0.06401125 -0.080210455 -0.3223463 -0.5931904 -0.52450985 -0.37519494 -0.25551632 0.1536846 0.13635954 -0.37203053 -0.42899725 -0.03645014 0.12705281
15 0.39857125 -0.22734156 -0.41166544 0.28540957 0.13491458 -0.0035483048 0.8738528 0.3553429 -0.5603691 -0.008515839 0.12820907 -0.2107548 -0.5860784 0.467859 0.40442988 0.59600496 0.41819742 -0.123797156 -0.12095231 0.50993985 0.46477962 0.34252393 -0.4033712 0.2911375 -0.20697641 -0.5684975 -0.07364872 0.089511834 -0.24540451 0.119798526 -0.20045473 -0.598174 0.761822 -0.12169096 -0.49446553 -0.043983925 0.19437459 -0.1054298 0.14109063 -0.088393986 -0.32128775 -0.2448252 0.19662546 0.064485945 0.08035769 -0.17216204 -0.02706287 0.29140148 -0.115383014 0.1799214 -0.4443844 -0.17615925 0.49187422 -0.22598763 0.5847478 -0.3145812 0.50375384 -0.45263204 0.07927169 -0.2359515 0.09155871 -0.059075717 -0.51409864 -0.29763925 -0.18394712 -0.28603786 -0.2987075 0.5162215 -0.80498785 0.06147876 0.94084525 0.50840545 -0.11292633 0.09061655 -0.018975696 0.02153562 -0.3941288 -0.4384801 0.0077476716 0.27135888 0.21463746 -0.39950928 -0.29751855 0.45151424 -0.19183372 0.06115368 0.4061592 -0.33563757 0.8805372 0.43513802 0.19468245 -0.27869037 -0.0033170357 0.07149277 0.46042448 0.61170644 -0.38119268 0.061489623 -0.12978773 -0.015334222 0.17958802 0.054615296 -0.29347467 -0.5021401 -0.23474339 0.29920006 0.41405743 0.5950735 -0.36111954 -0.2996372 0.00024030707 0.29165423 -0.117737465 -0.019329475 0.38529336 -0.2300232 0.3981841 0.5123333 -0.10897188 -0.12802918 0.12724665 -0.012191926 -0.37448892 0.11140587 0.052047506 0.029847078 0.2755543 0.5777386
17 0.0922926 0.8016469 1.0012456 -0.83851033 0.063131504 -0.77627873 -0.66576475 0.07804814 0.8757703 0.24028437 0.80556554 0.86865646 -0.071774326 -0.0066497885 -0.18370013 0.4498288 -0.10496772 0.17570934 -0.34303826 0.5889422 0.5232607 -0.34214586 0.8224686 -0.9396028 -1.0319804 0.60235274 -0.8373957 -0.061526097 0.43947342 -0.22284661 -1.2570319 0.64946234 -0.7069066 0.049261782 0.62297714 0.70618415 -0.41498742 0.16290563 -0.2532164 0.040543184 -0.7774013 0.49121246 -0.14119 -0.9023208 0.23440576 0.122333296 0.023934795 -0.4718509 -0.5949901 1.2004251 0.71729445 0.1948164 0.26306003 -0.040089823 -0.0449 0.46549115 0.31304556 0.9498302 -0.23878787 -0.21030033 -0.7794911 0.43401292 -0.18597797 -0.22761542 0.5162115 0.033327226 1.2567003 0.53433645 -0.013781529 0.13841501 -0.24482496 0.5562539 0.11117514 -0.94097716 0.16284858 -0.08202279 0.15699166 0.07505749 -0.56615543 0.4095184 0.5391538 -0.78610367 0.5032025 0.8111216 0.42589653 -0.9795341 0.397822 -0.5850166 -0.17974624 -0.45341015 -0.34825596 -1.0218894 -0.2617088 -0.50933486 0.092965476 -0.12313143 -0.051282637 -1.1241598 1.0020088 -1.418691 -0.871836 0.0069739562 0.46161783 0.5555029 0.3222453 -0.6791411 0.69313943 -0.3195159 -0.13944423 -0.34542915 -0.67426306 0.27579594 -0.14463046 -0.11932808 -0.4392382 -0.3186516 -0.20259017 0.5529712 1.0382767 0.796075 0.24173123 0.08402037 0.54395276 -0.40084445 0.34622297 0.41672617 -0.15897109 -0.2980493
19 0.4689352 -0.38607866 -0.66129947 0.46237198 0.15400706 -0.00475791 0.9415966 0.5395986 -0.6085083 0.012698229 0.15554541 -0.31253406 -0.5206883 0.4803886 0.4852378 0.64666814 0.5524502 -0.28390184 -0.1889581 0.4553635 0.58980036 0.3249414 -0.4216817 0.30729836 -0.28452653 -0.5641033 -0.09585186 -0.0061129597 -0.16519292 0.013248948 -0.38328785 -0.69416434 0.824051 -0.118520856 -0.60610074 0.018945197 0.17898718 -0.17743203 0.2510139 -0.23656298 -0.19826119 -0.22306387 0.0545433 0.08545003 0.13238378 -0.2472519 -0.11265703 0.35593933 -0.07084152 0.1823255 -0.5223601 -0.23582137 0.60390687 -0.12859371 0.63103575 -0.4319808 0.50263643 -0.45500597 0.03848214 -0.14966065 0.107810475 -0.049870305 -0.5074556 -0.13722296 -0.21863377 -0.26492864 -0.35899225 0.5942307 -0.77740407 -0.045054417 0.94248635 0.4699519 -0.07879216 0.056643914 -0.009329949 0.018509723 -0.43919513 -0.5078219 0.061979 0.30424336 0.07593169 -0.4261372 -0.27922004 0.50756615 -0.17210616 0.05532887 0.40205613 -0.28060865 0.9688342 0.35644352 0.24771687 -0.33528978 0.036050003 0.12164004 0.38336915 0.5898764 -0.29449615 0.15336867 -0.13482581 0.12972265 0.23949495 0.08073559 -0.3916273 -0.6057914 -0.19158974 0.29828143 0.34541747 0.7287982 -0.17990184 -0.23128738 -0.048818793 0.343857 -0.092941366 -0.025033785 0.29727498 -0.12492231 0.4650946 0.5474653 0.00019332321 -0.10909465 0.067220494 -0.08978345 -0.37510264 0.102373175 0.029167587 0.047525898 0.42357364 0.52978146
27 0.8488963 -0.49695534 -0.93276507 1.437755 0.32422966 -0.93072134 0.6660428 1.140982 -0.72381896 0.4293723 0.16896412 -0.79393667 -0.11223939 0.37983328 0.8937372 0.26668048 0.9742208 -0.24205811 -0.2888898 0.95555484 0.90446603 0.15573475 0.16929011 0.40837333 -0.520968 0.11596597 -0.2825363 0.49183273 -0.29065457 -0.75773907 -1.1689417 -0.43352386 1.1209222 0.3374342 -0.75093234 -0.017874192 -0.063311726 -0.46733904 0.07723594 0.2595354 -0.4645479 0.64839464 -0.45960057 0.11194464 -0.09271935 -0.057214934 -0.341685 1.0770763 -0.06844688 0.93392956 -0.5307137 0.07504939 0.85017806 -0.0625604 -0.117023535 -0.06490497 -0.127254 -0.43568453 0.043159906 0.74642646 0.10836299 0.5844409 0.21949753 0.37620398 0.0016548733 -0.3692503 -0.005267942 0.18561356 0.013573247 -0.29327565 0.28451085 0.2324084 0.30768377 -0.92942256 0.278592 -0.14333363 0.0018269892 -0.31248638 -0.8941344 0.12206301 -0.513443 -0.121832035 -0.13974361 -0.11907635 -0.12615648 -0.41551295 0.57006997 -0.052626107 0.40099388 0.1895084 0.40900776 -1.0188637 0.16742441 0.20694378 -0.16307801 0.54211766 -0.19982582 -0.6762505 0.53714114 0.27109358 -0.13658518 -0.6732557 0.19746827 -0.6541223 0.030800018 -0.1252447 -0.19778566 1.139776 0.54159355 0.3542483 -0.66500854 0.102407925 0.36609274 -0.3138693 -0.57009435 0.072271556 0.61355805 0.18732671 0.43416527 0.16158938 -0.51706535 -0.615966 -0.35384014 -0.06888579 0.28813812 -0.006530643 0.38344738 0.30974802
29 0.17001742 -0.8596431 -0.21339855 0.25960976 -0.2630829 0.0031498275 0.112831764 0.08322918 -1.1347157 0.15156826 0.4588535 0.014128154 -0.70217377 0.12481051 0.31315884 -0.30228832 0.5115252 -0.21254916 -0.0531777 -0.15783505 0.3983963 -0.26577747 0.062262155 0.5757947 -0.26471367 -0.18922833 -0.57098275 -0.5759553 -0.27196312 -0.82562155 -0.4184644 -0.112477146 0.618077 -0.257837 -0.24970046 -0.30202797 0.4177551 -0.3169512 0.21982874 -0.5018917 0.7644166 0.35401163 -0.5814885 0.098320276 0.093950346 -0.6672148 -0.22937192 0.22159232 0.51866454 0.5972338 0.35411972 -0.32766643 0.7002534 0.06023868 -0.22699398 0.115764804 -0.13978934 -0.31719536 -0.011166753 1.2746124 0.60252506 -0.065785855 -0.08992003 0.7088773 -0.60176736 -0.1427839 -0.14694293 0.35741866 0.2513419 -0.65321994 0.49982503 -0.24224457 0.5088535 -0.5949232 -0.19236636 0.20562753 -0.22248441 -0.70979303 0.35772935 0.62340564 -0.20651239 -0.36697432 0.13925847 0.5865372 -0.57077575 0.052335575 0.37456495 0.22024617 0.4792506 -0.013026018 -0.06940292 0.00020883999 0.27295268 -0.0696643 -0.03755821 0.068748586 0.10417117 0.2218145 -0.16033517 0.3983101 0.029477784 0.3622921 -0.051030543 -0.20863838 0.13211611 0.15477654 0.4324218 0.7087051 0.6009403 -0.1026354 0.0076033333 0.016377965 0.19692849 -0.09085143 -0.6971622 -0.3146511 0.29789817 0.5680298 0.5310016 0.54034567 -0.44693345 -0.4489376 -0.20615116 -0.35801154 -0.33695456 0.26490918 -0.13894625 -0.16513973
21 0.39227453 -0.20785463 -0.28247035 0.27559692 0.13639568 -0.2147033 0.7091124 0.45035812 -0.36243206 -0.05679785 0.21136591 -0.13046205 -0.36406502 0.35204604 0.41965577 0.4467646 0.4124144 -0.029274888 -0.08061306 0.42294887 0.37545702 0.28752285 -0.27166465 0.18574478 -0.042238493 -0.38735765 -0.0007508768 0.27558285 -0.22173567 0.098695494 -0.14834698 -0.54197174 0.7829539 -0.054025196 -0.4494001 -0.13268034 0.071603455 -0.18050836 0.08482923 0.03962173 -0.31116828 -0.107773446 0.06536762 0.046485785 0.054217935 -0.052382335 0.044381987 0.33043063 -0.08073746 0.163718 -0.47946426 -0.016128846 0.32952708 -0.108376734 0.530593 -0.2244806 0.34383678 -0.3470193 0.08795952 -0.12523134 0.10370339 0.034247257 -0.37732396 -0.17571194 -0.05733512 -0.28842622 -0.19017822 0.38146135 -0.631345 0.10079965 0.7029015 0.36601043 -0.051845435 -0.06643474 0.049971815 -0.032378815 -0.23852299 -0.24663876 -0.21231855 0.09562352 0.13835299 -0.2366142 -0.22980952 0.3118239 -0.039664265 0.15108314 0.26676637 -0.37464416 0.555394 0.4834404 -0.014517853 -0.23219626 -0.06710964 0.11694132 0.31489405 0.5147564 -0.28511402 -0.081231155 0.08001901 -0.03462522 0.052762706 -0.14285237 -0.09545232 -0.4634179 -0.23431717 0.18981297 0.19259784 0.51791096 -0.2210241 -0.26263905 -0.022853933 0.29246166 -0.1526734 0.036072843 0.31028074 -0.11925667 0.2605242 0.21929917 -0.1638963 -0.1291066 -0.036433063 -0.10751235 -0.24761325 0.08877142 0.044464268 -0.07167839 0.2588243 0.42243347
31 0.3601614 0.1352976 0.14015673 0.015303602 0.15360321 -0.5190138 0.72032773 0.5581705 -0.33465356 0.0054944484 0.29831707 0.0898442 -0.4621972 0.39664766 0.29089463 0.6013863 0.59767514 0.19543685 -0.16864602 0.70427895 0.45791638 0.22429614 -0.18443845 0.08129032 -0.15863162 -0.5078888 -0.07158187 0.46753123 -0.37326097 -0.042409837 -0.120807216 -0.55660236 0.70233995 -0.080771 -0.42106527 -0.05372433 -0.131329 -0.25527903 -0.13480605 0.21199036 -0.5562334 -0.0056412937 0.07159837 -0.09981271 -0.07387328 0.19109434 0.32858595 0.31186995 -0.34805927 0.2701073 -0.50059885 0.27124685 0.380973 -0.25140053 0.63530326 -0.24686493 0.42777485 -0.16661455 0.23939303 -0.29063964 0.16271691 0.24739869 -0.54913616 -0.31372046 0.1164941 -0.40211156 -0.17710942 0.49776325 -0.7468177 0.18056223 0.7376488 0.43094537 -0.0026216179 -0.31160796 0.17513573 -0.07129895 -0.31842905 -0.29412928 -0.5073467 0.072595894 0.39652094 -0.3143078 -0.05958337 0.34297073 0.15522934 0.2024088 0.20669891 -0.7299563 0.4102493 0.49503037 -0.20186192 -0.34506568 -0.01648959 0.18329525 0.21206889 0.6455757 -0.23392434 -0.3453006 0.3561589 -0.4220183 -0.17204246 -0.19714813 -0.029052738 -0.46172538 -0.23260988 0.10849275 0.14461103 0.5367554 -0.2530333 -0.4537466 -0.19909114 0.33792543 -0.15705457 -0.01345067 0.46457517 -0.38123786 0.3951079 0.19254081 -0.20594952 -0.22236082 -0.008229025 -0.058935028 -0.21238059 -0.08406863 -0.0035378628 0.046630345 0.37595448 0.36521363
23 0.43540597 -0.040411998 -0.30328056 0.41535723 0.2054228 -0.11088518 0.9225296 0.40441352 -0.49307424 0.044883907 0.1048256 -0.3187557 -0.35889545 0.4100407 0.52458316 0.5192096 0.46963125 -0.030707212 -0.047839746 0.6628452 0.42740968 0.39154294 -0.389166 0.33261606 -0.12030459 -0.38776812 -0.038979527 0.3341976 -0.16481389 0.18176867 -0.13056386 -0.38421747 0.76474804 -0.03846839 -0.4437829 -0.21858545 0.11505809 -0.14671294 -0.040442925 0.10876533 -0.51133347 -0.1787537 0.15245393 0.123253986 0.045891292 0.0037485757 -0.010574637 0.4019171 -0.17165127 0.11111297 -0.53909045 -0.044639237 0.31030595 -0.16689816 0.4441926 -0.16565862 0.2764557 -0.2934343 0.050770983 -0.26509655 -0.06635994 0.024788102 -0.30984333 -0.25341585 0.025673753 -0.30896202 -0.19480206 0.30829674 -0.65197504 0.08719927 0.7385749 0.56709427 -0.21751301 0.09511786 0.09428667 0.03826271 -0.24479192 -0.33204317 -0.19267902 0.06107808 0.119185105 -0.25330192 -0.35039398 0.26212025 -0.12967028 0.116725884 0.25684366 -0.34896964 0.6457636 0.48760688 0.12467095 -0.32676658 -0.006118155 0.13882788 0.45980018 0.58626187 -0.4662698 -0.075370915 0.12426595 -0.031128414 0.014208236 -0.20479159 -0.13507362 -0.51619965 -0.32091215 0.25030857 0.32181445 0.5697287 -0.3320847 -0.28089687 0.04873927 0.1613738 -0.12502103 -0.026672905 0.42603654 -0.16870894 0.43083853 0.37822175 -0.23155068 -0.14876677 0.1512199 -0.15291746 -0.24872437 0.12363913 0.03920748 -0.10675978 0.17424062 0.60376793
22 -0.41897187 0.052650172 0.80190223 -0.3573898 0.16440336 -0.35682943 -0.38460177 -0.24069744 0.5793175 0.008315603 0.5476381 0.030215863 0.5599093 -0.55085087 -0.2442968 -0.9062601 -0.055771623 0.33701974 -0.014983129 -0.48875067 -0.4051301 0.35508505 0.31546083 -0.035229333 0.2797355 0.945664 0.16100267 0.2993526 0.15512317 0.13665642 -0.13041237 0.5106081 -0.6387531 0.5041827 0.22994593 -0.06682466 0.23895667 0.003210236 0.26126045 0.31387398 -0.045922812 0.36018053 -0.053424742 -0.17997633 -0.19109158 0.1653943 -0.08817431 -0.09856966 0.2389146 -0.35721982 0.17574012 0.21956177 -0.112516746 0.43534052 -0.30236888 0.12920503 -0.28735283 0.3124996 -0.18541142 0.049021028 0.36628035 -0.51831394 0.43005407 -0.15428752 0.6795524 -0.10092762 0.058309615 -0.31844023 0.38473263 -0.20440981 -0.49319246 -0.8012868 -0.28066525 -0.20397244 0.026081955 -0.4529163 0.3624444 0.2422506 -0.26336795 -0.12076033 -0.17518587 -0.052783493 -0.011233474 0.35861024 0.12289007 0.2235719 0.08950648 -0.017679326 -0.49284062 0.46253318 -0.24957122 0.44566274 -0.23186816 0.14457873 0.17181961 -0.60155934 -0.521458 -0.8246165 0.012633515 -0.30348995 -0.669497 -0.77084565 0.53124607 0.63560444 0.07950586 -0.5395614 -0.54869777 -0.8503789 0.34665775 0.065352656 0.3224385 -0.43552467 0.35212925 0.13647404 -0.32725808 0.29758573 -0.6840224 -0.25526634 -0.23059882 -0.4451929 -0.43640673 -0.117073536 0.48307014 0.23571703 -0.46404284 -0.49577153 -0.29654503 -0.2243572
10 0.04357245 -0.7755908 -0.36016992 0.45668155 -0.04870181 0.00803137 0.44192275 -0.0042592846 -1.1424499 0.13654076 0.6008967 -0.46672434 -0.4724465 0.21811211 0.40778023 -0.25450587 0.25866997 -0.2289547 -0.024168313 -0.1639977 0.2332764 0.048968807 -0.4267708 0.8777927 -0.06210434 -0.22635058 -0.17173606 -0.22769566 -0.3770628 -0.258813 -0.3415241 -0.19051053 0.78228104 -0.14958899 -0.21273507 -0.37520638 0.5255883 -0.09434815 0.34159577 -0.43947607 0.45853028 0.02068341 -0.2893558 0.30428308 -0.19821952 -0.48640224 -0.33005092 0.20973839 0.62900597 0.12811264 0.13141719 -0.355637 0.3749056 0.10164498 -0.20042598 -0.22281222 -0.14420217 -0.5566184 -0.19595724 0.91711897 0.523086 -0.22455262 0.034610253 0.11713119 -0.5671876 -0.12100036 -0.5194019 0.30362272 0.06421239 -0.38297197 0.57314074 -0.2265563 0.04752392 -0.26050678 -0.20131253 0.120445184 -0.35315064 -0.69619614 0.22342654 0.41725746 -0.28829923 -0.2663865 0.04763617 0.4243232 -0.5206838 0.17289908 0.15979981 0.111242026 0.3294592 0.11052875 0.10882488 0.28465965 0.17897788 0.26542446 0.21515341 0.046534743 -0.3451602 0.26637074 -0.26115063 0.3329676 0.06869718 0.081345156 -0.30779812 -0.28347015 -0.07180933 0.25617298 0.44458038 0.66039735 0.34980932 -0.22248143 0.32427818 -0.033887092 0.3182968 -0.18199687 -0.1409977 -0.30720398 0.16918735 0.57030064 -0.02655268 0.12464419 -0.15354608 -0.2810863 -0.23184787 -0.005444763 -0.2661175 0.07543909 -0.010340569 0.2531228
16 0.36533892 -0.21925247 -0.070990816 0.07379241 0.10200651 -0.18269724 0.8254122 0.38307282 -0.47944945 -0.021704629 0.287815 -0.080198705 -0.5075382 0.41806984 0.2747835 0.4686189 0.48506662 0.025463818 -0.16190821 0.4704441 0.5080713 0.26543397 -0.34849715 0.20719011 -0.15572202 -0.6005843 -0.09529289 0.26692128 -0.3129449 0.0784287 -0.08290011 -0.59915787 0.7776803 -0.0963803 -0.47765505 -0.14608406 0.13168553 -0.18312402 0.090379715 0.03538601 -0.3072247 -0.20586269 0.034217443 0.006011392 0.084367715 -0.096902534 0.17141151 0.25637937 -0.14197475 0.19194746 -0.5865763 0.034092773 0.33859923 -0.15311718 0.56641436 -0.25919923 0.42000014 -0.39616373 0.13414524 -0.066141784 0.22427517 -0.0069384403 -0.5219867 -0.20532703 -0.15413494 -0.29618543 -0.35206404 0.43436354 -0.7734049 0.10415718 0.8580721 0.32691693 -0.07582293 -0.05385201 0.11382687 -0.10902781 -0.34064493 -0.45856693 -0.03724621 0.1895962 0.23411979 -0.31590143 -0.1124441 0.5011313 -0.12819903 0.26389113 0.21320957 -0.49679857 0.7122985 0.4255708 -0.07366869 -0.22466157 -0.012043993 0.19315088 0.31140596 0.6032337 -0.28180274 0.009008137 -0.13502698 -0.003904176 0.011867569 0.07686063 -0.24211565 -0.4714528 -0.2811636 0.33341202 0.2868303 0.4417797 -0.26075235 -0.32492614 -0.10721699 0.30960754 -0.10993555 0.03044588 0.38742486 -0.26618496 0.3983842 0.31858504 -0.24281621 -0.23162965 0.02758606 -0.07024493 -0.33795056 0.1526896 -0.08767838 0.071751624 0.24785274 0.48469436
13 -0.072443075 0.16762114 0.9662186 -0.68912935 -0.19304161 -0.06772163 -0.57749134 0.02234444 0.26561803 0.14705269 0.4082511 -0.0098699285 0.15140598 -0.4680789 -0.52138275 -0.8655698 -0.12246535 0.5460665 -0.35197023 -0.5174489 -0.18903509 0.15118311 0.43763477 -0.35853297 -0.16977656 0.40902546 -0.23103096 0.32510298 -0.04257813 -0.10750559 0.08463656 0.2893818 -0.74525344 -0.12890074 -0.13349943 -0.60200757 0.49709195 0.2077935 0.42715812 0.026042188 0.5615021 0.18902731 -0.5456821 -0.17834137 0.18516956 0.21437964 0.5394073 -0.8256862 -0.34390733 -0.2677077 0.08616759 0.61452657 -0.046765063 0.5574252 0.35687315 0.20581087 0.35970637 -0.009057536 0.039961636 0.34210408 0.66933596 -0.51830846 0.41678488 0.7962955 0.3092107 -0.1741354 -0.025097616 -0.29835415 0.062811896 -0.412462 -0.37441847 -0.27456996 -0.14582752 0.20097324 0.057862375 -0.5095634 0.20960574 0.43535304 -0.067487985 0.22727177 -0.16390984 0.35333607 0.36534566 -0.21989408 0.10649836 0.8210121 0.1509793 0.16011022 -0.10317787 0.65004545 -1.0914352 0.20157823 -0.49423146 0.032911245 -0.32040843 -0.23294279 0.2578656 -0.13390759 -0.37376288 0.3903657 -0.24646427 0.1851236 0.22775717 0.30717516 0.0134780845 0.0311271 -0.60438335 -0.986862 0.10119886 0.10396163 0.11126143 0.024505641 0.13740322 0.60691637 -0.2689738 0.6187442 -0.4454456 -0.35985297 0.12376036 0.31125703 -0.3261445 -0.3773586 0.30353758 0.41750327 -0.13590877 -0.8744639 -0.4285534 -0.28013575
12 0.11528073 0.55679286 0.1378339 -0.1110427 -0.05830028 0.06959863 -0.006574291 0.26832885 1.0254949 -0.06364916 -0.16108705 -0.16797887 0.8124931 -0.5154148 -0.21848397 -0.10059704 -0.065260015 0.5350007 -0.21738613 -0.12110254 0.012524288 0.44242206 0.2673761 -0.6757034 -0.15312101 0.34793556 0.062452085 0.5940931 0.5558325 0.34230086 0.022298723 0.14712246 -0.7427538 -0.13179754 -0.36574665 -0.091704376 0.037308782 0.20278923 0.30827686 0.195968 -0.13847125 0.28538483 -0.16527939 -0.47356284 0.15861595 0.762419 0.4340722 -0.7233525 -0.6718445 -0.5717355 -0.08874292 0.40887213 -0.0719191 0.63950664 0.70715594 0.043987293 0.42935064 0.30482024 -0.30630854 -0.9093185 0.11061947 -0.4362592 0.1792028 0.32047373 0.9148501 -0.23547402 0.15260722 -0.32542634 -0.1608175 -0.21181709 -0.62541354 0.06312651 -0.57879144 0.7890674 0.28752366 -0.47329688 0.3821826 0.8557032 -0.3457274 -0.10155202 0.13109162 0.44913092 -0.1193232 -0.48894295 0.8856215 0.6983717 0.03771928 -0.27008203 0.010910876 0.58737046 -0.77896106 0.057627514 -0.4770335 0.17081642 0.08542054 -0.12702875 0.037345804 -0.575999 0.062739 -0.04960746 -0.5153685 -0.4879923 0.6306723 0.011723902 -0.103181906 -0.37732816 -0.8595804 -0.92320454 -0.03603253 -0.018094085 0.2545067 0.059474893 -0.07243656 0.8263339 0.4721513 0.8799194 -0.23743461 -0.58966583 -0.0652968 0.013726761 0.007330502 -0.08309805 0.44938955 0.40522248 0.118323065 -1.1844416 0.03162971 -0.5273809
18 -0.4915681 -0.4912938 0.6857384 -0.052216455 0.16642988 -0.5427474 -0.040334325 -0.7856556 -0.10303407 -0.023963774 0.94499445 -0.19477028 0.032885298 -0.4679187 0.24058865 -0.8981097 -0.05796633 -0.24702628 0.30685312 -0.697184 -0.349309 0.13390182 -0.24881205 0.8025839 0.32287776 0.99244106 0.13113067 0.07339335 -0.119553246 0.2182447 -0.4701594 0.6135412 0.041224904 0.6150193 0.5360193 0.13171944 0.53539467 -0.17185989 0.39524493 0.18744892 0.13453288 0.48470452 0.078142144 0.14140302 -0.8308218 -0.36887798 -0.7024494 0.40611786 0.8349104 -0.25140867 0.8468328 -0.73077196 -0.13796547 0.0409841 -0.9315626 -0.13618392 -0.7114947 0.05948293 -0.6613434 0.7557071 0.22323859 -0.4913915 0.3238235 -0.8628549 -0.051377326 -0.14917906 -0.18686874 -0.30958325 0.66366607 -0.08260198 -0.2318687 -1.1825544 -0.2764748 -0.7465476 -0.33430004 -0.16000092 0.2100554 -0.5955807 -0.1126778 -0.37572065 -0.2146115 -0.45455405 -0.03814862 0.67850316 -0.35049188 -0.3739499 -0.09090176 0.090951405 -0.6628172 0.025037462 0.4289036 0.9117923 0.16226612 0.2954256 0.50236076 -0.9765325 -0.8811392 -0.6871752 -0.10249506 -0.43198845 -0.36675832 -0.79949063 0.37928623 0.63901776 0.35504493 -0.737312 0.11560962 -0.13324714 0.77058536 -0.036115143 0.36276707 -0.83935004 0.6077216 -0.66479343 -0.51868355 -0.11692822 -0.7805929 0.38403338 -0.51391184 -0.65840185 -0.30680516 -0.054389123 0.24955392 0.15561505 -0.7320588 0.21955603 -0.29944405 0.009500768
