458 128
443 0.70616186 0.7165165 0.8158765 0.32792234 0.037262022 -0.57084835 -0.05142265 0.09681933 -0.5069203 -0.4890542 0.12138661 -0.8315849 -0.2553543 -0.36342964 1.4964937 0.9775328 -0.05261755 0.38878107 0.31297302 -0.35141537 0.42352945 -0.111246265 1.4548993 0.20276715 0.69700533 0.37406242 0.0850153 -0.9982183 -0.2474138 -0.8979425 0.4035247 -0.53693455 -0.11652243 -0.0818323 -0.3520679 -0.5751608 0.21037854 -0.6610455 -0.36251196 1.0007731 -0.7590985 1.0139621 -0.20418954 0.35449547 -0.91591835 -0.23372297 -1.5010937 -0.0019088049 0.0009326949 -0.6989676 -0.5607393 -0.8798735 -0.34285694 -0.4531606 -1.1378922 0.13249151 -0.36054236 -0.96950984 -0.05033816 1.0540838 -0.09628704 0.5359396 -0.54351175 0.064302206 0.8143939 -0.411599 0.07604731 0.65093 -0.84495354 -0.0469705 -0.47745815 -0.25609827 -0.5583198 -0.36530784 0.2870265 -0.49119052 0.27457365 -0.119259045 -1.1358161 0.58159107 -0.70265806 0.0998246 1.4646792 -0.2793055 -0.76571935 -0.6705087 0.33157724 -0.46518317 -1.0486904 0.3033736 0.3716074 1.1357378 -0.33033177 -0.7231144 0.20983583 0.5781142 -1.8073763 0.48668557 -0.35314867 0.5759713 -1.0089788 0.2897774 0.05584227 -0.028900515 -0.7399511 -0.70645094 0.13653839 0.5496333 -0.38291925 0.25318816 0.26536134 -1.0879147 1.0733262 0.26816863 -0.6483099 0.86971664 0.79811406 0.6210107 0.9430984 -1.4002799 0.16286209 0.38804823 0.97206676 -0.066306315 0.6406373 0.6282453 -0.52554774 0.8645887
457 0.20777987 0.20710441 0.16771026 0.18156639 0.6790635 -0.5002744 0.99374783 0.19938622 -0.12968463 0.43044275 0.1889433 0.15827866 -0.35816777 0.59398353 -1.0115519 -0.5570274 0.5020258 -0.17794912 0.0814466 0.5190098 -0.15526432 -0.4382518 0.08501127 -1.5243257 -0.684407 -0.23598136 -0.62264764 0.19273396 -0.28350088 -0.49268186 -0.41043743 0.23091216 -0.8098153 -1.1916357 -0.4296943 -0.18999386 -0.5365795 -0.42371678 1.2277042 0.45759827 -0.02032515 1.0395159 -0.7654413 0.58404815 0.34114593 0.2902497 -0.24838892 -0.0595405 -0.78078693 0.74610996 0.8109024 -0.82090086 0.07601548 -0.27488148 0.47911558 -0.42759413 -1.4990848 -0.7841126 0.34535965 1.2484647 0.00549167 0.43032315 1.6450306 0.43171543 -0.023719242 0.45288554 -0.8501823 -0.04982231 0.66836005 -0.38374126 -1.2489123 -0.7082949 0.4923382 -0.9945478 0.08074225 0.42510745 -0.34945992 -1.0344768 -0.5147031 0.44937006 -1.1144935 1.4597497 1.4934493 -1.3164898 0.23333257 -0.6993316 -0.8477226 -0.60327876 -0.7878515 0.10496636 0.2337384 -0.81039923 0.23546757 -0.6781861 0.76717865 -0.24850702 -0.13687961 -0.42525217 -0.2533182 0.7217414 -0.4949635 0.32136348 -0.79490644 -1.3818783 0.1603402 0.56036437 -0.05648214 0.5173064 0.23028065 0.48859403 0.09945447 -0.31374294 0.062334184 0.7385116 -0.8898939 0.9279547 1.1053753 0.7444167 0.79146963 -0.15332256 -0.40880105 0.23807639 -0.28385386 0.69538146 -0.37517577 -1.2495538 0.20425361 0.51988155
226 1.5116134 0.3673116 0.75652385 0.05624998 -0.42398268 -0.611283 1.0165284 0.74375784 0.06574877 0.1733497 -0.62308216 0.17262904 -0.33375832 -0.3625132 0.10955332 1.5779356 0.85904473 -0.91802764 -0.29289925 -0.7832295 -0.7864382 -0.13962016 -0.08126752 -0.18321091 -0.51006484 -0.70261616 -1.1350085 -1.4899637 0.43256035 -0.47718745 0.99127185 -1.5351559 -0.21891195 -0.03366868 0.38312 0.030012159 1.3506787 -0.1621946 1.2472997 0.45549002 0.029854717 0.268511 -0.083037704 0.8562076 0.93704575 -0.28208923 -0.16743083 -0.77676386 -0.046717305 -0.67944455 0.676169 -0.15761304 0.3448691 -1.1742873 -0.24962015 0.18701696 0.98389316 -1.1421186 -0.5039296 -0.06753977 0.37576666 1.7161565 -0.27250817 0.47960204 -0.05983571 0.25896594 -0.25826928 0.36526868 0.51001596 -0.04798187 0.2837808 -0.31414038 -0.14690426 0.3440543 0.30978334 -0.043013178 0.66934603 0.5206272 -0.19540603 0.238897 -0.8440725 0.069307625 -0.4029901 0.96118796 -0.7147224 -0.25550938 -0.63586086 -0.64231455 -0.7897898 0.22622193 -0.0691167 0.33884445 0.09992318 -0.51272184 -0.23969173 -0.097340204 -0.6040408 -0.2905597 -0.19814551 0.19398336 -0.023155352 0.11953895 -0.12746207 0.16913657 0.11376045 0.2415025 0.36195698 -0.32003146 1.1584971 0.23789896 0.7059248 0.42317024 -0.41529012 0.66819 -1.1363935 -0.29606584 1.220453 -0.5564224 0.05689059 -0.065665856 -1.398695 0.04111548 -1.3724782 -1.2363921 0.030739116 0.64354455 -0.8535797 0.1244104
63 0.58236676 0.36953035 0.1576087 -0.18640955 0.3575369 -0.30525035 0.70829433 1.330575 -0.7284483 -0.35923448 -0.24243684 -0.51128787 -0.09442057 0.23110852 1.5565717 0.013026976 0.15284362 -0.8873512 -0.4047191 0.30734122 -0.7728151 -0.649896 0.13799022 -0.24880868 -0.0406538 1.3979536 -0.46609613 -0.869171 -0.7569563 -0.2708109 -0.672576 0.38374004 -0.6235058 -0.68181276 0.10547299 -0.38172024 0.0151058 -0.19141793 1.9797503 0.6167045 -0.7334126 0.31609118 -0.26243705 -0.05878676 0.15387262 -0.20197053 0.54396766 0.5285283 -0.51257944 0.98865837 0.44883442 -1.1773463 0.19808677 0.8242597 -1.1734074 -1.4261931 1.1551235 -0.13025135 -0.20133317 -0.40267766 -0.62560314 -0.04785721 0.27201688 0.38830537 -0.5417661 0.0036946961 0.08773867 0.7369871 -0.24378963 0.34616977 0.99000853 -1.2408953 0.35119465 0.4912643 -1.1921787 0.30234584 -0.37601826 -0.20623958 -0.35977158 0.2866413 -1.171956 0.8816338 0.94613254 -0.021363834 -1.2530797 0.46553338 -0.2353242 -0.18407008 -0.85354155 -0.22627607 -0.42462212 1.0501376 0.6320198 -0.6355776 0.69138104 -0.43507448 -0.09898072 1.0169384 0.08449573 0.62617403 0.36717314 -0.77528566 0.35048196 0.29052573 -0.5063383 -0.834455 0.84155035 0.5643261 -0.068733566 -0.7028279 0.21182626 -0.51270396 0.33543828 0.10185141 -0.8080417 -0.07966146 1.219625 0.51944244 1.817769 -0.9866577 -0.26221055 0.004787623 0.82682925 -0.70325863 0.17644121 -0.8829981 0.09620691 0.8860547
160 0.08583557 -1.2439169 0.17972256 -0.44217837 -1.0075543 -1.7529771 0.21927342 0.7463804 -0.13205948 0.33451584 -0.48588297 0.11135993 -0.42650077 -0.35676342 1.8129321 0.002263021 1.2194886 0.8993059 0.14298481 -0.8006632 0.91485906 -0.27153763 0.19288895 -0.082008705 0.5927573 0.8445016 0.66790724 -0.22578369 0.4640322 0.35722107 -0.36446708 -0.28136244 -0.5933653 0.37476838 -0.09882337 1.0013555 -1.0192453 0.7917378 1.1907107 0.7758083 -0.53563154 -0.1369706 -0.7074166 0.0017728128 0.6140701 -0.8999121 0.48410463 -1.3149362 -0.17894846 0.5183287 0.1439112 -1.2164063 0.028690893 0.081551515 -0.433656 -0.35249877 -0.33412832 -1.1676491 -0.1893123 0.07700804 0.903938 0.4526269 0.42009953 0.34468892 0.43151814 1.1999658 0.047121625 -0.41942868 -0.16487752 -0.34687433 -0.1387619 -0.4718814 -0.60307664 -0.2833478 0.34597912 0.6236516 -0.43240398 -1.2530593 1.4221913 1.3378814 -0.99268836 0.27297643 -0.09209208 0.17705919 -1.1583102 -0.37280017 -0.19500878 -0.5886283 1.0058734 -0.9034309 0.5084108 -0.08721671 0.29917556 -0.2869494 0.4544261 -1.5107672 -1.0320352 0.2275549 0.40859386 -0.5512321 0.2675456 0.15355355 0.17866103 0.6398402 0.8097605 -0.86394393 -0.21001805 0.8986237 0.30633992 0.286249 -0.9750758 -1.1291444 0.065395005 0.027514206 0.6113457 0.23525412 -0.1534365 -0.41230556 0.11764804 -0.18157032 0.39367434 1.2458736 -0.6483698 -0.116955526 0.05217772 0.3273231 -0.17190774 0.91604626
249 0.8280455 0.7518089 -0.0068918844 -0.12922023 -0.42168868 -1.6251638 1.3709829 -0.102819584 0.93177885 -0.95257574 -1.1808382 -0.0065081534 -0.17081434 -0.24581769 -0.38073844 0.18308261 0.44284198 0.088423364 -0.6514089 -0.015333608 0.66590697 0.24008007 0.8252249 0.4094565 -1.4168172 -0.018762793 -0.5682502 0.78151214 0.08225614 0.6282869 -0.70131713 0.94476557 -0.88622445 0.33181173 0.5950316 -0.31282514 0.21961597 0.39035177 1.2253449 0.40461046 -0.7276179 0.5689914 0.28459316 0.41279894 0.60520494 0.5664386 -0.59621114 -0.18030801 0.18717235 0.84234285 -0.24898857 -0.40819037 0.13817967 -0.13753627 1.1039779 0.69191 0.49098533 -0.58937764 -0.15391958 0.35086358 0.07053088 -0.09144405 0.4991331 0.17911693 -0.4056923 0.27925467 -0.7562522 0.9290249 -0.39484218 -0.118692115 -0.33016515 0.016362708 -0.48579216 -1.6244293 -0.09750032 0.8476383 -0.23947991 -1.2358555 -0.6398623 -0.6366892 -0.64039326 0.7487719 -0.027862636 0.12816113 -0.87089974 -1.1090719 -0.3859385 0.683652 0.901866 0.13438264 0.00014664365 -0.8557074 -1.1812251 -0.7282785 -0.08474212 -0.84063065 -0.6964929 0.8723171 -1.1633922 -0.92413694 -0.61751324 -0.38594446 -0.3791278 -0.052680608 -0.50242156 -0.7813511 0.06339015 1.3609829 0.3937193 0.7447607 -1.131313 -0.80824214 -0.26549363 -0.6738983 -0.8474489 1.3620083 1.312418 -0.41514158 1.0137905 -1.165543 0.5186586 -0.6171357 0.3365628 1.1268511 -0.2020052 -0.26567864 -0.50846356 0.4294921
66 0.32816517 0.5020616 0.6589997 -0.6925081 -0.314589 -0.58902407 -0.5268016 0.7620165 -0.5535646 -0.19547647 1.217402 -1.2895243 -0.4660835 -0.20928833 -0.12689498 -0.15916958 0.67261255 -0.66059154 -0.5620097 0.029689608 -0.11598724 -0.2192666 1.1608268 -0.3438398 -1.5173942 1.0851421 -0.1531391 0.3029215 0.65683955 0.3081044 -0.30842698 -0.2548019 -0.44860217 -0.28679597 -0.6924222 0.7240622 -0.2577176 -0.7456708 1.2229049 0.09063065 -0.79941607 0.058488887 0.44293272 0.096521765 -0.20126094 0.21562573 0.3683216 -1.612606 -0.26688293 0.03644141 -0.4628422 -0.31056467 0.409336 -0.9440862 -1.9524608 -0.3110829 0.025734762 -0.4500767 0.06122619 -0.7271993 0.79763925 -0.091582395 1.3604813 1.1744791 0.7916276 0.9262867 -0.45766065 1.0395969 -0.37506357 -0.8081504 0.071964554 -1.6337414 -0.28243098 -0.7269092 0.48111314 1.2458271 -1.1138288 -0.79101795 0.21288265 -0.75968045 -0.7752641 0.656402 1.779429 -0.38180193 -0.9445151 0.5151375 -0.78500015 0.4907225 0.43511507 0.3041856 -0.4772125 0.2212756 -0.97121465 -1.082109 0.6071866 -0.64094144 -0.04892354 0.2698304 0.21227407 0.8589184 -0.43032956 0.2945941 -1.7354977 -0.64027214 -0.2335289 0.24961838 0.47963208 0.417141 0.37645066 -0.03757579 -0.0965402 -0.5018797 0.01710575 -0.47642997 -0.98844063 0.30353308 -0.083770856 0.116899505 0.5354141 -0.10583875 -0.6010247 -5.3024516e-05 0.84685284 -0.080671996 -0.9204382 -0.017873788 -0.8724448 -0.0871711
412 0.054432627 0.3781828 0.42081892 -0.066004835 -0.6889062 -0.6287212 -0.5375084 0.55998576 -0.88696045 -0.7485504 0.1767956 -0.10940574 -1.4261853 0.041674852 1.3693053 0.87040305 0.10722075 -0.1936685 0.1511686 0.07504488 -0.074321456 -0.34550488 0.64544445 -1.558619 -0.10014693 0.24701563 0.47401923 -0.6600173 0.29974446 -1.2338858 -1.2100481 -0.74110836 -1.1504488 -1.0531077 -0.39571646 0.34788707 -0.43909746 0.81724644 -0.3396997 0.5682953 0.79568875 -0.106247485 0.53158367 1.01647 -0.23930266 0.31507972 0.19452278 -0.50889075 -1.4808955 0.44675988 -0.6416573 -0.7613254 0.6111284 -1.2647749 -0.83776283 0.09031748 0.11735818 -0.27941522 0.9609481 -0.30652612 0.92549676 -0.6002053 1.2888994 1.1925653 0.26846877 0.750415 0.66715574 0.8434906 -0.5397241 -0.77064383 -0.8751869 -0.43583363 0.22792469 -1.6089652 0.2218624 1.3180561 -0.6777905 -0.7919346 -0.38378164 0.8880462 0.509838 -0.65460324 0.38331857 -0.4234377 -0.019862646 0.35660896 -1.190856 -0.37142852 0.6371309 -0.72943324 -0.14254318 -0.9784096 -0.35907078 -1.3367326 -0.94334096 -0.97167075 -0.020059256 0.22551425 -0.117553905 -0.78939366 -1.1101968 0.017946724 0.61487293 -0.16561915 -0.0915634 -0.1810587 0.4853473 0.4465159 -0.83054435 1.2999204 0.21790309 -0.27900514 -0.48712665 -1.2500458 -0.24156228 0.5379778 -0.22500773 -0.3453759 0.920248 0.6063093 -0.019763842 1.0063826 -0.09371294 -0.94142467 0.5137973 0.55631816 0.2689071 0.11646957
441 1.1225996 0.23668207 -0.022051444 1.146919 -0.25095248 -0.23174565 -0.32488322 -0.09365571 -0.26759937 -0.19078863 0.62886715 1.459649 -1.2370733 -1.0838509 0.070030995 0.5586672 0.25606602 -0.08314793 0.69234174 -1.1351143 -0.24785616 -0.5719443 0.1784471 -1.0420674 -0.21065742 1.2334361 -0.19228855 -0.5669157 -0.5934112 -0.3116772 0.38800037 0.89802307 0.37824416 -0.10093455 0.4890744 -0.13031496 -0.35095397 0.041243114 1.540343 -0.21369267 0.5219553 -0.65001106 0.062474668 -0.20791203 0.867319 -0.5874619 0.5240206 -0.4745438 -1.0391818 0.907841 -0.42648032 0.21951099 0.6400559 -0.7766438 -1.7446592 -0.06082017 -0.50990397 -0.94339234 -0.040351514 0.1840823 0.36190164 -0.0029078333 1.3158997 0.35330108 0.3252384 0.5462136 -0.47598916 0.25538057 0.17016412 0.07816765 -0.12451964 0.18056522 0.8516354 -0.714884 1.1073179 0.025814507 0.5007096 -0.47487107 -0.21868944 0.09559134 -1.1969488 0.53715044 0.81468964 0.47330967 -0.741246 -1.052627 -0.8928856 0.17758358 0.76934075 0.17184246 -0.13667262 0.09212756 -0.7631496 -1.099374 -0.8422747 -0.65852815 -1.3245113 0.28190506 -0.7184613 -0.94439393 -0.84432644 -0.5280342 -0.8810204 0.06389608 -0.4713771 -0.02333995 0.060482334 0.5505612 0.18488854 -0.23920378 0.107620806 -0.19716364 0.8175798 0.26580146 -1.132503 0.50410116 1.5325904 -0.24932033 0.5587684 -1.4727595 0.29565066 -0.8080687 1.0115187 0.08661352 -0.6013785 -0.20041972 0.104289055 2.3081892
385 1.3124956 0.4098377 0.43883124 -0.91296214 0.1816097 0.33449954 0.37567106 1.0672114 -0.95212656 -0.30672824 -0.22529215 -0.8286761 -1.5193921 0.21384336 0.87763494 0.010216987 1.8674173 -0.9036181 -0.23036633 -1.2234529 1.5310152 -0.07901615 -0.50710344 -0.14238022 -0.93964106 0.2845727 0.8905923 -0.24956433 1.1073155 0.111097224 -0.12181966 0.51236266 -1.6061178 0.5217264 -0.4305709 0.09189752 0.47427577 0.03400736 0.061789393 -0.50825745 -1.0788767 0.83094966 0.11815594 0.9389712 -0.59010607 0.51414543 0.1890712 -1.147336 1.1719779 -0.16885939 -0.028612478 0.28653494 -0.8453299 0.56249166 -1.302665 0.44490322 -0.056637775 -0.35974455 -0.79751533 0.15086482 -0.8183548 0.6021288 0.5777281 0.347827 0.85800934 -0.106578976 -0.011563004 0.5217501 0.08492955 -1.2108372 0.10098987 -0.21300271 -0.32603708 0.26408538 0.3638973 0.8646506 -0.50189626 -0.5690979 -0.2395611 0.5878337 -0.1221804 -0.35983276 0.27687627 -0.087484665 -1.8889117 0.7348293 -0.7744507 -0.04749696 0.05703442 -1.1854664 0.11080561 0.4680498 -1.3162209 -0.62453336 0.61446756 -0.23506168 -0.18056074 0.099288456 0.6607044 -0.2598212 0.48311955 0.3588148 0.35102698 -0.3779051 0.26608923 -0.86939317 1.3428919 1.9497477 -0.19126664 1.5601815 -0.35494778 0.260725 -0.015211673 -0.30379656 -0.5790657 0.3336532 -0.026518654 0.008369047 0.820855 -0.7102867 -0.22378916 -0.9270727 -0.041134775 -0.13871673 0.8855405 0.1116551 -0.27466878 1.132004
161 1.5026039 1.108938 -0.3467449 0.27310753 -0.5493437 -0.6991057 0.8089171 -0.7144083 -0.45753792 0.57039106 -1.4651245 -0.6779405 -0.22266056 -1.1426349 1.1187267 0.5234101 0.61845773 0.6488608 -0.039384045 0.4753364 -0.53116983 -0.37906072 0.08170587 -0.026331538 0.0652117 0.20841219 -1.100334 -1.4370548 0.18133391 -0.84316075 -0.74541914 0.16976842 -0.8175857 -0.27670944 0.67686385 1.6309595 0.35458976 -0.48566324 0.959138 -0.33809683 0.07736773 -0.1917295 -0.36125672 0.9498549 1.287419 -0.4979775 -1.2303833 -0.4698358 -0.22514999 0.2713523 -0.24457756 -0.3069009 -0.74183613 -0.7003375 -0.5742983 -0.6432329 -1.2379708 -0.3050277 0.91042054 0.9094827 -0.75072056 0.8919727 -0.008230324 2.4608884 -0.23423408 -0.28736362 -0.017921953 0.3033914 0.3847086 0.34860387 0.34368208 -0.4340038 -0.9225846 -1.5766726 -0.3165713 0.16684616 0.56337875 -1.293869 -0.06795692 0.94023144 0.38801306 0.4479181 0.6880493 -0.11175783 0.17167766 -1.0027574 0.04366199 0.16337831 -0.42213738 -0.5694986 -0.6563128 0.2056364 -0.58608437 -1.0013677 1.1395358 -0.2768045 -0.68112785 0.6006957 -0.13330248 -0.2643334 -0.10850846 0.46261424 -0.80684775 0.65844095 1.2678597 -0.66488564 0.55138785 0.5159592 -0.11014268 -0.96435237 0.66999966 -0.191456 0.6451111 -0.47841433 -0.6801146 0.44889992 1.3851324 -0.5153196 -0.42085746 0.8314183 0.06635549 0.1888638 0.05135689 0.11185642 0.18684894 -0.7208705 -1.0363055 0.9655679
280 0.6203904 0.020738719 0.5500646 0.026739487 -1.4631085 -2.3304749 0.035002533 0.47202766 -0.5068779 0.046894167 -0.40675288 -0.27515784 0.15325366 -1.0176991 0.066980205 0.5454221 -1.0102702 0.8670449 0.043591328 -1.1064404 -0.74306965 0.37698427 0.16058154 -1.0044187 -0.48287013 -0.0050809085 -0.5880892 -1.1947906 -0.22197832 -0.442656 -0.13180488 0.8960332 -0.21377283 0.65098226 -0.25431833 0.26881346 0.10159889 0.43862247 0.99530584 -0.085239224 -1.1140171 0.3635102 0.05511524 0.7507323 0.23568618 -0.35944855 -0.44567987 -0.49214065 0.1378946 -0.1956137 0.7956207 0.0388547 -1.0209117 0.35988024 -0.6083273 -0.7271801 -0.6613156 0.11087649 0.5034047 0.18612584 0.94299734 -0.083719246 0.6035055 0.46789327 0.49664825 -0.14994362 -0.6694663 0.5714715 0.42359746 0.4056906 -0.34831154 -0.65953916 -1.1545532 -0.82913435 -0.47651955 0.17091328 -0.36363792 -2.1984456 0.5844472 1.1396563 -0.85588825 0.47525138 1.1091119 -0.735032 -0.7425795 0.106272094 -0.34598514 -1.9126709 0.15519078 0.8559074 -0.5858864 0.1676526 -0.11555597 -1.1736696 0.54013073 -0.34731883 -1.2979934 0.32519826 -0.067214884 -0.8560246 -1.1312114 0.19302216 0.64915866 0.3961958 -0.81190467 0.64793354 -0.8186369 0.21282504 -0.03408796 0.6866851 1.0779487 0.3129402 -1.3243507 -0.41975963 -1.190172 0.3805604 0.761963 -0.062730744 0.15591288 1.1781042 -0.53616786 -0.09880706 -0.25348845 -0.86885315 0.07198532 0.51189923 -0.6376437 0.16810872
77 1.323892 -0.36521497 -0.6114412 0.30111176 -0.31469625 -0.49293676 0.32828528 1.5606601 -0.36889893 0.18008555 -0.613621 0.13530947 -1.0485686 0.10086196 0.62524694 -0.07919402 1.2103466 -0.37093636 -1.1050189 0.44459662 0.6546509 -0.6778063 0.7268037 -0.13854606 -0.18255422 0.6539658 0.036076635 -0.31938148 0.5773137 -0.7980628 -0.6772561 0.914251 -0.46588343 -0.48198697 0.12935208 0.87483984 -0.4097672 -0.5437183 1.3864266 1.1465175 0.9116939 0.590788 -0.38392267 -0.05573217 -0.40731806 0.016194532 0.34983632 0.28949985 -0.2160068 0.57804275 -0.7431039 -0.048389588 0.7429845 -0.1679742 -0.7195556 0.43134844 -0.36744028 -1.4005418 -0.34217146 0.9853004 0.088584036 0.25736627 1.0197922 1.061307 0.19130304 0.74171245 -0.09004083 0.114200674 0.21807611 -0.08407341 -1.3712748 -1.2974072 0.39429224 -0.4988042 0.72566414 0.771967 0.122100495 0.019817526 0.7247417 0.44606435 -0.72657883 1.191852 0.5348854 -1.1455452 -0.006406873 0.76099735 -0.47369397 0.24311508 -0.10575405 -0.60484236 0.11935865 1.0933367 0.12538509 -1.3960133 -0.21680602 -1.6236868 0.038215276 0.4106426 0.87550527 0.053500634 0.33236665 0.17037842 -0.6223783 -0.25606635 0.868175 -1.0711503 0.1910161 0.27154946 -0.61744 0.6816465 -0.66667426 -1.0988611 0.42555442 0.058615286 -0.9289995 -0.39910164 0.6817198 -0.27103713 0.7712468 -0.4687719 -0.94724965 -0.4709176 -0.13517377 -0.042107433 0.2179333 0.66140896 -0.44047704 0.98104113
58 0.5934135 1.6821724 0.5972441 -0.1863097 0.0060590636 -0.73544127 1.1858339 1.3188437 -2.186332 1.2650346 0.1714579 0.021257885 -1.098597 0.32473034 0.51431787 -0.06265621 0.4316661 -0.41410252 0.09449969 -0.7332668 0.20190243 0.41456148 0.71466017 -0.7711624 -1.4650543 -0.98243153 -0.8346312 -0.1453472 1.0398974 -0.22198078 0.9677832 1.073538 -1.7273949 -0.4703805 -0.12091431 0.57384336 1.2144096 0.053424753 1.0702037 0.19454305 -0.0986903 0.5248166 -0.7093695 0.26427144 -0.43462974 0.105708376 -0.7172692 -0.6190771 0.738621 0.45130423 0.7972264 -1.2218975 0.46611974 -0.9990674 -0.70186853 -0.61469996 1.3269669 -0.090571 0.06366395 -1.0242641 0.57698166 -0.051683746 -0.07603563 1.0223343 -0.16827847 -0.97892004 -0.48770693 -0.7153076 0.1689622 -0.7214511 -0.3616009 0.011039581 0.24061768 -0.53504556 1.2718103 1.0717714 0.81310505 -0.49323255 -0.56829226 -0.0029854095 -0.660265 0.6321486 0.18342094 0.16931722 -0.33307943 0.05726297 -0.9281085 0.07326704 0.1618546 -1.2446522 -0.1085074 0.89043254 0.69405633 -0.6867331 0.932032 -0.36205617 -0.758841 0.64990306 1.3891305 -1.14213 -0.26643893 0.41377628 -1.2630444 -0.3614944 -0.63051146 -0.5517823 0.38595963 -0.30568224 0.8019836 0.8542362 0.18248226 1.063457 -0.34369382 0.38869092 -0.7868786 1.1544964 0.48078555 0.4831546 -0.45272484 -0.39044082 -0.50606406 0.83867204 -0.747411 -0.54502976 -0.85419387 0.9305093 0.7994051 1.142491
270 0.7780136 0.0009776248 0.8389112 0.16503619 -0.63944995 -0.17024088 1.1751658 -0.0017328775 -0.12594658 -1.2024289 -0.59598994 0.1933108 -0.34064683 0.33573136 0.86918694 -0.79609096 0.9950016 -0.7959337 -0.88669777 -1.2142801 0.43705612 0.48981023 1.1302351 -0.7597834 -0.42493019 0.9119559 1.5032119 0.20590249 -0.98286885 -0.93852955 0.051609803 -0.82297397 -0.8701354 -0.28982428 -0.9106678 -0.9244871 -0.6692205 -0.5098702 0.97266734 1.1391352 -1.7239436 0.43444195 -0.16121593 0.30327663 1.0813367 0.11187717 0.1918827 0.28489873 -0.78532547 0.3021759 1.0903413 -1.4498694 0.086170286 0.104278006 -0.73132473 -0.080139495 -0.69329995 1.0170189 -0.58352524 -0.117669255 0.16339308 0.56225723 0.83024365 0.7854342 0.7132617 0.6356259 -0.3725808 0.56276095 0.5300682 0.22843589 -0.41363207 0.41408107 -0.030637177 -0.96446466 -0.086914755 1.30789 0.005776505 0.045493115 -0.30345482 0.36707112 -0.5789688 1.3142265 1.3804563 -0.8697472 -0.24974553 -0.65063226 -0.34923643 -1.0634688 -0.19409382 -0.76822585 -0.0019669314 0.47027063 0.3097848 -0.71092266 -1.2316842 -1.9058332 -0.60891056 -1.3512185 -0.032500975 -0.38087082 -1.1265788 0.20630585 -0.46713877 -1.0492775 0.3212611 -0.723862 0.56305134 0.63115734 0.5524415 0.49317953 -0.11079736 -0.11799491 -0.80353266 -0.57443964 -0.6539232 1.4046034 1.2487363 0.34141067 0.80821466 0.028784407 0.3695851 0.7478162 -0.3904936 0.027364628 0.14551209 0.16313426 0.09078643 0.58258355
216 0.44925407 0.35536796 0.32816526 -0.3197805 -0.38575605 -0.6438975 0.104566656 -1.1898788 1.2854314 -0.5280256 0.37315992 0.0152837755 -0.091555804 -0.6538351 0.004727619 0.32027283 0.40400502 -0.49333748 0.098683424 0.49162984 0.145875 0.1942133 0.5919527 0.04254431 -0.92954457 0.08279965 0.3092071 -0.8376097 -0.074827164 0.017010495 0.0077015515 0.38258046 -1.0481852 1.6924932 -0.25303727 0.25047588 -0.30376694 0.45637882 1.4492227 0.41792223 0.25392154 -0.6245784 -0.8075544 0.39470878 0.78542376 -0.22080013 0.14519547 -0.47188348 -0.7671564 0.12778476 0.21812087 -0.93066615 -0.35830507 -0.9324844 -1.2960182 -0.7639158 -0.44689906 -1.1323844 -0.14713529 0.57189256 -0.86673754 1.0443243 0.9125418 0.54490477 1.0686045 0.49680194 0.33770648 -0.05224891 -0.4105778 -0.48146176 -0.74588585 -0.22887307 -0.86939514 0.5740065 -1.1125256 1.3106831 -0.8043731 -0.99429965 0.17565928 0.6568912 -0.839537 0.64283305 1.1966716 0.27424833 -0.15791306 -0.24008551 -0.70136136 -0.5429166 0.45203924 0.2558755 -0.20367545 1.3168257 0.80218 -1.7915001 0.39405152 -1.4353459 -1.0733314 1.0741556 -0.90181684 -0.80768454 -0.6384428 0.031836487 -1.2650394 0.19899592 0.24982207 -0.5061643 0.6683922 0.30273318 -0.7486913 0.18018673 0.47794318 -0.8134458 0.029094914 0.13937968 -2.5962102 1.3395965 0.3082812 0.5186536 0.83147514 0.4909815 0.26826003 0.35356107 0.7424533 0.46504045 0.2843913 -0.95901203 0.063894 0.6932024
134 0.34424427 0.99187106 0.7261857 -0.572745 -0.038854845 -0.6713419 0.507973 1.1032128 -0.4882456 -0.49053997 -0.32540488 0.35144493 -0.7173303 0.6561871 1.4751931 -1.1974055 0.32259348 -0.2615476 -0.6424013 -1.1769056 -0.058739033 -0.73376393 0.84005535 -0.47171256 -0.55356085 0.42071122 0.11660018 0.11515927 -0.56416816 -0.25510108 -0.4225645 -0.23420043 -2.0060592 -0.5300345 -0.07300972 -0.21103388 -0.1568202 0.26459104 1.0371451 0.1727563 -0.48581168 0.63016516 0.38396662 0.7727619 -0.09957079 0.48865297 0.04288272 -0.61446327 -0.36107594 -0.43775657 -0.5887727 -0.4615215 -0.26799086 -0.09622737 -0.42654586 0.33593196 -1.1792964 0.76912785 -1.2684387 0.92101556 0.4368012 -0.20044324 1.0718187 0.6406733 0.09362079 0.49456775 -0.7710718 -0.98029524 0.21900477 -0.52176285 -1.3570882 -0.8193714 0.059185132 -1.617456 1.3642155 0.89471114 -0.49087647 0.5935231 -0.81687593 -0.2748909 -0.26361808 0.6695024 1.3121891 -1.4202677 0.7445369 -0.77012587 -0.25263733 -0.4993276 -0.45997915 -0.68106174 -1.1339289 0.778255 -0.67461914 -0.56673586 0.024558084 -1.0442184 -1.2021283 -0.18380745 0.911871 -0.59804523 -0.9427201 -0.5955501 0.47741476 -0.23095405 -0.6007955 0.3709452 0.8586293 -0.28294483 0.43297946 -0.43908444 -0.81789166 -1.1458397 1.324436 0.103002116 -0.818294 -0.37590843 0.7844971 0.28775498 1.2822717 -0.16422969 -0.034475267 1.2636493 0.56418735 -0.23582602 0.06722431 -0.19828205 0.98008275 0.3883397
159 1.3883641 0.8310959 1.5564994 -0.10024706 -1.4681972 -0.6905316 1.3595527 0.38551104 -1.0756558 0.41207567 0.16898355 -0.31177196 -1.5750836 -0.07213035 -0.19267133 0.22068073 0.25915036 -0.36757872 -0.9172947 -1.1533148 0.89964575 1.5052137 -0.6718443 0.10012753 -0.13649724 0.35905412 -0.06737537 0.47509563 0.45357078 -0.88979065 0.4227605 -0.12122345 -1.279617 -1.0406739 -0.2130418 0.82372695 1.401335 1.3794667 1.1820459 0.4278773 -0.053376295 0.86751485 0.31619453 0.32508737 -0.36447108 -0.27343583 -0.36569408 -0.26031238 -0.21045974 0.5543163 0.33220667 -0.011518611 0.2261509 -0.4338549 -1.0998961 -0.12910052 0.23016152 0.375531 -0.4906722 -0.32967174 0.00020582005 0.48117888 -0.8008804 0.92371553 -0.2147454 0.3680332 -0.024424931 -0.34291685 -0.355069 -0.04389905 0.15812775 -0.3876681 -0.45718694 0.06256851 1.0135506 1.3029404 0.3208823 -1.2069306 0.34134844 1.3976021 0.24807343 -0.08321408 -0.1650712 -0.54481953 -0.7542944 -1.0249261 -1.0707344 0.40221295 -0.2700492 -0.98227227 0.4052684 0.54896206 0.29158014 -0.5499384 0.5365686 -0.7836625 -0.53852886 -0.081414685 0.22543862 -1.3520448 0.31541276 0.7391066 0.45243788 0.88788265 -0.4805944 -0.6592351 0.5553938 0.01895434 0.31355387 0.54498273 0.4100119 0.28353965 0.6980701 0.27961457 -0.59462464 0.16652364 -0.36442995 -0.48019734 0.05737321 -1.0459971 -0.16632125 -0.011108069 -0.3637038 -0.11987179 0.14210103 1.3403133 1.0207505 1.4540019
315 1.0546668 0.95385945 0.2211493 1.5750521 -0.08715675 -0.5463454 0.7331896 0.6633235 -1.5050986 0.57094306 -0.8485519 0.16424553 -1.2423381 -0.93068117 -1.4158577 -0.50872976 0.34654185 0.21429098 -0.13517937 0.40144566 1.3215876 -0.044174414 -0.12198038 -0.62540865 -0.39339733 -0.23646407 -1.0090394 0.5529931 0.22548594 -0.2623069 -0.27613688 1.7190801 -0.6422303 -0.077278264 0.4696981 0.3382338 -0.46679267 0.8226334 -0.29842284 1.0857879 0.45787653 0.19343996 0.3567239 -0.78812176 -0.40590918 0.2603364 0.37181023 -0.30097547 -0.67342234 1.2463039 -0.6304518 -0.68389046 -0.7922581 -0.20129572 -0.69133216 0.37384757 -0.16989219 -1.2292879 0.18749808 0.78599733 0.46342376 0.6055759 1.2345095 0.6599818 -0.08024054 0.47907034 0.1969531 0.28186882 0.28653115 0.7335555 -0.27745324 -0.28453425 -0.7303224 0.28730848 -0.30829486 0.9624339 0.42026836 -0.6800675 0.12851351 0.14805464 0.36012322 0.623258 0.9322021 -1.3225341 -0.789763 0.23306443 -0.021359198 -0.63583 0.47215623 -0.95887893 -0.27299938 0.08543489 -0.99639183 -0.9687167 0.05493789 -0.75329334 -1.1102985 0.8218208 -0.12559138 -0.37025136 -0.49844357 -0.35480064 0.088935554 -0.5093343 -0.31438902 -0.97131556 0.32408246 0.5393061 -0.7838389 0.97859585 1.311757 -0.09332044 0.5263191 0.09164691 -1.6674736 0.32281837 0.07102826 0.09569486 1.3007543 -0.30518976 -0.61719614 -0.0035268143 -0.12590876 -0.38965696 0.09562112 -0.038079146 0.0020971308 2.2704456
103 1.4370345 0.0011994801 0.5775757 -0.35957342 -0.60582495 -0.7617434 1.7002528 -0.11348426 0.409716 -0.36809227 0.10302688 -0.8206141 -0.33589467 -0.19367005 1.550138 0.0091728885 1.519386 -0.9352006 -0.072116666 -0.119220994 0.7010353 1.3588779 1.0371836 -0.8117566 -0.6765216 -0.5996293 -0.21018827 -1.1014087 0.32475007 -0.8741081 1.3466629 0.1325161 -0.37610206 0.43190387 -0.5884464 -0.010829002 1.6109979 0.2636985 0.75425965 -0.15438876 0.16108048 0.5039091 0.8801291 1.0287951 0.24986993 0.30993396 1.1487937 -1.1680255 0.80394727 1.0829965 0.6872459 -0.08099797 -0.17339155 -0.17127217 -1.0147313 -0.40260822 0.5701755 0.41752478 -1.4485533 -0.41448185 -0.30895993 1.0054933 -0.47257313 -0.41014785 0.8960413 0.124245346 -0.6432786 -0.9732204 0.89845175 -0.04154376 0.4594795 -1.1887952 -0.6230318 -0.6169181 0.8237332 0.47860482 0.3341164 -0.33799374 0.7033037 1.1087892 0.1760784 0.13787264 0.009528321 -0.363568 -0.15125932 0.34875992 -1.290752 -1.0728141 -0.53579247 -0.03217576 -0.87464553 0.89741504 0.27758187 -0.4852432 -0.032165352 -1.1869518 0.90673053 -0.19667463 0.36333767 -1.4565885 -0.6162083 -0.3557757 0.16494676 -0.2822052 -1.3743402 0.005901027 -0.97485405 -0.025721146 0.48313797 1.141138 0.5693012 0.36479685 0.78387856 -0.3469389 -1.9826174 0.30836895 0.48709005 -0.2919116 0.2525383 -0.3177565 -0.8017144 -0.27713364 -0.102739945 -0.04351065 0.19293071 -0.6329917 -0.37870228 0.8118799
279 0.5790369 1.0221355 0.94493425 0.4492045 -0.20079114 -0.9452947 1.0152601 -0.20276974 -1.6079687 0.13192464 -0.3355798 -0.906144 -0.35948765 -0.48382372 -0.13762277 0.81526405 -0.1597543 0.61507267 0.19276363 -0.108539335 1.0787646 1.787726 -0.5327504 -0.03202638 -0.7942008 -1.1770483 -0.8400611 -0.34466565 0.323635 0.20732065 0.11652217 0.25147846 -0.27007738 -0.31326857 -0.08150985 -0.3412259 0.86349463 0.46446887 0.61374575 1.2490637 -1.0532154 -0.83621794 -1.0469269 0.5859224 0.25701573 0.50399685 0.9496831 -0.70553106 -0.24662755 -0.0066110864 0.03285023 -0.08710166 -0.33585006 -0.27893394 -0.41882342 0.17716908 0.50532186 0.489656 -1.4341683 0.36507943 0.615556 -0.028114129 0.96239215 0.5830858 0.013922975 -1.3825371 -0.96150416 0.8263031 0.0980277 -0.25860307 0.51976717 0.124047734 0.76655114 -0.1592174 0.33261916 0.7665584 -0.4721631 -1.2898437 -0.25338498 1.1653082 -0.14004923 0.683691 -0.63167113 -0.3668679 -1.2666796 0.47178847 -0.92384404 -0.78534436 -0.42082322 -0.19151573 -1.1361308 -0.607588 -0.25255805 -0.73469144 1.0709641 -0.18127923 -0.6241866 0.46308672 0.51244277 -1.6029967 1.0997279 -0.806041 -0.89428055 0.08633224 -0.45992604 -0.63285923 -0.44480875 0.73455065 0.44845253 0.60684294 0.32428968 -0.81738186 0.28989384 0.012080346 -0.99935794 -0.008070333 1.4127235 0.53485775 0.44501534 0.7624226 -0.3939191 0.40322822 -0.36783576 -0.29323515 -0.30073446 0.38809597 -0.7957442 0.5652565
7 0.33050644 0.40287805 -0.14787787 -0.4572135 0.00890293 -0.77646005 -0.17806415 0.26750833 -0.5542658 -0.32783744 -0.7195278 0.05536013 0.20243257 -0.48275876 0.99306047 0.67553914 0.8177685 -0.30471 0.21940087 -0.7170105 0.43913782 0.2548856 0.42239264 -1.4271721 -0.21591131 0.3135138 -1.1964447 -0.8189392 0.9781339 -0.6619465 0.8108247 0.4821858 -0.4538378 0.13772161 0.09465274 0.6176755 -0.07282426 -1.3912565 0.1453822 1.3398248 -0.8580156 1.1742334 1.0323963 0.71438205 -0.23506738 -1.7544395 0.0059253476 -1.4244912 -0.44449306 0.60340565 0.84836733 0.010786973 -0.44430268 -0.65102303 -1.2211884 0.09861146 -0.23265873 -0.43725708 -0.08161523 0.6509179 1.3403256 0.49816808 -0.15452866 -0.63891345 1.2537192 -0.23402615 0.0007736742 -0.07435103 0.7593661 -0.9598558 -0.32493517 -0.8594255 -0.46043167 -0.9230332 1.0093341 -0.7969412 -0.0041727354 -0.16140138 -0.09237168 0.032679435 0.09945716 0.4923818 0.056294613 0.26649746 -0.9099652 -1.2581658 -0.9021797 -1.3829716 -0.22618462 -0.0983162 -0.7723294 -0.5603304 0.50967336 -0.80598366 0.44310772 0.06430335 0.6138024 0.4642199 0.0058791884 -1.2260814 -0.55160755 -0.21174128 0.7716385 -0.29715177 -1.1295978 0.33570045 0.19703189 0.6034246 0.92885643 0.42420417 -0.6160137 -0.71443975 0.06080145 0.30243215 -2.366878 0.98639053 0.17763264 0.6425079 -0.15147151 -1.1977904 -0.46281755 0.78955466 -1.5352225 0.072143175 0.28527123 0.19735587 -1.1876915 1.0334693
388 -0.11108674 0.66387177 -0.24783394 0.42860153 -0.88290626 0.44378883 0.47823083 -0.2882426 0.39868972 -0.48790509 -1.2859511 -0.70436865 -0.4436848 0.012285159 1.0502793 0.5683992 1.0044128 0.05636564 -0.80078083 -0.9908976 1.2807151 -0.42217684 -0.35246697 -1.6018747 -0.90305513 0.9197137 0.5745817 -0.5845671 0.6775115 0.30497122 -0.23890513 0.8204874 -0.4765622 -0.55541414 -0.47567806 0.51834464 -0.17518836 -0.7427492 0.5270908 0.46976238 -1.6677998 -0.07622556 0.4356739 1.0718426 0.7938011 -1.3552024 0.10669119 -0.43042544 -0.80443144 -0.27409828 0.4838155 -1.3614668 -0.3981809 -0.79254645 -0.94293684 0.2782091 0.21774583 0.96817875 -0.2805859 0.46077126 0.5385229 1.8278646 0.41414806 1.3686748 0.6900973 0.5482403 -0.88025135 0.61392045 -1.0115607 -0.002166051 -0.31992492 0.3540409 -0.81664246 0.26468533 -0.25683388 1.1021982 -0.49658808 -0.21250217 0.16298695 0.37766936 -0.42850655 -0.40616503 1.0048983 0.10452364 -0.07378489 0.33458436 -0.14255294 0.48554012 -0.84358776 -0.06540859 -0.44342172 0.66433835 -1.3503098 -0.9189217 0.034370113 -1.0997168 -0.5814318 -0.70700717 -0.8956137 0.06768911 0.15174939 -0.41662514 -0.25619158 -0.350848 -0.93805754 -0.44724765 -0.06478406 0.7555569 0.20662221 0.9262335 0.107607804 -0.7430359 -0.13106589 -0.9809365 -2.0661495 1.9528577 -0.18334766 -0.30082437 0.82049316 -0.4415091 -0.4324198 0.4376434 -0.6060952 -0.975044 -0.008001641 -0.31486672 -0.16080232 0.9722424
253 1.2540088 0.50536853 -0.2300017 -1.007878 -0.6235822 -0.71090966 0.70041335 0.39354 -1.3020511 0.35771403 -0.16601188 -0.738234 -0.2664288 -0.06216432 -0.29243478 0.49224532 0.066917464 0.02369145 1.2102512 -0.53012425 0.18768254 0.60430104 -0.056249015 -0.9462027 -1.4252212 0.14258242 -1.1489248 -0.61306876 0.62813795 -0.33981016 -0.051656194 0.3407975 -0.9038858 1.0217878 -0.29640165 0.2784362 0.13999595 0.6527683 0.32646924 -0.086851604 0.4784679 -0.6673688 -0.19156535 1.0684737 0.98936087 0.6412348 0.86202544 -0.81417125 0.6739078 -0.13058768 0.42058033 -0.60664636 -0.42179507 -1.3503878 -0.70094955 -0.36563703 0.62255925 -0.24427699 -0.5826098 -0.34449378 0.77449393 0.66305375 0.33692133 0.65971553 -1.2245852 0.22635402 -0.610312 -0.3379492 0.41533732 0.17074625 -0.01695464 -0.35321438 -0.6383299 -0.425324 0.09615034 -0.012429702 0.046010897 -1.0803651 -0.54201496 -0.47897622 -1.3838209 -0.07710483 -0.29014507 -0.11671882 -1.0888458 0.27794334 -0.4942077 -0.52750736 -0.26637405 -1.0968086 -0.5775829 -0.5225961 0.6998109 0.0027579106 0.54936975 -0.47552007 -0.22162764 1.1578093 0.15513767 0.30253133 0.06699469 -1.4117246 -0.92607677 0.20257486 0.5147481 -0.9681843 -0.09521199 1.1606644 1.1170261 1.373277 0.5757157 -0.28719318 1.1715572 0.7074234 -2.53266 0.46929225 0.45822674 -0.1714081 -0.32662266 0.11987152 0.30892366 -0.49694726 -0.9827907 -0.7839813 0.12080733 -0.6585911 -1.5656968 0.5496191
78 0.6588601 2.4158642 0.14057344 0.12752281 -0.64681286 1.7135293 0.0401005 -0.6050126 -1.5493537 0.69541204 0.09099719 -0.89827836 -2.1074963 -0.37563217 0.04117084 0.09101171 0.82313406 -0.5200784 -0.1017001 -1.3031497 -0.0442617 -0.15337993 0.9489056 -1.3578523 -0.27259567 0.058042508 -0.58043516 -0.35231057 0.6085045 -0.06415065 0.066179164 -0.20090364 -1.0609438 0.5852164 -0.7988317 0.16514388 0.82139075 -0.6478876 0.7284588 1.1405418 -1.2679617 -0.63025624 0.45305473 0.83775944 -0.90840584 0.28725228 -0.11685936 -0.64292824 0.43402603 0.4491547 0.7276028 -0.32493165 -0.33422798 -0.17744157 -1.2655613 0.1054478 1.037638 0.90994745 -0.77477473 0.07854508 -0.16756201 0.5853272 -0.3432334 0.9057782 0.18737043 -0.28182352 -0.2291058 0.30154374 -0.91905004 -0.06903712 -0.21549876 -1.0621561 0.21693131 -0.87663573 1.1124917 1.5081598 0.018216504 -0.33939815 0.9912169 0.75771815 0.71209747 1.1772132 -0.4327031 0.22631997 -0.44464898 0.61854655 -0.29376602 -0.69151884 -0.42952037 0.258837 -0.8714104 0.57682014 -0.26712906 -0.7539757 0.6457603 -1.1749626 -0.43678004 0.27780402 0.25954494 0.21282785 -0.8083141 0.19205314 0.45254248 -0.14425755 -0.6076153 -0.10223762 1.3049979 0.0044365767 -0.58891857 0.48147264 -0.57272947 1.1334215 1.0067433 -0.8137559 -0.89554137 0.8732383 -0.28982165 0.22705017 1.7497455 -0.79418963 -0.57248527 -0.046692 0.236861 -1.1130875 0.45327657 -0.8123699 -0.33060956 0.8755247
73 1.0354099 0.776752 0.36633036 -0.4208112 -0.2761588 0.24894586 1.205205 0.43988106 -0.17467092 0.56753117 0.17343907 -0.53332347 -1.1543652 -1.1521895 -0.3561635 0.45612222 1.2228695 -1.1421263 0.813719 -0.7116893 0.35960364 0.29407236 0.5328393 -1.1892508 -0.44924608 -0.12118674 -0.42941612 -0.5968077 0.7273603 -0.6684529 -0.10876355 -0.31836993 -0.6772465 0.4446218 -0.041589182 0.3419866 0.08588163 0.1240063 0.36513594 2.2608197 0.8793558 0.38418067 0.58552825 0.83478016 -0.12215168 -0.83767027 0.9763393 -0.6065268 -0.44744205 -0.017424664 0.716642 -0.43169338 -0.6726609 0.26088712 -0.38065496 -0.047197457 0.23037392 0.34194475 -1.1198379 -0.22911501 0.18393873 0.6608494 0.69701827 -0.46125796 0.5844303 -0.15833001 0.043078806 -0.23774916 -0.82256436 0.25561458 0.40996534 -0.68348104 -0.06079723 -0.3553665 1.141338 0.3556866 -0.67157584 -1.1939449 -0.27485743 -0.073001295 0.14705274 0.042135555 -0.44436136 -0.91432226 -0.63979757 -0.4656984 0.06612907 -1.1223979 0.45207176 0.65710115 -1.8873142 -0.5717993 0.42518914 -0.89165914 -0.08908179 -0.9134183 -0.12281203 -0.5328392 0.39127532 -1.3921069 0.27594376 0.26001137 0.25872374 0.22878964 0.1889208 -1.3096652 1.1625574 0.25422105 -1.1240904 -0.14522715 0.79102874 0.6771288 0.6820052 0.23028551 -1.6907384 0.63068026 0.9410598 0.09919559 0.95328635 -0.46559986 -0.8866961 -1.0004987 -0.17315035 0.04495561 -1.0125865 -0.17694755 -0.85139304 1.3885857
6 1.6919951 1.2133749 0.7919432 0.44814062 -1.1850241 -0.7178924 1.1070505 0.5180492 -0.41730025 1.3425862 -0.0139973415 -1.3091652 -1.0670831 -0.5080553 -0.79367864 0.73296654 0.33091554 0.9013327 0.09668785 -0.33112994 0.9782973 0.5812238 0.02434222 -1.2103374 -0.89023846 -0.22617517 -0.8356836 -1.1164582 0.122591026 -0.56379056 0.25758964 0.5182545 -0.79075515 -0.28026578 -0.4828509 0.8682763 0.60570043 0.21450086 0.6860935 -0.1834288 -1.0874544 0.07397793 0.6444718 -0.10079766 -0.85564524 0.11194445 0.2867314 -0.62420946 -0.7816773 0.38960505 0.4599363 -0.087985046 0.3858827 -0.57196116 -0.5349826 -1.4798052 -0.004467758 0.20648527 -0.93460095 -0.08944792 0.6787605 0.89186877 -0.48849437 -0.4789238 0.35101527 0.094401605 -0.738392 -0.44597754 -1.0488628 -0.12668972 -0.02641897 0.3720414 -0.88541186 -0.48459357 0.38768265 0.018101893 -0.15093842 -1.7779037 -0.2496998 1.2497411 0.0019614352 -0.3723635 1.02797 -0.36046705 0.17767228 -0.19197702 -0.787815 -1.2671632 -1.3832864 0.33840135 -0.13605699 -0.58690256 0.6219809 -0.00083567126 -0.025415571 -0.25205004 -0.88229436 1.328142 0.14723527 -1.696958 0.061963536 0.15798527 -0.7063669 -0.29779485 1.4333394 -0.047864232 -0.15097097 -0.01619842 -0.0047574136 0.045788713 0.60976696 -0.14055747 0.5180585 0.14252701 -0.45702985 0.20133501 1.5533849 0.013116927 0.27114064 -1.3887398 -0.14063042 -0.24867259 -0.86776996 -1.0493208 0.0033362543 1.0631263 -0.7870052 1.1660222
133 1.2198255 0.19011192 0.11844967 -0.65804327 -0.20892124 -0.018558478 1.3162148 1.2438512 -0.7635103 1.4174188 -0.096574485 -0.41630164 -0.18373807 -0.12953168 0.40439263 0.26743323 0.65256417 0.5941462 0.35570005 -0.6044147 1.3338525 0.32937127 -0.87335926 0.20454475 -0.32024428 0.5582678 0.01134391 -0.14527255 0.94765633 0.3999905 0.13269076 0.1267878 -1.0376927 -0.049487144 -0.088161856 0.24665175 0.92203957 -0.025075156 1.2090989 1.0708064 -1.446756 -0.25479868 1.0715498 1.2978868 -1.10204 -0.603963 -0.15239961 -0.7019013 0.034541365 1.0854104 0.33561176 -0.43295392 0.673811 -0.46838167 -0.80415845 -0.5464601 -0.5169094 0.6229554 -0.6590678 0.23568906 0.2464062 0.48445314 1.0555713 0.08738212 0.51519907 -0.3493008 -0.34139436 -0.5813105 0.27824727 -1.2923685 -0.14599243 0.25981265 -0.39467955 -0.9600877 1.4829018 0.3875056 0.035326973 -1.5740895 1.9185274 1.3767256 -0.08417495 0.31248665 -0.96403235 -0.20902663 -0.9014696 -0.3999303 -1.3956419 -0.35777792 -0.87231815 -0.2637935 0.48240387 -0.6340468 0.51048636 -0.19304277 -0.08053651 0.19338655 -1.0204194 0.14383163 -0.12415601 -1.1001455 -0.50944865 0.78665555 -1.1346036 -1.323093 -0.19888814 -0.27301538 -0.34016696 0.3092752 0.4171358 0.417431 0.6237752 -0.07112233 -0.22488928 -0.6544165 -1.2292353 0.0039250343 1.1664389 0.08834204 -0.24531682 -0.08591936 -0.13889109 0.20393583 -0.68561953 0.085514255 -0.6697016 0.22511218 -0.4728651 1.3394977
151 -0.8592185 -0.11730344 0.919808 -1.0050485 -0.4566205 -1.2508246 -0.38679168 0.069111176 0.17416248 -0.59317815 0.5306255 -0.091007315 -1.1463411 -0.3960132 0.3406386 0.11379027 0.7599148 0.7163521 0.50382924 0.29900175 -1.2463462 -0.63305706 0.078011334 -1.2970546 -0.5717558 0.1969532 0.17125285 -1.2842423 0.14044175 -1.1115184 0.3466859 1.5410814 -0.7329013 0.11778169 0.004595686 1.2103993 0.6547659 0.1474517 0.8152759 -0.17711438 0.57759154 0.07005013 -0.7038591 0.1929079 0.9033175 -0.7786657 -0.13107364 -1.0112572 0.34283152 0.43633518 0.40010348 -0.64336365 0.93934363 -0.19026522 -1.4293802 -0.5087522 -1.2726494 -0.7001351 -0.024470976 0.7892152 0.4229369 -0.5575397 1.0640713 0.3267516 0.81457144 0.92254 -0.39188972 1.2399701 -0.36994985 -0.6200034 -1.1186305 -1.300983 0.25036904 -1.4890512 -0.06879222 -0.17578852 -0.5674984 -2.1611347 -0.685286 0.6188334 -0.855738 -0.07620819 2.0001616 -0.15688562 -0.42465022 -0.19476819 0.3560105 -1.0562545 -0.48647878 0.46266112 -0.29394677 -0.128491 0.84310174 -1.0921464 0.27152586 -0.75053906 -0.49858984 -0.56762016 -0.8059373 0.26200354 -1.0367018 1.5155091 -0.9358354 -0.42145634 0.13751538 -0.16527793 -0.33846778 1.0494819 0.7437453 -0.09763991 1.06185 -0.21766095 0.24213928 0.14499821 -0.68490344 0.54867125 -0.27262715 -0.47307646 0.55614936 -0.24292208 -0.6408643 -0.20940831 -0.113397226 0.5103215 0.050826404 -0.62448585 -0.53508735 -0.2803346
14 1.1536375 0.5650668 0.07492952 0.46092433 -0.04344849 0.13978997 0.9627148 0.15030321 -0.85776114 1.4127429 -0.74070114 -0.97656107 0.07205216 -0.07700891 -0.30219728 0.28181607 0.98737055 -0.13914177 0.2118604 0.12198024 0.25026804 -0.65332973 -0.18184477 -0.40716064 0.28916395 -0.009516268 -0.41417754 -1.3243439 1.3279225 -1.1618296 -0.6974132 1.2666117 -0.8721681 0.109516695 0.6541606 -0.4979252 -0.6585723 -0.54259664 0.8358091 0.7117977 1.1142408 0.25830346 -1.2594861 0.41861758 0.24076013 -0.42794493 -1.3113393 -0.50142986 0.6621702 0.5822323 0.42478794 0.7686504 0.7791002 -0.29017153 -1.3778021 -0.48979312 -1.1127363 -0.86809427 -0.3281781 0.89128023 0.30462885 -0.74606156 1.1292161 0.46234468 -0.5243503 -1.5125912 -0.5213357 0.7410179 0.19019274 -1.2511044 -1.2616934 0.1241995 -0.99235266 -0.7595087 0.3984963 -0.556206 0.7744274 -0.70424044 -1.0727137 1.2188097 -0.36314318 0.84353244 0.9668829 -1.0846586 -1.2917049 1.1171758 0.60599613 -0.34567425 -0.15626863 -0.4794092 -0.69608384 0.22147444 0.5621725 -1.2327806 -0.29733872 -0.7943504 -0.5118537 1.0736492 0.03851771 0.09216553 0.33080295 -0.44700003 -0.8098226 -0.7579307 -0.028186982 -0.6487571 -0.30817947 1.0105971 0.15486522 0.9134513 0.44977927 -0.3095912 1.4642372 0.68208665 -1.2501574 0.54695106 1.2248924 1.1799815 1.0786932 -0.81811565 -0.14167385 0.18247226 0.35741434 0.4268166 0.46013594 0.57900715 -0.025066324 0.694733
42 0.22887124 -0.00048852037 0.5419018 -0.21819828 -0.5737397 -0.6055194 1.4382746 0.14702475 -0.4347568 -1.4784653 -0.44275582 0.101626106 -0.6889207 -0.3643573 -0.6396701 -1.0662589 1.1499618 0.0796985 -0.35540575 -0.062475227 0.023929972 -0.1953047 0.77885514 -0.70537114 -1.0890851 0.30956328 -0.11440876 -0.109659426 0.65264636 -0.41669106 0.010745358 0.65391934 -0.751904 0.13792633 1.0365816 -0.24769321 -0.33486417 -0.52935976 0.98510396 0.41855675 0.28304955 -0.21978396 0.30202314 -0.11877277 1.126376 0.033656366 0.80050135 -1.0417217 -1.2524846 0.30173367 0.29757786 -0.5248933 0.5601696 -0.23853207 -1.2827989 1.1831759 -0.4665181 -1.028307 -0.8431705 0.058971964 -0.8396913 0.12550439 0.6228982 0.9001855 -0.2928172 0.8266575 -0.084770024 0.19709451 0.39525518 -0.649578 0.5366983 -0.21910596 0.4013029 -1.3428148 0.24479137 0.89050543 -0.5236419 -0.665647 -0.27008092 0.4353869 -0.46861923 1.2499075 1.7465296 -0.3682872 -0.056353457 -0.016180567 -0.95354205 -0.769771 0.69378227 -0.95425045 -1.0695714 0.51668507 0.24534105 -0.55820984 -0.58851653 -2.2410638 -1.2008542 0.88351244 0.5307458 -0.38794732 -0.3988966 -0.10166493 -0.6892386 -0.12532073 0.63176495 -0.5108168 1.0340863 -0.037237477 -0.61095166 -0.32052118 -0.11410815 -1.0430225 0.1092352 0.34426185 -1.0822242 -0.29620647 1.9802331 -1.2674632 0.16308907 -0.25667915 0.11225694 0.34718072 -0.40295905 0.22395363 -0.9756205 -0.77703863 -0.01611252 0.70894635
372 0.94753414 -0.018983552 0.3016485 -0.67455935 -0.3582242 -0.8364344 0.3414677 0.5924974 -0.1513944 -0.5319593 -0.018794486 -0.20100473 -0.5103852 0.40803427 0.52745557 -0.03646019 0.8072011 0.23502526 -1.1297941 -0.2878637 0.2926068 -0.53926665 0.89935124 0.0310896 -0.7073707 -0.16657265 0.65896255 -1.0157938 -0.23865631 -0.7286602 0.23718561 -0.15575899 -0.7290344 0.06671602 0.08666145 0.091841966 -0.4044352 -1.0003471 1.0041877 0.5224593 0.25303724 0.28284493 -0.59668094 0.7031686 0.5475955 0.3856814 -0.00918132 -0.25136968 -1.3317612 -0.48072603 1.1251009 -1.0844682 -0.31786716 -0.44995013 -0.8755229 -0.31155962 -0.5923173 0.6321251 0.28169042 1.1205901 -0.8493994 1.2256356 1.1894101 1.491285 0.013061084 -1.1649916 -0.012182137 -0.415208 0.21896301 -0.75182664 -1.1094979 -0.014589407 -0.29405603 -1.4263991 -0.4045442 0.70049113 -0.0686006 -0.9271188 -0.09659276 0.36570284 -0.26580748 0.95010567 2.179427 -0.2539504 1.1711043 -0.48959756 -0.29424274 0.6258839 -0.5469564 -0.309341 0.07148839 0.7295762 -0.519993 -1.0714023 0.18706243 -1.9914505 -0.5053056 1.2216674 -1.3729874 -0.5935374 -0.026880689 -0.2432163 -0.8353841 0.26782155 0.5624158 -0.014382922 1.8693839 0.78332967 -0.34070125 -0.39604595 -0.496718 -1.0289376 0.33687824 -1.2769384 -1.0213256 -0.07249999 0.6742752 -0.51103467 0.27481493 -0.31941804 0.23663576 1.141106 0.54613364 0.2553223 0.3657101 -0.8973035 0.071208514 0.77694315
33 0.12879413 0.32893136 0.42227328 -1.3651707 -1.2823967 -0.68828154 0.87125695 0.47004053 0.5431034 -0.78270787 -0.36239114 0.5209036 -0.42498353 -0.5407808 0.38638586 0.17019995 1.5941871 0.86953247 -0.13704127 0.12758844 -0.20148072 -0.28611934 0.5246817 -0.8523544 -0.014887279 1.3020798 -1.0200914 -0.39902556 0.29948914 -0.76113474 0.32317162 -0.09853492 -1.5955359 -1.107778 0.44034502 0.15777005 0.09910611 -1.012349 0.53637373 1.1207191 0.34575063 0.3331942 -0.5024362 0.46333456 -0.29660565 1.1065288 0.27927136 -0.63615173 -0.9669039 -0.68782794 0.36621478 -0.803079 0.9943959 -0.122207426 -0.8743849 0.263168 -0.30689803 0.38878188 -0.80840576 0.6481839 -0.33575818 -0.51416177 0.14774905 0.79018986 0.293743 0.19994342 -0.37173066 0.044411328 0.8523219 -0.7812318 -0.1478081 -1.8581154 0.355842 -1.5316528 0.7958174 0.14440726 -0.20697644 -0.7689877 0.43916017 -0.7265478 -0.37087503 1.7651739 -0.23594469 -1.6344905 -0.5864054 0.781777 -0.7553927 0.5676703 0.65396106 0.22655922 -0.12655373 0.46474898 0.38788998 -0.65533906 0.3672534 -1.6107322 -0.7232274 1.0164393 -0.34042278 -0.35689616 -0.28619292 -0.02509881 0.23289235 -1.4956862 -0.29520193 -0.5650788 0.47124687 0.4849305 1.1794177 -0.47860768 -0.79271996 -0.6608618 1.1464126 -0.63543147 -1.2065027 1.5435904 0.8903951 -0.400209 0.72383314 -0.60513186 -0.28941685 1.2008086 0.620484 -0.41096523 -0.38077685 -0.56451744 -0.39378375 0.051840138
327 0.67931604 -0.13819972 -0.040437333 0.44158885 -0.43734574 -0.77210957 -0.0052682376 1.1563003 0.19896871 -0.08610452 -0.49973762 -1.6773058 -0.829883 0.24081534 0.5058234 -0.7774856 1.4483882 0.4771916 0.0015856669 0.21957158 -0.14843461 -0.9079625 0.20351872 -0.9107613 -0.8875013 1.0413547 -0.5148796 -0.8879261 0.60739523 0.44789597 -0.94540304 1.4823406 -0.6931107 0.035929326 0.42852837 -0.026261887 0.404786 -0.5150779 1.2875692 1.5401194 0.09614247 0.40158373 -0.744321 0.8851132 0.27814305 0.18906404 -1.2546061 -0.58829564 -0.9168495 -0.096482806 1.8270582 0.012703868 1.2345386 -0.9253669 -1.5666889 0.50478196 0.20526065 0.25453264 -0.28996935 1.4515672 0.72646886 0.7527314 0.7102949 0.774009 0.5302373 -0.13026838 -0.0072014513 0.58160233 0.19783942 0.1172345 -0.68246675 -1.306624 0.10713759 -1.395472 0.0023990958 0.80031025 -0.27506614 -0.5452233 -0.1631343 0.31941262 0.9268071 0.83747107 1.7251225 -0.71681064 -0.18471828 -0.17462772 -0.122086175 0.2062855 -0.013079055 0.36048254 0.40742323 1.0956218 0.15672942 -0.717799 0.8075007 -1.2610543 0.26022604 0.8265658 0.34142372 0.1801692 -0.54657483 -0.67647886 -0.107399404 0.9061398 0.6621874 -0.14334753 0.9217259 -0.46181914 -0.28035378 0.38568947 0.058080856 -0.6168348 1.1881212 -0.6520975 -0.98269343 1.782963 1.4342872 -0.008537366 1.5665205 0.7209129 -0.92581606 -0.56343013 0.7621163 -0.0048431754 0.57127756 -0.37243152 0.7044653 0.11247863
409 0.2134084 0.39727905 1.8559581 0.5904774 -1.3772384 -0.5511328 0.24735767 0.35283643 -0.2987501 0.3829497 -0.18982497 0.41589433 -1.2373712 -0.33374444 0.56344455 0.77543193 0.89310277 -0.391763 0.6520059 -0.31155768 -0.01880354 0.3452357 0.5073872 -0.7830422 -0.095394455 -0.18658422 0.13023743 -0.206653 -0.31169972 -0.050309364 0.67087233 0.56906414 -0.17406948 -0.22074737 0.09498897 -0.21631908 0.23585725 0.5956251 0.17251585 0.9429737 -0.7850409 -0.12717812 -0.41972297 1.4518278 -0.16850506 0.4517232 1.4895593 0.48768285 -0.5560602 0.18995202 -1.0652112 -0.65861887 0.11906284 -0.14188506 -1.0539699 -1.2529397 0.29473376 -0.90112907 0.12908226 0.25450966 0.3745732 0.0885025 -0.17578363 0.03282186 0.70961213 0.19929121 -0.22379678 0.13090062 -0.22048895 0.76298314 -0.9777284 0.24111405 0.26022 0.5445213 -0.04599506 0.3112537 -0.37528777 -0.7464091 -0.588135 0.034385834 -0.58013237 0.11726651 0.15154293 0.57178086 -0.34366837 -1.0322577 -1.3357381 -0.43361363 0.59686065 -0.70522904 -0.80599517 0.21816753 -0.53113425 -0.56207305 0.4023551 -2.0333037 -1.8268507 0.63287306 -0.94513595 -0.77141106 -0.79291654 -0.041802842 -0.27052656 -0.99031854 -0.76723564 -1.1299593 -0.6389378 0.24291256 0.8677139 -0.21354915 0.3269481 -1.3522779 -0.29687166 0.19777465 -0.7070524 1.4890231 2.0155332 0.21220659 1.6771227 0.08372148 0.14554518 0.2908467 0.75745195 -0.16690896 -0.1452707 -0.30785978 -0.6390875 1.792418
312 0.2877926 0.91142255 0.6956853 1.3832493 1.121537 -0.0021464743 0.07506298 -0.32856643 -1.4791663 0.16208333 -0.44072717 0.5488123 -1.235112 0.94468236 1.6235478 -0.27835274 0.840983 -0.0509057 -0.5032969 -0.27791914 -0.011726191 0.38099316 0.27270237 -1.0407275 -0.9267316 -1.2052337 -0.4102165 -0.64014065 0.836125 -0.26017168 -0.16291305 1.1542729 0.17235723 0.632093 0.24517193 0.73231715 -0.97081864 -0.07277243 0.5385222 0.40892237 -0.39797154 0.017250083 -1.6282014 0.23374306 0.18437262 -0.61724216 -0.5289005 -0.5637309 -0.63380736 0.12137448 1.3486818 -0.7707879 0.7131656 0.23872416 -0.2525621 -0.73883504 -0.762269 -1.6768645 0.4348927 0.98309237 -0.036856044 1.3563486 0.9299081 0.63832414 -0.27338603 -0.33887148 -0.44215783 0.28505495 -0.7149923 -0.9483384 -0.71737075 -0.15688096 -0.4683965 -0.3297773 0.2513174 0.09165612 -0.3218346 -0.30838838 0.029223593 1.1889664 -0.5159702 0.90892386 1.973622 -0.28312045 -0.10237505 -1.5207132 -0.5477695 -0.9618666 -0.22715643 -0.29541138 -0.1416706 0.4635733 0.8215702 -0.60034007 0.86507416 -0.6244991 -1.2316891 0.34547037 -0.10726256 0.2731637 0.2861384 0.07652812 -1.0967762 -0.16344048 -0.6287508 0.49772102 -0.41275543 0.18040842 0.6806405 -0.124899775 1.617872 -1.1563363 -0.21770762 -0.523565 -0.7872539 -0.1532884 0.6306528 0.7275522 0.31330448 -1.433961 -0.98605967 0.5806544 -0.8117556 0.5076668 0.566248 0.3109819 0.5386115 0.90380204
71 0.598077 0.973029 0.26559547 -0.53802216 -0.6173033 -0.43231967 1.0432106 0.32112557 0.13365607 -0.15666912 0.5823057 0.487277 -0.657273 -0.18077761 -0.6351216 0.31743556 -0.48460862 -1.7810963 0.11237392 -0.49327675 0.6942405 0.18505384 0.5428098 -0.0017109789 -0.6955294 0.11363054 -0.30195802 -0.2703616 0.13906774 -0.7738687 0.6444868 -0.2382381 -1.0878495 0.78146625 -0.630027 -0.21738675 0.89394677 0.7276696 1.0848377 1.1890879 -0.40294412 -0.30764696 -0.5388403 0.8646677 0.8236185 -0.5170929 0.065941185 -1.4840583 -0.850575 -0.210794 0.3027128 -0.037398238 -1.6701019 0.19466083 -1.4237481 0.09394954 0.2406438 0.2264797 -0.17258301 0.042405993 0.38089657 0.600655 0.6827214 0.8902235 0.52788544 -0.51859266 -1.2484503 0.12429988 -0.37876406 -0.51872426 0.115147814 -0.71271104 0.21988216 0.11425373 0.9765457 -0.09973102 0.81590647 -1.0287404 -0.18256074 1.0241053 -0.06474777 1.3935109 -0.35468093 -0.15845041 -1.2181867 0.03686033 -0.97710574 -1.2615402 -1.5155427 0.12667789 -0.88789076 -0.929553 0.13380803 -1.0973957 0.095587455 -1.0599298 -0.2624957 1.2842455 -0.23253672 -0.7049116 -0.27525574 1.7071723 0.07453061 0.34598327 -0.10814628 0.15887687 -0.48995802 -0.14008875 0.54807395 -0.43193096 0.48526415 0.75122243 1.0751783 0.27865773 -1.6672136 0.50207514 1.0101829 -0.3824124 0.19940022 -0.9767669 -0.4987561 -0.67251295 -0.6639726 -0.86492014 0.6918789 0.0064447518 -0.5182957 1.5335907
320 -0.5383133 0.4740737 0.29331622 0.07092552 -0.041671228 -0.41497827 0.59149784 0.8058578 -1.4496068 0.34714982 -0.12866808 -1.3050612 -1.0096762 0.104772896 -0.45721534 1.3208858 0.26491883 0.08273838 0.4702079 -1.7389337 1.0776994 -0.5420023 -0.41328305 -1.78231 -0.9723521 0.051018395 -0.44936973 -0.5737333 1.0359477 0.2877158 0.7309284 -0.44987345 -0.18079303 -0.21397145 -0.845286 0.31357813 0.36275113 -0.26578087 1.1349798 0.22948688 -0.8538958 -0.8732087 0.00056837476 1.1286938 -0.44009158 -0.42498583 -0.8333171 -0.6850203 0.59616745 -0.122412756 0.46484014 -0.3828564 0.10940101 1.096316 -1.1955806 1.0581131 -0.48418233 0.11642739 -0.15136985 -0.44446674 0.29042533 0.82932854 -0.0024294688 -0.7303631 1.1044446 -0.38783032 -0.21678805 0.49249488 -0.12783694 -0.37107363 -0.19673704 -0.8267666 -0.21859851 -0.68592983 0.6675918 0.5066046 0.1449506 -0.1500762 -0.5562056 1.0224389 -0.27964437 0.89387137 0.099828064 -0.3540404 -0.50608563 -0.61034113 -0.036430445 -1.4707413 -1.2120574 0.112229355 -0.49948183 0.6623179 -0.07628675 -1.2811764 0.5374407 -0.21082146 -0.04449386 0.17949517 0.077974506 -1.1781968 -0.6686478 0.9642319 -1.1691457 -0.43810514 0.03153297 -0.17967856 -0.3851753 -0.33377904 0.006566457 -0.33829698 0.16951399 -0.7161788 -0.26842475 -0.9303583 -1.7187799 0.09505898 1.4043531 -0.5982572 0.21164037 -1.4006981 -1.1420476 1.0052043 -0.56769806 -1.3018475 -0.6983616 0.37465075 -0.5141172 1.7626702
192 0.2589414 -0.6535575 1.0633024 0.6131313 -0.3502189 -0.658543 0.6766943 0.84603214 0.3327788 -0.76930857 0.6252026 -0.509695 -0.48334342 0.3441957 -0.7016813 0.18099636 0.5482902 -0.33746108 -0.45278487 -0.6502986 -0.50922006 0.31620485 0.96369576 -2.1289728 -0.19819 0.59831166 -0.6429699 -0.1604003 -0.3494687 0.3982429 0.0067655947 0.20184845 -1.0451608 0.3705092 -0.3661452 -1.2015444 0.2526512 0.7445511 1.0958946 1.0977234 -0.74009895 0.38686597 -0.42123505 1.5497289 0.48375875 0.63560843 0.25328442 0.56148535 -1.1073104 -0.5921658 -0.8551716 -1.0491635 0.63245904 0.119221956 -0.33780673 0.74862176 0.2546063 -0.899162 -0.3378431 0.5358016 1.2035533 0.4824618 1.0494429 0.2747701 -0.2501657 0.7601388 -0.84246063 0.7755439 -0.4790042 -0.025817852 -0.76168555 -1.2057867 0.11016977 -0.52277404 0.13829984 1.070301 -0.5730221 0.16567948 0.02660258 -0.303721 -1.4841067 0.71134245 0.94237626 -0.011113769 0.15854721 0.101642616 -0.19775319 -0.1844939 0.033690482 0.05405384 0.33310938 -0.27434286 -0.9286059 -0.76901853 0.18920954 -0.93636584 -0.9472495 0.26629138 -0.13890004 -0.46961623 -1.2592722 -0.044121757 -0.41280565 -0.56160206 -0.04873305 0.25037482 -0.030025002 -0.903834 0.3296186 0.8692296 -0.67672235 -1.7800694 1.1922649 0.020905955 -0.77996755 1.4743873 2.2443383 0.46202397 1.038355 -1.123224 -1.0733101 0.6938756 1.0056388 -0.89912033 -0.37376314 0.6586873 0.6050424 1.5091244
180 0.38337258 0.4991156 -0.44864702 0.53052783 -0.5494601 -0.87783754 0.2965674 -0.60739076 -0.65069807 0.14301115 -1.7567652 0.1135553 -0.26393765 -0.6864791 0.90044665 1.3951024 1.3072851 0.5156669 0.4485786 -0.3478291 -0.3578671 1.0460805 0.6028097 -0.8328023 -0.13162403 -0.042490963 -1.3894151 -1.8041437 0.56799024 -0.78019416 0.18898766 0.04800893 -0.57137 0.27378014 0.34808138 0.117630154 0.36690077 -0.50223976 1.3890661 0.28451645 -1.024529 0.7305482 0.103663 0.6953789 0.08639658 -0.41262355 -0.056094524 -0.6721975 0.7055979 -0.42356423 -1.0143272 -0.7593092 -1.1210184 -0.31117615 -0.11983744 -0.2606273 0.65124094 -0.5574162 -0.45168537 0.3335289 0.64275086 0.24415536 0.20610745 0.41348845 -0.5820522 -0.03851933 -0.2581965 0.9789174 1.0194148 -0.6692923 0.3089691 -1.0684056 0.016987609 -1.5451506 0.305561 0.8741373 -0.3879257 -0.44789532 0.42880452 1.1198612 -0.69683325 0.21365575 0.30587095 0.3479432 -1.2953472 0.14082809 -1.0722253 0.33671194 -0.2517036 0.5218931 -1.040127 0.3003994 -0.7475076 -0.6661372 0.9101474 -0.99034363 -0.91571903 0.7320399 0.11438218 -0.16052629 0.5455533 -0.019782674 -0.38429877 -0.113254614 -0.3701125 -0.22547476 0.64828366 0.7321297 1.5883832 1.4018536 -0.9377021 -1.3257724 0.36387408 0.279343 -1.6914914 -0.3908205 0.3800628 -1.598592 0.39249194 0.18928613 -0.17955083 0.44781607 -0.411586 -0.67923266 -0.10781207 0.1305969 -1.3886106 0.595192
434 0.3079293 0.11580193 -0.015342023 -0.55530024 -0.5374061 -1.6197653 -0.12620915 0.07681846 -0.13200676 0.5127971 -0.7249819 -1.0511324 -0.51373446 -0.65283287 0.75628346 1.1478407 0.50178313 -0.18041654 0.6404656 -0.8546034 0.31907687 0.052101575 1.3987544 -0.57473636 -0.7019157 -0.39737326 -0.7664459 -0.83777136 1.92649 0.69509166 -0.49558264 -0.47124383 -0.523749 0.6180704 -0.08879862 -0.17486078 0.8518683 0.09328452 1.3926387 0.6770963 -0.40805167 1.2394979 0.46153435 1.9342791 -0.48805687 0.3285012 -0.26328424 -0.27570763 -0.41017962 0.120357044 0.49141848 -0.31418654 -1.0251037 -0.24676776 -0.93369734 -0.78320515 -0.5351226 0.4070328 0.20686424 0.57566977 0.10617532 1.307774 -0.037522007 0.39226127 0.75137246 1.2171906 -0.22702342 0.184332 -0.20585544 -0.17390938 -1.2522514 0.55461556 -0.8697306 -1.1319467 0.8142685 1.5094975 -0.3945825 -0.47179914 0.049821384 0.19191766 -0.740601 0.63223493 0.11093318 0.596972 -0.6617332 0.44669807 -0.6547295 -0.40918922 -0.21945861 0.40711802 -1.4216543 -1.076863 0.43637657 -0.6204344 -0.48620635 -0.8548311 -0.3858569 0.3186676 -1.3508722 -0.27360833 0.5507367 0.63932574 1.184854 0.11257202 0.067499794 -0.25803426 0.15607333 0.9185177 0.18089777 0.8942798 0.10786245 -0.8681883 0.17831741 -0.64816797 -1.1091002 0.81114095 0.12609883 -1.0212483 1.0384394 0.06369843 -0.82248884 0.16143467 0.1984273 -0.26628292 -0.34301117 0.79404384 -0.7022014 -0.52364326
395 0.038726777 -0.6543747 0.7083703 0.32364756 -1.0775905 -2.7221775 0.028716635 0.8191696 -0.08969555 0.8492037 -0.92589873 0.25163895 0.36566883 -0.43121183 0.6225812 -1.0578163 1.3013185 0.5465727 -1.0953583 0.15640248 -0.1269506 -0.4652297 0.26289424 -0.48121956 -1.1808313 1.0709274 -0.18608877 -1.4411968 0.33750632 -1.3773253 0.07125818 0.22738285 -0.37170762 0.31107417 -0.6922315 -0.039283365 -0.5276714 -0.27824023 0.5766466 0.5159701 -0.5427749 -0.14973988 0.33818862 0.33318797 0.07331199 -0.25642413 0.7315561 -0.9862127 -0.7165561 0.15083268 0.67214495 -1.1719457 0.5946955 -0.500762 -0.86060184 -1.2242494 -0.00042907384 -1.0433283 -0.7795528 1.8374039 -0.8568821 0.94818324 0.23522528 0.19440196 0.8648007 0.44809598 0.4395139 0.3869766 0.68051 -0.3051448 -0.5239847 0.798455 -0.20114206 -1.1294049 0.0410223 0.2371374 0.091334015 -0.58415824 0.13057542 0.0858444 -0.24916479 0.33467057 0.53498787 -0.11659701 -0.8795551 0.37378305 -0.64495647 0.5158974 0.7058943 -0.1739542 -0.7882148 0.8926943 -0.3192467 -0.59676254 -0.26815212 -0.82804286 -0.6163608 1.5791498 -0.71027684 -0.45925626 -1.3990039 -0.5074911 -0.26715264 0.03729283 -0.16612998 0.23765461 -0.3460004 -0.22703108 -0.70147896 0.3756548 0.35990158 -0.21893321 1.0982531 0.09443595 -1.1282282 1.0935135 0.040381655 0.06114166 0.17282908 -0.17149301 -0.48504218 0.024285084 0.4912515 -1.0460596 0.1586475 -0.52727437 -0.40636685 1.3803886
107 0.95653963 1.2083565 -0.33949965 -1.1416389 1.0620493 0.22144398 0.057530124 0.75254864 -0.97861546 0.46338543 -0.3382661 -0.8513623 -0.5426032 -0.89221007 0.14830661 -0.07489674 0.06853505 -1.0228844 0.34460655 -0.48879993 -0.70072263 1.0583047 0.6279718 -1.2209778 -1.6033216 -0.034826078 -0.38235545 0.21688457 0.076773055 -0.025991667 0.54900455 0.37625158 -0.76503193 1.0842121 -0.32502648 -0.29080427 0.7545724 -0.2830261 0.3124275 0.5190892 -0.26210564 0.7806653 -0.10691205 0.17809589 0.26316798 0.1364288 -0.54666185 -0.38943696 0.14256372 0.09649519 1.4786153 -1.3719333 -1.1321089 -0.17004068 -1.2188393 0.5127042 1.0206505 0.038045563 -1.4879127 0.17011963 0.58964014 0.6917164 -0.34738916 2.0185072 0.24835062 0.15320773 0.7063867 0.9959799 -0.61594915 0.21795923 0.53098726 -0.8566664 -0.024203178 0.05394138 -0.42118767 0.06357252 -0.9270516 -0.2415667 -0.8869372 0.10971729 -0.3060483 0.8463917 1.4663953 0.41248772 -1.1665109 -0.6393874 -0.23853838 -0.9463148 -0.29829025 -0.58355945 -0.18480188 -0.4645149 0.055590056 -0.990898 0.14235164 0.2617331 -0.58426243 -0.56765217 0.7080141 -1.0145657 0.054514162 -0.011752639 -1.5373198 0.51742923 0.5010707 -1.2751111 1.3320798 -0.14285216 -0.76543444 0.22465985 0.7578507 -1.0520892 0.83919173 0.4427028 -0.6386752 1.8983085 1.7632428 0.5488189 0.99515593 -0.8612332 -0.46993113 -0.75872964 -0.8389495 -1.0997394 -0.9022261 0.5890021 -0.87357235 1.0545692
282 1.2285311 -0.19053923 0.404757 -0.51558656 0.28591883 -1.3748939 0.5059312 0.15526341 -0.40827203 -0.18039933 -0.31616256 -0.88903564 -1.5415865 0.11546342 1.3369243 0.7794525 0.21187116 -1.0301019 0.24499892 -1.4468106 -0.92466056 1.30912 1.2219902 -0.6901766 -0.6468849 -0.3486643 -0.8259588 -0.34152234 0.3853188 -0.53403515 1.2060854 -0.24701993 -0.9506199 0.5722907 0.22173011 -0.5105045 0.96069515 0.11145378 0.80554426 0.37703645 -0.5321251 1.1060665 0.22319447 0.08175755 1.839441 -0.04429749 -0.4747495 -1.4248745 0.36357912 -1.3653516 0.23977888 -0.8834652 -0.6728214 -0.124207996 -0.25597924 1.1386132 0.19533643 -0.72813255 -0.25834087 0.98872566 -0.91595185 1.0086684 -1.0422211 1.1975036 0.48713332 -0.23809206 -0.33475164 -0.3663762 -0.5165959 -0.9932451 -0.038200047 -0.43231195 0.19272444 0.3498243 0.7505457 0.4865222 0.6082913 0.15868813 -0.6685561 0.28748208 -0.5918085 0.09785794 0.78975224 -0.5438194 -0.37594116 -0.20701174 -0.5271678 -0.37203068 -0.9392243 -1.3740871 -0.38085362 -0.6905876 0.49209645 -0.89525944 0.47292084 -0.23459886 0.16412526 -0.147994 0.065361716 -0.63238347 -0.691156 0.6050206 0.24527746 0.4340003 0.8304409 -1.3989254 0.12061658 0.21831 0.06309363 0.07439483 0.73580843 0.09678666 -0.31637698 0.443897 -0.6711307 0.110642 1.5643069 -0.41655007 1.1140678 -1.0113627 -1.7388607 0.8852108 -1.2897007 -0.54376864 -0.22233818 -0.24816427 0.53353906 -0.71004677
336 0.8984546 0.23361094 2.2102928 -0.80226845 -0.40554398 -0.7918592 1.280509 1.8713503 -0.7973732 1.0020659 0.8550963 -0.5894688 -0.86404943 -0.09374396 -0.3364399 1.1980741 1.2293227 -0.36944625 0.27599964 -1.5828917 0.43937865 0.6477853 0.18044466 -1.4814821 -0.4048619 -1.1141034 -0.84439206 -0.18642296 -0.8405921 -0.62415093 0.5696115 -0.43348032 -1.0671033 -0.47412017 0.9346742 0.49396887 0.05910034 -0.24020593 0.14023143 0.52543545 -0.054345157 0.06711096 -0.0012320912 -0.48514012 -0.0317962 -0.43394768 -0.50876 -0.29877213 -0.5289445 -0.5594726 0.51130503 0.94077677 0.1826858 -0.9344745 0.14260055 -0.5767414 -0.037124734 0.312146 -0.53814816 -0.39084604 0.9893155 0.24479857 0.33402944 0.4297979 0.2554564 -0.2340054 0.080950305 -0.63438684 -0.41307443 -0.0057136146 -0.3971201 0.2897671 -0.56133664 -0.7145316 1.7894814 0.582157 0.99969035 0.05331453 0.31296772 0.42120755 -0.47874746 -0.059235197 0.49479896 -0.04467688 -0.7496986 -0.6427572 -0.9699805 -1.3192271 -0.623878 -0.4844891 -1.0328082 0.75810206 1.3068818 -0.5470511 0.8046986 -0.44264305 -1.0426902 -0.64443725 -0.008103713 -1.2382859 0.5828657 0.40541077 -1.3244654 -0.47584173 -0.7338684 -1.5148137 -0.17458318 -0.56490225 0.23023008 -0.06363983 1.531423 -0.17471616 0.04870972 -0.6252859 -1.7559214 0.6237772 0.9128204 -0.021371186 -0.015141507 -0.300085 -1.040224 0.83809763 -0.7697553 -0.11490103 -0.6852667 1.5178993 -0.031209152 0.58658326
374 0.5500027 0.7292025 0.26413348 -0.36869767 0.5508573 -0.22838022 0.6305886 -0.31796 0.51040095 -0.3476025 -0.016331539 0.1078106 -0.40861997 -0.66444415 1.0488151 0.070882395 0.5864335 0.17053561 -0.39528272 -0.026346644 -0.7741494 0.6271565 0.35037005 0.5106735 -0.8302517 -0.3180737 -0.35737884 -1.0515629 -1.130264 0.0924114 -0.65876794 0.1075556 -1.7348038 -0.27646023 0.0124927815 0.9631472 -0.018636994 0.122760504 2.6556542 -0.46655604 -0.37763065 0.29685995 -1.0758283 0.5097476 0.27043644 -0.7784568 0.65570664 -1.090226 -0.7234346 -0.11191507 0.5085591 -0.49919686 -0.10022107 -0.48186108 -0.038046908 -0.55447346 0.4801118 -1.6287314 -0.13430369 -0.018035416 -0.15150788 0.7937205 0.7123698 0.3241619 -0.27927783 -0.07525205 -0.5436548 -0.36205742 -0.4889995 -0.6163481 0.22830716 -0.31475765 -0.68370724 -0.22187443 -0.08473202 0.26758847 -0.34359628 -1.0559759 0.8892879 1.0411118 -1.1887727 1.2887367 0.6505948 -0.7574557 -0.42903277 -0.52793103 -1.4184464 0.4323018 1.3525411 -0.32605255 0.19808416 -0.25238588 1.1420939 -1.0858009 1.3683709 -1.098436 -1.710128 0.8530519 -0.6819469 -0.9194042 0.06761792 0.23024037 -1.1053362 0.88879204 -0.6197906 -0.9194396 0.8109396 1.2855468 0.056318767 0.24575017 -0.517402 -1.7613062 -0.009735429 0.02640959 -1.0848713 0.4100849 0.80624044 0.3623868 1.7411443 -1.0499454 0.18348971 0.81975126 -1.3974466 -0.090318985 0.49650326 -0.8969049 -0.4238022 0.5502077
129 -0.55333304 0.3862475 0.2079958 0.20971951 -0.5990634 0.30529565 0.66325 0.743644 -0.7087435 0.5663042 -0.27198705 -0.38601393 -1.8408662 -0.008991366 1.295073 0.10889708 1.3420771 -0.23617709 0.67307925 -0.585863 0.73249376 0.30384535 0.08359749 -1.3888915 -0.38723186 -0.10107975 -0.6051613 -0.73642653 0.7364188 -0.8826637 -1.0132004 0.1499593 -1.2671392 0.6201158 -0.16879876 0.710304 0.9997385 -0.80887645 0.51358 0.09760219 -0.796502 -0.01004824 -0.26652512 0.89182115 -0.644255 -0.7651705 -0.53420144 -0.90157104 0.1300862 1.2019471 1.0172858 -0.58804375 0.3648394 -0.20860976 -1.1186359 0.6168615 0.79052776 -1.692606 0.18236084 1.0214024 1.375514 0.8388165 0.2319131 1.0174345 1.4789068 -0.3358423 0.049998734 1.1652365 -0.06483109 -0.079651296 -1.3862554 -0.9502297 0.6879182 -0.40380374 -1.4660243 0.1958426 -0.13332076 -1.0395488 0.24261266 1.3786882 -0.541175 0.114706405 0.85497046 0.96554804 -0.781304 -0.87886626 0.22931384 -1.1903267 -1.1643444 -0.4941427 -0.1215016 0.17372504 0.42525426 -0.9758043 -0.14866418 0.3239124 0.09823179 0.6055354 0.32593957 -0.39359725 0.013138935 -0.09269548 -0.7234013 -0.7024792 0.7225665 -0.2596621 0.57310766 0.44553408 0.010332105 0.81741244 0.4716893 -0.2652473 1.1833721 0.03490331 -0.4280721 0.71221817 0.042938326 -0.38216838 0.11238295 -1.1240662 -0.39360595 0.045459263 -0.07316237 -0.36651143 -0.22459985 0.52283865 -0.38641027 0.35336637
429 0.075162426 -0.0639984 0.12580702 0.26666942 0.009179672 -0.60259724 0.27487972 0.2522251 -0.41680357 0.66161287 0.5144857 0.12436951 -0.8994205 -0.064124614 -0.060233966 -0.21569537 1.0499163 -0.37829116 -0.27070242 0.12642981 -0.5126068 -0.80549574 0.47481054 -1.1273068 -0.5987325 0.0708194 -0.79456854 -1.1634885 -0.026349194 0.008850474 -0.04178659 -0.69822985 -1.2786136 -0.8686067 -0.08611651 0.7025933 0.09065578 0.09781991 0.754477 1.0080754 0.80856985 0.53873885 -0.22164066 0.2062702 0.79761285 0.20569652 -0.64660424 -1.1228442 -1.3437762 -0.5435032 -7.241668e-05 0.07971821 0.3369211 -0.44586533 0.64964956 -0.475305 -0.8530258 0.24881408 1.1190287 0.97557205 -0.1751456 -0.053731065 2.0974483 0.5810488 0.09200375 -0.2388255 -1.4663506 -0.22287029 0.2892536 -1.4616787 -1.4303414 0.067038245 -0.4544964 -0.97218966 0.61243373 1.1704834 0.35477433 -0.72992414 -1.4416044 1.1496637 -0.23543355 0.6885979 0.35660616 -0.93675905 1.3055836 0.083204165 -1.7969809 -0.64847076 -0.8877391 -0.22726285 -0.67462873 -0.9764824 -0.77695096 -1.473159 -0.4053269 -1.1423432 -0.7762849 -0.30319527 -0.3548077 -1.3446507 -0.93530834 0.32035944 -0.40003225 0.19309154 0.4515568 -0.59059364 0.6131097 1.4980124 0.11072351 -0.4075029 0.019506546 -0.03981307 0.40463644 -0.07662154 -1.4912615 0.5069071 1.8437603 -0.083091706 1.8036722 -0.037276972 -0.23556896 1.7587848 -1.0698421 -0.11121363 -0.30673257 -0.02774003 -0.33854818 1.0968537
50 0.5512906 0.21960661 1.7331991 -0.7295664 -0.53078526 -0.51279974 -0.59629613 0.2997119 1.0771435 -0.11342821 -0.29107615 0.2134785 -1.0038855 -0.7994582 0.7275217 -0.051137663 1.5857071 -0.26725128 -0.33932856 0.5152652 0.08153546 1.0048792 1.2711195 0.23320244 -1.3954374 0.37217057 0.43694246 -0.7574597 -0.4074856 -0.8727589 -0.3509873 0.09594007 -1.246551 -0.6318098 -0.10916603 1.3021715 -0.34189707 -0.37103242 1.5602736 0.4277523 -0.34981605 0.5638417 -0.2251504 0.537817 -0.69591814 0.63223875 1.0542128 -1.1464206 -0.15868767 0.017248064 0.48657224 -0.4891711 0.6614466 -1.007938 -0.7422252 -0.7730915 0.81751144 -1.2219298 -0.25828868 -0.20215254 0.76622504 -0.9747008 -0.25861946 0.6183148 1.1858857 0.3785984 -0.8137081 -0.5693457 -0.55183333 -0.3967384 -0.8226124 -0.7075012 -0.20745459 0.60087526 -0.4872219 0.43023208 -0.72409666 -1.2833637 0.01619351 0.70200527 -0.48633528 0.3363811 0.8121691 -0.24865146 -1.221944 -0.68241566 -0.2655875 0.03595845 1.480378 -0.29686984 -0.46843633 -0.51199573 -0.41597393 -0.87307906 0.41364998 -1.3606821 -1.1457567 0.7655742 0.34181777 0.92109114 -0.72988737 1.2535112 -0.89299905 -0.4896534 -0.6172743 -1.0203441 0.41160148 1.0592072 -0.19417478 -0.38499466 -0.6099429 -0.5585008 -0.31207055 -0.66768634 -0.43143353 0.8017735 1.2770314 0.9636166 1.4421344 -1.1327473 -0.4713064 0.18435849 0.43948647 -0.013607132 -0.7939657 -0.7018168 -0.9994054 -0.38121033
293 1.2252179 0.9291644 0.0060873344 0.66839176 0.38415945 -0.76829803 1.407026 -0.5302467 -0.069603875 -1.007243 -0.8370807 0.22650608 -0.239815 -0.040617924 0.7039588 0.34787798 -0.030767825 -0.3852587 -0.28463757 -1.9441687 0.04813748 0.9866682 0.97763956 -0.9609114 0.31531197 -0.64765984 0.50380385 -0.20355918 0.033974476 0.43004933 -0.18354774 -0.50829613 -1.0733027 -0.6901375 -0.63742375 0.016109576 0.22521019 -0.6509054 1.1564058 0.5691552 0.16135491 0.6149923 0.3559028 0.015796551 0.45818502 0.49909252 0.13771693 -0.58701307 0.807622 0.19414622 -1.3063583 -1.1288688 0.23667303 -1.1603522 -1.5713631 -0.49482214 -0.33016017 -0.13694322 -0.96641785 -0.50513744 1.1170248 -0.029074756 -0.3948882 -0.34669244 -1.0493038 -0.19701986 0.2121648 0.1404843 -0.3333218 -0.029853659 -0.10406766 -0.97125506 -0.902314 -0.9577799 1.3050282 0.43256238 0.55143267 -1.5872296 0.0058805803 0.56847763 -1.5169315 0.70109046 0.3334101 0.78083646 -1.1969613 -1.9263997 -0.6177972 1.0960885 -0.07842828 -0.6766765 -1.2766511 0.8330852 0.94092625 -1.5766135 0.7640394 -1.1615099 -0.11633365 0.55799586 -0.6235928 -1.0080105 -1.527666 -0.021318292 -1.5846542 -0.78565896 -0.08920981 -0.61778927 -0.20347029 0.47965345 -0.07436706 0.9734481 0.31344134 0.3766805 0.50081265 -0.9371872 -0.9761398 -0.05710522 0.9775172 0.63030946 1.258323 -1.3858434 -0.17265368 0.13254838 -0.3274571 0.6053314 0.4907142 -0.70285225 -0.3615799 0.17078723
357 0.70239675 -0.2560869 0.39783835 0.6711251 -0.91070294 -0.79469603 1.0537906 0.0014787773 0.3011752 -0.8339337 0.2798377 -0.33070233 0.5244064 0.13690104 0.30015495 0.11513088 0.6661603 0.15758072 -0.11693317 -0.56734294 0.15720509 -0.6978348 -0.5821683 -0.2784942 -0.62197727 -0.120439984 -0.22689813 -0.27817658 -1.2471703 -0.48639497 -0.7608867 0.69738704 -1.5072404 -0.1353467 -0.6068944 0.88043034 -1.3443129 0.13367121 1.268696 0.92988 -0.4489766 0.5078302 -0.12855883 0.20662318 0.21784344 -0.24665268 0.06712219 -0.81025755 0.14263609 1.2253807 0.7583559 -0.25355515 -0.18649824 -0.9423459 -0.8561388 -0.25556484 -0.24656999 0.40008277 -0.4283904 -0.25796863 1.0323437 -0.46557286 1.6185002 -0.2065403 -0.32149813 1.4060282 -0.1954783 1.1856903 0.11697114 0.13355866 -0.7396323 -2.1058936 -0.73974955 -1.0111364 -0.18139917 0.77620316 -0.55802643 -0.8899571 0.23536894 1.3281268 -1.5204879 1.3002036 1.1177104 -0.9543014 -0.6696807 -0.20571272 -0.49974516 -1.3614079 0.09556874 -0.17236927 0.12183525 0.37379146 0.573856 -1.0609876 -0.00551488 -1.15312 0.21540394 -0.39820743 0.9742121 0.052226502 -1.2551844 0.13260008 -0.008256663 -0.6746611 0.3036243 -1.2609775 -0.06509667 0.9356047 -0.3865941 -0.02354566 -0.05290905 -0.8253737 -0.8655272 0.73667896 -1.02691 1.4379683 0.6184287 0.24269326 1.4558309 0.37782672 -0.52724993 0.5453072 0.4432815 -0.24697587 0.9008649 -0.12945253 0.891908 0.4063609
194 0.9652806 1.3869355 -0.27009997 0.5547436 -0.62267226 0.6080079 0.59629655 -0.4788886 -0.75012267 -0.6418357 -1.033221 -0.6166558 -0.85085195 0.4720051 0.76151985 -0.21423279 0.47593156 -0.15554336 -0.5489732 0.28156468 0.28229272 0.3919892 0.123440936 -0.20995669 -0.75702405 -0.37135616 -0.4638831 -0.24205077 1.4310412 -0.4161879 -0.25437763 -0.49926826 -0.60845345 -0.0072071715 0.28909138 0.643305 0.99588925 -0.56825066 0.8747781 1.0628121 0.19407365 0.6254454 -0.03318412 0.2749618 -0.08260073 -0.05036122 0.2951129 0.8876986 -0.9547187 0.47388715 0.030589579 -1.0198565 -0.23759262 -1.0470246 -0.1519189 0.33862314 -0.12566182 -1.0079198 0.011430148 0.05190611 -0.57943213 1.0817002 0.887516 1.2454947 -0.15825859 1.6596943 0.70611244 1.1072583 0.9288578 -0.5171045 -1.6370418 -0.49777108 0.08970099 -0.958837 -0.85415375 0.8593016 0.024202965 -1.0330619 -0.6058103 0.44096017 -1.6503532 0.4260467 2.0362644 -0.77187705 0.038151655 -0.578578 -0.53616816 -0.44050407 -0.46595475 -0.87566394 0.28477564 1.9759281 0.2106187 -0.6163179 -0.47803745 -1.0689669 -1.1862063 -0.49067917 -0.052521557 -0.4742317 -0.84909487 -1.0071636 -0.8960966 0.32149747 0.2252863 -0.74498945 0.7281843 0.6896461 0.46241212 -0.43149945 0.3069065 -0.6432747 0.21792899 0.1832253 -0.9527948 0.34860775 1.1519794 0.04804788 0.027846001 0.38617098 -0.15630811 0.54094774 -0.4387869 0.6303438 0.05542175 0.87198305 0.702801 0.3061803
335 0.27058506 1.1574992 -0.0864223 0.64897954 -0.6452922 -0.5374251 -0.010691613 -0.17335886 -0.5364384 -0.703406 0.4314084 -0.7577523 -0.56022733 -0.80746776 0.81547177 0.090608925 0.48570788 -0.76720506 -0.5488708 -0.34317964 -0.90336025 -0.16213894 0.41525683 -1.4170194 -0.17692994 0.36136165 0.0390975 0.09740981 0.3453523 -0.018088318 -0.73660153 -0.6463275 -0.73056537 0.1574501 0.16090429 -0.052470017 -0.015587785 0.60461366 0.42882463 0.8491507 0.07558802 -0.27656206 -0.14663734 0.66338503 0.9801512 0.16292323 0.995519 -0.009558775 0.28005958 0.47436094 -1.2153771 -0.915755 -0.3893892 0.08498633 -1.2218417 -0.9172023 0.285186 -1.8966719 -0.10095423 -0.15666148 1.2171484 0.67923295 -0.11333542 0.35375798 -0.142267 1.1486552 0.93038875 0.73626846 -0.7498678 0.2571368 -1.0797243 -0.57111645 -0.2352881 0.043806512 0.9043493 1.1644824 0.20233163 -1.4701172 0.2415965 -0.64791083 -0.43116787 -0.3287965 0.576272 0.2086695 -0.86361814 0.0142098935 -0.22951664 0.53029096 0.6181136 -0.01327641 -0.8104509 0.99282324 0.15902232 -1.903196 0.071146466 -2.0002882 0.02179516 0.3342808 -0.99052906 -0.52792704 -0.9504729 -0.9687813 -0.81607264 -0.2685484 0.29769653 -1.168506 -0.21806067 0.5345393 -0.45287624 0.002295808 0.2494868 -0.42071992 -0.10376013 -0.41666144 -1.3167262 0.7118937 0.82792544 0.38114607 1.045145 0.11519336 0.004487124 0.10262827 -0.45416915 0.30856973 0.8572243 -0.13143249 -0.25809622 0.6825438
108 1.5455409 0.85757744 0.5583162 -0.45245266 0.029757047 -0.53458935 0.37332326 1.734699 -0.37210217 0.22112499 0.017224187 -1.5070865 0.16436884 -0.9549506 0.31329724 0.639213 1.0185627 -0.88319516 0.07804556 -1.026401 1.0474511 0.20567462 0.50247866 -1.2139039 -0.78159857 0.079488546 -0.250162 0.0036780147 0.8917472 0.0806006 1.0643057 -1.1061751 -0.6628279 -0.47785923 0.1461034 -0.6115498 0.72965753 -1.0386478 0.8800508 0.62391484 -0.13890177 0.19091108 -0.13075595 0.20953585 -1.0150793 -0.019044505 -0.161187 -1.1745205 0.5014425 0.45175236 1.0324392 0.49371704 0.9211161 0.3824796 -1.5226798 -0.108291954 0.26231986 -0.135702 -1.2720941 0.061771236 1.2486767 0.59709656 0.31191722 -0.12774716 0.7825098 0.16990007 1.7283874 -0.05471298 -0.03193757 -0.51083755 -0.5111131 -0.2900151 -0.120904505 -0.7523759 0.5379821 -0.24678265 -1.4866852 -0.10154133 0.959951 -0.72712183 0.35387462 1.0525714 -0.23830202 0.25148854 -0.8016535 -0.5646765 -0.26591775 -0.6565307 0.7649634 -0.79630655 -0.7244186 0.37874117 0.015767671 -0.51660705 0.45051953 0.02896109 -0.34211412 -0.85195076 -0.42391655 -0.5744016 -0.5241828 0.8630544 -0.03483156 -0.34417284 -1.0028567 -1.0989563 0.34319624 0.9434083 0.16639206 0.35314557 0.42006657 -0.62083435 -0.5030367 -0.12048696 -1.4844046 -0.23714682 0.52615565 0.19287872 1.1251935 -0.30944046 -1.1082826 0.5381039 -0.241665 -0.892286 -0.40646407 0.6721394 -0.38005817 1.3630162
250 1.9135071 -0.10073514 1.0757973 0.16885969 0.08274614 -1.0555052 0.75588655 -0.3958108 -0.87957287 1.1273973 -1.1015537 -0.44969955 -0.9828334 -0.38860893 -0.06096119 -0.11788274 0.6809142 0.4803106 0.55459005 -0.055614024 -1.5252566 0.5933303 0.10807773 -0.8169816 -0.57922363 -0.20172046 -0.8158361 -1.7081691 0.7138665 -1.2402415 0.27499974 0.50676244 0.13363309 0.20410436 0.22407019 0.2096177 -0.13577934 0.29346266 1.244714 -0.0014832952 -0.12409767 0.87382174 -0.9551639 0.06714 0.91727287 0.9282089 -0.25171694 -1.3407259 0.9367597 -0.5437067 0.664149 0.018581685 -0.06555458 0.115030594 0.59799004 -0.5784044 -1.2905692 -0.5373581 0.42740792 1.024655 0.4522472 0.43569577 0.85576046 0.7125039 -0.548594 0.046354394 0.009348659 -0.12653324 0.9477035 -0.29405886 -0.25183907 -1.0571268 -0.40287277 -0.5810542 0.018726047 0.13540412 0.17536688 -1.2735689 0.7821066 0.8123706 -0.5309302 0.26940072 0.6505879 -0.4263913 -0.31677386 -1.222221 -0.804979 -0.55192673 -0.25766748 0.641488 -0.69230884 0.28993297 1.1535239 -0.5197374 0.037819225 -0.61653894 -1.1962568 -0.14519264 0.03142398 0.65607476 -0.55584294 0.52894235 -0.20656507 -0.65117085 -0.9807939 0.49588037 -0.27016228 0.9956618 0.9412386 0.651089 0.21078214 0.2623415 -0.06886465 0.7600201 -2.054369 -0.7060263 1.6108501 -0.1540373 1.0690304 -0.3188736 -0.98393315 -0.05382227 -0.08112393 -0.46654236 0.14456625 -0.40547225 0.7030728 0.7240523
3 1.0429249 0.121000245 0.882587 0.09471948 -0.03301264 -2.050076 -0.23874839 0.9509634 0.45640987 -0.89011467 -0.5057095 -0.017044656 -0.2561151 0.15340441 1.5442793 -0.26799616 1.4946345 1.1776963 -0.37396958 0.08424994 -0.16681099 -0.61275375 0.8077312 -1.8835527 -0.24676928 0.425293 -1.0842824 0.05006569 0.63730145 0.47260824 0.83600533 -0.07203375 -0.428335 -1.0550909 0.29984066 0.20889047 0.49038073 -0.34204027 1.2951711 1.306354 -0.9609521 0.7436105 0.41827637 0.026978733 1.6340797 -0.18937682 0.17309028 -0.6062443 -1.9673654 0.27102193 0.21387604 -0.39114705 0.06081653 -1.1607914 -0.8452982 -0.79641217 -0.12545997 -1.1323199 0.1626268 0.0006828601 1.6058618 -0.025566002 0.5842586 -0.100659646 0.04897723 0.5012999 0.32162958 -0.07073945 0.001480062 -0.043199744 -0.5353992 -0.80576885 -0.47445884 -0.69127876 1.1244584 0.8158314 0.6547136 -0.50686866 0.22514005 -0.3693751 0.6646785 0.32511154 1.1266372 -0.922989 -0.9229768 -0.3380484 -0.44469765 -0.3691785 0.20463079 0.1360176 0.41823724 0.44649908 -1.3472039 -0.69302976 0.5216051 -1.0600954 0.016704096 -0.45069596 0.7388755 -1.1468652 -0.20766272 -1.0079625 0.5965771 0.6107308 -1.4981598 -0.37703303 0.2683057 0.7623884 -0.5822824 0.060508437 -0.31778124 0.5140341 1.0710824 -0.23080446 -0.97246253 0.6612192 0.8674272 0.5913698 1.1010385 -0.9363867 -0.78888464 0.6656054 0.2664499 0.80344915 -0.4501058 -0.20400345 0.14899401 0.98369724
240 0.6454158 -0.034994245 0.59327936 0.04655887 -0.48783797 0.39476758 0.27883005 1.0141357 -0.40847495 -1.16685 0.51460814 -1.1726776 0.5422484 0.16944918 0.76179934 -0.24986066 -0.096399315 -0.72946763 -0.39927405 0.09406765 -0.15152891 -0.5383411 0.63948834 0.3155191 -0.4274175 0.46328717 0.54547626 -0.23627265 -0.24965125 -0.9044398 0.17897312 -0.16673888 -1.0664539 -0.03125767 -0.5203519 0.18445843 -0.6246854 0.636609 1.2983941 0.7400037 0.37279102 0.57107776 -0.7664099 0.3694673 0.82414204 1.1321622 -0.26791117 -1.3789637 0.29889965 0.45368126 0.09238912 0.48091227 -0.19023123 -0.63872945 -1.7331246 0.087631814 -1.1059577 -1.0367072 -0.0029798693 0.3050481 0.37155098 -0.77519315 0.7772332 1.3767023 0.7903132 0.25887018 0.2634446 -0.01950591 0.057038676 -1.1162617 -0.7693798 -0.8306059 -0.9541931 -1.2236936 0.52800727 0.20786591 0.6144266 -0.94225967 -0.50502014 0.3281724 1.038239 0.9132886 1.7711222 -0.45119762 -0.9482299 -0.12875979 0.05952136 -1.1460533 -0.07767018 -0.53435224 -0.3018438 -0.55770445 0.042411976 -0.9849145 -0.42605904 -1.8169942 -1.225214 -0.17086266 0.00058304437 0.2047378 -2.0217607 0.66961175 -0.19169354 -0.33976328 0.70017904 -0.9267971 0.9651964 0.420523 -0.4888157 0.15969852 -0.15812822 -0.5045518 -0.7702658 0.09217732 -0.21700123 1.2933336 0.72749937 0.6790246 0.64061946 -0.24769378 -0.5869205 0.921818 0.70962197 -0.24608986 0.7258535 -0.4996835 -0.1733221 0.24784397
225 0.91990787 0.80435455 1.009339 0.66466296 -0.41662186 -1.4239739 0.51483816 -0.909083 -0.5701488 -0.18496129 -0.7677859 -1.3488837 -1.2684097 -0.33235484 0.58245784 0.62917507 0.22424807 -0.22609301 0.77120125 -0.72488624 0.112865664 0.35430703 0.5308988 -1.3812165 0.075283885 -0.31057718 -0.1236264 -0.98531306 0.56960905 -0.90454066 -0.17320038 0.6565299 0.61525595 1.571404 0.80745894 0.3230855 -0.8313711 0.7849235 1.433211 0.24812403 1.0903368 0.7987105 -1.0798098 -0.22702082 0.99931014 0.4230307 0.2916623 -1.3585742 -0.50608295 1.3283042 0.054161735 -0.026402866 -0.26812464 -1.1303114 -0.031689152 -1.0765147 -0.6616534 -1.6945938 -0.37044275 0.86387706 0.8261477 0.32850832 0.2330396 0.37900224 0.32013518 -0.05341101 -0.10264881 -0.5793475 0.58877075 -0.16327737 -0.30004725 -0.48258722 -0.98370147 -0.38664055 -1.108845 1.1209561 0.20576459 0.13856514 -0.9688524 1.0557922 -1.1753442 0.81515956 0.14470749 -0.89028484 0.45376006 -0.169336 -0.32855102 -0.015821503 -0.40895218 0.124191865 -0.5003285 0.53341323 1.1509134 -1.1537869 0.29191017 -0.78934383 -2.080813 -0.28725696 -0.23760687 0.77713597 0.6660439 -0.46264058 -0.042467084 -0.80433923 0.10709462 -1.1218106 -0.2324297 0.650909 1.0012413 0.39017367 0.52592844 -0.0049911723 0.7776861 0.38151434 -2.1297004 0.44246948 -0.41054076 0.31315398 0.032366406 -0.022953281 -0.33291987 0.46725127 -0.16362019 -0.38118768 1.3292778 0.15713556 -0.46534073 1.0476754
304 0.9798501 0.18635187 1.1958354 0.8062996 -0.37590256 -1.1114576 0.028254751 1.0895212 0.0747858 0.13520683 0.12786579 0.40881082 -0.43552798 -0.21381558 0.56188196 0.1719145 1.628481 0.68238246 0.9777391 -1.5337908 0.35821116 0.14062463 0.19208254 -1.1769437 -0.113754824 0.14359555 -0.49648482 -0.5622559 0.56714755 -0.07296335 0.88547313 0.55641687 0.038905315 -0.69126 0.26182044 -0.18383467 0.91174763 -0.4973227 0.33652776 0.5371294 -0.73294765 0.008612885 -0.283092 -0.45558962 0.95530295 0.51222146 -0.85048383 -0.11275409 -0.22096908 0.29079092 -0.24100305 -0.51978797 0.6004481 -0.049014732 -0.3705597 -0.96563536 0.11022064 -0.8706 -0.70197105 0.70243436 0.33657914 0.54389554 0.45055595 0.8850133 0.6176476 0.5035806 0.7109597 -0.10887673 0.062499747 -0.032451484 -1.3942299 0.8272813 -1.0086699 0.15646169 0.8212455 -0.16788065 0.011749988 -0.17799567 0.0781847 -0.4950026 -0.9594379 -0.36801833 1.4605066 0.20583344 -0.4727472 -0.41993538 -1.3604883 0.10617642 0.59762406 -0.76053035 0.019766744 0.41631934 -0.08490565 -0.38707364 0.41953474 -0.859255 -0.7498781 -0.68628216 -1.0390481 -1.2676785 0.38418862 0.08446199 -1.245473 -0.54777503 -0.8040594 -1.1538483 -0.022856953 0.14862543 0.3192225 -0.0709979 1.2061051 -1.1063184 0.94573104 -0.80224144 -1.1688228 1.503338 1.4106157 0.43926746 0.44896302 -1.5078169 -0.56727403 -0.10372806 -0.03389817 -0.0593174 -0.7146386 1.3441755 -0.27612865 2.3828328
115 0.80131304 0.6640133 1.3563883 -1.5052891 0.4786492 0.7118311 0.32113248 0.09285657 -1.3782916 0.6340788 -0.20955493 -0.84078944 -0.9812508 -0.3543353 -0.105242305 -0.101233624 0.22841851 -0.03969584 1.7925476 -1.0187095 -0.09686731 -0.013099926 0.112586625 -0.593041 -0.61378324 -0.24470256 0.048600648 -0.12613316 0.6963229 -0.9713475 -0.1164803 -0.27644718 -1.2041326 0.3810068 0.0010243127 0.058123942 0.6935566 0.08290362 0.56783015 -0.3202578 0.14345942 0.07459869 -1.1535401 0.23191068 -0.004099413 -0.008611958 0.5613064 -0.14437187 0.62441176 -0.015967825 0.48456368 -0.7225066 -0.92703027 -0.26068395 -0.79016715 -0.46282792 -0.7454711 -0.38037556 -0.6021884 0.8972622 0.07237264 0.35775384 0.6213282 0.73773557 -0.2633126 -0.4336913 -0.48144507 1.2812746 -0.124340236 -0.33039483 -0.5565411 0.083656825 -1.7108938 -0.26050812 0.29593927 -0.373156 -0.6196933 -1.5520697 -0.16737874 -0.088904954 -0.9911396 0.94758344 0.32855463 -1.548444 -0.72904843 -0.30172667 -0.83183646 -1.3893104 0.19232802 -0.12204906 -1.6021142 0.24186105 0.66324866 -1.3293804 0.38273475 -0.49987075 -1.2348118 -0.37370923 -0.7682657 0.8327436 0.9293328 0.10015291 0.66499245 0.5960533 0.31594193 -1.5237881 0.31540415 0.87830526 0.44843844 0.1431418 0.56693435 1.3264427 1.2714132 0.103347585 -0.65192723 -0.19031332 0.25977823 0.3989457 1.3937156 -1.1549448 -1.2037388 -0.55812746 -0.14649126 -0.7068295 -0.111299634 -0.26231965 -1.2291058 1.0546359
349 0.46547705 0.46054205 0.15278228 0.7523487 -1.2401359 -0.027990732 0.68893427 0.7060866 -0.4926955 -0.52097714 0.5883368 0.4520893 -0.7648254 -1.147982 1.3365711 0.20287918 0.096070856 -0.36056814 -0.5867956 -0.53724694 0.37405005 0.14521821 -0.44958892 -0.99996793 -0.54900444 -0.21066849 -0.57373714 -1.9337842 0.5067291 -0.9253064 0.7343701 -0.21884593 0.26215938 0.45734757 0.8746945 0.55544865 -0.2369451 -0.6597511 2.0694985 0.66392523 -0.52757156 0.89599615 -0.13498122 -0.2129582 0.4358001 -0.24562886 0.42275336 -0.19080688 0.48741376 1.2337399 1.2454426 -1.3825301 0.12103492 -0.09327053 -1.630394 0.19769399 0.12750636 0.7169086 -0.90159076 -0.47476014 0.36225927 0.28471425 1.1825411 1.1027427 -0.40024436 -0.4531214 -0.86239165 0.26324797 0.18578264 0.039866596 -0.3534028 -0.4096012 -0.56571114 -0.5422786 1.318629 0.937297 -0.6673809 -0.5438953 -0.29023436 0.9905803 0.0102411 0.4081937 0.32724655 -0.027802253 0.13574363 -0.67711216 -0.24254076 -0.43104953 -0.1597457 -0.03276441 -0.064566165 0.0028573764 -0.30756947 -1.5390615 0.22915617 -0.76476485 -1.3823287 0.45842302 -0.29656774 -0.6244116 -0.14934205 1.3945374 0.6748853 -0.84406346 -0.3909504 -0.3085742 0.9297077 1.024901 0.23183414 0.37137845 -0.15942203 -0.48384497 0.48817626 0.8317538 -0.16808102 0.548602 0.09025849 -0.95076174 1.3902043 0.03524847 0.019830365 0.45124897 0.7277034 -2.081203 0.7777859 0.0510725 -0.7635141 0.035520446
288 1.078581 0.03637353 1.16698 -1.0585877 0.09104501 -0.76986766 0.6324935 0.103723764 -0.8012791 0.93334633 1.1513458 -0.74156433 -0.1773284 -0.1178698 1.211539 -0.5527079 -0.41526526 -0.30871662 0.057260823 -1.1222847 0.50047964 0.43226373 0.8655925 -0.74079525 -0.21600766 -0.84681356 -0.53114283 0.5460582 -0.5377132 0.090463385 1.2311856 0.4142429 -2.1825752 -0.3498647 0.49595276 -0.86832154 0.36450928 -0.3195192 1.1648445 1.0298058 -1.4950802 0.021185312 0.22580554 -0.97362244 -0.509851 -0.21407892 -0.11448558 0.21235572 0.12200791 -0.09436991 0.19946198 -0.52234805 -1.0103949 -0.7051368 -1.1752095 -0.115542784 0.038000003 -0.37968686 0.08005199 0.294564 0.12349445 0.3276686 0.3296268 0.74567753 0.81241727 -0.39899364 -0.11927442 0.4401696 -0.85375226 0.023519522 0.38640356 -0.023551797 0.12240718 -0.22635241 1.7770096 1.2834338 -0.82580644 -1.1113156 0.5711017 1.1577059 -0.09221183 0.8380018 0.53479886 -0.3898933 -1.5282314 -0.11950458 -0.6399479 0.049597412 -0.33378968 -1.5833688 -0.6801618 0.9302351 0.91811323 -1.0699722 0.8435021 -0.2812827 -0.92949307 -0.13999811 0.28888974 -0.98176223 0.3936427 1.157559 0.0037778928 0.18827596 -0.53209364 -1.5875964 0.0380487 -0.12692459 -0.0698451 0.6181702 0.4811025 0.18850778 -0.07271511 -0.9728467 -0.1353861 -0.9295008 1.2066314 0.08639143 0.37539327 -1.0659736 -0.24933867 0.13401611 -0.036046565 -0.9284711 -0.72803545 0.4051942 0.030400803 -0.13749655
341 0.28227374 0.09543356 0.43745264 0.4026353 0.02343294 -0.15481845 1.454019 -0.09951658 -0.445982 0.13770685 0.06382294 -0.6489333 -0.8662055 0.4313997 0.27709204 0.13218811 1.0841831 -0.9130926 0.28151292 0.3620246 0.21959306 0.39828497 0.118194066 -1.9466362 -0.63689 0.62971157 -0.8198631 0.64504576 -0.6920042 -0.9709296 -0.36144677 -0.3936013 0.07861966 0.57677406 -0.1807053 0.5629584 0.24105377 0.17330196 1.13393 1.9222132 -0.4850919 -0.66783357 -0.65125036 -0.18502726 -0.4337169 -0.23447686 -0.69982153 -0.38160214 -1.2367653 -0.22461885 0.94618267 -0.5906653 0.5019872 -1.0466614 -0.18385041 0.36309803 0.13749687 -0.49386114 -0.5825079 0.88526684 0.8770233 1.9551466 1.2062258 1.3984556 0.082096085 -0.27532077 -0.18180288 -0.47283784 -0.71510005 0.1508093 -0.81534547 -0.6436365 0.52012503 -1.42876 0.8063441 -0.28511924 -0.63539475 -0.57062197 0.49152637 0.8224731 -0.4164049 1.2132502 0.015104025 0.33356133 -0.5302018 -0.4432176 -0.042063452 -0.4733823 0.013937638 0.34922162 -0.13199158 -0.3170121 0.19068831 -0.84439373 0.23374082 -0.23077379 0.45554864 1.5573665 -0.19676313 0.04991562 -0.27606055 0.4431708 -0.5167195 1.2022736 0.17063916 0.4064064 0.06434365 -0.7249255 0.30118278 1.1133587 -0.15212351 0.3783193 0.4967381 -0.52578723 -1.826234 1.6274914 0.30117005 -0.32678288 1.0365775 -0.502916 -1.0153205 0.4922945 -0.22954941 -0.7675431 0.6426157 -1.5869185 0.22281203 0.8133769
386 0.17478724 0.30823088 0.78591067 -0.35377845 -1.164736 -0.2578561 0.8864888 1.6743666 -1.1393883 -0.24861544 -1.5017744 0.37678266 -1.1692636 0.60383075 1.6224624 -0.6521374 1.1824826 -0.83041227 -0.821526 -0.7549706 -0.70781595 0.68484753 0.81784683 -0.84685916 -0.5080629 1.4211231 0.110888556 -0.45412216 -0.36337283 -0.2834604 -0.020015454 -0.5665161 -0.2609991 -0.73083174 -0.12813628 -0.11332727 -0.025162524 -0.89477247 1.8496089 1.6281426 -0.76695085 -0.520932 0.003962496 1.1450281 0.5440671 -0.025773628 0.03903249 -0.32764304 -0.71561295 -0.28527975 0.5368892 -0.76297903 0.28588712 -0.20256452 0.23835151 0.499782 0.23709254 -0.055850077 -0.17522497 -0.13669017 -1.5721143 0.7072991 1.1397009 0.5209493 1.0900558 0.5139052 -0.58585215 -0.6471414 0.22065856 0.5688437 -0.25268266 0.26377195 0.72370523 -1.384885 0.5542151 -0.08573898 -0.5534362 -0.18006657 -0.32778597 -0.4699918 -1.1744217 1.3400589 -0.08924302 0.3162171 -0.93601483 -0.09302679 -0.7671554 -0.33154348 -0.62916887 0.05910467 -0.53100914 0.6560041 0.48853323 -1.20695 0.21984236 -2.149342 -0.201712 1.1475251 -0.4646772 -0.2297679 -0.88144 -0.025293024 -0.84374315 0.29566634 -0.43069163 -0.3275747 0.27920035 0.84689754 -0.50236994 1.0429281 -0.43450722 -1.5618038 -0.70436835 -0.5522569 -0.9034886 1.088879 0.22586998 0.5670886 0.4561022 -1.0278308 -0.13432755 0.9525242 -1.302758 -0.15157267 -0.31601 -0.9934424 -0.32980096 0.8781778
262 0.9321904 1.072475 1.6736648 -0.32115784 0.9883898 -1.3798307 0.56498307 -0.21223272 -1.015221 -0.6639408 0.07925984 0.5984929 -0.7845048 -0.43723768 1.25399 0.67093396 0.58454025 -0.4152675 -0.05575773 -1.6748205 -0.8907148 -0.0037051472 0.70871115 -0.10596161 -0.42613077 -0.5088027 0.10240698 0.2117349 1.0004299 -0.24713267 0.6778288 -0.044441566 -0.8034815 -0.9191104 -0.45565972 -0.7263266 0.5093428 -0.808826 0.78485274 0.6817927 -0.26335505 0.51482373 0.7143909 0.3643033 0.30717903 -0.14416549 -1.3505336 -1.3528982 0.68027526 0.23720112 1.1183811 -1.0370895 -0.021465402 -1.2798358 -1.4245722 0.082115866 1.2099913 -0.21469586 -0.122536205 0.31521422 -1.2106887 0.41073638 -0.5221919 0.6471911 -0.07858936 -0.60824794 0.034340274 0.7461746 -0.58211386 -0.071372464 -0.46326786 0.40869123 -0.44988182 -0.21289077 0.31627673 0.8293163 -0.9628051 0.24371785 -1.4128783 1.0807542 -1.4466021 0.28023103 1.3925815 -0.27922562 0.4170634 -0.72854626 -1.1265603 0.62103087 -0.047678348 -1.0703602 -0.203746 -0.48100212 1.1858723 -1.3942778 0.096370645 0.5304962 -0.98300177 0.32252324 0.35168955 -0.24275921 -0.219145 0.5487042 -0.15056041 0.66513777 0.0036335492 -0.96137655 0.6788459 0.2975467 0.15111305 0.7522394 0.54710746 0.20093594 0.05865831 0.0383484 -1.3648565 -0.22532226 1.7640084 0.21845248 1.2537605 -1.3035536 -0.014887117 -0.016953519 -0.91882193 -1.6087309 0.5198114 0.01468544 -0.74271816 0.24116918
205 1.5864648 1.3956863 -0.54394704 -0.108653836 -0.07319823 -1.5062935 -0.014203975 -0.5195544 -1.4127992 -0.41672775 -0.46084577 -0.32112515 -0.73641294 -1.2856462 0.97881114 -0.5457746 -0.4455018 0.47835058 0.9275669 -0.6215877 -0.21705775 0.22371146 1.9531224 -0.8999888 -1.8372837 -0.1639161 -1.7560215 -1.5837165 0.69957227 -0.9932643 0.4815947 0.15823823 -0.66210216 0.36875835 -0.43682733 0.32606164 -0.11673821 -0.06444389 0.9970912 0.47302285 -0.23028854 0.81412023 0.2996001 -0.12820582 0.6384863 0.26092878 -0.14489113 -0.3854611 -0.006986916 -0.114961594 1.2978114 0.028567953 0.00020156888 -0.60810757 0.28231236 -0.8465549 0.11789129 0.4489563 -0.13203593 -0.18119897 0.68588424 0.19406654 0.35685673 0.2568157 -0.2068243 -0.35336497 0.37003183 0.6350543 0.9710099 -0.63354534 -0.36252126 0.49935526 -1.0797217 -1.525012 -0.08023759 1.1071657 0.09609011 -0.24781579 0.53251475 1.369867 -0.5673005 0.8633539 1.4239022 -0.16468109 -0.18335 -0.83126473 -1.7018229 -0.76161313 -0.3521115 0.51793975 -1.5083323 -0.5285465 0.1459362 -0.5403878 -0.0676097 -1.3448575 -1.9153886 1.1095712 -0.43113405 -0.369597 -0.08374651 -0.28160945 0.20210871 0.80605817 -0.42970353 -0.32860458 0.8906722 1.8764808 0.5634258 0.41295895 -0.07670023 -0.850039 0.17957251 0.020532832 -0.21323816 -0.81663483 0.82234734 -0.95784074 1.5881324 0.18691723 0.21969022 -0.17658094 -0.3428789 -1.5081927 0.077780545 -0.18762557 -0.26683068 0.80746824
65 1.6832772 -0.28906915 0.94222593 -0.15737398 0.51760805 -0.42136386 -0.33520037 0.9305127 -0.48373717 -0.6501263 -0.40089592 0.8811841 -1.0222558 -0.34721243 -0.40241677 0.582982 1.8077279 0.39006218 0.2718467 -0.8039832 0.30786115 -0.13148545 0.9874416 -1.05582 -0.19983295 -0.022554161 -0.24006104 -0.70113033 -0.10545931 -0.44253471 -0.24496372 0.24684365 -0.13748626 -0.19578657 -0.52625537 -0.35406488 0.22497623 0.27942857 0.027815547 1.0897185 0.35056466 -0.6793611 -0.193164 -0.06932484 0.35992995 -0.57713735 0.30211207 -0.021209886 -0.8665186 0.81146604 -0.7403203 -0.8639606 -0.12869793 -1.0022682 -0.96758914 -0.021027522 0.58198893 -0.2955087 0.06484366 0.028745914 0.551457 0.3919686 0.21092845 0.27265912 -0.6812786 0.13417682 -0.668284 0.06356355 -0.45484388 -0.3632478 0.19813497 -0.045490604 -0.45463738 -1.8081884 -0.25136253 0.13032539 -0.23654397 -0.7557494 -0.16291985 -0.09035051 -1.139513 -0.5999776 -0.09470926 0.13612746 -0.7658907 -0.23319565 -0.4999871 0.98780125 0.23705038 -0.42778528 -1.033611 0.08607879 -0.32785437 -0.07520503 0.5822229 -2.434572 -0.87635356 -0.5385305 -0.68919677 -0.43426958 -0.26534522 0.25977448 -0.15970182 0.2539602 -0.66795015 -0.23673283 0.111364454 0.44279855 -0.19521007 0.77790874 0.72582406 -1.3885123 0.79862964 -0.6132932 -1.1470138 0.7639878 2.1393101 1.2028977 1.6982974 -1.0286694 -0.6219128 0.050842836 -0.9858947 0.025608938 0.01206229 0.21118206 -0.49878848 0.65322834
28 -0.09021631 -0.38879216 0.4988873 0.4060103 -0.4842434 -0.91804516 -0.030361837 0.22449559 0.79093814 -0.3866576 0.7920901 -0.21471013 -1.1830342 -0.15694597 0.59385544 -0.20775038 1.141681 0.21493797 -0.057719417 -0.63001853 -0.18741143 -0.39797592 -0.61083335 -0.90422773 -0.18791229 -0.0016500973 -1.0174096 -0.48740488 0.21513043 0.13744019 0.33470675 -0.20715056 -1.4594636 -0.691654 0.26339012 -0.06466087 -0.64508796 -0.12012784 0.98997694 0.96523863 -0.13799642 0.68629885 0.8540956 0.05140261 1.2767711 -0.47734904 -0.54084444 -1.6695584 -1.3168652 -0.55776745 0.39957732 -0.28638062 0.60644853 -0.5623509 -1.3792075 0.20264697 -0.43038175 0.28421456 -0.3188079 0.93628144 0.13909173 -0.1838911 1.732168 -0.25837606 0.33000636 0.04904951 -0.61912006 0.54476386 -0.5384264 -0.6685759 -0.22280358 -0.6485798 0.12227021 -0.60790765 0.079952985 0.8156 -0.03330439 -0.9153329 -0.45122674 0.7218309 0.027118547 0.45004043 2.2484326 -0.042661905 0.26073146 -0.014592786 -0.8026706 -0.38980493 -0.5706461 0.064330615 -0.2516467 -0.77120554 -0.49319202 -0.05531953 -0.60856944 -1.3333597 -1.0547805 0.41430056 -0.10949271 -0.9974149 -1.4920224 -0.5774934 -0.7027869 0.17208241 -0.008526142 0.42541987 0.8793738 0.2563202 -0.643489 -0.8630937 -0.14734696 -0.37342575 1.1700082 -0.8882514 -0.45908928 0.5029897 1.6355395 -0.24168342 0.7486009 -0.54629385 -1.4202986 1.1606172 1.1800176 0.84094566 -0.11569447 -0.72230965 0.60889614 1.1015348
423 1.0080003 0.9310148 -0.34918544 0.36768067 -1.275671 -0.31679875 0.401918 -1.6335307 -1.539257 1.5245775 -0.86894476 -1.0267266 0.1807342 -0.43398318 -0.019175213 0.72491693 0.18410653 0.14779668 -0.22993371 -1.0291528 -0.9349785 0.14772423 1.1309184 -0.62553525 -0.3441583 1.2411591 -0.9139708 -0.70539 0.68995047 -0.9575448 -0.59511375 -0.18146004 -0.46652853 0.35472578 0.4511513 -1.2078922 -0.10751539 -0.10460138 0.9618005 1.3109294 0.30183116 0.19715303 0.07977017 1.060059 0.10631103 0.0073037217 0.39377594 -0.7221595 0.5979451 0.40003675 0.15753113 -0.1706074 -0.68786204 -0.11216666 -0.6907709 -0.6939227 1.0385085 0.066791624 -0.15343875 -0.89253515 0.66404194 0.26864406 0.22507387 0.5889927 0.3783124 0.053995848 0.24336305 0.8246701 0.2405638 -0.19658354 -0.9986771 0.10757123 -0.25097942 -0.26821217 0.06135012 1.7733403 1.1157169 -1.1558392 0.08345617 1.169424 0.4508864 1.7149987 0.07500145 0.120853186 -1.222296 0.5078256 -0.4780585 -0.55643606 0.2541956 0.43231323 -0.43583542 0.58961517 1.0374286 -1.3959466 0.103526466 -0.82581896 -1.421024 -0.04885385 -0.05636784 -0.7780258 0.2610303 -0.06424216 -0.20112973 0.4380257 -0.9872066 -0.8538352 -0.012421489 0.23961304 0.684376 0.48835877 -0.76628816 -0.7498323 1.0888915 -0.19285303 -0.86837536 0.20481437 1.127621 0.27361542 0.46013257 -0.96992576 0.17233233 1.0118395 -0.17750703 -0.35648146 1.0850203 0.44693574 -0.0036111493 0.57360494
255 0.7080344 0.8875703 0.42318907 0.41943187 -1.1364925 -0.5808184 0.93933666 0.4303343 -1.0174557 0.94227314 -0.09143838 -0.49604663 -0.4115156 0.45212427 -0.38247 0.20979272 1.5233654 0.65061563 -0.05313353 -0.74683785 0.21846958 -0.2529293 0.118669756 0.06554741 -0.73692805 0.92429745 -0.6707578 -0.23144346 -0.13503736 0.025799999 -0.98912966 0.73425186 0.051442992 -0.9426655 -0.37919846 -0.43180373 0.026454791 -0.5492922 0.95129573 0.9950917 -0.7854542 0.79770803 0.07617963 0.7470115 -0.36262715 -0.81637716 -0.29954627 -1.441446 -0.6871458 1.9443685 1.2583754 -0.21596144 0.096036896 -0.39860025 -2.0283234 -0.74621695 0.020849023 -0.7152226 -0.40066636 1.7374446 0.75904965 0.7530829 0.30594954 0.0032763202 1.5854357 -0.84078693 -0.100595884 0.059371445 -0.6134796 1.015856 -0.01771276 -0.56038564 -0.25497606 -0.70340806 -0.12659413 -0.1173856 0.16706096 -0.9879079 -1.0740122 0.41523936 0.011677961 0.3824277 1.6002766 -0.2723084 -0.9661726 -0.30065948 -0.48579928 -1.7076365 -1.1004938 0.877107 0.2783436 0.37139773 0.98808205 -0.19515936 0.38261795 -1.404718 0.10624755 0.057752267 0.28036812 0.23847021 0.19214122 -0.014727179 -0.28709263 -0.80896306 -0.09745588 0.20838112 -1.1254326 -0.39263138 -0.31159338 0.5381646 1.3286811 -0.0631848 0.5517125 0.30059317 -1.5762801 0.9321188 2.1292672 -0.12073394 1.2797354 -0.88794017 -0.12767711 -0.3356645 -0.4827853 0.06431536 -0.19241925 -0.4512726 -0.79559565 0.48143363
