456 128
443 -1.2397726 -0.098891355 1.1081543 -0.036146514 -1.8429317 -0.25678796 -0.7763562 -0.2969887 -1.1103005 0.98921025 -0.27269942 -1.1378554 0.9577968 0.9939427 -2.5065234 -0.5552851 2.8537457 2.1227157 1.209941 -0.78773105 -0.3308646 0.37834778 1.6760614 0.7822661 2.0057862 -1.4009181 -0.086481884 -0.0867453 -2.0722365 1.0728418 -0.8881975 -0.5798186 1.3360515 -0.25012565 0.086862125 -2.1240592 0.038920555 -0.37317792 0.68986535 -0.43092048 -1.3367543 -1.4261376 0.400373 -0.16802935 -0.5648931 -0.9215652 -0.09076432 -0.8055354 0.21418124 0.71558505 -0.27181908 0.14046542 0.04840484 -1.2391862 0.13191096 0.4015974 0.21913812 0.21190138 1.9827937 0.19615673 0.9320826 -0.6801067 -0.7456349 -0.6559989 -0.6505794 0.5337291 -0.31527257 -0.3234666 0.44969368 0.80598557 1.1363491 -0.22009091 1.0643842 0.21756175 -0.53807485 -0.4434543 0.86220944 -1.4437807 -0.07866081 -1.0539517 -0.23448895 2.493325 -0.66129035 -1.1844505 -1.3274171 0.36574352 0.65027976 0.73039216 0.098100856 1.5090944 0.7795639 -1.6762697 -0.8496816 0.89766306 1.0419964 -1.2030203 0.078668505 0.3662503 0.66992044 -0.7067559 0.14470628 -1.8927289 0.8043404 -0.004842345 -1.0828778 0.4584631 -0.06309554 -1.2642348 -1.9923669 0.29208717 -0.6186174 -0.39934894 -0.8198177 0.25733453 1.6687188 -0.22442554 -0.6233724 1.2492392 -1.7058773 -0.81865805 0.19097914 0.71553856 -0.92358637 -1.6041473 0.9403746 2.2860105 -0.006477349 -0.7901271
160 0.061692886 0.42235166 1.1309425 -0.49894398 0.65734553 0.7149647 -0.44168705 -0.11110776 0.13234292 0.16143727 0.43696368 0.72343194 0.602758 -0.0863207 -0.6968657 0.06310406 1.3471574 0.6988064 0.70252925 -2.199404 -0.39245492 -0.97760206 1.5270422 1.5663167 2.365393 0.31010014 0.10512367 0.053679522 1.0478114 0.7293712 -2.1795387 0.81230915 -0.2970729 1.9772286 0.5066632 -2.2131612 0.48849767 0.07553866 1.2308657 -0.10369424 0.52591527 0.6453832 1.3171718 -0.45414892 -0.21723945 -1.3427594 0.2834483 0.9641806 0.9160105 0.66453815 -0.33132997 -0.6701303 0.6238496 1.37285 0.526445 -1.0424687 -2.1829133 0.11586506 -0.22652698 1.4143541 1.0954682 -0.95100105 -1.5377028 -2.462434 -1.7486165 1.0891494 0.22395292 0.12921298 -0.018807637 1.036488 0.7424472 1.139655 0.5564772 0.35876277 -0.24536683 -1.153908 0.651693 1.5725869 0.3527332 0.1334265 -1.1576126 0.25929716 -0.6717757 -0.5448347 -0.32643822 0.3065809 0.6102433 1.8066714 0.41604012 2.1739573 0.1539687 -1.7617558 -1.8052417 -0.13278075 -0.49364302 -1.408517 1.8283942 0.9500184 1.0530798 0.49584177 0.21751057 -0.61579716 1.2149156 1.009709 -0.23388761 -0.65566903 -0.96177936 -2.3172832 -0.4471863 1.0851629 0.6376032 0.5342897 0.79360783 -1.6501927 1.4171182 0.20574327 0.017756503 0.2822433 -1.8428102 -0.41160822 0.41801316 0.2953959 2.117033 0.049916547 1.4147323 0.1657662 -1.316893 0.25709006
226 0.20650022 0.69236857 -1.8064826 -1.7198504 0.4315951 0.85746866 1.1876273 1.7259114 1.3438505 0.40694284 0.11017762 1.9089046 0.75731635 1.5870086 0.051952213 0.03214791 0.4947418 -0.25580978 2.050105 -1.2119684 2.166278 0.13734336 -0.6233411 1.470823 -0.48767608 0.16710663 1.9910419 -2.342149 -0.64509434 -1.2002685 1.1591234 -1.2636987 -0.6822891 -0.9691728 0.7006761 1.0116031 -0.2877016 -0.04741227 0.8416729 1.1213237 0.24336506 1.07305 -0.83404535 -1.0887402 -2.0985844 -0.09424396 1.759966 -0.42517397 3.7399144 0.02229365 1.1180834 1.1119107 0.2192537 -1.1312628 1.6568934 -1.033761 0.13650253 -1.2666336 -0.5650267 0.38725278 1.312504 -1.568561 -0.34267336 1.0781618 1.1720718 -2.8074403 0.33808413 0.82353485 -1.4941388 0.8065688 0.3352289 1.6198127 0.8190671 -0.70527554 -0.6596705 0.22368562 0.101793066 0.7522824 0.911746 1.540592 1.3131076 0.6464545 -0.49865603 -0.6932283 -0.40152174 0.38222924 -2.149856 -1.92066 -1.6775604 0.38789076 0.5229291 2.205174 0.8253185 1.6665962 0.72037435 -1.5670855 -0.37240288 0.9848666 -0.38083065 -0.5705415 0.77514255 0.417979 0.24102317 -0.72120494 1.1949227 -1.0521115 1.7362392 1.8630601 2.570513 -1.0185294 -1.0373546 1.1230646 -1.0086415 -2.2459953 -0.03115841 -0.08677886 0.047789123 1.3875196 -0.64495254 0.7649184 0.28762794 1.9155638 1.1380144 -1.5410632 0.8968148 0.3985182 1.2476369 -0.6100743
315 1.0349213 -0.25155616 -0.08618015 0.885418 0.99587905 -0.6496096 -0.2960064 1.2804711 1.0054045 -0.9627687 -1.1221273 -0.64609516 0.88324744 -0.4803132 -0.07588177 -2.4408207 2.3596413 -0.64698946 0.72829187 0.053448763 -1.0700408 -0.5330512 -0.8907422 0.7960065 2.5298486 -0.12808649 0.06794983 0.47229952 -1.2127726 3.5318484 0.12212905 0.30965096 -0.3701947 0.21951482 1.053676 -2.9707487 -0.40762568 -0.799666 0.72135925 0.59174097 -0.4225062 -2.1471608 0.2771225 -0.49022612 -1.0081439 -1.3345633 2.0146537 1.1994083 0.19130974 -1.0656466 -0.15570758 -1.1637496 -0.9502327 -1.3941599 -0.1918432 -2.3173966 -0.42495245 -0.75683045 1.1142117 -0.556715 1.1707925 0.28652993 -0.37249127 0.5349018 -0.27749875 1.4471136 -0.99022233 -0.65682137 0.28519234 0.28609404 0.2715529 1.3221414 0.73134613 -0.3458452 -0.27303326 -0.5802491 1.8278598 -1.4732254 0.094800554 -0.08278957 0.55779487 0.42450452 0.29069102 -1.1373053 -1.888598 -0.08706055 -0.87128663 2.265757 -1.4420452 -0.73788816 0.25033554 0.23303223 -2.131566 1.6311774 -1.1418833 -0.96488506 -0.725302 0.32796842 -0.50937295 -0.08401269 0.01398395 -1.1974119 0.9456253 0.62557954 -0.6715357 0.40687665 0.21741804 -1.4158448 -0.48850468 0.24864614 -0.7952294 -0.5796393 -1.5127599 1.8241105 1.5165815 -0.60567814 -0.6268069 -0.9708757 0.6778252 -0.9292283 -0.10302449 0.06856282 0.55782604 0.8464188 0.88859403 -0.37087688 -1.4216236 0.3855133
412 -2.0325806 -0.8096 0.64350766 -0.659859 -1.3332465 -0.3839546 -1.8457294 -0.75136137 -0.7651973 -0.8231014 0.44157192 0.4894317 0.7055604 -0.3582117 -1.2118648 -1.2733415 2.2064984 1.7182467 0.52711976 -2.0323486 -1.0499734 -1.2687956 0.47372228 1.3045279 2.2014499 -1.2585397 0.27756792 1.5484496 1.957039 0.10784885 -0.7444709 0.36498377 1.0388452 1.0234632 0.556595 -1.8445634 1.4938916 -1.2931912 1.1908302 0.12677372 1.0805509 -0.3074817 0.93297714 -0.6972411 0.68079513 -2.0094607 -0.32084745 -0.18759032 2.1988733 1.4865773 1.4578636 -1.6885208 0.2569905 1.1073147 -0.58202595 0.2537999 -2.2447348 -1.7864012 -0.42473727 1.6082405 0.4924478 0.5341208 -1.1855111 0.15584417 -2.030022 0.8666632 0.37903637 -0.018293668 0.53584296 0.30573347 2.5109706 0.6611076 0.17987734 -0.33098915 0.546362 -1.5838745 0.44090173 0.24917884 0.3995256 0.44625115 -0.0041117733 0.31959254 0.78229266 0.45422152 -1.0419085 0.15606244 0.083470225 -0.7348968 1.8464644 1.1093873 0.73037815 -0.6489373 0.32056493 -1.486102 1.6983125 -0.89744264 3.6957946 1.0557542 0.50662404 -0.13246876 0.8064046 -0.011374478 -0.45234126 -0.6159308 -0.055768974 0.9164988 -1.3542029 -1.8058691 -1.3900789 0.47638202 1.4274265 -0.4931594 -0.0009055008 -0.9801706 1.3480926 -0.88436395 -1.1864964 -0.9559641 -0.7140241 -0.23716201 0.9194079 0.8778684 1.1670189 0.7464967 1.4758539 0.42127347 -1.795738 -0.7990701
249 -0.9045654 -0.056428026 0.6708682 0.09690725 1.4455576 0.3333048 0.39981252 -1.9400929 -0.7393582 -0.40764192 -0.4037771 -1.1512113 0.24053697 -0.29658756 0.0007470917 -0.13009639 1.3745147 0.6475764 -1.0668252 -0.83390266 -0.86359483 -0.032323986 0.31053162 0.6287966 2.0944104 -0.470888 -0.5884919 -0.19352224 -0.33946648 1.8781163 -2.6713438 1.6876853 -1.1843865 1.2172084 0.3284268 -1.2712507 0.72137696 -0.10176384 0.583164 0.38963237 0.39262003 -0.38714728 1.3197796 0.66895294 -0.48389405 -0.80321294 0.6002614 0.019409653 0.15233271 1.4493974 -1.868681 -0.16454673 1.35321 -0.3514936 -0.6249072 -0.747566 0.05294832 0.8124153 0.67013633 0.96980554 1.426511 0.4684433 0.6359152 -0.21512371 -1.099107 2.0728028 -0.20282991 -0.8644857 0.5267587 -0.50964683 1.3198661 -0.8322874 -0.08541615 -1.011343 -0.12997241 -1.032685 0.3516859 0.7760743 0.29912373 -0.04976072 -2.8355107 0.44517 -0.24435683 0.11743571 -0.18348531 0.5909359 2.1523676 2.918177 -0.02621333 1.6920183 -1.8478662 -1.8842869 0.4087409 -0.7292506 0.09404573 1.2922279 0.13021345 1.2865119 -0.5918166 -1.6469295 -0.4733748 -0.69925934 1.3302804 1.8224977 1.5276921 -0.6211512 -0.4801814 -3.9680147 0.5177134 0.6408003 2.0019023 -1.7958052 2.0567937 1.094806 1.465281 1.3841509 -0.8403586 -0.35323337 -0.009652041 0.16327827 -0.8391851 -0.8438371 0.33342078 1.2681352 0.21235362 -0.37821063 -2.337084 1.5467868
63 -0.20336059 0.02046449 2.1926465 0.52623475 -1.0053508 -1.1247395 -1.4503468 0.46227226 -0.29318967 -2.0238194 -0.23286317 -0.15026224 -0.1936261 0.24231201 -0.7953442 -1.1521673 1.2689806 -1.4900433 0.03924144 0.054238178 0.64717245 -1.334922 0.651217 0.12628566 1.7118945 0.9346076 0.4261177 0.886795 0.16450883 -0.10339889 -0.42709842 0.75867873 0.59182054 0.9201348 -1.377507 0.7115013 1.2245011 0.27588013 0.92413574 0.14611663 -0.405198 -0.8488399 1.2300406 0.46821645 3.7175722 0.7324662 1.4971408 1.0987605 0.20413144 -1.0632282 -0.5216433 -0.81323254 -1.8234826 0.13463329 0.9645278 -1.6569723 -1.1469344 -0.60291094 1.0443574 -0.7070266 1.053718 -0.08251546 0.16438392 -0.23106383 0.38472462 1.6871573 -1.2996376 0.3897348 -0.051296473 0.0036423618 -1.0158513 -0.78585094 1.1104892 1.4776764 0.4176108 0.55362016 3.4793618 -1.5441629 1.1528528 -0.38675383 -0.17935981 -0.3286936 1.0625728 -1.5142936 0.7491627 1.093582 1.4013819 0.070669174 1.7383735 -1.8505678 0.4463653 -0.21547024 -1.5809935 -1.3320115 -0.26162767 0.30324882 1.7119695 0.07582663 -0.2724045 1.4254299 -2.4335165 -2.241872 1.1604131 2.3889637 -1.4459192 0.38459584 -1.4782192 -2.7717779 -1.4187286 2.8926384 -0.7389932 0.6282321 0.07797055 0.36901766 0.31480423 -1.0163338 0.88737947 -1.5302771 -0.22680926 -1.950145 -0.4850463 0.30433655 0.052579254 1.1152977 -0.6818546 -0.49247736 -0.3079265 0.5299089
457 0.15866467 -0.31689742 3.0405247 1.687986 -0.80676156 -1.4721216 -1.6697323 0.34180132 -1.0986696 -0.34216705 -0.9033656 -1.3907925 -0.61216885 0.46004865 0.59548956 0.98987746 0.8511325 -1.0709411 -1.1011543 1.3290952 1.5761402 -0.6585447 -0.31133622 -0.3995907 1.2990041 0.614792 -1.8960885 1.6897017 -0.7249328 -1.7435198 -1.0573354 2.4120967 2.5771956 -0.3849743 1.566571 0.7391241 -0.32632494 1.5834783 -1.5754538 1.7046204 -1.1217973 1.0775014 1.5545269 1.0960082 1.0354172 0.6328143 -1.4162844 -0.8312266 -2.4809017 -0.5481102 -1.4788978 1.2435256 -0.32984865 0.34565955 0.0288154 -0.40326408 -0.109096 1.4066123 0.0144318715 -2.822646 1.0464413 -0.1026046 1.2967858 0.13848539 0.21013193 1.1782308 0.7692263 2.1858819 0.31933442 -1.043832 -0.54211634 -2.320669 -0.454876 0.66259766 1.2166585 -0.11030534 1.9378961 -1.6395268 -0.19437039 -0.27991602 0.40523696 -1.1675062 1.445356 -2.272189 -1.3810526 2.0750313 1.1261079 0.84944177 2.1559236 -3.6902199 0.064953014 -3.4837508 -0.034531806 -2.3151865 -2.257626 0.5073756 0.85906696 -1.4845074 1.1333115 -1.3391981 -1.7848771 -2.8597775 1.8404306 2.1877527 -1.4978689 2.9748802 -0.6575374 -1.211918 -1.35009 0.47618455 -2.329114 -0.19031252 -0.25194108 0.09817424 0.4294742 -0.3196831 0.68659604 -2.375382 0.235107 0.60339594 1.7018288 -0.36798403 -0.77711815 0.16712715 -0.9566356 0.63918597 0.010272977 -0.2869315
388 -0.19234936 0.4476805 -0.0997041 -1.7123739 2.0433748 0.5977104 -1.1173414 -0.015915541 -0.30328736 -0.4840019 0.4838581 -0.37064508 0.37326297 -0.25100657 -0.6959933 -2.086945 2.7721334 1.5999842 0.8332444 -0.13261455 -1.618325 -0.75374156 -0.222832 1.7470174 0.60679835 -1.6004133 1.5764782 2.0060093 0.26372734 2.5757022 0.18173505 1.0189208 0.03992616 -0.9769473 0.51354885 -2.2897098 -0.40681094 -0.80184764 0.6448275 -0.34692186 0.6193004 -1.2051103 0.546587 -0.71153533 0.76556516 -1.4551182 1.4427375 0.40159538 0.21616374 1.3061978 -0.75046986 -1.0607866 -1.1687428 -0.092591405 0.44353443 -0.6736197 -0.89286256 -0.048170917 1.4590322 -0.27912942 -0.34300637 0.98477316 -1.2934954 -0.014980052 -0.51385957 -0.0010959521 -0.060227595 -1.1560314 -0.14492115 1.22575 1.077531 0.11193158 0.5099238 -0.7807345 -1.1261605 0.3147816 1.2579086 0.039440006 0.81395245 -0.4646749 1.1945076 0.37351534 0.060591888 -1.3865758 -0.45179316 -1.2725759 -0.3395837 0.7321412 -0.78071505 0.59951264 -0.6155229 -1.4458497 -1.6967795 -0.9564935 -1.7441354 -1.6008805 2.0817144 0.6056988 0.061431997 0.40575182 0.35926488 0.23389466 -0.19422212 -0.7859171 0.33783665 0.90768003 -0.19605888 -2.1891315 -0.2718803 1.9741441 -1.1698074 0.4337832 0.6368656 -0.41336715 -0.69504064 -0.2546149 -0.48341894 -0.53890914 -0.15833409 1.1480235 0.48967573 -0.56133336 1.7506499 1.0680637 0.6675478 1.1130191 -1.3598721 -0.18221541
401 -0.039534237 0.9701542 0.76718295 -1.1194204 -0.51852953 0.006613532 -1.6533368 -0.4005262 0.4197122 0.39551786 -0.239959 -0.8053415 0.70415854 1.2264911 -0.2587961 0.5105544 1.3692334 2.256048 1.7304225 -1.1686965 -0.6838956 -1.407787 0.14667048 0.49544913 2.1002274 -2.0557451 0.356726 1.0648223 -0.57035136 1.2139719 -1.2331955 -0.75614965 1.3992985 -0.077117026 0.33444193 -1.7086939 -0.60546046 -1.0578127 1.524434 0.41546777 0.21158357 0.3987849 0.24906069 0.012141607 -0.6227901 -0.92901635 0.719613 -0.07224264 1.8349397 1.75449 0.4212264 -0.10439598 0.2191249 0.50426066 1.254931 0.051280014 -1.9289182 -0.29469 -0.10621641 1.1511375 0.43750435 -0.7493994 -1.7100611 -1.9866406 -0.0721188 0.6017083 0.93595487 -0.8001628 0.9005107 1.5185852 0.9583138 1.6726321 -0.2337319 -0.6491672 -0.33163106 -2.0668285 -0.6222063 0.30619282 0.34200427 -0.09703285 1.127391 1.6275353 -0.49342993 -1.3158115 -1.2014455 -0.51834685 -0.20358653 -0.9791724 0.86273944 1.999282 1.5986462 -0.25308535 -0.8154992 0.64661175 -0.14164159 -2.4532135 1.8934956 1.5521159 -0.55727524 0.04157698 1.4293723 0.0015600488 0.18814309 -1.135608 0.3808243 0.4645189 0.58124334 -1.2397668 -0.50683135 -0.095088206 0.999309 0.03270271 0.5941721 -1.877374 1.4466096 -0.2795055 -0.8317243 0.5512035 -0.99443406 -0.33780438 0.2161299 0.17602116 0.18491937 -0.5644314 1.5844693 1.4483826 -1.223946 -0.20706052
192 -0.90116024 0.13974111 0.7226922 0.082365334 0.35568017 1.0782757 -0.8036385 0.65073353 -0.31985405 -1.012481 -0.26349196 0.58404267 1.0147073 -0.24650636 -0.42285743 -0.5753841 2.6335397 1.6059483 0.916845 -0.3528524 -1.3337972 -1.1338682 -0.3332932 0.8100905 2.5478716 -1.81608 0.18744254 1.6354884 -0.32569852 0.5447976 -0.9912347 1.1664867 1.4342271 0.6968212 -0.27263844 -1.1249168 0.16481876 -0.64404196 0.6911819 -0.438164 -0.363237 -1.1352326 1.3357452 0.664986 0.53268355 0.06170627 0.8705109 1.2193053 -0.4731638 1.173318 -0.43564817 -0.9005555 0.13980745 -0.39811894 0.2950447 -0.7941428 -1.1689211 0.93629545 0.34733152 -0.69589984 -0.63611525 0.07965072 0.2434027 -1.168369 -0.6412226 3.2313485 -0.5741428 0.5669252 0.5323099 -0.5113739 0.9132107 1.4535987 -0.27472016 -0.27392697 -0.05676613 -1.9965237 1.5461162 -1.7710081 0.9948621 0.103110954 0.15672557 -0.6108934 -0.1140202 -0.19377549 -0.615593 0.48786852 1.7272292 0.6222045 -0.12869535 -0.19692649 -0.060457624 -2.2267585 -2.2139194 -0.23376015 -0.80881727 0.37573066 1.9314861 0.80055904 -0.6964594 -0.05862146 0.018574033 -2.9053764 0.98947406 0.6329128 -0.2341292 -0.072883055 -0.09212294 -1.9693406 -0.5948952 1.2443441 0.9723515 1.1136118 0.82402253 -0.85473084 -0.3802717 -0.44414002 1.2436063 -0.3784395 -0.50110805 -0.26652312 0.10325287 -1.2063211 1.5254099 1.84103 -1.3810475 -0.22894306 -0.6849918 0.3763357
385 1.6425796 0.66384184 -1.0448138 -1.408736 0.027594253 -0.47814953 1.2176867 2.272951 1.4740932 -0.10013429 -0.29386914 0.3909785 2.2305715 -0.79937947 -0.3042213 -1.7953714 -1.863311 -1.8860161 1.0928596 -0.7281752 -0.2954728 0.14068568 -0.80487424 0.08648384 -1.044407 -0.3424873 1.1837393 -3.0952935 -1.1566646 -0.08225005 0.3770521 0.30787218 -1.2784424 -0.9222254 -0.1027133 1.6734335 -0.55968875 0.9052949 -0.2330309 -1.6657585 -0.17623459 0.699815 -2.423072 0.7516828 -0.09589175 -0.7407427 1.3005701 1.0124925 0.6266018 -0.8746797 -0.8562122 0.96869713 -1.3382303 -3.1515646 0.7202207 -0.73217666 0.1564061 0.7383776 0.05341059 0.08654479 0.13604261 -0.58048433 -2.9639063 -0.13328436 1.8919219 0.6229716 0.5802327 -1.305458 2.1571014 1.2576363 -3.0611153 2.0984468 0.06644834 -0.6111356 1.0652534 0.7175577 -0.4186984 -0.12688103 2.1630979 -0.7491422 -0.43265504 -0.046568003 -0.8049412 -1.0780503 -0.5150978 -2.6445336 -0.077929854 0.8185511 -2.6429648 -0.5330929 -1.057408 2.8916206 0.08488968 -0.3100401 -0.6819636 0.68321365 -1.4813554 2.693885 -0.83721066 2.5387597 0.89425313 2.4246368 -0.48532218 -0.6580449 -0.41593683 -0.27455324 0.17078209 0.28591618 -0.095567524 -0.42744306 1.6069397 2.4539695 -1.1573945 -0.14096181 1.1443518 0.020323375 0.046305034 -0.7399502 -0.07663184 2.1482008 0.49503794 0.48672065 -0.4294373 -0.74644345 -0.32772145 -0.77231765 -0.61795706 0.91905
441 0.68323034 -0.99551934 -0.3405571 0.1710422 1.9809471 -1.0894893 -0.26824203 1.1185725 0.13997419 0.019403601 0.092902355 0.030403888 0.12391229 -1.2660885 0.377188 -0.59683335 2.870173 2.3956053 -0.8017117 -0.7945912 -0.07815023 0.7411311 1.2169837 2.2045562 2.1734998 -2.312423 -0.8175453 -0.22538818 1.6453881 1.1608124 -2.154291 1.1591393 -0.13400802 1.1741999 -0.08431802 -1.9590397 1.6134421 -1.5070926 1.2867416 0.13113113 1.9557598 -2.8613188 0.509234 -1.1074389 -0.7315585 -1.1817135 0.23343575 0.5520022 0.8668565 0.90712434 -1.1039394 -2.1656268 1.8430775 1.2863847 -1.3234602 -0.9799592 -0.033616796 0.7970695 -0.96493465 1.6045878 0.06057288 0.9166329 0.45286807 -0.4693436 -0.8009166 0.27225152 -0.35442457 -0.71733785 0.90051204 -0.32685864 1.7308694 0.2750566 -0.84813076 -1.7239136 -0.89822304 -1.5921305 0.33144385 0.41018033 -0.26224652 1.3236742 -1.3735775 -0.72190404 -0.37884295 0.2223505 0.06944738 -0.59412146 0.32979915 2.4953814 0.30167323 3.4344587 -1.1690756 -1.8999064 -3.1899185 -0.014666874 0.07664186 0.8499769 0.25573444 -0.43095094 -1.0488461 -0.12910646 1.002182 -0.94146067 -1.5135733 -0.45045102 0.899039 -0.22952898 -0.32153586 -2.8312237 0.49102715 0.11664104 0.3335657 -0.44467047 1.8053114 0.719148 0.7617411 -1.288383 0.20897013 -1.4051863 0.58725303 0.4238729 -1.677417 -2.3710077 0.28446788 1.937238 1.0074933 0.24417059 -1.6390387 1.3166432
3 -0.20691599 -0.36538988 0.7340176 0.64575857 1.7703111 -0.1763578 -0.5113582 0.40445194 0.40894526 -0.50463897 0.006277244 -0.45020664 0.57863384 -0.8172321 0.36507568 -0.3752445 2.0019782 1.6254025 0.54901206 0.19917756 -1.8721457 -1.2630566 -0.46919855 -0.06515032 2.250485 -2.1780658 -0.753435 1.5805838 -0.3269508 0.8081715 -0.6671148 0.7360204 0.9997665 0.72937953 0.027412144 -1.9882635 -0.1537069 -0.69477874 0.44100407 0.3919785 0.15005629 -0.8055299 0.45337707 0.25141567 -0.4314643 -0.77723306 0.024900256 0.9349076 -0.27428532 1.1511002 -0.3618486 -0.9001165 0.098311655 0.054287672 -0.2656771 -0.21097746 -1.3073131 0.35049424 -0.48468572 0.55283564 -0.69188756 -0.07104096 -0.70014507 -0.9567423 0.253881 2.1481452 0.24330068 -0.5928188 0.5137273 0.81795967 1.2572672 1.315685 -0.3955193 -0.9087177 -0.5850923 -1.8820149 0.2093617 -1.5060521 0.08711811 0.9047242 0.35826808 -0.20278917 -0.5892246 -0.15191405 -1.1394681 0.08016632 1.2388486 0.33499807 0.24963085 1.1191295 -0.30957416 -2.0079243 -2.062136 -0.024006404 -1.1100284 -0.73208195 0.4898138 0.22512046 -1.1473548 -0.30139068 1.1094149 -1.8159446 0.52257675 -0.6007847 0.6536031 0.4071734 0.06765303 -2.1410024 0.5924008 0.18583256 0.78640366 0.37204736 0.45106614 -0.50164807 0.45697933 -0.20259365 0.36438584 -0.24097815 0.20553303 0.0388186 0.085122414 -1.3507468 0.855842 1.7815413 -0.16813573 0.22371699 -0.99969673 0.6438689
257 1.8988566 2.2765048 0.42143574 -0.7659735 -1.0757688 -0.26245213 -0.6080225 -0.18262716 1.7318205 -0.3047556 -0.94636357 0.49027497 2.3554752 1.5392425 -0.1189124 1.6502478 -1.4290057 -0.31424126 1.5132378 -1.6521614 0.049616296 0.5813827 1.0648117 0.85351914 1.6623673 0.53801745 1.5252439 -0.81183517 -0.17619309 -0.014569219 -0.3698769 -1.7220453 1.0078572 -0.40843374 0.095714636 0.66670597 -0.06336007 0.6191317 1.58291 0.5754989 0.26477927 0.55682063 -0.6791715 -1.0653594 -0.31613144 -0.4052579 0.28429326 0.033975787 2.6314492 0.2903393 0.70211697 0.44493136 -1.2475615 -0.13729785 0.06612382 -1.0178548 -0.83312774 -0.23364887 -0.18165319 1.274005 1.0459511 -0.6753438 -1.8636882 0.5147044 -0.2878254 -0.16368546 1.620209 -2.0680408 0.48084334 2.2766454 0.06790047 1.4677893 0.510874 1.83957 0.59290886 0.024854783 -0.042795517 -0.37477055 1.5649837 -1.7113899 0.77682585 1.0827695 0.0497499 -1.3850127 -0.8830405 -0.4623234 -1.8465664 -0.83016914 -0.7178501 1.033837 0.92636603 2.6352756 1.2782894 1.0160513 0.31280163 -0.8866649 1.0659368 1.5374079 -0.34912667 0.12864165 1.1076342 2.133049 -0.103817575 -0.07318517 0.3766968 -1.504243 0.36978897 -0.6357686 -0.44217235 0.06701148 2.4416862 1.3620079 -0.93761307 -1.3381777 1.2834456 -0.43456244 -0.8970806 1.3127797 -0.99296105 -0.28384936 1.1327345 1.2508805 0.40867385 -1.1055026 1.6512543 0.052582186 -0.6844477 -0.018929496
66 -1.963993 0.6693107 0.5344618 -0.4701101 2.26322 0.54784334 -0.5457255 -2.170934 -1.1144892 1.04902 0.097348265 -0.9227087 1.9934341 0.057879638 -1.1114036 0.0956016 -0.3493573 0.056283873 -0.22294046 -1.1773008 -0.37098905 0.48324227 0.7584369 2.2271068 1.5736289 -0.16594015 -3.0330696 -0.36498943 -0.10016135 1.8508071 -2.7172966 1.6009731 -0.6787642 1.3915613 -0.076585196 1.4395449 2.1470113 0.72270125 1.6895596 -0.35539123 -0.15691613 0.37438664 3.4263039 0.8809369 -0.6225974 -1.2905096 -1.2941961 2.2636461 -0.54725534 -0.092531934 -2.285468 -0.6094379 0.55083483 -0.09044086 0.5622973 -0.9477452 0.5846104 0.7957984 -0.28738645 -0.100596875 0.9173978 -0.3140147 -1.0304852 -0.50509715 0.9523772 0.5139945 0.13515837 -1.6333873 -0.23237655 -1.4487484 0.4022296 -1.5985428 -0.69768023 0.18263736 -0.45226994 -0.4801971 0.33459127 -0.1642083 0.87258744 -0.05817929 -1.7837199 0.27252483 -1.1873785 -0.14261836 -0.9461344 -0.62932426 1.5392163 2.7314534 0.3049771 0.3867401 -1.0582539 -1.2950505 -0.40977943 -0.40831587 -0.53612757 1.1299248 -0.5952929 1.2469556 -0.63172317 0.91107863 -0.5785057 0.2576661 0.4408891 1.727075 -2.941285 0.23540373 -1.181793 -2.3405561 -1.7388638 0.83942664 1.3372732 -0.34470433 0.78521264 1.0380415 0.058815088 0.4553071 0.85968703 1.0236526 -0.7181644 -0.360477 -0.8867898 -0.8764565 -0.2500832 1.2757888 -0.48140588 0.69949067 -2.0544968 1.4668934
280 1.2452356 0.5290348 -0.024202872 -1.4098314 -0.17873037 0.702574 0.645693 0.0197479 2.2108226 -0.22966757 -2.4066262 -1.4441094 -1.6427333 2.6242173 -1.0658126 -1.0642008 0.61013496 0.2934026 1.8766164 -0.40710375 2.0885313 -0.092200376 1.9396018 0.86961716 -1.854216 -0.21161164 2.060091 -0.66338956 -1.9293727 0.22113387 1.7076956 -2.7533684 0.92626506 -0.44362426 -0.6262663 -1.3028132 -1.3103691 0.78026515 1.4325485 -1.0990905 1.1940947 -1.0322672 -0.27568412 0.12720035 0.6244747 0.5339361 0.8649685 0.14589284 2.0633967 -1.8488572 -2.8140202 -0.8452657 0.12268453 1.8940845 -0.36915988 -0.3725842 -3.0155087 1.7221814 1.2360392 -2.0256925 0.24619669 -1.0208561 0.40018427 0.53131634 -0.07175377 -0.78314036 -1.3043411 -2.2596705 -1.0580031 0.7322584 0.6849726 -0.6092558 3.0744326 1.4359405 -1.4222292 3.2299612 0.80643696 1.484706 1.4732629 0.6938238 1.2675602 0.020014323 1.2215365 -0.8829948 1.1029092 -1.7287389 -0.021254167 -1.617932 -1.3943698 -0.5239307 0.40524808 0.050762318 -1.4284959 -0.32429767 -1.4769354 -1.3547097 -0.13747355 0.5915614 0.5509771 -0.012551775 1.0860392 -0.525229 1.1798657 -1.2347118 -2.9914327 0.17609608 0.58763206 0.7713387 1.4216653 1.1846973 -1.727128 -0.47435406 -1.6806811 0.4533723 -0.67309266 1.3923258 -1.0564831 2.139269 0.72363484 0.49352306 -0.18412794 0.85043746 1.5717146 -0.24515261 0.0400246 -1.3353255 0.991282 -0.50028396
335 -0.28256118 0.5900186 0.66152114 -0.016074287 0.6258609 0.3697555 -0.17401433 -0.737635 -1.1446391 -0.057719983 0.3612453 -0.48043302 0.01234519 -0.5108896 0.7780423 0.17073825 1.5739435 2.2813332 -0.9154648 0.680623 -0.9020526 -0.23616175 -0.055825613 0.5943006 2.4995399 -1.338566 -0.98645526 2.040095 0.31364822 2.0971699 -2.078345 2.1310415 1.2693055 0.036355283 0.016818097 -2.594627 -0.28002995 -1.6122067 1.2441139 0.16794313 0.3725968 -0.5600911 0.87740105 0.096390195 -1.003703 -1.3254027 -0.0111656785 0.010196325 -0.7483415 1.9386382 -0.8749676 -0.83980274 0.24522404 -0.12151808 0.36843055 0.5109736 -0.59268206 1.2829161 0.3588959 -0.236307 -0.14301023 0.41028422 -0.69639003 -0.37964654 -0.08525444 2.095216 -1.0785046 -0.33419824 0.41060743 -0.18308654 1.4380357 0.71526104 -1.1832323 -1.7912878 -0.3935318 -1.9360807 -0.97515166 -0.24677433 -0.51310164 0.21771865 -0.04444839 0.06497993 -0.9213837 -0.64111114 -0.5819239 -0.08727566 0.622875 2.1350524 -0.24297929 2.125257 -0.4168012 -1.5733265 -1.8111959 0.56579936 -0.58871555 -0.37971175 1.0667063 1.6595596 -0.8059028 0.12012904 0.040640492 -0.9325064 0.6878489 -0.56270915 0.032813396 0.5604685 0.54071945 -1.8817408 -0.41380614 0.4994767 0.9784281 -0.013601886 0.7832682 0.46400556 1.1201041 -0.027583199 -0.5325742 0.60083073 0.5359654 0.13357885 -0.30477306 -0.76663756 1.5880847 1.0035137 0.09664906 1.4205556 -0.7898074 0.1943187
395 -2.014066 0.93507147 -1.219543 0.8136478 -0.18500404 0.8236584 -0.6289137 -0.9033111 0.43090826 -0.82684654 1.0407202 1.6518509 1.4364233 -0.23084915 -0.7649239 0.4249992 2.191257 1.5507478 -0.35950568 -0.18894994 -1.4434936 -0.17051902 0.41185406 0.707703 2.3704424 -1.262874 0.9255492 1.9538426 0.52620244 -0.09632834 -1.1055901 0.9730537 1.5272228 1.3717328 -0.39372367 -1.2120533 1.3099338 -0.7318471 1.6632845 -0.9490248 1.3979936 -1.6505706 0.92635554 1.0026431 -0.027105773 -0.12967739 0.8823908 1.5727957 -0.45499274 1.8610502 -0.53185636 -0.7782004 0.08619812 0.4889054 0.888974 0.5279077 -1.5042287 -0.3618078 -1.1650835 -0.23422363 -0.8784432 -0.016314352 0.3910794 -0.5325233 -1.1941332 2.6663759 -1.3921927 0.40602636 -1.3957787 -0.32708886 1.4120523 1.1138015 0.2976658 0.9006441 -1.0332209 -0.51910603 1.4296426 -1.7511562 0.8800297 0.72039413 -0.01976305 -1.0357199 -1.166102 -0.87053967 -1.1157993 0.7002854 1.8762329 -0.12425566 -1.1000377 -0.22083493 0.29898858 -1.9212737 -2.3838134 -0.9903926 -1.6364495 1.2538877 0.76209354 0.6753745 -0.14339918 -1.170582 0.8454844 -3.4751441 1.5516497 1.210745 0.13919455 -0.23933642 0.17819671 -1.9554479 -0.18214661 0.8822243 0.04358906 0.8023421 1.0459471 -0.14993533 -0.8259004 -0.29039207 0.36040276 -0.17564677 -0.11313509 0.06665472 0.82703996 -0.8476802 1.8094133 1.4786842 -1.2574747 -0.0967187 -0.6432164 1.0119966
167 -0.10054047 0.37675175 0.6659541 -0.30018753 1.6726315 0.7493976 -0.030463656 0.60771817 -0.203577 -0.4262081 -0.4042848 -0.80174583 0.86130404 -1.06662 1.2244307 -0.9522163 2.538757 1.9748415 0.70717746 0.82349473 -1.8175074 -1.1466609 -0.4443561 -0.16358595 2.4581568 -2.1331594 0.1213033 1.5837092 -0.13736194 1.4193048 -0.81917566 0.93458587 1.0471774 0.49504307 0.076017186 -2.153898 -0.2764533 -1.5195131 0.71747357 0.5962667 0.13777328 -1.4210823 0.62627167 -0.38600948 -0.06555543 -0.7062813 0.99629223 0.30519402 -0.030685358 1.5626674 0.12016373 -0.39467 0.3227719 -0.067783915 0.18173574 0.022870542 -0.7013392 0.5334468 0.25321472 -0.30631006 -0.58186024 0.046210572 -0.4125769 -1.2586279 -0.08380135 1.8832551 0.23457603 -0.011571316 0.7859253 0.85332614 0.7985204 0.8375349 -0.47717977 -0.7107583 -0.52622986 -1.6096646 -0.07739423 -0.8631214 -0.33101755 -0.6653107 -0.122654974 0.18352212 -0.9548641 -0.07215099 -0.8432431 0.2726115 0.6558826 1.3215936 0.22518899 1.5004938 0.48282853 -1.9182503 -1.5893407 0.3288444 -0.9782749 -1.2159972 0.64403456 0.480278 -0.64758754 -0.5510604 0.19766317 -1.1585901 0.79671615 -0.7753983 0.3662709 1.0707778 0.08249261 -1.4830469 -0.09375742 -0.27152336 0.7064798 -0.21940298 0.730916 -0.40934515 1.65144 -0.1145915 -0.69627327 -0.4473268 -0.22963022 -0.59507245 -0.44684803 -0.8083742 0.8152001 1.127899 0.045961194 0.17870916 -1.4374219 -0.24313633
161 0.12422069 -1.9793274 0.44443527 0.27852565 -2.120951 -2.4622126 1.1493889 -1.7772081 -0.8785703 1.2952216 -0.27153343 -1.6390108 0.21462604 -0.2319511 -0.9557316 0.774628 0.3919515 0.62594026 -0.37110633 -0.91043204 3.0657644 3.050724 1.9011499 1.4101871 0.92302316 0.38999793 -0.5485386 1.0347582 -0.6733197 0.99775034 -0.036463834 -0.02613975 1.9972445 -2.2693396 -0.4089508 -1.9073764 -1.2720228 0.642775 -0.24094008 1.0989783 0.45858017 -1.191609 0.5691556 0.87054545 0.12526068 1.1986735 -1.7406076 -2.1603053 -0.495232 -0.26670069 -0.71921736 1.0272708 0.5959409 0.72781765 -2.061581 -0.6016668 1.1645775 0.60973614 1.1017734 -1.398803 1.9821136 0.9079902 1.3677658 0.33003983 -1.3739057 -1.1034874 -0.37848052 -0.07411889 0.34581637 0.8469204 3.0812612 0.27826136 1.1828647 0.79794014 -0.53513163 0.52724826 1.1935227 -0.20870866 -0.5590201 0.35255533 1.8739055 1.5386838 -0.5695275 -2.367274 -0.67225504 1.2667155 -0.34284246 -0.5374506 0.48622838 -0.6653257 1.4227962 -1.2088304 0.3546607 -0.03384646 -0.6626405 -1.4262674 -0.6342583 -1.5809722 0.4895022 -0.8378621 1.476894 -1.3363175 -0.6900472 -0.46988833 -1.3435452 1.3649354 -0.84767497 1.073291 -1.4289622 0.8300447 -1.1142976 -2.1018696 -2.4277003 1.909889 0.46623915 -1.3835206 -0.59720325 0.82184976 -0.8405463 -0.56383353 1.6529025 1.774527 -3.7151556 -3.0121603 0.8683896 2.06918 2.0689807 -1.4339455
20 -0.20615645 1.8960732 0.5568137 -0.97107327 -0.34414595 -0.32958663 -1.9681906 -0.93863225 0.029440153 0.66334915 -0.99754 -0.4760468 -0.6661823 1.7501233 -2.158181 0.6296591 2.6045463 1.7552074 1.0585134 -1.8393155 -0.16102126 -1.3754297 -0.48255217 -0.045182813 1.4425256 -0.61239356 -0.163441 0.316013 -0.1692247 0.8698602 -1.2761596 -1.1162283 0.9357521 1.042075 0.58043873 -0.32468268 0.2423861 -0.80024815 1.5463481 0.104511574 0.3587384 0.72277683 1.0119344 -0.48670807 -0.5531347 -1.2244353 0.13225114 -0.24924815 2.1027622 1.4215331 0.46316764 0.4418377 0.36345217 -0.0013995509 1.1984657 -0.38601622 -1.5147687 0.3303676 -0.73101246 1.156693 0.83758044 -1.221257 -0.9926704 -1.519432 -0.72465926 -0.18745153 0.70684826 -1.107836 -0.06332011 0.7946738 1.1269212 1.0442227 0.24302818 -0.7543693 -0.39706174 -0.9849204 0.031301927 0.09079568 0.49431685 -0.023003105 1.0147088 1.2827882 0.19569282 -0.5358439 -0.76418823 0.013342373 -1.3476721 -0.90797067 0.09516387 0.54092705 1.8711281 -0.85567516 0.40387616 0.28764954 0.23000535 -1.2662779 2.8428268 1.2016121 0.18732835 -0.8950663 1.668661 0.104243934 1.0695366 0.011076143 0.892781 -0.08062748 0.3051692 -1.263474 -0.97677606 0.04393928 0.10620678 0.65783083 -0.31734478 -1.9942844 0.89069724 0.24013992 -0.76946163 0.90301526 -1.2205781 -0.6703277 1.0127836 0.8520912 0.6015857 -0.7222324 1.4321942 1.9017127 -0.10681418 -0.4759294
253 1.6830732 0.8022781 -0.45473206 -0.46581018 1.1976291 -1.221821 1.5291955 0.18558197 1.663841 -2.7914777 -2.9626231 -0.16366494 -0.8948371 0.94339657 0.5210217 -0.959086 -0.16666637 -1.2888229 -0.17927155 0.7728984 1.0113964 -0.7141349 0.0842517 1.1620886 -1.7926285 0.019432312 3.1173806 -1.0445858 0.38396323 1.1212435 1.1308223 -2.6632724 -1.2622385 0.5889334 -1.2305937 1.6457303 -0.36290178 -0.40940124 0.16460708 -0.54747874 2.24661 -0.07508218 -0.83887815 1.1225133 0.4311298 0.23659189 0.6412583 0.2189276 2.3469076 -0.8743188 -1.7519562 0.0014706841 0.24104932 0.057367258 0.048440363 -1.0241548 -0.66886693 1.4655449 0.9380127 -1.913285 0.08671106 -1.4284736 -0.8253685 0.2496738 -0.71328217 -0.20547573 -0.12693506 -2.1918135 -0.7457134 -0.87448984 -0.143991 0.062045347 2.3089893 1.6469525 -0.6026909 1.7011827 -0.71430475 0.24284022 1.5093676 -0.45797238 0.29055426 -0.118379295 1.0335945 -1.309855 -1.6360829 -3.3951714 -0.8611499 -0.3893316 -0.4296817 -0.50731194 0.55535084 1.0082514 -0.004354383 -0.26123744 -2.0693135 -0.6320027 2.2617674 2.1367931 0.28147712 0.20339018 2.3490052 0.6388043 1.3590467 -2.4167485 0.107698105 -0.2599891 -1.420392 1.5538225 0.6151321 1.0307385 0.6737028 0.9234744 -1.9962373 0.7328236 0.7642917 1.1994802 -1.7829757 0.9973712 1.32746 0.89623827 1.6843108 0.07971881 2.80781 1.1991658 1.2041537 -0.8268742 1.659692 0.7955925
151 -0.45812312 -0.8962558 -0.0030527932 0.9353913 -2.5390887 -0.64801526 -1.0684716 1.6075938 -1.1421858 0.10230228 -0.20156182 -0.5916175 2.1066198 0.41992426 -0.7380007 -1.3535739 -0.068671085 0.5778215 0.038071472 1.0849112 0.79366314 1.1262002 0.38508317 1.3226496 0.94305384 0.35602772 0.04654677 -0.11715427 -0.41364077 -1.0404009 -2.1091201 1.0303051 1.4804585 0.20316367 0.35229644 0.3762245 -1.6604959 0.30833894 0.15386374 0.2789068 0.54633373 -2.3067634 0.6778645 1.739021 -0.21697463 1.064422 -0.8750646 0.08262846 0.21951889 -0.3231765 0.05918339 0.21169443 0.5929717 -1.2299733 -1.1212398 -1.2724496 0.27358785 0.9371048 1.119719 -1.3563521 -0.057480976 0.38895053 0.4697537 1.4286782 0.30941656 0.88650906 -1.436444 1.3900357 0.27876043 -0.24699813 -1.5172912 -2.7274933 1.0076414 0.92502236 0.7163663 -0.90204245 2.5902324 -1.2221949 -0.98536956 0.8314883 0.15777948 1.5231671 -1.781852 -2.1897333 -0.59006745 -1.703999 0.34372526 -0.050226778 2.970407 -0.3526526 1.2249547 -2.402269 -0.94783825 0.33781496 -1.286872 -1.4506823 -0.78456444 -1.5806327 0.6961239 0.85241485 -0.5378884 -3.8896348 1.4030787 1.2796601 -2.129119 1.9867004 -1.4374044 0.091907896 -2.2822182 0.5855554 -1.2614686 0.16838805 -0.373615 0.45910937 0.9210124 -0.6775187 -0.054614585 0.027604736 -0.53778905 -0.58915275 -0.5320436 -0.23281468 -2.1934996 -0.43234432 0.22114505 0.08328285 0.6317879 -2.5537004
7 -1.7040662 0.44424874 -1.0289948 -1.0559238 0.17174807 1.1166587 0.5806861 0.07114306 0.9750083 -0.8063487 0.4375542 1.9387406 -1.3982601 0.07795901 -0.9771847 -2.039557 1.4573404 1.2590953 0.9096956 0.030855276 0.60081613 1.1512986 1.7776151 3.4282286 -1.1993979 -2.4183292 -0.094922006 -1.0010867 -0.039341632 0.42058253 1.6260339 -0.8722481 -0.5816208 -0.36962464 -0.09244139 -1.727922 0.6534029 -0.3993388 -0.30832922 0.32639867 1.8831776 0.32999012 -1.9350519 -0.8941116 -0.90290666 -0.676909 0.25373045 0.7112717 0.47226244 -1.0397153 -0.21825048 0.036758587 -0.14436215 0.47892168 -0.027087469 1.0475761 -2.6439707 -0.593478 0.3692296 0.96898985 -0.7831373 -1.0058724 -1.2176228 1.442883 1.4125391 -2.7059255 -0.22108953 -2.4695058 -1.9574609 1.7473022 0.5846363 0.25105405 1.3200082 1.0025709 -1.704143 4.4029818 0.79730874 0.3028855 1.300478 0.8945457 1.008326 -0.14135858 -0.49278086 0.01249855 -0.7638295 -0.8383239 -1.1376239 -1.1855803 -1.9808338 0.058266822 1.1429371 0.8539533 -1.4128789 0.41425818 -2.8010046 -2.4187582 -2.0719047 1.0162156 -0.2630503 -0.9036072 0.23530483 0.71278495 1.1054584 -1.9794979 -0.4456017 -2.1749775 1.9948629 1.6200608 1.5012587 -0.57146597 -1.5479494 -0.98383284 -0.2166177 0.24926727 -2.4953027 1.9765654 -0.864347 2.6146615 2.2168844 0.9582683 0.056278206 -0.5686713 1.1895369 0.12935352 -1.0896894 1.1016161 0.65400517 -0.89253414
263 0.5341896 -0.37190986 0.8225188 0.051076405 1.5260432 0.19370097 -0.010031902 0.550933 -0.101718076 -0.5621627 -0.038194988 -0.6824886 -0.14486511 -0.7101494 1.3163414 -0.4023513 1.5922449 1.6582141 0.7395102 0.20272517 -1.4793108 -1.1062396 -0.21608792 -0.3441641 1.7137282 -1.5465701 -0.028658044 1.7425554 -0.08623092 1.9011661 -0.49997818 0.6170301 0.67519236 -0.39253315 0.21407226 -2.1718764 -1.0162492 -0.9858486 1.2879678 0.6149781 -0.06389251 -1.2265574 0.18833147 -0.2169298 -0.24015786 -0.7770216 0.9171031 -0.22775932 0.015798863 1.3660603 0.09522631 -0.9470068 -0.24265312 -0.57933354 -0.25724533 -0.2621556 -0.91592145 0.9724613 0.3523428 0.026575835 -0.31973845 -0.08233623 -0.7244996 -0.7398399 0.18785836 1.5550874 0.018566351 -0.20248692 0.7303343 0.60381824 0.5285978 1.1251241 -0.5455595 -1.1368564 -0.4730447 -1.9043014 -0.543154 -0.26380044 -0.41693214 -0.43666288 0.22906168 0.5278657 -0.5100772 0.1891665 -0.85728616 -0.382921 0.47290072 0.41766065 0.12635183 1.4067968 0.08115596 -1.2945815 -1.6535659 0.4901777 -0.6522646 -1.1160746 0.40787348 0.5675021 -1.0607774 -0.5694998 0.695272 -1.1309808 -0.27161494 -1.3440254 1.0653701 0.36768064 0.123896256 -1.4353985 0.4042799 -0.0041200914 0.5284985 0.24370165 0.41242075 -0.45784187 0.5652915 -0.0084880255 -0.40363243 -0.2673016 0.33915162 0.033255365 -0.40785068 -1.1094131 0.5834645 1.2496511 0.04688921 0.75053006 -1.1076363 0.1921521
434 1.3835815 2.4732363 -0.36799708 -2.131563 -0.3635322 -0.8481274 -1.9745963 -1.2304685 0.36028346 -0.19974647 -0.6339487 -0.8857527 -1.3648697 1.9463453 -2.0787807 0.19132417 0.5314107 0.7563134 0.7143678 -0.90644133 1.5649911 -0.46671647 0.65248823 2.1497984 0.3844168 -1.650962 -0.08902562 -1.1016856 -0.4018241 0.8719578 0.75525796 -2.4585707 0.31385297 -0.098187245 0.29815975 0.15278716 0.6372032 -0.014078126 0.6960375 -0.41350725 1.3449905 0.32683817 0.7434057 1.3196331 -1.2809083 -0.31634805 -0.6886811 0.3107046 1.9209791 0.1045389 -0.714059 0.35780454 0.56500524 0.44938836 1.6210725 -0.3950725 -0.5056245 -0.662938 -0.13142313 -0.8837674 1.086758 0.2566132 -0.877077 -1.3224679 -0.057746872 -1.8234712 -0.145224 -2.4056082 0.3293429 0.903951 2.5098064 -0.6266824 0.3464691 -1.1535783 -0.9442473 -0.2749576 -0.55361754 0.3016196 1.2840971 0.3404482 2.8353798 0.23200037 0.42208895 -1.3413316 0.5019929 -0.5430792 -1.8122172 -0.9552147 -0.4109437 1.4708129 2.2937589 1.4620856 0.45611215 0.4314773 -0.06534273 -1.5792674 3.549439 0.35427257 0.93255776 1.1875175 0.7553543 1.9643741 -0.3897133 -0.88169616 -1.2640847 -0.5365245 -0.4534052 0.1903849 -1.4013001 0.49386927 2.199636 -0.34218663 0.7355238 -1.3863167 1.5520518 -0.045869082 -0.45962882 1.7303011 -0.11949494 -0.9378861 1.0969852 0.51881546 1.6283584 -0.6607231 1.7362164 1.7299801 1.2304374 0.5783664
172 0.8893163 -0.4226672 1.003147 -0.27665105 1.6147304 0.09345555 -0.04799412 0.6928835 -0.035816472 -0.0049743415 0.059929974 -0.5258358 0.8122002 -0.93696433 1.2484292 -0.20705652 1.7603449 1.9521036 0.5876749 0.25300264 -1.6716247 -0.9465049 -0.2153088 -0.5249824 1.693967 -1.682252 0.011961564 2.0344903 0.19773278 1.4564997 -0.5431249 0.3863457 1.1143599 -0.020393537 0.38604143 -2.2394204 -0.8029268 -0.65399927 1.0964987 0.34086233 0.33950627 -1.4479901 -0.075256035 -0.46708158 -0.13412297 -0.38688257 0.7789274 0.076317966 -0.04796548 1.6850407 0.12837462 -0.80081946 0.046460852 -0.59879845 -0.55955124 -0.18502219 -1.0186731 1.0588403 0.13722813 0.40286455 -0.84724605 0.042649433 -1.0552433 -1.1441315 -0.37790462 1.9032415 0.4902689 -0.20287764 0.67907494 0.9934942 0.70722735 1.5832937 -0.6105065 -1.0745189 0.040106907 -2.6807995 -0.8058562 0.14753307 -0.4096248 -0.36527205 0.45677203 0.49509278 -0.75976926 0.055168778 -0.4832266 -0.10045161 0.55202127 0.45287415 0.26573035 1.2730415 -0.5191481 -1.5196222 -1.5143521 0.44288546 -0.90913254 -1.3536681 0.5348279 0.42778042 -1.3316685 -0.6542294 0.85915726 -0.9391594 -0.22030763 -1.2377626 1.3985819 0.4692224 -0.3266614 -1.322612 0.33747372 0.18555456 0.78765494 0.4827871 0.483245 -0.9381025 0.405732 -0.27054307 -0.4456585 -0.37897217 -0.005399231 0.42754218 -0.3831722 -1.1452838 0.9614376 1.2045919 0.43514377 0.39597362 -1.3393049 0.34022468
77 -3.4807932 -2.096426 1.1219265 0.2937795 -0.36886793 -0.028154837 -0.25139645 -0.4494964 0.17078915 1.1557229 0.147286 1.4617032 0.9366451 0.7060875 -0.39443004 1.0284745 0.38835123 0.79505706 -0.71975094 -0.57650894 -1.3355223 0.8810333 0.26372182 -1.2186463 2.4341023 3.0177689 -1.2463481 0.34454829 2.788332 0.13013157 -1.1761603 1.9258704 0.001372087 2.5941222 0.23275381 -0.91750866 1.861667 0.40243113 0.5227736 -0.08412654 -0.10763221 -0.72759074 1.5342009 0.30048314 0.08899908 -0.41262308 -1.3347867 -0.3192004 0.82105315 -1.8206662 1.0587003 -2.4906318 1.8611587 1.0196604 -1.5190765 -0.68841386 -0.7753721 1.8619422 0.61960167 -1.1423519 1.2045275 -0.15652367 -0.37900773 0.052030187 -0.371543 0.9536382 -1.1018772 0.08426109 -1.9048209 -0.76840585 -0.030334678 -1.313804 0.4623337 0.28987604 0.902127 -1.2244205 1.4550008 0.63435614 -1.6866341 -0.7199915 -3.217842 -1.1443324 0.34173217 -0.029022364 -0.5378201 -0.6534311 -0.279504 1.9706128 -1.9683875 -1.0471369 0.7082873 -1.4503577 -0.58355176 -1.0312554 0.2444729 0.39176318 0.3694251 -0.09533734 0.973601 -1.6704826 0.5343047 -1.90917 -0.7108477 2.0521564 -0.76703405 0.9904293 -2.6953697 -3.1831682 -1.3261262 0.06431357 0.39573035 1.0839579 1.2895514 0.5879043 0.8190341 -0.21851017 -0.13694192 -1.9224223 -0.37839198 -0.345107 -0.5626986 -0.030865341 0.17014402 1.7663251 -0.40645623 0.2128061 -0.9081977 0.33195776
111 0.43029594 1.6225041 -1.0404879 -1.9181004 -1.4353712 0.8956475 -0.69203156 -0.6855328 1.797154 0.5100841 -0.54619914 -0.07301077 -0.18422092 2.631485 -1.9841707 -0.380241 0.23615006 -0.31792867 1.4361396 -2.448664 0.37918037 -0.86827934 -0.51014566 0.97634465 0.08074648 -0.95015854 1.2560631 -0.7152473 -1.0720402 -0.40481228 -0.08663756 -1.2579144 0.058273137 0.49471638 0.6174267 -0.18545376 -0.45994025 -0.97593606 0.37527665 -0.63710254 1.1549382 1.0053877 -0.58204985 -0.17405555 0.2510427 -0.08860473 0.71709013 0.06165181 3.337016 -0.3156588 -0.22473833 1.2593704 -0.1432024 0.34600705 2.3613582 0.31008542 -1.632099 -0.30108702 -0.5582647 0.8040519 1.2846205 -1.2813985 -0.7140523 -0.07735485 -0.7364506 -0.7521048 0.41421273 -1.4640936 -0.18947895 1.1249381 0.034798183 0.6816593 1.4691802 0.29690722 -0.13717414 0.97409993 0.078220315 0.030516608 1.7333586 -0.21114612 1.903951 0.5753132 0.98800355 -0.66881144 -0.44619426 0.21201332 -1.7323251 -0.78095996 -1.303538 0.35591644 1.4329736 1.0227325 1.327361 0.31188318 -0.48336044 -0.7970203 2.186598 1.3242201 -0.62288254 0.07902463 0.87385327 1.6486071 0.7673982 -0.30801246 -0.479669 -0.960554 0.4100243 0.59049577 -0.5396078 0.37542865 0.6347575 0.6888516 -0.12269433 -1.3939875 1.1464167 0.34874374 -0.2632289 1.7258768 -1.3693117 0.50309163 -0.06660433 0.7802259 0.738154 -0.5026391 1.0205641 1.9247621 0.9511265 -0.9500073
136 0.90699136 -0.27936402 0.7162351 -0.2675983 1.4372526 0.15079148 -0.5681553 0.23847605 -0.06932789 0.028503861 -0.22449303 -0.8389598 0.18122596 -0.33907333 0.8072678 -0.41371834 2.1149151 1.6706215 0.28567398 0.07495822 -1.5508665 -0.8903669 -0.15681493 -0.61922175 2.0407362 -1.942171 -0.33207428 1.7902582 -0.10223148 1.5233204 -0.80922294 0.12790434 0.8901445 0.078878984 0.41342783 -2.4865043 -0.3824134 -1.0945812 1.2861257 0.22444427 0.36152664 -1.506944 0.1076975 -0.43229988 -0.330295 -0.352742 0.8494845 0.43527868 0.2577778 1.3170083 -0.13131641 -0.5538683 0.27809298 -0.28088802 -0.04229174 -0.09696012 -1.0204396 0.68378365 0.12552257 0.592455 -0.7527741 -0.15170458 -0.83312523 -1.1399529 -0.8353429 1.5866559 0.16560937 -0.3337776 0.6418176 0.66612744 1.1426678 1.147636 -0.62307817 -1.0398902 -0.155716 -2.2892785 -0.56441087 -0.42516625 -0.16401853 -0.58876026 0.44605508 0.36804783 -0.77847576 -0.0074584824 -0.94790226 0.66555434 0.6102195 0.6237816 0.16581376 0.9968126 -0.017454343 -1.6565636 -1.6652861 0.69062877 -0.72851115 -1.0995946 0.6301009 0.13697211 -0.9725822 -1.0666773 0.4150763 -1.0492868 0.48373404 -0.7271332 1.1351906 0.1444681 0.0837754 -1.759907 0.40325806 0.23564544 0.49979267 0.10671283 0.8555749 -0.6764952 0.15149607 0.113739036 -0.31585595 -0.09574214 -0.12535448 -0.010529217 -0.21316673 -0.987817 1.0487818 0.9285974 0.379475 0.809023 -1.4528089 0.5492675
132 0.22525358 -0.39439163 0.8287821 -0.50391656 1.7827718 0.47342435 -0.40668815 0.30568907 -0.44212693 0.21858886 0.31723335 -0.72810024 0.19691214 -0.6590583 1.15372 0.0794477 2.0420136 1.9460534 0.20522174 0.46437612 -1.7686303 -0.8977632 -0.37765074 -0.9140956 1.8954278 -1.82197 -0.33166745 2.0115142 0.17637773 1.2341379 -0.7744119 0.46496707 1.015427 0.121197954 0.1958601 -1.9272845 -0.17720567 -1.2907825 1.2764913 0.089873455 0.084833704 -0.92150056 -0.12613323 -0.58972865 0.39148194 -0.43539178 0.5448629 0.36094034 -0.063158505 1.5717183 0.21636933 -0.6758203 -0.16258149 -0.30431876 -0.05008429 0.07095683 -0.68785155 0.40540087 0.47159168 0.6071019 -0.90166336 -0.20219819 -0.6745177 -0.89564437 -0.26122704 1.5911072 -0.041631352 -0.5646564 0.62716043 0.39286664 0.6670902 1.1053551 -0.7853003 -0.8347582 -0.45324308 -2.5002542 -0.4388244 -0.42847434 -0.099397175 -0.5016737 0.21619084 0.46493006 -0.3026494 0.18903536 -0.27316105 0.2625105 1.0278755 0.4620136 0.1798373 1.3983064 -0.4218812 -1.728878 -1.7386467 0.43792817 0.16685738 -0.89008313 1.0646567 0.46993732 -1.3240072 -0.8568008 0.64460623 -0.344405 -0.09761971 -0.80337954 1.5223509 0.42583436 -0.07355454 -1.6639644 0.20470169 0.21050076 0.7338106 0.3789345 0.8376362 -0.42435616 0.45128295 -0.18274033 -0.23315595 -0.23473272 0.32131937 -0.052025333 -0.6061767 -1.224154 0.90916306 1.5173248 0.18409061 0.61531997 -1.8981032 0.57961226
39 1.1349746 -0.48960856 1.0813406 -0.04057463 1.5541395 0.22142816 -0.18986031 0.03698312 -0.20032682 -0.01742853 -0.3190253 -0.35354748 0.1443631 -0.9832304 1.1069127 -0.4046813 1.6832827 1.7060782 0.47477835 0.1388999 -1.4053493 -0.9335792 -0.7288494 -0.3478571 1.6468135 -1.6130623 -0.22072504 1.8082736 -0.048391502 1.4550366 -0.56806594 0.39245272 0.9056662 -0.18891063 0.28332433 -2.3857021 -0.55136627 -1.1465573 0.9835489 0.4479616 0.07462708 -1.1825933 0.06661171 -0.6723489 -0.15517007 -0.74796224 0.7392914 0.5139835 -0.6049574 1.6877294 0.08415892 -0.83405674 0.050971646 -0.49155504 -0.4139913 0.4218524 -1.6119416 0.68001443 -0.13355514 0.6028986 -0.8574224 0.043347538 -0.61565554 -1.0892696 -0.6829348 2.2693636 0.44923395 -0.40074494 0.39590973 0.23894621 0.88407767 1.2428029 -0.670447 -0.8175643 -0.20542836 -2.0058076 -0.4156271 -0.40166664 -0.16211808 -0.6473423 0.20017557 0.5661463 -0.47456604 -0.30238998 -0.40513343 0.30843753 0.7743187 0.6535926 0.1661308 1.0826291 -0.37753525 -1.469118 -1.5962896 0.33160794 -0.6307738 -1.3107103 0.96310824 0.26275977 -0.9188354 -1.0615275 0.9635968 -0.967167 0.102380425 -0.71366143 1.4955124 0.31074134 0.009083983 -2.0714242 0.14578426 0.25167844 0.51123816 -0.42735535 0.28924885 -0.79824334 0.376271 0.095238835 -0.33040893 -0.70427436 -0.37664998 -0.63166237 -0.10570708 -0.7675857 1.145617 1.0303066 0.3905904 0.8982704 -1.5373944 0.31944063
199 0.47512373 -0.050750997 0.42455563 -0.039550725 1.4891927 0.6775497 0.03291942 0.27599242 -0.48473278 0.24120833 0.039994903 -0.80130535 0.08335878 -0.42419064 0.45118034 -0.6692564 1.292267 1.5769069 -0.25281006 -0.0033201557 -1.8850372 -1.0199454 -0.7809347 0.095888086 1.4963443 -1.5274166 -0.6704793 2.1438913 0.5838864 1.5552428 -1.2262083 0.5198358 0.42796126 0.10295334 0.33573622 -2.3165495 -0.26233777 -0.79263115 1.3977396 0.2348907 0.13577983 -0.3683568 0.626465 0.045185868 -0.6186711 -0.85810786 -0.19802977 1.2605709 -0.12821004 1.7058178 0.43809545 -0.49382833 0.7400124 -0.4307063 0.06294209 0.10967069 -1.4881251 0.7525496 -0.27785754 0.787046 -1.1037136 -0.061559312 -1.2398294 -1.8637054 -0.63624626 1.6313862 0.4779429 0.01033741 -0.15927736 0.07091481 0.9396683 1.6993734 -0.62313133 -0.6475372 -0.5540257 -2.623965 -0.7704803 -0.0052513285 -0.24609071 -0.13047063 0.24746335 0.6807017 -1.2279849 -0.07756349 -0.4938608 0.16187453 1.1365701 0.7034444 0.20809352 1.1295607 -0.16569455 -2.376136 -1.9646884 0.7449639 -0.5543497 -1.421103 0.44541287 -0.043498445 -0.21028519 -1.0053686 0.6338251 -1.2411058 0.44823495 -0.33529904 1.3915716 -0.10372996 -0.20010069 -2.1779454 -0.1119167 0.104411 0.94385004 0.20192058 0.42905536 -0.7380179 0.21390432 -0.00996644 0.12140489 0.14708441 -0.7530314 -0.21107012 0.74182254 -0.5282224 1.175914 0.6555556 0.542536 0.4417879 -0.8514094 0.007209071
78 0.6040164 2.0813828 0.80785006 0.30042863 1.3140107 -1.0380727 0.6688408 1.4874669 1.4736779 -2.0630875 -0.8675023 0.37078846 0.7995914 -0.6125781 -0.7686252 -1.4871116 -0.11236395 -2.5976973 2.4259722 -1.2433716 -0.4000443 0.8705984 -0.44283393 -1.3421791 -1.1610442 0.1641764 0.20145504 0.14917025 -0.51143825 1.5471907 2.4591703 -1.1003845 -0.08604575 0.2835102 0.9194713 1.620441 0.80466986 1.6937453 0.019145088 -0.41543365 -1.5800813 -0.22636586 0.2586052 -1.2072767 -2.0562234 -0.4021856 0.808876 0.9758596 -0.5891495 -0.30693483 -0.1769971 -0.25244412 -0.4134753 -0.8109538 0.48810223 0.1344586 -0.9187949 -1.3967844 0.60682905 0.5973828 1.9603202 0.65497714 -1.7399989 1.2554892 0.6834564 -0.15479393 2.4476535 0.2621034 -0.124633305 2.8265111 -1.4892197 1.4077055 0.90036845 0.84342045 0.6854801 2.6282454 -0.70944357 0.082906984 0.4141083 -0.3875839 1.2293588 2.5509305 -0.392745 0.26136863 -0.97901297 -1.7203289 -1.0692525 -0.65816134 -1.7178911 -2.7740319 0.5695655 3.1779852 1.1861739 0.6805198 -2.0054793 -1.4498161 -0.024048958 1.3203434 0.10068411 0.9122168 -1.674802 2.3783944 0.12630247 -1.5163435 -1.264301 -1.7290045 0.90787244 -0.39755493 1.5368553 1.0891129 1.8090044 0.95384157 -1.9902588 0.8741823 -1.8462679 0.1344504 -0.551846 0.8433611 -0.027955279 1.3535869 -0.156254 0.66248506 1.9939649 -0.93024 -1.2941972 -0.31143796 -0.17142172 -0.96250117
65 0.95842415 -0.3963674 0.30802724 0.070880525 1.6278309 0.644357 -0.43492973 0.28801182 -0.26123983 -0.7225703 0.1556233 -0.44218314 0.052985474 -0.36247173 1.1855664 -0.46278825 1.3456731 1.3164163 0.7351456 -0.14916241 -1.2378377 -1.4191763 -0.49485317 0.29730788 1.9770458 -1.337891 -0.20871271 1.751288 0.028973812 1.6070186 -0.58998907 0.08726053 0.28909925 -0.20445919 0.29167575 -1.9195058 -0.7566977 -0.6284145 1.2563157 0.22093788 0.40044883 -1.0595425 1.3142289 0.4999481 -0.46437767 -0.7042264 1.0683557 0.5571679 0.16875377 0.69785964 0.74273616 -0.9419417 0.117046714 -0.80990505 0.05107921 -0.10823987 -1.2390801 0.51398236 0.7670318 0.8349831 -0.32560363 -0.5527901 -1.2635585 -1.3747934 -0.65656155 1.3087636 0.27384645 0.020371517 -0.09371161 0.48443735 0.8137324 0.90833944 -0.7723596 -0.5916707 -0.001875753 -2.4564638 -0.5696452 -0.115609445 -0.19173293 -0.846289 0.11936918 0.88713896 -0.4756936 0.53225327 -0.4012584 0.77042556 1.341336 0.35429925 1.2099876 1.5680773 -0.56603366 -1.9348989 -2.0763786 1.0029964 -0.7798414 -1.4286013 0.68964154 -0.19469763 -1.0969291 -0.95419747 -0.13456358 -0.8187272 -0.110937454 -0.76611507 1.0187345 -0.081540756 -0.39243156 -1.365896 0.5313116 -0.025833495 1.1931479 0.19381316 0.7712067 -1.0268457 -0.29597566 0.0614932 0.57527477 0.21842638 0.06976895 -0.6254478 -0.75794727 -1.5051998 0.8086729 0.77529305 0.614489 1.562625 -1.1630183 0.40547743
239 0.05177446 -0.4293761 1.1140876 -0.24532597 0.8608653 0.100080945 -0.609909 -0.15551819 -0.76021653 -0.7257661 -0.002690691 -0.4952103 0.3920204 -0.4181319 1.5192846 -0.15916163 1.9874225 2.6482484 0.28411794 0.37162718 -1.6647761 -0.7682964 0.060631867 -0.07905055 2.5928626 -2.337835 0.5635887 2.0330524 0.061276793 1.1250973 -0.9222281 0.6639672 1.1374533 0.44520524 0.15455014 -2.0100396 -0.7906224 -1.2678051 0.65297437 0.6622009 0.3666385 -1.2196037 0.056684006 -0.34635285 -0.4065373 -0.59924096 0.734197 0.015359179 -0.964176 1.7347823 0.3313796 -0.7897601 -0.0064087706 -0.3632639 0.29970258 0.54763204 -0.45698622 0.37001723 0.2643843 0.08470416 -0.79857355 -0.13733079 -0.24281885 -1.2616135 0.08259169 1.8060488 0.53492594 -0.008077788 0.8809734 0.8054295 0.8284076 1.1970646 -0.49113 -0.9302213 -0.38676745 -1.8552599 -0.1484214 -0.33229163 -0.6141303 -0.5052596 0.2963496 0.40007177 -0.6900408 -0.20898932 -0.7367352 0.38134938 0.75063014 0.4644316 0.61739445 1.8474351 0.15931134 -1.2162983 -1.2454983 0.4086997 -0.2214915 -1.2020787 0.5731003 0.40588433 -1.024894 -0.85111743 0.3197392 -1.0263406 0.028509675 -0.6907282 1.0733421 0.13117854 0.08904354 -1.5243592 0.03812082 0.05183063 0.38932583 -0.097021766 1.2681552 -0.46296903 0.49247846 0.010721868 0.06819068 -0.5488985 0.21996844 0.17125337 -0.8754544 -1.1253837 0.4923224 1.1525975 0.16761722 1.106349 -1.7124119 0.40909663
71 -0.075438164 0.023790909 -0.7980796 -1.4825517 1.3092712 0.9197788 -1.0240166 0.6525084 1.4680493 -1.2440395 0.22908112 -0.15127665 -2.5707455 0.49465853 -0.7999729 -1.2689849 1.0331668 0.39488894 1.5088884 -0.61827564 -0.1698312 1.4903847 0.35921592 2.6032681 -1.7916514 -1.0669702 2.0667996 -0.74010205 -0.2472172 1.190235 2.6156223 -1.2687484 -1.1329827 -0.6524639 -0.21134844 -0.20039438 0.037147142 0.21972784 -1.3106601 -2.0108888 -0.38929224 -0.6482698 -1.0947913 0.14311954 -0.048037592 -0.8860854 0.5245287 1.5937915 -0.48842615 -0.4542631 -1.3774837 -0.9841517 -1.0012866 0.1071887 -0.15186435 0.534327 -1.7154577 0.01959936 2.6875074 -0.12157662 -1.0548086 -0.08197346 0.461501 0.9467589 1.0254512 -1.6525922 0.33715963 -1.7652682 -1.7196647 0.37513563 -1.6336542 0.09335016 0.03224892 0.3850494 -1.7515792 3.787977 2.0234175 -0.10067493 0.6403488 0.045341503 0.4135382 0.6653861 0.5679295 -0.4818825 0.20178534 -1.9358488 -0.67954975 -0.7020238 -2.6876147 -0.8963127 -0.6952568 1.0443434 -1.8140463 -0.29865935 -1.1512758 0.09180661 0.064836286 0.12513232 -0.45568624 -0.8481493 0.098538466 1.7719215 -0.64914334 -0.8137371 0.51638293 -0.94386125 1.0808638 1.0970488 1.5133187 1.1250443 -2.1727054 0.9604325 0.107784934 0.75217235 -4.2068377 1.2483535 -0.04827837 0.92429507 2.2060273 0.85653716 -0.56822604 -0.8996451 0.7076027 -0.21168034 -0.3226536 1.4148484 1.4559461 0.48280495
409 1.1907753 -0.6615155 0.2043619 0.40522757 0.7546846 0.09171977 -0.6728391 0.4691914 0.012053049 -0.57253915 -0.621841 -0.51145613 0.19825591 -1.2267636 1.0674744 -0.58449394 2.4052026 1.4992188 0.26590252 -0.042277068 -1.5363015 -1.3265231 0.017655246 -0.9524128 1.4115016 -2.14006 0.069232576 1.3578537 0.23554666 1.2773591 -0.58118296 -0.4016264 -0.1268416 -0.6999772 0.18145153 -2.3203034 0.043572962 -1.063891 1.1969068 -0.1383865 0.7743709 -1.8999782 0.37698808 0.13491276 0.40660048 -0.20131329 1.4023691 0.40748042 0.2753381 1.2802291 0.21255414 -0.82705146 0.40179995 -0.06506145 -0.6043014 0.028609505 -0.7831917 -0.0888851 -0.25674486 1.4165825 -1.4109755 -0.16305502 -1.0380416 -1.4093779 -1.205301 1.3596063 -0.30103898 -0.274591 0.8843063 -0.18980193 0.4610636 0.93906873 -0.7585103 -0.7451901 -0.4351719 -2.3887 -0.8660115 -0.33220902 -0.09945824 -0.58495796 -0.044465344 -0.4190355 -0.75195456 0.71015394 -0.3453733 -0.11740758 0.92232114 0.18382584 1.5208175 1.7520242 -0.6455414 -0.9918388 -2.2044287 0.70904136 -0.08019902 -0.37302992 -0.06687118 -0.37815687 -1.0152752 -0.88984466 1.1176815 -0.990099 0.3061559 -1.3582717 1.7637073 -0.92304987 -0.031241411 -1.6464663 1.1984856 -0.063941285 0.38860786 -0.2069049 0.69990367 -0.509478 0.10712481 0.650105 0.51737523 -0.6447052 -0.44444427 -1.2643306 -0.7852305 -1.8312312 0.54899365 0.569825 0.1576458 0.8067576 -1.3011819 0.98358953
266 0.8093832 0.015401684 0.29949114 -0.055022698 0.7142086 -0.04243135 0.0918451 0.45603457 0.17716786 -0.45170623 -0.3732164 -0.7551328 0.15560734 -1.1615294 1.3776419 -0.16866232 1.7052224 1.8057498 0.85655934 0.042169623 -1.3672776 -0.790622 0.2262568 0.22892454 2.0238864 -2.228529 0.4966875 1.3374776 0.08674087 1.6656976 -0.60644335 0.12856588 0.6142183 -0.27944884 0.2791477 -2.1339877 -0.4795282 -0.3930575 1.3315874 0.198455 0.6370715 -1.4067125 -0.16098557 -0.08356659 -0.79271966 -0.11919369 1.6103733 0.037941385 0.056658223 1.2705252 0.15901738 -0.6579584 0.28420177 -0.3607144 0.3805493 0.27986163 -1.1212529 0.12866092 -0.015551609 0.39875513 -0.6771204 -0.48902607 -1.1257693 -1.2249532 -0.15940435 1.8205799 0.18674135 -0.011635542 0.36953834 0.51271987 0.66130066 1.5756142 -0.87827337 -0.69035167 -0.70734453 -1.6874162 -0.33721134 -0.7228747 -0.7045331 -1.0143129 0.18345056 0.6844473 -0.89432853 0.0073657706 -0.8167226 0.2996335 1.020414 0.3323814 1.1291381 2.3547194 0.2195597 -1.5386665 -2.082771 0.7052772 -0.98891604 -1.1685667 0.46620536 0.30791917 -0.65671533 -0.89247334 0.2526963 -1.3680575 0.29776305 -0.77044743 1.1143504 0.052951172 -0.09805047 -1.9499941 0.42507544 -0.35429287 0.7583281 -0.21089733 0.9318917 -0.62092185 0.6169568 0.5508934 -0.09675975 -0.32447314 -0.07720393 -0.21484174 -0.25370649 -1.271572 0.5109128 0.82557106 -0.30015823 0.900784 -1.382334 0.22803351
450 0.18151928 -0.855013 1.0919106 0.10594104 1.3566393 -0.048712853 -0.34797564 0.10236194 -0.3098675 0.37169075 0.20719884 -0.86836106 0.4966132 -0.8979584 1.233368 0.19425471 1.4494549 1.916294 0.43937486 0.35017934 -1.7679229 -0.84916556 -0.50192064 -0.5635341 1.9574894 -1.5485119 -0.2886172 1.8520839 -0.275419 1.5868777 -1.0942652 0.63694793 0.3718314 0.24913375 0.1761679 -2.5373495 -0.70888776 -1.1771214 0.94217443 0.34106433 -0.14644411 -0.93864375 0.16736658 -0.39892456 -0.3030106 -1.1810589 1.034496 0.36405623 -0.09432642 1.476327 0.17066763 -1.0271453 -0.16121264 -0.22313371 -0.28801 -0.22493654 -1.1815428 0.40214863 0.51754177 0.52614707 -0.68528455 -0.13645035 -0.54692936 -1.07105 -0.253048 2.0130165 0.29556832 0.054278266 1.0077314 0.5266812 0.6689735 1.4774112 -0.94232845 -1.2026613 -0.116213575 -2.334513 -0.7218591 -0.72356915 -0.07334144 -0.18202989 0.21364179 0.4974498 -0.26620683 -0.008486662 -1.2416799 -0.21840096 0.5001627 0.8264524 0.087145366 1.2243161 0.06539053 -1.261843 -1.3584425 0.4766779 -0.28265315 -1.3180411 0.42569727 0.7614501 -1.0733488 -0.7858219 0.66924256 -0.70262164 -0.030917829 -1.1195362 0.88775015 0.6443878 0.1603319 -1.1185223 0.22228575 -0.20190561 0.70344967 -0.17516218 0.7115055 -0.5121472 0.4855124 -0.023194186 -0.3371374 -0.46423855 -0.013229901 -0.31414336 -0.3731964 -1.0313911 0.51030505 1.2291129 0.5177369 0.7524598 -1.606189 0.12595846
287 0.4408793 0.5806334 -0.01959024 -1.3275183 -1.1204418 -0.6395181 -0.597099 -1.2588642 1.3338794 -0.015590274 -1.2544729 0.44702667 0.5702151 1.75696 -1.2831894 0.8032938 -0.3364546 0.63122606 1.2323828 -1.2125238 1.019134 -0.13277838 -0.78902936 0.28638124 0.37968126 -1.2190838 0.8643319 -1.0053685 -0.39422265 -1.4172436 0.50197434 -2.0414321 -0.4704056 1.5189608 1.177307 -0.040852834 -0.5063196 -1.0019054 0.32276532 -0.14049286 1.001733 0.6301574 -0.5587341 -1.488364 -2.1526797 -1.1249067 0.80489767 0.032583494 2.8614995 0.35498223 0.16082557 1.043696 0.25946587 0.20068306 1.8017021 1.486596 -1.7848212 -0.7901123 -0.44478703 1.3226037 1.728746 -1.6573367 -1.411629 -0.15660675 -0.8590478 -0.48326194 1.8387947 -0.50300187 0.12653075 0.0046159388 0.04445984 0.41546643 0.86353916 0.2160808 0.06603124 -0.72012115 -0.21743554 0.836835 0.7849967 -0.074363 1.420101 1.0383588 0.78517216 -0.9262112 -0.58822685 0.08338735 -1.3262894 -0.29111227 -0.15513343 0.0012273474 1.5121897 1.3825741 1.3940691 -0.047896866 0.21413758 -1.8205397 2.1289523 0.5782954 0.07043633 -0.3990552 0.5959788 1.6196907 0.1523176 -0.6321524 1.0110518 0.5513724 -0.13224335 0.6259831 0.22324854 -0.19200654 0.43986765 -0.56769866 -0.86776584 -0.6579117 0.6813005 0.089920245 -0.7001525 0.16553319 -0.9758255 1.2502774 -0.50611573 2.1110795 1.3628218 -1.3011528 2.3961694 2.3707974 -0.30584598 -0.50712603
304 0.32755515 -1.000475 1.0520184 0.5057721 1.7734066 0.7445677 -0.043266963 0.94930017 -0.8941664 -0.009483358 0.5129614 -0.13926513 -0.15431945 -1.4488337 1.0681365 0.3828528 3.1912832 2.2980158 0.3281353 0.11553632 -1.3097467 -1.3221757 0.5749925 -0.32308772 1.4784049 -2.1613495 -0.17674826 1.3381277 -0.6519084 0.97859675 -0.70118153 0.67716384 0.29304296 0.2976103 -0.17149667 -1.5761449 0.49545842 -1.3283947 1.3074176 -0.122112565 0.59044147 -1.663555 0.20324464 -0.466934 -0.25034627 -0.69909763 1.1630915 0.07009492 0.3940047 0.8675421 0.31089905 -1.075889 -0.008652868 -0.27127168 -0.417251 -0.31913653 -0.41421133 -0.030904744 -0.0537223 1.2849641 -0.4270956 -0.5802405 -0.52417636 -0.5687373 -0.17637114 0.9763715 -0.6609819 -0.40234527 0.9375401 0.94599766 0.8398899 1.6873657 -0.7424061 -1.081387 0.33361095 -2.2472868 -0.92744875 -0.57078373 0.37142035 -0.18095878 0.37343922 0.31542328 -0.47785723 1.0033981 0.25009513 0.43142968 0.261536 0.27300134 0.7975087 1.7447352 -0.74004513 -1.1057386 -2.0967517 1.0487186 -0.52802175 -0.44189993 0.31894758 0.23314212 -0.9420557 -0.5761783 0.29544818 -0.8929548 0.72062856 -1.634994 0.49593416 -0.6236438 -0.35598522 -1.1339147 0.7510471 -0.51108634 0.38944927 -0.12021449 0.68709683 -0.54572046 0.7869788 -0.07310792 0.032644596 0.17367128 0.6581028 -0.47231704 -0.88160765 -1.8031379 0.728879 0.84409434 -0.13196388 0.6011609 -1.2330874 0.60707194
42 -2.8515115 -0.9014287 -0.22992325 -0.18769073 -0.24602978 0.71266854 0.7117222 -0.70714927 -0.20548406 0.4910594 1.7947426 0.41772854 0.7886778 -0.11699334 -0.68253 0.6853622 1.3588498 0.31066915 -0.68933904 -0.5600407 -1.4066173 0.013707339 -0.5076454 -0.06428803 1.8938963 1.4412374 -1.2914666 1.5408779 2.3312116 0.5031111 -1.7141944 1.4286078 0.0856555 3.5131888 0.10455215 -0.21678151 2.3584769 0.67140716 -0.41619018 -0.23602848 -1.13553 -0.34313264 2.6940258 -0.28581652 1.498119 -0.7186828 -1.3881812 0.4208955 0.7109558 -0.33971363 1.2316799 -1.5598488 0.94366556 2.2041078 -1.0307919 -1.1985319 1.0812782 -0.6405685 1.5073854 0.20183614 0.25958723 0.9436891 0.28853092 -1.2535523 -0.16655403 0.7454791 -1.2098918 -0.19341746 -1.5065051 -1.2818117 -0.63911897 0.21427074 -0.5215341 1.2055871 0.73445326 -1.0043651 3.0215397 0.35568115 -0.47887245 0.53570604 -2.6274374 -1.5818826 1.8002238 -0.20161857 0.3247056 -1.0909523 1.0921246 1.2225714 -1.2074486 -1.012287 -0.37247562 -2.5105734 -2.0201821 -1.1470232 0.8464265 0.20972364 1.3620528 1.088683 -0.4420704 -1.0079621 0.8623191 -1.2908083 0.24857481 1.713605 -0.9593442 0.30459496 -2.3855953 -0.9508903 -1.1978058 0.92365015 1.1013924 1.3851433 0.5033468 1.1443435 0.1575675 -0.2180385 0.22609581 -1.7757978 -1.4041969 -1.3400671 -0.4685128 -0.02895532 -0.16288036 1.4578937 0.034903593 -0.8654592 -0.8644313 -0.36778918
436 0.46879956 -0.32287908 1.2165105 -0.4605767 0.8890173 0.124796525 -0.49760547 0.19599354 -0.37435567 -0.099889666 0.28590366 -0.5751867 0.7498129 -0.67825854 1.0788223 0.10378237 1.65702 1.9656552 0.3889901 0.18690354 -1.9249796 -0.7059971 0.12214139 -0.76558155 2.354367 -1.7217058 0.3200325 1.9467577 -0.031250924 1.2694025 -1.2550961 0.42223495 1.6082864 0.12780707 0.036008198 -2.342405 -1.0192105 -1.3247187 0.5708663 0.40465412 -0.0045195133 -1.1653813 0.018314565 -0.22302713 0.11390695 -0.49154612 0.24218951 0.1653045 -0.72572106 1.8612067 -0.004627176 -0.49149263 0.033425324 -0.17827345 -0.038075317 0.03068711 -0.9214446 0.46426368 0.8215516 0.23822056 -0.64514565 -0.31853813 -0.56435347 -1.3365034 -0.85589194 2.1283405 0.35779822 0.05330018 0.85520756 0.84678864 0.83930314 1.4071832 -0.6940929 -0.9997859 -0.14619866 -2.517138 -0.23989318 -0.7341392 -0.39060292 -0.63262147 0.46055534 0.6856594 -0.42087233 -0.1617323 -0.84135044 -0.041852657 0.8236457 0.2515318 0.72389835 1.6107854 0.11409807 -1.5447924 -1.1459103 0.29535744 0.03981846 -1.2654446 1.141375 0.46609008 -1.056454 -0.4911872 0.8150427 -0.8921327 -0.17175126 -1.0766389 1.3097886 0.6987899 0.15145785 -0.8433406 -0.44410113 0.4326125 0.77795845 0.35824853 0.876516 -0.8730123 0.8005925 0.013072889 -0.17015773 -0.1613412 -0.22482333 -0.26789546 -0.23724021 -1.2509953 0.7252883 0.9471743 0.68148476 1.0357708 -1.3213841 -0.15714923
391 -0.16490112 2.0562665 0.1815917 -1.3245275 -1.2734015 -0.024894062 -1.1715232 -0.3952208 1.0770139 0.53703606 -0.7819716 0.38179556 0.3566169 1.9104797 -1.094816 1.0944047 0.8673255 0.52982616 1.264153 -1.7246042 1.0757016 -0.27219808 1.6766884 2.1898248 1.9992298 -1.0318977 -0.18712126 -0.6150895 -0.5688853 0.42646134 -0.4088789 -2.0102034 0.47989744 0.7796057 0.7279285 -0.28498888 0.84026456 -0.33486494 1.0779349 0.30242413 0.8385399 1.2974277 0.113438636 0.20549497 -0.16061483 -0.4951573 -0.44735694 0.40189278 2.7523785 -0.3207649 -0.6639575 0.26878116 -0.28677925 0.40322253 1.3717993 -0.027305776 -2.3564456 0.62474376 -0.41341132 0.76499844 0.7038692 -2.4679124 -0.99044424 -0.9355668 -0.3469 -0.8401926 0.6568963 -2.1331954 0.12348074 1.4039947 0.22074582 0.027764643 1.2865989 1.36951 -1.0244805 -0.05103736 1.0776666 -0.18005487 1.3668423 -0.14304328 1.1108854 1.0516357 0.13206787 -0.69469804 -0.9981151 -0.19861677 -1.5054798 -0.4824804 0.5077814 1.278642 1.6846883 1.2317076 1.0848347 0.5294892 -0.28357136 -1.2606183 1.7719685 1.4928968 -0.14753737 -0.6260214 1.2524587 0.23140706 0.86504793 -0.30083 -0.09796649 -1.5135522 0.20700692 0.09380571 -0.91056985 0.09231898 1.1464882 0.0003516039 -0.13835268 -1.4399583 1.2754742 0.63880116 -1.286382 2.1084273 -0.3689245 -1.0852696 0.7021386 0.17949045 0.833403 -0.6899759 0.9687782 1.6654645 0.35698816 -0.051481094
367 0.36782554 -0.38533637 0.7958142 -0.31345725 1.4386147 -0.050035365 -0.2849377 0.68965197 -0.11833441 0.35836455 0.16210969 -1.1993184 -0.06288353 -0.8525323 1.1765922 -0.07180088 1.4995809 2.193173 0.54788715 0.1817052 -2.0112336 -0.7132098 -0.34188756 -0.9037222 1.7884237 -1.9711628 -0.51298815 1.6133302 -0.1318916 1.6501975 -0.79504365 0.29960564 0.59939563 -0.21698079 0.26716164 -2.119157 -0.8599665 -0.66158944 1.1133173 0.32146347 -0.15241764 -1.0388799 -0.08753407 -0.3111809 -0.2755389 -0.67617196 0.09858992 0.036643907 -0.30776507 1.6920065 0.05703886 -1.0162476 -0.004613317 -0.15612783 -0.1808137 -0.45860943 -0.4898087 0.821597 0.49501383 0.60689414 -1.1999192 0.46361 -0.5644469 -1.0803118 0.23720981 1.4372681 0.2697962 -0.63581216 0.92388886 0.58724964 0.45686102 1.2617097 -0.8949818 -1.2822524 -0.5345561 -2.081537 -0.5330432 -0.57497114 -0.5693271 -0.57076156 0.3701985 0.44625202 -0.7022004 0.43077278 -0.6817107 -0.39173022 0.77078855 0.114640325 0.3079254 1.7073412 -0.07544319 -1.4857498 -1.2993511 0.6529794 0.071856305 -0.91171545 0.17777838 0.446151 -1.5093124 -0.8722882 0.9443541 -0.8527914 -0.1344501 -1.1427368 1.7251217 0.25222108 -0.018818898 -1.4309306 0.2665595 -0.28449523 0.84642327 -0.030943956 1.0068791 -0.45800415 0.23414886 0.4640329 -0.31573573 0.35883066 0.37051463 0.4210993 -0.48800027 -1.7014326 -0.04999864 1.5861237 -0.107201576 0.4293145 -1.2000644 0.59045416
37 0.9270952 -0.34584618 1.3001381 -0.17409316 0.94464594 -0.33616206 -0.628456 0.542296 -0.37789842 -0.22001186 -0.31025282 -0.82781094 0.1571874 -0.7276433 1.0020844 -0.38435355 1.2214609 1.9387343 0.12646858 0.2984854 -1.4951613 -0.48265535 -0.32462955 -0.31418374 1.8701844 -1.8040428 -0.53380126 1.7626708 0.28116944 1.8170044 -1.2758449 0.21913032 0.82392853 -0.18444686 0.20756659 -2.0221326 -0.5285553 -1.2666891 1.4286256 0.51354945 0.0027453732 -1.0773954 -0.0468812 -0.63188404 -0.4959388 -1.0880404 0.4859511 0.6341959 -0.3285562 1.5678426 0.24187936 -0.97386163 0.16764417 -0.8604497 -0.020016605 -0.1324035 -0.96177834 0.3375547 0.4544191 0.6625237 -0.8342698 0.51852906 -0.7323097 -0.95919997 -0.19787541 1.6855031 0.08699856 -0.2340545 0.8710348 0.6190472 0.6977705 1.506418 -0.69215435 -1.0024731 -0.39033198 -2.0443692 -0.50530875 -0.39857686 -0.19390813 -0.35874176 0.29418802 1.1023172 -0.81079555 -0.4130198 -0.6166463 -0.44785663 0.6517332 0.6181108 0.43876234 1.4378163 0.13450244 -1.2959772 -1.4300057 0.9413036 -0.09987139 -1.4278014 0.82590085 0.5792998 -0.86192524 -0.4843897 0.7159572 -1.1121117 0.08858968 -0.6898377 1.4246632 0.4856433 0.40075576 -2.408511 -0.20448403 0.21233258 0.7343848 0.0042776866 0.75305104 -0.5022632 0.83770126 -0.141647 -0.36794227 -0.35543296 0.10133937 -0.14061445 -0.23489742 -0.7775508 0.6649343 1.2355548 0.75956583 0.8343323 -1.6644866 0.20694776
133 -0.42003152 -0.5626309 -1.536975 0.41959777 2.3810434 2.2675574 1.5624413 -0.9170184 1.1240164 -2.7186275 -0.59909624 0.6428598 -1.1081336 -0.8695776 1.2933164 -0.16026682 0.22041203 -1.3082378 1.6346523 0.13895501 1.2828848 -1.0323758 -0.19165774 1.3227032 -1.902058 -0.49785656 0.8740348 0.42676345 -1.3151181 -0.9758285 1.3379269 -0.97414994 -1.9559532 -0.28705236 -0.078057945 1.4938761 -0.59372634 -0.12674968 -1.6650852 0.024215544 1.7920926 0.5364413 0.45313302 0.7612104 -1.0805373 0.3998942 1.9195198 -0.46186402 1.3500992 -1.2103827 -1.2693167 0.8409301 -0.83560646 -0.28778118 2.054371 -1.2292167 0.24868092 -0.10707388 -0.8413512 1.0577931 1.2593341 -2.1967075 -1.1189481 2.0512578 2.442649 -2.4580536 0.36319152 -1.6823404 -1.6993551 0.34686467 -1.0430598 -1.3672881 1.4674139 -0.1268179 -1.2890794 2.1719213 -0.43721154 0.8163503 1.0381266 1.1769332 0.25879577 -0.7012796 -0.14376359 -0.25305748 1.0346421 -1.292943 -1.3784379 -0.04382227 -1.7879012 -0.4056699 -1.826071 1.5869757 1.4943447 2.4346845 -1.8419611 -0.3162135 -0.3251483 1.0789618 0.956706 0.9143784 0.90612173 1.4727668 1.457366 -2.291471 -1.1695837 -1.2324787 -0.16340871 1.4037293 3.593649 -0.9615265 -1.1962707 0.14646384 -0.4245187 -0.14939277 -0.9689168 0.78398186 0.82060415 1.9759179 1.1847364 1.0463238 -0.4151879 0.06475883 1.8262513 -0.6567385 0.60765296 -0.50951177 1.0330786 1.0405875
5 0.17289169 -0.23518029 0.8655214 -0.032511503 1.294865 0.33552414 -0.4160818 0.6573225 -0.23909508 -0.94537866 -0.32359716 -0.669043 0.36754477 -0.60128695 1.2649308 -0.7500299 1.847397 1.9328879 0.27067035 0.53783035 -1.781537 -1.3740153 0.061514113 -0.3827242 1.9425901 -1.7226679 0.058671646 2.0008032 0.4069102 1.3762466 -0.79068357 0.39560887 1.1325002 -0.10148326 0.30343053 -2.3586302 -0.63689965 -1.4956735 1.0175772 0.780662 0.21722504 -1.1164206 0.2830681 0.10550352 0.13023329 -0.6739822 0.4239568 0.31894833 -0.27310714 1.6762848 0.20832683 -0.5845878 0.4182291 -0.28006262 -0.18826574 -0.11178254 -0.59033406 0.6377139 0.3183992 -0.029668443 -0.49093097 0.27058673 -0.69345844 -1.1358249 -0.18524536 1.3792158 0.19765969 -0.058619436 1.0078973 0.97246563 0.77693874 1.0658891 -0.50685465 -0.7343732 -0.55243033 -1.9511606 -0.8381196 0.11535799 -0.69878364 -0.29392856 -0.23548593 0.022366239 -0.52559096 -0.04922754 -0.3063336 -0.5020613 0.84978 0.6185279 0.25204927 1.2165394 0.055033013 -1.2388966 -1.4320207 0.7764077 -0.47984764 -0.91015935 0.29397756 0.41955167 -0.7598049 -0.18390541 1.2388575 -1.1242282 0.2812538 -1.1854352 1.2111751 0.23585038 0.47108617 -1.5595607 0.39686 0.082466505 0.42148358 0.52949685 0.65080315 -0.7018404 1.3435111 -0.34331793 -0.1977783 -0.3665831 0.020877874 -0.09339737 -0.37173855 -0.8525557 0.5274539 1.1571037 0.36625713 0.6084581 -1.2648332 0.52293396
402 -0.079251565 -0.9842479 1.1647954 0.23384155 1.3576688 -0.32413512 -0.52490693 -0.124204025 -0.67587966 -0.01385112 0.19072197 -0.74974126 0.24572933 -0.9662755 1.1802949 0.03130288 1.9567729 1.8855679 0.23896717 0.18609269 -1.426128 -0.9694701 -0.13677388 -0.53588885 1.7189252 -1.3280276 -0.3396343 2.4878871 -0.05275559 1.6732788 -0.8416635 0.55151 0.6407263 0.07048118 0.1465964 -1.83262 -0.40577525 -0.7886069 0.93245244 0.17254367 0.116221145 -1.1511363 0.33164865 -0.008906336 0.009254926 -0.21975411 0.80956656 0.027566187 -0.16506222 1.5784338 -0.25909978 -0.76075995 -0.12143719 -0.05931071 -0.31545144 -0.14047974 -0.80013764 0.6979833 0.0154191805 0.22779778 -0.61688375 -0.40555432 -0.41680795 -1.0041236 -0.12962176 1.7870903 0.11972432 -0.39217508 0.9237166 0.48635188 1.0361538 1.2777417 -0.5172167 -1.1819235 -0.42142218 -2.0904267 -0.90166706 -0.708425 -0.20266813 -0.275087 0.8860064 0.67397654 -0.65929145 -0.11551614 -1.5646962 -0.039948437 0.11336454 0.08314487 0.5819206 0.8564939 0.28289947 -1.2033378 -1.3399088 0.29520312 -1.0955478 -1.3032697 0.6376177 0.6609396 -1.0978404 -0.5267429 0.70283 -0.58536685 0.45044595 -1.4271238 0.4172788 0.28727615 -0.72141486 -0.806423 0.21389732 0.2687415 0.286707 -0.2331564 0.37415808 -0.36155748 0.5095794 0.1789734 -0.422716 0.047687568 0.15567753 -0.053519692 -0.33047387 -1.2676898 0.7620411 1.2293615 0.38283902 1.0382671 -1.0828544 0.3965582
14 -0.26875523 -0.7419043 -0.7157437 1.6633725 -2.4102995 -1.0935005 0.09953387 0.8698169 -0.3343146 -0.06201913 -1.6722069 -1.4333358 1.0035112 0.2923809 -0.75030035 -1.1961963 -0.69514024 -1.8437364 -0.3927532 0.61467725 1.930272 0.7638256 -0.7071946 0.8345172 0.40261707 0.52639765 -0.6951792 -0.31662464 -0.5627851 -1.4004662 -0.8854122 -0.5819416 2.2136426 -0.684367 -0.53732896 -0.8392565 -1.1618558 0.12530598 1.7169442 0.59307486 0.6020866 -2.1739676 1.2070142 1.0478841 -0.08842045 0.3483184 0.32749927 0.06291602 -1.3307925 -0.5061458 1.1206962 -0.7096348 0.69936085 -0.116730556 -0.7215844 -2.194248 -0.1750021 -0.83672607 -0.11168496 -0.5894293 -0.05235109 2.4283786 0.16494496 2.8611443 -0.22744043 1.1766161 -1.7925037 2.507159 -0.25394735 -1.4619642 -0.9278539 -2.252414 -0.23748249 1.7877047 0.5394213 -0.5671636 1.6505398 -1.8486198 -1.8493775 0.28706306 -0.78347963 0.4422612 -0.022153238 -3.78953 0.06895802 -1.6586123 0.9695336 1.3254219 2.3172648 -2.06303 1.2833449 -1.5246954 -1.429145 0.582911 -1.0172018 -1.1385738 0.025363918 -0.9517111 1.2301229 0.4039624 -0.3951203 -3.0940652 0.41929734 1.4603918 -2.9137647 2.1799273 -0.91588473 0.16553178 -1.6632732 -0.15901648 -2.0908964 -0.52323395 -1.9435174 2.2008343 0.7224446 -1.3307279 0.77844346 -0.6054607 -1.1402454 -0.85213274 -0.044559658 -0.45197818 -3.3413832 -1.0260862 -0.36667374 0.2088229 1.8299693 -1.3825682
134 -2.7877483 -1.2431257 1.4947631 2.2105958 -0.4523618 0.63956934 -0.37887755 -1.2998729 -1.0929161 0.12666957 2.0554962 2.2336872 0.7288174 1.2864405 -2.1894548 1.1418554 -0.72348034 -0.95804423 -2.2672107 0.98626345 -1.8304006 -0.6812202 1.2251093 -0.98168623 0.71251976 2.0601413 -0.39341962 3.410643 0.80713505 -1.5241622 0.11189722 2.1913788 1.3476489 2.6358807 0.0087012695 -1.5124723 1.696541 1.0641083 -0.2688556 -1.3357348 -0.9760949 0.58459014 0.6995269 -0.9560179 2.848649 -0.40292487 -1.7285295 1.3253589 -2.319023 0.030397344 0.3223603 -2.2061012 -0.6007965 2.805435 0.36395085 0.522167 -1.6196792 -0.4630087 -1.9434401 -0.24752313 0.35085773 -1.6144204 -0.30649263 -0.9188376 -2.2125936 2.759221 -0.9529174 2.3800595 -1.990714 -0.51046187 0.5302421 0.53104115 0.34453517 0.61410713 0.5936146 -1.1051724 0.87478364 0.17202413 0.58085114 2.0337007 0.07271443 -1.0715945 1.6008443 0.002231659 0.6531169 0.6892028 0.53395873 1.4916775 -1.1455948 -0.43599638 -0.64716583 -1.085335 -0.22720411 -2.234285 0.19619566 0.18836117 1.4721527 -0.2390061 0.29177013 0.78251296 -0.23735781 -1.8555576 -1.9488424 0.8447882 -1.5519738 0.9041997 -1.5736444 -0.3561238 -1.0492904 1.8866806 -1.0248492 1.0678872 -0.11903326 -0.754694 -0.6509378 -0.77312243 0.88870823 -1.8267276 -0.9256894 -0.07601816 0.18156467 1.4784319 1.3817208 1.0134547 -2.2215705 -0.50659525 -1.4089583 -1.2264843
159 -0.46094948 0.941205 -1.0520446 0.36533913 0.36903885 2.9220853 0.4247293 1.238285 0.3655473 -0.5176328 -1.3910441 -0.5829994 0.016029334 -0.44147462 0.90940315 0.52908564 -2.2608368 0.035775375 -0.4761684 -0.37515113 -1.4936417 -0.6164152 -1.7073798 -1.3216552 -0.9991791 0.10166914 1.1811068 -0.45956132 -0.6371808 -0.69777864 0.74542075 -1.148934 -3.5296643 0.21143779 -0.24541104 0.5361506 -2.4376857 0.86075324 -2.8645623 -1.3729746 -0.8214943 1.5900058 0.28227517 0.18108211 -1.2822217 2.2427142 1.5195317 -0.33151433 0.99802727 1.7673577 -0.46049315 1.7077119 0.83239216 -0.25165564 1.4238254 -0.17447858 0.63173693 0.55999434 -2.0221565 2.610487 -1.090673 0.43182218 -0.8750899 0.8282589 0.6735565 0.8377072 2.9911456 -0.45614892 0.5313633 -1.474667 -1.8820804 0.5357867 -0.4829169 -1.9299589 0.21336411 -1.3421061 -2.7686636 1.578858 0.0147717865 -0.5990893 0.7315244 0.4577746 -0.6826009 0.18455549 -0.018237086 -0.18511692 -1.4307626 1.2301849 -0.8962254 -2.0590878 1.2735767 1.8374237 2.1942573 2.406428 0.16639641 1.2208142 -0.9717548 0.10623951 0.8733289 -2.0325172 0.15920536 3.8485134 -0.09949165 -0.11474793 2.253181 -0.3446443 0.16573009 0.66467214 0.95259625 -1.4675181 2.10151 0.835866 -0.92454016 -0.12616852 -0.2555939 -1.0155853 0.036088444 -0.24931684 -0.7486478 -1.1479839 -0.5010155 1.8344809 0.9348849 -1.216017 1.0666898 -1.6481048 1.0360459 0.9414962
121 0.20950174 -0.4753443 1.1174712 0.18387885 1.0911353 -0.33076262 -0.6520039 0.25028917 -0.64579177 -0.06432866 -0.2494644 -1.0639751 0.9299944 -0.25027585 0.8107024 -0.3296882 1.8344764 1.7298185 0.51380485 0.16297688 -1.6606848 -0.98873866 -0.16012041 -0.11344729 1.8968097 -1.5149816 -0.36669284 1.9850755 -0.28759655 1.9916103 -0.9870538 0.5299837 1.4020938 -0.16578612 0.26537883 -1.8876184 -0.31267715 -1.0104418 1.0574343 0.5027419 -0.24895316 -1.2368273 0.7440406 -0.35706282 0.38211775 -0.7403122 0.6538168 0.20703657 -0.37176758 1.7683469 -0.09015568 -0.81386703 0.39265773 -0.29241398 0.05402743 -0.041265655 -0.6791279 0.61225 0.20943706 0.10432688 -0.62396353 0.14430393 -0.69104075 -0.93240064 -0.76111364 1.720122 0.60182846 0.16611442 0.795937 0.1832623 1.1185135 1.0832033 -0.99026304 -1.2307326 -0.18965445 -2.2276356 -1.1753546 -0.641757 -0.033872847 -0.35205817 0.26734075 0.74657106 -0.3784089 -0.49479243 -1.581251 -0.36035848 0.75993496 0.66315365 0.7878714 1.2165543 0.011995544 -1.2368276 -1.5750443 0.42754617 -0.7469799 -1.080296 0.38721418 0.5826647 -1.5266248 -0.407931 0.38607824 -0.8645557 -0.03968669 -1.2655977 0.46211794 0.54283136 0.16094622 -0.8802734 0.16474077 0.45585704 0.4427655 -0.12600234 0.3080523 -0.4035931 0.7377826 0.003013259 -0.23519553 -0.07130732 -0.040453136 0.235712 -0.54994655 -1.3208308 0.49605665 1.0519884 0.26900244 0.8144561 -1.4394244 -0.023152635
320 -0.13910928 -0.048129655 -0.65609556 -0.5968876 2.3833306 1.6200006 0.16126566 0.62393874 1.1021049 -1.6149179 -0.19773328 0.26491588 -1.2962643 -0.13904278 0.31536555 -1.202235 2.2683113 0.5164354 1.7546151 -1.5028269 -1.6574727 1.2923996 0.87279135 2.1904902 -1.8167974 -1.4848483 2.6321204 -0.70281607 -2.5552604 0.62987274 2.5402212 -0.33734322 -2.925455 -0.22245222 0.08629982 0.46595427 0.41918683 0.55606955 -0.93252015 -3.0422769 -0.06164494 -0.74567056 0.3162032 -0.85937876 -0.19624345 -0.837715 0.70250875 0.96134716 0.31214353 -0.21027145 -1.3181071 0.19379272 -0.1068104 -0.5493519 1.6522797 -0.24217086 0.8264404 -0.59720737 1.3112012 0.22448677 1.4561402 0.3388927 -0.50229335 1.3457623 0.5399865 -1.5654417 0.8171362 -0.8708967 0.2310748 1.5219998 -0.784489 0.8094 1.3201963 0.53518164 -0.0048733316 3.8788488 0.7098151 0.7567602 2.6977484 -1.6354182 0.57472265 1.1327986 0.04119503 -0.65177846 -0.3650814 -0.41394335 -0.8032594 0.82914543 -3.1371496 -0.85897183 0.03423885 0.57395995 -0.44690508 0.7177802 -2.4861333 0.8155379 0.46261004 -0.026222905 -0.34508738 0.28746572 -0.41414845 2.351577 -0.38820657 -1.0880678 0.096172795 -0.052049685 0.36110494 -0.6680969 1.137972 0.73417014 -0.9880798 2.388431 -0.13923734 0.5682447 -2.7861679 -1.1038208 0.4291705 0.6952856 -0.20594932 1.6948727 -0.71510684 0.42871636 0.6349263 0.4495327 -0.51619613 2.4844718 1.5813255 1.3371011
53 0.554073 1.2057663 -0.13328111 -1.5095738 -1.3007951 -0.9204538 -1.3957276 -0.5708372 0.36453703 0.89746493 -1.2122666 -0.23238355 -0.61881226 2.6203012 -1.2119831 0.35780492 0.6828022 0.6711898 1.0459912 -1.5479059 0.69694155 -0.42955422 0.58118653 0.7335093 0.35259622 -0.20830905 1.4310973 -1.3049573 -0.57423985 -0.30839407 0.45921808 -1.9197222 -0.032569416 0.22919343 1.0213581 -0.42080075 -0.22699131 -0.5673429 1.6113604 0.43523654 1.2958632 0.27371988 -0.19681261 0.055567864 -0.7936348 -1.1800514 -0.76781934 -0.47192234 3.0120106 0.39109755 0.5795113 0.43512034 1.023053 0.12083539 0.7924838 0.20253135 -0.986722 -0.9998915 0.10510057 -0.43179992 0.9516187 -1.3666817 -0.45301318 -0.47923338 -1.1764947 -1.7196563 0.09565296 -0.29613075 -0.120922886 0.73698336 1.1313753 -0.113480434 0.885892 0.44764686 0.3154052 -0.23535009 -0.25809595 1.0149245 0.36981097 -0.5284026 1.4306178 1.4301611 0.7962341 -1.1582791 -0.6771449 0.20196614 -1.3510201 -1.2809801 0.6269732 1.1865234 2.4182074 0.77921605 1.2802818 0.17162235 0.9360848 -1.6183354 1.9679551 0.5386837 0.46398115 -1.0260776 1.0211724 0.23548128 -0.023959244 -0.2251359 0.22917296 0.182768 0.1171055 1.4475662 -1.2272884 -0.0072948313 0.11851949 -0.50421214 -0.26454797 -1.5964609 1.9170344 0.074450575 -1.2919123 1.5253794 -0.85754037 -0.107388176 0.9012373 1.5275846 0.55293566 -0.7490488 2.1083684 2.3126285 0.6318657 -0.3926373
103 -0.31004062 -0.75859684 -1.2707874 -0.53668195 1.4093577 2.1618648 -0.2572107 -0.38039097 1.2220434 -2.0178964 -0.46620485 1.3297933 -3.5321128 0.5237624 -0.5083813 -1.9438938 -0.49203813 -0.72809446 1.8253698 -0.43274844 0.40776795 0.15353407 -1.4122437 0.98207265 -2.37107 -0.96090144 2.4622169 -0.4315159 -0.26109725 -0.58438355 2.8043628 -1.8854649 -0.11260863 -0.34375733 -1.101067 -0.576663 -1.5652329 -0.5339822 -2.1191247 -0.6036153 1.5474148 -1.0183841 -2.2526336 1.6610639 -0.007251419 0.8546793 0.47435978 -0.6340784 -1.0269866 -1.2755675 -0.2239028 0.4447289 -0.9113329 -1.5209558 -0.31899804 0.069872685 -1.2897577 -0.018001247 0.6699886 0.17254972 -0.90955025 -0.7350986 0.4026979 0.8604592 0.94899875 -1.9894027 0.0004574206 -2.0322316 -1.5495465 1.7916225 -1.1227148 -0.7098302 1.098155 -0.1819106 -1.5275834 3.356115 -0.20758006 1.2315551 0.025657404 1.1320918 0.041738264 0.447947 -1.0077094 0.18639416 1.5696974 -1.2365673 -1.0074716 -0.6784973 -3.6033487 -1.6842303 -0.4562186 0.85755736 0.6473521 0.49796715 -1.9225492 -1.3042936 -0.70436066 -0.31045982 0.32856378 -0.5788328 0.5151561 1.0680201 0.17187242 -1.8192649 -0.48703486 -2.241672 1.7455792 1.2986909 2.311506 0.074270085 -1.7098013 0.5352243 0.7376083 -0.29837498 -2.7475634 1.9794673 -0.81984544 1.3375334 2.5873945 1.6076367 -0.5719375 -0.17132893 1.5303507 -0.23200494 0.08156602 -0.58566713 1.4454483 -0.2705685
394 0.40430853 0.1247118 0.22437753 -0.02311791 0.91210073 0.41483185 -0.18051322 0.21939836 -0.06394464 -0.12182305 -0.13570568 -0.64976513 0.49474674 -0.8070392 0.6295295 -0.0756347 1.9678475 1.6302809 0.33720976 0.51248735 -2.0642798 -1.2600737 -0.29673797 -0.12030168 2.20398 -1.5738643 0.29005936 1.574482 -0.04570985 1.5863688 -0.81351143 0.37364346 1.4427493 0.37662566 0.103150606 -2.3459241 -1.0409739 -1.4303514 0.8594002 0.09941722 -0.06277835 -1.0636096 -0.25740394 -0.5210572 -0.047895223 -0.52527416 1.0854822 0.26806507 0.068682864 1.0888771 -0.00052249356 -0.268279 -0.39251482 -0.51685077 -0.36214125 0.43313497 -1.0537497 0.85171014 0.21990372 0.45895708 -0.83392197 -0.07988779 -0.6097069 -0.8355159 -0.19251172 2.2154205 0.15071504 -0.45946702 0.57494706 0.8527689 0.80036986 1.55848 -0.593935 -0.7048612 -0.29180878 -1.7438219 -0.5046058 -0.7384045 -0.23761806 -0.5139583 0.20809747 0.5008243 -0.20152353 0.78062564 -0.35102588 0.63740605 1.1827952 0.5150666 0.5226878 1.8914697 -0.41547045 -1.9394505 -1.8774309 0.39371538 -0.3347167 -0.6264958 0.48436326 0.40815538 -1.1478337 -0.87355614 0.1679361 -0.7326319 0.014805084 -0.38639343 0.9911537 0.2747008 0.18224198 -1.4862294 0.052156672 -0.14584935 0.8734652 0.27142552 0.29460964 -0.5717749 0.7662842 -0.3629045 -0.40364367 -0.49316004 0.16791555 -0.37583882 -0.66873795 -1.0390949 0.9605357 1.2190772 0.14393039 0.6320658 -1.8595979 -0.21981984
410 0.88531697 -1.0862302 1.0918975 0.35694364 0.9346495 -0.39163396 -0.34580812 0.59178746 -0.08193845 -0.008965714 0.032406207 -0.7164246 0.82169604 -0.5779743 1.4767565 -0.16928229 1.2508086 1.6832327 0.59963644 -0.13433115 -1.5509231 -0.6148547 -0.15476175 -0.2570594 1.841047 -2.0930257 -0.0133282915 1.8613579 0.10030668 1.2128111 -0.5959368 0.022952355 0.9463393 0.08657589 -0.116809376 -1.6551694 -0.20134884 -0.74340755 1.4071196 0.3866708 0.20119262 -1.5466679 -0.0054509654 -0.24271065 -0.3066818 -0.5807974 0.17462593 0.42167053 -0.18641537 1.2641765 0.65055 -1.1393857 0.13316339 -0.46614045 -0.3980551 0.21305422 -0.654583 0.5217314 -0.16689035 0.8448177 -0.7271643 -0.1139677 -1.0625012 -1.1421307 -0.23059595 1.5689831 0.6248451 -0.0046400605 0.6006883 0.6365034 0.6689056 1.3304455 -0.86269426 -0.4322279 0.33040833 -2.5468264 -1.0190268 -0.46817818 -0.33522388 -0.56648463 0.26556733 0.64222664 -0.6652216 -0.37493038 -1.1449791 0.014811581 0.93241304 0.18944153 0.6695227 1.6640592 -0.035210006 -1.0323966 -2.2131493 0.6730602 -0.6536325 -1.6093898 0.33853483 -0.028149625 -1.5367657 -0.16596171 0.48408797 -1.1543565 -0.30856198 -1.2279667 0.7289573 0.098502606 -0.5740782 -1.7933239 0.17632635 0.25398546 0.92912817 0.16596876 0.49098852 -0.58422333 0.4274868 -0.28690934 0.19961017 -0.07900296 -0.14487496 0.4209815 -0.32735413 -1.002006 0.52003217 0.9130848 0.71303725 0.9509667 -1.134235 0.6313509
279 1.0465999 0.24658877 -1.4801487 0.30496934 0.05553333 2.8829594 1.8071641 0.5417791 1.9573587 -3.109307 -1.7049209 -1.49589 0.075168654 -0.85843456 0.5362969 0.111729495 -1.3855646 0.9244842 -0.18329269 0.82131577 -1.0642133 -0.738476 -0.76601213 0.5726781 -0.5014712 -1.234439 4.34416 -0.883879 -0.9636824 -1.0525327 1.3697742 -0.08987997 -3.8057404 0.10432144 -0.15272865 1.5400983 -1.9328095 1.066241 -2.498514 -2.69429 0.89906096 -0.36707905 0.45996624 1.049294 -0.66750914 1.3379222 0.7376155 0.053438757 0.08619875 0.7041814 -0.77363396 1.1833943 0.7058678 0.81078297 -0.106257826 -0.2261668 1.0969121 0.4515687 -0.2035818 0.14652501 -0.7309073 -1.3653625 0.33485615 0.22575454 0.5922567 1.1697305 1.2927984 -2.0605175 0.8690018 -0.8597099 -3.0684898 0.6414235 1.9231272 0.61905515 -0.3207634 1.1271938 0.0022980706 -0.035465408 0.9278331 -1.3623761 1.0748332 -0.80687195 0.10634642 -1.072981 0.57049525 -3.4316955 -1.3267025 1.0597795 -1.949088 0.0060221865 -0.057333685 0.2118448 -0.61221105 -1.3108934 -1.4400483 0.92878693 -0.89371365 -0.18004617 0.9497267 -0.364929 1.9199523 4.465024 2.2353444 -1.2934911 0.23294598 -0.4336991 -1.3012923 1.2108175 0.1771946 -2.0717657 1.6495255 -0.35406512 -0.80473983 1.196608 1.766562 1.0801226 0.98957586 -0.18974973 -0.2341779 0.46653652 -0.5025462 0.5101789 1.589203 -1.1087633 3.2574065 -1.8801918 1.9609222 0.5129479
115 1.811237 -0.7006912 -0.16884883 -1.0057498 -1.0000987 -2.109295 1.7661893 0.80235523 0.67818576 0.25222313 -1.3222518 -2.3595898 2.1311872 -0.24374273 -0.9453951 -0.4357891 -0.0074350904 -1.3238237 -0.015981322 0.7028697 0.4199348 2.3138556 1.7165165 -0.71060044 -0.20859666 0.59515715 1.6364455 -1.3831913 -0.23450382 0.45793492 1.9854217 -1.9567616 0.5127274 -2.4575772 -0.7828147 0.33663857 -0.5716575 1.454704 0.32387972 -0.66938156 0.9862045 -3.1755726 -0.69009036 0.21350004 -0.0235869 0.32056648 -0.3964418 -0.36796144 -0.21061195 -2.0068626 -0.7947247 0.58834857 -0.05175281 -3.0137312 -2.1206758 -1.0328999 1.0533822 -0.51798654 2.6580853 -4.2618494 0.39624465 0.123919025 -0.89792806 1.8738872 -1.0888517 0.62150437 -0.9966073 -0.79230267 0.21510345 -0.98499686 0.9826644 0.3025735 1.4779527 1.4939198 0.4915113 0.011933222 0.28171217 -0.39448217 1.0978639 -1.2656144 1.6726665 0.3896249 -0.16194095 -1.5467551 0.75100833 -1.3247117 -0.18996245 -0.5988268 -0.4615745 -0.77696353 1.2281784 1.2894393 -0.35373595 -0.19113944 0.014321129 0.6331899 -1.7326403 -0.15331899 -0.72246534 0.95351267 2.082884 0.29035497 -0.55437 -2.0424008 -0.55849034 0.72432226 -0.37233707 1.3790183 -2.8221667 0.42318192 2.523468 0.9127954 -3.6829705 1.5974516 2.259935 -0.78521746 -0.3442733 -0.7753854 -0.038784634 -0.079322055 1.2496519 0.5334953 -0.4137498 -0.7487972 -0.12154896 -0.33108288 0.7734306 -0.22243434
248 0.20171238 -1.1866478 0.669127 0.20558581 1.3075268 -0.07975112 -0.56886184 0.76869583 -0.35771576 -0.062445883 0.4553386 -0.79913944 0.17289141 -0.98392147 1.482857 -0.24724226 1.8224924 1.7932078 0.22743964 0.46360257 -1.5819422 -0.9256867 -0.06320099 -1.0128504 2.0677235 -1.5009727 -0.51005554 1.7425386 0.28753954 1.3369551 -0.754895 0.20275584 0.88190556 -0.37763476 0.43839628 -2.5330598 -0.5658578 -1.0939344 1.6304379 0.47476605 0.039395284 -1.2088066 -0.20167585 0.08028177 -0.4814347 -0.83050925 0.6101152 -0.23917551 -0.4267072 0.94687384 0.9814302 -1.2472994 -0.15387903 -0.66831136 -0.025110725 -0.537689 -0.5517355 0.44091552 0.68739 0.29335982 -0.4492893 -0.24202022 -0.7924948 -0.85112727 -0.026280073 1.164529 -0.33055866 -0.08168381 1.0623276 0.98427165 0.64099014 1.0299844 -0.39076388 -1.0027032 -0.628097 -2.585309 -0.6848838 -0.4753464 -0.8321893 -0.66191804 0.25034675 0.6249569 -0.70484525 0.21775809 -0.43305844 -0.27252737 0.41078472 0.23166 0.36135828 1.4053286 0.15025477 -1.1159338 -1.4290704 1.2595947 0.28662753 -1.397787 0.16013564 0.1582692 -0.50505334 -0.43670422 0.8033647 -0.8856886 -0.26685265 -1.3267514 1.2096066 0.144406 -0.113021865 -1.6129471 -0.04972211 -0.57511646 0.15240566 0.59441614 0.7020663 -0.5209081 0.9145132 -0.028693845 -0.038081557 -0.111592606 0.3352786 -0.13221821 -0.36835068 -1.3133951 -0.07440875 1.0211967 0.18769383 1.3566755 -1.2323368 0.36719498
312 -1.0629922 -2.2981997 -0.9645397 2.6144898 -3.3685968 -1.2120005 -1.0223421 0.63009346 -0.5866463 -1.8696649 -1.2893283 -2.2137275 1.3674233 -0.14757071 0.7137655 -2.238082 2.641201 -1.6253775 -1.0074284 1.3551325 0.2910636 1.1458718 -0.07533181 -0.972246 1.3732905 1.2570727 -0.0452867 0.97222626 -1.0761571 0.93940914 -1.4783005 0.8061096 2.76795 -2.137512 1.0070571 -0.5756648 -1.6588498 -0.5088301 -0.81220084 1.0305502 -0.49488196 -1.5451084 2.8520172 1.2846836 1.7999555 0.77015275 0.2861088 -0.17573988 -1.7966754 -0.56214094 0.8050962 -0.07819915 1.394228 0.722428 0.7142152 -2.0338652 1.1301522 -0.018735178 0.6484653 0.093068846 0.10514514 1.6367389 0.5869184 0.7011429 -0.2820315 1.2879162 -0.93455416 0.7148933 -0.8137431 1.4666138 0.45901266 -0.41121662 2.0561197 0.3977346 0.634015 0.91478086 2.1154852 -1.7892402 -0.91945046 -0.010633084 -0.51111776 1.3081509 -0.5985277 -2.230872 -1.1008291 0.026373425 0.21346447 1.4856411 2.207869 -0.66806215 0.22721969 -2.16416 -0.815969 1.1407422 -0.7217426 -1.5625769 -0.05448793 -1.0857512 -0.10131405 0.3601581 -0.8474986 -1.9098982 1.2256364 1.8470191 -1.5492191 2.756914 -1.6396425 -0.18337683 -0.72832876 0.12255999 -3.1669781 -1.5268397 -0.6194926 1.9913619 0.39650655 -0.64663035 0.7074767 -0.589121 -1.1770527 -0.8842036 0.66465807 0.6961218 -2.2072113 -1.9422005 1.8557222 0.7946276 0.46708903 -1.1558148
216 0.46000692 0.89742714 -1.2059648 -0.103705965 -0.50609136 -0.7485153 -1.4127429 -1.2169738 -1.0204988 -0.68732435 -0.11686092 0.75856227 0.7803059 0.22317336 0.39751795 -1.253948 1.4597797 0.503881 -2.6893606 1.4473759 0.7026247 0.45392758 0.91373575 0.47488675 0.98787373 1.7860944 -0.41101056 -0.5214837 1.6993701 2.500617 -2.5096176 0.72341985 1.7334145 0.18526657 0.013416087 -1.8924832 1.5786668 -0.36069414 -0.19502088 0.124975294 0.20210639 -2.524001 2.2525027 0.61017334 1.3963073 -0.4095418 0.91577077 1.1110868 -1.3466625 0.28380972 -0.5275829 0.1113336 1.5894276 1.5496 0.275328 -0.15920283 1.5977702 -0.46471992 1.3316128 0.013589073 -0.41440064 1.2551706 -0.32432094 -1.6630073 -2.31202 -0.028998032 -1.9408165 1.1454747 -0.90256137 0.32023528 1.0525568 -2.0661926 -0.39524657 -0.07235197 0.6480592 1.4915233 1.8553622 0.6795586 -1.3021852 -0.8842257 -3.0913484 -1.0643334 0.37603724 -1.9965734 1.9252517 -1.3586224 1.3406655 2.6096327 2.060069 -0.10795558 -0.7182649 -1.1285825 -1.3380206 -0.39828837 0.085325904 1.0061706 0.1890184 0.7133164 0.92434543 0.9863536 -0.5119607 -1.0971347 0.37355372 3.0153368 0.082837865 1.103362 0.84107095 -1.6084496 -1.435339 1.8461769 -1.2270998 -0.38409385 1.1831678 0.22182174 0.67211235 0.30735534 -0.35789096 -1.3836025 -0.3516343 -2.7901034 -0.4145318 1.0274683 0.49007714 -1.0247012 1.9478164 1.1151557 -1.3389366 0.88472086
440 0.52756006 1.1541755 0.41406578 -1.5033526 -1.8849636 -0.59205747 -2.2267938 -0.8950763 0.6639588 0.44368452 -1.1762457 0.10943047 0.5198774 2.063861 -1.516837 0.5879511 0.09819408 1.1908119 1.4427106 -1.6640553 0.6532859 -0.6391204 0.38124606 0.46060595 0.48684594 -1.0556483 1.3357806 -0.33006114 -0.057724454 -0.3792671 -0.31703025 -1.9971541 1.006071 0.44541204 0.0954026 -0.052943937 -0.31841138 -0.8403982 1.6563658 -0.41546896 1.2048562 0.7891336 -0.5180672 -0.62511367 -0.18413666 -0.5920019 0.03911189 -0.58076745 3.0754123 0.42459103 0.673695 0.32283515 0.053497486 0.12501784 1.4525554 0.44308153 -1.6311554 -0.24619877 -0.20103648 0.7558845 0.5528096 -1.4033674 -1.5271902 -0.047700033 -0.8634469 -0.5076998 0.75701284 -0.8033568 0.114721075 0.7696894 0.65219635 -0.15361926 0.7335838 0.09087128 -0.042047452 -0.55482 -0.038974613 0.20686883 0.590503 -0.28577647 1.392173 1.3511896 0.35754865 -0.4487644 -0.6009738 0.48190522 -1.1797168 -1.8160132 0.96605194 0.99201924 1.6592299 0.63262653 1.2406538 -0.12092154 1.1099402 -1.7540876 2.515721 0.5709025 0.21312623 -0.44537815 0.86400276 0.20094956 0.14091156 -0.14803948 0.36297995 0.7651245 -0.043798797 -0.23712398 -1.0112357 0.107117824 0.28732258 0.28982732 -0.09415262 -2.1623635 0.75114405 -0.23456362 -0.8194903 0.8187283 -1.4330765 -0.16290593 0.3943716 1.1600965 0.6537179 -0.71851504 1.9604276 2.0473561 0.019303963 -0.66573745
98 0.2692027 1.2867227 -1.394601 -1.2654253 0.14790852 1.9079846 -1.5912439 -0.51752746 1.8883357 -1.687408 -0.563434 1.59399 -1.9482427 0.6930547 -1.3322222 -2.4306164 -0.85641354 -0.4045226 1.8979312 -0.5335634 0.12093146 0.40690652 -0.46014497 2.4713771 -0.79234296 -0.93286556 0.78114235 -0.34867284 -0.7242171 1.5499554 2.3474324 -1.6559707 -0.3918354 -1.1993988 -0.005405579 -1.2373374 -0.07637079 -0.4608328 -1.902914 -0.2742423 0.21576878 -0.45412776 0.09018015 0.4904982 -1.14482 -0.69901294 -0.61588615 -0.008364199 -0.89851093 -1.0846447 -0.37364513 -1.2165792 -0.5418865 0.10149541 0.052867956 -0.031368922 -1.1504656 -0.84486336 0.93298316 0.9117952 -0.047186095 0.13965054 -0.9343798 0.23937835 1.026955 -2.455984 0.8172315 -2.5594494 -1.5407987 0.99004304 -0.77679366 -1.3449234 0.643939 -0.041170657 -0.9842941 3.430954 0.72882676 0.47182155 1.2116995 -0.076457106 0.9036427 0.7626493 0.3901826 -0.32681316 0.16321518 -0.88490725 -1.0106115 -1.1056865 -1.8914195 -0.99229324 -0.30709317 1.611995 -0.6204645 0.51284784 -2.5953631 -2.0930662 -0.8730007 -0.04808148 0.31708044 -0.5130131 0.61785144 1.745257 -0.91809684 -1.390009 -1.2519433 -2.201983 2.1317043 0.89458376 0.5619227 0.6429237 -1.271158 -0.9049576 0.8504434 -0.0292432 -2.315499 2.418892 0.33582357 1.8905268 1.3435597 0.34446737 -0.23256876 -0.38399255 0.9844461 0.04690497 0.64371216 0.976383 0.7818247 -0.7956809
302 0.41949427 -1.050883 0.6933606 -0.012930845 0.6651631 -0.4291166 -0.5820958 0.67358834 -0.2512435 0.16388604 0.3861397 -0.855728 0.6206169 -0.9335016 1.1715344 0.40952018 1.3281357 1.928572 0.2257809 0.16342008 -1.7024606 -0.38728002 0.2098124 -0.38381824 2.0867212 -1.2985551 0.3735144 1.6117976 0.13316785 1.3427753 -1.0498098 0.4000279 1.2022359 0.15374666 0.0012906106 -1.5529364 -0.6818348 -0.81226766 0.9593925 -0.16187929 0.0097974865 -1.5407201 -0.20292948 -0.5584889 -0.6315378 -0.15466374 0.99942416 0.06529288 -0.078784555 1.3765084 0.055599898 -0.8112299 0.45660093 -0.5302331 0.15199143 0.05740135 -0.3167328 0.4454046 0.7931188 0.2459112 -0.55235386 -0.04502878 -0.19506186 -0.65106374 -0.3739651 1.8645134 0.37019974 0.105715364 0.7973012 0.42625958 0.616491 1.8238609 -0.64959985 -1.1946942 -0.31297314 -2.0205166 -0.4812697 -0.92848337 -0.22578084 -0.8591328 0.74816227 1.1340272 -0.7680991 -0.06810316 -1.2527515 0.13780476 0.5056366 0.09847496 0.24630417 1.3293221 0.27293432 -0.99705714 -1.3827926 0.92262423 -0.44561806 -0.9553279 0.21897657 0.5338566 -1.4382696 -0.86789507 0.40112826 -0.660978 -0.0862264 -1.0003787 1.010673 0.6670712 0.05110451 -0.777975 -0.06289171 -0.14933002 0.59494764 0.3023888 0.87790906 -0.37258404 0.6403106 -0.20980237 -0.12232766 -0.23015092 0.20245764 0.39125705 -0.8056057 -1.6145192 0.38652816 1.1329638 0.3960022 1.2179856 -1.4491321 -0.027150612
390 0.84705263 0.8567088 -2.6106658 0.28559625 1.6356714 1.7735677 -0.4328106 -0.5403195 1.1143979 -0.12793982 1.0363735 -0.17464285 -0.2672619 -0.4038636 -0.004728521 -2.1270192 0.36338535 -0.9968112 1.83461 0.16758265 -0.82380235 0.700781 -0.73052967 1.3579757 -2.0557241 -0.7768575 3.3418326 0.08738024 -3.013882 1.3083953 2.0551686 0.31438783 -0.7572722 -1.38355 -0.23913425 -0.12992302 -0.48395458 -0.62047136 -1.2919611 -1.4928801 -1.0911552 -0.60286707 -1.2329794 -1.4130135 -0.009888802 -1.0725659 1.0040904 0.112185016 -0.53311604 0.35885096 -0.6607737 0.31151256 -1.8822851 -1.847723 1.0333426 0.003363477 1.2570214 -0.4969216 0.9351351 1.3520598 1.1944312 0.68169093 -1.0158858 1.5677521 1.3510497 -0.8223424 1.3069522 -1.0801845 -1.1843159 0.21687914 -1.5292495 -0.45509967 0.39185038 0.016377753 0.17369364 3.250787 0.7791584 -0.8325093 2.5803854 -1.3128114 0.07508231 0.86798865 0.6996067 -0.9534299 -0.34967196 0.10296197 0.08455183 -0.35949135 -4.162912 -1.2398071 -1.7220609 2.585854 -0.75104874 0.30486798 -2.7372491 0.4888237 -0.8441116 1.2627997 -0.57861686 -1.0793715 1.3473649 2.3585827 -0.053267736 -0.46443978 -0.9800908 -0.6762029 1.1045504 -1.4099002 0.47152835 0.768157 -2.5513885 1.8217236 -0.33317798 -0.022004886 -2.766052 -0.77223945 0.89752805 -0.9379367 -0.637187 1.2527236 0.2352949 1.0327629 1.1062526 -0.9364138 0.5167425 1.7870108 -0.057061356 0.9902438
128 -0.16300203 1.4824597 0.2420878 -1.4810473 -1.626549 -0.45795083 -1.7864643 -1.1368502 0.1951958 1.106553 -0.5680166 -0.015547667 0.14092322 2.5143924 -1.6776801 1.1236036 0.9101494 1.324128 1.321086 -2.2298062 0.37255624 -0.95157725 0.21011125 0.6310931 0.9891451 -0.7590125 0.7269421 -0.70746785 -0.101935335 -0.8088003 -0.4978626 -1.588145 0.54957813 0.62812304 0.78414255 0.041267402 0.2285359 -0.6348431 1.170715 -0.0675311 0.7350555 1.3634975 -0.13251358 -0.19203429 -0.11551558 -0.9975852 -0.43403688 -0.32439932 2.6233423 0.97559476 0.9135322 1.1292504 0.65021664 0.16700633 1.4238794 0.58681035 -1.2512953 -0.83367723 -1.1219049 0.64490163 0.6078231 -1.3369217 -0.8425494 -1.2392188 -0.6720934 -0.9718525 1.185816 -0.63782287 0.20871732 1.0435647 1.186238 0.9561062 0.43389145 -0.15955642 0.0103015 -0.7024226 -0.7671837 0.96421206 1.008833 0.14230105 1.0170319 1.0558603 0.45108318 -0.5168195 -0.390176 0.86874264 -0.93263966 -1.4310842 0.3327716 1.5889975 1.6596613 0.6404743 1.402721 -0.19045353 1.6459253 -0.99750745 2.2431748 0.81286854 -0.08577177 -0.48293605 1.0350244 0.84371233 0.04377251 0.27324274 0.3647008 -0.44093186 0.054052483 -0.06741267 -0.8720756 -0.23368345 1.1453102 0.16592008 0.040052444 -2.3090823 1.8366729 0.11983241 -0.6123564 0.8644675 -1.5506915 -0.2692832 0.3616837 1.3715553 0.3117899 -0.9765245 1.7266321 1.8124465 -0.30637172 -0.3344838
194 -1.068223 -0.3878885 0.8206577 -0.59342754 -1.1625383 -0.6276211 -0.11661196 -1.6396353 -2.2143056 -0.7106333 -0.5939851 2.8037877 1.5804893 0.14059092 -0.045734588 -0.498282 1.4602755 1.6808345 -0.8784197 0.40673405 0.90707165 -0.7249856 1.5012449 1.6297301 2.6219778 0.57141703 -0.1733075 0.6695494 1.4104011 0.5679759 -1.0820976 0.9636844 1.6174794 0.8303085 0.46402088 -2.5224407 0.71355003 -1.3959172 -0.00035495355 0.503878 1.7113329 -2.164361 0.99744105 0.42206484 -0.5841733 -0.119969636 1.5044544 0.05497482 -0.9647749 1.2113254 -0.67823654 -0.040492006 0.86493975 0.13837789 -0.30823067 1.5340651 -0.41841257 -0.3212888 0.25295365 -1.6280003 0.12794654 0.8501957 0.023476336 -0.64249116 -1.9699144 1.7698245 -1.1038939 1.7630274 0.62682205 -0.40671945 1.0213639 -0.36557624 -0.13361679 0.4647076 0.059966102 0.49205992 0.67549443 -0.3624812 -1.8579801 -1.4589474 -2.0362756 -1.3336818 0.15372407 -2.5476866 -0.24963076 0.2060034 1.076562 2.279731 1.1524062 -1.0936273 0.32012865 -0.421639 0.0064647235 -0.059741005 -0.3095832 0.6274775 0.30604163 1.1950525 1.4494011 0.4802327 -0.1341579 -2.496836 0.16554797 1.5083181 -0.9607596 1.46463 -0.33268023 0.9061533 -0.52962416 1.6223239 -1.7894689 -1.374778 -0.4533223 -0.27058625 2.0199795 -0.23887753 -0.99578154 -0.9892175 -1.084986 -2.3953393 -0.39015505 1.3789763 0.6154634 -0.88092566 1.0158422 2.0827422 -0.5880439 0.4559314
