39 128
39 0.070248716 0.03708864 0.23136564 -0.07420893 -0.023018198 -0.26141903 0.010388196 0.106125034 0.053488426 0.026581818 0.30745953 -0.029973747 -0.032580383 -0.093713626 0.0042171413 -0.05248996 0.10599769 0.10716702 -0.116101876 -0.011622866 0.1918628 0.16988441 0.093196094 -0.044512063 -0.16459872 0.04721722 -0.17470147 0.080146745 0.021692082 0.05884924 -0.23460734 0.06830471 -0.12987448 0.07176105 -0.07175112 0.034999467 0.24907489 0.058086053 0.28693664 -0.047958896 -0.06623547 0.16607895 0.001738644 -0.08201918 -0.0054153963 -0.023311308 0.010364112 -0.084623605 -0.08153612 0.06484424 0.105910845 -0.05167678 0.124126 0.115761265 0.16971387 0.084500365 0.11625008 0.0244739 -0.16737019 0.07281228 0.04476032 -0.075185634 -0.03940501 -0.07311939 0.22354393 -0.11598174 0.036225963 0.0455287 -0.02365267 -0.12950023 0.07665015 -0.03498454 -0.19956681 -0.12247246 -0.071500264 -0.1675979 0.07022847 -0.025326896 -0.0623926 0.25198978 0.021365663 -0.09494665 0.073324785 0.24540284 0.052104384 0.10397525 0.20739847 -0.18048845 0.09095887 0.15716131 -0.15361954 -0.1388079 -0.10407389 -0.01283643 0.24958807 -0.0639955 -0.22753362 -0.27336755 0.019933064 -0.089577965 -0.32880506 -0.053519934 0.07351806 0.11119494 0.003926419 -0.1204264 0.026480632 -0.17311275 -0.003999472 -0.15386295 0.025922738 -0.059434462 0.020763833 0.1520625 -0.07792542 0.026731757 -0.03182042 0.18131939 0.10980285 0.019483324 -0.08508298 -0.098561294 0.041232653 0.027031342 -0.035280358 -0.1564148 -0.06983675 -0.004917099
36 0.11656842 0.18004633 0.34361237 -0.17060137 -0.039996285 -0.3948648 0.16426823 0.09066784 -0.07848323 0.12992804 0.38686758 -0.16943146 0.05804703 -0.018209975 0.14569135 -0.11446112 0.17951725 0.17939061 0.096017465 0.084435016 0.06477806 0.15058118 -0.0053563663 0.13874649 -0.14832516 0.116240785 -0.0012838955 0.29117033 0.1612722 -0.061728697 -0.16141771 0.14457974 -0.062002804 -0.0026157966 -0.25108325 -0.20229308 0.16197693 0.19923176 -0.002962625 -0.12817585 -0.004162223 0.2532677 -0.056990307 -0.0481456 0.1140635 0.049393818 0.05843877 -0.19604445 -0.054495875 0.22000664 0.082421266 0.10021973 0.09657852 0.03890386 0.043428462 -0.026320903 0.22624373 0.0537233 -0.16069236 -0.111288376 0.18157597 -0.098101385 0.068133175 -0.184825 0.34169942 -0.26603952 -0.18527137 -0.19896124 0.18742126 -0.16780767 0.121448085 0.0827615 -0.24837558 0.0031142377 -0.012601419 -0.17146201 -0.014724733 0.061551876 -0.2229289 0.2969833 -0.10421498 -0.08939209 -0.025786327 -0.02999439 0.1141254 0.21041046 0.17095216 -0.32631883 0.071821705 0.37674603 -0.34302008 -0.123840585 -0.11317129 0.12499597 -0.017990706 0.08355142 -0.09070838 -0.34709474 0.07091313 0.025416432 -0.38195625 -0.06694535 -0.008429645 -0.117427126 -0.05015402 -0.08740518 -0.16650301 -0.13109352 -0.15156451 0.013025571 0.18558691 -0.103495926 0.07933798 0.10648557 -0.10120421 -0.06126709 0.07197062 0.08469684 0.028499562 0.060911193 -0.114515826 -0.269548 -0.117119245 0.016906777 -0.015383306 -0.3277754 -0.31545055 0.1004155
8 0.046243154 -0.22322401 0.102216795 0.041758116 0.013815526 -0.14374906 -0.15077884 0.041345716 0.17625849 -0.0586595 0.2892854 0.12236198 -0.10568479 -0.10778512 -0.100033626 -0.03103376 -0.049450643 0.06829459 -0.3489155 -0.18137059 0.25338507 0.15262845 0.2478183 -0.15485276 -0.16105488 0.03497636 -0.30417645 -0.13618618 -0.05188102 0.014629592 -0.40820587 0.03164433 -0.07864811 0.15398 0.14321451 0.285409 0.39198384 -0.05560351 0.5866631 0.067501254 -0.029349623 0.06880917 0.06583623 -0.22676799 -0.13217403 -0.08784936 -0.05574903 -0.062451877 -0.01009614 -0.022613073 0.109957874 -0.233142 0.2177001 0.26390767 0.25743687 0.10802006 -0.028449627 -0.0819759 -0.24815255 0.28242725 0.008521974 -0.062810816 -0.025616348 0.17716216 -0.023827566 0.031969365 0.2448315 0.36122677 -0.24472818 -0.117508955 0.13803291 -0.08644273 -0.08640645 -0.2582257 -0.07568139 -0.15819092 0.021458881 -0.11256041 0.010966117 0.24061427 0.15849978 -0.1838618 0.1953968 0.5493264 -0.022221236 -0.009911381 0.27041906 -0.008679933 0.12294896 0.045442577 0.07893437 -0.10090268 -0.06041527 -0.12386003 0.47842786 -0.18219402 -0.37056452 -0.2675026 0.0072884946 -0.20624037 -0.16666979 -0.016072934 0.124891184 0.27138826 0.0664577 -0.18114983 0.2397295 -0.030887114 0.23027262 -0.26828542 -0.13112757 0.04703743 0.04049015 0.14775392 -0.10769054 0.04287906 -0.13430434 0.34131792 0.20717627 0.046819657 -0.036593776 0.09699404 0.123601444 0.10129305 0.04800065 0.014321309 0.13240865 -0.045804672
35 0.0047092396 0.07108171 0.23851413 -0.051751256 0.019857274 -0.20656726 -0.12250364 0.18617615 0.1956233 -0.06296536 0.30649582 0.116724305 -0.15814887 -0.2694731 -0.15876728 0.042287633 0.019991932 -0.034254566 -0.24455251 0.05375308 0.300627 0.21059363 0.03630572 -0.31613097 -0.27986795 -0.12871262 -0.3635373 -0.12612808 -0.3232826 0.4509701 -0.09404172 -0.16970965 -0.3794861 0.2139432 0.08998454 0.2544651 0.20567396 -0.0062785945 0.63129264 0.03692518 -0.27058074 0.09925183 0.12543623 0.086512655 -0.11910659 -0.0756406 0.06853793 0.14272901 -0.25048342 -0.15960738 0.16905682 -0.1452157 0.085229054 0.061189648 0.25479147 0.29263058 0.031752795 0.051909644 -0.03774394 0.21141356 -0.14196657 -0.07890785 -0.32317796 -0.12954296 0.32788387 -0.069203325 0.15809111 0.20547998 -0.23076439 -0.114551134 -0.08543285 -0.32875448 -0.22605951 -0.26594695 -0.2693525 -0.26090467 0.26341325 -0.1481595 0.17014213 0.38068485 0.12380676 -0.020027671 0.15542498 0.52979726 -0.04906856 -0.042394992 0.2553413 -0.09212192 0.19438383 -0.23816526 -0.04903075 -0.2477822 -0.166409 -0.13863724 0.4813098 -0.29416752 -0.32559088 -0.083549716 -0.09720945 -0.30564764 -0.46865427 -0.14777055 0.18233076 0.36601853 -0.1613119 -0.06344811 0.24522682 -0.43488184 0.00065712875 -0.33566996 -0.13020098 -0.02643837 -0.07199611 0.23843668 -0.047074806 0.11460825 -0.164755 0.18814354 0.20961867 -0.12661584 -0.13507922 0.08279419 0.24929284 0.05631072 -0.290845 -0.07782009 0.26837462 -0.21836917
22 0.055237047 -0.3438873 0.096008584 -0.025424916 0.015162373 -0.1716836 -0.12978221 -0.06526101 0.08880398 -0.020190991 0.338493 -0.0008514394 -0.091733836 -0.04993447 -0.030470079 -0.19209439 0.07537987 0.18253802 -0.1885613 -0.36340377 0.11204702 0.17378576 0.27423474 -0.0016865444 -0.028176477 0.1727203 -0.10100424 -0.057269197 0.21079078 -0.20870368 -0.47837597 0.22742815 0.0240436 0.15299535 -0.02429716 0.20279738 0.4166441 0.0055665094 0.36689466 -0.0451435 0.06915548 0.0829528 -0.05679999 -0.3007924 -0.022408595 -0.16811717 -0.12776802 -0.31080198 0.069997236 0.13331346 0.15748851 -0.17982595 0.15760784 0.34305933 0.09322981 -0.03721918 -0.041647457 -0.17572401 -0.30832386 0.18354484 0.25285774 -0.050573107 0.1942175 0.15724681 -0.05575654 0.026612647 0.11308565 0.28515816 -0.09188702 -0.1869138 0.22546212 -0.00063881115 -0.13949348 -0.16993393 0.023405083 -0.080415696 -0.12114098 0.029413598 -0.13834976 0.1711117 0.01836206 -0.15813167 0.16962236 0.2518632 0.07900612 0.058794774 0.26234388 -0.18194468 -0.01187481 0.30862218 -0.056186352 0.01792284 -0.048372217 -0.09915546 0.4245806 0.02695841 -0.26325047 -0.46709162 0.09489459 -0.12385524 -0.015563774 0.045440692 -0.022302821 0.047084317 0.20874439 -0.21851653 -0.017588528 0.07099494 0.2412837 -0.110439904 -0.003226581 0.07049828 0.18993656 0.19454853 -0.10445088 -0.027075134 -0.118218906 0.26474386 0.16118594 0.16831389 0.05530091 -0.023852358 -0.04519888 0.11627 0.22736156 -0.06946616 -0.09270204 0.12539355
38 0.10136935 -0.40148434 0.09720415 0.042451754 0.0041716406 -0.16067879 -0.11190203 -0.108388305 0.07776178 -0.022645531 0.34499323 -0.03229169 -0.03333333 0.034428094 -0.020164624 -0.2105942 0.015173625 0.20349829 -0.25898808 -0.41058296 0.091580465 0.14352314 0.3583139 0.064374834 -0.026005942 0.23306665 -0.09412144 -0.0206088 0.2654678 -0.3757375 -0.58928066 0.3131321 0.13906804 0.11294697 0.0048924605 0.14249107 0.49609607 0.02678688 0.33544675 -0.02009312 0.15830937 0.10030622 -0.07059881 -0.42101213 -0.030147253 -0.14062147 -0.14070927 -0.3670567 0.16473813 0.21698438 0.099300064 -0.18663168 0.20286886 0.39558253 0.09135672 -0.13547298 -0.0072156345 -0.22050735 -0.40723905 0.20064396 0.30353466 -0.07335837 0.313973 0.26171136 -0.1923728 0.026559018 0.11066344 0.3059368 -0.075664446 -0.16863157 0.30601624 0.13790084 -0.06660944 -0.15859948 0.11859969 -0.056900494 -0.1886539 0.032945193 -0.24230927 0.100584574 0.03361402 -0.21412107 0.19121163 0.23737097 0.06356052 0.10814253 0.25742865 -0.10875391 -0.04257256 0.46201488 -0.013561205 0.06389055 -0.017270114 -0.063697204 0.3521638 0.056938253 -0.2781408 -0.52611196 0.12433228 -0.058793824 0.06591937 0.063743815 -0.028204573 0.0084905075 0.26929972 -0.2791586 -0.019279882 0.2613412 0.31509462 -0.07123477 0.00089842104 0.07805158 0.24105324 0.13397919 -0.13616203 -0.045893624 -0.08607365 0.33952695 0.14464407 0.22547694 0.0880159 -0.04753823 -0.078792594 0.12848885 0.37335992 -0.03293106 -0.17817453 0.20627883
1 -0.027172754 -0.08941978 0.1136115 -0.09584979 0.07799147 -0.109450914 -0.19285807 0.16650155 0.2235692 -0.074889556 0.24086276 0.071046956 -0.31398895 -0.31505203 -0.21665789 0.0013110817 0.12659591 -0.03851285 -0.18688604 -0.035711136 0.3047469 0.2471024 0.02910262 -0.39200446 -0.19674926 -0.1321761 -0.31813508 -0.23927386 -0.21189168 0.48149985 -0.05846861 -0.116320886 -0.45238376 0.29100168 0.014386557 0.38327712 0.23659964 -0.04550603 0.6697953 -0.025890779 -0.27590355 0.025751352 0.088467896 0.08555824 -0.07205664 -0.1858925 0.002411113 0.06362976 -0.35092482 -0.21292616 0.24671951 -0.1564801 0.034178045 0.113854006 0.21872067 0.3281237 -0.029391373 0.03918368 0.045933794 0.12967454 -0.06774168 -0.07690517 -0.28095442 -0.17194648 0.36151817 0.05636595 0.17821343 0.28846848 -0.31021947 -0.16180222 -0.12993602 -0.44353715 -0.30308396 -0.21204422 -0.2986947 -0.2285889 0.22627322 -0.055799816 0.23316784 0.329388 0.1039267 0.055185996 0.09112264 0.34979698 0.054053634 -0.09041565 0.2925973 -0.14492641 0.11954931 -0.2516972 -0.04611761 -0.18770024 -0.20097938 -0.29064345 0.60654885 -0.2116673 -0.2623353 -0.10966747 -0.10572433 -0.3259968 -0.31325924 -0.048883095 0.06490821 0.29308358 -0.031220071 0.0017776425 0.091331854 -0.5175182 0.0041814987 -0.35165706 -0.17211004 0.05728386 -0.055039693 0.270065 0.07622317 0.12304328 -0.20752607 0.12725583 0.21255182 -0.1436915 -0.063367866 0.10921401 0.18340942 0.06100974 -0.2570377 -0.005445727 0.39116764 -0.1658576
2 0.060532555 0.027219571 0.23602243 -0.06776914 -0.0017283236 -0.2583716 -0.06264652 0.13441885 0.12102643 -0.009614818 0.32572165 0.039301287 -0.08706346 -0.1542839 -0.038168095 -0.01811572 0.0486012 0.06438733 -0.19953085 0.014174601 0.24112172 0.17358257 0.10307858 -0.14020869 -0.22629714 0.0037799173 -0.26386154 -0.012428154 -0.092487045 0.17226519 -0.24735586 -0.0060048867 -0.1995725 0.12301896 0.024462346 0.14205253 0.26039097 0.041868467 0.4425 0.00037314073 -0.12713933 0.14150858 0.051784363 -0.04925894 -0.051868837 -0.037413135 0.022578957 -0.010101344 -0.13156685 0.0025287976 0.11857804 -0.09983198 0.16773525 0.13821149 0.21559218 0.16953921 0.07796122 0.052681357 -0.15139306 0.14405441 -0.03826659 -0.074158154 -0.11107162 -0.053359814 0.23492035 -0.08138172 0.107613176 0.1361638 -0.13006751 -0.13855238 0.04775603 -0.14234954 -0.19419813 -0.19918302 -0.14112815 -0.2090153 0.0995332 -0.08994117 0.0053295316 0.31505665 0.0895389 -0.11680123 0.12322608 0.4089733 0.009910331 0.03389763 0.24623351 -0.12539926 0.14099652 0.017341748 -0.10001408 -0.18072611 -0.11152594 -0.056344483 0.33570865 -0.15119702 -0.2825118 -0.20259032 -0.00067451707 -0.20259401 -0.3785678 -0.087668285 0.11671952 0.22716957 -0.04738208 -0.11208096 0.15002036 -0.2345738 0.011779631 -0.24035022 -0.052735537 -0.027805919 -0.015530978 0.16103987 -0.088289656 0.033187296 -0.07712622 0.20836607 0.16675374 -0.0056917053 -0.10577969 -0.025434868 0.11928588 0.047139276 -0.10659215 -0.12189867 0.077931516 -0.07987008
7 0.012841151 0.09858388 0.24039881 -0.060083114 0.032999676 -0.22055508 -0.10882338 0.20954815 0.19704497 -0.0464383 0.3182135 0.115799986 -0.17040604 -0.2557818 -0.13908887 0.05458274 0.016546996 -0.0374656 -0.26054147 0.08782822 0.29916993 0.19809264 0.027249308 -0.30558303 -0.30388632 -0.13339546 -0.37602335 -0.120572574 -0.329682 0.45322704 -0.1114005 -0.16951196 -0.36845204 0.19514282 0.09880714 0.253094 0.20013665 0.0042600725 0.6352082 0.037596334 -0.2768598 0.12134595 0.12058921 0.08011512 -0.11666276 -0.07078627 0.06766557 0.16624668 -0.25963822 -0.13089785 0.16426815 -0.11937093 0.13552481 0.05028403 0.26815814 0.30886286 0.061768457 0.08786868 -0.03186123 0.22047807 -0.17468493 -0.07362605 -0.32975796 -0.122240454 0.3442061 -0.07227111 0.16270752 0.2005814 -0.24966528 -0.11113294 -0.074319884 -0.31656632 -0.21162364 -0.27600715 -0.27306283 -0.2861627 0.25425097 -0.14532073 0.15096927 0.41361442 0.1398319 -0.056714058 0.14622566 0.55415314 -0.057140023 -0.057583075 0.2843723 -0.08319844 0.20891798 -0.22946087 -0.04539363 -0.2708056 -0.16289924 -0.14384812 0.45056748 -0.3063322 -0.33214363 -0.079645194 -0.09288379 -0.32310602 -0.4917483 -0.15578079 0.16163267 0.37883648 -0.1539544 -0.05979088 0.260452 -0.42664653 -0.013905803 -0.3382728 -0.12284276 -0.020622972 -0.09484904 0.21608135 -0.070708394 0.093013786 -0.15392235 0.19256024 0.22241811 -0.10028891 -0.14453997 0.07113849 0.26003024 0.052364737 -0.28793216 -0.07041601 0.28157818 -0.22323507
19 0.12260744 0.11920538 0.26802376 -0.10547922 -0.011782478 -0.322218 0.113242246 0.084578514 -0.0357314 0.0757947 0.33574256 -0.15242057 0.017894333 -0.0061476217 0.133472 -0.08878237 0.1201087 0.14165874 0.01167311 0.07107891 0.078837514 0.14819518 0.021302657 0.10261311 -0.1642045 0.11452521 -0.035221606 0.20960455 0.11097031 -0.023809502 -0.2043653 0.121081576 -0.04063877 0.018908484 -0.18423496 -0.14511238 0.17503537 0.17099898 0.070895106 -0.09354252 -0.043345626 0.22287999 -0.027918516 -0.054305807 0.07338927 0.016275393 0.028867522 -0.15268227 -0.04763747 0.19174854 0.085401714 0.049918678 0.13282155 0.07997231 0.05247875 0.012069916 0.205126 0.038658317 -0.18009149 -0.06707763 0.13089481 -0.09796526 0.060461238 -0.14142781 0.26727 -0.1986911 -0.11927826 -0.12035852 0.115336336 -0.1302644 0.114504576 0.06519503 -0.20739393 -0.023762422 -0.020834714 -0.14169402 -0.021321705 0.05137925 -0.2002368 0.2524069 -0.05237954 -0.09922487 0.008699299 0.01669729 0.07291142 0.14041488 0.17121114 -0.23806615 0.056193527 0.31391037 -0.24949042 -0.11377506 -0.12226371 0.07322128 0.051536947 0.042373307 -0.12384009 -0.29624617 0.0732116 -0.037810843 -0.31758705 -0.08622845 -0.010464899 -0.0679638 -0.034810394 -0.08153256 -0.089661166 -0.09071337 -0.11343477 -0.03024084 0.1507786 -0.06222143 0.06728123 0.1001827 -0.07876103 -0.059794318 0.025890322 0.0932164 0.061855607 0.07315733 -0.08246318 -0.21706901 -0.0657639 0.036388148 0.022414133 -0.26281506 -0.22757249 0.08758726
12 0.050974865 0.084743075 0.23447737 -0.083460554 0.0024904402 -0.24366091 0.010353938 0.12230939 0.06969246 0.017935717 0.30068028 -0.042002536 -0.0694323 -0.13684025 -0.006725128 -0.029249549 0.09543093 0.06718667 -0.08711821 0.06145084 0.1592838 0.17241453 0.0057250955 -0.09218672 -0.21152835 -0.012930699 -0.18591994 0.024875151 -0.077425905 0.18177134 -0.13875729 -0.0047663464 -0.21558958 0.09502484 -0.054842614 0.0636496 0.19817713 0.08793234 0.32829195 -0.051070996 -0.12258478 0.15291944 0.038101297 0.010354881 0.0023965137 -0.022221552 0.033049755 -0.04764074 -0.15010747 0.028776793 0.12557977 -0.027934784 0.11775873 0.06466577 0.15798144 0.124608055 0.10294835 0.062060524 -0.096220165 0.04714817 0.013177336 -0.08531853 -0.103683494 -0.11308466 0.27863255 -0.13907261 -0.00087313575 0.03300109 -0.046357486 -0.12480187 0.021232719 -0.11119416 -0.22245222 -0.11479399 -0.1323306 -0.1903471 0.10143618 -0.02576574 -0.025176834 0.30764192 0.034022592 -0.052798226 0.08040286 0.23893982 0.048137236 0.054326706 0.21784191 -0.16753487 0.12266647 0.06334549 -0.16473399 -0.16760518 -0.16191314 -0.029834097 0.2565792 -0.08870554 -0.20591241 -0.18440765 -0.012123025 -0.15877493 -0.34523597 -0.099728934 0.063585 0.12571687 -0.06678085 -0.05630717 0.050511755 -0.24082673 -0.051626455 -0.1752818 0.022066899 -0.020301234 0.007956539 0.15938142 -0.063845284 0.016995419 -0.057115324 0.121816844 0.11594253 0.0024959254 -0.081852905 -0.060135525 0.065219566 0.038280398 -0.09996604 -0.16323087 0.030350883 -0.035855513
15 0.14177011 0.1563413 0.32794625 -0.16780487 -0.043242462 -0.4004375 0.20778888 0.06129597 -0.1427266 0.14592598 0.3679503 -0.26403204 0.0697323 0.04948028 0.20461479 -0.16059408 0.20339361 0.20550995 0.15136893 0.07226242 0.006618993 0.14093994 -0.042541523 0.22712907 -0.11750823 0.14444537 0.07608173 0.3331055 0.25344586 -0.15754668 -0.18266903 0.22458044 0.017492808 -0.048578918 -0.30128556 -0.27108535 0.14968427 0.24644239 -0.14395745 -0.1621197 0.042003892 0.2747131 -0.083270185 -0.045279805 0.15572804 0.04511362 0.031122627 -0.27252573 -0.0025497745 0.31555665 0.08852753 0.17263241 0.100297555 0.01767146 -0.032847185 -0.08316762 0.2643758 0.050235007 -0.17354296 -0.17648661 0.27036068 -0.11045737 0.15626252 -0.20616297 0.31494516 -0.2779963 -0.2669538 -0.26724887 0.2667441 -0.15776314 0.15644687 0.1487544 -0.25316542 0.06454683 0.053196955 -0.14423841 -0.09149695 0.11276809 -0.28746083 0.256243 -0.13546318 -0.102540426 -0.04225546 -0.18178779 0.15643607 0.24833241 0.16136232 -0.35819766 0.016807819 0.49549618 -0.38143083 -0.063788116 -0.11383474 0.16702934 -0.1066631 0.18697473 -0.039503083 -0.40682298 0.0834182 0.068759836 -0.3185639 -0.038702358 -0.09006326 -0.23127028 9.606163e-05 -0.071924664 -0.25919223 -0.060563445 -0.180566 0.0901365 0.26110575 -0.088084295 0.12901407 0.0776133 -0.092508286 -0.121195294 0.10469281 0.04966832 -0.009440754 0.11711985 -0.07697316 -0.3284717 -0.19765213 0.009952242 0.07864064 -0.3306916 -0.39257437 0.19086799
33 0.13907987 -0.23461132 0.15339616 -0.008103494 0.012892965 -0.255795 -0.02865483 -0.028794166 0.045156173 0.03940348 0.3566619 -0.094691575 0.00044424075 0.00083839585 0.05832432 -0.17831495 0.093237 0.22889164 -0.15724118 -0.24463072 0.107953645 0.16000997 0.26072285 0.10904925 -0.069647245 0.20773548 -0.07915296 0.09113573 0.2744577 -0.2860018 -0.5021713 0.29083505 0.10693241 0.0837053 -0.09801456 0.027570903 0.42196232 0.069001876 0.2563728 -0.037815005 0.10072433 0.15397754 -0.07340101 -0.3322731 -0.0014302437 -0.09035937 -0.08969658 -0.3287273 0.07106816 0.24473533 0.097534485 -0.12232426 0.21919014 0.33390304 0.09529626 -0.09322547 0.0763288 -0.13668756 -0.38433805 0.11920139 0.26308087 -0.06702148 0.2671153 0.1315194 -0.015328475 -0.09179586 0.04066379 0.1553437 0.0039650653 -0.16584729 0.26539204 0.15018225 -0.14452778 -0.107471585 0.070220366 -0.123840354 -0.16904902 0.05768814 -0.2775178 0.18526311 -0.014195704 -0.20717452 0.12155215 0.16957134 0.113234416 0.16058455 0.25685805 -0.19187081 -0.0018846156 0.4879828 -0.12723936 -0.02031085 -0.06827588 -0.0034464854 0.2788624 0.058389734 -0.23891737 -0.5243805 0.13270228 -0.05182478 -0.0889325 -6.871704e-05 -0.038646787 -0.04548469 0.17364423 -0.25525942 -0.06485889 0.14641157 0.1765925 -0.059867326 0.06004143 0.014820645 0.19404224 0.15227117 -0.14467074 -0.06922287 -0.039760634 0.27413234 0.11761223 0.20305784 0.011358499 -0.15382168 -0.09793923 0.108282864 0.28120324 -0.1483098 -0.22725102 0.19630218
23 0.06462767 -0.22678661 0.0988181 0.021761619 0.026532695 -0.15118714 -0.11869534 0.025070153 0.14449427 -0.049480032 0.2949752 0.033791073 -0.08929231 -0.10712774 -0.058420885 -0.09717749 0.024284871 0.10126449 -0.2749075 -0.2393889 0.187927 0.17600104 0.2299072 -0.10852982 -0.12027538 0.08282756 -0.20948195 -0.073984966 0.06500447 -0.015383043 -0.41293246 0.1320874 -0.0728618 0.15024783 0.043792475 0.21795204 0.37756208 -0.0083770165 0.47826782 0.009311117 -0.00403594 0.07680901 0.02020777 -0.21921137 -0.080050774 -0.12910111 -0.082451366 -0.1544506 -0.010688166 0.041133486 0.1406136 -0.21082558 0.18422534 0.28712964 0.18863069 0.050780788 -0.0028162766 -0.10008739 -0.27567753 0.20916039 0.088236436 -0.06393178 0.055792745 0.113836266 0.008774127 0.008074799 0.16398124 0.2923015 -0.17911144 -0.15140606 0.14569087 -0.056154992 -0.14670046 -0.19759451 -0.043485772 -0.145358 -0.005622077 -0.045679133 -0.057616614 0.20869175 0.08707733 -0.15356919 0.16089769 0.37524274 0.04092983 0.03302346 0.2701236 -0.08103835 0.06770482 0.16179843 -0.0010521327 -0.06716913 -0.067702964 -0.111029595 0.4382219 -0.09388148 -0.3019897 -0.34193423 0.035397504 -0.1697984 -0.1255755 -0.019292884 0.052394405 0.1716458 0.12173307 -0.20464754 0.10397495 -0.032211564 0.20362274 -0.19033146 -0.05343706 0.04701906 0.099853866 0.18602253 -0.08805329 0.033004858 -0.12493845 0.28558278 0.18329246 0.08231553 0.0065131495 0.023983063 0.068989 0.108358756 0.11790426 -0.039799746 0.043848425 0.022466509
32 0.13731563 -0.2669225 0.17597727 0.00038071335 0.00088392565 -0.2545534 -0.03073253 -0.062489994 0.06560489 0.0017561743 0.3633086 -0.07477526 -0.005741733 0.0026305616 0.055080995 -0.1708041 0.07498553 0.21603662 -0.19998436 -0.28686935 0.12900023 0.20349544 0.2898402 0.090783365 -0.08186781 0.23780303 -0.07839155 0.080631 0.2813815 -0.30768842 -0.5565272 0.28410107 0.10708074 0.095147 -0.092681825 0.08435916 0.46371382 0.06757386 0.2988223 -0.04370783 0.08789397 0.1587381 -0.06379672 -0.34788832 0.0022781787 -0.08867993 -0.09039355 -0.3594771 0.082066424 0.22893731 0.1298205 -0.11451741 0.21959852 0.35188475 0.08772333 -0.08672416 0.08834311 -0.14413387 -0.40552092 0.11161589 0.27062893 -0.08788201 0.27067393 0.15148911 -0.026295643 -0.0603118 0.06501521 0.19305627 -0.022772152 -0.17202869 0.30323058 0.1347924 -0.17209803 -0.11190827 0.089246534 -0.09999431 -0.17449355 0.039443824 -0.24891716 0.1825152 0.022892535 -0.21306975 0.16086893 0.20396224 0.08787904 0.15111221 0.24928053 -0.21059234 -0.013923767 0.46594703 -0.113944285 0.0111596575 -0.03455391 -0.01265744 0.3132331 0.06934122 -0.27097866 -0.54960126 0.13838348 -0.08286607 -0.07827051 0.02995206 -0.022481693 -0.014450619 0.20287202 -0.2602549 -0.038690258 0.14784835 0.20666423 -0.062393274 0.059278768 0.03839245 0.19021358 0.16088283 -0.12097496 -0.07492202 -0.042454895 0.28836802 0.13309172 0.20277037 0.04646809 -0.12569071 -0.085614085 0.11941001 0.30039272 -0.14920883 -0.2289666 0.189605
9 0.022044122 0.008292927 0.18696459 -0.015604371 -0.0066742143 -0.19399527 -0.11974835 0.13888055 0.19088323 -0.04672893 0.2879986 0.11614457 -0.12106384 -0.20279163 -0.12674047 0.05001695 -0.030237293 -0.00073499465 -0.2974509 -0.007752743 0.30547392 0.19210789 0.11524708 -0.23574601 -0.26649058 -0.0676829 -0.36539719 -0.123042695 -0.22358271 0.2912413 -0.24108814 -0.108664244 -0.27836087 0.155288 0.13685858 0.2704018 0.27064267 -0.016796643 0.6307005 0.04697642 -0.17423671 0.09376379 0.10824453 -0.029500337 -0.12504113 -0.044983108 0.018585794 0.091281414 -0.16977255 -0.10879208 0.12481108 -0.18080463 0.17871964 0.12784298 0.27974108 0.22849153 0.0229488 0.05109722 -0.13553353 0.24340178 -0.14052624 -0.06425487 -0.21605253 -0.0055748783 0.2034111 -0.042297244 0.18898034 0.24265352 -0.23607253 -0.12418079 0.00039933348 -0.2242603 -0.17430016 -0.26024944 -0.21350771 -0.24181226 0.16170514 -0.14530489 0.11573029 0.3516605 0.15652442 -0.11054914 0.16880244 0.59190345 -0.04290318 -0.038968865 0.26148567 -0.03901409 0.20093094 -0.1518964 0.013087933 -0.21165127 -0.1082579 -0.107386574 0.45372492 -0.27956963 -0.3544825 -0.11430363 -0.064895876 -0.26514193 -0.39385426 -0.10164243 0.1622906 0.3696478 -0.091576114 -0.11437195 0.28440356 -0.27169478 0.06519448 -0.32900512 -0.13515079 -0.029168414 -0.060366243 0.18299587 -0.09969184 0.08868577 -0.12389547 0.27370402 0.21721026 -0.057020295 -0.11592278 0.08860678 0.20064136 0.070428714 -0.17572019 -0.059797406 0.2226197 -0.17863075
13 0.02823351 0.10977511 0.23355502 -0.1091076 0.015135466 -0.2298475 -0.045602284 0.16946413 0.121821806 -0.00665912 0.27639416 0.017805 -0.12544398 -0.20395397 -0.058650717 0.0037699887 0.086410515 0.022143064 -0.1239736 0.08120765 0.24016719 0.19016585 -0.0061639007 -0.20025787 -0.24323076 -0.074073784 -0.25096872 -0.02875235 -0.16855325 0.3421412 -0.08716331 -0.090471335 -0.32010758 0.14557965 -0.020966943 0.1458018 0.15604687 0.0504354 0.43774706 -0.027415937 -0.20243444 0.12692387 0.06799117 0.082771406 -0.04126026 -0.03557553 0.058875576 0.046793878 -0.22658208 -0.08105799 0.14867634 -0.06542063 0.088611946 0.03818633 0.20167828 0.234297 0.0666078 0.092580475 -0.031958424 0.08386371 -0.06957342 -0.066016555 -0.2262426 -0.15669926 0.35874367 -0.106517784 0.060534008 0.075632446 -0.11904124 -0.1298298 -0.058728155 -0.23215386 -0.24806313 -0.16843988 -0.21601692 -0.21991222 0.18463491 -0.0615889 0.085220575 0.3467735 0.07317533 -0.019403419 0.083225526 0.32625693 0.03174062 -0.0025609387 0.22575043 -0.16731748 0.15289745 -0.11512615 -0.13497669 -0.21530774 -0.17051163 -0.08725598 0.3435495 -0.1766612 -0.23668337 -0.118800834 -0.061891418 -0.22451504 -0.41379592 -0.11142122 0.112328805 0.22852142 -0.12291377 -0.029315012 0.10784575 -0.39231354 -0.06092936 -0.24216366 -0.052724894 -0.0349634 -0.051884644 0.1943681 -0.041880835 0.07333658 -0.105513744 0.12195265 0.15898865 -0.07440106 -0.11857839 0.0034049887 0.14028367 0.04173292 -0.22857314 -0.13166459 0.15486512 -0.13975061
18 0.16204597 0.14692818 0.32726547 -0.09762975 -0.04522624 -0.39832348 0.23523317 0.03882935 -0.14684868 0.12492192 0.38171777 -0.25531697 0.08655783 0.08510634 0.23227651 -0.15849257 0.15457842 0.20488541 0.07340994 0.05887455 -0.0013333099 0.1557145 0.0005751944 0.25215012 -0.15380375 0.1800812 0.0656911 0.368567 0.24070695 -0.2185909 -0.26226074 0.23329492 0.062913924 -0.060445365 -0.27830592 -0.28891298 0.20072794 0.2678129 -0.08891309 -0.12174488 0.053124275 0.2959451 -0.06146973 -0.100295044 0.14294729 0.07634582 0.027484003 -0.2618369 0.03813451 0.35477066 0.05249123 0.14812222 0.1686064 0.06783267 -0.021545101 -0.10999643 0.27269003 0.01184843 -0.24232778 -0.13694999 0.28883323 -0.13471419 0.18640362 -0.12867744 0.2553689 -0.2890888 -0.27069366 -0.22995521 0.22907116 -0.16257551 0.2117025 0.1878452 -0.2230716 0.03422287 0.091427825 -0.14686127 -0.13108227 0.09486305 -0.33340898 0.26577353 -0.10690504 -0.14975666 -0.011416227 -0.122821465 0.10637627 0.24623863 0.17671004 -0.3052504 0.04452518 0.5396116 -0.3441504 -0.06758268 -0.09609612 0.19273728 -0.120916314 0.16879487 -0.07994244 -0.43186164 0.09811083 0.058362447 -0.32675326 -0.06655417 -0.06719494 -0.20534216 -0.0084532425 -0.10708672 -0.1923928 0.021374574 -0.13497232 0.084576346 0.26350477 -0.07293284 0.16080338 0.05613103 -0.10826774 -0.1416223 0.10989224 0.10567291 0.007702876 0.12423862 -0.06851547 -0.3138905 -0.18687625 0.055756554 0.12467233 -0.345874 -0.39414257 0.1910714
27 0.11337483 -0.0883606 0.2547068 -0.104673885 -0.012379819 -0.34832785 0.03628651 0.0001053765 -0.016834065 0.08358759 0.42680374 -0.11530328 0.027853234 -0.0038953754 0.11756517 -0.17848405 0.14884046 0.23195796 -0.04565163 -0.1566214 0.0754643 0.18727235 0.16343686 0.13624601 -0.09464558 0.19019756 -0.022590572 0.18153974 0.22791825 -0.23383592 -0.40034226 0.22613715 0.052734748 0.069702655 -0.17963159 -0.042536944 0.35016227 0.13663672 0.16236667 -0.10261729 0.056991655 0.1887705 -0.081486724 -0.2317326 0.056063227 -0.044423457 -0.022536177 -0.3133898 0.044289198 0.26714757 0.1000491 -0.012563695 0.17812729 0.24540767 0.07271968 -0.07513845 0.13277927 -0.065920405 -0.3169592 0.050479848 0.26376894 -0.07921082 0.21239328 -0.0130939 0.14712763 -0.1451286 -0.06178776 0.023548696 0.07632745 -0.19602703 0.25418612 0.11170681 -0.19759846 -0.07897079 0.044515356 -0.14265908 -0.12785487 0.04536203 -0.26252347 0.25507817 -0.048250064 -0.17078382 0.07170606 0.12286829 0.09527118 0.19313784 0.2342396 -0.29778975 0.009474332 0.446595 -0.24034701 -0.04294965 -0.061692026 0.05843446 0.17789914 0.10736663 -0.20278183 -0.4923765 0.120636925 -0.042359393 -0.22734678 -0.026032371 -0.017161272 -0.06457214 0.08422726 -0.20120253 -0.10838594 0.040061224 0.045030534 -0.024633251 0.10956378 -0.020861238 0.16589563 0.160015 -0.15404482 -0.08581739 -0.0079529965 0.20340207 0.07793069 0.16298553 -0.044973228 -0.21131705 -0.112594076 0.070377536 0.17716119 -0.24581106 -0.28188133 0.18873055
3 0.12955596 0.2935697 0.37509632 -0.25887156 -0.031741526 -0.4404775 0.24818262 0.10904151 -0.15317346 0.16719797 0.3778581 -0.27133286 0.0643695 -0.035942785 0.230594 -0.13317673 0.3023512 0.19118483 0.24303925 0.18030244 0.044609644 0.1768539 -0.10783743 0.2000297 -0.124118164 0.12932548 0.07277637 0.38484037 0.2399312 -0.022172289 -0.061107557 0.16918513 -0.0983955 -0.03821824 -0.38094938 -0.31457204 0.07229918 0.25503936 -0.17287245 -0.18772036 -0.022427212 0.27758747 -0.08419146 0.0585407 0.18403272 0.07490994 0.08539473 -0.22063297 -0.11195155 0.24804632 0.10147558 0.20615785 0.06630077 -0.033957623 -0.013670171 0.0026635397 0.29492366 0.13499434 -0.10031623 -0.2527837 0.21317336 -0.10499863 0.06738661 -0.3362276 0.5003135 -0.3272155 -0.26780042 -0.3752493 0.28956413 -0.17587136 0.07422545 0.062170547 -0.33170012 0.097900085 -0.024724482 -0.15843861 -0.009077369 0.12382708 -0.238557 0.29845268 -0.15745254 -0.037730906 -0.12910905 -0.209649 0.19109333 0.27611828 0.12279476 -0.4402019 0.03955465 0.40818387 -0.4827726 -0.13374183 -0.14115661 0.16514906 -0.116297804 0.16176446 -0.0034679677 -0.33373398 0.06172426 0.061491527 -0.44288433 -0.08916028 -0.053184852 -0.20164445 -0.055994224 -0.03709501 -0.28827465 -0.26212317 -0.28020176 0.0530291 0.2731411 -0.14666048 0.064244226 0.09253993 -0.05722593 -0.086801134 0.10625309 -0.03332457 -0.036739282 0.03949125 -0.13485819 -0.3576208 -0.17888345 -0.013596451 -0.0825006 -0.4122764 -0.3928048 0.12338871
29 0.17278914 0.14862093 0.3655725 -0.13014355 -0.03275823 -0.4428909 0.22182293 0.043388065 -0.12720872 0.12798172 0.42631108 -0.2554523 0.08475308 0.040376503 0.22052965 -0.15847531 0.16453692 0.22537191 0.08548502 0.06538139 0.046749316 0.17547616 0.023353126 0.23851603 -0.1738624 0.18650432 0.04181907 0.3735687 0.24005143 -0.18870498 -0.28635058 0.2243201 0.04452387 -0.03432976 -0.28174093 -0.2721727 0.2028193 0.26572183 -0.0640379 -0.12758066 0.03054167 0.30377746 -0.08351583 -0.097956374 0.14221649 0.06939029 0.051989175 -0.2796456 -0.001806645 0.35249415 0.07742686 0.13473728 0.17000888 0.08478118 -0.0076613864 -0.09097397 0.287178 0.02319938 -0.26565316 -0.13595425 0.2738402 -0.12787063 0.19711274 -0.1634808 0.28674173 -0.30806884 -0.24051854 -0.22251068 0.24265753 -0.16845557 0.20896134 0.17117837 -0.24954815 0.02936093 0.05492249 -0.16076472 -0.114137396 0.0807836 -0.33294398 0.29823995 -0.099778876 -0.1484015 -0.011204433 -0.0789451 0.12570365 0.24905847 0.19074303 -0.3506828 0.054737255 0.52211833 -0.35619262 -0.08932616 -0.09879688 0.18691102 -0.06901599 0.153713 -0.10050361 -0.4554929 0.10401823 0.02682285 -0.36896607 -0.08192915 -0.050780654 -0.19479415 -0.020460403 -0.13016272 -0.18969083 -0.0148848845 -0.14370267 0.062264375 0.24704465 -0.102810495 0.14348508 0.08271732 -0.13248791 -0.1383416 0.12118063 0.11538179 0.020336166 0.1399693 -0.09122159 -0.3193581 -0.18095547 0.05309904 0.103474915 -0.3761177 -0.421967 0.19433707
30 0.097825214 -0.1381654 0.24055094 -0.09355591 -0.02220437 -0.31956974 -0.016215594 -0.016065108 0.022205114 0.055317335 0.40842867 -0.08688355 -0.006897121 -0.017355625 0.058818895 -0.17233889 0.12232898 0.21529414 -0.0721477 -0.20689254 0.109506175 0.18529177 0.18888982 0.075291 -0.091638595 0.18036836 -0.07088333 0.10463539 0.2249238 -0.20559658 -0.41418722 0.22921357 0.005157034 0.088880695 -0.1236456 0.024723925 0.34833944 0.090586886 0.21371569 -0.0905672 0.051193804 0.1723222 -0.059095986 -0.24354874 0.027494721 -0.07722805 -0.060731545 -0.31805602 0.044031292 0.22180697 0.13699117 -0.06993015 0.14683847 0.24023585 0.068145394 -0.06504305 0.07371098 -0.07812628 -0.3082289 0.07780496 0.2512374 -0.066504836 0.18448626 0.019497314 0.10044118 -0.12117621 -0.010747434 0.08585137 0.067414396 -0.18122178 0.21453103 0.08611592 -0.1968334 -0.1130095 0.032552976 -0.13001993 -0.11088563 0.046410363 -0.22486822 0.234342 -0.03304582 -0.1651057 0.11077321 0.15853068 0.115412205 0.13583669 0.23161533 -0.26857224 0.003060461 0.39189234 -0.19104879 -0.041753143 -0.087186836 0.016522886 0.2553702 0.066740185 -0.20556496 -0.4865662 0.09747591 -0.059973083 -0.17174456 -0.00077642454 -0.013347281 -0.027151534 0.109424375 -0.20541012 -0.07733797 0.03403215 0.0938463 -0.052218124 0.07795947 -0.01734077 0.17194167 0.17147733 -0.14969179 -0.049555916 -0.0426288 0.230948 0.11931556 0.1509315 -0.023108352 -0.14302333 -0.09686716 0.075495645 0.18536049 -0.19213024 -0.24351984 0.15667292
11 0.07690665 0.18641646 0.2808194 -0.11276378 0.009449648 -0.282416 0.054387476 0.1722996 0.061352655 0.026850909 0.296083 -0.039542932 -0.055792138 -0.14533077 0.027903954 0.01015944 0.11160463 0.040234663 -0.07083034 0.15705743 0.19287625 0.18443379 -0.05301408 -0.09994253 -0.25877008 -0.03187972 -0.1858385 0.07803749 -0.12358326 0.27464864 -0.082402594 -0.06415133 -0.24038206 0.09912937 -0.09780272 0.011325494 0.13569543 0.11183604 0.31092185 -0.045951415 -0.18009822 0.17702408 0.05063409 0.08883453 0.0038528058 0.0026739736 0.08121572 0.022857094 -0.20600806 0.004255965 0.109362274 0.004676537 0.116450995 0.014451329 0.15777183 0.16638681 0.16129361 0.10547741 -0.061150867 0.011746217 -0.034429334 -0.088497534 -0.18460082 -0.19018544 0.38088644 -0.19171129 -0.041289244 -0.03533101 -0.043442048 -0.12425765 -0.0022372832 -0.13908255 -0.25444093 -0.111674435 -0.16681051 -0.22236705 0.13028088 -0.049200058 -0.010666601 0.35287508 0.020273566 -0.053079244 0.05584218 0.24271064 0.020078175 0.058195423 0.19806811 -0.20180586 0.16327398 0.01736237 -0.21158177 -0.21497236 -0.1694568 0.002165114 0.1932585 -0.11919592 -0.18886976 -0.13946049 -0.030075694 -0.16788249 -0.4446379 -0.14062172 0.07564357 0.12594657 -0.15100606 -0.028614592 0.05984415 -0.32555044 -0.119261764 -0.16027535 0.031966634 -0.04845853 -0.03401343 0.1530515 -0.06376907 0.02328009 -0.048519637 0.09141225 0.11462406 -0.05103453 -0.12886134 -0.10085567 0.08485069 0.04416118 -0.20424469 -0.21181403 0.030595347 -0.077818565
25 0.16525845 0.2212322 0.36412752 -0.1449433 -0.033473477 -0.46189657 0.26068556 0.078072526 -0.1649099 0.15576333 0.4135701 -0.2915956 0.09196036 0.051297195 0.24924777 -0.14772464 0.20085935 0.20091127 0.1439969 0.13606146 0.024930427 0.17013372 -0.042346496 0.24438353 -0.1812285 0.16256149 0.07437511 0.41814962 0.22428142 -0.14947863 -0.2131069 0.20336792 0.022998022 -0.042795546 -0.33244956 -0.31686473 0.14363264 0.29003975 -0.13827911 -0.152959 0.013116056 0.32405785 -0.08114675 -0.031164186 0.16411503 0.086313784 0.06922673 -0.24773419 -0.022865962 0.3621338 0.08911231 0.19615677 0.14288719 0.01990943 -0.037969 -0.0762247 0.3232886 0.06044904 -0.21147022 -0.18365662 0.26593372 -0.13447338 0.17241482 -0.24006619 0.3684976 -0.32160997 -0.29676062 -0.30309492 0.2786102 -0.17739595 0.17286259 0.14692958 -0.2753535 0.053383898 0.051969346 -0.17667992 -0.08165771 0.08296841 -0.33280116 0.31312984 -0.128413 -0.11057267 -0.057602767 -0.17177668 0.13169922 0.25687057 0.17727974 -0.37244788 0.04723063 0.50363606 -0.39493087 -0.108862564 -0.09893499 0.20531188 -0.14512981 0.18344589 -0.057266057 -0.4317325 0.09993374 0.050842468 -0.4120601 -0.0890912 -0.062289696 -0.23143294 -0.04519401 -0.08577858 -0.24201147 -0.06257523 -0.2094093 0.093373254 0.27373892 -0.10555082 0.13290437 0.06603568 -0.10731452 -0.1377178 0.14699861 0.060150366 0.0032092454 0.10676129 -0.11289111 -0.35976547 -0.19696516 0.03246992 0.06365973 -0.39957857 -0.42520335 0.18731475
10 0.062031757 0.051160768 0.225242 -0.046275284 -0.0108078 -0.22670582 -0.028989641 0.117680654 0.08909613 -0.0052982424 0.2846457 0.040816095 -0.07625963 -0.13271947 -0.025453217 -0.001986591 0.029811954 0.038421962 -0.17488089 0.036999144 0.21658306 0.15072946 0.08185076 -0.11252124 -0.21589744 -0.013393094 -0.24523467 0.0035108586 -0.11333787 0.15566462 -0.18570809 -0.026428113 -0.17403293 0.09266704 0.021655198 0.09554268 0.21990001 0.035383087 0.3918816 0.009512301 -0.10840882 0.13975391 0.060729124 -0.034203593 -0.054415576 -0.022297507 0.04200516 0.028825149 -0.110898465 0.0041168723 0.10348017 -0.091012314 0.15929341 0.09115491 0.18649508 0.1574307 0.08150826 0.05377886 -0.12938046 0.14337777 -0.043236915 -0.0739136 -0.12613721 -0.042504046 0.2118262 -0.096458204 0.08478432 0.10378927 -0.10797241 -0.117355034 0.0451037 -0.11864809 -0.14998849 -0.17302229 -0.12950727 -0.19142632 0.1017187 -0.1011387 0.017405834 0.30198613 0.09139104 -0.11102022 0.08866594 0.37832758 -0.020306481 0.03685289 0.21311219 -0.089551404 0.14904065 0.0015908226 -0.07361154 -0.16657417 -0.07931079 -0.042226184 0.2698325 -0.15555008 -0.2475895 -0.16014297 -0.023518551 -0.16251934 -0.35829142 -0.08757782 0.11995875 0.21131565 -0.07385036 -0.09816389 0.15872769 -0.19271216 0.008715769 -0.20712455 -0.040717814 -0.04932245 -0.025754627 0.13399552 -0.095596425 0.025885649 -0.05102592 0.20298915 0.15163322 -0.019917281 -0.118157856 -0.022494469 0.11120945 0.03553035 -0.122192964 -0.10926106 0.058557414 -0.09611517
21 0.11523555 -0.17375448 0.15770075 -0.04132769 0.008786357 -0.24880737 -0.027830947 0.006915494 0.051960588 0.014670942 0.35691184 -0.06970687 -0.04490003 -0.03253225 0.049205024 -0.14092502 0.086453244 0.16524139 -0.11974729 -0.19650967 0.09876481 0.1576676 0.19647412 0.045980945 -0.0766293 0.15666582 -0.07850767 0.08414183 0.19614899 -0.15774451 -0.39144596 0.20204692 0.03247195 0.08377363 -0.082493424 0.040236305 0.33762506 0.067670345 0.25986764 -0.044692703 0.044129297 0.13053155 -0.055137806 -0.23998494 0.023501253 -0.09012665 -0.052265458 -0.25480503 0.016077077 0.19164078 0.104352556 -0.104704015 0.17453113 0.26988918 0.10990844 -0.038136672 0.07902033 -0.08464556 -0.30143553 0.091134526 0.20126821 -0.070553206 0.18140884 0.058947783 0.061286677 -0.0724758 0.034633446 0.13650109 -0.0296591 -0.16523322 0.20440759 0.053492185 -0.15819532 -0.11456796 0.021280782 -0.13156666 -0.10193452 0.041989237 -0.20088765 0.18688673 0.004416346 -0.15868741 0.08579021 0.1616833 0.105166785 0.13113981 0.23127589 -0.18988557 0.012857813 0.37342453 -0.1404086 -0.03293838 -0.06505806 -0.021043697 0.26458895 0.045392763 -0.19964935 -0.423751 0.11100745 -0.08104426 -0.1328677 -0.017360434 -0.023853464 -0.011599797 0.11836441 -0.19855964 -0.052443873 0.049148865 0.10057252 -0.09263168 0.046085615 0.018777465 0.13556264 0.15258367 -0.09553677 -0.043009646 -0.045802027 0.20935766 0.10894301 0.14143796 -0.010033653 -0.118752085 -0.067231804 0.09406408 0.18519992 -0.14824432 -0.14667383 0.12644008
14 0.14969383 0.29046607 0.3845182 -0.19992754 -0.04779681 -0.45551285 0.2777778 0.09307382 -0.19430025 0.17922616 0.38752922 -0.29838586 0.08192312 0.04672756 0.24762122 -0.13095917 0.23073997 0.19011779 0.20258051 0.18374021 -0.015634906 0.1376358 -0.10319093 0.27158815 -0.15641715 0.12336352 0.103361346 0.42172217 0.20925945 -0.12762469 -0.10989646 0.1799221 -0.006950275 -0.08311231 -0.34761825 -0.35047063 0.084196106 0.28733608 -0.21926147 -0.16762301 0.015470007 0.30114007 -0.074795954 0.018633759 0.17194796 0.10274828 0.09897979 -0.2299263 -0.045069057 0.32638624 0.07258345 0.23168732 0.10596591 -0.057425763 -0.03721702 -0.08273186 0.33453098 0.09905084 -0.13827527 -0.237576 0.24902233 -0.112972766 0.12272071 -0.2872629 0.40278354 -0.33794287 -0.33438382 -0.36568415 0.3009067 -0.15770492 0.1496546 0.15171055 -0.26730782 0.09441626 0.037742 -0.1623088 -0.07565505 0.09424656 -0.3063603 0.2896882 -0.1400713 -0.08513918 -0.08956185 -0.24040304 0.14595224 0.2826784 0.12661695 -0.38063288 0.035722043 0.48254752 -0.42604548 -0.094657496 -0.09182508 0.22319908 -0.21597193 0.19888298 -0.009008835 -0.3661734 0.08663812 0.07689621 -0.40391487 -0.07696314 -0.08811578 -0.2505995 -0.059002478 -0.049398847 -0.2744563 -0.09882875 -0.2701205 0.09934636 0.29136094 -0.1282775 0.107799806 0.046451595 -0.07539259 -0.14649056 0.16032413 0.011759142 -0.042580575 0.07955359 -0.112035066 -0.37072745 -0.21309456 -0.006747099 0.013918365 -0.3910383 -0.41793188 0.17522621
17 0.12787771 0.31930923 0.3790909 -0.29829913 -0.03534019 -0.4238775 0.23504546 0.12550128 -0.15519728 0.20124106 0.33088288 -0.2559987 0.041213285 -0.04993162 0.24148577 -0.11785282 0.33170295 0.19531114 0.27774787 0.22584572 0.037995525 0.15451083 -0.14397492 0.21396196 -0.12273688 0.11758386 0.06705321 0.39065552 0.24685362 -0.0042432486 -0.008137924 0.15921313 -0.11501959 -0.04052068 -0.3809288 -0.3138868 0.054248147 0.20314851 -0.20266852 -0.16608721 -0.0434056 0.24743226 -0.10158898 0.08092392 0.19608848 0.064014345 0.11281874 -0.20382372 -0.16525747 0.20453086 0.09605671 0.19078295 0.054348752 -0.06226655 0.023772702 0.032051135 0.28382272 0.17154767 -0.07542335 -0.2590803 0.15945378 -0.07939116 0.060407083 -0.32584837 0.5280569 -0.31203395 -0.24442478 -0.40437397 0.28390545 -0.18552956 0.072750345 0.08232126 -0.34541842 0.11753523 -0.023748057 -0.15970752 0.008750931 0.10975566 -0.1928537 0.2598708 -0.16766925 -0.03810028 -0.15448397 -0.2326223 0.18130878 0.28029302 0.101164855 -0.43149558 0.051954687 0.39609972 -0.47527507 -0.13494578 -0.12249461 0.15995817 -0.09836829 0.18095993 -0.012618012 -0.32778585 0.08301803 0.07908415 -0.43468675 -0.070819415 -0.053576782 -0.20941763 -0.07065653 -0.010752517 -0.3075563 -0.30036765 -0.3132904 0.058096454 0.2510529 -0.17555146 0.033107974 0.10045554 -0.05482426 -0.070649594 0.118655935 -0.05683041 -0.058650304 0.03439927 -0.13545454 -0.3835603 -0.19008012 -0.02134319 -0.11429077 -0.40845346 -0.3915964 0.13228834
31 0.110950194 -0.2961705 0.15587609 -0.0067934687 0.011321037 -0.22987847 -0.044415366 -0.06523697 0.04973317 0.01039007 0.36568508 -0.07299216 -0.014169415 0.02503899 0.039312568 -0.21312577 0.08738454 0.23414187 -0.19023386 -0.32597923 0.09714664 0.18962926 0.29974544 0.09109189 -0.045566145 0.23591465 -0.06437172 0.059591725 0.29172236 -0.3236191 -0.5463059 0.31306574 0.11205998 0.1102748 -0.07883071 0.07708336 0.45080063 0.052588418 0.25810304 -0.04282686 0.10562804 0.14882025 -0.069885544 -0.3610575 -0.0033820102 -0.11937174 -0.12001529 -0.36106578 0.11971077 0.23340562 0.11977974 -0.11477389 0.21295024 0.3674025 0.06863575 -0.1009348 0.049583603 -0.15509634 -0.39034608 0.13098867 0.30332816 -0.09415419 0.29360363 0.15667744 -0.04815651 -0.034748092 0.050727207 0.20749354 -0.025512815 -0.1867407 0.29619253 0.118461475 -0.14755777 -0.12001008 0.106298245 -0.10381562 -0.1801993 0.032917894 -0.25891107 0.16081068 0.0070054503 -0.21471669 0.1468959 0.20108366 0.0883478 0.13977304 0.2664443 -0.19670889 -0.02537504 0.4867066 -0.09443261 0.027266916 -0.027679829 -0.021564161 0.32188326 0.08454272 -0.2625868 -0.5588776 0.1277378 -0.069754526 -0.05059268 0.02733157 -0.038072478 -0.022905784 0.22214802 -0.26049453 -0.068297714 0.16722406 0.22257593 -0.04912676 0.07227502 0.03680063 0.21874458 0.1682755 -0.13461722 -0.06740363 -0.043157507 0.28388497 0.13457525 0.20048714 0.043247845 -0.121220455 -0.08261381 0.11763664 0.31048268 -0.13167484 -0.23614989 0.20499271
28 0.13181241 -0.051947307 0.25863472 -0.074564114 -0.010488191 -0.34087825 0.093735345 0.0028620735 -0.04529472 0.078582145 0.4076451 -0.17084113 0.038913123 0.032958165 0.12514496 -0.1725251 0.1330732 0.22099365 -0.040648498 -0.111862995 0.083537094 0.18028079 0.1283817 0.15355179 -0.124278046 0.18060842 -0.020458557 0.21593049 0.24599956 -0.21737105 -0.3941395 0.25730622 0.06685943 0.037986975 -0.18722235 -0.100924216 0.31879184 0.17525457 0.10591272 -0.10722283 0.056517325 0.22850236 -0.074178845 -0.20627563 0.06333899 -0.022117335 -0.03152905 -0.31773794 0.050157394 0.28708506 0.10906097 0.023419239 0.16835341 0.2116104 0.02701775 -0.090316415 0.17155306 -0.05828531 -0.31643322 -0.0021372975 0.2784393 -0.11231111 0.21922864 -0.034453727 0.14253095 -0.17307386 -0.11588347 -0.01843909 0.11552464 -0.17238037 0.22910313 0.12855463 -0.21345739 -0.043470223 0.06674678 -0.14269152 -0.137588 0.050826084 -0.28792968 0.2501973 -0.056021284 -0.16440621 0.07353942 0.051473387 0.11703972 0.19850542 0.22204325 -0.29467773 0.008042645 0.47519168 -0.2515545 -0.045164347 -0.079885475 0.08846206 0.11991415 0.10836647 -0.17055471 -0.48553368 0.10918538 -0.025518162 -0.23824455 -0.022941252 -0.056066882 -0.11596216 0.08003316 -0.17450023 -0.12714091 0.05014433 0.024168652 -0.0058038943 0.16464053 -0.02250508 0.17483705 0.12643228 -0.116075136 -0.10427492 0.038367856 0.19161513 0.074304104 0.16245668 -0.022158774 -0.22538242 -0.123988844 0.079993874 0.18524943 -0.24985945 -0.30916137 0.18884535
6 0.011736246 0.10247031 0.26270866 -0.0927147 0.043170244 -0.21573764 -0.09998472 0.2091562 0.21454026 -0.06416999 0.32833472 0.12269143 -0.19632219 -0.31312963 -0.17809968 0.06938757 0.070988536 -0.049778156 -0.23775598 0.082883716 0.33439803 0.26529297 -0.0076055084 -0.37877 -0.30734992 -0.1943951 -0.37799457 -0.13491844 -0.37597018 0.5859415 -0.03962454 -0.20942521 -0.43751293 0.26963192 0.029843487 0.28815684 0.22561474 0.02920498 0.6999783 0.019939287 -0.33122954 0.09047154 0.1598395 0.13877404 -0.1280503 -0.111575216 0.087149605 0.15046063 -0.3287618 -0.18458392 0.20645133 -0.12405541 0.053299848 0.043819547 0.23916501 0.35370642 0.058275376 0.0481997 0.0075060297 0.20795238 -0.15406594 -0.08548537 -0.41343498 -0.22226383 0.4116169 -0.082077324 0.1274785 0.18312733 -0.29838687 -0.12510408 -0.104456134 -0.41298434 -0.28706205 -0.25341618 -0.32298103 -0.3127754 0.30381423 -0.1690095 0.20781115 0.4634168 0.124005675 0.025697049 0.14711732 0.5320524 -0.05996117 -0.040942874 0.2778455 -0.16528176 0.22348215 -0.2979329 -0.11659491 -0.29331324 -0.18051447 -0.17271934 0.5115693 -0.2992883 -0.31965765 -0.056222677 -0.14557713 -0.34899127 -0.52678704 -0.15115988 0.16892761 0.3812324 -0.19862437 -0.032444626 0.25048077 -0.54392815 -0.041422397 -0.34387583 -0.13713329 0.013616344 -0.09023895 0.28584048 -0.011109488 0.10879935 -0.1782888 0.15015116 0.21653883 -0.1670491 -0.12767196 0.07406092 0.25769073 0.07579905 -0.36119494 -0.091423 0.3116522 -0.24182846
16 0.11528518 0.15569898 0.28718305 -0.15572967 -0.021551345 -0.3343074 0.14006123 0.084618844 -0.074707195 0.12083868 0.30947956 -0.17870152 0.04637748 -0.012872956 0.1604685 -0.10910327 0.17954476 0.17504627 0.07947653 0.07860244 0.051553722 0.1350374 -0.015127144 0.14536366 -0.13365336 0.11342691 0.004616021 0.25388893 0.1599158 -0.061209504 -0.1657995 0.14286539 -0.035555463 -0.018610595 -0.22801991 -0.19812472 0.13954775 0.15474634 -0.032035004 -0.11676856 0.010188855 0.21245432 -0.06573444 -0.03349506 0.08861221 0.031825915 0.043173585 -0.19486219 -0.057269633 0.19238736 0.07937825 0.094124265 0.11923177 0.055195864 0.049233727 -0.024547648 0.21463841 0.070704065 -0.16176127 -0.089539126 0.14614688 -0.078003824 0.09235535 -0.15102261 0.28544605 -0.23755476 -0.15992509 -0.18860659 0.16621834 -0.13342199 0.12364941 0.10068597 -0.23396398 0.024608837 -0.0069224834 -0.15511632 -0.04621082 0.055579018 -0.21724401 0.24400651 -0.083195604 -0.09776467 -0.012420274 -0.033530522 0.114533015 0.19079001 0.15214978 -0.27624947 0.049023457 0.35562506 -0.31166786 -0.105103895 -0.11701863 0.11733156 -0.007807241 0.081401326 -0.08669802 -0.31329036 0.05851832 0.016586155 -0.30653444 -0.06341743 -0.028916119 -0.09719355 -0.0134391915 -0.08228797 -0.14743416 -0.11947154 -0.13440712 0.011643805 0.18160467 -0.09086354 0.062743984 0.10388419 -0.1064988 -0.05184815 0.06006457 0.056559682 0.022951484 0.08805998 -0.09514542 -0.26007968 -0.09649669 0.026885917 0.024600167 -0.3029848 -0.285081 0.11862641
4 0.06303197 0.24917442 0.2902219 -0.2701672 -0.016011028 -0.3110058 0.12721553 0.12959264 -0.0520598 0.11729315 0.28180534 -0.1762181 -0.055407796 -0.15645076 0.10254099 -0.08885965 0.31752932 0.12245314 0.20315813 0.15848039 0.099647336 0.19056052 -0.14368565 0.016179884 -0.12209532 0.031293683 -0.02132121 0.20779827 0.11528362 0.18012545 0.06898618 0.06087153 -0.26278841 0.03769717 -0.31107742 -0.13516243 0.03199044 0.1420911 -0.016786968 -0.14300574 -0.12854917 0.18816337 -0.051271524 0.13233365 0.12888297 0.006666251 0.08871813 -0.121974 -0.25340655 0.059525423 0.15483001 0.12974738 -0.0015435324 -0.05819778 0.042234533 0.1303983 0.19241841 0.1468644 0.019446308 -0.20917518 0.121583365 -0.080853626 -0.09848533 -0.34840757 0.54969716 -0.23248273 -0.15858456 -0.26238555 0.13969089 -0.18548128 -0.05817214 -0.121912636 -0.35608873 0.062157627 -0.11746313 -0.1673045 0.096769266 0.11037968 -0.055493224 0.26988178 -0.109644525 0.0527316 -0.1256353 -0.15302849 0.18375798 0.18497796 0.112449735 -0.38629907 0.054114938 0.16635703 -0.40897503 -0.13334256 -0.17155676 0.03622812 0.064851426 0.07390133 -0.0071401573 -0.21499905 -0.011905 -0.027293492 -0.40239206 -0.092226714 -0.008968199 -0.09551263 -0.07007002 0.011530797 -0.24613474 -0.4354051 -0.25390065 -0.04790989 0.15827899 -0.11880708 0.01253756 0.15949598 0.029118286 0.009131076 0.004430725 -0.079761684 -0.0122285215 -0.051988106 -0.11328799 -0.2357325 -0.08365301 -0.014807029 -0.21514454 -0.3178954 -0.15351178 -9.952886e-05
20 0.08404199 -0.110411964 0.1750333 -0.036103766 0.0025363509 -0.22503267 -0.029613337 0.025409404 0.07501281 0.009056926 0.30824825 -0.027432365 -0.0431361 -0.066778004 0.017104352 -0.09463869 0.059062246 0.1281879 -0.15635964 -0.13183366 0.15238747 0.1571791 0.15575741 -0.0032053431 -0.12800746 0.108272515 -0.14639556 0.033420376 0.09418987 -0.05049582 -0.35247135 0.13526492 -0.033651594 0.09144177 -0.024174707 0.08930852 0.3071274 0.041018717 0.31521305 -0.019550284 0.00064213504 0.13651566 -0.014482207 -0.17250161 -0.0321304 -0.06332521 -0.04605517 -0.15899307 -0.017618258 0.10046211 0.114772 -0.11359371 0.17575721 0.21050762 0.13138999 0.023173193 0.05704472 -0.033953372 -0.2530342 0.122339286 0.103501484 -0.06731652 0.07535021 0.037716832 0.08374114 -0.07832202 0.05804149 0.13529608 -0.059814304 -0.14317913 0.14802971 -0.0064849174 -0.16257182 -0.13835898 -0.032320347 -0.14736041 -0.037392534 -0.021444282 -0.12220367 0.21888353 0.04251629 -0.15584184 0.11029616 0.27094302 0.058959607 0.074185975 0.22759041 -0.1504915 0.06187909 0.22957745 -0.09405622 -0.066797815 -0.073037505 -0.023334114 0.2919488 -0.048222706 -0.24324375 -0.33758202 0.051898755 -0.11996989 -0.19410802 -0.039405677 0.03223067 0.0854853 0.071600765 -0.17254147 0.03716332 -0.028506031 0.10498862 -0.13132262 0.014887916 -0.011417307 0.0856011 0.13713226 -0.11295097 -0.0116663175 -0.05568744 0.22797246 0.124465 0.09021036 -0.033151384 -0.071566895 0.0055225156 0.08346045 0.07873095 -0.12476573 -0.072761506 0.05127741
5 -0.015638279 0.12714943 0.2219622 -0.10546466 0.079458736 -0.19567432 -0.08473433 0.22817478 0.16635722 -0.05706749 0.28417936 0.08492675 -0.26448572 -0.31767076 -0.18001357 0.058251034 0.12076646 -0.090418026 -0.13036095 0.08497623 0.30435467 0.27295566 -0.08730566 -0.39678743 -0.24374421 -0.22717358 -0.33866462 -0.15413313 -0.36875018 0.6295582 0.075642094 -0.21659166 -0.45280924 0.27574414 0.0027143378 0.28756306 0.14834389 0.029065154 0.6175078 0.00029342485 -0.35344464 0.08054508 0.15273921 0.22971903 -0.11496189 -0.13085233 0.07422357 0.1757945 -0.38372427 -0.20341116 0.24353638 -0.044581465 0.0035271554 -0.015989576 0.20168096 0.35501122 0.05546743 0.058289126 0.108431645 0.14374186 -0.12745416 -0.10045343 -0.4183952 -0.2761867 0.45999318 -0.06754657 0.113119215 0.15815084 -0.27828985 -0.098530255 -0.18759789 -0.45429096 -0.2770978 -0.20206456 -0.34708837 -0.2831906 0.29870218 -0.124268696 0.22412843 0.43060353 0.06758349 0.08576857 0.06643707 0.39000422 -0.025971359 -0.07920452 0.2696607 -0.18140836 0.18228504 -0.32921037 -0.12868497 -0.2711447 -0.18259203 -0.21061403 0.47299337 -0.27502093 -0.23463035 -0.023729233 -0.17079787 -0.335909 -0.48468462 -0.13838021 0.1065861 0.31364384 -0.19164382 0.009448332 0.16850702 -0.5908421 -0.08504138 -0.30322236 -0.09793006 0.0072522718 -0.11986192 0.27070752 0.016504979 0.122180924 -0.16394565 0.07682399 0.2082301 -0.16773157 -0.11933719 0.083410025 0.24655466 0.043655243 -0.3969719 -0.092135265 0.34071356 -0.22512257
24 0.119376555 -0.14448436 0.2010534 -0.02393101 -0.0062732366 -0.28107896 -0.014449916 0.008224154 0.046577238 0.00997697 0.36514604 -0.05057867 -0.02214175 -0.02769094 0.052479517 -0.12824051 0.068389915 0.17633311 -0.17627473 -0.17181335 0.15459585 0.19011799 0.19665898 0.029823685 -0.12177785 0.14951123 -0.1290683 0.08890805 0.16252588 -0.13925306 -0.4326901 0.20142592 0.015528939 0.095012 -0.05434702 0.051002767 0.36477298 0.07718042 0.30454385 -0.026123213 0.030839948 0.1693568 -0.02047979 -0.22224562 -0.006232629 -0.07120737 -0.05207479 -0.2201268 0.01723486 0.1773304 0.11881609 -0.10362433 0.2106738 0.25886956 0.12342863 -0.0049157855 0.09355958 -0.066918865 -0.32151085 0.121477425 0.17043738 -0.0800126 0.1483925 0.05183513 0.07158037 -0.081360534 0.03577695 0.14034428 -0.034509946 -0.17352724 0.20870396 0.036255285 -0.17958611 -0.14500037 0.017757492 -0.14710851 -0.08383138 0.0008002767 -0.18431014 0.22797485 0.030365663 -0.18821912 0.120139554 0.25499257 0.066683814 0.12597412 0.25308806 -0.18771532 0.041534506 0.34156653 -0.12216604 -0.057534136 -0.061164904 -0.0066918675 0.28195396 0.0026426988 -0.252082 -0.43243578 0.0833078 -0.097941115 -0.21068728 -0.029243834 0.008753109 0.046376303 0.09978094 -0.20264964 0.0067697642 0.021333925 0.113210976 -0.10952564 0.050742302 -0.0068574753 0.12547775 0.14363454 -0.13110301 -0.04985499 -0.03549285 0.259891 0.12675487 0.11571338 -0.031580374 -0.1059758 -0.041219402 0.09622275 0.15486968 -0.15303871 -0.15412712 0.10532681
26 0.14661926 0.04624997 0.30114302 -0.11126248 -0.013646119 -0.38917312 0.15592745 0.029842561 -0.07323991 0.09320203 0.41978958 -0.21659115 0.043457076 0.028078632 0.16912575 -0.17535667 0.17190492 0.21780533 0.008359721 -0.039364543 0.055123493 0.18322717 0.097413205 0.18221161 -0.1496153 0.18745498 0.018211922 0.29054722 0.2630267 -0.20906714 -0.34177437 0.24949825 0.028450789 0.021606192 -0.2644372 -0.17420405 0.28172514 0.22337127 0.036188275 -0.12544613 0.048098747 0.27241462 -0.083044834 -0.16268921 0.11919539 0.016989682 0.012980718 -0.3091238 0.0093820095 0.32203966 0.098450325 0.07566863 0.16246158 0.16301185 0.013325703 -0.075232975 0.24749504 -0.015505044 -0.29613137 -0.0907913 0.28630954 -0.12931733 0.22042236 -0.106862456 0.24722187 -0.22777213 -0.1758165 -0.121269986 0.16888268 -0.19611838 0.22870795 0.1389611 -0.25974312 -0.0073465835 0.05601372 -0.16332178 -0.115893915 0.07809134 -0.3066912 0.27288285 -0.07203534 -0.14021258 0.028345272 -0.033966463 0.12585145 0.24179953 0.22252786 -0.32385346 0.021314513 0.525023 -0.30449226 -0.074817166 -0.09805385 0.11292438 0.049934935 0.13495217 -0.13859864 -0.49332404 0.11922415 -0.0013412986 -0.3094394 -0.0337052 -0.0627516 -0.16350064 0.06265431 -0.1627824 -0.19235763 -0.006800402 -0.06179652 0.015661258 0.20835416 -0.05340787 0.16367078 0.11733429 -0.10232416 -0.120782346 0.0768712 0.14608288 0.05288911 0.13749473 -0.057193 -0.2932259 -0.15789041 0.071400985 0.15421295 -0.30801848 -0.36704165 0.20295866
37 -0.10703485 0.04686747 0.11209354 -0.22401035 0.11565611 -0.10212675 -0.1784406 0.26345113 0.1885753 -0.04750573 0.19214773 0.017607668 -0.46406296 -0.45249715 -0.258524 0.018274413 0.26090318 -0.11355496 -0.014007094 0.07140174 0.31555745 0.30890697 -0.18310189 -0.5252039 -0.17049854 -0.27781406 -0.29516187 -0.28286582 -0.30071166 0.7972097 0.24886832 -0.23598127 -0.69775456 0.33738732 -0.124431945 0.4236744 0.0765996 -0.045043543 0.6519368 -0.107264005 -0.4062951 -0.025012245 0.08460069 0.34701204 -0.03345746 -0.22295259 0.037414864 0.15260962 -0.57741886 -0.346748 0.3642826 -0.032484252 -0.11685448 -0.068271615 0.16255304 0.4925712 -0.037919573 0.1418384 0.32377818 0.010578046 -0.10792699 -0.06267295 -0.4602823 -0.42716423 0.6474285 0.05727239 0.1277271 0.18444797 -0.31152904 -0.20326206 -0.35253468 -0.6694119 -0.44395074 -0.15220538 -0.4474618 -0.26064643 0.3911465 0.01060541 0.4158946 0.38404444 0.04864681 0.24817346 -0.041097328 0.13140467 0.12802802 -0.14104144 0.28413308 -0.24958377 0.104937434 -0.47339186 -0.15993923 -0.21570715 -0.27882373 -0.39661354 0.6213463 -0.19025695 -0.13201095 0.01962891 -0.19828248 -0.37842172 -0.38643536 -0.04003633 0.031016262 0.27021182 -0.11248322 0.16060798 -0.043936457 -0.8673176 -0.17588486 -0.3601696 -0.16527298 0.059195604 -0.1468812 0.3419794 0.19721274 0.17134887 -0.25480962 -0.05851884 0.19813351 -0.27380252 -0.10627366 0.11755994 0.19266683 -0.01128686 -0.49277616 -0.015182385 0.5414828 -0.23959997
34 -0.046265513 0.04037974 0.20964035 -0.22863491 0.111302145 -0.17430788 -0.19416657 0.27033147 0.2216788 -0.033681955 0.31389606 0.0383919 -0.44737017 -0.49417385 -0.2649693 -0.023905816 0.31147337 -0.08084064 -0.081412405 0.07724164 0.33442873 0.3591877 -0.117448315 -0.54292685 -0.24066144 -0.25252348 -0.32458118 -0.24540138 -0.3152482 0.81262565 0.13216813 -0.17761953 -0.7275918 0.39319202 -0.14573626 0.39704877 0.16528867 -0.0046539623 0.7240819 -0.102436446 -0.44971246 0.040965665 0.090926155 0.3164526 -0.024144266 -0.23479694 0.04658025 0.12162389 -0.5963709 -0.2860692 0.3947425 -0.07109295 -0.08059511 -0.024479605 0.18745194 0.5144345 0.025465528 0.113465436 0.24093246 0.01932642 -0.062045205 -0.099703334 -0.486711 -0.4693139 0.72510225 -0.005808007 0.094904356 0.2108475 -0.33678588 -0.25216404 -0.28593746 -0.68078 -0.5189621 -0.20996754 -0.46912304 -0.32102978 0.3808833 -0.017524129 0.3609599 0.46935388 0.07892819 0.21799873 0.0112612285 0.23332918 0.12639482 -0.060651924 0.37505472 -0.3316279 0.13551678 -0.39385673 -0.22218208 -0.28366375 -0.30584756 -0.3890781 0.7019178 -0.20593315 -0.21301673 -0.10855342 -0.16517363 -0.4323627 -0.48712403 -0.088462114 0.06894729 0.30628547 -0.11853184 0.09512899 -0.022755612 -0.918509 -0.16879044 -0.4034322 -0.17134216 0.05423317 -0.08518503 0.391671 0.18427306 0.1610925 -0.2636024 0.017995214 0.20296052 -0.27346492 -0.09836009 0.052799605 0.2286793 0.04186163 -0.50470555 -0.06601688 0.5058524 -0.25757757
