5 128
3 -0.06356201 0.022115402 0.20848909 0.054468904 -0.08786391 -0.29167706 0.15410174 0.15117763 -0.051839277 0.12237304 0.39300737 0.16548817 0.034314077 -0.022337236 -0.16142741 -0.01766289 -0.027994324 0.15218712 -0.120154135 -0.056779217 0.2510911 0.18339302 0.16564584 -0.10360067 0.045613784 -0.021224266 -0.17730296 0.22433971 -0.029772567 -0.0008240882 -0.19656102 -0.027669197 0.059970222 0.0133089665 -0.08743255 -0.07629903 0.25524154 -0.12172473 0.2700104 0.014626174 0.028483622 0.16117054 -0.051713686 -0.19995181 -0.10194406 0.19811067 -0.036934126 0.021009274 0.022133797 -0.059717543 0.08369789 0.02381059 -0.13731761 0.009463254 0.26541525 -0.074892476 0.1327086 -0.24090317 -0.037390135 0.033951264 0.17483646 -0.18816938 -0.09348643 -0.034292936 0.077930704 -0.17160445 0.09770829 0.24887837 0.022595922 -0.018589143 -0.01102617 0.13674513 -0.08378334 -0.14439426 -0.043134473 -0.11838516 0.15762949 0.009117181 -0.015153516 0.038472343 -0.04955539 0.042094998 -0.014964115 0.23462145 0.058078196 0.17932926 0.19164793 -0.114243336 0.08643211 0.28101864 -0.03584982 -0.030555444 -0.11382935 -0.008790865 0.17937241 -0.14656009 -0.17841917 -0.32981104 0.082811505 0.11915104 -0.23328121 0.12572928 0.27814338 -0.06421707 -0.10037904 -0.09653128 0.010879836 -0.006154338 0.059431832 -0.13220528 0.028749589 -0.094415635 -0.1111029 0.042492975 0.100163564 0.16281554 0.038411915 0.2837941 -0.05985591 -0.18681714 -0.18107016 -0.0020415087 0.09639743 -0.093562484 -0.13677406 -0.06640812 -0.17942947 -0.019983346
5 -0.058453 0.032963857 0.21657851 0.054577768 -0.08079952 -0.2843784 0.14488888 0.14526157 -0.03491362 0.121052004 0.38287628 0.16179633 0.051248834 -0.033415794 -0.16662358 -0.015314606 -0.036688868 0.14954546 -0.11416275 -0.051181894 0.24292615 0.18371604 0.16586633 -0.11324402 0.035431832 -0.01300946 -0.17553644 0.22639287 -0.028712325 0.013675516 -0.18441223 -0.01817967 0.04335032 0.023127252 -0.08289561 -0.086388715 0.24473862 -0.112874396 0.267415 0.019042758 0.029348643 0.15465978 -0.046330106 -0.19567288 -0.10167624 0.19925001 -0.025728986 0.01752611 0.0074009267 -0.06627472 0.086141996 0.01781655 -0.14505738 0.014704673 0.25379777 -0.07850474 0.13189507 -0.2278861 -0.04392664 0.022368114 0.16731827 -0.19142832 -0.08309896 -0.03887762 0.085400276 -0.17858675 0.09127216 0.23764119 0.03110943 -0.019801533 -0.026962668 0.1338951 -0.08546178 -0.13296647 -0.046767417 -0.12362726 0.16214523 0.011179531 -0.022396838 0.03473071 -0.05439703 0.04826723 -0.018428924 0.2198724 0.063859574 0.18172994 0.18276992 -0.10588411 0.08021142 0.2812787 -0.04126428 -0.03037437 -0.11747969 -0.008247405 0.16534059 -0.15574978 -0.16135432 -0.32026145 0.08680505 0.11505381 -0.23170178 0.110704556 0.27713984 -0.06767444 -0.11662402 -0.10136025 0.00088825123 -0.0060990956 0.058739062 -0.12157397 0.02502476 -0.09638887 -0.10716206 0.044028584 0.094498485 0.1664522 0.033867594 0.27459317 -0.059014797 -0.1914193 -0.18232797 -0.0059894915 0.09918284 -0.08894303 -0.1381494 -0.07209698 -0.17980373 -0.022533191
2 -0.13545181 -0.08947069 0.07415039 -0.106432885 -0.06758233 -0.30172044 0.20078056 0.11642813 -0.16748665 0.20861474 0.45169494 0.28260964 -0.093519025 -0.0040752073 -0.07117604 -0.03725893 0.038154885 0.21573962 -0.028630381 -0.030850846 0.23510912 0.09023069 0.11228956 -0.027049275 0.104046576 -0.05583614 -0.15904853 0.14799751 0.13029937 -0.10703182 -0.24823806 -0.08246381 0.09349676 -0.013571539 -0.14135127 0.06563636 0.28105658 -0.108525015 0.31741026 -0.044690818 0.19111042 0.21998475 -0.04961341 -0.23371673 -0.033873335 0.19187632 -0.103981405 -0.109823845 0.111953385 -0.08956211 0.18118437 0.010259334 -0.026739726 -0.040587105 0.3109417 -0.0065542343 0.06708276 -0.3173815 0.10264755 0.002614986 0.29184106 -0.14380214 -0.15981668 0.121616766 -0.012303281 -0.13211408 0.15636367 0.31354764 -0.015113527 -0.051041853 0.073924415 0.07586411 -0.02838948 -0.14801596 -0.095878504 -0.033335365 0.03644698 0.049069196 0.097861744 0.21547748 -0.037618097 -0.037795473 -0.055068802 0.28759152 0.10721669 0.08928595 0.26488286 -0.20304409 0.23971426 0.21684985 -0.041914914 -0.068286315 -0.13943543 -0.053531 0.1987396 -0.12124886 -0.21198197 -0.3531903 0.074062295 0.11887688 -0.16050886 0.30232027 0.21573935 -0.1320229 0.0014846355 0.047690794 0.06561995 -0.0989552 0.08952587 -0.15496972 0.09950671 0.04351635 -0.11905976 -0.05456042 0.10952994 0.045083113 0.043028418 0.2991136 0.0027854552 -0.09486897 -0.19280486 0.10042476 -0.053893477 -0.040400364 -0.23496848 -0.0811723 -0.15923937 -0.08920262
1 -0.060964677 0.03357854 0.24526487 0.07571285 -0.09039552 -0.31741118 0.14744286 0.15803763 -0.03914727 0.12310725 0.42106873 0.1653013 0.062126078 -0.039375756 -0.18258797 -0.020208692 -0.048079975 0.15665549 -0.14183314 -0.056886133 0.27145815 0.2115221 0.17961031 -0.11926294 0.03179442 -0.008972065 -0.20066866 0.25079912 -0.05417502 0.01702813 -0.20474678 -0.028210951 0.04990814 0.03049293 -0.07961453 -0.10248855 0.26668453 -0.13753045 0.29466268 0.038637478 0.016978465 0.16258797 -0.045775484 -0.20212623 -0.12918144 0.2164636 -0.016957799 0.03243754 0.010321955 -0.07988429 0.09513847 0.017563263 -0.15999112 0.018198362 0.2731153 -0.08264884 0.14958559 -0.25234738 -0.0637779 0.041768424 0.18345034 -0.21688128 -0.08631359 -0.047948718 0.101978056 -0.20002304 0.10482596 0.26132432 0.04076882 -0.022513976 -0.0276864 0.13975568 -0.10616743 -0.15674321 -0.044747382 -0.14635976 0.1820991 -0.0016975444 -0.02446057 0.029604834 -0.056128513 0.05050536 -0.0064744717 0.25150314 0.057070922 0.21349779 0.18646935 -0.101473376 0.07456255 0.30853462 -0.035362966 -0.021072794 -0.12555821 0.0052784253 0.19123599 -0.17592649 -0.19050302 -0.35586798 0.09150391 0.11936651 -0.25966942 0.102682725 0.3126006 -0.06430728 -0.1376148 -0.12070742 0.00882627 -0.0059411046 0.0693945 -0.13967243 0.025305891 -0.118759364 -0.10702948 0.055071447 0.10552237 0.18597202 0.024729878 0.30084503 -0.07017771 -0.22312826 -0.20688392 -0.011211881 0.11880652 -0.093956724 -0.14914215 -0.078747764 -0.195908 -0.018886397
4 -0.19516388 -0.17333075 -0.002245143 -0.21638343 -0.0746356 -0.32788527 0.22736561 0.09817821 -0.2547351 0.25828055 0.51399446 0.37222558 -0.1825148 -0.0023824298 -0.018562807 -0.07193888 0.07947033 0.27216008 0.03570156 -0.041247133 0.22059728 0.021522272 0.088605165 0.034584757 0.15448761 -0.064075015 -0.13864708 0.1035962 0.24515598 -0.18445355 -0.29967678 -0.11685563 0.11190101 -0.038196392 -0.17716375 0.16161281 0.300715 -0.10583972 0.3560464 -0.10252078 0.3023997 0.27957234 -0.07619537 -0.2540237 0.029952304 0.17413555 -0.16257419 -0.20189366 0.18271929 -0.10599181 0.25802326 -0.016095938 0.039416503 -0.06134616 0.34607553 0.033408094 0.015009565 -0.38853887 0.18714164 -0.00089974934 0.37953478 -0.10784035 -0.2017293 0.22689411 -0.08534669 -0.10466233 0.19000854 0.36480704 -0.01840612 -0.08562442 0.13431919 0.024600007 0.0005168409 -0.17393601 -0.13939571 0.036280777 -0.030598946 0.08152894 0.18157023 0.33610764 -0.053909447 -0.086988196 -0.054773647 0.33325526 0.13355547 0.01939175 0.3207175 -0.27493235 0.3483996 0.17802837 -0.050821625 -0.0898194 -0.15677962 -0.07850302 0.2278315 -0.10902005 -0.24060461 -0.3771916 0.08706778 0.12773556 -0.12794131 0.4297824 0.17442171 -0.17407604 0.08106335 0.14243113 0.09779373 -0.17140909 0.108641624 -0.17553802 0.1627841 0.12142007 -0.1253859 -0.10098473 0.11231508 -0.027723541 0.0508155 0.30998856 0.052937876 -0.023541894 -0.20313969 0.1641626 -0.15013717 -0.011475432 -0.30871055 -0.11236436 -0.16822635 -0.15072376
